FANN_FLO_2.1
num_layers=3
learning_rate=0.700000
connection_rate=1.000000
network_type=0
learning_momentum=0.000000
training_algorithm=2
train_error_function=1
train_stop_function=0
cascade_output_change_fraction=0.010000
quickprop_decay=-0.000100
quickprop_mu=1.750000
rprop_increase_factor=1.200000
rprop_decrease_factor=0.500000
rprop_delta_min=0.000000
rprop_delta_max=50.000000
rprop_delta_zero=0.100000
cascade_output_stagnation_epochs=12
cascade_candidate_change_fraction=0.010000
cascade_candidate_stagnation_epochs=12
cascade_max_out_epochs=150
cascade_max_cand_epochs=150
cascade_num_candidate_groups=2
bit_fail_limit=3.49999994039535522461e-01
cascade_candidate_limit=1.00000000000000000000e+03
cascade_weight_multiplier=4.00000005960464477539e-01
cascade_activation_functions_count=10
cascade_activation_functions=3 5 7 8 10 11 14 15 16 17 
cascade_activation_steepnesses_count=4
cascade_activation_steepnesses=2.50000000000000000000e-01 5.00000000000000000000e-01 7.50000000000000000000e-01 1.00000000000000000000e+00 
layer_sizes=105 26 2 
scale_included=0
neurons (num_inputs, activation_function, activation_steepness)=(0, 0, 0.00000000000000000000e+00) (0, 0, 0.00000000000000000000e+00) (0, 0, 0.00000000000000000000e+00) (0, 0, 0.00000000000000000000e+00) (0, 0, 0.00000000000000000000e+00) (0, 0, 0.00000000000000000000e+00) (0, 0, 0.00000000000000000000e+00) (0, 0, 0.00000000000000000000e+00) (0, 0, 0.00000000000000000000e+00) (0, 0, 0.00000000000000000000e+00) (0, 0, 0.00000000000000000000e+00) (0, 0, 0.00000000000000000000e+00) (0, 0, 0.00000000000000000000e+00) (0, 0, 0.00000000000000000000e+00) (0, 0, 0.00000000000000000000e+00) (0, 0, 0.00000000000000000000e+00) (0, 0, 0.00000000000000000000e+00) (0, 0, 0.00000000000000000000e+00) (0, 0, 0.00000000000000000000e+00) (0, 0, 0.00000000000000000000e+00) (0, 0, 0.00000000000000000000e+00) (0, 0, 0.00000000000000000000e+00) (0, 0, 0.00000000000000000000e+00) (0, 0, 0.00000000000000000000e+00) (0, 0, 0.00000000000000000000e+00) (0, 0, 0.00000000000000000000e+00) (0, 0, 0.00000000000000000000e+00) (0, 0, 0.00000000000000000000e+00) (0, 0, 0.00000000000000000000e+00) (0, 0, 0.00000000000000000000e+00) (0, 0, 0.00000000000000000000e+00) (0, 0, 0.00000000000000000000e+00) (0, 0, 0.00000000000000000000e+00) (0, 0, 0.00000000000000000000e+00) (0, 0, 0.00000000000000000000e+00) (0, 0, 0.00000000000000000000e+00) (0, 0, 0.00000000000000000000e+00) (0, 0, 0.00000000000000000000e+00) (0, 0, 0.00000000000000000000e+00) (0, 0, 0.00000000000000000000e+00) (0, 0, 0.00000000000000000000e+00) (0, 0, 0.00000000000000000000e+00) (0, 0, 0.00000000000000000000e+00) (0, 0, 0.00000000000000000000e+00) (0, 0, 0.00000000000000000000e+00) (0, 0, 0.00000000000000000000e+00) (0, 0, 0.00000000000000000000e+00) (0, 0, 0.00000000000000000000e+00) (0, 0, 0.00000000000000000000e+00) (0, 0, 0.00000000000000000000e+00) (0, 0, 0.00000000000000000000e+00) (0, 0, 0.00000000000000000000e+00) (0, 0, 0.00000000000000000000e+00) (0, 0, 0.00000000000000000000e+00) (0, 0, 0.00000000000000000000e+00) (0, 0, 0.00000000000000000000e+00) (0, 0, 0.00000000000000000000e+00) (0, 0, 0.00000000000000000000e+00) (0, 0, 0.00000000000000000000e+00) (0, 0, 0.00000000000000000000e+00) (0, 0, 0.00000000000000000000e+00) (0, 0, 0.00000000000000000000e+00) (0, 0, 0.00000000000000000000e+00) (0, 0, 0.00000000000000000000e+00) (0, 0, 0.00000000000000000000e+00) (0, 0, 0.00000000000000000000e+00) (0, 0, 0.00000000000000000000e+00) (0, 0, 0.00000000000000000000e+00) (0, 0, 0.00000000000000000000e+00) (0, 0, 0.00000000000000000000e+00) (0, 0, 0.00000000000000000000e+00) (0, 0, 0.00000000000000000000e+00) (0, 0, 0.00000000000000000000e+00) (0, 0, 0.00000000000000000000e+00) (0, 0, 0.00000000000000000000e+00) (0, 0, 0.00000000000000000000e+00) (0, 0, 0.00000000000000000000e+00) (0, 0, 0.00000000000000000000e+00) (0, 0, 0.00000000000000000000e+00) (0, 0, 0.00000000000000000000e+00) (0, 0, 0.00000000000000000000e+00) (0, 0, 0.00000000000000000000e+00) (0, 0, 0.00000000000000000000e+00) (0, 0, 0.00000000000000000000e+00) (0, 0, 0.00000000000000000000e+00) (0, 0, 0.00000000000000000000e+00) (0, 0, 0.00000000000000000000e+00) (0, 0, 0.00000000000000000000e+00) (0, 0, 0.00000000000000000000e+00) (0, 0, 0.00000000000000000000e+00) (0, 0, 0.00000000000000000000e+00) (0, 0, 0.00000000000000000000e+00) (0, 0, 0.00000000000000000000e+00) (0, 0, 0.00000000000000000000e+00) (0, 0, 0.00000000000000000000e+00) (0, 0, 0.00000000000000000000e+00) (0, 0, 0.00000000000000000000e+00) (0, 0, 0.00000000000000000000e+00) (0, 0, 0.00000000000000000000e+00) (0, 0, 0.00000000000000000000e+00) (0, 0, 0.00000000000000000000e+00) (0, 0, 0.00000000000000000000e+00) (0, 0, 0.00000000000000000000e+00) (0, 0, 0.00000000000000000000e+00) (0, 0, 0.00000000000000000000e+00) (105, 5, 5.00000000000000000000e-01) (105, 5, 5.00000000000000000000e-01) (105, 5, 5.00000000000000000000e-01) (105, 5, 5.00000000000000000000e-01) (105, 5, 5.00000000000000000000e-01) (105, 5, 5.00000000000000000000e-01) (105, 5, 5.00000000000000000000e-01) (105, 5, 5.00000000000000000000e-01) (105, 5, 5.00000000000000000000e-01) (105, 5, 5.00000000000000000000e-01) (105, 5, 5.00000000000000000000e-01) (105, 5, 5.00000000000000000000e-01) (105, 5, 5.00000000000000000000e-01) (105, 5, 5.00000000000000000000e-01) (105, 5, 5.00000000000000000000e-01) (105, 5, 5.00000000000000000000e-01) (105, 5, 5.00000000000000000000e-01) (105, 5, 5.00000000000000000000e-01) (105, 5, 5.00000000000000000000e-01) (105, 5, 5.00000000000000000000e-01) (105, 5, 5.00000000000000000000e-01) (105, 5, 5.00000000000000000000e-01) (105, 5, 5.00000000000000000000e-01) (105, 5, 5.00000000000000000000e-01) (105, 5, 5.00000000000000000000e-01) (0, 5, 0.00000000000000000000e+00) (26, 5, 5.00000000000000000000e-01) (0, 5, 0.00000000000000000000e+00) 
connections (connected_to_neuron, weight)=(0, 1.41067337989807128906e+00) (1, 5.26431560516357421875e-01) (2, -6.69834792613983154297e-01) (3, -2.46335673332214355469e+00) (4, -7.33082532882690429688e-01) (5, -5.56100606918334960938e-01) (6, 4.46897447109222412109e-01) (7, 9.30215954780578613281e-01) (8, -3.91584277153015136719e-01) (9, 4.36440050601959228516e-01) (10, 2.06449627876281738281e+00) (11, -8.24495613574981689453e-01) (12, 5.53127944469451904297e-01) (13, -4.47920188307762145996e-02) (14, 1.05613946914672851562e-01) (15, 1.71353340148925781250e+00) (16, -3.62739235162734985352e-01) (17, 5.67709386348724365234e-01) (18, -2.73450195789337158203e-01) (19, 1.75250446796417236328e+00) (20, 5.03287792205810546875e-01) (21, 1.52510190010070800781e+00) (22, -3.69042664766311645508e-01) (23, 1.10207486152648925781e+00) (24, -7.20331907272338867188e-01) (25, 1.52309095859527587891e+00) (26, -8.14672589302062988281e-01) (27, 1.28299248218536376953e+00) (28, 1.25898361206054687500e-01) (29, -4.23898845911026000977e-01) (30, 1.83685243129730224609e+00) (31, -3.50287377834320068359e-01) (32, 9.19502377510070800781e-01) (33, 5.28874158859252929688e-01) (34, 7.79865682125091552734e-02) (35, -6.79388403892517089844e-01) (36, 9.87409591674804687500e-01) (37, -6.30848407745361328125e-01) (38, -9.39623832702636718750e-01) (39, -7.00730443000793457031e-01) (40, -7.60736227035522460938e-01) (41, 7.65310406684875488281e-01) (42, -4.10429596900939941406e-01) (43, 2.29122567176818847656e+00) (44, 1.62129604816436767578e+00) (45, 2.20667235553264617920e-02) (46, -1.34862208366394042969e+00) (47, -7.63170242309570312500e-01) (48, 4.12689745426177978516e-01) (49, 7.89746642112731933594e-01) (50, 1.31426125764846801758e-01) (51, 2.09136456251144409180e-01) (52, 8.75071287155151367188e-01) (53, 1.19640409946441650391e+00) (54, -4.09243553876876831055e-01) (55, -6.94856643676757812500e-01) (56, 1.05279588699340820312e+00) (57, -6.24908268451690673828e-01) (58, -1.80180406570434570312e+00) (59, -2.81585454940795898438e-01) (60, -7.84454166889190673828e-01) (61, 1.45401448011398315430e-01) (62, 2.31696218252182006836e-01) (63, -7.44245946407318115234e-01) (64, 2.99516767263412475586e-01) (65, -6.78989946842193603516e-01) (66, 6.53464868664741516113e-02) (67, 1.80244445800781250000e-01) (68, 9.45563018321990966797e-02) (69, 9.42894458770751953125e-01) (70, 9.46671485900878906250e-01) (71, -7.08974778652191162109e-01) (72, 9.57544505596160888672e-01) (73, 1.25075852870941162109e+00) (74, -3.35372984409332275391e-01) (75, -7.93900668621063232422e-01) (76, 4.15194392204284667969e-01) (77, -6.91866636276245117188e-01) (78, 5.15902757644653320312e-01) (79, -7.85904228687286376953e-01) (80, 8.72124135494232177734e-01) (81, 4.77451562881469726562e-01) (82, -7.70804584026336669922e-01) (83, -8.57713103294372558594e-01) (84, 1.28369271755218505859e+00) (85, -8.66856038570404052734e-01) (86, -4.30157691240310668945e-01) (87, 1.91271722316741943359e-01) (88, -1.84316968917846679688e+00) (89, -1.33686518669128417969e+00) (90, -8.34664106369018554688e-01) (91, -7.67557144165039062500e-01) (92, -7.50347614288330078125e-01) (93, -6.79338216781616210938e-01) (94, -8.54165017604827880859e-01) (95, -8.85154128074645996094e-01) (96, 1.35268688201904296875e+00) (97, 2.18170106410980224609e-01) (98, -2.15284872055053710938e+00) (99, 9.54517841339111328125e-01) (100, -8.61758768558502197266e-01) (101, -5.19209727644920349121e-02) (102, 7.97736406326293945312e-01) (103, 1.31540703773498535156e+00) (104, 2.71092009544372558594e+00) (0, 2.10215520858764648438e+00) (1, -8.21673989295959472656e-01) (2, -7.45293200016021728516e-01) (3, 3.20385873317718505859e-01) (4, -6.86613202095031738281e-01) (5, 5.67782700061798095703e-01) (6, -6.11447393894195556641e-01) (7, 1.27025032043457031250e+00) (8, 3.08769893646240234375e+00) (9, 5.91043829917907714844e-01) (10, -7.04402267932891845703e-01) (11, -8.68178546428680419922e-01) (12, -3.73724162578582763672e-01) (13, -9.51221883296966552734e-01) (14, -3.96804153919219970703e-01) (15, -7.04912543296813964844e-01) (16, 9.19638335704803466797e-01) (17, -5.85426330566406250000e-01) (18, -2.02782303094863891602e-01) (19, 8.96348536014556884766e-01) (20, 2.30349212884902954102e-01) (21, -4.83069837093353271484e-01) (22, 1.25152659416198730469e+00) (23, 9.60269331932067871094e-01) (24, 1.26912802457809448242e-01) (25, 9.30076062679290771484e-01) (26, -8.00599575042724609375e-01) (27, 1.16792905330657958984e+00) (28, 2.63695001602172851562e-01) (29, -7.93062448501586914062e-01) (30, 9.22944128513336181641e-01) (31, -6.00863277912139892578e-01) (32, 1.10771775245666503906e+00) (33, -7.88393139839172363281e-01) (34, 3.13411831855773925781e-01) (35, -8.15218687057495117188e-01) (36, -7.40586578845977783203e-01) (37, -5.64264893531799316406e-01) (38, -7.76902198791503906250e-01) (39, -8.09509873390197753906e-01) (40, 1.00224934518337249756e-01) (41, 1.83492064476013183594e+00) (42, -4.38614368438720703125e-01) (43, 1.20758461952209472656e+00) (44, -3.87244403362274169922e-01) (45, -7.42128193378448486328e-01) (46, 7.61510372161865234375e-01) (47, -9.46278631687164306641e-01) (48, 2.81058907508850097656e-01) (49, -8.63037109375000000000e-01) (50, 1.02944463491439819336e-01) (51, 5.06641387939453125000e-01) (52, -3.30251634120941162109e-01) (53, 3.13032150268554687500e-01) (54, 1.41254234313964843750e+00) (55, -5.25293767452239990234e-01) (56, -7.66132593154907226562e-01) (57, 9.15438234806060791016e-01) (58, -5.92881917953491210938e-01) (59, -1.10771965980529785156e+00) (60, -7.89766371250152587891e-01) (61, -3.53459954261779785156e-01) (62, -3.40853750705718994141e-01) (63, -8.56073021888732910156e-01) (64, -7.82603561878204345703e-01) (65, -6.79341137409210205078e-01) (66, 1.43608260154724121094e+00) (67, 5.57637214660644531250e-01) (68, 2.16464066505432128906e+00) (69, -4.99137997627258300781e-01) (70, -3.65279257297515869141e-01) (71, -3.68712693452835083008e-01) (72, -8.42719256877899169922e-01) (73, 1.99114000797271728516e+00) (74, 1.33291172981262207031e+00) (75, 1.58201003074645996094e+00) (76, 2.05001235008239746094e+00) (77, -8.28932464122772216797e-01) (78, 1.95460844039916992188e+00) (79, 7.77549803256988525391e-01) (80, -3.71013253927230834961e-01) (81, 9.30339574813842773438e-01) (82, 8.37551176548004150391e-01) (83, -4.26387965679168701172e-01) (84, 7.89477467536926269531e-01) (85, 1.24242030084133148193e-01) (86, -6.81450843811035156250e-01) (87, -4.96993869543075561523e-01) (88, -7.73666083812713623047e-01) (89, -6.57363295555114746094e-01) (90, 8.39403092861175537109e-01) (91, -7.48531222343444824219e-01) (92, 1.24493777751922607422e+00) (93, -4.83963251113891601562e-01) (94, -7.01465487480163574219e-01) (95, -6.68355643749237060547e-01) (96, -3.10476362705230712891e-01) (97, 2.14631825685501098633e-01) (98, 2.19057530164718627930e-01) (99, -7.67150938510894775391e-01) (100, -7.65687942504882812500e-01) (101, 1.15439164638519287109e+00) (102, -6.36539697647094726562e-01) (103, 3.12554168701171875000e+00) (104, 2.26249837875366210938e+00) (0, -1.18279647827148437500e+00) (1, -2.25234198570251464844e+00) (2, 8.44152152538299560547e-01) (3, 1.37105178833007812500e+00) (4, -8.22974920272827148438e-01) (5, -8.48592817783355712891e-01) (6, -4.13327783346176147461e-01) (7, -6.13845959305763244629e-02) (8, -8.14221084117889404297e-01) (9, 1.30412459373474121094e+00) (10, 9.68917667865753173828e-01) (11, -8.60065162181854248047e-01) (12, 1.28760850429534912109e+00) (13, -7.41828501224517822266e-01) (14, 1.16882097721099853516e+00) (15, 8.98678243160247802734e-01) (16, -2.84158527851104736328e-01) (17, 5.31181871891021728516e-01) (18, 1.21182358264923095703e+00) (19, 9.29396927356719970703e-01) (20, -7.77164816856384277344e-01) (21, 1.23341131210327148438e+00) (22, -4.98835384845733642578e-01) (23, -5.04953324794769287109e-01) (24, 1.82950705289840698242e-01) (25, -3.40301185846328735352e-01) (26, -8.27365994453430175781e-01) (27, 1.19738912582397460938e+00) (28, 2.49109923839569091797e-01) (29, 6.13119006156921386719e-01) (30, 4.50307354331016540527e-02) (31, 4.66967761516571044922e-01) (32, -4.63056117296218872070e-01) (33, 5.17929673194885253906e-01) (34, 6.20350778102874755859e-01) (35, -7.28792369365692138672e-01) (36, -6.59507215023040771484e-01) (37, -4.61072623729705810547e-01) (38, -7.28044331073760986328e-01) (39, -7.02173531055450439453e-01) (40, 2.22311645746231079102e-01) (41, 1.05528116226196289062e+00) (42, -3.12629699707031250000e-01) (43, 2.16031956672668457031e+00) (44, 6.71267032623291015625e-01) (45, 1.54857724905014038086e-01) (46, 2.38731816411018371582e-01) (47, 2.59782850742340087891e-01) (48, 3.63001346588134765625e-01) (49, -7.47114598751068115234e-01) (50, 1.28147530555725097656e+00) (51, 4.92613911628723144531e-01) (52, -8.67882847785949707031e-01) (53, 2.86308825016021728516e-01) (54, -3.52501690387725830078e-01) (55, -7.44276404380798339844e-01) (56, 1.02013015747070312500e+00) (57, 7.41066694259643554688e-01) (58, -2.55001932382583618164e-01) (59, 9.09622192382812500000e-01) (60, 7.28182077407836914062e-01) (61, 7.96097576618194580078e-01) (62, 6.12060666084289550781e-01) (63, -7.06955850124359130859e-01) (64, 1.87175959348678588867e-01) (65, -6.79376065731048583984e-01) (66, 2.22821265459060668945e-01) (67, 2.06434726715087890625e-01) (68, -6.67901813983917236328e-01) (69, -6.82868838310241699219e-01) (70, 8.68344962596893310547e-01) (71, -7.78473556041717529297e-01) (72, -8.30371379852294921875e-01) (73, -7.34371721744537353516e-01) (74, 1.01425385475158691406e+00) (75, -8.33566725254058837891e-01) (76, 4.93060708045959472656e-01) (77, -7.35783576965332031250e-01) (78, -8.21231007575988769531e-01) (79, 6.04308366775512695312e-01) (80, 8.50346922874450683594e-01) (81, -6.63044691085815429688e-01) (82, -6.92037761211395263672e-01) (83, 2.73628091812133789062e+00) (84, -7.78094232082366943359e-01) (85, -2.48765915632247924805e-01) (86, -8.36513400077819824219e-01) (87, -4.69663828611373901367e-01) (88, 6.11477121710777282715e-02) (89, 8.05598497390747070312e-01) (90, 4.64995205402374267578e-01) (91, -8.12127292156219482422e-01) (92, -3.16296368837356567383e-01) (93, -3.69588017463684082031e-01) (94, -8.10772836208343505859e-01) (95, -8.47274005413055419922e-01) (96, 6.16677343845367431641e-01) (97, -7.66872406005859375000e-01) (98, 1.88308930397033691406e+00) (99, -7.32559323310852050781e-01) (100, -8.59800875186920166016e-01) (101, -2.85291701555252075195e-01) (102, -8.13985407352447509766e-01) (103, 2.96021652221679687500e+00) (104, 2.56952047348022460938e+00) (0, -2.08256077766418457031e+00) (1, 2.44114637374877929688e+00) (2, -7.21354782581329345703e-01) (3, -9.44073796272277832031e-01) (4, 1.71260535717010498047e-01) (5, -3.28075599670410156250e+00) (6, -1.03008544445037841797e+00) (7, 6.11905455589294433594e-01) (8, -3.11900615692138671875e-01) (9, -6.99023306369781494141e-01) (10, 6.99101448059082031250e-01) (11, -5.24708665907382965088e-02) (12, -2.65155911445617675781e+00) (13, -7.91584849357604980469e-01) (14, 1.55589473247528076172e+00) (15, -6.78514480590820312500e-01) (16, -3.87859404087066650391e-01) (17, -1.54868924617767333984e+00) (18, 1.25757050514221191406e+00) (19, 2.70157396793365478516e-01) (20, 5.66590261459350585938e+00) (21, -1.50599613785743713379e-01) (22, 3.55806970596313476562e+00) (23, 1.44059305191040039062e+01) (24, -1.16766691207885742188e+00) (25, 3.94626712799072265625e+00) (26, 2.96876502037048339844e+00) (27, -6.78107440471649169922e-01) (28, 3.71001362800598144531e+00) (29, -7.61149227619171142578e-01) (30, -3.04860091209411621094e+00) (31, 1.50357687473297119141e+00) (32, -1.91958546638488769531e+00) (33, 2.48625469207763671875e+00) (34, 2.06794917583465576172e-01) (35, -7.89185225963592529297e-01) (36, 3.09908533096313476562e+00) (37, -1.57539331912994384766e+00) (38, -1.80016770958900451660e-01) (39, -1.21424579620361328125e+00) (40, -2.59949922561645507812e+00) (41, 2.40337467193603515625e+00) (42, 4.89550888538360595703e-01) (43, 4.02851915359497070312e+00) (44, -1.01041719317436218262e-01) (45, 7.53587186336517333984e-01) (46, 6.15766763687133789062e-01) (47, -2.93244570493698120117e-01) (48, -5.09990990161895751953e-01) (49, 2.23738281056284904480e-03) (50, -2.10522323846817016602e-01) (51, 1.24269247055053710938e+00) (52, 6.28921222686767578125e+00) (53, -1.03209054470062255859e+00) (54, -1.73201952129602432251e-02) (55, 1.27109777927398681641e+00) (56, 8.49258065223693847656e-01) (57, 5.21621704101562500000e-01) (58, -7.71674394607543945312e-01) (59, 8.72597038745880126953e-01) (60, -1.27484107017517089844e+00) (61, 8.35733674466609954834e-03) (62, -3.21567714214324951172e-01) (63, -7.12421417236328125000e-01) (64, 1.77761518955230712891e+00) (65, 1.48792415857315063477e-01) (66, -3.12771129608154296875e+00) (67, 5.20036339759826660156e-01) (68, 5.11126518249511718750e-01) (69, 2.15237468481063842773e-01) (70, -1.65475869178771972656e+00) (71, -4.61411893367767333984e-01) (72, 2.53087878227233886719e-01) (73, 2.18622612953186035156e+00) (74, 1.18872570991516113281e+00) (75, -5.04917085170745849609e-01) (76, 1.05979943275451660156e+00) (77, -6.73608556389808654785e-02) (78, 1.01518106460571289062e+00) (79, 1.97232568264007568359e+00) (80, 2.37732076644897460938e+00) (81, 1.91434872150421142578e+00) (82, -6.02024570107460021973e-02) (83, 5.39835095405578613281e-01) (84, -8.79348456859588623047e-01) (85, -1.66872620582580566406e+00) (86, -7.64650583267211914062e-01) (87, -1.88076269626617431641e+00) (88, -1.03454053401947021484e+00) (89, -2.65625387430191040039e-01) (90, -8.63394856452941894531e-01) (91, -3.87137174606323242188e-01) (92, 4.88795995712280273438e-01) (93, -6.24572455883026123047e-01) (94, 1.11817657947540283203e-01) (95, -6.07969999313354492188e-01) (96, 2.18890404701232910156e+00) (97, 1.16594068706035614014e-01) (98, -1.49314689636230468750e+00) (99, 2.27046847343444824219e-01) (100, 2.21843510866165161133e-01) (101, 4.24232780933380126953e-01) (102, -4.32440668344497680664e-01) (103, 2.36167955398559570312e+00) (104, 1.58003067970275878906e+00) (0, -7.19480323791503906250e+00) (1, 1.53853774070739746094e+00) (2, 1.60177636146545410156e+00) (3, -2.00802683830261230469e-01) (4, 1.50481057167053222656e+00) (5, 1.49202644824981689453e+00) (6, 1.97921502590179443359e+00) (7, 1.12722460180521011353e-02) (8, -2.28295688629150390625e+01) (9, 1.91912782192230224609e+00) (10, -1.04834737777709960938e+01) (11, -3.93200129270553588867e-01) (12, 1.87341868877410888672e+00) (13, -3.25366169214248657227e-01) (14, 6.67790293693542480469e-01) (15, 2.28338450193405151367e-01) (16, 3.86544466018676757812e-01) (17, 1.54694175720214843750e+00) (18, 4.29371356964111328125e-01) (19, -7.38840007781982421875e+00) (20, 7.25039243698120117188e-01) (21, 1.95840525627136230469e+00) (22, 5.97041845321655273438e-01) (23, -6.97453784942626953125e+00) (24, 1.89801144599914550781e+00) (25, 1.48456144332885742188e+00) (26, 1.52787888050079345703e+00) (27, -2.32910060882568359375e+00) (28, -2.05878447741270065308e-03) (29, 1.53950500488281250000e+00) (30, 1.52087080478668212891e+00) (31, 6.35764241218566894531e-01) (32, 1.95092821121215820312e+00) (33, 1.93996024131774902344e+00) (34, 1.54280757904052734375e+00) (35, 1.94075620174407958984e+00) (36, 1.58411657810211181641e+00) (37, 1.80073344707489013672e+00) (38, 1.53071939945220947266e+00) (39, 1.53559899330139160156e+00) (40, 1.45494067668914794922e+00) (41, 5.21637678146362304688e-01) (42, 1.85434532165527343750e+00) (43, 2.32018923759460449219e+00) (44, 1.95083892345428466797e+00) (45, 6.40038490295410156250e-01) (46, 1.51909124851226806641e+00) (47, 1.79768085479736328125e+00) (48, 1.52330923080444335938e+00) (49, 1.51223361492156982422e+00) (50, 1.40726244449615478516e+00) (51, 4.01665866374969482422e-01) (52, 1.46680867671966552734e+00) (53, 1.92841076850891113281e+00) (54, 1.85845303535461425781e+00) (55, 2.28980034589767456055e-01) (56, 1.80234932899475097656e+00) (57, 2.90950000286102294922e-01) (58, 1.86269867420196533203e+00) (59, 1.39785432815551757812e+00) (60, 1.49499857425689697266e+00) (61, 1.53674626350402832031e+00) (62, 2.78867816925048828125e+00) (63, 1.40311336517333984375e+00) (64, 3.32608890533447265625e+00) (65, 1.56405687332153320312e+00) (66, 3.38539671897888183594e+00) (67, 1.42844784259796142578e+00) (68, 2.58404712677001953125e+01) (69, 6.84903182983398437500e+01) (70, 7.71042823791503906250e-01) (71, 1.52786242961883544922e+00) (72, 1.50516915321350097656e+00) (73, 1.73449909687042236328e+00) (74, 3.55584740638732910156e-01) (75, 1.25318610668182373047e+00) (76, 7.27628827095031738281e-01) (77, 1.57341015338897705078e+00) (78, 1.36963582038879394531e+00) (79, -1.94220781326293945312e-01) (80, 1.76925122737884521484e+00) (81, 1.90622305870056152344e+00) (82, 1.39778864383697509766e+00) (83, 1.84720921516418457031e+00) (84, 1.48484981060028076172e+00) (85, 2.34215641021728515625e+00) (86, 3.17970395088195800781e-01) (87, 1.88289535045623779297e+00) (88, 2.26418113708496093750e+00) (89, 1.42404317855834960938e+00) (90, 1.39732539653778076172e+00) (91, 1.52101373672485351562e+00) (92, 1.86914062500000000000e+00) (93, 1.80976617336273193359e+00) (94, 1.60194933414459228516e+00) (95, 1.53331112861633300781e+00) (96, 1.66272997856140136719e+00) (97, -1.16323435306549072266e+00) (98, 1.50620365142822265625e+00) (99, 1.43564081192016601562e+00) (100, 1.46036839485168457031e+00) (101, 1.94616663455963134766e+00) (102, -3.49746656417846679688e+00) (103, 6.88810205459594726562e+00) (104, 4.50903207063674926758e-01) (0, 1.70188283920288085938e+00) (1, 8.58682811260223388672e-01) (2, 7.07566916942596435547e-01) (3, 5.40968275070190429688e+00) (4, 1.37440836429595947266e+00) (5, 5.16060018539428710938e+00) (6, 1.22146940231323242188e+00) (7, 2.18774771690368652344e+00) (8, -2.10117554664611816406e+00) (9, 1.94864407181739807129e-01) (10, 5.76950788497924804688e+00) (11, 3.47112917900085449219e+00) (12, 3.66758257150650024414e-01) (13, -5.30463361740112304688e+00) (14, 2.28060650825500488281e+00) (15, 2.38685345649719238281e+00) (16, 6.18875074386596679688e+00) (17, 1.00432956218719482422e+00) (18, -3.91269363462924957275e-02) (19, 2.90960240364074707031e+00) (20, -2.36130499839782714844e+00) (21, 1.88414967060089111328e+00) (22, 2.12897872924804687500e+00) (23, 3.62282943725585937500e+00) (24, -7.43955183029174804688e+00) (25, 1.10404288768768310547e+00) (26, 1.36712476611137390137e-01) (27, -7.96749770641326904297e-01) (28, 1.26867413520812988281e+00) (29, 1.01914465427398681641e+00) (30, 1.97073173522949218750e+00) (31, -3.89314723014831542969e+00) (32, 1.17200815677642822266e+00) (33, 1.12493209540843963623e-01) (34, 2.96443915367126464844e+00) (35, 2.37809777259826660156e+00) (36, 8.18300664424896240234e-01) (37, 5.83427429199218750000e+00) (38, 8.76464664936065673828e-01) (39, 6.40569150447845458984e-01) (40, 2.94467639923095703125e+00) (41, -6.35483503341674804688e+00) (42, 2.94118553400039672852e-01) (43, -8.02867889404296875000e-01) (44, 9.18118476867675781250e-01) (45, 1.68666517734527587891e+00) (46, 2.51805853843688964844e+00) (47, 1.53086021542549133301e-01) (48, -9.21647101640701293945e-02) (49, -7.65644669532775878906e-01) (50, 7.33202040195465087891e-01) (51, 2.65428495407104492188e+00) (52, 6.12550199031829833984e-01) (53, 9.28109347820281982422e-01) (54, 1.40534806251525878906e+00) (55, 1.82423603534698486328e+00) (56, 1.92148530483245849609e+00) (57, 6.62868320941925048828e-01) (58, 3.84244509041309356689e-02) (59, -3.53975564241409301758e-01) (60, 6.34314835071563720703e-01) (61, 7.70879685878753662109e-01) (62, -2.92179614305496215820e-01) (63, 7.40801751613616943359e-01) (64, -3.63621950149536132812e-01) (65, 6.22125208377838134766e-01) (66, -1.48409605026245117188e-01) (67, 1.09950757026672363281e+00) (68, 6.50389969348907470703e-01) (69, -2.38181457519531250000e+01) (70, 2.29507756233215332031e+00) (71, 2.39102506637573242188e+00) (72, 2.45689916610717773438e+00) (73, 1.04547476768493652344e+00) (74, 2.90828973054885864258e-01) (75, 6.54253780841827392578e-01) (76, 3.05564492940902709961e-01) (77, 6.26671731472015380859e-01) (78, 5.95860421657562255859e-01) (79, 7.30266511440277099609e-01) (80, -1.82162210345268249512e-01) (81, -3.12337703704833984375e+01) (82, -5.52379012107849121094e-01) (83, 2.11932823061943054199e-01) (84, 4.28816229104995727539e-01) (85, -2.76637285947799682617e-01) (86, 7.01695024967193603516e-01) (87, 3.09197515249252319336e-01) (88, -1.47225990891456604004e-01) (89, 2.61067914962768554688e+00) (90, 6.20759189128875732422e-01) (91, 7.41809427738189697266e-01) (92, 3.72209876775741577148e-01) (93, 1.93248939514160156250e+00) (94, 7.70412743091583251953e-01) (95, 6.43868982791900634766e-01) (96, 3.10474246740341186523e-01) (97, 7.96707093715667724609e-01) (98, 6.50395929813385009766e-01) (99, 8.09979259967803955078e-01) (100, 7.62889325618743896484e-01) (101, 2.29916021227836608887e-01) (102, 1.65182828903198242188e+00) (103, 8.46012949943542480469e-01) (104, 1.30624926090240478516e+00) (0, 2.21154975891113281250e+00) (1, 1.43868279457092285156e+00) (2, 1.64948427677154541016e+00) (3, 1.60095429420471191406e+00) (4, 1.55958509445190429688e+00) (5, 1.39029014110565185547e+00) (6, 1.89527332782745361328e+00) (7, 1.82953417301177978516e+00) (8, -3.95792999267578125000e+01) (9, 1.80256652832031250000e+00) (10, -3.36055068969726562500e+01) (11, 9.90338802337646484375e-01) (12, 1.86175799369812011719e+00) (13, 1.50846660137176513672e+00) (14, 1.79530346393585205078e+00) (15, 1.40094888210296630859e+00) (16, 1.64076530933380126953e+00) (17, 1.47901749610900878906e+00) (18, 1.34468340873718261719e+00) (19, -1.00670747756958007812e+01) (20, 2.47950649261474609375e+00) (21, 1.89373791217803955078e+00) (22, 1.77330195903778076172e+00) (23, -9.68055248260498046875e+00) (24, 1.90197658538818359375e+00) (25, 1.45402908325195312500e+00) (26, 1.56759285926818847656e+00) (27, 7.03985273838043212891e-01) (28, 1.55961418151855468750e+00) (29, 1.41148269176483154297e+00) (30, 1.44478344917297363281e+00) (31, 1.85860693454742431641e+00) (32, 1.94559156894683837891e+00) (33, 1.84799313545227050781e+00) (34, 1.43004846572875976562e+00) (35, 1.94567465782165527344e+00) (36, 1.49809277057647705078e+00) (37, 1.91110146045684814453e+00) (38, 1.43736076354980468750e+00) (39, 1.42503070831298828125e+00) (40, 1.55553305149078369141e+00) (41, 3.20810866355895996094e+00) (42, 1.86431360244750976562e+00) (43, 2.36527991294860839844e+00) (44, 1.90593659877777099609e+00) (45, 2.33316230773925781250e+00) (46, 2.17873740196228027344e+00) (47, 1.73687613010406494141e+00) (48, 1.53923428058624267578e+00) (49, 1.36896729469299316406e+00) (50, 1.44555318355560302734e+00) (51, 1.85862863063812255859e+00) (52, 1.50009775161743164062e+00) (53, 1.73931181430816650391e+00) (54, 1.97995400428771972656e+00) (55, -3.46324145793914794922e-01) (56, 1.79408240318298339844e+00) (57, 1.37641835212707519531e+00) (58, 1.77735364437103271484e+00) (59, 1.44864678382873535156e+00) (60, 1.42306506633758544922e+00) (61, 1.42222762107849121094e+00) (62, 2.75106453895568847656e+00) (63, 1.48337996006011962891e+00) (64, 2.31968164443969726562e+00) (65, 1.54573822021484375000e+00) (66, 2.20753407478332519531e+00) (67, 1.35289871692657470703e+00) (68, 1.59481370449066162109e+00) (69, 3.44478454589843750000e+01) (70, 1.42982947826385498047e+00) (71, 1.57668030261993408203e+00) (72, 1.54588198661804199219e+00) (73, 1.55770802497863769531e+00) (74, 1.54642820358276367188e+00) (75, 1.45034575462341308594e+00) (76, 1.94555187225341796875e+00) (77, 1.43091750144958496094e+00) (78, 7.01714873313903808594e-01) (79, 1.50756752490997314453e+00) (80, 1.84628105163574218750e+00) (81, 4.82952537536621093750e+01) (82, 1.49448156356811523438e+00) (83, 1.96816337108612060547e+00) (84, 9.63752508163452148438e-01) (85, 2.26302075386047363281e+00) (86, 1.51207625865936279297e+00) (87, 1.87175536155700683594e+00) (88, 2.21428298950195312500e+00) (89, 1.46182906627655029297e+00) (90, 1.54152929782867431641e+00) (91, 1.42447507381439208984e+00) (92, 1.83593177795410156250e+00) (93, 1.87725210189819335938e+00) (94, 1.42781543731689453125e+00) (95, 1.50159633159637451172e+00) (96, 1.85779464244842529297e+00) (97, 1.12588644027709960938e+00) (98, 1.54638719558715820312e+00) (99, 1.53009712696075439453e+00) (100, 1.54362416267395019531e+00) (101, 6.45380496978759765625e+00) (102, 1.93755877017974853516e+00) (103, 1.11745290458202362061e-01) (104, 2.49236866831779479980e-01) (0, 5.43363714218139648438e+00) (1, 1.37953555583953857422e+00) (2, 1.72119951248168945312e+00) (3, 1.57971549034118652344e+00) (4, 1.48222839832305908203e+00) (5, 1.43923854827880859375e+00) (6, 1.93838310241699218750e+00) (7, 1.72643017768859863281e+00) (8, -5.49159469604492187500e+01) (9, 1.89659428596496582031e+00) (10, -1.85339202880859375000e+01) (11, 1.11930656433105468750e+00) (12, 1.84042882919311523438e+00) (13, 1.27508234977722167969e+00) (14, 7.02394127845764160156e-01) (15, 3.00799906253814697266e-01) (16, 3.89858543872833251953e-01) (17, 1.56540131568908691406e+00) (18, 5.49195408821105957031e-01) (19, -5.91299486160278320312e+00) (20, 2.41034817695617675781e+00) (21, 1.88048982620239257812e+00) (22, 6.62199735641479492188e-01) (23, -7.45583343505859375000e+00) (24, 1.82670617103576660156e+00) (25, 2.09080934524536132812e-01) (26, 1.49507117271423339844e+00) (27, 8.63888204097747802734e-01) (28, 2.19726979732513427734e-01) (29, 1.58470487594604492188e+00) (30, 1.47800052165985107422e+00) (31, 5.47818899154663085938e-01) (32, 1.86294853687286376953e+00) (33, 6.16972744464874267578e-01) (34, 1.50443935394287109375e+00) (35, 1.80394840240478515625e+00) (36, 1.55893731117248535156e+00) (37, 1.75658011436462402344e+00) (38, 1.49487459659576416016e+00) (39, 1.41053771972656250000e+00) (40, 1.43409669399261474609e+00) (41, 1.96426701545715332031e+00) (42, 1.94802343845367431641e+00) (43, 2.29946756362915039062e+00) (44, 1.79002165794372558594e+00) (45, 2.23794269561767578125e+00) (46, 2.25251150131225585938e+00) (47, 6.01091086864471435547e-01) (48, 1.50600016117095947266e+00) (49, 1.42798471450805664062e+00) (50, 1.48757374286651611328e+00) (51, 5.98622500896453857422e-01) (52, 1.36886656284332275391e+00) (53, 1.84140825271606445312e+00) (54, 1.99709093570709228516e+00) (55, -7.10255479812622070312e+00) (56, 1.76270616054534912109e+00) (57, 3.01109313964843750000e-01) (58, 1.90700185298919677734e+00) (59, 1.56059610843658447266e+00) (60, 1.43304657936096191406e+00) (61, 1.51475000381469726562e+00) (62, 2.62075161933898925781e+00) (63, 1.37669634819030761719e+00) (64, 2.35895752906799316406e+00) (65, 1.41878283023834228516e+00) (66, 2.29102706909179687500e+00) (67, 1.39450728893280029297e+00) (68, 1.62439107894897460938e+00) (69, 3.39280242919921875000e+01) (70, 6.76640391349792480469e-01) (71, 1.42903840541839599609e+00) (72, 1.73991584777832031250e+00) (73, 1.66877841949462890625e+00) (74, 3.48265111446380615234e-01) (75, 1.50491130352020263672e+00) (76, 8.60032677650451660156e-01) (77, 1.42373061180114746094e+00) (78, 1.58130013942718505859e+00) (79, 1.44219565391540527344e+00) (80, 1.72785151004791259766e+00) (81, 3.63509140014648437500e+01) (82, 1.45662724971771240234e+00) (83, 1.95669066905975341797e+00) (84, 2.05609726905822753906e+00) (85, 2.35660910606384277344e+00) (86, 3.58551084995269775391e-01) (87, 1.94188165664672851562e+00) (88, 2.32924842834472656250e+00) (89, 1.46593487262725830078e+00) (90, 1.45316100120544433594e+00) (91, 1.36724603176116943359e+00) (92, 1.94010007381439208984e+00) (93, 6.52462184429168701172e-01) (94, 1.53802192211151123047e+00) (95, 1.40849447250366210938e+00) (96, 2.12091684341430664062e+00) (97, 1.11285126209259033203e+00) (98, 1.46386384963989257812e+00) (99, 1.49158895015716552734e+00) (100, 1.41308677196502685547e+00) (101, 1.13465147018432617188e+01) (102, 1.73933291435241699219e+00) (103, 2.30804935097694396973e-01) (104, 2.40057960152626037598e-01) (0, 5.10622382164001464844e-01) (1, 7.88957059383392333984e-01) (2, 7.94358789920806884766e-01) (3, 1.80602848529815673828e-01) (4, -7.12034642696380615234e-01) (5, -6.81744992733001708984e-01) (6, 2.22325086593627929688e+00) (7, 5.06008148193359375000e-01) (8, 1.50197595357894897461e-01) (9, -3.79699468612670898438e-01) (10, 1.08896768093109130859e+00) (11, 1.62789136171340942383e-01) (12, 2.06223440170288085938e+00) (13, -7.24628210067749023438e-01) (14, 1.24589717388153076172e+00) (15, 1.02723491191864013672e+00) (16, -7.18871593475341796875e-01) (17, -7.05723822116851806641e-01) (18, 7.69875273108482360840e-02) (19, 1.10075259208679199219e+00) (20, -1.93368956446647644043e-01) (21, 9.61421251296997070312e-01) (22, -7.20498025417327880859e-01) (23, 1.11599159240722656250e+00) (24, 1.31467014551162719727e-01) (25, -7.15580463409423828125e-01) (26, -7.50205755233764648438e-01) (27, -7.63240277767181396484e-01) (28, 2.71102964878082275391e-01) (29, -7.62089669704437255859e-01) (30, 1.74161255359649658203e-01) (31, -4.51473206281661987305e-01) (32, -7.96993017196655273438e-01) (33, -7.70274817943572998047e-01) (34, 1.92157578468322753906e+00) (35, -8.19736957550048828125e-01) (36, -7.24181354045867919922e-01) (37, -4.73483026027679443359e-01) (38, -7.88038492202758789062e-01) (39, -6.86251997947692871094e-01) (40, -7.50779271125793457031e-01) (41, 8.49436521530151367188e-01) (42, -4.13245022296905517578e-01) (43, 2.20466184616088867188e+00) (44, 1.19012856483459472656e+00) (45, 2.09183633327484130859e-01) (46, 1.95510852336883544922e+00) (47, 1.93381831049919128418e-01) (48, -8.19639444351196289062e-01) (49, -6.99089586734771728516e-01) (50, -8.67093622684478759766e-01) (51, -3.64108115434646606445e-01) (52, -3.09497684240341186523e-01) (53, -7.20781207084655761719e-01) (54, 2.39499974250793457031e+00) (55, 1.09008026123046875000e+00) (56, -1.63615560531616210938e+00) (57, -8.54610443115234375000e-01) (58, -6.59005463123321533203e-01) (59, -1.05805361270904541016e+00) (60, 7.66037344932556152344e-01) (61, 2.01363116502761840820e-01) (62, 5.90962290763854980469e-01) (63, -7.27368772029876708984e-01) (64, 1.50183886289596557617e-01) (65, 7.42048323154449462891e-01) (66, 1.89413458108901977539e-01) (67, -7.83088147640228271484e-01) (68, -4.69656080007553100586e-01) (69, -7.47721791267395019531e-01) (70, 8.78909826278686523438e-01) (71, -6.99708580970764160156e-01) (72, -8.76255512237548828125e-01) (73, 7.96495378017425537109e-01) (74, -1.21066021919250488281e+00) (75, -1.75324857234954833984e-01) (76, -2.92905598878860473633e-01) (77, -7.82971501350402832031e-01) (78, -7.24170386791229248047e-01) (79, -8.50888192653656005859e-02) (80, 1.21722388267517089844e+00) (81, -7.57220923900604248047e-01) (82, 1.69579565525054931641e-01) (83, 1.30236089229583740234e-01) (84, -8.40479791164398193359e-01) (85, 1.76188409328460693359e-01) (86, -7.20693469047546386719e-01) (87, 1.03966450691223144531e+00) (88, 1.77691459655761718750e+00) (89, 3.25766026973724365234e-01) (90, -8.36067140102386474609e-01) (91, -7.96403288841247558594e-01) (92, 1.12884414196014404297e+00) (93, -3.66285949945449829102e-01) (94, -8.17366719245910644531e-01) (95, -6.69083237648010253906e-01) (96, 1.17905724048614501953e+00) (97, -8.40447127819061279297e-01) (98, -6.90442681312561035156e-01) (99, -2.08170980215072631836e-01) (100, -7.02567219734191894531e-01) (101, 1.43837380409240722656e+00) (102, 1.81066811084747314453e-01) (103, 1.86049962043762207031e+00) (104, 2.72174835205078125000e+00) (0, -5.36790132522583007812e-01) (1, 4.73565876483917236328e-01) (2, 5.32003223896026611328e-01) (3, 2.09205889701843261719e+00) (4, 4.74429309368133544922e-01) (5, 3.92490088939666748047e-01) (6, 8.93967032432556152344e-01) (7, 2.31537199020385742188e+00) (8, -1.47988176345825195312e+01) (9, 7.52349138259887695312e-01) (10, -1.30410686135292053223e-01) (11, 1.76367402076721191406e+00) (12, 8.16397786140441894531e-01) (13, -1.66919097304344177246e-01) (14, 2.00521135330200195312e+00) (15, 4.69265699386596679688e-01) (16, 1.73504400253295898438e+00) (17, 2.07203841209411621094e+00) (18, 2.01141190528869628906e+00) (19, 4.70730841159820556641e-01) (20, 7.41928756237030029297e-01) (21, 1.36798357963562011719e+00) (22, 2.14037251472473144531e+00) (23, -2.02691960334777832031e+00) (24, 2.34135103225708007812e+00) (25, -3.03962647914886474609e-01) (26, 4.53561484813690185547e-01) (27, 6.99059247970581054688e-01) (28, -9.26546382904052734375e+00) (29, 1.78959476947784423828e+00) (30, 9.00200366973876953125e-01) (31, -1.20289421081542968750e+01) (32, 1.99046885967254638672e+00) (33, 2.14551472663879394531e+00) (34, 9.73975062370300292969e-01) (35, 2.71474808454513549805e-01) (36, 1.62730622291564941406e+00) (37, 6.95016026496887207031e-01) (38, 1.68127620220184326172e+00) (39, 4.38817679882049560547e-01) (40, 4.74072158336639404297e-01) (41, -1.00153601169586181641e+00) (42, 9.00092840194702148438e-01) (43, 7.12213873863220214844e-01) (44, 2.12667131423950195312e+00) (45, -1.66707742214202880859e+00) (46, 8.57714748382568359375e+00) (47, 5.37352383136749267578e-01) (48, 1.94560694694519042969e+00) (49, 1.62502205371856689453e+00) (50, 1.73947620391845703125e+00) (51, 2.16582798957824707031e+00) (52, 1.73151457309722900391e+00) (53, -2.61995267868041992188e+00) (54, 2.08143210411071777344e+00) (55, 2.25134468078613281250e+00) (56, 2.10346341133117675781e+00) (57, 1.57268047332763671875e+00) (58, 1.54757201671600341797e+00) (59, -1.15911805629730224609e+00) (60, 3.71263742446899414062e-01) (61, 1.44836032390594482422e+00) (62, 1.21410787105560302734e-01) (63, 4.33112025260925292969e-01) (64, 4.52503979206085205078e-01) (65, 4.81505036354064941406e-01) (66, -3.09651446342468261719e+00) (67, 2.45424914360046386719e+00) (68, 2.71144628524780273438e-01) (69, -2.40736083984375000000e+01) (70, 4.65819895267486572266e-01) (71, 5.33960938453674316406e-01) (72, 3.74493837356567382812e-01) (73, 5.62655985355377197266e-01) (74, 5.32559275627136230469e-01) (75, 2.27415227890014648438e+00) (76, -5.36417913436889648438e+00) (77, 5.64657747745513916016e-01) (78, 4.17246401309967041016e-01) (79, 1.68187928199768066406e+00) (80, 3.28398525714874267578e-01) (81, -1.80987091064453125000e+01) (82, 1.16860687732696533203e+00) (83, 3.58462095260620117188e+00) (84, 1.40546214580535888672e+00) (85, 3.63005161285400390625e+00) (86, 4.94370460510253906250e-01) (87, 8.52811217308044433594e-01) (88, -2.13896200060844421387e-01) (89, 9.29218292236328125000e-01) (90, 3.83605480194091796875e-01) (91, 7.68335461616516113281e-01) (92, 9.31254744529724121094e-01) (93, 1.14193964004516601562e+00) (94, 4.45983707904815673828e-01) (95, 4.58021640777587890625e-01) (96, 5.02838611602783203125e+00) (97, 7.62167930603027343750e-01) (98, 2.23943233489990234375e+00) (99, 9.48812961578369140625e-01) (100, 4.86829757690429687500e-01) (101, 7.94899463653564453125e-01) (102, 3.87794524431228637695e-02) (103, 2.43056321144104003906e+00) (104, 1.48791551589965820312e+00) (0, -2.89339399337768554688e+00) (1, 1.25840508937835693359e+00) (2, 1.32586359977722167969e+00) (3, -2.49539956450462341309e-01) (4, 1.33356678485870361328e+00) (5, 1.30760324001312255859e+00) (6, 1.68929243087768554688e+00) (7, 1.85927718877792358398e-01) (8, -2.27367935180664062500e+01) (9, 4.79259550571441650391e-01) (10, -2.92210483551025390625e+00) (11, 1.04953706264495849609e+00) (12, 1.77237248420715332031e+00) (13, -1.04470297694206237793e-01) (14, 4.83154594898223876953e-01) (15, 1.64880961179733276367e-01) (16, 1.89560264348983764648e-01) (17, 5.65185695886611938477e-02) (18, 2.32755690813064575195e-01) (19, -1.13999450206756591797e+00) (20, 6.10637903213500976562e-01) (21, 1.84168767929077148438e+00) (22, 5.50685226917266845703e-01) (23, -1.73167192935943603516e+00) (24, 5.06346821784973144531e-01) (25, 1.32590323686599731445e-01) (26, 2.63283122330904006958e-02) (27, -1.20443001389503479004e-01) (28, 2.61316485702991485596e-02) (29, 1.27549141645431518555e-01) (30, 1.30539333820343017578e+00) (31, 5.55014133453369140625e-01) (32, 5.90886116027832031250e-01) (33, 5.11643767356872558594e-01) (34, 1.37182819843292236328e+00) (35, 1.63151156902313232422e+00) (36, 1.40014636516571044922e+00) (37, 3.85776400566101074219e-01) (38, 1.40768373012542724609e+00) (39, 5.70114403963088989258e-02) (40, 1.33701407909393310547e+00) (41, 4.75584566593170166016e-01) (42, 1.75543582439422607422e+00) (43, 9.58557844161987304688e-01) (44, 4.58362281322479248047e-01) (45, 4.75011765956878662109e-01) (46, 1.16719849407672882080e-01) (47, 3.45104932785034179688e-01) (48, 1.32456278800964355469e+00) (49, -1.76878049969673156738e-02) (50, 1.42659783363342285156e+00) (51, 3.54109048843383789062e-01) (52, 1.42482554912567138672e+00) (53, 1.75597345829010009766e+00) (54, 4.26570892333984375000e-01) (55, 6.05486094951629638672e-01) (56, 6.23656392097473144531e-01) (57, 2.35081791877746582031e-01) (58, 6.66558623313903808594e-01) (59, 1.50563132762908935547e+00) (60, 1.39506220817565917969e+00) (61, 1.51832103729248046875e-01) (62, 1.28154647350311279297e+00) (63, 1.36894214153289794922e+00) (64, 1.12317097187042236328e+00) (65, 1.49140954017639160156e+00) (66, 2.36185002326965332031e+00) (67, 3.28966081142425537109e-02) (68, 4.47472000122070312500e+01) (69, 4.90694961547851562500e+01) (70, 1.04695811867713928223e-01) (71, 1.38641357421875000000e-01) (72, 2.11013883352279663086e-01) (73, 2.83092081546783447266e-01) (74, 1.87959551811218261719e-01) (75, 1.32508420944213867188e+00) (76, 5.20786881446838378906e-01) (77, 2.71547377109527587891e-01) (78, 2.70288884639739990234e-01) (79, -1.54253214597702026367e-01) (80, 4.95375096797943115234e-01) (81, 1.88592880964279174805e-01) (82, 2.83057510852813720703e-01) (83, 6.62212848663330078125e-01) (84, 4.89973783493041992188e-01) (85, 2.24296498298645019531e+00) (86, 2.06274628639221191406e-01) (87, 1.86359882354736328125e+00) (88, 2.19198632240295410156e+00) (89, 4.28635701537132263184e-02) (90, 1.34042716026306152344e+00) (91, 1.40194308757781982422e+00) (92, 5.03691971302032470703e-01) (93, 3.81163954734802246094e-01) (94, 1.41489124298095703125e+00) (95, 1.42609775066375732422e+00) (96, 5.47436594963073730469e-01) (97, 7.96182870864868164062e-01) (98, 8.69393125176429748535e-02) (99, 2.48811990022659301758e-01) (100, 1.38235604763031005859e+00) (101, 6.74162924289703369141e-01) (102, -3.34151959419250488281e+00) (103, 6.58322811126708984375e+00) (104, 3.59494775533676147461e-01) (0, 2.76820868253707885742e-01) (1, -1.33300945162773132324e-01) (2, 1.03324449062347412109e+00) (3, 9.97813701629638671875e-01) (4, 8.09895813465118408203e-01) (5, -4.43776226043701171875e+00) (6, 2.75017380714416503906e-01) (7, -3.37088155746459960938e+00) (8, 1.67945981025695800781e+00) (9, -7.16638922691345214844e-01) (10, -7.39915430545806884766e-01) (11, -1.02487051486968994141e+00) (12, -1.94380283355712890625e+00) (13, -1.16034150123596191406e+00) (14, 9.41871762275695800781e-01) (15, -7.38512217998504638672e-01) (16, 3.51354765892028808594e+00) (17, 3.27672052383422851562e+00) (18, 1.43404066562652587891e+00) (19, 2.72516846656799316406e+00) (20, 5.94913434982299804688e+00) (21, -1.56642746925354003906e+00) (22, 1.10406219959259033203e+00) (23, -1.17558628320693969727e-01) (24, -2.04938128590583801270e-01) (25, -6.34862136840820312500e+00) (26, 1.07117760181427001953e+00) (27, -3.48832160234451293945e-01) (28, -3.24910449981689453125e+00) (29, -4.99172151088714599609e-01) (30, 1.71196913719177246094e+00) (31, -4.58093357086181640625e+00) (32, -8.27929019927978515625e+00) (33, 1.02989995479583740234e+00) (34, -2.60031366348266601562e+00) (35, 2.95409750938415527344e+00) (36, -1.41276216506958007812e+00) (37, -4.16960716247558593750e+00) (38, 2.46713209152221679688e+00) (39, -6.95090818405151367188e+00) (40, 4.02911567687988281250e+00) (41, -6.11245393753051757812e+00) (42, 1.27743124961853027344e+00) (43, 2.08010888099670410156e+00) (44, 1.70787596702575683594e+00) (45, -1.39594960212707519531e+00) (46, 1.52808830142021179199e-01) (47, 1.04207921028137207031e+00) (48, 4.83813643455505371094e-01) (49, 3.71736198663711547852e-01) (50, 1.52005583047866821289e-01) (51, 1.82069242000579833984e+00) (52, -4.64723557233810424805e-01) (53, -7.76854336261749267578e-01) (54, -1.30968415737152099609e+00) (55, 3.66139352321624755859e-01) (56, -8.36962401866912841797e-01) (57, 1.12489533424377441406e+00) (58, 2.24391078948974609375e+00) (59, -1.96962392330169677734e+00) (60, -7.12618768215179443359e-01) (61, 4.10889089107513427734e-01) (62, 1.80080175399780273438e+00) (63, -8.50419938564300537109e-01) (64, -2.09501422941684722900e-02) (65, -7.22431600093841552734e-01) (66, -3.25639295578002929688e+00) (67, -9.84917759895324707031e-01) (68, 1.96864426136016845703e+00) (69, -7.31249570846557617188e-01) (70, -4.14867579936981201172e-01) (71, 3.47415208816528320312e+00) (72, 1.23484480381011962891e+00) (73, 3.99396944046020507812e+00) (74, 2.91328072547912597656e+00) (75, 1.28529405593872070312e+00) (76, 1.97819745540618896484e+00) (77, -6.38144731521606445312e-01) (78, -5.45119702816009521484e-01) (79, -2.86511540412902832031e-01) (80, 3.03646504878997802734e-01) (81, 1.01573622226715087891e+00) (82, -6.86447322368621826172e-01) (83, -6.28003716468811035156e-01) (84, -6.69842541217803955078e-01) (85, 1.92677527666091918945e-01) (86, -8.23352456092834472656e-01) (87, -6.40470445156097412109e-01) (88, -4.83028814196586608887e-02) (89, -6.58815622329711914062e-01) (90, -8.41523468494415283203e-01) (91, -6.87820196151733398438e-01) (92, -7.68067717552185058594e-01) (93, -7.55948543548583984375e-01) (94, -7.22987413406372070312e-01) (95, -7.71082043647766113281e-01) (96, -7.87810981273651123047e-01) (97, -6.79304182529449462891e-01) (98, -8.26143682003021240234e-01) (99, -6.66550040245056152344e-01) (100, -7.96499192714691162109e-01) (101, -8.12581360340118408203e-01) (102, -2.80829262733459472656e+00) (103, 6.17443323135375976562e+00) (104, 2.62993764877319335938e+00) (0, 6.57312810420989990234e-01) (1, 2.34923195838928222656e+00) (2, -1.83297693729400634766e+00) (3, 2.04754400253295898438e+00) (4, -7.56574034690856933594e-01) (5, -2.69427275657653808594e+00) (6, 2.43375852704048156738e-01) (7, 2.23891282081604003906e+00) (8, -7.48986899852752685547e-01) (9, 1.28437399864196777344e+00) (10, -9.46952760219573974609e-01) (11, 3.01963448524475097656e+00) (12, 1.31116306781768798828e+00) (13, -1.92287456989288330078e+00) (14, 4.30881071090698242188e+00) (15, -8.02663385868072509766e-01) (16, 2.01426148414611816406e+00) (17, -1.23644880950450897217e-01) (18, -2.00217056274414062500e+00) (19, -5.63183927536010742188e+00) (20, -1.20250761508941650391e+00) (21, -5.01397788524627685547e-01) (22, 3.05410075187683105469e+00) (23, -9.45086002349853515625e-01) (24, -1.28000020980834960938e+00) (25, -4.33181619644165039062e+00) (26, -4.22090470790863037109e-01) (27, 1.36209678649902343750e+00) (28, 3.41325819492340087891e-01) (29, 3.73711323738098144531e+00) (30, -5.40031480789184570312e+00) (31, -1.42641258239746093750e+00) (32, -2.83115339279174804688e+00) (33, -1.61580496933311223984e-03) (34, 1.33919107913970947266e+00) (35, 1.14717447757720947266e+00) (36, -8.67278039455413818359e-01) (37, -3.51490497589111328125e-01) (38, 3.24650359153747558594e+00) (39, 2.48337721824645996094e+00) (40, 9.59850311279296875000e-01) (41, -2.64658832550048828125e+00) (42, -4.62483316659927368164e-01) (43, 3.42698049545288085938e+00) (44, 2.81290674209594726562e+00) (45, -6.68525159358978271484e-01) (46, -4.79892849922180175781e-01) (47, 6.66637599468231201172e-01) (48, -2.11762285232543945312e+00) (49, -6.82674646377563476562e-01) (50, 1.18945169448852539062e+00) (51, 1.37971848249435424805e-01) (52, 6.04583454132080078125e+00) (53, 1.24336314201354980469e+00) (54, 2.14081597328186035156e+00) (55, 1.60054838657379150391e+00) (56, 1.27646899223327636719e+00) (57, 8.68272006511688232422e-01) (58, 9.63903665542602539062e-01) (59, -1.83235406875610351562e-01) (60, -7.84454166889190673828e-01) (61, -6.94559097290039062500e-01) (62, 8.23328018188476562500e-01) (63, -6.85140311717987060547e-01) (64, -1.82203352451324462891e-01) (65, 8.82894217967987060547e-01) (66, -9.07380819320678710938e-01) (67, -1.30254399776458740234e+00) (68, -1.50884151458740234375e-01) (69, -4.55306529998779296875e-01) (70, -6.56801164150238037109e-01) (71, -8.16074073314666748047e-01) (72, -7.41918683052062988281e-01) (73, 1.28020262345671653748e-02) (74, -3.47893655300140380859e-01) (75, 8.95644307136535644531e-01) (76, -3.37559640407562255859e-01) (77, -6.91524863243103027344e-01) (78, 5.10683581233024597168e-02) (79, -7.62092590332031250000e-01) (80, 3.60308825969696044922e-01) (81, 1.51321244239807128906e+00) (82, -2.41991311311721801758e-01) (83, -2.91216857731342315674e-02) (84, -3.83419767022132873535e-02) (85, -1.25095948576927185059e-01) (86, -8.68508160114288330078e-01) (87, -4.22021895647048950195e-01) (88, -1.81784927845001220703e-01) (89, -1.56927183270454406738e-01) (90, -8.54923963546752929688e-01) (91, -7.66417205333709716797e-01) (92, -3.03892523050308227539e-01) (93, -3.28316688537597656250e-01) (94, -7.67529964447021484375e-01) (95, -1.72487616539001464844e-01) (96, -3.32170397043228149414e-01) (97, -7.48728692531585693359e-01) (98, -7.49322533607482910156e-01) (99, -6.75614595413208007812e-01) (100, -7.43626713752746582031e-01) (101, -2.91620701551437377930e-01) (102, -1.21097683906555175781e+00) (103, 3.25086665153503417969e+00) (104, 2.59970569610595703125e+00) (0, -7.08983838558197021484e-01) (1, 6.49647951126098632812e-01) (2, -7.43725180625915527344e-01) (3, 7.49176621437072753906e-01) (4, -3.88624131679534912109e-01) (5, -1.25699907541275024414e-01) (6, -8.33095550537109375000e-01) (7, 3.38565558195114135742e-01) (8, 1.31326043605804443359e+00) (9, -8.18295896053314208984e-01) (10, -8.47075104713439941406e-01) (11, 1.26275074481964111328e+00) (12, -7.48878896236419677734e-01) (13, -2.02119112014770507812e+00) (14, -8.03976356983184814453e-01) (15, -6.92287325859069824219e-01) (16, 1.00278548896312713623e-01) (17, -8.23756575584411621094e-01) (18, 1.56260955333709716797e+00) (19, -4.83140110969543457031e-01) (20, 1.18915593624114990234e+00) (21, -2.82954424619674682617e-01) (22, 5.95145881175994873047e-01) (23, 3.09978693723678588867e-01) (24, -2.24298804998397827148e-01) (25, -7.24742114543914794922e-01) (26, 5.13549685478210449219e-01) (27, -2.37676888704299926758e-01) (28, -7.90476202964782714844e-01) (29, 6.30244240164756774902e-02) (30, -4.74222302436828613281e-01) (31, -6.29670679569244384766e-01) (32, 1.58808901906013488770e-02) (33, -5.55231690406799316406e-01) (34, -3.99878993630409240723e-02) (35, 1.78513371944427490234e+00) (36, 1.90074071288108825684e-01) (37, -5.97347319126129150391e-01) (38, -2.45967403054237365723e-01) (39, 2.06347131729125976562e+00) (40, -7.76611685752868652344e-01) (41, 1.09669375419616699219e+00) (42, -7.59972214698791503906e-01) (43, -9.81788456439971923828e-01) (44, -8.46119225025177001953e-01) (45, -8.13078403472900390625e-01) (46, 5.82084131240844726562e+00) (47, 2.20162248611450195312e+00) (48, -8.88716042041778564453e-01) (49, 1.73546239733695983887e-01) (50, -6.08121573925018310547e-01) (51, 7.51365125179290771484e-01) (52, -7.09000110626220703125e-01) (53, 8.73405575752258300781e-01) (54, -9.26691472530364990234e-01) (55, 1.84671878814697265625e+00) (56, -7.55037069320678710938e-01) (57, -2.33635663986206054688e+00) (58, 8.74648988246917724609e-01) (59, -2.75229185819625854492e-01) (60, -3.46033781766891479492e-01) (61, 1.52017867565155029297e+00) (62, -8.46519827842712402344e-01) (63, 6.13951742649078369141e-01) (64, 1.77793753147125244141e+00) (65, 4.70868736505508422852e-01) (66, 3.11162769794464111328e-01) (67, 3.62295806407928466797e-02) (68, -1.10352802276611328125e+00) (69, 1.52046039700508117676e-01) (70, 8.56814980506896972656e-01) (71, -3.88234406709671020508e-01) (72, 5.01371562480926513672e-01) (73, 3.14719200134277343750e+00) (74, 1.33213496208190917969e+00) (75, -1.72461092472076416016e-01) (76, 4.13030475378036499023e-01) (77, 4.85220819711685180664e-01) (78, 1.71721649169921875000e+00) (79, 8.57843220233917236328e-01) (80, 7.19376504421234130859e-01) (81, -2.07372832298278808594e+00) (82, -2.13382053375244140625e+00) (83, -2.28827044367790222168e-01) (84, 2.23646849393844604492e-01) (85, -8.55383157730102539062e-01) (86, 1.85175180435180664062e+00) (87, -7.52623915672302246094e-01) (88, 1.22137129306793212891e+00) (89, -5.52818834781646728516e-01) (90, -8.87485682964324951172e-01) (91, 1.60691738128662109375e+00) (92, 3.05614322423934936523e-01) (93, -8.00039112567901611328e-01) (94, -1.42295239493250846863e-02) (95, -2.66943842172622680664e-01) (96, -7.48162746429443359375e-01) (97, -3.74360918998718261719e-01) (98, 1.16594529151916503906e+00) (99, 6.69919192790985107422e-01) (100, -5.00939562916755676270e-02) (101, -4.85762983560562133789e-01) (102, 5.60041606426239013672e-01) (103, 1.47883248329162597656e+00) (104, 2.45505976676940917969e+00) (0, -1.35027289390563964844e+00) (1, 1.40097224712371826172e+00) (2, 1.73135805130004882812e+00) (3, 1.45273768901824951172e+00) (4, 1.59161734580993652344e+00) (5, 1.49834370613098144531e+00) (6, 1.91149318218231201172e+00) (7, 5.38553893566131591797e-01) (8, -7.56743698120117187500e+01) (9, 7.04901099205017089844e-01) (10, -1.78923082351684570312e+00) (11, 1.07299530506134033203e+00) (12, 1.87906813621520996094e+00) (13, 1.59323632717132568359e-01) (14, 6.70862793922424316406e-01) (15, 2.81920909881591796875e-01) (16, 3.67191672325134277344e-01) (17, 1.61704838275909423828e-01) (18, 3.49674582481384277344e-01) (19, -2.34593605995178222656e+00) (20, 1.10188412666320800781e+00) (21, 1.83775794506072998047e+00) (22, 6.62179112434387207031e-01) (23, -7.15495014190673828125e+00) (24, 5.03325402736663818359e-01) (25, 2.62601077556610107422e-01) (26, 1.58217227458953857422e+00) (27, -2.59122610092163085938e+00) (28, 2.40223079919815063477e-01) (29, 1.49755764007568359375e+00) (30, 1.55622398853302001953e+00) (31, 6.04631483554840087891e-01) (32, 6.41045451164245605469e-01) (33, 6.03115439414978027344e-01) (34, 1.58346235752105712891e+00) (35, 1.76036643981933593750e+00) (36, 1.54441094398498535156e+00) (37, 6.68844163417816162109e-01) (38, 1.37953484058380126953e+00) (39, 1.39214247465133666992e-01) (40, 1.42135798931121826172e+00) (41, 1.91641759872436523438e+00) (42, 1.86920332908630371094e+00) (43, 1.19961094856262207031e+00) (44, 5.96617341041564941406e-01) (45, 1.04692494869232177734e+00) (46, 1.91670918464660644531e+00) (47, 4.44001793861389160156e-01) (48, 1.38701164722442626953e+00) (49, 1.15994788706302642822e-01) (50, 1.36886107921600341797e+00) (51, 6.52464807033538818359e-01) (52, 1.53507721424102783203e+00) (53, 1.92144250869750976562e+00) (54, 6.24968886375427246094e-01) (55, 1.06027269363403320312e+00) (56, 1.87753188610076904297e+00) (57, 1.42800235748291015625e+00) (58, 1.88075935840606689453e+00) (59, 1.58850872516632080078e+00) (60, 1.42540240287780761719e+00) (61, 1.45257163047790527344e+00) (62, 2.67157363891601562500e+00) (63, 1.39908289909362792969e+00) (64, 2.19671320915222167969e+00) (65, 1.44660699367523193359e+00) (66, 1.14940357208251953125e+00) (67, 1.24621808528900146484e+00) (68, 7.39253878593444824219e-01) (69, 3.24613113403320312500e+01) (70, 5.06381869316101074219e-01) (71, 1.53453886508941650391e+00) (72, 1.65629637241363525391e+00) (73, 1.71609616279602050781e+00) (74, 4.25767898559570312500e-01) (75, 1.22970426082611083984e+00) (76, 9.01663780212402343750e-01) (77, 1.56914496421813964844e+00) (78, 1.43116497993469238281e+00) (79, 1.47846972942352294922e+00) (80, 1.87613129615783691406e+00) (81, 3.50870132446289062500e+01) (82, 1.96493715047836303711e-01) (83, 1.93015301227569580078e+00) (84, 2.63066589832305908203e-01) (85, 2.31394839286804199219e+00) (86, 1.98703795671463012695e-01) (87, 1.85385632514953613281e+00) (88, 2.26282429695129394531e+00) (89, 1.47573828697204589844e+00) (90, 1.37237465381622314453e+00) (91, 1.42214274406433105469e+00) (92, 1.89960026741027832031e+00) (93, -3.48618417978286743164e-01) (94, 1.55776166915893554688e+00) (95, 1.39244234561920166016e+00) (96, 8.56633305549621582031e-01) (97, -1.06808662414550781250e-01) (98, 1.44995212554931640625e+00) (99, 3.81145104765892028809e-02) (100, 1.53345322608947753906e+00) (101, 1.01695146560668945312e+01) (102, 6.85753881931304931641e-01) (103, 1.46954178810119628906e+00) (104, 1.85542568564414978027e-01) (0, -3.39547348022460937500e+01) (1, 4.42114740610122680664e-01) (2, 4.23995107412338256836e-01) (3, -5.30067741870880126953e-01) (4, 5.38065433502197265625e-01) (5, 1.75656569004058837891e+00) (6, 7.03527987003326416016e-01) (7, 2.42410850524902343750e+00) (8, 1.96745717525482177734e+00) (9, 2.11882209777832031250e+00) (10, 2.28711318969726562500e+00) (11, 2.48412513732910156250e+00) (12, 2.02958106994628906250e+00) (13, -2.80311536788940429688e+00) (14, 2.41393804550170898438e+00) (15, 1.88528072834014892578e+00) (16, 6.70422172546386718750e+00) (17, 5.67498803138732910156e-01) (18, 1.96453714370727539062e+00) (19, 9.91604626178741455078e-02) (20, 4.62971836328506469727e-01) (21, 7.57007539272308349609e-01) (22, 2.06151700019836425781e+00) (23, 8.29020786285400390625e+00) (24, 2.30849766731262207031e+00) (25, 2.34225440025329589844e+00) (26, 5.19803285598754882812e-01) (27, 2.01651501655578613281e+00) (28, 5.48256278038024902344e-01) (29, 2.27587795257568359375e+00) (30, -3.02745628356933593750e+00) (31, 1.75604593753814697266e+00) (32, 2.88997411727905273438e+00) (33, 7.11447298526763916016e-01) (34, 8.38795006275177001953e-01) (35, 2.57883119583129882812e+00) (36, 3.75930160284042358398e-01) (37, 1.10673542022705078125e+01) (38, 7.43555486202239990234e-01) (39, 3.40920120477676391602e-01) (40, 2.24113059043884277344e+00) (41, 9.22857999801635742188e-01) (42, 2.05321431159973144531e+00) (43, 1.28809988498687744141e+00) (44, -6.88682985305786132812e+00) (45, 3.98614835739135742188e+00) (46, 2.21013641357421875000e+00) (47, 2.71559691429138183594e+00) (48, 2.13734912872314453125e+00) (49, -2.19347715377807617188e+00) (50, 1.76952064037322998047e+00) (51, 2.53910756111145019531e+00) (52, 2.91211915016174316406e+00) (53, 2.76362252235412597656e+00) (54, 5.33600950241088867188e+00) (55, 1.90240406990051269531e+00) (56, 2.30404591560363769531e+00) (57, 1.90755128860473632812e+00) (58, 1.91825377941131591797e+00) (59, 5.16857683658599853516e-01) (60, 1.78067469596862792969e+00) (61, -1.68950963020324707031e+00) (62, 1.04305708408355712891e+00) (63, 1.92403137683868408203e+00) (64, -3.13976526260375976562e+00) (65, 1.80850207805633544922e+00) (66, -8.90328347682952880859e-01) (67, 5.21248877048492431641e-01) (68, 1.73536026477813720703e+00) (69, -2.28426189422607421875e+01) (70, 1.95722508430480957031e+00) (71, 1.89073324203491210938e+00) (72, 4.25763696432113647461e-01) (73, 1.82515811920166015625e+00) (74, 2.21317744255065917969e+00) (75, 2.13706398010253906250e+00) (76, 5.09145736694335937500e-01) (77, 9.25458252429962158203e-01) (78, 2.10313391685485839844e+00) (79, -2.24345874786376953125e+00) (80, 4.01704996824264526367e-01) (81, -2.87351455688476562500e+01) (82, 1.25700819492340087891e+00) (83, 2.06285142898559570312e+00) (84, 1.85079288482666015625e+00) (85, 8.00657689571380615234e-01) (86, 1.80647766590118408203e+00) (87, 1.99177229404449462891e+00) (88, 8.77855420112609863281e-01) (89, 2.17677998542785644531e+00) (90, 1.78722870349884033203e+00) (91, 1.94475114345550537109e+00) (92, 2.32414293289184570312e+00) (93, 2.46729683876037597656e+00) (94, 1.80994868278503417969e+00) (95, 2.55324220657348632812e+00) (96, 2.03134250640869140625e+00) (97, 5.89485883712768554688e-01) (98, 1.78895187377929687500e+00) (99, 1.92312598228454589844e+00) (100, 2.19953489303588867188e+00) (101, 2.05837941169738769531e+00) (102, 2.43222594261169433594e+00) (103, -2.84696847200393676758e-01) (104, -4.60949093103408813477e-02) (0, -6.53475463390350341797e-01) (1, -1.08627200126647949219e+00) (2, 1.05443978309631347656e+00) (3, -4.18478101491928100586e-01) (4, -4.47084009647369384766e-01) (5, 8.79545032978057861328e-01) (6, 1.18509733676910400391e+00) (7, -4.76732701063156127930e-01) (8, -5.76580986380577087402e-02) (9, -2.23184540867805480957e-01) (10, 9.78344917297363281250e-01) (11, 2.06478190422058105469e+00) (12, -3.82727414369583129883e-01) (13, -1.35573375225067138672e+00) (14, 1.38190478086471557617e-01) (15, -8.20912301540374755859e-01) (16, 1.04018700122833251953e+00) (17, 9.33268487453460693359e-01) (18, -4.45736348628997802734e-01) (19, -3.79430860280990600586e-01) (20, -2.74781644344329833984e-01) (21, -3.06150823831558227539e-01) (22, -5.47830164432525634766e-01) (23, -5.67948937416076660156e-01) (24, -6.29795312881469726562e-01) (25, 6.72735393047332763672e-01) (26, -5.80204129219055175781e-01) (27, 1.04833267629146575928e-01) (28, -2.80597507953643798828e-01) (29, -3.53337794542312622070e-01) (30, 8.19424033164978027344e-01) (31, 9.25594568252563476562e-01) (32, 7.35636830329895019531e-01) (33, 5.82833349704742431641e-01) (34, -2.00096756219863891602e-01) (35, 1.77791059017181396484e+00) (36, -7.93107271194458007812e-01) (37, 8.06424379348754882812e-01) (38, 2.02562761306762695312e+00) (39, -7.35882580280303955078e-01) (40, 1.91655218601226806641e-01) (41, -5.59685409069061279297e-01) (42, 1.26241242885589599609e+00) (43, 2.22868132591247558594e+00) (44, 1.05559885501861572266e+00) (45, -6.69728517532348632812e-01) (46, 1.52481675148010253906e+00) (47, 1.35695815086364746094e-01) (48, 1.05172216892242431641e+00) (49, 2.47370060533285140991e-02) (50, 2.45410725474357604980e-01) (51, -1.04217958450317382812e+00) (52, 1.42528486251831054688e+00) (53, -1.25122106075286865234e+00) (54, -2.02193781733512878418e-01) (55, 9.62988018989562988281e-01) (56, 1.33326959609985351562e+00) (57, 5.39708435535430908203e-02) (58, 3.97713720798492431641e-01) (59, 1.49961626529693603516e+00) (60, 8.82354140281677246094e-01) (61, -3.26530486345291137695e-01) (62, 2.51358747482299804688e-01) (63, 9.75398540496826171875e-01) (64, 9.51836049556732177734e-01) (65, 8.21739554405212402344e-01) (66, 1.11699092388153076172e+00) (67, -7.76408672332763671875e-01) (68, -8.09800803661346435547e-01) (69, -6.90956890583038330078e-01) (70, -1.55452656745910644531e+00) (71, -8.89157772064208984375e-01) (72, -9.08357184380292892456e-03) (73, 6.11579343676567077637e-02) (74, -3.35769832134246826172e-01) (75, -8.66681814193725585938e-01) (76, 1.71809628605842590332e-01) (77, -2.73054182529449462891e-01) (78, 2.29664635658264160156e+00) (79, -1.92129993438720703125e+00) (80, 9.64373469352722167969e-01) (81, -4.61688935756683349609e-01) (82, -6.63545191287994384766e-01) (83, -4.94881749153137207031e-01) (84, -7.92609214782714843750e-01) (85, 1.94936144351959228516e+00) (86, -6.49469673633575439453e-01) (87, 5.05978390574455261230e-02) (88, -8.82410228252410888672e-01) (89, -9.31116282939910888672e-01) (90, 8.88363480567932128906e-01) (91, -3.43110799789428710938e-01) (92, -1.68985113501548767090e-01) (93, -6.31503686308860778809e-02) (94, -3.10733348131179809570e-01) (95, -7.99707293510437011719e-01) (96, 6.33655786514282226562e-02) (97, -7.39825069904327392578e-01) (98, -1.34769511222839355469e+00) (99, -3.89684885740280151367e-01) (100, -4.63298022747039794922e-01) (101, 1.10063485801219940186e-01) (102, -4.84118491411209106445e-01) (103, 2.52131438255310058594e+00) (104, 2.15422129631042480469e+00) (0, 1.84215438365936279297e+00) (1, 2.00954294204711914062e+00) (2, -1.48723244667053222656e+00) (3, 6.43478512763977050781e-01) (4, -1.84668958187103271484e-01) (5, 4.40263122320175170898e-01) (6, 1.41201519966125488281e+00) (7, 1.85152029991149902344e+00) (8, -5.79646944999694824219e-01) (9, -1.38711079955101013184e-01) (10, 1.75530278682708740234e+00) (11, 1.69274151325225830078e-01) (12, 2.21704912185668945312e+00) (13, -7.06228852272033691406e-01) (14, 2.03129917383193969727e-01) (15, -1.66409802436828613281e+00) (16, 2.84578132629394531250e+00) (17, 8.36064338684082031250e-01) (18, 2.03468632698059082031e+00) (19, 1.41472399234771728516e+00) (20, -1.71318674087524414062e+00) (21, 1.79061985015869140625e+00) (22, -2.25805908441543579102e-01) (23, -1.81572401523590087891e+00) (24, -1.94154357910156250000e+00) (25, 6.22488451004028320312e+00) (26, 2.72984862327575683594e-01) (27, 1.59809613227844238281e+00) (28, -1.91417407989501953125e+00) (29, -1.26713120937347412109e+00) (30, 1.24403905868530273438e+00) (31, 2.17386651784181594849e-02) (32, 3.09869050979614257812e+00) (33, -1.07743132114410400391e+00) (34, 1.38640141487121582031e+00) (35, -6.91694498062133789062e-01) (36, 1.00984191894531250000e+00) (37, -4.72068578004837036133e-01) (38, 1.62290751934051513672e+00) (39, 5.92938280105590820312e+00) (40, -6.61958456039428710938e-01) (41, -2.18665972352027893066e-01) (42, 5.80032706260681152344e-01) (43, -2.85362672805786132812e+00) (44, -5.10203182697296142578e-01) (45, -1.47757351398468017578e+00) (46, -7.23448693752288818359e-01) (47, 6.08840703964233398438e-01) (48, -3.95565181970596313477e-01) (49, -6.40910685062408447266e-01) (50, -7.22058534622192382812e-01) (51, -4.11699086427688598633e-01) (52, -1.20330333709716796875e-01) (53, 9.28345859050750732422e-01) (54, -9.06516969203948974609e-01) (55, -1.48545444011688232422e-01) (56, -2.74117551743984222412e-02) (57, 1.66447818279266357422e-01) (58, -1.88953429460525512695e-02) (59, -1.64054620265960693359e+00) (60, -7.49808669090270996094e-01) (61, -5.23033559322357177734e-01) (62, -4.09710407257080078125e+00) (63, -7.09801495075225830078e-01) (64, -1.64638793468475341797e+00) (65, -6.70242965221405029297e-01) (66, -8.92951786518096923828e-01) (67, -5.63212931156158447266e-01) (68, -3.24495345354080200195e-01) (69, -1.05641297996044158936e-01) (70, -1.58661156892776489258e-01) (71, 2.11157059669494628906e+00) (72, -8.98703932762145996094e-01) (73, 7.96667456626892089844e-01) (74, 5.19179821014404296875e-01) (75, 2.22824597358703613281e+00) (76, 8.95963191986083984375e-01) (77, 1.49096703529357910156e+00) (78, -9.81491133570671081543e-02) (79, -1.86786368489265441895e-01) (80, -2.32771769165992736816e-01) (81, -3.54102402925491333008e-01) (82, 1.68888127803802490234e+00) (83, 1.35464417934417724609e+00) (84, -8.85486721992492675781e-01) (85, -8.65100204944610595703e-01) (86, -3.99378508329391479492e-01) (87, -6.56526982784271240234e-01) (88, 7.53438472747802734375e-01) (89, -4.23015922307968139648e-01) (90, 5.02388834953308105469e-01) (91, 1.56351768970489501953e+00) (92, -5.10010778903961181641e-01) (93, 9.19221639633178710938e-02) (94, -1.49671986699104309082e-01) (95, -6.98899209499359130859e-01) (96, 1.88219952583312988281e+00) (97, -2.89267361164093017578e-01) (98, -5.47802865505218505859e-01) (99, -5.99174737930297851562e-01) (100, -8.98619413375854492188e-01) (101, 1.24171495437622070312e+00) (102, 2.05273985862731933594e-01) (103, 1.91682314872741699219e+00) (104, 2.67952942848205566406e+00) (0, 3.17523622512817382812e+00) (1, 5.45338988304138183594e-01) (2, -5.54162561893463134766e-02) (3, -5.97853541374206542969e-01) (4, 7.93748438358306884766e-01) (5, 2.21085071563720703125e+00) (6, 8.33986699581146240234e-01) (7, -4.47599083185195922852e-01) (8, -9.61543738842010498047e-01) (9, -8.99164140224456787109e-01) (10, -9.98282134532928466797e-01) (11, 9.90389287471771240234e-01) (12, 7.22109019756317138672e-01) (13, 5.38869202136993408203e-01) (14, -9.65022325515747070312e-01) (15, 1.56842768192291259766e-01) (16, -4.47782278060913085938e-02) (17, 2.81593859195709228516e-01) (18, -6.37221992015838623047e-01) (19, 7.79921174049377441406e-01) (20, 4.22484874725341796875e-01) (21, 5.60328006744384765625e-01) (22, -8.48163783550262451172e-01) (23, 1.14949738979339599609e+00) (24, 4.54739093780517578125e+00) (25, -1.04969203472137451172e+00) (26, -8.42281281948089599609e-01) (27, 1.29700434207916259766e+00) (28, 6.73201382160186767578e-01) (29, 4.12874519824981689453e-01) (30, -1.09687244892120361328e+00) (31, 1.81586456298828125000e+00) (32, 5.72296082973480224609e-01) (33, 9.95954394340515136719e-01) (34, -3.19877088069915771484e-01) (35, 1.35448002815246582031e+00) (36, 1.29174721240997314453e+00) (37, -1.49346077442169189453e+00) (38, -4.91215109825134277344e-01) (39, -4.65004920959472656250e-01) (40, 6.74097418785095214844e-01) (41, -7.01422691345214843750e-01) (42, -3.60827594995498657227e-01) (43, -9.56900537014007568359e-01) (44, -7.34090864658355712891e-01) (45, -1.36272037029266357422e+00) (46, -1.01985263824462890625e+00) (47, -6.62369310855865478516e-01) (48, 4.17667198181152343750e+00) (49, -2.90355920791625976562e-01) (50, -8.36496710777282714844e-01) (51, 7.28747546672821044922e-01) (52, -9.57288980484008789062e-01) (53, 9.14571166038513183594e-01) (54, 1.05055868625640869141e+00) (55, 7.95964002609252929688e-02) (56, -3.81407141685485839844e-01) (57, -4.45043653249740600586e-01) (58, -1.41375780105590820312e+00) (59, 5.50182819366455078125e-01) (60, -6.24943077564239501953e-01) (61, -6.32897555828094482422e-01) (62, 1.82985866069793701172e+00) (63, 2.20674157142639160156e-01) (64, 1.84337532520294189453e+00) (65, 4.56065356731414794922e-01) (66, 6.32356762886047363281e-01) (67, 7.36594319343566894531e-01) (68, -7.21921622753143310547e-01) (69, -8.11272025108337402344e-01) (70, -6.55624568462371826172e-01) (71, -8.02189171314239501953e-01) (72, -9.47789728641510009766e-01) (73, -7.80476093292236328125e-01) (74, -7.13412702083587646484e-01) (75, -4.34739649295806884766e-01) (76, -8.09743463993072509766e-01) (77, 4.10657525062561035156e-01) (78, -8.16495239734649658203e-01) (79, 1.65006256103515625000e+00) (80, -1.09852588176727294922e+00) (81, -6.68325424194335937500e-01) (82, 3.83851468563079833984e-01) (83, -6.38136804103851318359e-01) (84, -1.08266067504882812500e+00) (85, -4.61451113224029541016e-01) (86, 6.07542753219604492188e-01) (87, -4.47751551866531372070e-01) (88, 2.27634310722351074219e+00) (89, 2.42984116077423095703e-01) (90, 1.77023112773895263672e+00) (91, 1.65099585056304931641e+00) (92, -7.61729776859283447266e-01) (93, 1.85913324356079101562e+00) (94, -7.87789106369018554688e-01) (95, -1.17770588397979736328e+00) (96, -3.82143706083297729492e-01) (97, -7.28989660739898681641e-01) (98, -6.61011457443237304688e-01) (99, -7.15256154537200927734e-01) (100, -6.91682159900665283203e-01) (101, -8.54900717735290527344e-01) (102, -5.43640565872192382812e+00) (103, 9.05469799041748046875e+00) (104, 2.73708033561706542969e+00) (0, -5.48245072364807128906e-01) (1, 2.77955174446105957031e+00) (2, 6.37292683124542236328e-01) (3, 1.52523601055145263672e+00) (4, -1.12162160873413085938e+00) (5, 1.91305553913116455078e+00) (6, -3.16152989864349365234e-01) (7, 2.21051120758056640625e+00) (8, -5.27573871612548828125e+00) (9, -6.95675468444824218750e+00) (10, 2.43685507774353027344e+00) (11, -4.93115872144699096680e-01) (12, -5.00053822994232177734e-01) (13, 2.55575370788574218750e+00) (14, -5.45353293418884277344e-01) (15, -1.03819274902343750000e+00) (16, -3.00820517539978027344e+00) (17, 1.37910604476928710938e-01) (18, -8.36123752593994140625e+00) (19, -8.69981944561004638672e-01) (20, -9.97115373611450195312e-01) (21, -2.94024825096130371094e+00) (22, 2.94364523887634277344e+00) (23, -5.81789398193359375000e+00) (24, -8.93132877349853515625e+00) (25, 3.57465624809265136719e-01) (26, 1.78446936607360839844e+00) (27, -5.91707706451416015625e+00) (28, -1.05075895786285400391e+00) (29, 2.29493260383605957031e+00) (30, 1.39607280492782592773e-01) (31, -1.90153324604034423828e+00) (32, 1.07349145412445068359e+00) (33, 4.17596149444580078125e+00) (34, -5.69163465499877929688e+00) (35, 2.06886482238769531250e+00) (36, 5.15250861644744873047e-01) (37, 1.66039776802062988281e+00) (38, -7.83160626888275146484e-01) (39, 4.49530065059661865234e-01) (40, 5.72304725646972656250e+00) (41, 5.06182861328125000000e+00) (42, -4.30647701025009155273e-01) (43, -3.39168047904968261719e+00) (44, -9.02498841285705566406e-01) (45, -5.97872257232666015625e-01) (46, -7.49426889419555664062e+00) (47, -1.48092716932296752930e-01) (48, -2.90130543708801269531e+00) (49, -2.56591171026229858398e-01) (50, -8.22250783443450927734e-01) (51, 3.50618451833724975586e-01) (52, -2.91631627082824707031e+00) (53, -3.74587178230285644531e+00) (54, 1.63073682785034179688e+00) (55, -1.28453765064477920532e-02) (56, 3.97016882896423339844e-01) (57, 5.36588490009307861328e-01) (58, -5.13461923599243164062e+00) (59, 1.74049544334411621094e+00) (60, -1.17825806140899658203e+00) (61, -7.50190317630767822266e-01) (62, -3.61716103553771972656e+00) (63, 1.45029687881469726562e+00) (64, 2.25300884246826171875e+00) (65, 1.25943809747695922852e-01) (66, 3.22722315788269042969e+00) (67, 1.04862296581268310547e+00) (68, 2.22713947296142578125e+00) (69, -7.02138841152191162109e-01) (70, -6.87187254428863525391e-01) (71, -5.78105211257934570312e-01) (72, 7.70968139171600341797e-01) (73, -9.67468738555908203125e-01) (74, 1.09430968761444091797e+00) (75, 2.28047227859497070312e+00) (76, -2.57002472877502441406e-01) (77, -7.43047177791595458984e-01) (78, 4.72733855247497558594e-01) (79, 5.38792669773101806641e-01) (80, -6.99264168739318847656e-01) (81, -3.20952773094177246094e-01) (82, 1.45335555076599121094e+00) (83, -6.30990445613861083984e-01) (84, -6.39239251613616943359e-01) (85, 1.39568805694580078125e+00) (86, -3.43244045972824096680e-01) (87, 8.24614286422729492188e-01) (88, 5.48675417900085449219e-01) (89, 3.25754642486572265625e-01) (90, 8.51420998573303222656e-01) (91, -6.08460903167724609375e-01) (92, 4.19194400310516357422e-01) (93, -3.70861083269119262695e-01) (94, 3.96886229515075683594e-01) (95, 4.01325821876525878906e-01) (96, 6.34081125259399414062e-01) (97, -2.42187976837158203125e-02) (98, -4.08256828784942626953e-01) (99, 4.94053363800048828125e-01) (100, -5.69670617580413818359e-01) (101, -4.20174658298492431641e-01) (102, -2.30584219098091125488e-01) (103, 2.40168404579162597656e+00) (104, 1.41007387638092041016e+00) (0, -1.40688955783843994141e+00) (1, -1.33932816982269287109e+00) (2, -7.98550546169281005859e-01) (3, 1.01400041580200195312e+00) (4, -7.87925004959106445312e-01) (5, -8.10466051101684570312e-01) (6, -3.75202208757400512695e-01) (7, -4.92234617471694946289e-01) (8, 4.13753509521484375000e-01) (9, 5.00739037990570068359e-01) (10, 8.92106413841247558594e-01) (11, -2.67178833484649658203e-01) (12, 5.87306737899780273438e-01) (13, 7.74332523345947265625e-01) (14, 1.41776990890502929688e+00) (15, 9.66826617717742919922e-01) (16, -7.22405076026916503906e-01) (17, -1.99166014790534973145e-01) (18, 1.05620610713958740234e+00) (19, 1.79251909255981445312e+00) (20, 1.56418848037719726562e+00) (21, 1.55569088459014892578e+00) (22, 6.60202264785766601562e-01) (23, -5.10251402854919433594e-01) (24, -7.57702767848968505859e-01) (25, 3.82390797138214111328e-01) (26, -7.81551778316497802734e-01) (27, -6.72689735889434814453e-01) (28, 7.72575855255126953125e-01) (29, -6.31861150264739990234e-01) (30, -3.96603971719741821289e-01) (31, 5.13617932796478271484e-01) (32, 1.19489133358001708984e+00) (33, -2.45812609791755676270e-01) (34, -4.40315580368041992188e+00) (35, 3.70432078838348388672e-01) (36, -6.31750404834747314453e-01) (37, 3.41832756996154785156e-01) (38, 2.18076050281524658203e-01) (39, -5.06503641605377197266e-01) (40, -6.33408904075622558594e-01) (41, -2.94616043567657470703e-01) (42, -1.68830692768096923828e-01) (43, 7.07871913909912109375e-01) (44, 1.48337304592132568359e-01) (45, -1.93936690688133239746e-01) (46, -2.31884509325027465820e-01) (47, -7.53768861293792724609e-01) (48, 5.50983071327209472656e-01) (49, 2.27557003498077392578e-01) (50, 8.38268160820007324219e-01) (51, 4.65469807386398315430e-01) (52, -5.57345926761627197266e-01) (53, -7.77338325977325439453e-01) (54, 7.35478281974792480469e-01) (55, -9.72410678863525390625e-01) (56, -6.62387549877166748047e-01) (57, 8.46934020519256591797e-02) (58, 2.53331208229064941406e+00) (59, -7.37269580364227294922e-01) (60, -3.60862433910369873047e-01) (61, 1.11985397338867187500e+00) (62, 5.42359590530395507812e-01) (63, 2.17561483383178710938e-01) (64, -1.10988533496856689453e+00) (65, -5.99176108837127685547e-01) (66, -1.90413618087768554688e+00) (67, 2.33161732554435729980e-01) (68, -3.05852256715297698975e-02) (69, 2.32702612876892089844e-01) (70, 1.15122520923614501953e+00) (71, 1.81911909580230712891e+00) (72, 1.49496883153915405273e-01) (73, -3.53438287973403930664e-01) (74, 2.16729521751403808594e+00) (75, 2.68262803554534912109e-01) (76, 8.57630729675292968750e-01) (77, -3.76711905002593994141e-01) (78, -3.20599973201751708984e-02) (79, -9.97712850570678710938e-01) (80, -1.93696951866149902344e+00) (81, 2.32301205396652221680e-01) (82, 2.12486535310745239258e-01) (83, -6.98472201824188232422e-01) (84, -7.06656873226165771484e-01) (85, -4.91650760173797607422e-01) (86, 9.35194492340087890625e-01) (87, 6.09620332717895507812e-01) (88, -1.61565825343132019043e-01) (89, 2.61225461959838867188e-01) (90, -2.90805816650390625000e-01) (91, -2.47776493430137634277e-01) (92, 2.28801369667053222656e+00) (93, 5.39608240127563476562e-01) (94, 1.57117784023284912109e-01) (95, 2.21730232238769531250e+00) (96, 5.06239652633666992188e-01) (97, 8.13651144504547119141e-01) (98, -2.75899052619934082031e-01) (99, 1.29973590373992919922e-01) (100, 1.40963286161422729492e-01) (101, 1.19593036174774169922e+00) (102, -1.89539873600006103516e+00) (103, 4.42886352539062500000e+00) (104, 1.65420985221862792969e+00) (0, 2.99475288391113281250e+00) (1, -4.53626424074172973633e-01) (2, 2.36441898345947265625e+00) (3, 5.43557554483413696289e-02) (4, -1.37538865208625793457e-01) (5, -5.04388153553009033203e-01) (6, -9.61003839969635009766e-01) (7, -7.40778446197509765625e-01) (8, 1.71123313903808593750e+00) (9, 1.04597759246826171875e+00) (10, -3.64128082990646362305e-01) (11, -1.00132279098033905029e-01) (12, 1.71776264905929565430e-01) (13, -9.63878631591796875000e-01) (14, -8.02698850631713867188e-01) (15, 2.09529757499694824219e+00) (16, 3.63952398300170898438e-01) (17, -7.99156069755554199219e-01) (18, 9.88410338759422302246e-02) (19, -1.22770130634307861328e+00) (20, 4.84919160604476928711e-01) (21, 2.43964862823486328125e+00) (22, -2.52470302581787109375e+00) (23, 9.24846380949020385742e-02) (24, -1.23782372474670410156e+00) (25, -6.09569311141967773438e-01) (26, -2.24015340209007263184e-01) (27, 9.65279221534729003906e-01) (28, -2.22026426345109939575e-02) (29, 2.55812740325927734375e+00) (30, -3.49535793066024780273e-01) (31, -6.05370461940765380859e-01) (32, 7.48583793640136718750e-01) (33, -8.29393744468688964844e-01) (34, -8.67463052272796630859e-01) (35, 1.44273495674133300781e+00) (36, -8.93040359020233154297e-01) (37, 6.39353275299072265625e-01) (38, -8.60274136066436767578e-01) (39, -1.68815433979034423828e+00) (40, 3.83046686649322509766e-01) (41, -1.39079892635345458984e+00) (42, 2.18084549903869628906e+00) (43, -2.56319594383239746094e+00) (44, 1.80048990249633789062e+00) (45, -5.48943996429443359375e-01) (46, -5.07527947425842285156e-01) (47, 5.21462500095367431641e-01) (48, 1.02525925636291503906e+00) (49, 5.18516361713409423828e-01) (50, -1.23288877308368682861e-01) (51, -3.55489909648895263672e-01) (52, -7.15022385120391845703e-01) (53, 1.24178385734558105469e+00) (54, -6.78027391433715820312e-01) (55, -4.40508663654327392578e-01) (56, 6.82523369789123535156e-01) (57, 5.38957297801971435547e-01) (58, -7.09123432636260986328e-01) (59, 1.01176524162292480469e+00) (60, 1.85872006416320800781e+00) (61, -9.02536451816558837891e-01) (62, 1.17903304100036621094e+00) (63, 6.43547847867012023926e-02) (64, 1.34783744812011718750e-01) (65, -4.78662788867950439453e-01) (66, 2.15760827064514160156e+00) (67, -2.51145362854003906250e-01) (68, -5.24144113063812255859e-01) (69, 3.31632792949676513672e-01) (70, 1.53442668914794921875e+00) (71, 5.34553647041320800781e-01) (72, -8.34372758865356445312e-01) (73, -7.24868357181549072266e-01) (74, 1.16417598724365234375e+00) (75, 1.45455610752105712891e+00) (76, -8.31133902072906494141e-01) (77, 5.38022279739379882812e-01) (78, -7.59898960590362548828e-01) (79, -2.30135023593902587891e-01) (80, -9.07852768898010253906e-01) (81, -1.09859861433506011963e-01) (82, -6.84396028518676757812e-01) (83, 1.39365613460540771484e+00) (84, -9.21071290969848632812e-01) (85, -7.06099152565002441406e-01) (86, -8.66304785013198852539e-02) (87, -6.13225758075714111328e-01) (88, 9.83071327209472656250e-01) (89, -5.53823769092559814453e-01) (90, 8.10908377170562744141e-02) (91, 2.31329053640365600586e-01) (92, -7.53121197223663330078e-01) (93, 5.16240239143371582031e-01) (94, 1.38254463672637939453e-01) (95, -1.10882723331451416016e+00) (96, 1.37858819961547851562e+00) (97, -7.39440023899078369141e-01) (98, -7.64859378337860107422e-01) (99, 9.03371721506118774414e-02) (100, -2.56207346916198730469e-01) (101, -8.39075028896331787109e-01) (102, 5.13792943954467773438e+00) (103, -1.39976191520690917969e+00) (104, 2.58959436416625976562e+00) (0, 1.91630971431732177734e+00) (1, 1.49986934661865234375e+00) (2, 6.07288181781768798828e-01) (3, -1.38767099380493164062e+00) (4, -6.94953262805938720703e-01) (5, 9.43491518497467041016e-01) (6, 1.62300303578376770020e-01) (7, 2.60757303237915039062e+00) (8, 1.51631128787994384766e+00) (9, -7.37925887107849121094e-01) (10, -7.94205427169799804688e-01) (11, 9.55288350582122802734e-01) (12, 9.17351365089416503906e-01) (13, -7.82390773296356201172e-01) (14, 3.99388283491134643555e-01) (15, 8.27738046646118164062e-01) (16, -5.93471229076385498047e-01) (17, 1.66538611054420471191e-01) (18, 2.85305827856063842773e-01) (19, -8.97457599639892578125e-01) (20, 6.83520615100860595703e-01) (21, 4.29279208183288574219e-02) (22, 1.33307591080665588379e-01) (23, -4.38675954937934875488e-02) (24, 6.71385154128074645996e-02) (25, 7.05751180648803710938e-02) (26, -8.61265212297439575195e-02) (27, 2.55429536104202270508e-01) (28, 1.07102108001708984375e+00) (29, 1.37437689304351806641e+00) (30, -1.16355288028717041016e+00) (31, -8.35948705673217773438e-01) (32, -3.35167795419692993164e-01) (33, -1.68695354461669921875e+00) (34, -1.87120604515075683594e+00) (35, 1.08054244518280029297e+00) (36, -9.02814328670501708984e-01) (37, -1.75473785400390625000e+00) (38, -3.33638221025466918945e-01) (39, -2.00004607439041137695e-01) (40, -1.90638637542724609375e+00) (41, -7.27144837379455566406e-01) (42, -8.80393266677856445312e-01) (43, -9.24188494682312011719e-01) (44, 1.70154452323913574219e+00) (45, -7.41584300994873046875e-01) (46, -1.45845100283622741699e-01) (47, -1.82352983951568603516e+00) (48, 6.99973627924919128418e-02) (49, 2.14989376068115234375e+00) (50, 1.30473160743713378906e+00) (51, 1.81215429306030273438e+00) (52, -6.90959155559539794922e-01) (53, 2.53806209564208984375e+00) (54, -6.27950191497802734375e-01) (55, 2.77662324905395507812e+00) (56, -2.49558493494987487793e-01) (57, 2.01560044288635253906e+00) (58, -6.36374890804290771484e-01) (59, -1.76448750495910644531e+00) (60, -8.51198136806488037109e-01) (61, 5.97467124462127685547e-01) (62, -7.44957029819488525391e-01) (63, 1.76948785781860351562e+00) (64, -4.25422370433807373047e-01) (65, -7.24623918533325195312e-01) (66, 1.02482640743255615234e+00) (67, -9.43506658077239990234e-01) (68, 5.45028328895568847656e-01) (69, -9.37749743461608886719e-01) (70, -7.54803717136383056641e-01) (71, -2.28496932983398437500e+00) (72, -6.17168009281158447266e-01) (73, 8.69897663593292236328e-01) (74, 1.48110365867614746094e+00) (75, -2.09626889228820800781e+00) (76, 3.60339850187301635742e-01) (77, -8.11069488525390625000e-01) (78, 3.58955264091491699219e-01) (79, -8.76843571662902832031e-01) (80, -1.33155047893524169922e+00) (81, -5.49209564924240112305e-02) (82, 9.15584385395050048828e-01) (83, -8.61619234085083007812e-01) (84, -8.89170408248901367188e-01) (85, 1.55478966236114501953e+00) (86, 1.38617992401123046875e+00) (87, -9.60459649562835693359e-01) (88, -5.22173702716827392578e-01) (89, -7.55616009235382080078e-01) (90, -3.57628762722015380859e-01) (91, -6.39735817909240722656e-01) (92, 3.66860926151275634766e-01) (93, -5.55214166641235351562e-01) (94, 6.15360915660858154297e-01) (95, -5.48752367496490478516e-01) (96, 5.29591500759124755859e-01) (97, -4.28170919418334960938e-01) (98, -1.91158866882324218750e+00) (99, 2.08360329270362854004e-01) (100, 1.49901056289672851562e+00) (101, -6.93183720111846923828e-01) (102, 1.07270288467407226562e+00) (103, 1.07965719699859619141e+00) (104, 1.37646341323852539062e+00) (0, 2.81121551990509033203e-01) (1, -1.61789014935493469238e-01) (2, -8.16289246082305908203e-01) (3, 7.77153015136718750000e-01) (4, -7.33259856700897216797e-01) (5, 2.74944901466369628906e+00) (6, 8.15275073051452636719e-01) (7, 9.28475916385650634766e-01) (8, 4.95343112945556640625e+00) (9, 9.49331343173980712891e-01) (10, 7.83602535724639892578e-01) (11, 9.79431211948394775391e-01) (12, 9.16151940822601318359e-01) (13, -1.45304739475250244141e+00) (14, 8.58588695526123046875e-01) (15, -8.34091007709503173828e-01) (16, -7.95029520988464355469e-01) (17, -8.14168870449066162109e-01) (18, -9.22122836112976074219e-01) (19, -8.67092967033386230469e-01) (20, 1.50249898433685302734e+00) (21, -7.10376977920532226562e-01) (22, -6.45530819892883300781e-01) (23, -7.18501091003417968750e-01) (24, -1.50356495380401611328e+00) (25, 1.25946331024169921875e+00) (26, -4.04841691255569458008e-01) (27, 1.91575184464454650879e-01) (28, 9.21448826789855957031e-01) (29, 1.69340753555297851562e+00) (30, -6.77025318145751953125e-01) (31, -7.95125544071197509766e-01) (32, 1.02656781673431396484e+00) (33, 7.57898151874542236328e-01) (34, -2.06613376736640930176e-01) (35, -9.93718683719635009766e-01) (36, 9.05345618724822998047e-01) (37, -6.79538607597351074219e-01) (38, 2.00589966773986816406e+00) (39, 9.80459898710250854492e-02) (40, -7.42193698883056640625e-01) (41, 4.77762788534164428711e-01) (42, -8.75717043876647949219e-01) (43, -9.17654216289520263672e-01) (44, 9.02122139930725097656e-01) (45, 8.92972350120544433594e-01) (46, -2.04099464416503906250e+00) (47, -7.84436166286468505859e-01) (48, -4.46237534284591674805e-01) (49, 9.57053527235984802246e-02) (50, -9.86258208751678466797e-01) (51, -1.06335902214050292969e+00) (52, 8.01090419292449951172e-01) (53, 4.91550415754318237305e-01) (54, 7.71860241889953613281e-01) (55, -7.94748425483703613281e-01) (56, -7.24983274936676025391e-01) (57, 1.32378602027893066406e+00) (58, -9.20032203197479248047e-01) (59, -7.42510557174682617188e-01) (60, 8.89704167842864990234e-01) (61, -1.09202361106872558594e+00) (62, 9.02285516262054443359e-01) (63, 1.15780997276306152344e+00) (64, 1.98081028461456298828e+00) (65, -6.85382187366485595703e-01) (66, 1.04088902473449707031e+00) (67, -7.42641270160675048828e-01) (68, -9.25691664218902587891e-01) (69, -6.82884752750396728516e-01) (70, -5.37192583084106445312e-01) (71, -8.53294134140014648438e-01) (72, -3.91722857952117919922e-01) (73, 4.51012283563613891602e-01) (74, 2.72242158651351928711e-01) (75, 2.25213244557380676270e-01) (76, 9.89852696657180786133e-02) (77, 1.13253772258758544922e-01) (78, 5.74673891067504882812e-01) (79, -5.17632782459259033203e-01) (80, 6.11880660057067871094e-01) (81, 7.45510399341583251953e-01) (82, -8.21061253547668457031e-01) (83, 2.73297637701034545898e-01) (84, -7.36570537090301513672e-01) (85, 4.96562570333480834961e-01) (86, -8.12905550003051757812e-01) (87, -7.05934524536132812500e-01) (88, -3.21185380220413208008e-01) (89, -6.97092413902282714844e-01) (90, 1.15607702732086181641e+00) (91, 1.19384014606475830078e+00) (92, -2.40406811237335205078e-01) (93, 7.82003998756408691406e-02) (94, -6.83256030082702636719e-01) (95, -8.73905956745147705078e-01) (96, -7.59010195732116699219e-01) (97, 7.62168467044830322266e-01) (98, -8.52002501487731933594e-01) (99, -1.01349389553070068359e+00) (100, 4.80743020772933959961e-01) (101, -1.67517468333244323730e-01) (102, -6.40431046485900878906e-01) (103, 2.45159673690795898438e+00) (104, 2.68793535232543945312e+00) (0, -1.20913684368133544922e+00) (1, 8.93252253532409667969e-01) (2, 1.57202100753784179688e+00) (3, 8.13215136528015136719e-01) (4, 1.37900257110595703125e+00) (5, 1.51913928985595703125e+00) (6, 1.89392733573913574219e+00) (7, 1.21285545825958251953e+00) (8, -1.60780143737792968750e+01) (9, 1.84094464778900146484e+00) (10, -1.43827486038208007812e+01) (11, 6.41854524612426757812e-01) (12, 1.74477970600128173828e+00) (13, 8.95964026451110839844e-01) (14, 1.93653094768524169922e+00) (15, 1.50099790096282958984e+00) (16, 1.44145798683166503906e+00) (17, 1.43367624282836914062e+00) (18, 2.79510438442230224609e-01) (19, -7.83650684356689453125e+00) (20, 1.60891735553741455078e+00) (21, 1.97276473045349121094e+00) (22, 5.39584577083587646484e-01) (23, -1.03490037918090820312e+01) (24, 1.73133766651153564453e+00) (25, 1.45245790481567382812e+00) (26, 1.42696094512939453125e+00) (27, 8.40289533138275146484e-01) (28, 8.52350369095802307129e-02) (29, 1.58404123783111572266e+00) (30, 1.41111242771148681641e+00) (31, 4.82475399971008300781e-01) (32, 1.86654400825500488281e+00) (33, 1.74356436729431152344e+00) (34, 1.50070869922637939453e+00) (35, 1.76327157020568847656e+00) (36, 1.49000453948974609375e+00) (37, 1.83460080623626708984e+00) (38, 1.39184224605560302734e+00) (39, 1.35471487045288085938e+00) (40, 1.37876677513122558594e+00) (41, 1.37079811096191406250e+00) (42, 1.86467957496643066406e+00) (43, 2.33696484565734863281e+00) (44, 1.77586567401885986328e+00) (45, 4.38002884387969970703e-01) (46, 1.54120671749114990234e+00) (47, 1.78565633296966552734e+00) (48, 1.36893355846405029297e+00) (49, 1.34195744991302490234e+00) (50, 1.51785111427307128906e+00) (51, 3.72670531272888183594e-01) (52, 1.39369785785675048828e+00) (53, 1.84367740154266357422e+00) (54, 1.87469601631164550781e+00) (55, -4.39318466186523437500e+00) (56, 1.73537933826446533203e+00) (57, 2.82829105854034423828e-01) (58, 1.77760624885559082031e+00) (59, 1.29187726974487304688e+00) (60, 1.42046415805816650391e+00) (61, 1.38288664817810058594e+00) (62, 2.76619005203247070312e+00) (63, 1.54047381877899169922e+00) (64, 2.26684117317199707031e+00) (65, 1.43647909164428710938e+00) (66, 2.24666094779968261719e+00) (67, 1.36630356311798095703e+00) (68, 1.11139440536499023438e+01) (69, 4.42781219482421875000e+01) (70, 7.27698564529418945312e-01) (71, 1.54388773441314697266e+00) (72, 1.39933907985687255859e+00) (73, 1.66620254516601562500e+00) (74, 3.09053182601928710938e-01) (75, 1.32067608833312988281e+00) (76, 6.83520257472991943359e-01) (77, 1.49484050273895263672e+00) (78, 1.25103747844696044922e+00) (79, 1.30734038352966308594e+00) (80, 1.81051957607269287109e+00) (81, 1.90306079387664794922e+00) (82, 1.53368842601776123047e+00) (83, 1.78729248046875000000e+00) (84, 1.74050104618072509766e+00) (85, 2.19980096817016601562e+00) (86, 1.40917015075683593750e+00) (87, 1.87672591209411621094e+00) (88, 2.25954556465148925781e+00) (89, 1.28654849529266357422e+00) (90, 1.43847334384918212891e+00) (91, 1.23417031764984130859e+00) (92, 1.95349001884460449219e+00) (93, 1.91350650787353515625e+00) (94, 1.41056525707244873047e+00) (95, 1.41798806190490722656e+00) (96, 1.77767324447631835938e+00) (97, 9.92214083671569824219e-01) (98, 1.38427567481994628906e+00) (99, 1.56081473827362060547e+00) (100, 1.48432230949401855469e+00) (101, 2.10107755661010742188e+00) (102, -1.75773549079895019531e+00) (103, 5.00262260437011718750e+00) (104, 4.27242785692214965820e-01) (105, 1.44432377815246582031e+00) (106, 9.16365504264831542969e-01) (107, 2.48314166069030761719e+00) (108, 3.19317412376403808594e+00) (109, 1.43702757358551025391e+00) (110, -2.06440734863281250000e+00) (111, 1.35517883300781250000e+00) (112, 1.39108324050903320312e+00) (113, 2.81132841110229492188e+00) (114, 1.24669969081878662109e+00) (115, 1.40936696529388427734e+00) (116, 4.08525753021240234375e+00) (117, 2.60931658744812011719e+00) (118, -1.85337460041046142578e+00) (119, 9.10297155380249023438e-01) (120, -1.73933267593383789062e+00) (121, 1.54650402069091796875e+00) (122, 4.32491922378540039062e+00) (123, 3.98472356796264648438e+00) (124, 4.31487035751342773438e+00) (125, 1.75956606864929199219e+00) (126, 4.39562034606933593750e+00) (127, -2.18480992317199707031e+00) (128, -7.16220378875732421875e-01) (129, 1.36005759239196777344e+00) (130, 6.12294733524322509766e-01) 
