FANN_FLO_2.1
num_layers=3
learning_rate=0.700000
connection_rate=1.000000
network_type=0
learning_momentum=0.000000
training_algorithm=2
train_error_function=1
train_stop_function=0
cascade_output_change_fraction=0.010000
quickprop_decay=-0.000100
quickprop_mu=1.750000
rprop_increase_factor=1.200000
rprop_decrease_factor=0.500000
rprop_delta_min=0.000000
rprop_delta_max=50.000000
rprop_delta_zero=0.100000
cascade_output_stagnation_epochs=12
cascade_candidate_change_fraction=0.010000
cascade_candidate_stagnation_epochs=12
cascade_max_out_epochs=150
cascade_max_cand_epochs=150
cascade_num_candidate_groups=2
bit_fail_limit=3.49999994039535522461e-01
cascade_candidate_limit=1.00000000000000000000e+03
cascade_weight_multiplier=4.00000005960464477539e-01
cascade_activation_functions_count=10
cascade_activation_functions=3 5 7 8 10 11 14 15 16 17 
cascade_activation_steepnesses_count=4
cascade_activation_steepnesses=2.50000000000000000000e-01 5.00000000000000000000e-01 7.50000000000000000000e-01 1.00000000000000000000e+00 
layer_sizes=105 26 2 
scale_included=0
neurons (num_inputs, activation_function, activation_steepness)=(0, 0, 0.00000000000000000000e+00) (0, 0, 0.00000000000000000000e+00) (0, 0, 0.00000000000000000000e+00) (0, 0, 0.00000000000000000000e+00) (0, 0, 0.00000000000000000000e+00) (0, 0, 0.00000000000000000000e+00) (0, 0, 0.00000000000000000000e+00) (0, 0, 0.00000000000000000000e+00) (0, 0, 0.00000000000000000000e+00) (0, 0, 0.00000000000000000000e+00) (0, 0, 0.00000000000000000000e+00) (0, 0, 0.00000000000000000000e+00) (0, 0, 0.00000000000000000000e+00) (0, 0, 0.00000000000000000000e+00) (0, 0, 0.00000000000000000000e+00) (0, 0, 0.00000000000000000000e+00) (0, 0, 0.00000000000000000000e+00) (0, 0, 0.00000000000000000000e+00) (0, 0, 0.00000000000000000000e+00) (0, 0, 0.00000000000000000000e+00) (0, 0, 0.00000000000000000000e+00) (0, 0, 0.00000000000000000000e+00) (0, 0, 0.00000000000000000000e+00) (0, 0, 0.00000000000000000000e+00) (0, 0, 0.00000000000000000000e+00) (0, 0, 0.00000000000000000000e+00) (0, 0, 0.00000000000000000000e+00) (0, 0, 0.00000000000000000000e+00) (0, 0, 0.00000000000000000000e+00) (0, 0, 0.00000000000000000000e+00) (0, 0, 0.00000000000000000000e+00) (0, 0, 0.00000000000000000000e+00) (0, 0, 0.00000000000000000000e+00) (0, 0, 0.00000000000000000000e+00) (0, 0, 0.00000000000000000000e+00) (0, 0, 0.00000000000000000000e+00) (0, 0, 0.00000000000000000000e+00) (0, 0, 0.00000000000000000000e+00) (0, 0, 0.00000000000000000000e+00) (0, 0, 0.00000000000000000000e+00) (0, 0, 0.00000000000000000000e+00) (0, 0, 0.00000000000000000000e+00) (0, 0, 0.00000000000000000000e+00) (0, 0, 0.00000000000000000000e+00) (0, 0, 0.00000000000000000000e+00) (0, 0, 0.00000000000000000000e+00) (0, 0, 0.00000000000000000000e+00) (0, 0, 0.00000000000000000000e+00) (0, 0, 0.00000000000000000000e+00) (0, 0, 0.00000000000000000000e+00) (0, 0, 0.00000000000000000000e+00) (0, 0, 0.00000000000000000000e+00) (0, 0, 0.00000000000000000000e+00) (0, 0, 0.00000000000000000000e+00) (0, 0, 0.00000000000000000000e+00) (0, 0, 0.00000000000000000000e+00) (0, 0, 0.00000000000000000000e+00) (0, 0, 0.00000000000000000000e+00) (0, 0, 0.00000000000000000000e+00) (0, 0, 0.00000000000000000000e+00) (0, 0, 0.00000000000000000000e+00) (0, 0, 0.00000000000000000000e+00) (0, 0, 0.00000000000000000000e+00) (0, 0, 0.00000000000000000000e+00) (0, 0, 0.00000000000000000000e+00) (0, 0, 0.00000000000000000000e+00) (0, 0, 0.00000000000000000000e+00) (0, 0, 0.00000000000000000000e+00) (0, 0, 0.00000000000000000000e+00) (0, 0, 0.00000000000000000000e+00) (0, 0, 0.00000000000000000000e+00) (0, 0, 0.00000000000000000000e+00) (0, 0, 0.00000000000000000000e+00) (0, 0, 0.00000000000000000000e+00) (0, 0, 0.00000000000000000000e+00) (0, 0, 0.00000000000000000000e+00) (0, 0, 0.00000000000000000000e+00) (0, 0, 0.00000000000000000000e+00) (0, 0, 0.00000000000000000000e+00) (0, 0, 0.00000000000000000000e+00) (0, 0, 0.00000000000000000000e+00) (0, 0, 0.00000000000000000000e+00) (0, 0, 0.00000000000000000000e+00) (0, 0, 0.00000000000000000000e+00) (0, 0, 0.00000000000000000000e+00) (0, 0, 0.00000000000000000000e+00) (0, 0, 0.00000000000000000000e+00) (0, 0, 0.00000000000000000000e+00) (0, 0, 0.00000000000000000000e+00) (0, 0, 0.00000000000000000000e+00) (0, 0, 0.00000000000000000000e+00) (0, 0, 0.00000000000000000000e+00) (0, 0, 0.00000000000000000000e+00) (0, 0, 0.00000000000000000000e+00) (0, 0, 0.00000000000000000000e+00) (0, 0, 0.00000000000000000000e+00) (0, 0, 0.00000000000000000000e+00) (0, 0, 0.00000000000000000000e+00) (0, 0, 0.00000000000000000000e+00) (0, 0, 0.00000000000000000000e+00) (0, 0, 0.00000000000000000000e+00) (0, 0, 0.00000000000000000000e+00) (0, 0, 0.00000000000000000000e+00) (0, 0, 0.00000000000000000000e+00) (0, 0, 0.00000000000000000000e+00) (105, 5, 5.00000000000000000000e-01) (105, 5, 5.00000000000000000000e-01) (105, 5, 5.00000000000000000000e-01) (105, 5, 5.00000000000000000000e-01) (105, 5, 5.00000000000000000000e-01) (105, 5, 5.00000000000000000000e-01) (105, 5, 5.00000000000000000000e-01) (105, 5, 5.00000000000000000000e-01) (105, 5, 5.00000000000000000000e-01) (105, 5, 5.00000000000000000000e-01) (105, 5, 5.00000000000000000000e-01) (105, 5, 5.00000000000000000000e-01) (105, 5, 5.00000000000000000000e-01) (105, 5, 5.00000000000000000000e-01) (105, 5, 5.00000000000000000000e-01) (105, 5, 5.00000000000000000000e-01) (105, 5, 5.00000000000000000000e-01) (105, 5, 5.00000000000000000000e-01) (105, 5, 5.00000000000000000000e-01) (105, 5, 5.00000000000000000000e-01) (105, 5, 5.00000000000000000000e-01) (105, 5, 5.00000000000000000000e-01) (105, 5, 5.00000000000000000000e-01) (105, 5, 5.00000000000000000000e-01) (105, 5, 5.00000000000000000000e-01) (0, 5, 0.00000000000000000000e+00) (26, 5, 5.00000000000000000000e-01) (0, 5, 0.00000000000000000000e+00) 
connections (connected_to_neuron, weight)=(0, 7.53269731998443603516e-01) (1, 6.06742322444915771484e-01) (2, 1.09472393989562988281e+00) (3, 1.53488039970397949219e+00) (4, 1.22755360603332519531e+00) (5, 7.83209145069122314453e-01) (6, 1.14847111701965332031e+00) (7, 3.78515332937240600586e-01) (8, 1.59371331334114074707e-01) (9, -1.59323349595069885254e-01) (10, -5.13359844684600830078e-01) (11, -1.26137948036193847656e+00) (12, 6.30340754985809326172e-01) (13, 1.04852867126464843750e+00) (14, -7.64499366283416748047e-01) (15, 8.31762373447418212891e-01) (16, 1.38067078590393066406e+00) (17, -1.45673048496246337891e+00) (18, 1.91145372390747070312e+00) (19, 7.48791933059692382812e-01) (20, -1.00541388988494873047e+00) (21, -9.00752782821655273438e-01) (22, 4.32530820369720458984e-01) (23, -5.58075904846191406250e-01) (24, -9.51440036296844482422e-01) (25, -1.24987816810607910156e+00) (26, 1.47823286056518554688e+00) (27, 1.12005555629730224609e+00) (28, 1.05003011226654052734e+00) (29, 1.22313249111175537109e+00) (30, -7.25562810897827148438e-01) (31, -6.16669468581676483154e-02) (32, 1.75837382674217224121e-01) (33, -2.75379363447427749634e-02) (34, -1.49426043033599853516e+00) (35, 2.65783160924911499023e-01) (36, 1.65330946445465087891e-01) (37, -9.62784826755523681641e-01) (38, 8.57038617134094238281e-01) (39, -8.63042354583740234375e-01) (40, -3.30935388803482055664e-01) (41, -1.14561283588409423828e+00) (42, 5.23190379142761230469e-01) (43, 8.40528681874275207520e-03) (44, 8.59120190143585205078e-01) (45, -8.13438475131988525391e-01) (46, 1.35292577743530273438e+00) (47, -2.54279132932424545288e-02) (48, 2.71964401006698608398e-01) (49, 1.32440340518951416016e+00) (50, -8.53743612766265869141e-01) (51, -7.49761700630187988281e-01) (52, -2.97289729118347167969e-01) (53, 3.49462181329727172852e-01) (54, -1.14990077912807464600e-01) (55, -9.10330042243003845215e-02) (56, -5.69776475429534912109e-01) (57, 9.74648356437683105469e-01) (58, 1.23346805572509765625e+00) (59, 1.95779964327812194824e-01) (60, -4.14674907922744750977e-01) (61, -3.14800977706909179688e-01) (62, 5.93775033950805664062e-01) (63, -5.33930420875549316406e-01) (64, -1.62175536155700683594e+00) (65, -3.47412228584289550781e-01) (66, -4.32702869176864624023e-01) (67, 6.76878213882446289062e-01) (68, -8.29837381839752197266e-01) (69, -4.15443303063511848450e-03) (70, -5.52820563316345214844e-01) (71, -8.82594048976898193359e-01) (72, -3.24522346258163452148e-01) (73, -1.13436090946197509766e+00) (74, -3.78455728292465209961e-01) (75, 6.55931234359741210938e+00) (76, -6.16385817527770996094e-01) (77, -5.28891324996948242188e-01) (78, -2.33262228965759277344e+00) (79, 1.02809417247772216797e+00) (80, 5.53484559059143066406e-01) (81, 8.29166591167449951172e-01) (82, -2.70791888236999511719e-01) (83, -3.88065934181213378906e-01) (84, 6.87050521373748779297e-01) (85, -5.41594803333282470703e-01) (86, -4.57037687301635742188e-01) (87, -7.77205705642700195312e-01) (88, 9.28197562694549560547e-01) (89, 1.94709610939025878906e+00) (90, 1.47890180349349975586e-01) (91, 6.59606516361236572266e-01) (92, -8.00697088241577148438e-01) (93, -7.68843516707420349121e-02) (94, -5.77205240726470947266e-01) (95, -1.60870477557182312012e-01) (96, -6.75424635410308837891e-01) (97, -8.91284883022308349609e-01) (98, -1.54881849884986877441e-01) (99, -5.10186970233917236328e-01) (100, -7.11883008480072021484e-01) (101, -7.30121850967407226562e-01) (102, -7.88852155208587646484e-01) (103, 3.43638920783996582031e+00) (104, 2.86013936996459960938e+00) (0, 1.11657142639160156250e+02) (1, 9.19354140758514404297e-01) (2, 1.07243359088897705078e+00) (3, 1.26615798473358154297e+00) (4, 1.06211090087890625000e+00) (5, 1.38036704063415527344e+00) (6, 1.70029687881469726562e+00) (7, 8.65185916423797607422e-01) (8, 6.57417416572570800781e-01) (9, 1.73942553997039794922e+00) (10, 1.12231063842773437500e+00) (11, 1.32462906837463378906e+00) (12, 1.79446029663085937500e+00) (13, 1.51866757869720458984e+00) (14, 1.44452083110809326172e+00) (15, 1.87379467487335205078e+00) (16, 6.93104743957519531250e-01) (17, 1.71325433254241943359e+00) (18, 9.11872267723083496094e-01) (19, 1.41299986839294433594e+00) (20, 9.38612759113311767578e-01) (21, 1.76209282875061035156e+00) (22, 6.15667402744293212891e-01) (23, 1.81195974349975585938e+00) (24, 1.00570607185363769531e+00) (25, 9.40619707107543945312e-01) (26, 1.00845587253570556641e+00) (27, 1.37835621833801269531e+00) (28, 1.29834353923797607422e+00) (29, 1.84194123744964599609e+00) (30, 1.80088007450103759766e+00) (31, 1.35761249065399169922e+00) (32, 1.73086059093475341797e+00) (33, 1.35408651828765869141e+00) (34, 3.65341353416442871094e+00) (35, 1.32628810405731201172e+00) (36, 1.30296659469604492188e+00) (37, 2.00677585601806640625e+00) (38, 1.55833864212036132812e+00) (39, 1.32450211048126220703e+00) (40, 4.78399783372879028320e-01) (41, 1.45148420333862304688e+00) (42, 1.35585355758666992188e+00) (43, 1.28716325759887695312e+00) (44, 1.27309870719909667969e+00) (45, 2.01911091804504394531e+00) (46, 1.26979529857635498047e+00) (47, 1.50057506561279296875e+00) (48, 1.59241187572479248047e+00) (49, 1.21672010421752929688e+00) (50, 1.16968393325805664062e+00) (51, 1.07824361324310302734e+00) (52, 1.05633318424224853516e+00) (53, 1.27728772163391113281e+00) (54, 1.42940723896026611328e+00) (55, 1.63573992252349853516e+00) (56, 9.47890579700469970703e-01) (57, 2.00251293182373046875e+00) (58, 9.52466547489166259766e-01) (59, 1.43384599685668945312e+00) (60, 1.86926496028900146484e+00) (61, 1.45739912986755371094e+00) (62, 2.01554894447326660156e+00) (63, 1.08770787715911865234e+00) (64, 1.34196305274963378906e+00) (65, 1.34684705734252929688e+00) (66, 1.91006553173065185547e+00) (67, 1.09776055812835693359e+00) (68, 2.06390166282653808594e+00) (69, 1.91812431812286376953e+00) (70, 1.04808509349822998047e+00) (71, 1.41281235218048095703e+00) (72, 1.72418630123138427734e+00) (73, 5.44961452484130859375e-01) (74, 1.37662756443023681641e+00) (75, 6.22685194015502929688e-01) (76, 3.98736417293548583984e-01) (77, 1.36485612392425537109e+00) (78, 2.10208344459533691406e+00) (79, 8.93193483352661132812e-01) (80, 4.58059638738632202148e-01) (81, 1.03741693496704101562e+00) (82, 1.53686749935150146484e+00) (83, 1.42954909801483154297e+00) (84, 1.79887080192565917969e+00) (85, 8.23234200477600097656e-01) (86, 1.35878407955169677734e+00) (87, 1.32652950286865234375e+00) (88, 1.75744962692260742188e+00) (89, 1.61802828311920166016e+00) (90, 1.04898822307586669922e+00) (91, 1.79392278194427490234e+00) (92, 1.59178888797760009766e+00) (93, 1.97367322444915771484e+00) (94, 1.38459658622741699219e+00) (95, 2.01956129074096679688e+00) (96, 2.02266573905944824219e+00) (97, -2.78846912384033203125e+01) (98, 1.84565007686614990234e+00) (99, 1.90691626071929931641e+00) (100, 1.29777848720550537109e+00) (101, 2.19750380516052246094e+00) (102, 1.54895752668380737305e-01) (103, 1.89769315719604492188e+00) (104, -8.17053765058517456055e-02) (0, 1.63223206996917724609e+00) (1, -5.62205016613006591797e-01) (2, -4.51141238212585449219e-01) (3, -9.70598101615905761719e-01) (4, -5.94536781311035156250e-01) (5, 4.38518114387989044189e-02) (6, -7.11520165205001831055e-02) (7, -1.86387836933135986328e-01) (8, -1.80817157030105590820e-01) (9, 1.16926006972789764404e-01) (10, -4.62472617626190185547e-01) (11, -3.54182213544845581055e-01) (12, 2.42147967219352722168e-01) (13, -3.22118937969207763672e-01) (14, -6.71326637268066406250e-01) (15, -4.47062283754348754883e-01) (16, -6.12528979778289794922e-01) (17, -7.30745792388916015625e-01) (18, 1.21216344833374023438e+00) (19, -1.25860482454299926758e-01) (20, 8.26043963432312011719e-01) (21, 1.42915809154510498047e+00) (22, -8.47583949565887451172e-01) (23, 1.04037261009216308594e+00) (24, 1.46399760246276855469e+00) (25, 8.54315340518951416016e-01) (26, -7.98468053340911865234e-01) (27, -7.27083623409271240234e-01) (28, 9.48434233665466308594e-01) (29, -7.02069103717803955078e-01) (30, -1.30996847152709960938e+00) (31, 1.33593666553497314453e+00) (32, 7.08336472511291503906e-01) (33, -4.41226959228515625000e-01) (34, 1.10720373690128326416e-01) (35, -9.49002951383590698242e-02) (36, -7.79832601547241210938e-01) (37, 4.80859540402889251709e-02) (38, 2.06605195999145507812e-01) (39, -6.21834397315979003906e-01) (40, -3.46155464649200439453e-01) (41, 4.49140936136245727539e-01) (42, -5.12240827083587646484e-01) (43, 1.52988159656524658203e+00) (44, 8.69713068008422851562e-01) (45, 7.52562820911407470703e-01) (46, 4.98090654611587524414e-01) (47, -5.95219954848289489746e-02) (48, -1.13865740597248077393e-01) (49, -6.46733105182647705078e-01) (50, -8.47292602062225341797e-01) (51, -5.84090054035186767578e-01) (52, -2.86795049905776977539e-01) (53, 5.32132565975189208984e-01) (54, -1.96776121854782104492e-01) (55, 9.37882423400878906250e-01) (56, -8.00001502037048339844e-01) (57, -9.74604368209838867188e-01) (58, 7.96506166458129882812e-01) (59, 2.82604098320007324219e-01) (60, -1.03253114223480224609e+00) (61, 4.48031008243560791016e-01) (62, -2.87806898355484008789e-01) (63, -6.57118141651153564453e-01) (64, 7.53843411803245544434e-02) (65, -7.30788648128509521484e-01) (66, -9.06707227230072021484e-01) (67, 3.58684480190277099609e-01) (68, 4.52937573194503784180e-01) (69, -1.36170029640197753906e-01) (70, -7.54278898239135742188e-01) (71, -4.32156562805175781250e-01) (72, 6.30505621433258056641e-01) (73, 1.48426842689514160156e+00) (74, -6.08765065670013427734e-01) (75, 7.22460329532623291016e-01) (76, -1.93449124693870544434e-01) (77, -8.52482974529266357422e-01) (78, 1.17954218387603759766e+00) (79, -2.79547393321990966797e-01) (80, 1.51699030399322509766e+00) (81, -7.06379890441894531250e-01) (82, -4.34726893901824951172e-01) (83, -2.98862785100936889648e-01) (84, 4.69261920079588890076e-03) (85, -1.72663345932960510254e-01) (86, -7.87499070167541503906e-01) (87, 1.03841650485992431641e+00) (88, 6.67774379253387451172e-01) (89, -8.22328686714172363281e-01) (90, -6.68319225311279296875e-01) (91, -6.19631648063659667969e-01) (92, 2.11872667074203491211e-01) (93, -1.49840116500854492188e-01) (94, -5.90306818485260009766e-01) (95, 1.16270589828491210938e+00) (96, 9.80633556842803955078e-01) (97, 5.73228336870670318604e-02) (98, 4.23333831131458282471e-02) (99, 9.71580624580383300781e-01) (100, -6.69304013252258300781e-01) (101, 2.57294327020645141602e-01) (102, 2.16041803359985351562e+00) (103, 2.50439763069152832031e-01) (104, 2.50131058692932128906e+00) (0, 1.15189643859863281250e+02) (1, 9.58060383796691894531e-01) (2, 1.28960502147674560547e+00) (3, 1.41700387001037597656e+00) (4, 1.10602891445159912109e+00) (5, 1.37146103382110595703e+00) (6, 1.92933678627014160156e+00) (7, 1.23802387714385986328e+00) (8, 1.04250311851501464844e+00) (9, 1.81171143054962158203e+00) (10, 1.50363719463348388672e+00) (11, 1.51042234897613525391e+00) (12, 1.78121078014373779297e+00) (13, 1.73602414131164550781e+00) (14, 1.64118182659149169922e+00) (15, 2.02248167991638183594e+00) (16, 1.60132431983947753906e+00) (17, 1.88002634048461914062e+00) (18, 1.06704199314117431641e+00) (19, 1.56564652919769287109e+00) (20, 1.01730513572692871094e+00) (21, 1.99176776409149169922e+00) (22, 6.58285617828369140625e-01) (23, 1.42252111434936523438e+00) (24, 9.67044353485107421875e-01) (25, 8.76289963722229003906e-01) (26, 9.95743334293365478516e-01) (27, 1.50714635848999023438e+00) (28, 1.28770077228546142578e+00) (29, 1.88778471946716308594e+00) (30, 1.76858961582183837891e+00) (31, 1.52518188953399658203e+00) (32, 1.86866962909698486328e+00) (33, 1.46839606761932373047e+00) (34, 2.24497747421264648438e+00) (35, 1.30241429805755615234e+00) (36, 1.27300941944122314453e+00) (37, 2.04218029975891113281e+00) (38, 1.77225148677825927734e+00) (39, 1.54790365695953369141e+00) (40, 1.10061740875244140625e+00) (41, 1.35551774501800537109e+00) (42, 1.49803316593170166016e+00) (43, 1.60255372524261474609e+00) (44, 1.47640812397003173828e+00) (45, 2.12717890739440917969e+00) (46, 1.43771660327911376953e+00) (47, 1.57479310035705566406e+00) (48, 1.87679445743560791016e+00) (49, 1.28858125209808349609e+00) (50, 1.26900470256805419922e+00) (51, 1.30297398567199707031e+00) (52, 1.28759300708770751953e+00) (53, 1.58462429046630859375e+00) (54, 1.43441760540008544922e+00) (55, 1.69856166839599609375e+00) (56, 1.25744116306304931641e+00) (57, 2.05195713043212890625e+00) (58, 9.57356870174407958984e-01) (59, 1.52588319778442382812e+00) (60, 1.99554741382598876953e+00) (61, 1.36204481124877929688e+00) (62, 2.11958193778991699219e+00) (63, 1.34276998043060302734e+00) (64, 1.30951869487762451172e+00) (65, 1.62329590320587158203e+00) (66, 1.88847923278808593750e+00) (67, 1.27641344070434570312e+00) (68, 2.24703598022460937500e+00) (69, 2.22252440452575683594e+00) (70, 1.14036369323730468750e+00) (71, 1.51102650165557861328e+00) (72, 2.02926683425903320312e+00) (73, 1.24942100048065185547e+00) (74, 1.40691459178924560547e+00) (75, 6.83834552764892578125e-01) (76, 4.93826299905776977539e-01) (77, 1.43679189682006835938e+00) (78, 2.22650575637817382812e+00) (79, 9.10631954669952392578e-01) (80, 4.40854281187057495117e-01) (81, 1.05740034580230712891e+00) (82, 1.81776845455169677734e+00) (83, 1.51272976398468017578e+00) (84, 1.98950552940368652344e+00) (85, 1.53303015232086181641e+00) (86, 1.42996549606323242188e+00) (87, 1.48792791366577148438e+00) (88, 1.81281006336212158203e+00) (89, 1.70638275146484375000e+00) (90, 1.10826933383941650391e+00) (91, 1.97216248512268066406e+00) (92, 1.71514284610748291016e+00) (93, 2.24254131317138671875e+00) (94, 1.48118519783020019531e+00) (95, 2.20297694206237792969e+00) (96, 2.22079920768737792969e+00) (97, -2.17056884765625000000e+01) (98, 1.79143655300140380859e+00) (99, 1.93301284313201904297e+00) (100, 1.45954942703247070312e+00) (101, 2.36184692382812500000e+00) (102, 8.68074059486389160156e-01) (103, 1.06285858154296875000e+00) (104, -2.40316614508628845215e-01) (0, -2.65108680725097656250e+00) (1, 1.88331818580627441406e+00) (2, 2.96360373497009277344e+00) (3, -1.24197554588317871094e+00) (4, 9.50122401118278503418e-02) (5, 8.84545147418975830078e-01) (6, 4.58816862106323242188e+00) (7, -1.66847610473632812500e+00) (8, -7.66155576705932617188e+00) (9, 4.36401605606079101562e-01) (10, 1.26696735620498657227e-01) (11, -7.27019309997558593750e+00) (12, -7.11356401443481445312e-01) (13, 6.27387523651123046875e-01) (14, -2.43959665298461914062e-01) (15, 3.15086096525192260742e-01) (16, -8.20092797279357910156e-01) (17, 1.25187408924102783203e+00) (18, -3.72933954000473022461e-01) (19, 2.63371586799621582031e+00) (20, 1.06368529796600341797e+00) (21, 7.07847785949707031250e+00) (22, -2.12450718879699707031e+00) (23, -3.61432218551635742188e+00) (24, 1.35775148868560791016e+00) (25, 1.97397124767303466797e+00) (26, -1.48775470256805419922e+00) (27, 2.20363306999206542969e+00) (28, -3.41712713241577148438e+00) (29, 9.32600438594818115234e-01) (30, 3.47353506088256835938e+00) (31, 1.49262857437133789062e+00) (32, 3.05365753173828125000e+00) (33, -2.25766372680664062500e+00) (34, -1.47500765323638916016e+00) (35, -1.59225797653198242188e+00) (36, 2.15089297294616699219e+00) (37, -5.35252285003662109375e+00) (38, -6.06327867507934570312e+00) (39, -2.43745177984237670898e-01) (40, 1.03776454925537109375e-01) (41, 1.07232880592346191406e+00) (42, -2.17435240745544433594e-01) (43, -8.59655439853668212891e-01) (44, 5.09389400482177734375e-01) (45, -5.43060922622680664062e+00) (46, -5.81065081059932708740e-02) (47, 4.95462465286254882812e+00) (48, 9.19149935245513916016e-01) (49, 1.91670012474060058594e+00) (50, -3.11628174781799316406e+00) (51, -9.53068554401397705078e-01) (52, 1.33546143770217895508e-01) (53, -1.38025295734405517578e+00) (54, 3.74730020761489868164e-01) (55, -1.29332232475280761719e+00) (56, -3.74758553504943847656e+00) (57, -5.05644977092742919922e-01) (58, -9.23281848430633544922e-01) (59, -4.58004444837570190430e-01) (60, -3.15281629562377929688e-01) (61, -2.80112057924270629883e-01) (62, 4.59646224975585937500e+00) (63, 2.15271577239036560059e-01) (64, 2.92251753807067871094e+00) (65, 3.42295944690704345703e-01) (66, -5.05856096744537353516e-01) (67, 2.01436161994934082031e+00) (68, -3.24085921049118041992e-01) (69, 7.21439063549041748047e-01) (70, -1.79230004549026489258e-01) (71, -5.35687327384948730469e-01) (72, 4.82410565018653869629e-02) (73, -6.37466788291931152344e-01) (74, -8.35510015487670898438e-01) (75, 2.92033791542053222656e-01) (76, 2.06545615196228027344e+00) (77, 2.28450790047645568848e-01) (78, 7.85738825798034667969e-01) (79, -3.45682144165039062500e-01) (80, -1.06509459018707275391e+00) (81, 3.85927007300779223442e-04) (82, -7.22961360588669776917e-03) (83, -1.34122419357299804688e+00) (84, -6.16801738739013671875e-01) (85, 2.52900123596191406250e-01) (86, -9.82784405350685119629e-02) (87, -1.33779868483543395996e-01) (88, 3.33762192726135253906e+00) (89, -8.58897030353546142578e-01) (90, 1.49891781806945800781e+00) (91, 1.55880045890808105469e+00) (92, -1.29927849769592285156e+00) (93, 1.11771214008331298828e+00) (94, -7.69014477729797363281e-01) (95, -1.13906502723693847656e+00) (96, 1.09162831306457519531e+00) (97, 1.99446782469749450684e-01) (98, -2.31542849540710449219e+00) (99, -7.89983689785003662109e-01) (100, 1.91534727811813354492e-01) (101, -2.23309263586997985840e-01) (102, -5.92632532119750976562e-01) (103, 2.75895833969116210938e+00) (104, 2.46027326583862304688e+00) (0, 1.13033065795898437500e+02) (1, 9.69228148460388183594e-01) (2, 1.12187230587005615234e+00) (3, 1.56933474540710449219e+00) (4, 1.31020450592041015625e+00) (5, 1.51725971698760986328e+00) (6, 1.93323469161987304688e+00) (7, 1.05697476863861083984e+00) (8, 9.89380478858947753906e-01) (9, 1.88885557651519775391e+00) (10, 1.27878642082214355469e+00) (11, 1.30628919601440429688e+00) (12, 1.74710929393768310547e+00) (13, 1.70140397548675537109e+00) (14, 1.76335930824279785156e+00) (15, 2.03059649467468261719e+00) (16, 1.33255064487457275391e+00) (17, 1.89777660369873046875e+00) (18, 8.17613422870635986328e-01) (19, 1.68127930164337158203e+00) (20, 1.07721662521362304688e+00) (21, 1.73620843887329101562e+00) (22, 7.51261293888092041016e-01) (23, 1.91465234756469726562e+00) (24, 8.73133063316345214844e-01) (25, 1.10106623172760009766e+00) (26, 1.00563871860504150391e+00) (27, 1.63277041912078857422e+00) (28, 1.21653640270233154297e+00) (29, 1.94201660156250000000e+00) (30, 1.98779523372650146484e+00) (31, 1.67531228065490722656e+00) (32, 2.05159473419189453125e+00) (33, 1.57737660408020019531e+00) (34, 1.05529804229736328125e+01) (35, 1.64687144756317138672e+00) (36, 1.58942151069641113281e+00) (37, 2.07010149955749511719e+00) (38, 1.67717504501342773438e+00) (39, 1.61577570438385009766e+00) (40, 6.05848670005798339844e-01) (41, 1.29411888122558593750e+00) (42, 1.54963648319244384766e+00) (43, 1.34736871719360351562e+00) (44, 1.29185152053833007812e+00) (45, 2.26356792449951171875e+00) (46, 1.53353095054626464844e+00) (47, 1.78253996372222900391e+00) (48, 1.75438141822814941406e+00) (49, 1.23944354057312011719e+00) (50, 1.38859379291534423828e+00) (51, 1.29001438617706298828e+00) (52, 1.28404903411865234375e+00) (53, 1.34217226505279541016e+00) (54, 1.29170370101928710938e+00) (55, 8.00040721893310546875e-01) (56, 9.76935386657714843750e-01) (57, 2.08212041854858398438e+00) (58, 3.45722734928131103516e-01) (59, 1.68560039997100830078e+00) (60, 1.98061966896057128906e+00) (61, 1.43195545673370361328e+00) (62, 2.30777072906494140625e+00) (63, 1.31452131271362304688e+00) (64, 1.41940236091613769531e+00) (65, 1.52960431575775146484e+00) (66, 1.91571140289306640625e+00) (67, 1.08969807624816894531e+00) (68, 2.29379105567932128906e+00) (69, 2.16772580146789550781e+00) (70, 1.23113358020782470703e+00) (71, 1.49842000007629394531e+00) (72, 1.59259510040283203125e+00) (73, 1.22553670406341552734e+00) (74, 1.38411426544189453125e+00) (75, 8.58329534530639648438e-01) (76, 5.90557754039764404297e-01) (77, 1.44127130508422851562e+00) (78, 2.30586004257202148438e+00) (79, 9.53881859779357910156e-01) (80, 6.35510027408599853516e-01) (81, 1.25995898246765136719e+00) (82, 1.81995177268981933594e+00) (83, 1.27707397937774658203e+00) (84, 1.97021818161010742188e+00) (85, 1.12200844287872314453e+00) (86, 1.29267048835754394531e+00) (87, 1.41619908809661865234e+00) (88, 2.04511475563049316406e+00) (89, 1.73577475547790527344e+00) (90, 1.14633226394653320312e+00) (91, 1.90030407905578613281e+00) (92, 1.87457942962646484375e+00) (93, 2.29123306274414062500e+00) (94, 1.38976716995239257812e+00) (95, 2.22526764869689941406e+00) (96, 2.23506474494934082031e+00) (97, -2.74010505676269531250e+01) (98, 2.20999622344970703125e+00) (99, 2.27007651329040527344e+00) (100, 1.59864342212677001953e+00) (101, 2.32675361633300781250e+00) (102, 8.45360040664672851562e-01) (103, 9.10715401172637939453e-01) (104, -3.30800324678421020508e-01) (0, 1.88826298713684082031e+00) (1, 1.14723968505859375000e+00) (2, 1.51124370098114013672e+00) (3, 3.01670044660568237305e-01) (4, 6.86901360750198364258e-02) (5, 1.80255436897277832031e+00) (6, -1.03772497177124023438e+00) (7, 1.31237730383872985840e-01) (8, 2.04556012153625488281e+00) (9, 4.40155220031738281250e+00) (10, -3.26027274131774902344e+00) (11, -2.76588416099548339844e+00) (12, -7.75498330593109130859e-01) (13, -1.50449287891387939453e+00) (14, -7.37168788909912109375e-01) (15, 2.78886175155639648438e+00) (16, -2.99225375056266784668e-02) (17, -1.22193002700805664062e+00) (18, 1.90657818317413330078e+00) (19, -4.22366708517074584961e-02) (20, 2.49566078186035156250e+00) (21, 4.79635667800903320312e+00) (22, -5.51280736923217773438e+00) (23, -4.69302606582641601562e+00) (24, 7.53812789916992187500e-01) (25, 1.38572561740875244141e+00) (26, -2.06500387191772460938e+00) (27, -5.19606411457061767578e-01) (28, -3.00989198684692382812e+00) (29, -8.13791394233703613281e-01) (30, -3.62495601177215576172e-01) (31, -3.37776112556457519531e+00) (32, 3.25255513191223144531e+00) (33, -5.29209661483764648438e+00) (34, 1.88512480258941650391e+00) (35, -1.60259401798248291016e+00) (36, 1.95522761344909667969e+00) (37, 5.04205703735351562500e-01) (38, -7.94595837593078613281e-01) (39, -3.06554174423217773438e+00) (40, 2.41010332107543945312e+00) (41, 1.05784702301025390625e+00) (42, -8.10733318328857421875e-01) (43, -1.14840137958526611328e+00) (44, -8.67445945739746093750e-01) (45, 3.98424774408340454102e-01) (46, -7.65741569921374320984e-03) (47, 6.37236237525939941406e-01) (48, 3.12495923042297363281e+00) (49, 9.19810116291046142578e-01) (50, -2.23897862434387207031e+00) (51, -7.19872653484344482422e-01) (52, -2.55368494987487792969e+00) (53, 1.68556705117225646973e-01) (54, 1.42004144191741943359e+00) (55, 1.39013922214508056641e+00) (56, -7.58654356002807617188e-01) (57, -6.50699198246002197266e-01) (58, -1.88771948218345642090e-01) (59, -4.76549118757247924805e-01) (60, 2.42635130882263183594e-01) (61, -5.35467147827148437500e-01) (62, 2.00478291511535644531e+00) (63, 2.13535475730895996094e+00) (64, -1.11369036138057708740e-01) (65, 1.58002018928527832031e+00) (66, 2.06940937042236328125e+00) (67, 9.56945419311523437500e-01) (68, -7.53397166728973388672e-01) (69, -8.00824999809265136719e-01) (70, 1.64522850513458251953e+00) (71, 8.45177829265594482422e-01) (72, -9.42875206470489501953e-01) (73, -9.77110028266906738281e-01) (74, -9.57586526870727539062e-01) (75, -7.39035308361053466797e-01) (76, 5.37493407726287841797e-01) (77, -6.96213245391845703125e-01) (78, -7.30449557304382324219e-01) (79, -7.01103031635284423828e-01) (80, 8.81770789623260498047e-01) (81, -4.29175555706024169922e-01) (82, -1.04027986526489257812e+00) (83, -8.78864645957946777344e-01) (84, -3.47365178167819976807e-02) (85, -5.91223657131195068359e-01) (86, -4.85714048147201538086e-01) (87, -4.29581664502620697021e-02) (88, 1.53091752529144287109e+00) (89, -5.26218414306640625000e-01) (90, 4.81545418500900268555e-01) (91, -3.34296464920043945312e-01) (92, -8.06147694587707519531e-01) (93, -7.13400363922119140625e-01) (94, -6.54336750507354736328e-01) (95, 1.62771034240722656250e+00) (96, -8.83415281772613525391e-01) (97, -4.30732488632202148438e-01) (98, -8.08519482612609863281e-01) (99, -6.37406587600708007812e-01) (100, 2.78150653839111328125e+00) (101, -8.36749672889709472656e-01) (102, -2.88543850183486938477e-01) (103, 3.09657073020935058594e+00) (104, 2.85734200477600097656e+00) (0, 2.09565973281860351562e+00) (1, 1.40873515605926513672e+00) (2, 7.82888650894165039062e-01) (3, 3.92359375953674316406e-01) (4, -6.61160886287689208984e-01) (5, 7.51715600490570068359e-01) (6, -1.36962080001831054688e+00) (7, -3.36071550846099853516e-01) (8, 4.49113941192626953125e+00) (9, -7.70003795623779296875e-01) (10, -7.33202397823333740234e-02) (11, 9.36503589153289794922e-01) (12, -4.46797341108322143555e-01) (13, -1.37481117248535156250e+00) (14, 1.48939853534102439880e-02) (15, 3.36696058511734008789e-01) (16, -1.04022443294525146484e-01) (17, 1.36065351963043212891e+00) (18, -3.05028378963470458984e-01) (19, 3.84580254554748535156e-01) (20, 8.67177620530128479004e-02) (21, -4.63747084140777587891e-01) (22, -4.03409510850906372070e-01) (23, -1.15177881717681884766e+00) (24, 1.75440418720245361328e+00) (25, 2.67111515998840332031e+00) (26, 5.60274302959442138672e-01) (27, 8.44791159033775329590e-02) (28, -7.02956438064575195312e-01) (29, -7.42172971367835998535e-02) (30, -8.33938181400299072266e-01) (31, 9.72195342183113098145e-02) (32, 7.05992937088012695312e-01) (33, 1.36350703239440917969e+00) (34, -4.44973468780517578125e-01) (35, -8.06123197078704833984e-01) (36, 2.33672618865966796875e+00) (37, -1.10924638807773590088e-01) (38, 1.27904951572418212891e+00) (39, 9.92535412311553955078e-01) (40, 1.20764112472534179688e+00) (41, 1.19359418749809265137e-01) (42, 5.24001233279705047607e-02) (43, -6.45763397216796875000e-01) (44, 3.86440098285675048828e-01) (45, -6.08626663684844970703e-01) (46, -1.08446741104125976562e+00) (47, 2.55364060401916503906e+00) (48, 1.09861969947814941406e+00) (49, -8.27291369438171386719e-01) (50, -4.89652931690216064453e-01) (51, -1.60439980030059814453e+00) (52, 3.11806887388229370117e-01) (53, -6.65148377418518066406e-01) (54, 1.12637579441070556641e+00) (55, 3.61411523818969726562e+00) (56, -2.99745351076126098633e-01) (57, 4.90370154380798339844e-01) (58, 1.63815963268280029297e+00) (59, -1.08824181556701660156e+00) (60, -7.31877624988555908203e-01) (61, 1.68365120887756347656e+00) (62, -7.79032468795776367188e-01) (63, -6.95632994174957275391e-01) (64, -2.18593567609786987305e-01) (65, -5.81551671028137207031e-01) (66, -8.12788188457489013672e-01) (67, 6.00649788975715637207e-02) (68, -2.06905651092529296875e+00) (69, -3.90299856662750244141e-01) (70, -5.07570683956146240234e-01) (71, -8.05761694908142089844e-01) (72, -1.66031241416931152344e+00) (73, -6.08446896076202392578e-01) (74, 9.56906005740165710449e-02) (75, -1.75548121333122253418e-01) (76, 6.43014788627624511719e-01) (77, -2.76041269302368164062e-01) (78, -7.15340673923492431641e-01) (79, 1.35113179683685302734e+00) (80, 6.89656436443328857422e-01) (81, 7.33258903026580810547e-01) (82, -3.33379924297332763672e-01) (83, -5.47469675540924072266e-01) (84, -4.23941910266876220703e-01) (85, 2.28620871901512145996e-01) (86, -2.76384085416793823242e-01) (87, -6.58807039144448935986e-06) (88, -3.80610555410385131836e-01) (89, 1.23787440359592437744e-01) (90, 3.24262082576751708984e-01) (91, -5.22690415382385253906e-01) (92, -5.49961552023887634277e-02) (93, -2.07240790128707885742e-01) (94, -2.24374413490295410156e-01) (95, -1.22940266132354736328e+00) (96, 9.99928638339042663574e-02) (97, 4.22721713781356811523e-01) (98, 1.13697850704193115234e+00) (99, 5.64459562301635742188e-01) (100, -3.45271289348602294922e-01) (101, 9.41767156124114990234e-01) (102, -1.46780037879943847656e+00) (103, 3.71185398101806640625e+00) (104, 2.31966662406921386719e+00) (0, -6.15649282932281494141e-01) (1, -2.70199149847030639648e-01) (2, 1.04143738746643066406e+00) (3, -4.95506942272186279297e-01) (4, 7.97496080398559570312e-01) (5, 1.14700639247894287109e+00) (6, -6.86101019382476806641e-01) (7, -1.09788441658020019531e+00) (8, 9.47741746902465820312e-01) (9, -1.08737505972385406494e-01) (10, -4.65085446834564208984e-01) (11, -7.19442486763000488281e-01) (12, -8.06024730205535888672e-01) (13, -2.11394444108009338379e-01) (14, -6.25841975212097167969e-01) (15, -3.75080794095993041992e-01) (16, -4.68092083930969238281e-01) (17, -5.23543000221252441406e-01) (18, 7.28344976902008056641e-01) (19, -6.72354102134704589844e-01) (20, 7.92043685913085937500e-01) (21, 7.58248627185821533203e-01) (22, -3.58469069004058837891e-01) (23, 1.51804849505424499512e-01) (24, 5.67515671253204345703e-01) (25, 6.38594180345535278320e-02) (26, 2.32990026473999023438e-01) (27, 1.13498795032501220703e+00) (28, -4.72227364778518676758e-01) (29, 3.08668255805969238281e-01) (30, 6.05310499668121337891e-01) (31, 2.80422955751419067383e-01) (32, 5.81083536148071289062e-01) (33, 4.98926192522048950195e-02) (34, -9.33243483304977416992e-02) (35, -9.20646116137504577637e-02) (36, 2.52841085195541381836e-01) (37, -7.08659946918487548828e-01) (38, -3.00328284502029418945e-01) (39, -1.29716336727142333984e-01) (40, -2.70309478044509887695e-01) (41, -3.29673707485198974609e-01) (42, -3.00732284784317016602e-01) (43, -6.76464319229125976562e-01) (44, -6.49062216281890869141e-01) (45, 8.47335457801818847656e-01) (46, -1.59356430172920227051e-01) (47, 1.83205699920654296875e+00) (48, 1.73599839210510253906e-01) (49, -5.19045472145080566406e-01) (50, -4.26486313343048095703e-01) (51, -7.88276433944702148438e-01) (52, 7.76197552680969238281e-01) (53, 6.48884475231170654297e-01) (54, 6.71541213989257812500e-01) (55, 5.44815301895141601562e-01) (56, -2.47835516929626464844e-02) (57, -1.22367061674594879150e-01) (58, 2.02345654368400573730e-01) (59, -6.18633329868316650391e-01) (60, -2.80160278081893920898e-01) (61, -9.57093313336372375488e-02) (62, -6.30507588386535644531e-01) (63, 1.20538566261529922485e-02) (64, -4.90368038415908813477e-01) (65, -7.67194805666804313660e-03) (66, 2.77417182922363281250e-01) (67, 8.39142978191375732422e-01) (68, 9.28026914596557617188e-01) (69, 1.04043841361999511719e+00) (70, -3.95022720098495483398e-01) (71, -6.21028959751129150391e-01) (72, -1.37008666992187500000e-01) (73, -2.14531943202018737793e-01) (74, -2.68730342388153076172e-01) (75, -6.37686073780059814453e-01) (76, -3.50125402212142944336e-01) (77, -2.31517747044563293457e-01) (78, 1.06594336032867431641e+00) (79, 1.35669577866792678833e-02) (80, 1.23968446254730224609e+00) (81, -2.90288090705871582031e-01) (82, -7.41161465644836425781e-01) (83, 1.39494287967681884766e+00) (84, -7.04463362693786621094e-01) (85, -3.21998447179794311523e-02) (86, 1.74524545669555664062e-01) (87, -5.83916723728179931641e-01) (88, 7.53674656152725219727e-02) (89, -6.55377030372619628906e-01) (90, 2.48940080404281616211e-01) (91, 8.58524858951568603516e-01) (92, -4.41412091255187988281e-01) (93, 8.10599386692047119141e-01) (94, -1.12712532281875610352e-01) (95, 6.93633198738098144531e-01) (96, -7.35368967056274414062e-01) (97, 2.05380856990814208984e-01) (98, -1.78715571761131286621e-01) (99, 8.27181041240692138672e-01) (100, 1.16777074337005615234e+00) (101, 8.06211888790130615234e-01) (102, -7.21815288066864013672e-01) (103, 2.90164494514465332031e+00) (104, 2.08740258216857910156e+00) (0, 3.08498048782348632812e+00) (1, 2.09785747528076171875e+00) (2, -1.16437995433807373047e+00) (3, 3.73088121414184570312e-02) (4, -4.99058932065963745117e-01) (5, 1.50669765472412109375e+00) (6, -2.11869254708290100098e-01) (7, 7.31215536594390869141e-01) (8, -9.17113482952117919922e-01) (9, -7.45434522628784179688e-01) (10, -5.46830415725708007812e-01) (11, -1.19575396180152893066e-01) (12, -7.67606794834136962891e-01) (13, -1.51411890983581542969e+00) (14, -6.08406782150268554688e-01) (15, -7.29676544666290283203e-01) (16, -6.45739883184432983398e-02) (17, -4.90650236606597900391e-02) (18, -3.80154788494110107422e-01) (19, 1.05588412284851074219e+00) (20, 1.75160431861877441406e+00) (21, -6.11393034458160400391e-01) (22, 5.51872789859771728516e-01) (23, 1.46107113361358642578e+00) (24, 8.60087215900421142578e-01) (25, 1.48383045196533203125e+00) (26, 7.29720443487167358398e-02) (27, 1.41606464982032775879e-01) (28, -6.80685639381408691406e-02) (29, -3.40345427393913269043e-02) (30, -1.69803157448768615723e-01) (31, 7.97483846545219421387e-02) (32, -4.13660183548927307129e-02) (33, -1.01917304098606109619e-01) (34, 7.36619770526885986328e-01) (35, 3.30029875040054321289e-01) (36, 5.57105302810668945312e-01) (37, 2.80257575213909149170e-02) (38, 8.83549392223358154297e-01) (39, -5.22473715245723724365e-02) (40, 1.00613594055175781250e+00) (41, 1.81161954998970031738e-01) (42, -3.88651609420776367188e-01) (43, -2.57571130990982055664e-01) (44, 2.07309037446975708008e-01) (45, 3.79471272230148315430e-01) (46, -3.13397526741027832031e-01) (47, 1.19140341877937316895e-01) (48, -4.02917936444282531738e-02) (49, -3.88902164995670318604e-02) (50, 9.00105237960815429688e-01) (51, 2.92200744152069091797e-01) (52, 1.22772380709648132324e-02) (53, -3.51210922002792358398e-01) (54, -3.74708145856857299805e-01) (55, 8.58775153756141662598e-02) (56, -1.14289391040802001953e+00) (57, -3.21982651948928833008e-01) (58, -3.46759498119354248047e-01) (59, 1.08062195777893066406e+00) (60, -4.22057002782821655273e-01) (61, 3.20323914289474487305e-01) (62, -6.72671914100646972656e-01) (63, -3.32432240247726440430e-01) (64, 1.27565014362335205078e+00) (65, -4.21661324799060821533e-02) (66, -9.31671440601348876953e-01) (67, -2.44359397888183593750e+00) (68, -3.81436467170715332031e-01) (69, -9.94988977909088134766e-01) (70, -6.39663875102996826172e-01) (71, -8.22206318378448486328e-01) (72, -1.66398838162422180176e-01) (73, 6.08848392963409423828e-01) (74, -5.41417002677917480469e-01) (75, 2.29037344455718994141e-01) (76, 3.04622590541839599609e-01) (77, -3.72154951095581054688e-01) (78, -8.87452721595764160156e-01) (79, 7.54430174827575683594e-01) (80, -5.28794407844543457031e-01) (81, 1.11392974853515625000e+00) (82, -8.04396033287048339844e-01) (83, 1.85278967022895812988e-01) (84, -5.90580642223358154297e-01) (85, 8.38048040866851806641e-01) (86, -3.89623790979385375977e-01) (87, -7.13837683200836181641e-01) (88, -4.55804735422134399414e-01) (89, -4.62956093251705169678e-02) (90, 7.64940798282623291016e-01) (91, -1.81019201874732971191e-01) (92, 4.83578801155090332031e-01) (93, -7.06256568431854248047e-01) (94, 6.81279659271240234375e-01) (95, -2.61396884918212890625e-01) (96, -3.19422692060470581055e-01) (97, 3.92427742481231689453e-01) (98, 2.56029152870178222656e+00) (99, -6.91785871982574462891e-01) (100, 3.13763350248336791992e-01) (101, -7.49369323253631591797e-01) (102, 3.92820298671722412109e-01) (103, 1.53665781021118164062e+00) (104, 1.65218973159790039062e+00) (0, 6.29071772098541259766e-01) (1, -1.22713184356689453125e+00) (2, 1.73898327350616455078e+00) (3, 2.18352004885673522949e-01) (4, -7.80936837196350097656e-01) (5, -5.83983480930328369141e-01) (6, -7.93517410755157470703e-01) (7, -1.16033339500427246094e+00) (8, -7.49966859817504882812e-01) (9, 1.50028264522552490234e+00) (10, -1.43723917007446289062e+00) (11, 1.14504420757293701172e+00) (12, -3.60325962305068969727e-01) (13, 1.52071654796600341797e+00) (14, -3.98616492748260498047e-01) (15, -5.49970984458923339844e-01) (16, 2.10427805781364440918e-01) (17, -1.02554082870483398438e+00) (18, 6.41178727149963378906e-01) (19, -4.34017062187194824219e-01) (20, 6.33850038051605224609e-01) (21, 5.15973627567291259766e-01) (22, -1.84453725814819335938e+00) (23, -3.41337412595748901367e-01) (24, 7.21596777439117431641e-01) (25, 1.26498913764953613281e+00) (26, 1.32398796081542968750e+00) (27, -3.85507270693778991699e-02) (28, -6.78196012973785400391e-01) (29, -8.21401715278625488281e-01) (30, -7.02966272830963134766e-01) (31, -7.68477916717529296875e-01) (32, -3.97095501422882080078e-01) (33, -1.31439864635467529297e+00) (34, 8.26270937919616699219e-01) (35, 7.21603214740753173828e-01) (36, -1.51354730129241943359e+00) (37, -8.06779146194458007812e-01) (38, 2.46311098337173461914e-01) (39, -7.73171782493591308594e-01) (40, -1.69738495349884033203e+00) (41, -5.34025728702545166016e-01) (42, -3.21238219738006591797e-01) (43, 6.82146668434143066406e-01) (44, -2.03697428107261657715e-01) (45, -2.24464178085327148438e-01) (46, -6.29690647125244140625e-01) (47, -1.40511369705200195312e+00) (48, 1.62579488754272460938e+00) (49, -6.12686395645141601562e-01) (50, -2.01042979955673217773e-01) (51, -3.53989988565444946289e-01) (52, 1.78808540105819702148e-01) (53, -1.31289172172546386719e+00) (54, 1.61339354515075683594e+00) (55, -2.10611104965209960938e+00) (56, 2.44701385498046875000e+00) (57, -4.02246952056884765625e+00) (58, -1.54154801368713378906e+00) (59, -5.06734788417816162109e-01) (60, -4.03180241584777832031e-01) (61, -6.71908497810363769531e-01) (62, -1.67544949054718017578e+00) (63, -7.17609107494354248047e-01) (64, -6.61307036876678466797e-01) (65, -5.60228407382965087891e-01) (66, -9.66567277908325195312e-01) (67, -5.24169981479644775391e-01) (68, -1.55946135520935058594e-01) (69, -1.43868374824523925781e+00) (70, -1.07174289226531982422e+00) (71, -1.29565274715423583984e+00) (72, -2.59199929237365722656e+00) (73, 1.09676325321197509766e+00) (74, -5.93806743621826171875e-01) (75, 1.87489783763885498047e+00) (76, -8.93599212169647216797e-01) (77, 1.01949155330657958984e+00) (78, -1.28732872009277343750e+00) (79, 6.59690856933593750000e-01) (80, 8.42579424381256103516e-01) (81, -1.99959263205528259277e-01) (82, 8.52298855781555175781e-01) (83, 1.65687108039855957031e+00) (84, -4.97627884149551391602e-01) (85, 1.59759569168090820312e+00) (86, 6.69393777847290039062e-01) (87, 1.16021966934204101562e+00) (88, 1.39641821384429931641e+00) (89, 1.27707707881927490234e+00) (90, 7.63162612915039062500e-01) (91, 1.01892459392547607422e+00) (92, 8.87927949428558349609e-01) (93, 1.47690081596374511719e+00) (94, -5.15065073966979980469e-01) (95, -6.75472438335418701172e-01) (96, 8.71249556541442871094e-01) (97, 8.69497001171112060547e-01) (98, 5.59200227260589599609e-01) (99, 6.34337842464447021484e-01) (100, 6.35053753852844238281e-01) (101, 1.39979219436645507812e+00) (102, 4.93172794580459594727e-01) (103, 1.53370201587677001953e+00) (104, 9.55735623836517333984e-01) (0, 5.75505554199218750000e+02) (1, 1.10832941532135009766e+00) (2, 1.30057501792907714844e+00) (3, 1.71417081356048583984e+00) (4, 1.35864090919494628906e+00) (5, 7.08638429641723632812e+00) (6, 2.06309318542480468750e+00) (7, 1.47665107250213623047e+00) (8, 1.02836978435516357422e+00) (9, 2.03394222259521484375e+00) (10, 1.57514476776123046875e+00) (11, 1.66024553775787353516e+00) (12, 2.07623624801635742188e+00) (13, 1.70143461227416992188e+00) (14, 2.05622076988220214844e+00) (15, 1.90342283248901367188e+00) (16, 1.70370113849639892578e+00) (17, 1.87855160236358642578e+00) (18, 1.13082683086395263672e+00) (19, 1.79702055454254150391e+00) (20, 1.39613556861877441406e+00) (21, 2.13929152488708496094e+00) (22, 1.02089369297027587891e+00) (23, 1.80562734603881835938e+00) (24, 1.20133852958679199219e+00) (25, 1.75242424011230468750e+00) (26, 1.37989544868469238281e+00) (27, 1.65663182735443115234e+00) (28, 1.72395157814025878906e+00) (29, 1.96316051483154296875e+00) (30, 2.03920650482177734375e+00) (31, 1.46110033988952636719e+00) (32, 1.97896873950958251953e+00) (33, 1.56616091728210449219e+00) (34, 4.48152709960937500000e+02) (35, 1.52188360691070556641e+00) (36, 1.57779967784881591797e+00) (37, 2.06346583366394042969e+00) (38, 2.06536841392517089844e+00) (39, 1.55294001102447509766e+00) (40, 1.54450333118438720703e+00) (41, 1.92639422416687011719e+00) (42, 1.65770721435546875000e+00) (43, 1.75669169425964355469e+00) (44, 1.62815690040588378906e+00) (45, 2.07656741142272949219e+00) (46, 1.66910898685455322266e+00) (47, 1.48825681209564208984e+00) (48, 2.11823153495788574219e+00) (49, 1.39569330215454101562e+00) (50, 1.57556676864624023438e+00) (51, 1.72125375270843505859e+00) (52, 1.74213695526123046875e+00) (53, 1.64118468761444091797e+00) (54, 1.67738735675811767578e+00) (55, 1.77615654468536376953e+00) (56, 1.35857546329498291016e+00) (57, 2.07671880722045898438e+00) (58, 1.21614003181457519531e+00) (59, 1.51009047031402587891e+00) (60, 1.92800986766815185547e+00) (61, 1.56049668788909912109e+00) (62, 2.13239908218383789062e+00) (63, 1.28273999691009521484e+00) (64, 1.91148543357849121094e+00) (65, 1.58447611331939697266e+00) (66, 1.84150397777557373047e+00) (67, 1.39570355415344238281e+00) (68, 2.12624049186706542969e+00) (69, 2.24948382377624511719e+00) (70, 1.30831718444824218750e+00) (71, 1.68191838264465332031e+00) (72, 1.99590325355529785156e+00) (73, 1.63512957096099853516e+00) (74, 1.70968782901763916016e+00) (75, 1.70813477039337158203e+00) (76, 1.48654651641845703125e+00) (77, 1.73387598991394042969e+00) (78, 2.22507047653198242188e+00) (79, 1.93969905376434326172e+00) (80, 1.66820740699768066406e+00) (81, 2.15699529647827148438e+00) (82, 2.15469312667846679688e+00) (83, 1.82622659206390380859e+00) (84, 1.95538949966430664062e+00) (85, 1.84198772907257080078e+00) (86, 1.61081051826477050781e+00) (87, 1.67694818973541259766e+00) (88, 2.00131320953369140625e+00) (89, 2.11978220939636230469e+00) (90, 2.07448863983154296875e+00) (91, 1.93338227272033691406e+00) (92, 2.28452825546264648438e+00) (93, 2.27077126502990722656e+00) (94, 1.56459915637969970703e+00) (95, 2.15682864189147949219e+00) (96, 2.13559126853942871094e+00) (97, -3.04628543853759765625e+01) (98, 2.01105165481567382812e+00) (99, 2.18572139739990234375e+00) (100, 1.53809738159179687500e+00) (101, 2.26304125785827636719e+00) (102, 1.43948101997375488281e+00) (103, 5.43955743312835693359e-01) (104, -1.92245230078697204590e-01) (0, 1.24668128967285156250e+02) (1, 1.06738197803497314453e+00) (2, 1.18430876731872558594e+00) (3, 1.36215913295745849609e+00) (4, 1.33868205547332763672e+00) (5, 1.70477855205535888672e+00) (6, 2.05619645118713378906e+00) (7, 1.35945510864257812500e+00) (8, 1.34926855564117431641e+00) (9, 1.90820884704589843750e+00) (10, 1.26971435546875000000e+00) (11, 1.60385072231292724609e+00) (12, 1.89594078063964843750e+00) (13, 1.79396700859069824219e+00) (14, 1.74128770828247070312e+00) (15, 2.14075660705566406250e+00) (16, 1.55028319358825683594e+00) (17, 1.87955224514007568359e+00) (18, 1.30409026145935058594e+00) (19, 1.74659383296966552734e+00) (20, 1.04920303821563720703e+00) (21, 1.96494424343109130859e+00) (22, 9.06409382820129394531e-01) (23, 1.97517490386962890625e+00) (24, 1.20362246036529541016e+00) (25, 1.48774993419647216797e+00) (26, 1.10967004299163818359e+00) (27, 1.60246932506561279297e+00) (28, 1.46579694747924804688e+00) (29, 1.93592464923858642578e+00) (30, 2.08083963394165039062e+00) (31, 1.65834450721740722656e+00) (32, 1.99340426921844482422e+00) (33, 1.58288240432739257812e+00) (34, 1.70346813201904296875e+01) (35, 1.52340257167816162109e+00) (36, 1.54878854751586914062e+00) (37, 2.11570215225219726562e+00) (38, 1.80504834651947021484e+00) (39, 1.56706416606903076172e+00) (40, 1.18117582798004150391e+00) (41, 1.27248191833496093750e+00) (42, 1.56805944442749023438e+00) (43, 1.53425240516662597656e+00) (44, 1.49552869796752929688e+00) (45, 2.33267855644226074219e+00) (46, 1.65154159069061279297e+00) (47, 1.85433363914489746094e+00) (48, 1.94821953773498535156e+00) (49, 1.44778096675872802734e+00) (50, 1.25201272964477539062e+00) (51, 1.22041094303131103516e+00) (52, 1.39437699317932128906e+00) (53, 1.55581772327423095703e+00) (54, 1.43646836280822753906e+00) (55, 1.77065551280975341797e+00) (56, 1.25622081756591796875e+00) (57, 2.06515550613403320312e+00) (58, 1.06365633010864257812e+00) (59, 1.60696935653686523438e+00) (60, 2.02220630645751953125e+00) (61, 1.49523103237152099609e+00) (62, 2.30496954917907714844e+00) (63, 1.46391594409942626953e+00) (64, 1.63034594058990478516e+00) (65, 1.65060126781463623047e+00) (66, 2.14359593391418457031e+00) (67, 1.30418348312377929688e+00) (68, 2.14650440216064453125e+00) (69, 2.23887896537780761719e+00) (70, 1.33158302307128906250e+00) (71, 1.51477122306823730469e+00) (72, 2.10329246520996093750e+00) (73, 1.40688788890838623047e+00) (74, 1.50617611408233642578e+00) (75, 7.78845727443695068359e-01) (76, 4.44067955017089843750e-01) (77, 1.50608158111572265625e+00) (78, 2.19750523567199707031e+00) (79, 1.12533497810363769531e+00) (80, 3.64124566316604614258e-01) (81, 1.13427412509918212891e+00) (82, 1.81840074062347412109e+00) (83, 1.49235689640045166016e+00) (84, 2.36347889900207519531e+00) (85, 1.73250401020050048828e+00) (86, 1.63200438022613525391e+00) (87, 1.56635320186614990234e+00) (88, 2.27918696403503417969e+00) (89, 1.79962992668151855469e+00) (90, 1.36267793178558349609e+00) (91, 2.18732619285583496094e+00) (92, 1.88802301883697509766e+00) (93, 2.24657058715820312500e+00) (94, 1.68323779106140136719e+00) (95, 2.24301576614379882812e+00) (96, 2.24719810485839843750e+00) (97, -3.02855644226074218750e+01) (98, 2.24426603317260742188e+00) (99, 2.17887210845947265625e+00) (100, 1.63842236995697021484e+00) (101, 2.11413431167602539062e+00) (102, 9.37373876571655273438e-01) (103, 1.17273783683776855469e+00) (104, -3.99712473154067993164e-01) (0, 1.09792083740234375000e+02) (1, 1.13744688034057617188e+00) (2, 1.11770212650299072266e+00) (3, 1.48462259769439697266e+00) (4, 1.15990471839904785156e+00) (5, 1.46610236167907714844e+00) (6, 1.87142586708068847656e+00) (7, 1.09270894527435302734e+00) (8, 8.13328623771667480469e-01) (9, 1.87431502342224121094e+00) (10, 1.40366888046264648438e+00) (11, 1.40128123760223388672e+00) (12, 1.82656574249267578125e+00) (13, 1.69027543067932128906e+00) (14, 1.65452611446380615234e+00) (15, 1.95947444438934326172e+00) (16, 1.43886363506317138672e+00) (17, 1.97749543190002441406e+00) (18, 8.51092755794525146484e-01) (19, 1.77257895469665527344e+00) (20, 1.13850200176239013672e+00) (21, 1.77661502361297607422e+00) (22, 6.94749891757965087891e-01) (23, 1.95313155651092529297e+00) (24, 9.51121151447296142578e-01) (25, 8.74493956565856933594e-01) (26, 1.12123036384582519531e+00) (27, 1.63908433914184570312e+00) (28, 1.24874269962310791016e+00) (29, 2.04555559158325195312e+00) (30, 2.13479423522949218750e+00) (31, 1.52688193321228027344e+00) (32, 2.04117774963378906250e+00) (33, 1.69617998600006103516e+00) (34, 6.61923980712890625000e+00) (35, 1.56298589706420898438e+00) (36, 1.61121952533721923828e+00) (37, 2.14153599739074707031e+00) (38, 1.65093052387237548828e+00) (39, 1.59720647335052490234e+00) (40, 5.67312538623809814453e-01) (41, 1.30140101909637451172e+00) (42, 1.58276224136352539062e+00) (43, 1.33518183231353759766e+00) (44, 1.38120687007904052734e+00) (45, 2.18468070030212402344e+00) (46, 1.49753618240356445312e+00) (47, 1.73062300682067871094e+00) (48, 1.91461551189422607422e+00) (49, 1.10311174392700195312e+00) (50, 1.25818002223968505859e+00) (51, 1.23838222026824951172e+00) (52, 1.37641561031341552734e+00) (53, 1.32651281356811523438e+00) (54, 1.36056041717529296875e+00) (55, 7.16974616050720214844e-01) (56, 1.10702562332153320312e+00) (57, 1.96379411220550537109e+00) (58, 3.32244575023651123047e-01) (59, 1.66991174221038818359e+00) (60, 1.91872453689575195312e+00) (61, 1.36044132709503173828e+00) (62, 2.14237165451049804688e+00) (63, 1.34803855419158935547e+00) (64, 1.41870462894439697266e+00) (65, 1.65003156661987304688e+00) (66, 1.93376040458679199219e+00) (67, 1.09849309921264648438e+00) (68, 2.23858571052551269531e+00) (69, 2.13473081588745117188e+00) (70, 1.16787970066070556641e+00) (71, 1.31310021877288818359e+00) (72, 1.63346731662750244141e+00) (73, 1.36426973342895507812e+00) (74, 1.33015549182891845703e+00) (75, 8.02907466888427734375e-01) (76, 5.11028289794921875000e-01) (77, 1.31613349914550781250e+00) (78, 2.27868604660034179688e+00) (79, 1.05461597442626953125e+00) (80, 6.36772751808166503906e-01) (81, 1.22314012050628662109e+00) (82, 1.73982644081115722656e+00) (83, 1.41408741474151611328e+00) (84, 1.99877452850341796875e+00) (85, 1.11289703845977783203e+00) (86, 1.25191593170166015625e+00) (87, 1.43812394142150878906e+00) (88, 2.00245618820190429688e+00) (89, 1.71803629398345947266e+00) (90, 1.16858160495758056641e+00) (91, 1.95837569236755371094e+00) (92, 1.85025954246520996094e+00) (93, 2.29170179367065429688e+00) (94, 1.26990544795989990234e+00) (95, 2.24057674407958984375e+00) (96, 2.14843153953552246094e+00) (97, -2.78957901000976562500e+01) (98, 2.24797797203063964844e+00) (99, 2.17600202560424804688e+00) (100, 1.68415212631225585938e+00) (101, 2.38115239143371582031e+00) (102, 9.57591712474822998047e-01) (103, 9.67962503433227539062e-01) (104, -3.69503170251846313477e-01) (0, -1.59622824192047119141e+00) (1, -4.19898889958858489990e-02) (2, 9.00240540504455566406e-01) (3, -1.07523989677429199219e+00) (4, 6.32258594036102294922e-01) (5, -5.29772996902465820312e-01) (6, -8.44476640224456787109e-01) (7, -5.34249722957611083984e-01) (8, 2.52876669168472290039e-01) (9, 6.16812169551849365234e-01) (10, -8.49893450736999511719e-01) (11, -8.69859993457794189453e-01) (12, -7.84223914146423339844e-01) (13, 8.76987755298614501953e-01) (14, -5.79425334930419921875e-01) (15, -6.43468618392944335938e-01) (16, 2.85400390625000000000e+00) (17, 9.04124200344085693359e-01) (18, -4.20049667358398437500e-01) (19, 8.47885131835937500000e-01) (20, 2.56371140480041503906e-01) (21, 4.11017894744873046875e+00) (22, -3.53938668966293334961e-01) (23, -4.45565849542617797852e-01) (24, -1.53685879707336425781e+00) (25, -7.22401738166809082031e-01) (26, 1.76482692360877990723e-01) (27, 1.24651730060577392578e+00) (28, 1.00046586990356445312e+00) (29, 3.85972648859024047852e-01) (30, -3.60557079315185546875e-01) (31, -1.13009855151176452637e-01) (32, -2.13961318135261535645e-01) (33, -4.65641915798187255859e-01) (34, -8.99660706520080566406e-01) (35, 1.13327316939830780029e-01) (36, -3.20037990808486938477e-01) (37, -6.47916138172149658203e-01) (38, -6.70954823493957519531e-01) (39, -1.41939416527748107910e-01) (40, -4.73718225955963134766e-01) (41, -7.01338529586791992188e-01) (42, -7.57833719253540039062e-01) (43, 1.17081749439239501953e+00) (44, 8.80107283592224121094e-01) (45, 1.33169102668762207031e+00) (46, -1.13504457473754882812e+00) (47, 1.50598168373107910156e-01) (48, -4.31888073682785034180e-01) (49, 1.12606310844421386719e+00) (50, 1.36008691787719726562e+00) (51, -6.17090523242950439453e-01) (52, 1.60360288619995117188e+00) (53, -7.58014023303985595703e-02) (54, -1.80536198616027832031e+00) (55, 7.90819749236106872559e-02) (56, -7.63143062591552734375e-01) (57, 3.36554229259490966797e-01) (58, 4.21898508071899414062e+00) (59, -1.37764620780944824219e+00) (60, -2.79129564762115478516e-01) (61, 1.21242153644561767578e+00) (62, -8.25309276580810546875e-01) (63, -3.14871639013290405273e-01) (64, 2.57840561866760253906e+00) (65, -3.71774405241012573242e-01) (66, 6.53981256484985351562e+00) (67, -4.30474281311035156250e+00) (68, 1.83366096019744873047e+00) (69, -5.67053651809692382812e+00) (70, -4.85532879829406738281e-01) (71, -2.21725440025329589844e+00) (72, 5.61450779438018798828e-01) (73, 3.81848049163818359375e+00) (74, 1.24119019508361816406e+00) (75, -2.16076302528381347656e+00) (76, -9.18131232261657714844e-01) (77, 6.39959573745727539062e-01) (78, 1.79398596286773681641e+00) (79, -2.29391872882843017578e-01) (80, -1.97546405792236328125e+01) (81, -1.21279358863830566406e+00) (82, -2.79247537255287170410e-02) (83, -7.72654354572296142578e-01) (84, -2.83590006828308105469e+00) (85, 3.19675016403198242188e+00) (86, -4.37983691692352294922e-01) (87, -6.72511935234069824219e-01) (88, -6.77747011184692382812e-01) (89, 6.83478534221649169922e-01) (90, -2.95157647132873535156e+00) (91, 8.20995271205902099609e-01) (92, -5.54150104522705078125e-01) (93, 6.53834581375122070312e-01) (94, -8.38954865932464599609e-01) (95, 4.50897693634033203125e+00) (96, -2.84502595663070678711e-01) (97, 2.02194309234619140625e+00) (98, 1.76441287994384765625e+00) (99, 2.78219628334045410156e+00) (100, -3.77426981925964355469e-01) (101, -1.70257413387298583984e+00) (102, -1.10700421035289764404e-01) (103, 2.57451844215393066406e+00) (104, 2.75658035278320312500e+00) (0, 8.45856246948242187500e+01) (1, 1.08241784572601318359e+00) (2, 6.68699443340301513672e-01) (3, 1.36392831802368164062e+00) (4, 1.00018477439880371094e+00) (5, 1.69932889938354492188e+00) (6, 1.87329769134521484375e+00) (7, 9.06666517257690429688e-01) (8, 8.39992582798004150391e-01) (9, 2.85679435729980468750e+00) (10, 8.79926562309265136719e-01) (11, 1.01885080337524414062e+00) (12, 1.52701091766357421875e+00) (13, 2.47521087527275085449e-01) (14, 7.35777497291564941406e-01) (15, 1.15887904167175292969e+00) (16, 4.88779515027999877930e-01) (17, 1.16213388741016387939e-01) (18, 6.40755355358123779297e-01) (19, 1.71354985237121582031e+00) (20, 8.88507008552551269531e-01) (21, 1.29295897483825683594e+00) (22, 3.20233702659606933594e-01) (23, 2.90689885616302490234e-01) (24, 8.30575227737426757812e-01) (25, 8.81868779659271240234e-01) (26, 9.76530492305755615234e-01) (27, 1.38548254966735839844e+00) (28, 9.46271181106567382812e-01) (29, 1.02041006088256835938e+00) (30, 1.91648972034454345703e+00) (31, 4.11480039358139038086e-01) (32, 1.82258224487304687500e+00) (33, 6.09740972518920898438e-01) (34, 1.09804511070251464844e+00) (35, -1.74259349703788757324e-01) (36, 3.74795854091644287109e-01) (37, 1.02309525012969970703e+00) (38, 8.05893719196319580078e-01) (39, 4.79276269674301147461e-01) (40, -2.41393074393272399902e-01) (41, 8.92793118953704833984e-01) (42, 1.42270016670227050781e+00) (43, 8.81442785263061523438e-01) (44, 1.15081560611724853516e+00) (45, 9.26405370235443115234e-01) (46, 1.34784281253814697266e+00) (47, 8.82993698120117187500e-01) (48, 1.03449380397796630859e+00) (49, 9.16805028915405273438e-01) (50, 1.03549468517303466797e+00) (51, 3.49722325801849365234e-01) (52, 8.64629864692687988281e-01) (53, 9.02987837791442871094e-01) (54, 9.59096968173980712891e-01) (55, 1.06263943016529083252e-01) (56, 5.51966845989227294922e-01) (57, 1.35622417926788330078e+00) (58, 1.31977647542953491211e-01) (59, 1.16429471969604492188e+00) (60, 8.71634542942047119141e-01) (61, 9.04155552387237548828e-01) (62, 9.42224264144897460938e-01) (63, 2.99138754606246948242e-01) (64, 4.09556537866592407227e-01) (65, 3.27927798032760620117e-01) (66, 5.57576656341552734375e-01) (67, 6.44187927246093750000e-01) (68, 9.49246466159820556641e-01) (69, 1.94966089725494384766e+00) (70, 9.87376868724822998047e-01) (71, 1.13785612583160400391e+00) (72, 3.93022179603576660156e-01) (73, 6.68121337890625000000e-01) (74, 9.09379959106445312500e-01) (75, 5.21203875541687011719e-01) (76, 1.60089269280433654785e-01) (77, 9.38407123088836669922e-01) (78, 4.60804730653762817383e-01) (79, 4.71767216920852661133e-01) (80, -2.20480430871248245239e-02) (81, 8.40886652469635009766e-01) (82, 9.42846000194549560547e-01) (83, 9.13892984390258789062e-01) (84, 1.02064514160156250000e+00) (85, 4.52996760606765747070e-01) (86, 9.82373774051666259766e-01) (87, 9.51025784015655517578e-01) (88, 4.56665843725204467773e-01) (89, 4.33455407619476318359e-01) (90, 7.98509001731872558594e-01) (91, 9.29275810718536376953e-01) (92, 1.00306522846221923828e+00) (93, 1.81899797916412353516e+00) (94, 9.97532784938812255859e-01) (95, 1.01029872894287109375e+00) (96, 9.23820018768310546875e-01) (97, 8.53300094604492187500e-01) (98, 1.86749958992004394531e+00) (99, 1.76361286640167236328e+00) (100, 4.09492164850234985352e-01) (101, 1.09035563468933105469e+00) (102, 1.58385276794433593750e+00) (103, 4.28352534770965576172e-01) (104, 8.66472244262695312500e-01) (0, 1.19693405151367187500e+02) (1, 1.09035313129425048828e+00) (2, 1.22711575031280517578e+00) (3, 1.46123301982879638672e+00) (4, 1.30912184715270996094e+00) (5, 1.71686148643493652344e+00) (6, 1.98120963573455810547e+00) (7, 1.20511221885681152344e+00) (8, 9.17211532592773437500e-01) (9, 1.95206046104431152344e+00) (10, 1.24081838130950927734e+00) (11, 1.49384975433349609375e+00) (12, 1.98405349254608154297e+00) (13, 1.76176750659942626953e+00) (14, 1.71050417423248291016e+00) (15, 2.05216479301452636719e+00) (16, 7.71650791168212890625e-01) (17, 1.84537386894226074219e+00) (18, 1.11478054523468017578e+00) (19, 1.70403933525085449219e+00) (20, 1.14329433441162109375e+00) (21, 1.85278928279876708984e+00) (22, 9.85052049160003662109e-01) (23, 1.87081027030944824219e+00) (24, 1.24077939987182617188e+00) (25, 1.04258060455322265625e+00) (26, 1.09466063976287841797e+00) (27, 1.68737554550170898438e+00) (28, 1.59649586677551269531e+00) (29, 1.95229423046112060547e+00) (30, 1.94618749618530273438e+00) (31, 1.65267324447631835938e+00) (32, 2.03958034515380859375e+00) (33, 1.54983091354370117188e+00) (34, 1.07565031051635742188e+01) (35, 1.62620997428894042969e+00) (36, 1.55146181583404541016e+00) (37, 2.18345952033996582031e+00) (38, 1.66886544227600097656e+00) (39, 1.58384132385253906250e+00) (40, 5.64627230167388916016e-01) (41, 1.33932590484619140625e+00) (42, 1.62092673778533935547e+00) (43, 1.57188391685485839844e+00) (44, 1.50312590599060058594e+00) (45, 2.23376870155334472656e+00) (46, 1.67149686813354492188e+00) (47, 1.75047397613525390625e+00) (48, 1.79410743713378906250e+00) (49, 1.35397303104400634766e+00) (50, 1.32384622097015380859e+00) (51, 1.34592020511627197266e+00) (52, 1.39047777652740478516e+00) (53, 1.46827387809753417969e+00) (54, 1.56835317611694335938e+00) (55, 1.63760900497436523438e+00) (56, 1.29879415035247802734e+00) (57, 2.08986496925354003906e+00) (58, 1.11164462566375732422e+00) (59, 1.71107470989227294922e+00) (60, 2.00253248214721679688e+00) (61, 1.31440699100494384766e+00) (62, 2.20185875892639160156e+00) (63, 1.49061703681945800781e+00) (64, 1.41745042800903320312e+00) (65, 1.50540196895599365234e+00) (66, 1.85246050357818603516e+00) (67, 1.33144688606262207031e+00) (68, 2.16911387443542480469e+00) (69, 2.23744225502014160156e+00) (70, 1.24519348144531250000e+00) (71, 1.47127437591552734375e+00) (72, 2.07800173759460449219e+00) (73, 6.80789113044738769531e-01) (74, 1.51262378692626953125e+00) (75, 7.25894272327423095703e-01) (76, 4.09971952438354492188e-01) (77, 1.57375693321228027344e+00) (78, 2.22443485260009765625e+00) (79, 1.05530476570129394531e+00) (80, 6.74787402153015136719e-01) (81, 1.11386585235595703125e+00) (82, 1.80578243732452392578e+00) (83, 1.60595750808715820312e+00) (84, 2.06171703338623046875e+00) (85, 1.10287237167358398438e+00) (86, 1.32277894020080566406e+00) (87, 1.60449028015136718750e+00) (88, 2.01127362251281738281e+00) (89, 1.78259575366973876953e+00) (90, 1.25375699996948242188e+00) (91, 1.89826154708862304688e+00) (92, 1.72892642021179199219e+00) (93, 2.25658082962036132812e+00) (94, 1.60856258869171142578e+00) (95, 2.28670597076416015625e+00) (96, 2.24776172637939453125e+00) (97, -2.83312835693359375000e+01) (98, 2.09303021430969238281e+00) (99, 2.29336166381835937500e+00) (100, 1.62864434719085693359e+00) (101, 2.43226242065429687500e+00) (102, 8.40732932090759277344e-01) (103, 9.39223349094390869141e-01) (104, -2.80599176883697509766e-01) (0, 2.11321997642517089844e+00) (1, 8.73601198196411132812e-01) (2, -6.62334203720092773438e-01) (3, 1.39252662658691406250e+00) (4, -3.95279496908187866211e-01) (5, 6.39844357967376708984e-01) (6, 3.15853863954544067383e-01) (7, -4.24069452285766601562e+00) (8, 1.27800512313842773438e+00) (9, -7.85881519317626953125e-01) (10, -9.14388656616210937500e-01) (11, -1.20229387283325195312e+00) (12, 6.71922862529754638672e-01) (13, -8.11299204826354980469e-01) (14, -7.94374123215675354004e-02) (15, -6.37497484683990478516e-01) (16, 1.55048179626464843750e+00) (17, 1.04449403285980224609e+00) (18, 6.88195049762725830078e-01) (19, -9.20798555016517639160e-02) (20, -1.39389187097549438477e-01) (21, -4.14268136024475097656e-01) (22, 1.27330493927001953125e+00) (23, 1.18755333125591278076e-01) (24, 9.43715512752532958984e-01) (25, -2.18080091476440429688e+00) (26, -6.69256687164306640625e-01) (27, -7.75087118148803710938e-01) (28, -3.88105124235153198242e-01) (29, 1.04278884828090667725e-01) (30, -2.34210222959518432617e-01) (31, 1.08263599872589111328e+00) (32, 2.68856048583984375000e-01) (33, 1.30921900272369384766e+00) (34, 1.07978558540344238281e+00) (35, 2.21632987260818481445e-01) (36, 2.73732185363769531250e-01) (37, 8.13375186920166015625e+00) (38, 2.46254754066467285156e+00) (39, 7.25802123546600341797e-01) (40, -3.54139655828475952148e-02) (41, -3.03838849067687988281e-01) (42, -5.56355774402618408203e-01) (43, -4.88669872283935546875e-01) (44, -1.39445960521697998047e+00) (45, 1.02250945568084716797e+00) (46, -3.63242536783218383789e-01) (47, 5.04745662212371826172e-01) (48, -8.58428299427032470703e-01) (49, 6.46225810050964355469e-01) (50, 5.34502089023590087891e-01) (51, -7.41056859493255615234e-01) (52, 3.41487377882003784180e-02) (53, -1.92566776275634765625e+00) (54, -5.43006479740142822266e-01) (55, -6.08924888074398040771e-02) (56, 4.22510117292404174805e-01) (57, -6.46950006484985351562e-01) (58, 9.43075239658355712891e-01) (59, -2.87038479000329971313e-02) (60, -6.79065048694610595703e-01) (61, -5.92939928174018859863e-02) (62, 1.90353667736053466797e+00) (63, 2.07102075219154357910e-01) (64, 6.03750422596931457520e-02) (65, -2.37852692604064941406e-01) (66, -1.03210154920816421509e-02) (67, -7.79860690236091613770e-02) (68, -6.97031617164611816406e-01) (69, -6.45678520202636718750e-01) (70, -1.78847298026084899902e-01) (71, 1.95984765887260437012e-01) (72, -8.74154090881347656250e-01) (73, 1.47651791572570800781e-01) (74, -6.18687927722930908203e-01) (75, 7.42458283901214599609e-01) (76, -6.20513558387756347656e-01) (77, 8.64024400711059570312e-01) (78, -6.55395925045013427734e-01) (79, -4.77083265781402587891e-01) (80, 5.57124674320220947266e-01) (81, -5.86215436458587646484e-01) (82, -6.08232378959655761719e-01) (83, -7.30965554714202880859e-01) (84, 1.03941893577575683594e+00) (85, 1.26029384136199951172e+00) (86, -4.98469084501266479492e-01) (87, 1.06363129615783691406e+00) (88, -6.86806797981262207031e-01) (89, 8.45048248767852783203e-01) (90, -5.58458387851715087891e-01) (91, 1.18083202838897705078e+00) (92, 8.79972696304321289062e-01) (93, -8.82188320159912109375e-01) (94, 9.13771212100982666016e-01) (95, -6.92424893379211425781e-01) (96, -8.14965486526489257812e-01) (97, -5.56546926498413085938e-01) (98, -7.63263583183288574219e-01) (99, -8.05309832096099853516e-01) (100, -1.19998857378959655762e-01) (101, -7.48928368091583251953e-01) (102, 4.80028772354125976562e+00) (103, -1.20648109912872314453e+00) (104, 2.74584078788757324219e+00) (0, 2.40220618247985839844e+00) (1, 6.13681495189666748047e-01) (2, 1.09297132492065429688e+00) (3, -2.85994768142700195312e-01) (4, 6.55034780502319335938e-01) (5, -4.82946008443832397461e-01) (6, 4.20527100563049316406e-01) (7, -6.65681779384613037109e-01) (8, -2.14501649141311645508e-01) (9, 5.31478285789489746094e-01) (10, -4.68714833259582519531e-01) (11, 3.70668657124042510986e-02) (12, 9.93342578411102294922e-01) (13, 5.72267115116119384766e-01) (14, -5.24967551231384277344e-01) (15, 1.57392120361328125000e+00) (16, 1.14622604846954345703e+00) (17, -1.24337457120418548584e-01) (18, -4.64927479624748229980e-02) (19, -1.09517014026641845703e+00) (20, 2.65380024909973144531e-01) (21, 1.18930470943450927734e+00) (22, -6.72252774238586425781e-01) (23, -5.55359005928039550781e-01) (24, -1.52677074074745178223e-02) (25, -5.18366515636444091797e-01) (26, 1.25568044185638427734e+00) (27, 1.38661289215087890625e+00) (28, -7.11378693580627441406e-01) (29, 1.48317801952362060547e+00) (30, -5.44323146343231201172e-01) (31, -1.61018505692481994629e-01) (32, 2.84803956747055053711e-01) (33, -7.12798357009887695312e-01) (34, -2.49983564019203186035e-01) (35, 9.11367058753967285156e-01) (36, 5.41740097105503082275e-04) (37, 1.73627942800521850586e-01) (38, 1.14620077610015869141e+00) (39, -7.72421061992645263672e-02) (40, 1.47505772113800048828e+00) (41, -8.32519769668579101562e-01) (42, -1.46692156791687011719e-01) (43, -1.28577053546905517578e+00) (44, 5.15069782733917236328e-01) (45, -6.52703225612640380859e-01) (46, -1.18143999576568603516e+00) (47, -1.54545497894287109375e+00) (48, 9.26435410976409912109e-01) (49, 1.13947570323944091797e+00) (50, -2.50975370407104492188e-01) (51, -1.29927921295166015625e+00) (52, -2.40943685173988342285e-01) (53, 1.19981193542480468750e+00) (54, -2.10233271121978759766e-01) (55, -4.36718195676803588867e-01) (56, 2.22022995352745056152e-01) (57, 5.26347756385803222656e-01) (58, -7.74293303489685058594e-01) (59, 1.03810346126556396484e+00) (60, -3.71013939380645751953e-01) (61, -3.95002990961074829102e-01) (62, 8.07498872280120849609e-01) (63, 1.08547054231166839600e-01) (64, 1.10940170288085937500e+00) (65, -3.35678786039352416992e-01) (66, 2.20261644572019577026e-02) (67, 1.74458086490631103516e+00) (68, 2.23681762814521789551e-01) (69, -8.01349699497222900391e-01) (70, 8.06751430034637451172e-01) (71, 7.89700508117675781250e-01) (72, 1.16849887371063232422e+00) (73, -6.01045966148376464844e-01) (74, -8.53059366345405578613e-02) (75, 1.00593321025371551514e-01) (76, -1.07828497886657714844e+00) (77, 7.74977728724479675293e-02) (78, -6.57323241233825683594e-01) (79, 1.11733078956604003906e-01) (80, -1.19777858257293701172e+00) (81, 1.38323760032653808594e+00) (82, 1.31985738873481750488e-01) (83, -2.56693750619888305664e-01) (84, -6.88737213611602783203e-01) (85, -4.68783050775527954102e-01) (86, -3.18552941083908081055e-01) (87, -1.54105782508850097656e-01) (88, -2.69281029701232910156e-01) (89, -2.58615911006927490234e-01) (90, -6.36250078678131103516e-01) (91, -1.62837043404579162598e-01) (92, -6.92630469799041748047e-01) (93, 2.00018787384033203125e+00) (94, 1.59833103418350219727e-01) (95, -9.86588358879089355469e-01) (96, -1.63392722606658935547e-01) (97, -7.70232558250427246094e-01) (98, 6.49658501148223876953e-01) (99, -8.20876717567443847656e-01) (100, -6.85902774333953857422e-01) (101, -7.34843671321868896484e-01) (102, -3.09908008575439453125e+00) (103, 5.83069658279418945312e+00) (104, 2.48763155937194824219e+00) (0, 1.72322118282318115234e+00) (1, 5.70621967315673828125e-01) (2, 1.27956318855285644531e+00) (3, -1.65166246891021728516e+00) (4, 3.70422363281250000000e-01) (5, 1.47579038143157958984e+00) (6, -1.11543715000152587891e+00) (7, -5.47238469123840332031e-01) (8, -8.30699205398559570312e-01) (9, 1.16667139530181884766e+00) (10, -9.72502768039703369141e-01) (11, -1.70815974473953247070e-01) (12, -3.14738094806671142578e-01) (13, -1.60980439186096191406e+00) (14, -4.86186921596527099609e-01) (15, 1.38414430618286132812e+00) (16, 3.36452037096023559570e-01) (17, -4.07718807458877563477e-01) (18, -4.92071062326431274414e-01) (19, -2.07096800208091735840e-01) (20, -1.78895875811576843262e-01) (21, -4.66488420963287353516e-01) (22, 2.53461122512817382812e-01) (23, 1.17482614517211914062e+00) (24, 6.08853936195373535156e-01) (25, -1.77094772458076477051e-01) (26, -4.42512482404708862305e-02) (27, -4.65680092573165893555e-01) (28, 1.49532508850097656250e+00) (29, 1.19363427162170410156e+00) (30, -7.63400673866271972656e-01) (31, -9.90737974643707275391e-01) (32, -6.87568604946136474609e-01) (33, -1.06924498081207275391e+00) (34, -3.53058815002441406250e-01) (35, -4.35116663575172424316e-02) (36, -6.62932217121124267578e-01) (37, -6.74992382526397705078e-01) (38, -7.54256963729858398438e-01) (39, -6.65692985057830810547e-01) (40, -1.70905739068984985352e-01) (41, -3.05074870586395263672e-01) (42, -8.78042995929718017578e-01) (43, -4.11467432975769042969e-01) (44, 1.03088009357452392578e+00) (45, -5.60640692710876464844e-01) (46, -7.67703294754028320312e-01) (47, 2.00979858636856079102e-01) (48, 7.16809213161468505859e-01) (49, 1.07585418224334716797e+00) (50, 1.24731624126434326172e+00) (51, 5.83852052688598632812e-01) (52, 6.86784625053405761719e-01) (53, 1.08298575878143310547e+00) (54, 5.95749258995056152344e-01) (55, 4.45084303617477416992e-01) (56, 9.77865815162658691406e-01) (57, 1.42026317119598388672e+00) (58, -1.67817342281341552734e+00) (59, -1.18410170078277587891e+00) (60, -1.18815544992685317993e-02) (61, 1.90063309669494628906e+00) (62, -5.94620585441589355469e-01) (63, 6.64720773696899414062e-01) (64, 2.06241345405578613281e+00) (65, 1.44870948791503906250e+00) (66, 1.83468270301818847656e+00) (67, 2.67828673124313354492e-01) (68, 1.67187047004699707031e+00) (69, -2.12805241346359252930e-01) (70, -6.31951749324798583984e-01) (71, -6.00223004817962646484e-01) (72, 1.85166925191879272461e-01) (73, -4.74748462438583374023e-01) (74, -6.92390441894531250000e-01) (75, -1.02461612224578857422e+00) (76, -5.10226070880889892578e-01) (77, -2.87074476480484008789e-01) (78, -4.58729118108749389648e-01) (79, -6.94875597953796386719e-01) (80, 4.21234577894210815430e-01) (81, -2.43335217237472534180e-02) (82, -1.15140147507190704346e-01) (83, -7.55840718746185302734e-01) (84, -6.01430356502532958984e-01) (85, 1.49778127670288085938e-01) (86, 3.26513312757015228271e-03) (87, -6.05831682682037353516e-01) (88, -1.08264279365539550781e+00) (89, -6.44535422325134277344e-01) (90, 1.59503504633903503418e-01) (91, -7.92720615863800048828e-01) (92, -9.47074055671691894531e-01) (93, 2.14786395430564880371e-01) (94, -5.90941384434700012207e-02) (95, -7.64655292034149169922e-01) (96, -2.13011443614959716797e-01) (97, -4.48916047811508178711e-01) (98, -6.84872806072235107422e-01) (99, -4.19819504022598266602e-01) (100, 1.43620455265045166016e+00) (101, -9.98079717159271240234e-01) (102, 1.23361563682556152344e+00) (103, 6.25968456268310546875e-01) (104, 1.05086469650268554688e+00) (0, -1.02756643295288085938e+00) (1, 1.11116623878479003906e+00) (2, -4.33966964483261108398e-01) (3, 7.88839161396026611328e-02) (4, -1.95644348859786987305e-01) (5, 8.58869373798370361328e-01) (6, -5.87759278714656829834e-02) (7, -8.13956931233406066895e-02) (8, -4.08637344837188720703e-01) (9, -2.75245279073715209961e-01) (10, -8.68018150329589843750e-01) (11, -4.71270740032196044922e-01) (12, -4.89753544330596923828e-01) (13, 1.67688310146331787109e-01) (14, 1.12107670307159423828e+00) (15, 1.41955828666687011719e+00) (16, 6.73125505447387695312e-01) (17, -7.12255001068115234375e-01) (18, 1.26204252243041992188e+00) (19, -3.90072047710418701172e-01) (20, 6.68393611907958984375e-01) (21, 1.45822358131408691406e+00) (22, 5.92081189155578613281e-01) (23, 1.03618466854095458984e+00) (24, 2.42818474769592285156e+00) (25, -1.35390028357505798340e-01) (26, -8.07749569416046142578e-01) (27, -2.76339471340179443359e-01) (28, -4.23723578453063964844e-01) (29, 4.02640104293823242188e-01) (30, 9.95612919330596923828e-01) (31, -3.91070485115051269531e-01) (32, 1.35233604907989501953e+00) (33, -5.13274967670440673828e-02) (34, 7.95363843441009521484e-01) (35, -3.92841428518295288086e-01) (36, -3.07856410741806030273e-01) (37, -1.39054685831069946289e-01) (38, -5.02825856208801269531e-01) (39, -3.79572957754135131836e-01) (40, -3.27194124460220336914e-01) (41, -9.09659445285797119141e-01) (42, 2.04067498445510864258e-01) (43, 1.98444172739982604980e-01) (44, -3.05633276700973510742e-01) (45, -4.53299283981323242188e-01) (46, -6.14367961883544921875e-01) (47, 9.63025987148284912109e-02) (48, 2.08991551399230957031e+00) (49, -2.85202771425247192383e-01) (50, 7.81498774886131286621e-02) (51, -8.31898897886276245117e-02) (52, -3.72881263494491577148e-01) (53, -4.80034589767456054688e-01) (54, 6.50866031646728515625e-02) (55, -2.08629226684570312500e+00) (56, -7.69418239593505859375e-01) (57, 1.48924434185028076172e+00) (58, 1.07771837711334228516e+00) (59, 4.97197836637496948242e-01) (60, -4.23203915357589721680e-01) (61, -3.11084091663360595703e-01) (62, 5.53135931491851806641e-01) (63, -4.98436152935028076172e-01) (64, -6.62712275981903076172e-01) (65, 4.49232071638107299805e-01) (66, 4.56295311450958251953e-02) (67, 5.87318480014801025391e-01) (68, 3.82342278957366943359e-01) (69, -2.74133741855621337891e-01) (70, -3.56847435235977172852e-01) (71, -2.46824890375137329102e-01) (72, -8.97006094455718994141e-01) (73, -1.51722753047943115234e+00) (74, -7.98688605427742004395e-02) (75, 3.41864675283432006836e-02) (76, 1.15877866744995117188e+00) (77, -2.64159347862005233765e-02) (78, -6.97557866573333740234e-01) (79, 2.32602283358573913574e-01) (80, -8.31851899623870849609e-01) (81, -1.75293311476707458496e-02) (82, -4.03800249099731445312e-01) (83, 2.05075073242187500000e+00) (84, -7.62953519821166992188e-01) (85, -2.49767422676086425781e-01) (86, -3.20685952901840209961e-01) (87, -3.79699468612670898438e-02) (88, -9.03064906597137451172e-01) (89, 6.51123225688934326172e-01) (90, 7.31919050216674804688e-01) (91, -1.05215167999267578125e+00) (92, -5.40040671825408935547e-01) (93, 4.02199447154998779297e-01) (94, -1.76066160202026367188e-01) (95, -3.77132207155227661133e-01) (96, -1.52889713644981384277e-01) (97, -4.05002832412719726562e-01) (98, -3.15076172351837158203e-01) (99, -6.26915514469146728516e-01) (100, -1.82623907923698425293e-01) (101, 5.20401716232299804688e-01) (102, 5.75644969940185546875e-01) (103, 1.59275746345520019531e+00) (104, 2.25194478034973144531e+00) (0, 7.69545197486877441406e-01) (1, -5.25169849395751953125e-01) (2, -3.36485117673873901367e-01) (3, -4.67968344688415527344e-01) (4, 1.05407404899597167969e+00) (5, -7.06605613231658935547e-02) (6, 9.37724888324737548828e-01) (7, -2.50820517539978027344e-01) (8, 1.93553543090820312500e+00) (9, -6.30710422992706298828e-01) (10, 3.97089600563049316406e-01) (11, 2.21318435668945312500e+00) (12, 8.39478373527526855469e-01) (13, 1.91087514162063598633e-01) (14, 5.54202608764171600342e-02) (15, -4.42947715520858764648e-01) (16, -4.78718383237719535828e-03) (17, 1.67858135700225830078e+00) (18, -6.51116147637367248535e-02) (19, -6.93017542362213134766e-01) (20, -2.00152248144149780273e-01) (21, 1.02370047569274902344e+00) (22, -5.02047613263130187988e-02) (23, -4.80434954166412353516e-01) (24, -3.63929420709609985352e-01) (25, 2.24602985382080078125e+00) (26, 9.02566730976104736328e-01) (27, 1.32496273517608642578e+00) (28, -6.50642633438110351562e-01) (29, 2.23373979330062866211e-01) (30, -2.55810290575027465820e-01) (31, -3.44074845314025878906e-01) (32, 3.99802356958389282227e-01) (33, -4.58121508359909057617e-01) (34, 2.55713081359863281250e+00) (35, -7.20111489295959472656e-01) (36, 6.33804872632026672363e-02) (37, -2.04550459980964660645e-01) (38, -1.27940863370895385742e-01) (39, 1.10744678974151611328e+00) (40, -2.99701958894729614258e-01) (41, 9.66392159461975097656e-01) (42, 1.13569892942905426025e-01) (43, -3.09949010610580444336e-01) (44, -7.80972659587860107422e-01) (45, -7.01215147972106933594e-01) (46, -9.47052538394927978516e-01) (47, -3.73686812818050384521e-02) (48, -6.88850462436676025391e-01) (49, -6.17077827453613281250e-01) (50, -6.70893132686614990234e-01) (51, -8.31391990184783935547e-01) (52, -6.60021364688873291016e-01) (53, -2.95726865530014038086e-01) (54, -8.20025920867919921875e-01) (55, -1.01191759109497070312e-01) (56, 1.02668476104736328125e+00) (57, -5.09719908237457275391e-01) (58, 7.15144723653793334961e-02) (59, 8.39171111583709716797e-01) (60, 7.89112225174903869629e-02) (61, 5.28807602822780609131e-02) (62, -7.21936762332916259766e-01) (63, 5.63469305634498596191e-02) (64, -5.17188966274261474609e-01) (65, -2.57731322199106216431e-02) (66, -2.95359969139099121094e-01) (67, -1.27048528194427490234e+00) (68, -8.53540718555450439453e-01) (69, -1.48170754313468933105e-01) (70, 1.10104727745056152344e+00) (71, 9.27861630916595458984e-01) (72, 6.97200521826744079590e-02) (73, -2.76338040828704833984e-01) (74, 6.36620402336120605469e-01) (75, -1.02528762817382812500e+00) (76, -4.61599528789520263672e-02) (77, 1.08273148536682128906e+00) (78, 9.30258817970752716064e-03) (79, 1.11519443988800048828e+00) (80, -2.35132724046707153320e-01) (81, -2.18017593026161193848e-01) (82, 6.53589427471160888672e-01) (83, 1.28638911247253417969e+00) (84, 1.40427663922309875488e-01) (85, 6.40331745147705078125e-01) (86, -7.79662355780601501465e-02) (87, -7.08228528499603271484e-01) (88, -1.16331242024898529053e-01) (89, -7.90963888168334960938e-01) (90, -4.19394701719284057617e-01) (91, -4.43970590829849243164e-01) (92, -7.81332910060882568359e-01) (93, 6.76229596138000488281e-01) (94, 7.00162291526794433594e-01) (95, -7.11873888969421386719e-01) (96, -6.24928057193756103516e-01) (97, -3.35391402244567871094e-01) (98, -4.48464810848236083984e-01) (99, -3.39279055595397949219e-01) (100, -2.07805216312408447266e-01) (101, 7.78431177139282226562e-01) (102, -6.59618556499481201172e-01) (103, 2.96302318572998046875e+00) (104, 2.46899533271789550781e+00) (0, -4.49261873960494995117e-01) (1, 1.07661449909210205078e+00) (2, -1.30941545963287353516e+00) (3, 2.27585721015930175781e+00) (4, 1.58586859703063964844e+00) (5, -5.93448162078857421875e+00) (6, -6.68275654315948486328e-01) (7, 9.50188517570495605469e-01) (8, -2.72014498710632324219e+00) (9, 1.47128677368164062500e+00) (10, 1.86118423938751220703e+00) (11, -1.37072548270225524902e-01) (12, -1.60901951789855957031e+00) (13, -1.50336062908172607422e+00) (14, 1.03032052516937255859e+00) (15, -2.26338052749633789062e+00) (16, 6.37352132797241210938e+00) (17, 6.95764183998107910156e-01) (18, 5.48871159553527832031e-01) (19, -1.44396007061004638672e-01) (20, 9.82848834991455078125e+00) (21, -6.95598304271697998047e-01) (22, 1.36753714084625244141e+00) (23, -2.62845063209533691406e+00) (24, 1.32446587085723876953e+00) (25, -4.76612281799316406250e+00) (26, -5.92589616775512695312e-01) (27, 1.41889774799346923828e+00) (28, -5.04079818725585937500e+00) (29, 2.80755138397216796875e+00) (30, -3.31528568267822265625e+00) (31, -3.46453523635864257812e+00) (32, -6.02924060821533203125e+00) (33, 1.03025126457214355469e+00) (34, -2.90474486351013183594e+00) (35, 2.29119491577148437500e+00) (36, -1.11634843051433563232e-01) (37, -2.57052445411682128906e+00) (38, -3.65916080772876739502e-03) (39, -3.64235377311706542969e+00) (40, 4.98006916046142578125e+00) (41, -8.09330463409423828125e+00) (42, 2.91387677192687988281e-01) (43, 1.96723806858062744141e+00) (44, 1.61112308502197265625e+00) (45, 1.65893208980560302734e+00) (46, 2.06268715858459472656e+00) (47, 1.85014522075653076172e+00) (48, -1.06055331230163574219e+00) (49, 2.58155345916748046875e-01) (50, 5.82000017166137695312e-01) (51, 2.66273093223571777344e+00) (52, -4.40766692161560058594e-01) (53, 1.12584434449672698975e-01) (54, 2.24392032623291015625e+00) (55, -2.02281975746154785156e+00) (56, -3.94245803356170654297e-01) (57, 2.12011480331420898438e+00) (58, 7.55128979682922363281e-01) (59, -3.00857305526733398438e+00) (60, -5.38854062557220458984e-01) (61, -8.20848584175109863281e-01) (62, 1.14320158958435058594e+00) (63, -8.35569620132446289062e-01) (64, -3.73617224395275115967e-02) (65, -8.25347542762756347656e-01) (66, -1.38789427280426025391e+00) (67, -4.84056711196899414062e+00) (68, 1.50380349159240722656e+00) (69, -6.93307459354400634766e-01) (70, -3.78864467144012451172e-01) (71, 2.77906036376953125000e+00) (72, -3.65745425224304199219e+00) (73, 5.54619359970092773438e+00) (74, 7.45182752609252929688e-01) (75, 3.70101690292358398438e-01) (76, 9.12187329959124326706e-04) (77, -7.28044211864471435547e-02) (78, -3.96567165851593017578e-01) (79, -5.07191658020019531250e-01) (80, 1.97372704744338989258e-01) (81, -4.99014228582382202148e-01) (82, 3.71794283390045166016e-01) (83, 1.11404292285442352295e-01) (84, 1.59844934940338134766e-01) (85, -6.28850460052490234375e-02) (86, -8.46203386783599853516e-01) (87, 1.85712501406669616699e-01) (88, 3.78107354044914245605e-02) (89, 1.16406276822090148926e-01) (90, 5.98594009876251220703e-01) (91, -7.02686548233032226562e-01) (92, 2.55814850330352783203e-01) (93, 9.39563959836959838867e-02) (94, -5.65774857997894287109e-01) (95, -6.83048546314239501953e-01) (96, 1.80982157588005065918e-01) (97, -8.04478585720062255859e-01) (98, -6.67500793933868408203e-01) (99, -5.49616456031799316406e-01) (100, -5.19306480884552001953e-01) (101, -4.00636792182922363281e-01) (102, -1.96184229850769042969e+00) (103, 4.84607172012329101562e+00) (104, 2.57773351669311523438e+00) (0, -1.25710472464561462402e-01) (1, 1.80156552791595458984e+00) (2, -7.43624493479728698730e-02) (3, 3.11249792575836181641e-01) (4, -2.48865276575088500977e-01) (5, -8.23115706443786621094e-02) (6, -1.38518345355987548828e+00) (7, -4.32388991117477416992e-01) (8, 1.64359927177429199219e+00) (9, -6.30424618721008300781e-01) (10, -7.67939269542694091797e-01) (11, -7.64607906341552734375e-01) (12, -7.89586186408996582031e-01) (13, 3.40792322158813476562e+00) (14, 7.29294002056121826172e-01) (15, 9.34478580951690673828e-01) (16, -1.35430181026458740234e+00) (17, -6.88871264457702636719e-01) (18, -4.39580500125885009766e-01) (19, 8.49363088607788085938e-01) (20, -6.74693048000335693359e-01) (21, -6.43601315096020698547e-03) (22, 1.76040813326835632324e-01) (23, 4.46231693029403686523e-01) (24, 2.82665157318115234375e+00) (25, -6.18147626519203186035e-02) (26, -7.82897114753723144531e-01) (27, 3.64816218614578247070e-01) (28, -6.84826552867889404297e-01) (29, -1.33381590247154235840e-01) (30, 1.36103415489196777344e+00) (31, 1.30316352844238281250e+00) (32, -9.95083928108215332031e-01) (33, 7.81154096126556396484e-01) (34, -4.03172969818115234375e-01) (35, 6.61218762397766113281e-01) (36, 1.61004990339279174805e-01) (37, 4.26328659057617187500e-01) (38, 7.47440993785858154297e-01) (39, 1.26980066299438476562e+00) (40, 2.16976881027221679688e-01) (41, -2.87547111511230468750e+00) (42, -7.60027348995208740234e-01) (43, -8.47931623458862304688e-01) (44, -8.77024233341217041016e-01) (45, -4.36944484710693359375e-01) (46, 8.01734745502471923828e-01) (47, -1.17544746398925781250e+00) (48, 1.47040915489196777344e+00) (49, 9.02462005615234375000e-01) (50, 6.52178227901458740234e-01) (51, -6.19390130043029785156e-01) (52, -6.17673099040985107422e-01) (53, -9.30085241794586181641e-01) (54, -1.74034368991851806641e+00) (55, -8.28102707862854003906e-01) (56, -8.58438789844512939453e-01) (57, 8.16456973552703857422e-01) (58, 1.69573771953582763672e+00) (59, -1.54638969898223876953e+00) (60, 1.48325309157371520996e-01) (61, 1.51968017220497131348e-01) (62, -4.16163772344589233398e-01) (63, 1.70330810546875000000e+00) (64, 1.21377706527709960938e+00) (65, 1.45084369182586669922e+00) (66, -2.88953967392444610596e-02) (67, 4.87113332748413085938e+00) (68, 5.24948298931121826172e-01) (69, -3.20670977234840393066e-02) (70, 1.76892101764678955078e-01) (71, 1.44942557811737060547e+00) (72, -9.27195921540260314941e-02) (73, -1.54459163546562194824e-01) (74, 7.69916534423828125000e-01) (75, -4.38272237777709960938e-01) (76, -1.25389486551284790039e-01) (77, 7.75687754154205322266e-01) (78, 1.22090470790863037109e+00) (79, 1.10608994960784912109e+00) (80, 1.02155208587646484375e+00) (81, -3.61876130104064941406e+00) (82, -6.72136962413787841797e-01) (83, -5.81839382648468017578e-01) (84, -4.43446904420852661133e-01) (85, -5.14036476612091064453e-01) (86, 8.92389297485351562500e-01) (87, -7.55070447921752929688e-01) (88, 2.56730031967163085938e+00) (89, -1.70831725001335144043e-01) (90, -1.17350831627845764160e-01) (91, 3.08747366070747375488e-02) (92, -7.82523512840270996094e-01) (93, -5.82912743091583251953e-01) (94, -6.34795844554901123047e-01) (95, -8.80521059036254882812e-01) (96, 7.40778923034667968750e-01) (97, 3.51202100515365600586e-01) (98, -5.32892763614654541016e-01) (99, -6.38551056385040283203e-01) (100, -6.61645412445068359375e-01) (101, -8.50034892559051513672e-01) (102, -2.84549862146377563477e-01) (103, 2.21928381919860839844e+00) (104, 1.09384942054748535156e+00) (0, 2.66435852050781250000e+02) (1, 5.44667482376098632812e+00) (2, 1.06078648567199707031e+00) (3, 1.51707780361175537109e+00) (4, 1.28455495834350585938e+00) (5, 1.52819702148437500000e+02) (6, 4.81130456924438476562e+00) (7, 1.59430932998657226562e+01) (8, 3.22286510467529296875e+00) (9, 2.40131950378417968750e+00) (10, 7.13313341140747070312e+00) (11, 2.80984544754028320312e+00) (12, 2.23306417465209960938e+00) (13, 1.21623671054840087891e+00) (14, 1.73387563228607177734e+00) (15, 1.56200420856475830078e+00) (16, 1.36669540405273437500e+00) (17, 8.15595448017120361328e-01) (18, 1.07291555404663085938e+00) (19, 2.00027465820312500000e+00) (20, 1.16224098205566406250e+00) (21, 1.62266576290130615234e+00) (22, 5.74360430240631103516e-01) (23, 8.20114314556121826172e-01) (24, 7.02617704868316650391e-01) (25, 2.62328594923019409180e-01) (26, 5.74531495571136474609e-01) (27, 1.30703568458557128906e+00) (28, 5.77103078365325927734e-01) (29, 1.06009650230407714844e+00) (30, 7.29897499084472656250e-01) (31, 6.75887525081634521484e-01) (32, 6.86184704303741455078e-01) (33, 6.91606819629669189453e-01) (34, 1.23583471775054931641e+00) (35, 1.30044475197792053223e-01) (36, 1.82685494422912597656e-01) (37, 7.90593087673187255859e-01) (38, 1.11792790889739990234e+00) (39, 5.84378063678741455078e-01) (40, 1.54823333024978637695e-01) (41, -5.90230345726013183594e-01) (42, 1.23553335666656494141e+00) (43, 1.09848451614379882812e+00) (44, 1.23465979099273681641e+00) (45, 1.16471374034881591797e+00) (46, 1.55431520938873291016e+00) (47, 8.70939791202545166016e-01) (48, 1.25048136711120605469e+00) (49, 1.14937043190002441406e+00) (50, 1.13718843460083007812e+00) (51, 1.14251637458801269531e+00) (52, 1.08122253417968750000e+00) (53, 7.05325841903686523438e-01) (54, 1.05912888050079345703e+00) (55, 1.39014154672622680664e-01) (56, 8.54251027107238769531e-01) (57, 8.16667556762695312500e-01) (58, 2.03832998871803283691e-01) (59, 1.23109459877014160156e+00) (60, 1.26249766349792480469e+00) (61, 1.22446978092193603516e+00) (62, 1.19563412666320800781e+00) (63, 5.56400597095489501953e-01) (64, 1.83165323734283447266e+00) (65, 6.22821450233459472656e-01) (66, 7.28454172611236572266e-01) (67, 1.12908709049224853516e+00) (68, 1.19852375984191894531e+00) (69, 1.21402204036712646484e+00) (70, 9.06486034393310546875e-01) (71, 1.29578614234924316406e+00) (72, 1.14150452613830566406e+00) (73, 1.30714392662048339844e+00) (74, 1.38408732414245605469e+00) (75, 1.10691881179809570312e+00) (76, 8.52313339710235595703e-01) (77, 1.28676700592041015625e+00) (78, 1.13767945766448974609e+00) (79, 1.29016160964965820312e+00) (80, 7.29481935501098632812e-01) (81, 1.35331058502197265625e+00) (82, 1.38689458370208740234e+00) (83, 1.19017219543457031250e+00) (84, 1.49121797084808349609e+00) (85, 1.25911724567413330078e+00) (86, 1.19057190418243408203e+00) (87, 1.38880896568298339844e+00) (88, 1.26052522659301757812e+00) (89, 1.25457596778869628906e+00) (90, 1.64826452732086181641e+00) (91, 1.22934281826019287109e+00) (92, 1.31033957004547119141e+00) (93, 1.16904342174530029297e+00) (94, 1.30293476581573486328e+00) (95, 1.27428960800170898438e+00) (96, 1.17974519729614257812e+00) (97, 1.58693611621856689453e+00) (98, 1.61856925487518310547e+00) (99, 1.21581792831420898438e+00) (100, 8.48380744457244873047e-01) (101, 1.09504115581512451172e+00) (102, 1.23540627956390380859e+00) (103, 7.44449079036712646484e-01) (104, 8.01319837570190429688e-01) (105, -1.79369747638702392578e+00) (106, 1.29542100429534912109e+00) (107, 1.76107680797576904297e+00) (108, 8.62120747566223144531e-01) (109, 3.66559672355651855469e+00) (110, 1.27629268169403076172e+00) (111, -2.37568759918212890625e+00) (112, 2.47908020019531250000e+00) (113, -2.29897928237915039062e+00) (114, -1.29203832149505615234e+00) (115, 2.31164288520812988281e+00) (116, 8.52049648761749267578e-01) (117, 8.12027275562286376953e-01) (118, 1.33961951732635498047e+00) (119, -1.91012537479400634766e+00) (120, 8.19779694080352783203e-01) (121, 1.30809378623962402344e+00) (122, -1.40356183052062988281e+00) (123, 3.50217056274414062500e+00) (124, -1.93785035610198974609e+00) (125, 2.77040314674377441406e+00) (126, -1.56842863559722900391e+00) (127, 3.69188690185546875000e+00) (128, -1.89062786102294921875e+00) (129, 1.09057402610778808594e+00) (130, 6.55191779136657714844e-01) 
