FANN_FLO_2.1
num_layers=3
learning_rate=0.700000
connection_rate=1.000000
network_type=0
learning_momentum=0.000000
training_algorithm=2
train_error_function=1
train_stop_function=0
cascade_output_change_fraction=0.010000
quickprop_decay=-0.000100
quickprop_mu=1.750000
rprop_increase_factor=1.200000
rprop_decrease_factor=0.500000
rprop_delta_min=0.000000
rprop_delta_max=50.000000
rprop_delta_zero=0.100000
cascade_output_stagnation_epochs=12
cascade_candidate_change_fraction=0.010000
cascade_candidate_stagnation_epochs=12
cascade_max_out_epochs=150
cascade_max_cand_epochs=150
cascade_num_candidate_groups=2
bit_fail_limit=3.49999994039535522461e-01
cascade_candidate_limit=1.00000000000000000000e+03
cascade_weight_multiplier=4.00000005960464477539e-01
cascade_activation_functions_count=10
cascade_activation_functions=3 5 7 8 10 11 14 15 16 17 
cascade_activation_steepnesses_count=4
cascade_activation_steepnesses=2.50000000000000000000e-01 5.00000000000000000000e-01 7.50000000000000000000e-01 1.00000000000000000000e+00 
layer_sizes=105 26 2 
scale_included=0
neurons (num_inputs, activation_function, activation_steepness)=(0, 0, 0.00000000000000000000e+00) (0, 0, 0.00000000000000000000e+00) (0, 0, 0.00000000000000000000e+00) (0, 0, 0.00000000000000000000e+00) (0, 0, 0.00000000000000000000e+00) (0, 0, 0.00000000000000000000e+00) (0, 0, 0.00000000000000000000e+00) (0, 0, 0.00000000000000000000e+00) (0, 0, 0.00000000000000000000e+00) (0, 0, 0.00000000000000000000e+00) (0, 0, 0.00000000000000000000e+00) (0, 0, 0.00000000000000000000e+00) (0, 0, 0.00000000000000000000e+00) (0, 0, 0.00000000000000000000e+00) (0, 0, 0.00000000000000000000e+00) (0, 0, 0.00000000000000000000e+00) (0, 0, 0.00000000000000000000e+00) (0, 0, 0.00000000000000000000e+00) (0, 0, 0.00000000000000000000e+00) (0, 0, 0.00000000000000000000e+00) (0, 0, 0.00000000000000000000e+00) (0, 0, 0.00000000000000000000e+00) (0, 0, 0.00000000000000000000e+00) (0, 0, 0.00000000000000000000e+00) (0, 0, 0.00000000000000000000e+00) (0, 0, 0.00000000000000000000e+00) (0, 0, 0.00000000000000000000e+00) (0, 0, 0.00000000000000000000e+00) (0, 0, 0.00000000000000000000e+00) (0, 0, 0.00000000000000000000e+00) (0, 0, 0.00000000000000000000e+00) (0, 0, 0.00000000000000000000e+00) (0, 0, 0.00000000000000000000e+00) (0, 0, 0.00000000000000000000e+00) (0, 0, 0.00000000000000000000e+00) (0, 0, 0.00000000000000000000e+00) (0, 0, 0.00000000000000000000e+00) (0, 0, 0.00000000000000000000e+00) (0, 0, 0.00000000000000000000e+00) (0, 0, 0.00000000000000000000e+00) (0, 0, 0.00000000000000000000e+00) (0, 0, 0.00000000000000000000e+00) (0, 0, 0.00000000000000000000e+00) (0, 0, 0.00000000000000000000e+00) (0, 0, 0.00000000000000000000e+00) (0, 0, 0.00000000000000000000e+00) (0, 0, 0.00000000000000000000e+00) (0, 0, 0.00000000000000000000e+00) (0, 0, 0.00000000000000000000e+00) (0, 0, 0.00000000000000000000e+00) (0, 0, 0.00000000000000000000e+00) (0, 0, 0.00000000000000000000e+00) (0, 0, 0.00000000000000000000e+00) (0, 0, 0.00000000000000000000e+00) (0, 0, 0.00000000000000000000e+00) (0, 0, 0.00000000000000000000e+00) (0, 0, 0.00000000000000000000e+00) (0, 0, 0.00000000000000000000e+00) (0, 0, 0.00000000000000000000e+00) (0, 0, 0.00000000000000000000e+00) (0, 0, 0.00000000000000000000e+00) (0, 0, 0.00000000000000000000e+00) (0, 0, 0.00000000000000000000e+00) (0, 0, 0.00000000000000000000e+00) (0, 0, 0.00000000000000000000e+00) (0, 0, 0.00000000000000000000e+00) (0, 0, 0.00000000000000000000e+00) (0, 0, 0.00000000000000000000e+00) (0, 0, 0.00000000000000000000e+00) (0, 0, 0.00000000000000000000e+00) (0, 0, 0.00000000000000000000e+00) (0, 0, 0.00000000000000000000e+00) (0, 0, 0.00000000000000000000e+00) (0, 0, 0.00000000000000000000e+00) (0, 0, 0.00000000000000000000e+00) (0, 0, 0.00000000000000000000e+00) (0, 0, 0.00000000000000000000e+00) (0, 0, 0.00000000000000000000e+00) (0, 0, 0.00000000000000000000e+00) (0, 0, 0.00000000000000000000e+00) (0, 0, 0.00000000000000000000e+00) (0, 0, 0.00000000000000000000e+00) (0, 0, 0.00000000000000000000e+00) (0, 0, 0.00000000000000000000e+00) (0, 0, 0.00000000000000000000e+00) (0, 0, 0.00000000000000000000e+00) (0, 0, 0.00000000000000000000e+00) (0, 0, 0.00000000000000000000e+00) (0, 0, 0.00000000000000000000e+00) (0, 0, 0.00000000000000000000e+00) (0, 0, 0.00000000000000000000e+00) (0, 0, 0.00000000000000000000e+00) (0, 0, 0.00000000000000000000e+00) (0, 0, 0.00000000000000000000e+00) (0, 0, 0.00000000000000000000e+00) (0, 0, 0.00000000000000000000e+00) (0, 0, 0.00000000000000000000e+00) (0, 0, 0.00000000000000000000e+00) (0, 0, 0.00000000000000000000e+00) (0, 0, 0.00000000000000000000e+00) (0, 0, 0.00000000000000000000e+00) (0, 0, 0.00000000000000000000e+00) (0, 0, 0.00000000000000000000e+00) (0, 0, 0.00000000000000000000e+00) (0, 0, 0.00000000000000000000e+00) (105, 5, 5.00000000000000000000e-01) (105, 5, 5.00000000000000000000e-01) (105, 5, 5.00000000000000000000e-01) (105, 5, 5.00000000000000000000e-01) (105, 5, 5.00000000000000000000e-01) (105, 5, 5.00000000000000000000e-01) (105, 5, 5.00000000000000000000e-01) (105, 5, 5.00000000000000000000e-01) (105, 5, 5.00000000000000000000e-01) (105, 5, 5.00000000000000000000e-01) (105, 5, 5.00000000000000000000e-01) (105, 5, 5.00000000000000000000e-01) (105, 5, 5.00000000000000000000e-01) (105, 5, 5.00000000000000000000e-01) (105, 5, 5.00000000000000000000e-01) (105, 5, 5.00000000000000000000e-01) (105, 5, 5.00000000000000000000e-01) (105, 5, 5.00000000000000000000e-01) (105, 5, 5.00000000000000000000e-01) (105, 5, 5.00000000000000000000e-01) (105, 5, 5.00000000000000000000e-01) (105, 5, 5.00000000000000000000e-01) (105, 5, 5.00000000000000000000e-01) (105, 5, 5.00000000000000000000e-01) (105, 5, 5.00000000000000000000e-01) (0, 5, 0.00000000000000000000e+00) (26, 5, 5.00000000000000000000e-01) (0, 5, 0.00000000000000000000e+00) 
connections (connected_to_neuron, weight)=(0, 1.22708869934082031250e+02) (1, 3.74716114997863769531e+00) (2, 3.63542675971984863281e+00) (3, 4.18326520919799804688e+00) (4, 1.21889579296112060547e+00) (5, 4.88302574157714843750e+01) (6, 1.68019682168960571289e-02) (7, 1.21481215953826904297e+00) (8, 9.31018066406250000000e+00) (9, 3.03188711404800415039e-03) (10, 8.14275220036506652832e-02) (11, 4.33868080377578735352e-01) (12, -1.06558829545974731445e-01) (13, 2.85036659240722656250e+00) (14, 1.24524151906371116638e-02) (15, 7.64078348875045776367e-02) (16, -7.62266278266906738281e-01) (17, -4.70609068870544433594e-02) (18, -1.80056762695312500000e+00) (19, 9.88508667796850204468e-03) (20, -7.41232991218566894531e-01) (21, -4.49387311935424804688e-01) (22, 3.14088582992553710938e-01) (23, -6.64071857929229736328e-01) (24, 4.36906814575195312500e-01) (25, -4.86383289098739624023e-01) (26, 1.09405964612960815430e-01) (27, 2.27332815527915954590e-01) (28, 2.37400099635124206543e-01) (29, -5.91082155704498291016e-01) (30, -4.74650353193283081055e-01) (31, 6.67840361595153808594e-01) (32, 4.58544224500656127930e-01) (33, -5.78718960285186767578e-01) (34, -4.29765272140502929688e+00) (35, -7.19120562076568603516e-01) (36, -5.25631606578826904297e-01) (37, -7.33503043651580810547e-01) (38, 2.31723695993423461914e-01) (39, -7.22716152667999267578e-01) (40, -8.22524785995483398438e-01) (41, 4.93682241439819335938e+00) (42, -1.06357240676879882812e+00) (43, -6.97773456573486328125e-01) (44, -7.83710002899169921875e-01) (45, 6.03272080421447753906e-01) (46, -6.21196317672729492188e+00) (47, 4.23732519149780273438e-01) (48, -4.99729776382446289062e+00) (49, -7.43101954460144042969e-01) (50, -2.24917486310005187988e-01) (51, 8.34681093692779541016e-01) (52, 1.05350565910339355469e+00) (53, 1.30480623245239257812e+00) (54, -1.05695104598999023438e+00) (55, 2.23377943038940429688e+00) (56, 1.38526871800422668457e-01) (57, 4.51186752319335937500e+00) (58, -2.96515941619873046875e-01) (59, 5.62749719619750976562e+00) (60, 3.65722864866256713867e-01) (61, 4.55000311136245727539e-01) (62, 1.57068982720375061035e-01) (63, 1.21583282947540283203e+00) (64, 3.37979421019554138184e-02) (65, 3.33566695451736450195e-01) (66, 6.59302377700805664062e+00) (67, 3.44221949577331542969e+00) (68, 3.50620293617248535156e+00) (69, -1.35471478104591369629e-01) (70, 3.94728630781173706055e-01) (71, 1.28671658039093017578e+00) (72, 3.84532541036605834961e-01) (73, 7.08368539810180664062e+00) (74, 3.24925929307937622070e-01) (75, 2.92481541633605957031e+00) (76, 6.19353413581848144531e-01) (77, 1.19892990589141845703e+00) (78, 1.68699932098388671875e+00) (79, 3.48812013864517211914e-01) (80, 5.30205821990966796875e+00) (81, -5.55972576141357421875e-01) (82, -1.33900558948516845703e+00) (83, 8.74077796936035156250e+00) (84, 2.22435101866722106934e-01) (85, -1.33124608993530273438e+01) (86, 2.81208366155624389648e-01) (87, 2.44255676865577697754e-01) (88, 9.60570526123046875000e+00) (89, 1.63628840446472167969e+00) (90, -1.73224258422851562500e+00) (91, 3.26776552200317382812e+00) (92, 2.46901106834411621094e+00) (93, 4.31688129901885986328e-02) (94, 2.76815980672836303711e-01) (95, 4.01191443204879760742e-01) (96, 2.46633216738700866699e-01) (97, 2.89807701110839843750e+00) (98, 1.80229651927947998047e+00) (99, 2.02907156944274902344e+00) (100, 4.29555803537368774414e-01) (101, 1.76936686038970947266e+00) (102, -8.81143493652343750000e+01) (103, 1.38118759155273437500e+02) (104, 1.81835591793060302734e+00) (0, -5.63895404338836669922e-01) (1, 5.37266917526721954346e-02) (2, 3.88564132153987884521e-02) (3, 1.54156863689422607422e+00) (4, 4.83673006296157836914e-01) (5, -5.80372238159179687500e+00) (6, 8.82027983665466308594e-01) (7, 5.41204452514648437500e-01) (8, 1.28239691257476806641e+00) (9, 1.05030171573162078857e-01) (10, 5.51791787147521972656e-01) (11, 1.37845706939697265625e+00) (12, 1.95154041051864624023e-01) (13, 7.31788814067840576172e-01) (14, 9.13916707038879394531e-01) (15, -5.58309793472290039062e-01) (16, -7.58444845676422119141e-01) (17, -4.22298550605773925781e-01) (18, 7.29064345359802246094e-01) (19, 3.41463774442672729492e-01) (20, -4.79179829359054565430e-01) (21, -1.46789586544036865234e+00) (22, -7.44398459792137145996e-02) (23, -5.37947297096252441406e-01) (24, -1.60898244380950927734e+00) (25, -4.35088396072387695312e+00) (26, -4.52632725238800048828e-01) (27, -1.47915673255920410156e+00) (28, -5.00183165073394775391e-01) (29, 5.44941723346710205078e-01) (30, 1.61873090267181396484e+00) (31, -1.48079723119735717773e-01) (32, 1.37512505054473876953e-01) (33, 1.67833137512207031250e+00) (34, 2.81311988830566406250e+00) (35, -4.33786332607269287109e-01) (36, -9.56493020057678222656e-01) (37, 6.79156124591827392578e-01) (38, 9.75129067897796630859e-01) (39, -9.68054950237274169922e-01) (40, -8.70812714099884033203e-01) (41, 4.97869157791137695312e+00) (42, 6.54953718185424804688e-01) (43, 5.96752941608428955078e-01) (44, 3.84348392486572265625e-01) (45, -9.08108711242675781250e-01) (46, 5.27405357360839843750e+00) (47, 4.41633462905883789062e-01) (48, 2.72135555744171142578e-01) (49, 1.68546259403228759766e+00) (50, 1.78340148925781250000e+00) (51, 4.67936992645263671875e-01) (52, 7.44535923004150390625e-01) (53, -5.42506039142608642578e-01) (54, 4.33488965034484863281e-01) (55, -2.00667881965637207031e+00) (56, -3.59124302864074707031e-01) (57, -6.13296318054199218750e+00) (58, 6.19471645355224609375e+00) (59, 9.97018814086914062500e+00) (60, -1.60907477140426635742e-01) (61, -2.85898351669311523438e+00) (62, -5.48410892486572265625e-01) (63, -5.21911978721618652344e-01) (64, -2.18928694725036621094e+00) (65, -5.34079551696777343750e-01) (66, -1.81969964504241943359e+00) (67, 2.10327196121215820312e+00) (68, 5.71331501007080078125e+00) (69, 1.78829348087310791016e+00) (70, -3.38323086500167846680e-01) (71, -9.50268626213073730469e-01) (72, -3.93407535552978515625e+00) (73, -3.80697178840637207031e+00) (74, -3.83166432380676269531e-01) (75, -3.54433178901672363281e-01) (76, -1.74085106700658798218e-02) (77, -3.39157772064208984375e+00) (78, -2.14581990242004394531e+00) (79, 5.77366173267364501953e-01) (80, 9.76282596588134765625e+00) (81, 4.07483720779418945312e+00) (82, 4.02684259414672851562e+00) (83, 3.49568605422973632812e+00) (84, 8.05344164371490478516e-01) (85, -3.25025773048400878906e+00) (86, -2.90137887001037597656e-01) (87, -5.84812223911285400391e-01) (88, 2.51267528533935546875e+00) (89, 1.77325916290283203125e+00) (90, 6.16619205474853515625e+00) (91, 1.28756821155548095703e+00) (92, 5.81682920455932617188e-01) (93, -4.19409751892089843750e+00) (94, -5.67889690399169921875e-01) (95, -2.12949290871620178223e-01) (96, -2.02935934066772460938e+00) (97, -2.96432733535766601562e+00) (98, 1.32995927333831787109e+00) (99, 1.34519946575164794922e+00) (100, -1.20286250114440917969e+00) (101, -1.22828684747219085693e-01) (102, -8.82635772228240966797e-01) (103, 3.08423638343811035156e+00) (104, 1.28132843971252441406e+00) (0, 1.50000000000000000000e+03) (1, 1.50000000000000000000e+03) (2, 1.50000000000000000000e+03) (3, 1.50000000000000000000e+03) (4, 1.50000000000000000000e+03) (5, 1.50000000000000000000e+03) (6, 1.47069738769531250000e+03) (7, 1.50000000000000000000e+03) (8, 1.50000000000000000000e+03) (9, 1.50000000000000000000e+03) (10, 1.50000000000000000000e+03) (11, 1.50000000000000000000e+03) (12, 1.50000000000000000000e+03) (13, 1.50000000000000000000e+03) (14, 1.50000000000000000000e+03) (15, 1.50000000000000000000e+03) (16, 2.87640190124511718750e+00) (17, 1.50000000000000000000e+03) (18, 1.50000000000000000000e+03) (19, 3.04485130310058593750e+00) (20, -1.49947924804687500000e+03) (21, 1.50000000000000000000e+03) (22, 1.50000000000000000000e+03) (23, -8.16969990730285644531e-01) (24, 3.05136810302734375000e+02) (25, 1.50000000000000000000e+03) (26, 2.10198736190795898438e+00) (27, 1.50000000000000000000e+03) (28, 1.50000000000000000000e+03) (29, 1.50000000000000000000e+03) (30, -1.78291583061218261719e+00) (31, 1.50000000000000000000e+03) (32, 1.50000000000000000000e+03) (33, 1.50000000000000000000e+03) (34, -1.48332629394531250000e+03) (35, 1.50000000000000000000e+03) (36, 1.50000000000000000000e+03) (37, -1.49999243164062500000e+03) (38, -5.91114699840545654297e-01) (39, 2.40615892410278320312e+00) (40, -1.50000000000000000000e+03) (41, -1.50000000000000000000e+03) (42, 2.86564779281616210938e+00) (43, 1.30525708198547363281e+00) (44, -8.73978900909423828125e+00) (45, 2.25646710395812988281e+00) (46, -1.50000000000000000000e+03) (47, 1.50000000000000000000e+03) (48, 1.50000000000000000000e+03) (49, -7.14335978031158447266e-01) (50, 6.25373125076293945312e-01) (51, 1.04146540164947509766e+00) (52, 5.08200824260711669922e-01) (53, 1.85802781581878662109e+00) (54, -1.45194149017333984375e+00) (55, -1.50000000000000000000e+03) (56, 1.50000000000000000000e+03) (57, -1.50000000000000000000e+03) (58, 2.07712364196777343750e+00) (59, -9.01549743652343750000e+02) (60, 4.63610363006591796875e+00) (61, -1.50000000000000000000e+03) (62, 2.95997953414916992188e+00) (63, 1.50000000000000000000e+03) (64, 3.09431171417236328125e+00) (65, 1.50000000000000000000e+03) (66, 3.30838432312011718750e+01) (67, 2.19078803062438964844e+00) (68, 1.00285301208496093750e+01) (69, 2.13666367530822753906e+00) (70, 1.50000000000000000000e+03) (71, 2.85127258300781250000e+00) (72, 1.50000000000000000000e+03) (73, 4.89927053451538085938e+00) (74, 1.50000000000000000000e+03) (75, 1.50000000000000000000e+03) (76, 1.50000000000000000000e+03) (77, 1.50000000000000000000e+03) (78, 2.91982007026672363281e+00) (79, 1.40254638671875000000e+03) (80, 1.50000000000000000000e+03) (81, 2.92345809936523437500e+00) (82, 2.89651727676391601562e+00) (83, 1.50000000000000000000e+03) (84, 3.16957473754882812500e+00) (85, 2.87085461616516113281e+00) (86, 3.36227583885192871094e+00) (87, 3.06397438049316406250e+00) (88, 9.52188186645507812500e+01) (89, 1.50000000000000000000e+03) (90, 3.00289106369018554688e+00) (91, 4.36779403686523437500e+00) (92, 3.00734066963195800781e+00) (93, 3.17964291572570800781e+00) (94, 3.44862699508666992188e+00) (95, 2.94126057624816894531e+00) (96, 2.86972045898437500000e+00) (97, 3.15802597999572753906e+00) (98, 3.54216670989990234375e+00) (99, 3.04091620445251464844e+00) (100, 1.50000000000000000000e+03) (101, 3.10571503639221191406e+00) (102, 1.50000000000000000000e+03) (103, -1.50000000000000000000e+03) (104, -1.02985179424285888672e+00) (0, 1.20599305629730224609e+00) (1, -1.15076625347137451172e+00) (2, -2.09834620356559753418e-01) (3, 3.24507236480712890625e+00) (4, -8.97413119673728942871e-02) (5, -1.79894232749938964844e+00) (6, -5.61167001724243164062e-01) (7, 6.22977614402770996094e-02) (8, -3.75739145278930664062e+00) (9, 5.68144857883453369141e-01) (10, -1.17955217137932777405e-02) (11, 1.05834972858428955078e+00) (12, -3.54622304439544677734e-01) (13, 2.20412388443946838379e-01) (14, -5.22009134292602539062e-01) (15, 7.70472764968872070312e-01) (16, 5.92429757118225097656e-01) (17, -4.72494423389434814453e-01) (18, 1.26664817333221435547e+00) (19, 7.41397023200988769531e-01) (20, -1.22009801864624023438e+00) (21, -4.17929112911224365234e-01) (22, -1.22142601013183593750e+00) (23, -2.09931265562772750854e-02) (24, 8.37087273597717285156e-01) (25, -1.58672678470611572266e+00) (26, 9.71173271536827087402e-02) (27, -4.40002918243408203125e-01) (28, -9.59151506423950195312e-01) (29, 9.61504042148590087891e-01) (30, 1.40763068199157714844e+00) (31, -1.30055785179138183594e+00) (32, -1.48211359977722167969e+00) (33, 7.49318838119506835938e-01) (34, -6.30936801433563232422e-01) (35, -1.79221868515014648438e+00) (36, 3.23548316955566406250e-01) (37, 7.36013829708099365234e-01) (38, -8.16461741924285888672e-01) (39, -5.04276454448699951172e-01) (40, 3.80626261234283447266e-01) (41, 1.59147417545318603516e+00) (42, 1.69318616390228271484e+00) (43, -4.56856578588485717773e-01) (44, 2.03254207968711853027e-01) (45, -4.96251046657562255859e-01) (46, 3.26732993125915527344e-01) (47, -1.11773014068603515625e+00) (48, 9.76873397827148437500e-01) (49, 2.10692262649536132812e+00) (50, 1.55542343854904174805e-01) (51, -3.66660445928573608398e-01) (52, 2.27040696144104003906e+00) (53, 2.61705732345581054688e+00) (54, -7.97147929668426513672e-01) (55, 4.32015514373779296875e+00) (56, 9.90896940231323242188e-01) (57, -1.05323481559753417969e+00) (58, 2.48398137092590332031e+00) (59, -2.90237736701965332031e+00) (60, 1.24493455886840820312e+00) (61, 3.08513164520263671875e+00) (62, 3.81030559539794921875e-01) (63, -7.93851256370544433594e-01) (64, -4.77687448263168334961e-01) (65, -6.45018100738525390625e-01) (66, -2.40026736259460449219e+00) (67, 5.23679018020629882812e+00) (68, -1.07098388671875000000e+00) (69, -6.56322911381721496582e-02) (70, 7.17994749546051025391e-01) (71, -1.93543598055839538574e-01) (72, -1.83405256271362304688e+00) (73, -1.80918002128601074219e+00) (74, -2.77967274188995361328e-01) (75, 1.26166939735412597656e+00) (76, 8.58456254005432128906e-01) (77, -4.44035738706588745117e-01) (78, -8.52657318115234375000e+00) (79, 4.67620849609375000000e+00) (80, 6.41577363014221191406e-01) (81, 5.16455709934234619141e-01) (82, -1.94105505943298339844e+00) (83, -3.42623472213745117188e+00) (84, 7.74838829040527343750e+00) (85, 2.13550567626953125000e+00) (86, 2.20876142382621765137e-01) (87, -6.81650340557098388672e-01) (88, 1.22539460659027099609e+00) (89, 2.16522336006164550781e+00) (90, 3.41169983148574829102e-01) (91, 2.50548791885375976562e+00) (92, 1.41969740390777587891e+00) (93, -1.00073182582855224609e+00) (94, -1.56631305813789367676e-01) (95, -1.27458798885345458984e+00) (96, 2.26790046691894531250e+00) (97, -6.67768299579620361328e-01) (98, -3.04776906967163085938e+00) (99, -7.51565575599670410156e-01) (100, -4.53801870346069335938e-01) (101, 7.15026438236236572266e-01) (102, -6.69847309589385986328e-01) (103, 3.07301354408264160156e+00) (104, 4.04430240392684936523e-01) (0, -5.32566184997558593750e+01) (1, -1.55493059158325195312e+01) (2, -5.05534362792968750000e+00) (3, -1.40988886356353759766e+00) (4, 2.79564559459686279297e-01) (5, -4.63254737854003906250e+00) (6, -3.92591452598571777344e+00) (7, 3.06904411315917968750e+00) (8, 1.02112350463867187500e+01) (9, 1.63254570960998535156e+00) (10, 1.07417918741703033447e-01) (11, 1.13266525268554687500e+01) (12, 8.35880562663078308105e-02) (13, 5.12440795898437500000e+01) (14, -2.67151415348052978516e-01) (15, -2.73521363735198974609e-01) (16, 4.66439104080200195312e+00) (17, -4.14770960807800292969e-01) (18, 1.72117614746093750000e+00) (19, 1.33958172798156738281e+00) (20, -5.02131462097167968750e+00) (21, 1.39868998527526855469e+00) (22, 2.80281901359558105469e+00) (23, 2.46211290359497070312e+00) (24, -3.64106101989746093750e+01) (25, -4.47817321777343750000e+02) (26, 1.25338387489318847656e+00) (27, 1.60824850201606750488e-01) (28, -1.33334279060363769531e+00) (29, -2.28969979286193847656e+00) (30, 3.40771222114562988281e+00) (31, -1.18053531646728515625e+00) (32, 2.10303092002868652344e+00) (33, 4.89435272216796875000e+01) (34, 4.00610399246215820312e+00) (35, 3.72502365112304687500e+01) (36, 3.28471231460571289062e+00) (37, 1.08641662597656250000e+02) (38, 1.26862020492553710938e+01) (39, 2.23468804359436035156e+00) (40, 1.02026687622070312500e+02) (41, 1.45731096267700195312e+01) (42, 1.98299527168273925781e+00) (43, 5.32003259658813476562e+00) (44, 8.64639587402343750000e+01) (45, 1.19768571853637695312e+00) (46, 8.26582107543945312500e+01) (47, 1.25221420288085937500e+02) (48, 3.88823165893554687500e+01) (49, 4.00767040252685546875e+00) (50, 2.81602263450622558594e+00) (51, 1.51111545562744140625e+01) (52, 1.13042211532592773438e+00) (53, 7.24832057952880859375e-01) (54, 7.10691986083984375000e+01) (55, 8.46461486816406250000e+00) (56, -9.95217621326446533203e-01) (57, 1.54406237602233886719e+00) (58, 2.95046901702880859375e+00) (59, -1.18563327789306640625e+01) (60, -2.86340892314910888672e-01) (61, 7.53632831573486328125e+00) (62, 1.80397331714630126953e+00) (63, -5.74853849411010742188e+00) (64, 2.55736374855041503906e+00) (65, -5.99667608737945556641e-01) (66, 1.87533736228942871094e+00) (67, 6.24485492706298828125e-01) (68, 2.53584122657775878906e+00) (69, 2.36616802215576171875e+00) (70, 1.87127113342285156250e-01) (71, 1.69619154930114746094e+00) (72, -3.50470066070556640625e-01) (73, 2.66967582702636718750e+00) (74, -1.66094398498535156250e+00) (75, 1.68340429663658142090e-01) (76, -9.74110424518585205078e-01) (77, -9.42834198474884033203e-01) (78, 2.11456608772277832031e+00) (79, 2.45286613702774047852e-01) (80, -2.14521932601928710938e+00) (81, 2.41184854507446289062e+00) (82, -1.77953505516052246094e+00) (83, -1.89614191651344299316e-01) (84, -7.12256193161010742188e-01) (85, 1.18228197097778320312e+00) (86, 2.95007139444351196289e-01) (87, 2.13373756408691406250e+00) (88, -2.00570178031921386719e+00) (89, -7.74105012416839599609e-01) (90, 1.79575443267822265625e+00) (91, 1.26179230213165283203e+00) (92, 1.89808189868927001953e+00) (93, 9.95195508003234863281e-01) (94, -3.04206848144531250000e-01) (95, 2.03388524055480957031e+00) (96, 2.28246736526489257812e+00) (97, 1.08487427234649658203e+00) (98, -1.23789608478546142578e+00) (99, 2.22261333465576171875e+00) (100, 2.90361374616622924805e-01) (101, 6.00055694580078125000e-01) (102, 3.05957388877868652344e+00) (103, 1.18052131652832031250e+02) (104, -2.68122196197509765625e-01) (0, 5.80018493652343750000e+02) (1, -5.87225532531738281250e+01) (2, 9.91035308837890625000e+01) (3, 5.08424407958984375000e+02) (4, 2.36529874801635742188e+00) (5, 6.34596679687500000000e+02) (6, 1.65647590160369873047e+00) (7, 7.33721137046813964844e-01) (8, 1.41902399063110351562e+01) (9, 2.00534224510192871094e+00) (10, 2.31678962707519531250e+00) (11, 5.29166281223297119141e-01) (12, 1.78320908546447753906e+00) (13, -2.05766830444335937500e+02) (14, 1.89061701297760009766e+00) (15, 2.53709244728088378906e+00) (16, 1.72362792491912841797e+00) (17, 2.08668136596679687500e+00) (18, 2.14337754249572753906e+00) (19, 1.80286598205566406250e+00) (20, -1.24717065429687500000e+03) (21, 1.49988195800781250000e+03) (22, -1.48948388671875000000e+03) (23, 2.48861059546470642090e-01) (24, 1.57243835449218750000e+02) (25, 3.60503458976745605469e+00) (26, 2.40238189697265625000e+00) (27, 1.50000000000000000000e+03) (28, 8.74298400878906250000e+02) (29, 2.11880731582641601562e+00) (30, -1.70866215229034423828e+00) (31, 3.04408526420593261719e+00) (32, 3.33912205696105957031e+00) (33, -1.49948303222656250000e+03) (34, -1.31797448730468750000e+03) (35, 3.73418807983398437500e+00) (36, 5.79133987426757812500e+01) (37, -1.49976489257812500000e+03) (38, -4.29521530866622924805e-01) (39, 1.30049526691436767578e+00) (40, -4.81873901367187500000e+02) (41, -1.50000000000000000000e+03) (42, 9.71714556217193603516e-01) (43, 7.11262047290802001953e-01) (44, -7.56839370727539062500e+00) (45, 3.36186146736145019531e+00) (46, -1.49725842285156250000e+03) (47, -1.49284326171875000000e+03) (48, -4.72133350372314453125e+00) (49, -1.38888107299804687500e+02) (50, -4.90110921859741210938e+00) (51, 7.71832406520843505859e-01) (52, -5.29469337463378906250e+01) (53, 1.83601355552673339844e+00) (54, -2.81805171966552734375e+01) (55, -9.18187377929687500000e+02) (56, 1.50000000000000000000e+03) (57, 4.55006241798400878906e-01) (58, 8.77192676067352294922e-01) (59, 1.49902392578125000000e+03) (60, 3.26933479309082031250e+00) (61, 1.56428182125091552734e+00) (62, 2.47159290313720703125e+00) (63, 1.50000000000000000000e+03) (64, 1.82239902019500732422e+00) (65, 6.26264047622680664062e+00) (66, 8.92379951477050781250e+00) (67, 1.60456359386444091797e+00) (68, 1.58824300765991210938e+00) (69, 5.14170885086059570312e-01) (70, 2.03595123291015625000e+01) (71, 1.66149687767028808594e+00) (72, 3.12686538696289062500e+00) (73, 2.58086991310119628906e+00) (74, 5.31960010528564453125e+00) (75, 3.06571674346923828125e+00) (76, 1.08010616302490234375e+01) (77, 4.78201627731323242188e+00) (78, 1.93864572048187255859e+00) (79, 2.34608697891235351562e+00) (80, 1.50000000000000000000e+03) (81, 1.57607638835906982422e+00) (82, 1.21267271041870117188e+00) (83, 1.50000000000000000000e+03) (84, 3.33079075813293457031e+00) (85, 1.13029909133911132812e+00) (86, 1.85683739185333251953e+00) (87, 1.75463473796844482422e+00) (88, 8.11549682617187500000e+01) (89, 1.50000000000000000000e+03) (90, 1.51723432540893554688e+00) (91, 4.21369171142578125000e+00) (92, 2.32176113128662109375e+00) (93, 1.87777078151702880859e+00) (94, 4.47230958938598632812e+00) (95, 2.07811355590820312500e+00) (96, 1.43867301940917968750e+00) (97, 2.55287384986877441406e+00) (98, 2.36353445053100585938e+00) (99, 1.34025835990905761719e+00) (100, 2.24778842926025390625e+00) (101, 2.31548452377319335938e+00) (102, 1.50000000000000000000e+03) (103, -1.50000000000000000000e+03) (104, 2.87717282772064208984e-01) (0, 1.54915370941162109375e+01) (1, -5.19832191467285156250e+01) (2, 7.96195678710937500000e+02) (3, 8.79722690582275390625e+00) (4, 1.57915782928466796875e+00) (5, 1.15444068908691406250e+02) (6, -1.59928247332572937012e-01) (7, -2.41843506693840026855e-01) (8, 1.04781713485717773438e+01) (9, 7.47074544429779052734e-01) (10, 1.29884309768676757812e+01) (11, 2.47840046882629394531e+00) (12, 1.60814344882965087891e+00) (13, -2.70965218544006347656e+00) (14, 1.80174279212951660156e+00) (15, 8.19479525089263916016e-01) (16, 3.79012644290924072266e-01) (17, 5.80194234848022460938e-01) (18, -7.75619745254516601562e-02) (19, 4.88286465406417846680e-01) (20, 7.57419645786285400391e-01) (21, 1.91951727867126464844e+00) (22, -1.03002693176269531250e+02) (23, -6.76778256893157958984e-01) (24, 2.58876457214355468750e+01) (25, 1.80430996417999267578e+00) (26, 1.48709297180175781250e+00) (27, 1.70211768150329589844e+00) (28, 1.34206950664520263672e+00) (29, 1.08279049396514892578e+00) (30, -4.17953133583068847656e-01) (31, 1.44770944118499755859e+00) (32, 1.36596310138702392578e+00) (33, -4.15121316909790039062e+00) (34, 3.15253086090087890625e+01) (35, -4.78822946548461914062e-01) (36, 2.17081775665283203125e+01) (37, -1.21958483886718750000e+03) (38, -1.04053997993469238281e+00) (39, -3.65002244710922241211e-01) (40, -3.53526639938354492188e+00) (41, -6.69121322631835937500e+01) (42, 2.82191216945648193359e-01) (43, 4.64528590440750122070e-01) (44, -6.94024658203125000000e+00) (45, 3.96756350994110107422e-01) (46, -2.78994503021240234375e+01) (47, -1.45044995117187500000e+03) (48, 3.74304920434951782227e-01) (49, -1.30562038421630859375e+01) (50, -1.76824629306793212891e-01) (51, 3.04791443049907684326e-02) (52, -3.66407454013824462891e-01) (53, 1.29879504442214965820e-01) (54, -1.07402026653289794922e+00) (55, -7.50203247070312500000e+01) (56, 6.33518874645233154297e-01) (57, 1.58201360702514648438e+00) (58, 3.35991978645324707031e+00) (59, 8.75966033935546875000e+01) (60, 2.24644684791564941406e+00) (61, 2.45362319946289062500e+01) (62, 1.79710340499877929688e+00) (63, 7.27686452865600585938e+00) (64, 5.41441857814788818359e-01) (65, 2.80892109870910644531e+00) (66, 2.03125171661376953125e+01) (67, 1.71757888793945312500e+00) (68, 4.73896789550781250000e+00) (69, 9.71229672431945800781e-01) (70, 1.15533244609832763672e+00) (71, 8.88054013252258300781e-01) (72, 4.54686641693115234375e+00) (73, 5.12756776809692382812e+00) (74, 3.25329208374023437500e+00) (75, 1.22262239456176757812e+01) (76, 6.01275787353515625000e+01) (77, 3.19070792198181152344e+00) (78, 8.78251075744628906250e-01) (79, 1.51200556755065917969e+00) (80, 1.50000000000000000000e+03) (81, -1.12622427940368652344e+00) (82, 3.26639099121093750000e+01) (83, 3.36625305175781250000e+02) (84, 2.87017393112182617188e+00) (85, 1.46139776706695556641e+00) (86, 1.61379599571228027344e+00) (87, 4.68349486589431762695e-01) (88, 7.30905685424804687500e+01) (89, 5.97626892089843750000e+02) (90, -1.12803824245929718018e-01) (91, 6.32478892803192138672e-01) (92, 3.49824219942092895508e-01) (93, 1.28528642654418945312e+01) (94, 2.00443434715270996094e+00) (95, 1.91641107201576232910e-01) (96, 3.44694674015045166016e-01) (97, 6.84190094470977783203e-01) (98, 2.90521001815795898438e+00) (99, 3.77574920654296875000e-01) (100, 1.96779620647430419922e+00) (101, 7.10025668144226074219e-01) (102, -1.14253168106079101562e+01) (103, 3.77622032165527343750e+01) (104, 5.31280934810638427734e-01) (0, 9.48931503295898437500e+01) (1, -2.38402938842773437500e+02) (2, -2.49842041015625000000e+02) (3, -2.58647644042968750000e+02) (4, 1.03235275268554687500e+02) (5, -2.03914733886718750000e+02) (6, -9.04063262939453125000e+01) (7, 7.50213806152343750000e+02) (8, 1.21206407546997070312e+01) (9, 2.88849139213562011719e+00) (10, 1.92898437500000000000e+02) (11, -7.18061700463294982910e-02) (12, 2.59725022315979003906e+00) (13, -3.38752403259277343750e+01) (14, 2.87899208068847656250e+00) (15, 1.87329089641571044922e+00) (16, 2.39209079742431640625e+00) (17, 1.40151607990264892578e+00) (18, 4.56030905246734619141e-01) (19, 9.49460804462432861328e-01) (20, -6.11937332153320312500e+00) (21, 9.30339908599853515625e+00) (22, -8.99991607666015625000e+00) (23, -3.37685275077819824219e+00) (24, 2.13751006126403808594e+00) (25, 2.93383056640625000000e+02) (26, 8.22155666351318359375e+00) (27, 6.28822982311248779297e-01) (28, 6.82617306709289550781e-01) (29, 2.15329861640930175781e+00) (30, 1.41140282154083251953e-01) (31, 3.96424508094787597656e+00) (32, 5.00728070735931396484e-01) (33, -1.98150706291198730469e+00) (34, -5.89593276977539062500e+01) (35, -2.91276187896728515625e+01) (36, 2.31410169601440429688e+00) (37, -1.12228869628906250000e+03) (38, 1.41544848680496215820e-01) (39, 4.45044726133346557617e-01) (40, -1.40192520141601562500e+02) (41, -1.78952682495117187500e+02) (42, 1.09491527080535888672e+00) (43, 1.30434989929199218750e+00) (44, -4.11629867553710937500e+01) (45, 7.15580403804779052734e-01) (46, -7.54699935913085937500e+01) (47, -4.15107116699218750000e+01) (48, -4.19293212890625000000e+00) (49, -3.40648913383483886719e+00) (50, 5.19236207008361816406e-01) (51, 9.73978340625762939453e-01) (52, 7.48297452926635742188e-01) (53, 2.41635227203369140625e+00) (54, -1.71233642101287841797e+00) (55, -1.10461578369140625000e+01) (56, 1.45869731903076171875e+00) (57, -1.16206865310668945312e+01) (58, 6.45549106597900390625e+00) (59, 2.24769409179687500000e+02) (60, 3.44521403312683105469e+00) (61, 6.05236816406250000000e+00) (62, 1.15230119228363037109e+00) (63, 3.96589398384094238281e+00) (64, 1.44632780551910400391e+00) (65, 3.09961247444152832031e+00) (66, 5.98172855377197265625e+00) (67, 1.53708362579345703125e+00) (68, 3.19930601119995117188e+00) (69, 1.35760545730590820312e+00) (70, 2.30291962623596191406e+00) (71, 1.38303184509277343750e+00) (72, 3.18907475471496582031e+00) (73, 5.71826505661010742188e+00) (74, 3.11836981773376464844e+00) (75, 3.94472217559814453125e+00) (76, -1.75836853027343750000e+02) (77, 3.77875328063964843750e+00) (78, 5.38646459579467773438e-01) (79, 6.15126800537109375000e+00) (80, 9.34326171875000000000e+01) (81, 6.42240166664123535156e-01) (82, 1.17660582065582275391e+00) (83, 1.10321093750000000000e+03) (84, 2.29365038871765136719e+00) (85, 1.53011608123779296875e+00) (86, 3.12063765525817871094e+00) (87, 1.57316374778747558594e+00) (88, 5.22511100769042968750e+00) (89, 6.95568542480468750000e+02) (90, 1.30187499523162841797e+00) (91, 1.43040251731872558594e+00) (92, 1.50790905952453613281e+00) (93, 1.50029432773590087891e+00) (94, 3.10120153427124023438e+00) (95, 1.51536166667938232422e+00) (96, 1.44417417049407958984e+00) (97, 1.54634332656860351562e+00) (98, 3.29560184478759765625e+00) (99, 1.46556639671325683594e+00) (100, -1.69836059570312500000e+02) (101, 3.06173348426818847656e+00) (102, -1.86787395477294921875e+01) (103, 4.25229835510253906250e+01) (104, -8.53500425815582275391e-01) (0, -9.96474647521972656250e+00) (1, 4.60733890533447265625e+00) (2, 2.19566249847412109375e+00) (3, -1.92841873168945312500e+01) (4, -2.35197615623474121094e+00) (5, -1.55174568295478820801e-01) (6, 4.73854446411132812500e+00) (7, 5.57699871063232421875e+00) (8, -5.06930618286132812500e+01) (9, 1.09132814407348632812e+00) (10, 1.00942516326904296875e+00) (11, 2.71298270672559738159e-03) (12, 1.03901314735412597656e+00) (13, 4.49899291992187500000e+00) (14, -7.33495652675628662109e-01) (15, -8.85836601257324218750e-01) (16, -1.85175985097885131836e-02) (17, -4.83229684829711914062e+00) (18, 9.05917882919311523438e-01) (19, 7.42805004119873046875e-01) (20, 3.31726646423339843750e+00) (21, -3.33633160591125488281e+00) (22, 1.13842320442199707031e+00) (23, 1.17985653877258300781e+00) (24, -3.17745637893676757812e+00) (25, -9.18821048736572265625e+00) (26, 6.15148842334747314453e-01) (27, -1.12726986408233642578e+00) (28, -1.05890586972236633301e-01) (29, 7.04190790653228759766e-01) (30, 2.73922562599182128906e+00) (31, 1.26959776878356933594e+00) (32, 2.64172852039337158203e-01) (33, 2.02244305610656738281e+00) (34, 1.27861940860748291016e+00) (35, 2.00215816497802734375e-01) (36, -7.54904985427856445312e-01) (37, 3.95430040359497070312e+00) (38, 2.39087009429931640625e+00) (39, 3.55796724557876586914e-01) (40, -9.49864566326141357422e-01) (41, 2.50026588439941406250e+01) (42, 9.88005518913269042969e-01) (43, 5.45332491397857666016e-01) (44, 5.88800382614135742188e+00) (45, 9.73548173904418945312e-01) (46, 9.50532436370849609375e+00) (47, 1.48467702865600585938e+01) (48, -1.92090988159179687500e+01) (49, 4.50971841812133789062e+00) (50, -1.49115845561027526855e-01) (51, -3.16424190998077392578e-01) (52, 1.17872452735900878906e+00) (53, -1.16274309158325195312e+01) (54, 9.04868304729461669922e-01) (55, 1.84231221675872802734e+00) (56, -2.85058546066284179688e+00) (57, -2.63747394084930419922e-01) (58, -3.22511583566665649414e-01) (59, -5.76425075531005859375e+00) (60, -1.03653097152709960938e+00) (61, 9.60053443908691406250e+00) (62, 1.16082179546356201172e+00) (63, -4.99048709869384765625e+00) (64, 8.91945123672485351562e-01) (65, -9.16050314903259277344e-01) (66, 1.52632308006286621094e+00) (67, 2.56764030456542968750e+00) (68, 1.62918257713317871094e+00) (69, 1.97478544712066650391e+00) (70, 3.41934108734130859375e+00) (71, -1.49639308452606201172e+00) (72, -1.16796827316284179688e+00) (73, -1.17497742176055908203e-02) (74, -5.51777935028076171875e+00) (75, -8.79381537437438964844e-01) (76, -3.02136993408203125000e+00) (77, -2.11530494689941406250e+00) (78, 1.54746091365814208984e+00) (79, -1.04918062686920166016e+00) (80, -5.38580608367919921875e+00) (81, 1.09900557994842529297e+00) (82, -6.26721203327178955078e-01) (83, -4.75501489639282226562e+00) (84, -3.31690359115600585938e+00) (85, -5.09954011067748069763e-03) (86, -3.13143444061279296875e+01) (87, -6.92395567893981933594e-01) (88, -2.12990307807922363281e+00) (89, -9.57920265197753906250e+00) (90, -6.69522359967231750488e-02) (91, -5.24746894836425781250e-01) (92, 6.35532736778259277344e-01) (93, -4.59979921579360961914e-01) (94, -9.82774436473846435547e-01) (95, 7.14846432209014892578e-01) (96, -6.17883205413818359375e-01) (97, 5.43186962604522705078e-01) (98, -9.47750687599182128906e-01) (99, -9.62438106536865234375e-01) (100, -1.11477124691009521484e+00) (101, 1.77246105670928955078e+00) (102, -9.57399559020996093750e+00) (103, 1.62071800231933593750e+01) (104, 1.10826957225799560547e+00) (0, -8.75881373882293701172e-01) (1, -6.16794943809509277344e-01) (2, -7.23401963710784912109e-01) (3, -3.65558922290802001953e-01) (4, -6.18588149547576904297e-01) (5, -7.21837162971496582031e-01) (6, 2.88789629936218261719e-01) (7, 2.69981837272644042969e+00) (8, -4.16058731079101562500e+00) (9, 2.50537085533142089844e+00) (10, 9.19357895851135253906e-01) (11, 4.76915240287780761719e-01) (12, 4.43649530410766601562e-01) (13, 2.05990266799926757812e+00) (14, -3.59956353902816772461e-01) (15, 7.34005033969879150391e-01) (16, -3.61623823642730712891e-01) (17, -5.30145883560180664062e-01) (18, -2.45478376746177673340e-01) (19, -2.72794038057327270508e-01) (20, -1.00898540019989013672e+00) (21, 1.07090838253498077393e-01) (22, -1.09671247005462646484e+00) (23, -8.80441546440124511719e-01) (24, 1.24787950515747070312e+00) (25, -1.13285994529724121094e+00) (26, -8.34368765354156494141e-01) (27, -1.05701637268066406250e+00) (28, -8.26463460922241210938e-01) (29, 3.29322725534439086914e-01) (30, -8.81461203098297119141e-01) (31, 4.31525260210037231445e-01) (32, 7.98492133617401123047e-01) (33, 2.21836566925048828125e+00) (34, -1.11738848686218261719e+00) (35, -1.17431616783142089844e+00) (36, -7.96937465667724609375e-01) (37, -1.81550562381744384766e-01) (38, -9.87295448780059814453e-01) (39, -1.35149848461151123047e+00) (40, 7.33591318130493164062e-01) (41, -1.76696395874023437500e+00) (42, -4.61240530014038085938e-01) (43, 2.40490078926086425781e+00) (44, -1.10674941539764404297e+00) (45, 6.19390010833740234375e-01) (46, 2.39057779312133789062e+00) (47, -1.56770312786102294922e+00) (48, 3.86633992195129394531e-01) (49, -1.41435003280639648438e+00) (50, 1.54553890228271484375e+00) (51, 1.49098002910614013672e+00) (52, -9.66060757637023925781e-02) (53, -1.08589518070220947266e+00) (54, 9.31595921516418457031e-01) (55, -9.64454531669616699219e-01) (56, 3.75127524137496948242e-01) (57, 1.64811611175537109375e-01) (58, 1.92757666110992431641e+00) (59, 7.49738335609436035156e-01) (60, -6.25050663948059082031e-01) (61, 1.03627526760101318359e+00) (62, 2.62013101577758789062e+00) (63, -7.90640294551849365234e-01) (64, -2.00385975837707519531e+00) (65, -8.08373630046844482422e-01) (66, -4.32438945770263671875e+00) (67, -9.44339632987976074219e-01) (68, -4.74528640508651733398e-01) (69, -1.32568225264549255371e-01) (70, -4.55700010061264038086e-01) (71, 1.64867866039276123047e+00) (72, -6.59315943717956542969e-01) (73, 3.80370467901229858398e-01) (74, 1.59749925136566162109e+00) (75, 2.95400977134704589844e+00) (76, 1.24388134479522705078e+00) (77, -7.07598268985748291016e-01) (78, -4.09471631050109863281e-01) (79, 7.23510205745697021484e-01) (80, -1.48221189156174659729e-02) (81, -8.62779676914215087891e-01) (82, -4.94237989187240600586e-01) (83, -1.30745017528533935547e+00) (84, -4.44213360548019409180e-01) (85, -8.07102918624877929688e-01) (86, -3.27349752187728881836e-01) (87, 1.93198084831237792969e+00) (88, 2.13449549674987792969e+00) (89, 5.37199258804321289062e-01) (90, 3.08009088039398193359e-02) (91, -7.96234384179115295410e-02) (92, 2.23248529434204101562e+00) (93, -3.56914103031158447266e-01) (94, -6.49416983127593994141e-01) (95, 3.64681077003479003906e+00) (96, 2.37794065475463867188e+00) (97, -6.22690081596374511719e-01) (98, 2.00480389595031738281e+00) (99, 1.20307874679565429688e+00) (100, 4.41281259059906005859e-01) (101, -1.19381979107856750488e-01) (102, -9.79138016700744628906e-02) (103, 2.21581125259399414062e+00) (104, 1.09434652328491210938e+00) (0, -4.83092041015625000000e+01) (1, -3.45194458007812500000e+02) (2, -6.61480379104614257812e+00) (3, -1.94782257080078125000e+02) (4, 5.85702121257781982422e-01) (5, -1.50000000000000000000e+03) (6, 1.21861016750335693359e+00) (7, 1.18659389019012451172e+00) (8, 8.92416715621948242188e-01) (9, 1.33491790294647216797e+00) (10, -1.05160981416702270508e-01) (11, 2.83739519119262695312e+00) (12, 5.61915695667266845703e-01) (13, 1.55570840835571289062e+01) (14, -7.26289927959442138672e-01) (15, 2.85673618316650390625e-01) (16, 4.93128836154937744141e-01) (17, -1.57344400882720947266e-01) (18, 4.53654348850250244141e-01) (19, 1.48054510354995727539e-02) (20, 1.24001388549804687500e+01) (21, 9.76181716918945312500e+01) (22, 9.90499019622802734375e+00) (23, 2.24908256530761718750e+00) (24, -3.25156059265136718750e+01) (25, -1.50000000000000000000e+03) (26, -4.30444091558456420898e-01) (27, -5.33248424530029296875e-01) (28, -6.07260227203369140625e-01) (29, -1.05566298961639404297e+00) (30, 2.90227293968200683594e-01) (31, -6.78147912025451660156e-01) (32, 3.80246937274932861328e-01) (33, 3.47470188140869140625e+00) (34, -6.04372203350067138672e-01) (35, 6.01446113586425781250e+01) (36, 3.40108227729797363281e+00) (37, 1.50000000000000000000e+03) (38, 5.73288965225219726562e+00) (39, 1.36813163757324218750e+00) (40, 7.76898422241210937500e+01) (41, 4.77470779418945312500e+01) (42, 1.62839233875274658203e+00) (43, 1.00988149642944335938e+00) (44, 2.17782089233398437500e+02) (45, 2.81949698925018310547e-01) (46, 5.11273155212402343750e+01) (47, 1.49907629394531250000e+03) (48, 7.79517517089843750000e+01) (49, 1.18252799987792968750e+02) (50, 3.13780612945556640625e+01) (51, 1.22270402908325195312e+01) (52, 4.69764375686645507812e+00) (53, 1.51687884330749511719e+00) (54, 1.28784164428710937500e+02) (55, 1.01331903076171875000e+03) (56, -4.54259395599365234375e+00) (57, 1.06829404830932617188e+00) (58, -1.89264714717864990234e+00) (59, -1.19248590469360351562e+01) (60, -7.36064553260803222656e-01) (61, 5.71132469177246093750e+00) (62, 3.60518813133239746094e-01) (63, -3.04000973701477050781e+00) (64, 1.56888949871063232422e+00) (65, -8.09390187263488769531e-01) (66, 1.24141931533813476562e+00) (67, 1.67831242084503173828e+00) (68, 7.67993271350860595703e-01) (69, 1.52461719512939453125e+00) (70, 3.13022553920745849609e-01) (71, 5.76085984706878662109e-01) (72, -9.05905012041330337524e-03) (73, 2.12920141220092773438e+00) (74, 3.20749841630458831787e-02) (75, 6.39874398708343505859e-01) (76, -1.24068759381771087646e-01) (77, -7.03603148460388183594e-01) (78, 1.97284102439880371094e+00) (79, 2.41295528411865234375e+00) (80, 2.17346176505088806152e-01) (81, 1.29471695423126220703e+00) (82, 1.27890241146087646484e+00) (83, -2.96243171691894531250e+01) (84, 2.99999892711639404297e-01) (85, 1.63207447528839111328e+00) (86, 3.60077828168869018555e-01) (87, 1.29988074302673339844e+00) (88, 9.17461663484573364258e-02) (89, 1.02186143398284912109e-01) (90, 1.15876972675323486328e+00) (91, 1.13353979587554931641e+00) (92, 1.31176793575286865234e+00) (93, 1.35973715782165527344e+00) (94, 3.32951366901397705078e-01) (95, 1.56568479537963867188e+00) (96, 2.25990271568298339844e+00) (97, 1.19158935546875000000e+00) (98, 1.57987445592880249023e-01) (99, 1.34064292907714843750e+00) (100, 2.24596578627824783325e-02) (101, 1.82749211788177490234e+00) (102, 1.17955596923828125000e+02) (103, -6.16788101196289062500e+01) (104, 2.92797118425369262695e-01) (0, -1.76341474056243896484e+00) (1, 7.59232193231582641602e-02) (2, 1.42654526233673095703e+00) (3, -1.08987593650817871094e+00) (4, 1.37774550914764404297e+00) (5, 1.62073254585266113281e+00) (6, -1.98382627964019775391e+00) (7, -1.43210470676422119141e+00) (8, -5.33400774002075195312e-01) (9, 6.87377214431762695312e-01) (10, 2.37983793020248413086e-01) (11, -2.11028313636779785156e+00) (12, -3.47411251068115234375e+00) (13, 1.71991974115371704102e-01) (14, -3.86485838890075683594e+00) (15, 2.38333034515380859375e+00) (16, 1.25373616814613342285e-01) (17, -2.82083725929260253906e+00) (18, -3.21995109319686889648e-01) (19, 2.21654391288757324219e+00) (20, 4.63162136077880859375e+00) (21, -1.74266374111175537109e+00) (22, -1.33483543992042541504e-01) (23, 1.30135440826416015625e+00) (24, 3.79535228013992309570e-01) (25, -3.82995510101318359375e+00) (26, -1.39669108390808105469e+00) (27, -1.68636810779571533203e+00) (28, 2.70867991447448730469e+00) (29, 4.78344351053237915039e-01) (30, -2.14919939637184143066e-01) (31, -2.63347244262695312500e+00) (32, 1.61691391468048095703e+00) (33, 4.58734720945358276367e-01) (34, -4.05491018295288085938e+00) (35, 1.46707451343536376953e+00) (36, -1.87938666343688964844e+00) (37, -3.70630800724029541016e-01) (38, 5.83095908164978027344e-01) (39, -2.11931347846984863281e+00) (40, 5.72722852230072021484e-01) (41, 1.83108747005462646484e-01) (42, -7.47905135154724121094e-01) (43, 5.58448612689971923828e-01) (44, 6.68400168418884277344e-01) (45, -3.60326027870178222656e+00) (46, 8.19153606891632080078e-01) (47, 5.73498964309692382812e-01) (48, 3.93619179725646972656e+00) (49, 1.38064432144165039062e+00) (50, -4.68445748090744018555e-01) (51, 4.94738340377807617188e+00) (52, -1.51540672779083251953e+00) (53, -1.74436259269714355469e+00) (54, -3.66172164678573608398e-01) (55, -4.84971702098846435547e-02) (56, 7.20117866992950439453e-01) (57, 1.00966703891754150391e+00) (58, 2.55813956260681152344e-01) (59, -2.78395485877990722656e+00) (60, -1.19132840633392333984e+00) (61, -2.96947509050369262695e-01) (62, -1.27309203147888183594e+00) (63, 1.24898064136505126953e+00) (64, 1.04929411411285400391e+00) (65, -6.64925217628479003906e-01) (66, 3.34891891479492187500e+00) (67, -8.22848618030548095703e-01) (68, 1.60210895538330078125e+00) (69, -1.18086540699005126953e+00) (70, 8.02006050944328308105e-02) (71, -7.13128089904785156250e-01) (72, -5.62084555625915527344e-01) (73, 9.24320518970489501953e-02) (74, -1.42124503850936889648e-01) (75, -7.33339011669158935547e-01) (76, 1.23327720165252685547e+00) (77, 2.06836745142936706543e-01) (78, -1.48162877559661865234e+00) (79, -5.55694460868835449219e-01) (80, 2.42333602905273437500e+00) (81, -4.78794366121292114258e-01) (82, 3.13249945640563964844e-01) (83, 1.28959822654724121094e+00) (84, 2.43219405412673950195e-01) (85, 1.28641855716705322266e+00) (86, -6.53100192546844482422e-01) (87, -6.62450253963470458984e-01) (88, 9.18242335319519042969e-01) (89, 1.93746316432952880859e+00) (90, 9.29424688220024108887e-02) (91, -7.51119077205657958984e-01) (92, 8.56990396976470947266e-01) (93, -1.25507211685180664062e+00) (94, -1.43672116100788116455e-02) (95, -1.51820272207260131836e-01) (96, -2.05853953957557678223e-01) (97, -6.78061693906784057617e-02) (98, 3.85055989027023315430e-01) (99, -1.06678858399391174316e-01) (100, -3.32867428660392761230e-02) (101, 5.90305626392364501953e-02) (102, 2.33430719375610351562e+00) (103, 2.21389457583427429199e-01) (104, 1.89789521694183349609e+00) (0, -8.45280838012695312500e+01) (1, -8.81733703613281250000e+00) (2, -5.63056831359863281250e+01) (3, -1.03960618972778320312e+01) (4, -3.45519870519638061523e-01) (5, -1.98241634368896484375e+01) (6, 2.32649922370910644531e-01) (7, 1.05321955680847167969e+00) (8, 1.61037445068359375000e-01) (9, 2.50052392482757568359e-01) (10, -1.76823481917381286621e-01) (11, 1.13876304626464843750e+01) (12, 1.73237636685371398926e-01) (13, 4.26528091430664062500e+01) (14, -3.20799201726913452148e-02) (15, -1.40174224972724914551e-01) (16, 6.84008896350860595703e-01) (17, 1.71717631816864013672e+00) (18, 1.37995302677154541016e+00) (19, 1.61634302139282226562e+00) (20, 1.13763952255249023438e+01) (21, 1.22627687454223632812e+01) (22, 6.55961456298828125000e+01) (23, 1.37808914184570312500e+01) (24, -4.96348476409912109375e+00) (25, -1.34399536132812500000e+02) (26, 6.96219801902770996094e-01) (27, 1.06797128915786743164e-01) (28, 4.19371217489242553711e-01) (29, -2.62399387359619140625e+01) (30, 1.87598073482513427734e+00) (31, -1.68441440910100936890e-02) (32, -1.54211974143981933594e+00) (33, 3.61040687561035156250e+00) (34, -9.62896823883056640625e-01) (35, 1.49252138137817382812e+01) (36, -2.06864428520202636719e+00) (37, 4.23774909973144531250e+01) (38, 2.38102102279663085938e+00) (39, 1.45837426185607910156e+00) (40, 4.90877723693847656250e+01) (41, -6.43468570709228515625e+00) (42, 2.07237005233764648438e+00) (43, 2.13073801994323730469e+00) (44, 7.98938827514648437500e+01) (45, 2.29729652404785156250e-01) (46, 4.02332000732421875000e+01) (47, 9.78372344970703125000e+01) (48, 3.47787628173828125000e+01) (49, 5.65770034790039062500e+01) (50, 4.78796615600585937500e+01) (51, 1.07958173751831054688e+01) (52, 5.01677169799804687500e+01) (53, 9.37959766387939453125e+00) (54, 1.15696464538574218750e+02) (55, 2.86134529113769531250e+01) (56, 7.97445595264434814453e-01) (57, 3.68244194984436035156e+00) (58, 1.57412648200988769531e+00) (59, -2.37810516357421875000e+01) (60, -2.65111792832612991333e-02) (61, 3.45865592956542968750e+01) (62, 1.86671900749206542969e+00) (63, -1.39978039264678955078e+00) (64, 1.89805841445922851562e+00) (65, 3.54744978249073028564e-02) (66, 1.82954847812652587891e+00) (67, 7.74291276931762695312e-01) (68, 1.93334603309631347656e+00) (69, 1.04263448715209960938e+01) (70, -1.17555551230907440186e-01) (71, 2.13161849975585937500e+00) (72, -1.92973768711090087891e+00) (73, 2.10053706169128417969e+00) (74, -1.04439764022827148438e+01) (75, -7.49752819538116455078e-02) (76, -1.40778899192810058594e+00) (77, -2.48170852661132812500e+00) (78, 2.62763333320617675781e+00) (79, -7.11113736033439636230e-02) (80, -6.11074388027191162109e-01) (81, 1.96558463573455810547e+00) (82, 1.25756442546844482422e+00) (83, -1.12828531265258789062e+01) (84, 8.23539495468139648438e-02) (85, 7.85435914993286132812e-01) (86, -4.56884130835533142090e-02) (87, 4.86498504877090454102e-01) (88, -1.06279010772705078125e+01) (89, -7.62495756149291992188e+00) (90, 1.25412344932556152344e+00) (91, 3.31098765134811401367e-01) (92, 1.63362383842468261719e+00) (93, 4.86100375652313232422e-01) (94, -6.71166554093360900879e-02) (95, 1.76282417774200439453e+00) (96, 1.94283163547515869141e+00) (97, 1.13800489902496337891e+00) (98, -3.97700875997543334961e-01) (99, 1.76565480232238769531e+00) (100, -2.47707277536392211914e-01) (101, 7.49008476734161376953e-01) (102, -8.67159423828125000000e+01) (103, 2.81895721435546875000e+02) (104, 1.70656934380531311035e-01) (0, -6.93683465942740440369e-03) (1, -4.60378944873809814453e-01) (2, 7.47161209583282470703e-01) (3, -3.53393793106079101562e-01) (4, 1.32040309906005859375e+00) (5, -2.21225285530090332031e+00) (6, 1.08312487602233886719e+00) (7, -1.54309296607971191406e+00) (8, -6.23396921157836914062e+00) (9, -1.05177044868469238281e-01) (10, 6.07914566993713378906e-01) (11, 9.57961082458496093750e-01) (12, -3.35622042417526245117e-01) (13, -4.80114650726318359375e+00) (14, 5.23318529129028320312e-01) (15, 2.35253274440765380859e-01) (16, 6.69972598552703857422e-01) (17, 5.97470462322235107422e-01) (18, 7.53650069236755371094e-01) (19, 1.36055862903594970703e+00) (20, 6.52080833911895751953e-01) (21, -6.14007413387298583984e-01) (22, 5.59506034851074218750e+00) (23, 5.26526153087615966797e-01) (24, 8.07328462600708007812e-01) (25, -4.13730144500732421875e+00) (26, -3.35608005523681640625e-01) (27, -4.01076197624206542969e-01) (28, 5.90275704860687255859e-01) (29, 1.70953094959259033203e+00) (30, 6.71106636524200439453e-01) (31, -7.34484016895294189453e-01) (32, -2.99102830886840820312e+00) (33, 2.05627369880676269531e+00) (34, 2.10970735549926757812e+00) (35, -1.43959057331085205078e+00) (36, 1.23906888067722320557e-01) (37, -1.23260721564292907715e-01) (38, 1.36641335487365722656e+00) (39, -1.30865246057510375977e-01) (40, -8.70269596576690673828e-01) (41, 9.83156323432922363281e-01) (42, 8.46581816673278808594e-01) (43, 1.35004961490631103516e+00) (44, 8.00452709197998046875e-01) (45, -3.88450324535369873047e-01) (46, 2.77298903465270996094e+00) (47, 7.76766896247863769531e-01) (48, 4.44504499435424804688e-01) (49, 1.07683968544006347656e+00) (50, 3.25184702873229980469e+00) (51, 1.34714341163635253906e+00) (52, 1.20581758022308349609e+00) (53, 1.33004963397979736328e+00) (54, 1.60611021518707275391e+00) (55, 5.13860034942626953125e+00) (56, 8.40665578842163085938e-01) (57, -7.61821603775024414062e+00) (58, -5.18413496017456054688e+00) (59, 1.73099055886268615723e-01) (60, -5.26028156280517578125e-01) (61, 4.21605491638183593750e+00) (62, -4.23859894275665283203e-01) (63, -3.87373864650726318359e-01) (64, 1.06848907470703125000e+01) (65, -4.95168179273605346680e-01) (66, -5.30668210983276367188e+00) (67, 4.50268357992172241211e-01) (68, 1.04460172653198242188e+01) (69, 4.26149082183837890625e+00) (70, 6.22600495815277099609e-01) (71, 4.64130818843841552734e-01) (72, -5.47902643680572509766e-01) (73, -3.91879916191101074219e+00) (74, -1.20107483863830566406e+00) (75, -1.52887201309204101562e+00) (76, -1.48587644100189208984e+00) (77, -6.69349730014801025391e-02) (78, 9.94057893753051757812e-01) (79, -2.63059258460998535156e+00) (80, 7.06772565841674804688e+00) (81, 4.38820552825927734375e+00) (82, -4.05294370651245117188e+00) (83, 5.09896135330200195312e+00) (84, -3.20587897300720214844e+00) (85, -4.92764377593994140625e+00) (86, 2.97767370939254760742e-01) (87, -5.37563562393188476562e-02) (88, 2.15336370468139648438e+00) (89, 1.00876164436340332031e+00) (90, 2.56159687042236328125e+00) (91, 2.06360101699829101562e-01) (92, 1.68063712120056152344e+00) (93, -6.43693864345550537109e-01) (94, -6.90995573997497558594e-01) (95, -4.52528667449951171875e+00) (96, 8.24398279190063476562e-01) (97, 1.99283194541931152344e+00) (98, -1.68611395359039306641e+00) (99, -6.77714288234710693359e-01) (100, -4.88153457641601562500e-01) (101, -5.29052543640136718750e+00) (102, -7.46693015098571777344e-01) (103, 3.01324319839477539062e+00) (104, 2.33753204345703125000e+00) (0, 1.50000000000000000000e+03) (1, 1.50000000000000000000e+03) (2, 1.50000000000000000000e+03) (3, 1.50000000000000000000e+03) (4, 1.50000000000000000000e+03) (5, 1.50000000000000000000e+03) (6, 1.47069738769531250000e+03) (7, 1.50000000000000000000e+03) (8, 1.50000000000000000000e+03) (9, 1.50000000000000000000e+03) (10, 1.50000000000000000000e+03) (11, 1.50000000000000000000e+03) (12, 1.50000000000000000000e+03) (13, 1.50000000000000000000e+03) (14, 1.50000000000000000000e+03) (15, 1.50000000000000000000e+03) (16, 2.28917217254638671875e+00) (17, 1.50000000000000000000e+03) (18, 1.50000000000000000000e+03) (19, 2.98184967041015625000e+00) (20, -1.49947924804687500000e+03) (21, 1.50000000000000000000e+03) (22, 1.50000000000000000000e+03) (23, 1.55437942594289779663e-02) (24, 3.04893737792968750000e+02) (25, 1.50000000000000000000e+03) (26, 2.12686014175415039062e+00) (27, 1.50000000000000000000e+03) (28, 1.50000000000000000000e+03) (29, 1.50000000000000000000e+03) (30, -2.11645221710205078125e+00) (31, 1.50000000000000000000e+03) (32, 1.50000000000000000000e+03) (33, 1.50000000000000000000e+03) (34, -1.48332629394531250000e+03) (35, 1.50000000000000000000e+03) (36, 1.50000000000000000000e+03) (37, -1.49999243164062500000e+03) (38, -6.27295076847076416016e-01) (39, 1.73793053627014160156e+00) (40, -1.50000000000000000000e+03) (41, -1.50000000000000000000e+03) (42, 2.75275135040283203125e+00) (43, 8.49826753139495849609e-01) (44, -2.09990572929382324219e+00) (45, 2.28614711761474609375e+00) (46, -1.50000000000000000000e+03) (47, 1.50000000000000000000e+03) (48, 1.50000000000000000000e+03) (49, -1.50989603996276855469e+00) (50, 4.92909997701644897461e-01) (51, 1.07842314243316650391e+00) (52, 3.66189718246459960938e-01) (53, 1.86038780212402343750e+00) (54, -2.07782506942749023438e+00) (55, -1.50000000000000000000e+03) (56, 1.50000000000000000000e+03) (57, -1.50000000000000000000e+03) (58, 2.01341199874877929688e+00) (59, -9.01549743652343750000e+02) (60, 3.94976639747619628906e+00) (61, -1.50000000000000000000e+03) (62, 2.92830300331115722656e+00) (63, 1.50000000000000000000e+03) (64, 3.09626793861389160156e+00) (65, 1.50000000000000000000e+03) (66, 5.71581125259399414062e+00) (67, 2.16249012947082519531e+00) (68, 5.94524612426757812500e+01) (69, 2.19360756874084472656e+00) (70, 1.50000000000000000000e+03) (71, 2.83549761772155761719e+00) (72, 1.50000000000000000000e+03) (73, 4.96642541885375976562e+00) (74, 1.50000000000000000000e+03) (75, 1.50000000000000000000e+03) (76, 1.50000000000000000000e+03) (77, 1.50000000000000000000e+03) (78, 3.03575897216796875000e+00) (79, 1.40261303710937500000e+03) (80, 1.50000000000000000000e+03) (81, 3.01669859886169433594e+00) (82, 2.97941207885742187500e+00) (83, 1.50000000000000000000e+03) (84, 3.21970105171203613281e+00) (85, 2.88929343223571777344e+00) (86, 3.39638423919677734375e+00) (87, 2.95018386840820312500e+00) (88, 2.34014492034912109375e+01) (89, 1.50000000000000000000e+03) (90, 2.99893856048583984375e+00) (91, 3.11026000976562500000e+00) (92, 3.10110521316528320312e+00) (93, 3.00332117080688476562e+00) (94, 3.41346001625061035156e+00) (95, 2.99288725852966308594e+00) (96, 2.86058688163757324219e+00) (97, 3.13312125205993652344e+00) (98, 3.48737621307373046875e+00) (99, 3.01664209365844726562e+00) (100, 1.50000000000000000000e+03) (101, 2.95157337188720703125e+00) (102, 1.50000000000000000000e+03) (103, -1.50000000000000000000e+03) (104, -9.29945886135101318359e-01) (0, 1.50000000000000000000e+03) (1, 1.50000000000000000000e+03) (2, 1.50000000000000000000e+03) (3, 1.50000000000000000000e+03) (4, 1.50000000000000000000e+03) (5, 1.50000000000000000000e+03) (6, 1.47069738769531250000e+03) (7, 1.50000000000000000000e+03) (8, 1.50000000000000000000e+03) (9, 1.50000000000000000000e+03) (10, 1.50000000000000000000e+03) (11, 1.50000000000000000000e+03) (12, 1.50000000000000000000e+03) (13, 1.50000000000000000000e+03) (14, 1.50000000000000000000e+03) (15, 1.50000000000000000000e+03) (16, 2.34051179885864257812e+00) (17, 1.50000000000000000000e+03) (18, 1.50000000000000000000e+03) (19, 2.31158542633056640625e+00) (20, -1.49947924804687500000e+03) (21, 1.50000000000000000000e+03) (22, 1.50000000000000000000e+03) (23, 7.61649966239929199219e-01) (24, 3.05447601318359375000e+02) (25, 1.50000000000000000000e+03) (26, 1.32930433750152587891e+00) (27, 1.50000000000000000000e+03) (28, 1.50000000000000000000e+03) (29, 1.50000000000000000000e+03) (30, -1.71049368381500244141e+00) (31, 1.50000000000000000000e+03) (32, 1.50000000000000000000e+03) (33, 1.50000000000000000000e+03) (34, -1.48332629394531250000e+03) (35, 1.50000000000000000000e+03) (36, 1.50000000000000000000e+03) (37, -1.90673385620117187500e+02) (38, -1.85896411538124084473e-01) (39, 2.32723331451416015625e+00) (40, -1.50000000000000000000e+03) (41, -1.50000000000000000000e+03) (42, 2.23750495910644531250e+00) (43, 7.16249465942382812500e-01) (44, -1.61875653266906738281e+00) (45, 2.71731042861938476562e+00) (46, -1.50000000000000000000e+03) (47, 1.50000000000000000000e+03) (48, 1.50000000000000000000e+03) (49, -4.12028998136520385742e-01) (50, -8.30624699592590332031e-02) (51, 4.20569449663162231445e-01) (52, -6.68076157569885253906e-01) (53, 1.15384948253631591797e+00) (54, -4.20226955413818359375e+00) (55, -1.50000000000000000000e+03) (56, 1.50000000000000000000e+03) (57, -1.50000000000000000000e+03) (58, 1.38714289665222167969e+00) (59, -9.01549743652343750000e+02) (60, 2.90088987350463867188e+00) (61, -1.50000000000000000000e+03) (62, 2.20839262008666992188e+00) (63, 1.50000000000000000000e+03) (64, 2.32607841491699218750e+00) (65, 1.50000000000000000000e+03) (66, 3.95081686973571777344e+00) (67, 1.42196226119995117188e+00) (68, 1.85260713100433349609e+00) (69, 1.48258459568023681641e+00) (70, 1.50000000000000000000e+03) (71, 2.32396388053894042969e+00) (72, 1.50000000000000000000e+03) (73, 1.39567112922668457031e+00) (74, 1.50000000000000000000e+03) (75, 1.50000000000000000000e+03) (76, 1.50000000000000000000e+03) (77, 1.50000000000000000000e+03) (78, 2.42367291450500488281e+00) (79, 1.40189416503906250000e+03) (80, 1.16615913391113281250e+02) (81, 2.40016722679138183594e+00) (82, 2.33005738258361816406e+00) (83, 1.32475927734375000000e+03) (84, 2.56952047348022460938e+00) (85, 1.56775581836700439453e+00) (86, 2.75296068191528320312e+00) (87, 2.28491353988647460938e+00) (88, 8.36718750000000000000e+00) (89, 8.05936660766601562500e+01) (90, 2.37478280067443847656e+00) (91, 2.96303534507751464844e+00) (92, 2.37759256362915039062e+00) (93, 2.46931505203247070312e+00) (94, 2.68898630142211914062e+00) (95, 2.26419615745544433594e+00) (96, 2.34240627288818359375e+00) (97, 2.49218010902404785156e+00) (98, 2.85268378257751464844e+00) (99, 2.32389497756958007812e+00) (100, 2.61031684875488281250e+01) (101, 2.43030929565429687500e+00) (102, 1.50000000000000000000e+03) (103, -1.50000000000000000000e+03) (104, -4.55815792083740234375e-01) (0, 2.66338276863098144531e+00) (1, 1.01429991424083709717e-01) (2, 1.19840955734252929688e+00) (3, 9.52255129814147949219e-01) (4, 9.87560391426086425781e-01) (5, -5.10121774673461914062e+00) (6, 1.64864587783813476562e+00) (7, -3.85170698165893554688e-01) (8, -1.60672295093536376953e+00) (9, -2.22745984792709350586e-02) (10, 4.34453070163726806641e-01) (11, 2.55082678794860839844e+00) (12, -7.89242386817932128906e-01) (13, 2.69966244697570800781e+00) (14, 6.34714961051940917969e-01) (15, 8.01531672477722167969e-01) (16, -2.22802013158798217773e-02) (17, -4.28592622280120849609e-01) (18, -2.10397645831108093262e-01) (19, -3.30770015716552734375e-01) (20, 6.54542744159698486328e-01) (21, -7.43426680564880371094e-01) (22, -6.37313604354858398438e-01) (23, 7.65455007553100585938e-01) (24, -4.54540908336639404297e-01) (25, -8.26265931129455566406e-01) (26, -1.21628630161285400391e+00) (27, -2.20282822847366333008e-01) (28, 2.46197795867919921875e+00) (29, 5.37512362003326416016e-01) (30, 3.28098177909851074219e-01) (31, -5.58796450495719909668e-02) (32, -5.02832114696502685547e-01) (33, 1.69884592294692993164e-01) (34, -3.50832533836364746094e+00) (35, -1.51489448547363281250e+00) (36, -1.26136970520019531250e+00) (37, -6.05098068714141845703e-01) (38, -3.73724460601806640625e-01) (39, -6.27974689006805419922e-01) (40, -9.13434863090515136719e-01) (41, 1.91201949119567871094e+00) (42, 9.93245959281921386719e-01) (43, 2.35462474822998046875e+00) (44, -1.36702470481395721436e-02) (45, -4.39842253923416137695e-01) (46, 2.95130515098571777344e+00) (47, -1.18215358257293701172e+00) (48, -1.75973445177078247070e-01) (49, -4.86927270889282226562e-01) (50, -4.65201064944267272949e-02) (51, 7.97533765435218811035e-02) (52, 2.52291011810302734375e+00) (53, 3.73360425233840942383e-01) (54, 1.04395401477813720703e+00) (55, 1.58203864097595214844e+00) (56, -1.18528187274932861328e-01) (57, 3.45804452896118164062e+00) (58, -2.26313352584838867188e+00) (59, -2.10415244102478027344e+00) (60, -1.71626448631286621094e-01) (61, -2.07099184393882751465e-01) (62, 1.67718112468719482422e+00) (63, -6.59274458885192871094e-01) (64, 2.84583353996276855469e+00) (65, -5.26153802871704101562e-01) (66, 6.45043420791625976562e+00) (67, -2.24640727043151855469e+00) (68, -2.56690621376037597656e+00) (69, -1.10929799079895019531e+00) (70, 7.17613399028778076172e-01) (71, -2.63037085533142089844e-01) (72, 1.79385077953338623047e+00) (73, -5.42413853108882904053e-02) (74, -6.53748035430908203125e+00) (75, 3.76021742820739746094e+00) (76, -9.34236431121826171875e+00) (77, 7.99619555473327636719e-01) (78, 1.30026650428771972656e+00) (79, 1.26615703105926513672e+00) (80, 2.84069943428039550781e+00) (81, 1.79461705684661865234e+00) (82, -1.59099626541137695312e+00) (83, 7.93853807449340820312e+00) (84, 2.21854615211486816406e+00) (85, -5.37433385848999023438e-01) (86, -5.64383924007415771484e-01) (87, -1.28643167018890380859e+00) (88, -2.25607141852378845215e-01) (89, -1.24265706539154052734e+00) (90, 1.21505963802337646484e+00) (91, -1.48248720169067382812e+00) (92, 1.18379342555999755859e+00) (93, 3.53856861591339111328e-01) (94, -1.73464739322662353516e+00) (95, -8.64996850490570068359e-01) (96, 1.09836959838867187500e+00) (97, -3.64729309082031250000e+00) (98, 2.00977993011474609375e+00) (99, -2.56155520677566528320e-01) (100, -5.97624719142913818359e-01) (101, 7.56968927383422851562e+00) (102, -9.14660990238189697266e-01) (103, 2.90410232543945312500e+00) (104, 1.94793701171875000000e+00) (0, -1.35211915969848632812e+01) (1, 6.59176921844482421875e+00) (2, 7.06444799900054931641e-01) (3, -7.78837919235229492188e+00) (4, -2.31662392616271972656e+00) (5, -2.50805950164794921875e+00) (6, 3.38034605979919433594e+00) (7, 3.17983841896057128906e+00) (8, -2.51026496887207031250e+01) (9, 8.24208080768585205078e-01) (10, 2.76904851198196411133e-01) (11, 7.65302896499633789062e-01) (12, 7.87928819656372070312e-01) (13, 2.95017313957214355469e+00) (14, -7.60693609714508056641e-01) (15, -8.97687315940856933594e-01) (16, -6.71394646167755126953e-01) (17, 5.58766841888427734375e-01) (18, 1.06119668483734130859e+00) (19, 7.62811541557312011719e-01) (20, 3.09575366973876953125e+00) (21, -1.06684322357177734375e+01) (22, -5.77726699411869049072e-02) (23, 1.77816748619079589844e+00) (24, -7.13882255554199218750e+00) (25, -1.08074474334716796875e+01) (26, -9.72941160202026367188e-01) (27, -1.92465698719024658203e+00) (28, -9.00436937808990478516e-02) (29, -6.94754421710968017578e-01) (30, 1.48196029663085937500e+00) (31, 6.78424119949340820312e-01) (32, -2.91532218456268310547e-01) (33, 1.56664943695068359375e+00) (34, 1.97364640235900878906e+00) (35, -3.05986952781677246094e+00) (36, -2.44169673919677734375e+01) (37, 2.04503841400146484375e+01) (38, 1.31941020488739013672e+00) (39, 1.40838086605072021484e+00) (40, -2.13429555296897888184e-02) (41, 2.05682353973388671875e+01) (42, 1.00523602962493896484e+00) (43, 5.96732914447784423828e-01) (44, 5.84771490097045898438e+00) (45, 9.95317339897155761719e-01) (46, 3.85775566101074218750e-01) (47, 7.20172977447509765625e+00) (48, -2.90203168988227844238e-02) (49, 2.99203848838806152344e+00) (50, 2.15169811248779296875e+00) (51, 1.05174469947814941406e+00) (52, 1.25701403617858886719e+00) (53, 8.29411506652832031250e-01) (54, 1.34568035602569580078e+00) (55, 4.22192649841308593750e+01) (56, -1.05794215202331542969e+00) (57, -1.67588436603546142578e+00) (58, -2.15175294876098632812e+00) (59, -5.01969289779663085938e+00) (60, -1.58211255073547363281e+00) (61, -8.18957760930061340332e-02) (62, 8.48820209503173828125e-01) (63, -1.24224891662597656250e+01) (64, 5.93810260295867919922e-01) (65, -1.26416909694671630859e+00) (66, 5.37520289421081542969e-01) (67, -4.24697637557983398438e-01) (68, 3.77878785133361816406e-01) (69, 9.01477992534637451172e-01) (70, -1.41387462615966796875e+00) (71, 7.77048571035265922546e-03) (72, -2.68462324142456054688e+00) (73, 2.66781473159790039062e+00) (74, -6.92579698562622070312e+00) (75, -1.14621174335479736328e+00) (76, -3.96475768089294433594e+00) (77, -4.52537107467651367188e+00) (78, 8.62021923065185546875e-01) (79, -1.12147438526153564453e+00) (80, -4.25296926498413085938e+00) (81, 7.63417065143585205078e-01) (82, -1.38165676593780517578e+00) (83, -4.43639278411865234375e+00) (84, -1.14761519432067871094e+00) (85, 6.79855227470397949219e-01) (86, -1.15771234035491943359e+00) (87, -9.01055634021759033203e-01) (88, -3.32041549682617187500e+00) (89, -1.48210830688476562500e+01) (90, 4.31573808193206787109e-01) (91, 3.32831799983978271484e-01) (92, 5.28360724449157714844e-01) (93, 5.45896112918853759766e-01) (94, -1.25124740600585937500e+00) (95, 5.27511715888977050781e-01) (96, 9.94012832641601562500e-01) (97, -1.21730768680572509766e+00) (98, -1.14622354507446289062e+00) (99, -5.76172876358032226562e+00) (100, -7.05801725387573242188e+00) (101, 1.21107375621795654297e+00) (102, 4.58345127105712890625e+00) (103, -3.66166353225708007812e-01) (104, 2.95860886573791503906e+00) (0, 3.03859949111938476562e+00) (1, -1.44654250144958496094e+00) (2, 3.01087784767150878906e+00) (3, -5.07461309432983398438e-01) (4, 1.06499537825584411621e-01) (5, -8.71308326721191406250e-01) (6, 5.02941668033599853516e-01) (7, 5.12235701084136962891e-01) (8, -8.53460729122161865234e-01) (9, 1.42636477947235107422e+00) (10, -9.05686989426612854004e-02) (11, 1.74577844142913818359e+00) (12, 2.50356793403625488281e-02) (13, -3.26018977165222167969e+00) (14, 1.55516898632049560547e+00) (15, -9.98191982507705688477e-02) (16, 1.71174931526184082031e+00) (17, -7.83134043216705322266e-01) (18, -9.71827924251556396484e-01) (19, -1.00406467914581298828e+00) (20, -1.22096455097198486328e+00) (21, -8.07631015777587890625e-01) (22, 4.00078862905502319336e-01) (23, 1.09723961353302001953e+00) (24, -1.82487165927886962891e+00) (25, -3.33024889230728149414e-01) (26, -8.15261248499155044556e-03) (27, 6.51286065578460693359e-01) (28, -1.78291480988264083862e-02) (29, 1.27902591228485107422e+00) (30, -3.56876254081726074219e-01) (31, -1.04660785198211669922e+00) (32, -4.02369648218154907227e-01) (33, 2.06160354614257812500e+00) (34, 3.03657263517379760742e-01) (35, -5.00530302524566650391e-01) (36, 1.29472947120666503906e+00) (37, 3.37625801563262939453e-01) (38, 1.61231100559234619141e+00) (39, 1.15632247924804687500e+00) (40, 2.44637989997863769531e+00) (41, -3.80980110168457031250e+00) (42, 8.84333550930023193359e-01) (43, 2.24794983863830566406e+00) (44, 1.74609851837158203125e+00) (45, 1.81240653991699218750e+00) (46, -2.63315129280090332031e+00) (47, -4.12604063749313354492e-01) (48, -1.35963827371597290039e-01) (49, 4.62717652320861816406e-01) (50, -1.61505073308944702148e-01) (51, -4.59474235773086547852e-01) (52, 3.25235915184020996094e+00) (53, -8.71464669704437255859e-01) (54, 3.88522791862487792969e+00) (55, -2.65806937217712402344e+00) (56, 2.46049737930297851562e+00) (57, 2.62307941913604736328e-01) (58, -5.75931727886199951172e-01) (59, 2.39301276206970214844e+00) (60, 1.08898794651031494141e+00) (61, -1.48995339870452880859e-01) (62, -5.48852384090423583984e-01) (63, -9.21350359916687011719e-01) (64, -4.75369405746459960938e+00) (65, -8.63163292407989501953e-01) (66, 8.89649748802185058594e-01) (67, -5.88829278945922851562e-01) (68, -1.28955554962158203125e+00) (69, -2.25910615921020507812e+00) (70, -3.15794557332992553711e-01) (71, -1.95234525203704833984e+00) (72, 7.68110394477844238281e-01) (73, -2.24392533302307128906e+00) (74, -6.65673792362213134766e-01) (75, -1.51764249801635742188e+00) (76, 7.31393194198608398438e+00) (77, -8.93689870834350585938e-01) (78, 7.63460040092468261719e-01) (79, -1.60158824920654296875e+00) (80, 2.34234794974327087402e-01) (81, -2.46971583366394042969e+00) (82, 1.61299705505371093750e-02) (83, 2.26745414733886718750e+00) (84, -4.38343191146850585938e+00) (85, -3.58102113008499145508e-01) (86, -6.43913149833679199219e-01) (87, -5.39972543716430664062e-01) (88, -8.83424103260040283203e-01) (89, 1.21461009979248046875e+00) (90, -3.04768443107604980469e+00) (91, -2.35402536392211914062e+00) (92, -3.91403287649154663086e-01) (93, 8.58911991119384765625e-01) (94, -2.23394647240638732910e-01) (95, -3.05376911163330078125e+00) (96, 2.20817685127258300781e+00) (97, 4.94048655033111572266e-01) (98, 2.83442139625549316406e+00) (99, -9.88812506198883056641e-01) (100, -7.34975516796112060547e-01) (101, 5.82570731639862060547e-01) (102, -8.26964199542999267578e-01) (103, 3.09486436843872070312e+00) (104, 2.46360135078430175781e+00) (0, -1.50000000000000000000e+03) (1, -1.50000000000000000000e+03) (2, -1.50000000000000000000e+03) (3, -1.50000000000000000000e+03) (4, -2.86733154296875000000e+02) (5, -1.50000000000000000000e+03) (6, -1.45911169433593750000e+03) (7, -1.50000000000000000000e+03) (8, -1.50000000000000000000e+03) (9, -1.50000000000000000000e+03) (10, -1.50000000000000000000e+03) (11, -1.50000000000000000000e+03) (12, -1.50000000000000000000e+03) (13, -1.50000000000000000000e+03) (14, -1.50000000000000000000e+03) (15, -1.50000000000000000000e+03) (16, -5.31973600387573242188e-01) (17, -1.50000000000000000000e+03) (18, -1.50000000000000000000e+03) (19, -9.51384425163269042969e-01) (20, 1.49947961425781250000e+03) (21, -1.50000000000000000000e+03) (22, -1.50000000000000000000e+03) (23, 2.59184479713439941406e+00) (24, -2.16761032104492187500e+02) (25, -1.50000000000000000000e+03) (26, 3.96831817924976348877e-02) (27, -1.50000000000000000000e+03) (28, -1.50000000000000000000e+03) (29, -1.50000000000000000000e+03) (30, 4.33709573745727539062e+00) (31, -1.50000000000000000000e+03) (32, -1.50000000000000000000e+03) (33, -1.50000000000000000000e+03) (34, 1.48794470214843750000e+03) (35, -1.50000000000000000000e+03) (36, -1.50000000000000000000e+03) (37, 1.10048133850097656250e+02) (38, 2.52362561225891113281e+00) (39, 1.78643763065338134766e-01) (40, 1.50000000000000000000e+03) (41, 1.50000000000000000000e+03) (42, -6.73730552196502685547e-01) (43, 7.17124998569488525391e-01) (44, 4.09164762496948242188e+00) (45, -3.97890001535415649414e-01) (46, 1.50000000000000000000e+03) (47, -1.50000000000000000000e+03) (48, -1.50000000000000000000e+03) (49, 1.73217220306396484375e+01) (50, 2.06389570236206054688e+00) (51, 8.90967786312103271484e-01) (52, 7.38631439208984375000e+00) (53, 5.50449252128601074219e-01) (54, 4.18241548538208007812e+00) (55, 1.50000000000000000000e+03) (56, -1.50000000000000000000e+03) (57, 1.50000000000000000000e+03) (58, -7.25025907158851623535e-02) (59, 1.26188244628906250000e+03) (60, -1.38723051548004150391e+00) (61, 1.50000000000000000000e+03) (62, -8.93291950225830078125e-01) (63, -1.50000000000000000000e+03) (64, -8.34520876407623291016e-01) (65, -1.50000000000000000000e+03) (66, -4.46657419204711914062e+00) (67, 5.52144320681691169739e-03) (68, -2.50990897417068481445e-01) (69, -2.51861721277236938477e-01) (70, -1.50000000000000000000e+03) (71, -7.87571907043457031250e-01) (72, -1.45552520751953125000e+02) (73, 1.61494040489196777344e+00) (74, -1.50000000000000000000e+03) (75, -1.21975634765625000000e+03) (76, -1.50000000000000000000e+03) (77, -1.50000000000000000000e+03) (78, -1.15497505664825439453e+00) (79, -1.00506506347656250000e+03) (80, -9.95577468872070312500e+01) (81, -7.21246242523193359375e-01) (82, -6.85327947139739990234e-01) (83, -1.45110913085937500000e+03) (84, -9.92817163467407226562e-01) (85, -4.25370514392852783203e-01) (86, -1.16780614852905273438e+00) (87, -7.24287927150726318359e-01) (88, -1.34345078468322753906e+00) (89, -3.68443799018859863281e+00) (90, -1.00915384292602539062e+00) (91, -1.38380849361419677734e+00) (92, -8.70146334171295166016e-01) (93, -8.49216401576995849609e-01) (94, -1.27288079261779785156e+00) (95, -8.39697003364562988281e-01) (96, -6.71387612819671630859e-01) (97, -9.34885621070861816406e-01) (98, -1.28542089462280273438e+00) (99, -9.61231291294097900391e-01) (100, -1.70395898818969726562e+00) (101, -9.55852687358856201172e-01) (102, -1.50000000000000000000e+03) (103, 1.50000000000000000000e+03) (104, 2.90815138816833496094e+00) (0, -3.55720977783203125000e+01) (1, 1.13667950034141540527e-01) (2, -1.30358397960662841797e+00) (3, -4.87830467224121093750e+01) (4, -7.95057415962219238281e-01) (5, -3.58608245849609375000e+00) (6, 7.38254487514495849609e-01) (7, 3.38527381420135498047e-01) (8, -4.56504440307617187500e+00) (9, -2.29138046503067016602e-01) (10, -4.37545716762542724609e-01) (11, 1.20664548873901367188e+00) (12, -3.32767009735107421875e-01) (13, 3.62155151367187500000e+01) (14, -2.06266903877258300781e+00) (15, -5.42068243026733398438e-01) (16, 6.29137635231018066406e-01) (17, 1.78712129592895507812e-01) (18, 9.02396917343139648438e-01) (19, 1.08887898921966552734e+00) (20, 2.92816276550292968750e+01) (21, 8.59888610839843750000e+01) (22, 1.14888786315917968750e+02) (23, 1.37127923965454101562e+01) (24, 3.78614634275436401367e-01) (25, -5.66641693115234375000e+01) (26, -6.14573001861572265625e-01) (27, -1.16029810905456542969e+00) (28, 2.39731197357177734375e+01) (29, -5.16450226306915283203e-01) (30, 8.60618877410888671875e+00) (31, -1.17900171279907226562e+01) (32, -6.64195632934570312500e+00) (33, 7.13567590713500976562e+00) (34, 4.15208625793457031250e+00) (35, 3.97632446289062500000e+01) (36, -6.49341464042663574219e-01) (37, 2.36269640922546386719e+00) (38, 5.29136848449707031250e+00) (39, 1.13188982009887695312e+00) (40, 3.82389247417449951172e-01) (41, 5.29663991928100585938e+00) (42, 8.75530123710632324219e-01) (43, 8.13803672790527343750e-01) (44, 7.14457416534423828125e+00) (45, -4.43747234344482421875e+00) (46, 5.61192989349365234375e+00) (47, 1.21504440307617187500e+01) (48, 2.93063640594482421875e+01) (49, 7.25393915176391601562e+00) (50, 3.55304861068725585938e+00) (51, 2.29308795928955078125e+01) (52, 1.86471767425537109375e+01) (53, 7.73616194725036621094e-01) (54, 3.58545951843261718750e+01) (55, 4.55069999694824218750e+01) (56, -1.79026710987091064453e+00) (57, -1.15914011001586914062e+00) (58, 1.27744376659393310547e+00) (59, 2.03556609153747558594e+00) (60, -6.07710421085357666016e-01) (61, 3.83134794235229492188e+00) (62, 1.10081315040588378906e+00) (63, -2.20569944381713867188e+00) (64, 9.43928837776184082031e-01) (65, -4.91902887821197509766e-01) (66, 8.82320582866668701172e-01) (67, 6.92192733287811279297e-01) (68, 8.40744376182556152344e-01) (69, 2.52451076507568359375e+01) (70, 4.48931872844696044922e-01) (71, 7.77569353580474853516e-01) (72, -9.95163917541503906250e-01) (73, 1.79262423515319824219e+00) (74, -8.02924931049346923828e-01) (75, -7.14192211627960205078e-01) (76, -2.70921564102172851562e+00) (77, -1.26490819454193115234e+00) (78, 8.78360986709594726562e-01) (79, -6.08294665813446044922e-01) (80, -1.35367000102996826172e+00) (81, 6.82660102844238281250e-01) (82, 7.93288230895996093750e-01) (83, -1.09021110534667968750e+01) (84, -5.42497813701629638672e-01) (85, 8.66937398910522460938e-01) (86, -4.63286489248275756836e-01) (87, 6.92032456398010253906e-01) (88, -1.21900117397308349609e+00) (89, -7.29218482971191406250e+00) (90, 6.83753609657287597656e-01) (91, 7.46733486652374267578e-01) (92, 8.60573053359985351562e-01) (93, 6.93514108657836914062e-01) (94, -5.37111699581146240234e-01) (95, 7.93056130409240722656e-01) (96, 1.00067138671875000000e+00) (97, 7.30244517326354980469e-01) (98, -4.38614994287490844727e-01) (99, 6.74521148204803466797e-01) (100, -1.00425958633422851562e+00) (101, 1.34943857789039611816e-01) (102, -6.22744140625000000000e+01) (103, 2.43074768066406250000e+02) (104, 1.11959290504455566406e+00) (0, 1.41398298740386962891e+00) (1, -7.53091275691986083984e-01) (2, -6.60224795341491699219e-01) (3, 1.50910282135009765625e+00) (4, 5.06788790225982666016e-01) (5, -1.05012309551239013672e+00) (6, 7.64900326728820800781e-01) (7, 3.15075460821390151978e-03) (8, 7.78226673603057861328e-01) (9, 1.23435354232788085938e+00) (10, -6.12822830677032470703e-01) (11, 1.22525513172149658203e+00) (12, 2.12579441070556640625e+00) (13, -5.51668107509613037109e-02) (14, 1.18541717529296875000e+00) (15, -9.85119760036468505859e-01) (16, -4.60677683353424072266e-01) (17, -4.76328343152999877930e-01) (18, 1.69023311138153076172e+00) (19, 8.97279083728790283203e-01) (20, -3.33851242065429687500e+00) (21, -2.36245369911193847656e+00) (22, 1.10228872299194335938e+00) (23, 7.69016921520233154297e-01) (24, -1.88831830024719238281e+00) (25, 5.18934249877929687500e-01) (26, 1.01976835727691650391e+00) (27, -1.34936857223510742188e+00) (28, 1.34761714935302734375e+00) (29, -1.36843395233154296875e+00) (30, -2.66784131526947021484e-01) (31, 1.08464789390563964844e+00) (32, -1.67862713336944580078e+00) (33, 9.38512742519378662109e-01) (34, 3.37318444252014160156e+00) (35, -1.56880915164947509766e+00) (36, -1.85278987884521484375e+00) (37, 1.60996580123901367188e+00) (38, 1.50552368164062500000e+00) (39, 8.38471233844757080078e-01) (40, -1.20161640644073486328e+00) (41, 6.46340787410736083984e-01) (42, -1.35004556179046630859e+00) (43, 1.48551273345947265625e+00) (44, -6.81731462478637695312e-01) (45, 2.91573739051818847656e+00) (46, 1.07237124443054199219e+00) (47, 2.02759027481079101562e+00) (48, -6.08597326278686523438e+00) (49, 1.25149801373481750488e-01) (50, 5.54047107696533203125e-01) (51, 8.35229039192199707031e-01) (52, 7.40854144096374511719e-01) (53, -1.87634229660034179688e-01) (54, 9.72592890262603759766e-01) (55, -2.22661748528480529785e-01) (56, -6.81881666183471679688e-01) (57, -6.52379989624023437500e-01) (58, 1.43713009357452392578e+00) (59, 7.65454888343811035156e-01) (60, -4.81694728136062622070e-01) (61, -4.16963934898376464844e-01) (62, 5.15312850475311279297e-01) (63, 5.13783156871795654297e-01) (64, -1.69623363018035888672e+00) (65, 9.57917630672454833984e-01) (66, -7.86020994186401367188e-01) (67, -2.30398988723754882812e+00) (68, -8.23274433612823486328e-01) (69, -6.31458878517150878906e-01) (70, 8.38479101657867431641e-01) (71, 9.30280745029449462891e-01) (72, 1.13937187194824218750e+00) (73, -6.92803680896759033203e-01) (74, -1.23591518402099609375e+00) (75, -9.97249603271484375000e-01) (76, -5.01940906047821044922e-01) (77, -1.68325638771057128906e+00) (78, 1.07575654983520507812e+00) (79, -1.32894206047058105469e+00) (80, 2.44950008392333984375e+00) (81, 2.04316973686218261719e-02) (82, 6.72487497329711914062e-01) (83, -5.64602732658386230469e-01) (84, 8.92452180385589599609e-01) (85, -6.07792556285858154297e-01) (86, -6.84390366077423095703e-01) (87, -3.08781415224075317383e-01) (88, 9.18580234050750732422e-01) (89, -3.90468686819076538086e-02) (90, 4.16347116231918334961e-01) (91, -3.29193413257598876953e-01) (92, 1.65198445320129394531e+00) (93, -3.69213432073593139648e-01) (94, -6.58659115433692932129e-02) (95, -3.28735083341598510742e-01) (96, -8.46873342990875244141e-01) (97, 1.15817856788635253906e+00) (98, 5.63311755657196044922e-01) (99, -4.24858778715133666992e-01) (100, 1.15393459796905517578e+00) (101, -6.28335699439048767090e-02) (102, 1.50000000000000000000e+03) (103, -1.50000000000000000000e+03) (104, 2.57073211669921875000e+00) (0, 1.49425947666168212891e+00) (1, -2.49470090866088867188e+00) (2, 2.64326381683349609375e+00) (3, 8.34292888641357421875e+00) (4, 2.05615544319152832031e+00) (5, 4.13482666015625000000e+00) (6, -1.78314466029405593872e-02) (7, -1.63564753532409667969e+00) (8, 1.25366896390914916992e-01) (9, 1.22554624080657958984e+00) (10, -3.74063515663146972656e+00) (11, 1.56547796726226806641e+00) (12, 2.32213521003723144531e+00) (13, -9.30082082748413085938e-01) (14, -5.93333184719085693359e-01) (15, 7.72326707839965820312e-01) (16, 1.92264485359191894531e+00) (17, -4.86933380365371704102e-01) (18, 2.68665671348571777344e+00) (19, 7.71934628486633300781e-01) (20, -1.36710815429687500000e+01) (21, -6.08324956893920898438e+00) (22, -1.78028702735900878906e+00) (23, -9.51466441154479980469e-01) (24, -8.71493935585021972656e-01) (25, -1.69641268253326416016e+00) (26, 2.18392997980117797852e-01) (27, -9.00143623352050781250e-01) (28, 5.62040710449218750000e+00) (29, -8.94088327884674072266e-01) (30, 9.31946516036987304688e-01) (31, 5.85169494152069091797e-01) (32, 1.03364419937133789062e+00) (33, 3.97214204072952270508e-01) (34, 2.54158489406108856201e-02) (35, 1.74050033092498779297e+00) (36, -9.65102016925811767578e-01) (37, 8.27313542366027832031e-01) (38, 2.56937265396118164062e+00) (39, -6.96575284004211425781e-01) (40, 5.76854050159454345703e-01) (41, 2.73580741882324218750e+00) (42, 8.40595602989196777344e-01) (43, 7.81901955604553222656e-01) (44, 1.15863335132598876953e+00) (45, -9.33919131755828857422e-01) (46, -9.32129919528961181641e-01) (47, 2.14533901214599609375e+00) (48, -3.08215403556823730469e+00) (49, -5.89235067367553710938e-01) (50, -5.21194040775299072266e-01) (51, -3.69668602943420410156e-01) (52, -7.86514699459075927734e-01) (53, 1.11875867843627929688e+00) (54, 3.31424546241760253906e+00) (55, -1.04598608016967773438e+01) (56, -8.61233621835708618164e-02) (57, -4.42204847931861877441e-02) (58, 5.07753252983093261719e-01) (59, 1.79634642601013183594e+00) (60, -2.71193772554397583008e-01) (61, 2.26593089103698730469e+00) (62, 2.05398106575012207031e+00) (63, -5.00678598880767822266e-01) (64, -1.96448063850402832031e+00) (65, -4.06970292329788208008e-01) (66, 3.84022712707519531250e-01) (67, 4.28887701034545898438e+00) (68, -4.03077697753906250000e+00) (69, 2.14826554059982299805e-01) (70, 2.12483167648315429688e+00) (71, 8.85838389396667480469e-01) (72, -5.63952773809432983398e-02) (73, -8.62276911735534667969e-01) (74, -3.94362300634384155273e-01) (75, 5.27722263336181640625e+00) (76, 1.38621413707733154297e+00) (77, -3.32355320453643798828e-01) (78, 8.61936211585998535156e-01) (79, -2.51313376426696777344e+00) (80, 4.74336099624633789062e+00) (81, 9.41433429718017578125e-01) (82, 1.01496851444244384766e+00) (83, 6.19352042675018310547e-01) (84, 3.47791647911071777344e+00) (85, -3.42130327224731445312e+00) (86, -5.27891576290130615234e-01) (87, -3.37814301252365112305e-01) (88, -2.61104130744934082031e+00) (89, 1.98927044868469238281e+00) (90, 1.46721768379211425781e+00) (91, 1.15139923989772796631e-01) (92, 9.96113538742065429688e-01) (93, -5.09883500635623931885e-02) (94, -5.00280022621154785156e-01) (95, 2.40559768676757812500e+00) (96, -4.44699704647064208984e-01) (97, -9.06760215759277343750e-01) (98, -1.80125474929809570312e+00) (99, -2.19218850135803222656e+00) (100, -3.36513805389404296875e+00) (101, -4.45872068405151367188e-01) (102, 8.99901032447814941406e-01) (103, 1.22020888328552246094e+00) (104, 2.43744468688964843750e+00) (0, -8.76100838184356689453e-01) (1, -5.16470372676849365234e-01) (2, 3.10841351747512817383e-01) (3, 5.49113750457763671875e-01) (4, 5.19296228885650634766e-01) (5, 1.63306415081024169922e+00) (6, -5.09060621261596679688e-01) (7, -2.27213412523269653320e-01) (8, -1.13605630397796630859e+00) (9, -1.05449688434600830078e+00) (10, 1.24547384679317474365e-01) (11, 1.26175358891487121582e-01) (12, 1.00982534885406494141e+00) (13, -8.43016862869262695312e-01) (14, 1.08135294914245605469e+00) (15, -5.69224298000335693359e-01) (16, 2.25828066468238830566e-01) (17, 5.87414383888244628906e-01) (18, -7.07297384738922119141e-01) (19, 2.93161392211914062500e-01) (20, -2.73599088191986083984e-01) (21, 3.12144368886947631836e-01) (22, 1.81834772229194641113e-01) (23, -4.48208928108215332031e-01) (24, 8.92752826213836669922e-01) (25, 7.58661210536956787109e-01) (26, 3.21239203214645385742e-01) (27, -3.78271713852882385254e-02) (28, -6.72230482101440429688e-01) (29, 1.50523841381072998047e+00) (30, -3.71491134166717529297e-01) (31, -2.46216297149658203125e-01) (32, -1.14063255488872528076e-01) (33, -5.43821632862091064453e-01) (34, 5.13547122478485107422e-01) (35, 1.78736552596092224121e-01) (36, 1.68164002895355224609e+00) (37, -7.33354508876800537109e-01) (38, -2.98238813877105712891e-01) (39, 1.06772232055664062500e+00) (40, 1.31118845939636230469e+00) (41, -1.63165533542633056641e+00) (42, 2.05861240625381469727e-01) (43, 4.07813452184200286865e-02) (44, -1.11429333686828613281e+00) (45, 1.75839698314666748047e+00) (46, 1.07153400778770446777e-01) (47, 1.97173342108726501465e-01) (48, -4.86216276884078979492e-01) (49, -5.31378030776977539062e-01) (50, 3.87786775827407836914e-02) (51, -1.10174477100372314453e+00) (52, 7.89732038974761962891e-02) (53, 4.07493859529495239258e-01) (54, -1.21426677703857421875e+00) (55, 3.13674628734588623047e-01) (56, 5.97866356372833251953e-01) (57, -2.63082236051559448242e-01) (58, -4.36931103467941284180e-01) (59, 6.03271663188934326172e-01) (60, 1.12383329868316650391e+00) (61, 6.81795537471771240234e-01) (62, -1.07580137252807617188e+00) (63, -3.33454668521881103516e-01) (64, -1.11498510837554931641e+00) (65, 3.73375922441482543945e-01) (66, -8.58281314373016357422e-01) (67, 5.22510886192321777344e-01) (68, -1.11745929718017578125e+00) (69, 2.67645686864852905273e-01) (70, 1.75636619329452514648e-01) (71, -7.36678719520568847656e-01) (72, 1.28662657737731933594e+00) (73, -1.50648391246795654297e+00) (74, 1.04150164127349853516e+00) (75, 1.03231275081634521484e+00) (76, 1.11181545257568359375e+00) (77, 1.21971154212951660156e+00) (78, -7.35487520694732666016e-01) (79, 1.19106543064117431641e+00) (80, 2.65295267105102539062e-01) (81, -7.64023661613464355469e-01) (82, -8.13992381095886230469e-01) (83, 6.00733280181884765625e-01) (84, -6.55305981636047363281e-01) (85, 1.03007085621356964111e-01) (86, 1.04138195514678955078e+00) (87, -8.11123430728912353516e-01) (88, 1.31665623188018798828e+00) (89, -1.88264787197113037109e-01) (90, -7.48074769973754882812e-01) (91, -6.42507612705230712891e-01) (92, -7.79996275901794433594e-01) (93, -6.65606558322906494141e-01) (94, 6.48719491437077522278e-03) (95, -7.57694780826568603516e-01) (96, -9.50575828552246093750e-01) (97, 3.66430312395095825195e-01) (98, 1.23551452159881591797e+00) (99, -8.18113803863525390625e-01) (100, 1.14433050155639648438e+00) (101, -7.07888662815093994141e-01) (102, 2.75731950998306274414e-01) (103, 1.58939445018768310547e+00) (104, 2.49204301834106445312e+00) (0, -3.35586738586425781250e+01) (1, -1.68477201461791992188e+00) (2, -1.01334249973297119141e+00) (3, -9.59338665008544921875e+00) (4, -1.79307192564010620117e-01) (5, -3.36997642517089843750e+01) (6, -1.00342519581317901611e-01) (7, 5.27300477027893066406e-01) (8, -1.64408540725708007812e+00) (9, -3.32887619733810424805e-01) (10, -5.65200448036193847656e-01) (11, 2.10531067848205566406e+00) (12, -2.21815630793571472168e-01) (13, 1.33277902603149414062e+01) (14, -5.69345712661743164062e-01) (15, -4.98311460018157958984e-01) (16, -7.92878448963165283203e-01) (17, 6.38581514358520507812e-02) (18, 1.42967641353607177734e+00) (19, 7.54822731018066406250e-01) (20, 2.23727750778198242188e+00) (21, 1.54239063262939453125e+01) (22, 3.15998954772949218750e+01) (23, 1.16814708709716796875e+01) (24, 7.55151689052581787109e-01) (25, -6.85961990356445312500e+01) (26, 7.91770815849304199219e-02) (27, -4.31440383195877075195e-01) (28, 2.40297579765319824219e+00) (29, -1.36812701821327209473e-01) (30, 2.12933082580566406250e+01) (31, 7.34332752227783203125e+00) (32, 2.45786488056182861328e-01) (33, 5.44110298156738281250e+00) (34, -2.61879861354827880859e-01) (35, 6.86657791137695312500e+01) (36, -6.31243324279785156250e+00) (37, 2.25448379516601562500e+01) (38, 4.01102399826049804688e+00) (39, 1.08858501911163330078e+00) (40, 9.73906898498535156250e+00) (41, -1.57040131092071533203e+00) (42, 1.33491134643554687500e+00) (43, 2.56770682334899902344e+00) (44, 2.01578704833984375000e+02) (45, 9.70765352249145507812e-02) (46, 3.93131484985351562500e+01) (47, -2.55710053443908691406e+00) (48, 3.36209907531738281250e+01) (49, 1.19521389007568359375e+01) (50, 2.42180309295654296875e+01) (51, 6.71216297149658203125e+00) (52, 2.56090602874755859375e+01) (53, 2.55752038955688476562e+00) (54, 7.98907699584960937500e+01) (55, 1.84988021850585937500e+01) (56, -1.23900748789310455322e-01) (57, 1.27464592456817626953e+00) (58, 1.69064533710479736328e+00) (59, -5.66320800781250000000e+00) (60, -7.73662924766540527344e-01) (61, 1.26607446670532226562e+01) (62, 9.05169367790222167969e-01) (63, -6.21458721160888671875e+00) (64, 8.53545904159545898438e-01) (65, -7.87555277347564697266e-01) (66, 5.42441606521606445312e-01) (67, 1.69648659229278564453e+00) (68, 7.47293293476104736328e-01) (69, 1.95254206657409667969e+00) (70, -1.15838177502155303955e-01) (71, 1.09008371829986572266e+00) (72, -2.44862103462219238281e+00) (73, 1.53794097900390625000e+00) (74, -1.00230827331542968750e+01) (75, -9.07269597053527832031e-01) (76, -6.02037858963012695312e+00) (77, -3.44136142730712890625e+00) (78, 2.58506631851196289062e+00) (79, -4.08578157424926757812e+00) (80, -2.54576027393341064453e-01) (81, 9.01804029941558837891e-01) (82, 9.69627141952514648438e-01) (83, -3.07149238586425781250e+01) (84, -4.20386910438537597656e-01) (85, 9.86526489257812500000e-01) (86, -4.28827404975891113281e-01) (87, -4.38624382019042968750e-01) (88, -7.51670300960540771484e-01) (89, -1.65757048130035400391e+00) (90, 5.85937738418579101562e-01) (91, -5.61545640230178833008e-02) (92, 7.73879647254943847656e-01) (93, 7.22990095615386962891e-01) (94, -6.71220421791076660156e-01) (95, 6.36400341987609863281e-01) (96, 1.41905975341796875000e+00) (97, 6.53002440929412841797e-01) (98, -1.61526668071746826172e+00) (99, 7.36617505550384521484e-01) (100, -6.71793937683105468750e-01) (101, 4.39442813396453857422e-01) (102, -6.55427169799804687500e+01) (103, 2.59252960205078125000e+02) (104, 1.26216936111450195312e+00) (105, -7.64248132705688476562e-01) (106, 1.84480786323547363281e+00) (107, -9.75328862667083740234e-01) (108, 2.96931290626525878906e+00) (109, 5.07156074047088623047e-01) (110, -3.59444081783294677734e-01) (111, -4.15064573287963867188e-01) (112, -1.06242477893829345703e+00) (113, 3.17564010620117187500e+00) (114, 3.24978590011596679688e+00) (115, 1.48819625377655029297e-01) (116, -2.76541233062744140625e+00) (117, 1.19784891605377197266e+00) (118, 3.54769134521484375000e+00) (119, -8.40158462524414062500e-01) (120, -1.00930583477020263672e+00) (121, 3.88805913925170898438e+00) (122, 2.75783514976501464844e+00) (123, 4.61381864547729492188e+00) (124, 3.35877490043640136719e+00) (125, 8.35516691207885742188e-01) (126, -5.05314588546752929688e+00) (127, 2.91531300544738769531e+00) (128, -2.65190005302429199219e+00) (129, 1.82617938518524169922e+00) (130, 2.51972103118896484375e+00) 
