FANN_FLO_2.1
num_layers=3
learning_rate=0.700000
connection_rate=1.000000
network_type=0
learning_momentum=0.000000
training_algorithm=2
train_error_function=1
train_stop_function=0
cascade_output_change_fraction=0.010000
quickprop_decay=-0.000100
quickprop_mu=1.750000
rprop_increase_factor=1.200000
rprop_decrease_factor=0.500000
rprop_delta_min=0.000000
rprop_delta_max=50.000000
rprop_delta_zero=0.100000
cascade_output_stagnation_epochs=12
cascade_candidate_change_fraction=0.010000
cascade_candidate_stagnation_epochs=12
cascade_max_out_epochs=150
cascade_max_cand_epochs=150
cascade_num_candidate_groups=2
bit_fail_limit=3.49999994039535522461e-01
cascade_candidate_limit=1.00000000000000000000e+03
cascade_weight_multiplier=4.00000005960464477539e-01
cascade_activation_functions_count=10
cascade_activation_functions=3 5 7 8 10 11 14 15 16 17 
cascade_activation_steepnesses_count=4
cascade_activation_steepnesses=2.50000000000000000000e-01 5.00000000000000000000e-01 7.50000000000000000000e-01 1.00000000000000000000e+00 
layer_sizes=105 81 2 
scale_included=0
neurons (num_inputs, activation_function, activation_steepness)=(0, 0, 0.00000000000000000000e+00) (0, 0, 0.00000000000000000000e+00) (0, 0, 0.00000000000000000000e+00) (0, 0, 0.00000000000000000000e+00) (0, 0, 0.00000000000000000000e+00) (0, 0, 0.00000000000000000000e+00) (0, 0, 0.00000000000000000000e+00) (0, 0, 0.00000000000000000000e+00) (0, 0, 0.00000000000000000000e+00) (0, 0, 0.00000000000000000000e+00) (0, 0, 0.00000000000000000000e+00) (0, 0, 0.00000000000000000000e+00) (0, 0, 0.00000000000000000000e+00) (0, 0, 0.00000000000000000000e+00) (0, 0, 0.00000000000000000000e+00) (0, 0, 0.00000000000000000000e+00) (0, 0, 0.00000000000000000000e+00) (0, 0, 0.00000000000000000000e+00) (0, 0, 0.00000000000000000000e+00) (0, 0, 0.00000000000000000000e+00) (0, 0, 0.00000000000000000000e+00) (0, 0, 0.00000000000000000000e+00) (0, 0, 0.00000000000000000000e+00) (0, 0, 0.00000000000000000000e+00) (0, 0, 0.00000000000000000000e+00) (0, 0, 0.00000000000000000000e+00) (0, 0, 0.00000000000000000000e+00) (0, 0, 0.00000000000000000000e+00) (0, 0, 0.00000000000000000000e+00) (0, 0, 0.00000000000000000000e+00) (0, 0, 0.00000000000000000000e+00) (0, 0, 0.00000000000000000000e+00) (0, 0, 0.00000000000000000000e+00) (0, 0, 0.00000000000000000000e+00) (0, 0, 0.00000000000000000000e+00) (0, 0, 0.00000000000000000000e+00) (0, 0, 0.00000000000000000000e+00) (0, 0, 0.00000000000000000000e+00) (0, 0, 0.00000000000000000000e+00) (0, 0, 0.00000000000000000000e+00) (0, 0, 0.00000000000000000000e+00) (0, 0, 0.00000000000000000000e+00) (0, 0, 0.00000000000000000000e+00) (0, 0, 0.00000000000000000000e+00) (0, 0, 0.00000000000000000000e+00) (0, 0, 0.00000000000000000000e+00) (0, 0, 0.00000000000000000000e+00) (0, 0, 0.00000000000000000000e+00) (0, 0, 0.00000000000000000000e+00) (0, 0, 0.00000000000000000000e+00) (0, 0, 0.00000000000000000000e+00) (0, 0, 0.00000000000000000000e+00) (0, 0, 0.00000000000000000000e+00) (0, 0, 0.00000000000000000000e+00) (0, 0, 0.00000000000000000000e+00) (0, 0, 0.00000000000000000000e+00) (0, 0, 0.00000000000000000000e+00) (0, 0, 0.00000000000000000000e+00) (0, 0, 0.00000000000000000000e+00) (0, 0, 0.00000000000000000000e+00) (0, 0, 0.00000000000000000000e+00) (0, 0, 0.00000000000000000000e+00) (0, 0, 0.00000000000000000000e+00) (0, 0, 0.00000000000000000000e+00) (0, 0, 0.00000000000000000000e+00) (0, 0, 0.00000000000000000000e+00) (0, 0, 0.00000000000000000000e+00) (0, 0, 0.00000000000000000000e+00) (0, 0, 0.00000000000000000000e+00) (0, 0, 0.00000000000000000000e+00) (0, 0, 0.00000000000000000000e+00) (0, 0, 0.00000000000000000000e+00) (0, 0, 0.00000000000000000000e+00) (0, 0, 0.00000000000000000000e+00) (0, 0, 0.00000000000000000000e+00) (0, 0, 0.00000000000000000000e+00) (0, 0, 0.00000000000000000000e+00) (0, 0, 0.00000000000000000000e+00) (0, 0, 0.00000000000000000000e+00) (0, 0, 0.00000000000000000000e+00) (0, 0, 0.00000000000000000000e+00) (0, 0, 0.00000000000000000000e+00) (0, 0, 0.00000000000000000000e+00) (0, 0, 0.00000000000000000000e+00) (0, 0, 0.00000000000000000000e+00) (0, 0, 0.00000000000000000000e+00) (0, 0, 0.00000000000000000000e+00) (0, 0, 0.00000000000000000000e+00) (0, 0, 0.00000000000000000000e+00) (0, 0, 0.00000000000000000000e+00) (0, 0, 0.00000000000000000000e+00) (0, 0, 0.00000000000000000000e+00) (0, 0, 0.00000000000000000000e+00) (0, 0, 0.00000000000000000000e+00) (0, 0, 0.00000000000000000000e+00) (0, 0, 0.00000000000000000000e+00) (0, 0, 0.00000000000000000000e+00) (0, 0, 0.00000000000000000000e+00) (0, 0, 0.00000000000000000000e+00) (0, 0, 0.00000000000000000000e+00) (0, 0, 0.00000000000000000000e+00) (0, 0, 0.00000000000000000000e+00) (0, 0, 0.00000000000000000000e+00) (0, 0, 0.00000000000000000000e+00) (0, 0, 0.00000000000000000000e+00) (105, 5, 5.00000000000000000000e-01) (105, 5, 5.00000000000000000000e-01) (105, 5, 5.00000000000000000000e-01) (105, 5, 5.00000000000000000000e-01) (105, 5, 5.00000000000000000000e-01) (105, 5, 5.00000000000000000000e-01) (105, 5, 5.00000000000000000000e-01) (105, 5, 5.00000000000000000000e-01) (105, 5, 5.00000000000000000000e-01) (105, 5, 5.00000000000000000000e-01) (105, 5, 5.00000000000000000000e-01) (105, 5, 5.00000000000000000000e-01) (105, 5, 5.00000000000000000000e-01) (105, 5, 5.00000000000000000000e-01) (105, 5, 5.00000000000000000000e-01) (105, 5, 5.00000000000000000000e-01) (105, 5, 5.00000000000000000000e-01) (105, 5, 5.00000000000000000000e-01) (105, 5, 5.00000000000000000000e-01) (105, 5, 5.00000000000000000000e-01) (105, 5, 5.00000000000000000000e-01) (105, 5, 5.00000000000000000000e-01) (105, 5, 5.00000000000000000000e-01) (105, 5, 5.00000000000000000000e-01) (105, 5, 5.00000000000000000000e-01) (105, 5, 5.00000000000000000000e-01) (105, 5, 5.00000000000000000000e-01) (105, 5, 5.00000000000000000000e-01) (105, 5, 5.00000000000000000000e-01) (105, 5, 5.00000000000000000000e-01) (105, 5, 5.00000000000000000000e-01) (105, 5, 5.00000000000000000000e-01) (105, 5, 5.00000000000000000000e-01) (105, 5, 5.00000000000000000000e-01) (105, 5, 5.00000000000000000000e-01) (105, 5, 5.00000000000000000000e-01) (105, 5, 5.00000000000000000000e-01) (105, 5, 5.00000000000000000000e-01) (105, 5, 5.00000000000000000000e-01) (105, 5, 5.00000000000000000000e-01) (105, 5, 5.00000000000000000000e-01) (105, 5, 5.00000000000000000000e-01) (105, 5, 5.00000000000000000000e-01) (105, 5, 5.00000000000000000000e-01) (105, 5, 5.00000000000000000000e-01) (105, 5, 5.00000000000000000000e-01) (105, 5, 5.00000000000000000000e-01) (105, 5, 5.00000000000000000000e-01) (105, 5, 5.00000000000000000000e-01) (105, 5, 5.00000000000000000000e-01) (105, 5, 5.00000000000000000000e-01) (105, 5, 5.00000000000000000000e-01) (105, 5, 5.00000000000000000000e-01) (105, 5, 5.00000000000000000000e-01) (105, 5, 5.00000000000000000000e-01) (105, 5, 5.00000000000000000000e-01) (105, 5, 5.00000000000000000000e-01) (105, 5, 5.00000000000000000000e-01) (105, 5, 5.00000000000000000000e-01) (105, 5, 5.00000000000000000000e-01) (105, 5, 5.00000000000000000000e-01) (105, 5, 5.00000000000000000000e-01) (105, 5, 5.00000000000000000000e-01) (105, 5, 5.00000000000000000000e-01) (105, 5, 5.00000000000000000000e-01) (105, 5, 5.00000000000000000000e-01) (105, 5, 5.00000000000000000000e-01) (105, 5, 5.00000000000000000000e-01) (105, 5, 5.00000000000000000000e-01) (105, 5, 5.00000000000000000000e-01) (105, 5, 5.00000000000000000000e-01) (105, 5, 5.00000000000000000000e-01) (105, 5, 5.00000000000000000000e-01) (105, 5, 5.00000000000000000000e-01) (105, 5, 5.00000000000000000000e-01) (105, 5, 5.00000000000000000000e-01) (105, 5, 5.00000000000000000000e-01) (105, 5, 5.00000000000000000000e-01) (105, 5, 5.00000000000000000000e-01) (105, 5, 5.00000000000000000000e-01) (0, 5, 0.00000000000000000000e+00) (81, 5, 5.00000000000000000000e-01) (0, 5, 0.00000000000000000000e+00) 
connections (connected_to_neuron, weight)=(0, 1.00097692012786865234e+00) (1, -1.48501858115196228027e-01) (2, -2.14151695370674133301e-01) (3, 1.16979873180389404297e+00) (4, 4.18639063835144042969e-01) (5, -5.11104166507720947266e-01) (6, -7.95347839593887329102e-02) (7, -3.51747840642929077148e-01) (8, 5.43412804603576660156e-01) (9, -2.02131056785583496094e+00) (10, -2.27694049477577209473e-01) (11, 4.71185117959976196289e-01) (12, -5.44821858406066894531e-01) (13, -2.23250463604927062988e-01) (14, -5.58008849620819091797e-01) (15, -4.85523998737335205078e-01) (16, 3.78503382205963134766e-01) (17, -4.63606327772140502930e-01) (18, -3.65966409444808959961e-01) (19, -6.35931789875030517578e-02) (20, 5.02181231975555419922e-01) (21, -3.66933017969131469727e-01) (22, 5.07727921009063720703e-01) (23, -1.98717921972274780273e-01) (24, -5.98609298467636108398e-02) (25, -3.68632286787033081055e-01) (26, -3.62370669841766357422e-01) (27, -4.09041494131088256836e-01) (28, -4.43185389041900634766e-01) (29, -3.79885822534561157227e-01) (30, 6.31484901532530784607e-03) (31, -3.91773819923400878906e-01) (32, -1.26314520835876464844e+00) (33, 2.79543995857238769531e-01) (34, 1.27303571701049804688e+01) (35, -6.40958547592163085938e-01) (36, -7.56106674671173095703e-01) (37, 2.50777691602706909180e-01) (38, -6.43324911594390869141e-01) (39, -3.84717255830764770508e-01) (40, -4.52589750289916992188e-01) (41, -1.74065029621124267578e+00) (42, -4.13999438285827636719e-01) (43, -4.95198816061019897461e-01) (44, 8.05548354983329772949e-02) (45, -1.93510264158248901367e-01) (46, 1.11663080751895904541e-01) (47, 3.38672637939453125000e-01) (48, -3.80947649478912353516e-01) (49, -5.18448770046234130859e-01) (50, -4.48180854320526123047e-01) (51, 3.17344486713409423828e-01) (52, -1.94590479135513305664e-01) (53, -2.03319764137268066406e+00) (54, -5.42505204677581787109e-01) (55, 1.78060340881347656250e+00) (56, -3.15639287233352661133e-01) (57, -3.55300128459930419922e-01) (58, -1.15103721618652343750e-01) (59, -5.67271709442138671875e-01) (60, -3.06321075186133384705e-03) (61, 1.04477711021900177002e-01) (62, -5.62401711940765380859e-01) (63, -8.49264264106750488281e-02) (64, -5.36851584911346435547e-01) (65, -6.00711047649383544922e-01) (66, 1.25285625457763671875e-01) (67, -1.31742373108863830566e-01) (68, 2.36190557479858398438e-01) (69, -5.34489512443542480469e-01) (70, 1.45724266767501831055e-01) (71, -6.23121023178100585938e-01) (72, -5.45989096164703369141e-01) (73, -2.12125748395919799805e-01) (74, -3.63322049379348754883e-01) (75, -4.44320440292358398438e-01) (76, -4.68153715133666992188e-01) (77, -3.45541805028915405273e-01) (78, -2.55011588335037231445e-01) (79, -1.09838537871837615967e-01) (80, -1.48886978626251220703e+00) (81, -1.00062504410743713379e-01) (82, 1.14809051156044006348e-01) (83, 6.62686601281166076660e-02) (84, -6.64350152015686035156e-01) (85, 8.58233198523521423340e-02) (86, -5.28612732887268066406e-01) (87, -4.48008209466934204102e-01) (88, 3.23730468750000000000e-01) (89, -1.14975459873676300049e-01) (90, -1.51644870638847351074e-01) (91, -3.06396067142486572266e-01) (92, 4.03689324855804443359e-01) (93, -4.97331768274307250977e-01) (94, -6.32759511470794677734e-01) (95, -6.54030323028564453125e-01) (96, -6.32520973682403564453e-01) (97, -6.71592772006988525391e-01) (98, 2.08415150642395019531e-01) (99, -2.87248581647872924805e-01) (100, -2.54841241985559463501e-02) (101, -5.52644968032836914062e-01) (102, 1.87561273574829101562e+00) (103, 9.12574708461761474609e-01) (104, 2.50011157989501953125e+00) (0, 1.39223871231079101562e+01) (1, 1.82958590984344482422e+00) (2, 1.21289217472076416016e+00) (3, 5.30574142932891845703e-01) (4, 7.08603858947753906250e-01) (5, 4.49283123016357421875e-01) (6, 1.28551745414733886719e+00) (7, 4.64810095727443695068e-02) (8, 1.59086573123931884766e+00) (9, 2.77671925723552703857e-02) (10, 1.18741726875305175781e+00) (11, 5.04036664962768554688e-01) (12, 7.87357032299041748047e-01) (13, 1.55824816226959228516e+00) (14, 4.10551071166992187500e-01) (15, 4.89471852779388427734e-01) (16, 5.73145925998687744141e-01) (17, -2.86696314811706542969e-01) (18, 2.00172692537307739258e-01) (19, 3.04741058498620986938e-02) (20, 4.95679438114166259766e-01) (21, -3.11754569411277770996e-02) (22, 3.42118851840496063232e-02) (23, 4.66546714305877685547e-01) (24, 1.11934232711791992188e+00) (25, -1.72883614897727966309e-01) (26, 8.52235198020935058594e-01) (27, -1.87611982226371765137e-01) (28, -9.80596765875816345215e-02) (29, 6.54752492904663085938e-01) (30, -1.66093915700912475586e-01) (31, 4.30688023567199707031e-01) (32, -2.26459696888923645020e-01) (33, 4.51917350292205810547e-01) (34, 2.45286655426025390625e+01) (35, 7.48221635818481445312e-01) (36, 3.98282587528228759766e-01) (37, 4.09331202507019042969e-01) (38, -1.34946092963218688965e-01) (39, 1.51733919978141784668e-01) (40, 4.14966434240341186523e-01) (41, -5.95008802413940429688e+00) (42, 7.61712372303009033203e-01) (43, 7.39598095417022705078e-01) (44, 7.68077909946441650391e-01) (45, 1.87137567996978759766e+00) (46, 2.31041741371154785156e+00) (47, 1.83113217353820800781e+00) (48, -8.80167111754417419434e-02) (49, 6.88135862350463867188e-01) (50, 6.60551011562347412109e-01) (51, 6.60985291004180908203e-01) (52, 1.82762503623962402344e+00) (53, 1.32773184776306152344e+00) (54, 2.46746942400932312012e-01) (55, -6.35625076293945312500e+00) (56, 2.00242161750793457031e+00) (57, -2.17046775817871093750e+01) (58, 1.44476163387298583984e+00) (59, 1.47974264621734619141e+00) (60, 6.53404355049133300781e-01) (61, 8.90420436859130859375e-01) (62, 8.04650068283081054688e-01) (63, 5.26657462120056152344e-01) (64, 2.30216402560472488403e-02) (65, 1.30461657047271728516e+00) (66, 2.38667488098144531250e-01) (67, 7.99548029899597167969e-02) (68, 2.62096047401428222656e+00) (69, 6.89032971858978271484e-01) (70, 1.18042123317718505859e+00) (71, 5.67221462726593017578e-01) (72, 5.64470648765563964844e-01) (73, 7.59693324565887451172e-01) (74, 6.18873894214630126953e-01) (75, -8.28509628772735595703e-02) (76, 7.48316347599029541016e-01) (77, 2.01979494094848632812e+00) (78, -2.88277530670166015625e+00) (79, 1.42130088806152343750e+00) (80, -2.07956477999687194824e-01) (81, -4.57134866714477539062e+00) (82, 1.17747092247009277344e+00) (83, 6.26063287258148193359e-01) (84, 1.25154113769531250000e+00) (85, -4.30420711636543273926e-02) (86, 8.22715878486633300781e-01) (87, 6.62905275821685791016e-01) (88, 1.89565801620483398438e+00) (89, 1.13603448867797851562e+00) (90, 1.91992390155792236328e+00) (91, 2.49312472343444824219e+00) (92, 6.09428882598876953125e-01) (93, 1.14819025993347167969e+00) (94, 1.25726687908172607422e+00) (95, 4.52042877674102783203e-01) (96, 7.45144069194793701172e-01) (97, -2.26306483149528503418e-01) (98, 1.63686609268188476562e+00) (99, 1.01537597179412841797e+00) (100, 1.14344239234924316406e-01) (101, 1.13384008407592773438e+00) (102, 2.49344420433044433594e+00) (103, -4.17212247848510742188e-01) (104, 1.09374892711639404297e+00) (0, 1.32445597648620605469e+00) (1, -5.71168959140777587891e-01) (2, 1.22536349296569824219e+00) (3, -1.08690895140171051025e-01) (4, 1.54172301292419433594e+00) (5, -3.30683559179306030273e-01) (6, -2.36482441425323486328e-01) (7, -6.43987965304404497147e-04) (8, -1.92235544323921203613e-01) (9, -7.40431606769561767578e-01) (10, -2.21770793199539184570e-01) (11, 1.14982593059539794922e+00) (12, -8.05080175399780273438e-01) (13, 5.33677160739898681641e-01) (14, -5.52747368812561035156e-01) (15, -6.68293654918670654297e-01) (16, 5.26965975761413574219e-01) (17, 5.68526387214660644531e-02) (18, -6.79182648658752441406e-01) (19, -6.41028940677642822266e-01) (20, -2.19396844506263732910e-01) (21, -4.86797615885734558105e-02) (22, 6.15673065185546875000e-01) (23, -3.95139828324317932129e-02) (24, 8.86467337608337402344e-01) (25, -5.27752459049224853516e-01) (26, 1.11701175570487976074e-01) (27, 4.83154177665710449219e-01) (28, 2.61382535099983215332e-02) (29, -5.65612781792879104614e-03) (30, -3.41976992785930633545e-02) (31, 1.10295191407203674316e-02) (32, -6.24197244644165039062e-01) (33, -6.84647560119628906250e-01) (34, 9.98867094516754150391e-01) (35, 8.77999365329742431641e-02) (36, -6.81083917617797851562e-01) (37, 1.39109387993812561035e-01) (38, -7.47919023036956787109e-01) (39, -8.31831574440002441406e-01) (40, -7.34114944934844970703e-01) (41, 6.63722038269042968750e+00) (42, -2.56927907466888427734e-01) (43, -9.44156795740127563477e-02) (44, -1.93777736276388168335e-02) (45, -1.95917636156082153320e-01) (46, 3.99653816223144531250e+00) (47, 1.99449706077575683594e+00) (48, -9.58287835121154785156e-01) (49, -6.78667545318603515625e-01) (50, -8.91233861446380615234e-01) (51, -8.51302802562713623047e-01) (52, 8.90669226646423339844e-01) (53, 3.20663362741470336914e-01) (54, -9.47082519531250000000e-01) (55, 7.28857326507568359375e+00) (56, -2.55399495363235473633e-01) (57, -9.86474871635437011719e-01) (58, -7.94310331344604492188e-01) (59, 2.54715180397033691406e+00) (60, 7.38615021109580993652e-02) (61, -8.14835190773010253906e-01) (62, -7.96754419803619384766e-01) (63, -6.93458318710327148438e-01) (64, 1.24359297752380371094e+00) (65, -8.52247655391693115234e-01) (66, 1.42329740524291992188e+00) (67, -1.71879097819328308105e-01) (68, 1.35861718654632568359e+00) (69, 4.92029041051864624023e-02) (70, -7.43370473384857177734e-01) (71, -7.61627137660980224609e-01) (72, 5.62156364321708679199e-02) (73, -5.36890864372253417969e-01) (74, -9.04998660087585449219e-01) (75, -1.26577663421630859375e+00) (76, 9.92185175418853759766e-01) (77, 4.70439255237579345703e-01) (78, -3.02474784851074218750e+00) (79, 1.28635215759277343750e+00) (80, 2.03485631942749023438e+00) (81, -6.75351858139038085938e-01) (82, -3.62755894660949707031e-01) (83, -9.94159460067749023438e-01) (84, 1.05674657970666885376e-02) (85, -5.34292161464691162109e-01) (86, 5.66689610481262207031e-01) (87, -6.11576139926910400391e-01) (88, 1.29853343963623046875e+00) (89, -2.20567837357521057129e-01) (90, 7.69501090049743652344e-01) (91, 1.00296764373779296875e+01) (92, -7.34269797801971435547e-01) (93, -1.94777641445398330688e-02) (94, -7.07592844963073730469e-01) (95, 2.96486616134643554688e-01) (96, 1.41188606619834899902e-01) (97, 3.74889850616455078125e-01) (98, -3.72403234243392944336e-01) (99, -1.94302890449762344360e-02) (100, -6.98920667171478271484e-01) (101, -8.35080504417419433594e-01) (102, -5.00020265579223632812e-01) (103, 3.21982407569885253906e+00) (104, 2.69606971740722656250e+00) (0, -2.19029545783996582031e+00) (1, 3.38976591825485229492e-01) (2, 2.88212120532989501953e-01) (3, 7.63726830482482910156e-01) (4, 8.96634221076965332031e-01) (5, -8.60938072204589843750e-01) (6, 1.41401898860931396484e+00) (7, -1.06508828699588775635e-01) (8, 1.16170740127563476562e+00) (9, -6.92330420017242431641e-01) (10, 2.23702716827392578125e+00) (11, -4.58456240594387054443e-02) (12, -4.71795439720153808594e-01) (13, 8.30847620964050292969e-01) (14, -4.55979555845260620117e-01) (15, 6.12911939620971679688e-01) (16, -6.52154386043548583984e-01) (17, -6.55568063259124755859e-01) (18, -3.76418977975845336914e-01) (19, -5.14243721961975097656e-01) (20, -7.64856278896331787109e-01) (21, -5.29341578483581542969e-01) (22, -5.68760335445404052734e-01) (23, -1.52065801620483398438e+00) (24, 2.26147198677062988281e+00) (25, 1.64334058761596679688e-01) (26, 1.73803895711898803711e-01) (27, -6.69695436954498291016e-01) (28, -4.30059790611267089844e-01) (29, 1.26130226999521255493e-02) (30, -3.99155110120773315430e-01) (31, -1.39414691925048828125e+00) (32, -5.28574585914611816406e-01) (33, -9.28517758846282958984e-01) (34, 1.23692417144775390625e+00) (35, -1.16310751438140869141e+00) (36, -5.49822926521301269531e-01) (37, -4.02790337800979614258e-01) (38, -6.83179795742034912109e-02) (39, 1.16789631545543670654e-01) (40, -7.98261106014251708984e-01) (41, 6.66832268238067626953e-01) (42, 1.49188208580017089844e+00) (43, -1.05325363576412200928e-01) (44, -8.09868216514587402344e-01) (45, 5.55611729621887207031e-01) (46, 5.28555333614349365234e-01) (47, 1.41294991970062255859e+00) (48, 2.17287968844175338745e-02) (49, -1.34347975254058837891e+00) (50, 4.76819761097431182861e-02) (51, 8.01993846893310546875e-01) (52, 1.50078523159027099609e+00) (53, 6.68552577495574951172e-01) (54, 3.89998890459537506104e-02) (55, 1.30360507965087890625e+00) (56, 6.51970386505126953125e-01) (57, 8.82427334785461425781e-01) (58, 1.05092728137969970703e+00) (59, 5.72619497776031494141e-01) (60, -8.08195769786834716797e-01) (61, -3.35675090551376342773e-01) (62, -7.05584228038787841797e-01) (63, -7.96198308467864990234e-01) (64, -2.95547187328338623047e-01) (65, -7.32840716838836669922e-01) (66, -8.56435392051935195923e-03) (67, -1.09062045812606811523e-01) (68, 5.82742035388946533203e-01) (69, -7.08070755004882812500e-01) (70, -2.63892412185668945312e-02) (71, 1.35698631405830383301e-01) (72, -5.10492146015167236328e-01) (73, 1.86551839113235473633e-01) (74, 1.65181368589401245117e-01) (75, -6.71195387840270996094e-01) (76, 4.36237633228302001953e-01) (77, 7.65938580036163330078e-01) (78, -6.67389929294586181641e-01) (79, 8.97444963455200195312e-01) (80, 7.23204672336578369141e-01) (81, 2.60093539953231811523e-01) (82, 5.52842855453491210938e-01) (83, 3.75234708189964294434e-02) (84, -5.39088845252990722656e-01) (85, -7.59652733802795410156e-01) (86, 1.34353172779083251953e+00) (87, -4.76625889539718627930e-01) (88, 7.93427705764770507812e-01) (89, 4.78872597217559814453e-01) (90, 1.35631704330444335938e+00) (91, 1.50049972534179687500e+00) (92, -8.70241820812225341797e-01) (93, -8.02726030349731445312e-01) (94, 3.95134799182415008545e-02) (95, -5.46179294586181640625e-01) (96, -5.10716855525970458984e-01) (97, -1.09158098697662353516e+00) (98, 2.09953948855400085449e-01) (99, 6.96366369724273681641e-01) (100, 7.93980583548545837402e-02) (101, -8.04929256439208984375e-01) (102, 3.18868488073348999023e-01) (103, 1.69120573997497558594e+00) (104, 2.52044796943664550781e+00) (0, 9.85013198852539062500e+00) (1, 7.63634920120239257812e-01) (2, 1.86332058906555175781e+00) (3, -2.88439422845840454102e-01) (4, 3.69513273239135742188e-01) (5, 4.75528192520141601562e+00) (6, 1.19576013088226318359e+00) (7, 1.39390764236450195312e+01) (8, 1.85244131088256835938e+00) (9, -1.48492619395256042480e-01) (10, 2.00970435142517089844e+00) (11, -9.17713344097137451172e-01) (12, 1.25817346572875976562e+00) (13, 1.27310931682586669922e+00) (14, 5.33422350883483886719e-01) (15, 3.54981064796447753906e-01) (16, 5.40515720844268798828e-01) (17, -2.32045873999595642090e-01) (18, -9.14889723062515258789e-02) (19, -2.15509667992591857910e-01) (20, -2.81145095825195312500e-01) (21, -1.74943745136260986328e-01) (22, -1.38676807284355163574e-01) (23, -8.77942070364952087402e-02) (24, 1.20983219146728515625e+00) (25, -3.78924518823623657227e-01) (26, 3.96288096904754638672e-01) (27, -1.16954639554023742676e-01) (28, -1.61858901381492614746e-01) (29, -5.35162091255187988281e-02) (30, -3.02817523479461669922e-01) (31, 5.29147803783416748047e-01) (32, 5.12655854225158691406e-01) (33, -6.78565725684165954590e-02) (34, 3.51608395576477050781e+00) (35, 5.12459993362426757812e-01) (36, 4.80026960372924804688e-01) (37, 4.11300778388977050781e-01) (38, -1.43333360552787780762e-01) (39, -5.79703934490680694580e-02) (40, -2.21884071826934814453e-01) (41, -5.01151800155639648438e+00) (42, 7.71591782569885253906e-01) (43, -3.96361440420150756836e-01) (44, -4.73655641078948974609e-01) (45, 1.55693221092224121094e+00) (46, 9.37363147735595703125e-01) (47, 1.15864765644073486328e+00) (48, 4.48918715119361877441e-03) (49, -2.45440527796745300293e-01) (50, -7.05591142177581787109e-02) (51, 3.66959810256958007812e-01) (52, 1.12114083766937255859e+00) (53, 1.19626009464263916016e+00) (54, -1.03806734085083007812e-01) (55, -9.89833450317382812500e+00) (56, 1.72095990180969238281e+00) (57, -2.22506961822509765625e+01) (58, 1.86250853538513183594e+00) (59, 1.06036961078643798828e+00) (60, 3.92121076583862304688e-01) (61, 7.13293433189392089844e-01) (62, 2.40637660026550292969e-01) (63, 1.17140662670135498047e+00) (64, -9.25948843359947204590e-02) (65, 1.25723433494567871094e+00) (66, 4.77690368890762329102e-01) (67, 1.50578934699296951294e-02) (68, 2.56075429916381835938e+00) (69, 6.75818979740142822266e-01) (70, 1.29832172393798828125e+00) (71, 1.29344666004180908203e+00) (72, 4.05759215354919433594e-01) (73, 6.79340064525604248047e-01) (74, -2.28721406310796737671e-02) (75, 4.81767535209655761719e-01) (76, 3.39304983615875244141e-01) (77, 1.20558285713195800781e+00) (78, 1.70017495751380920410e-01) (79, 1.57698357105255126953e+00) (80, -4.59408909082412719727e-02) (81, -2.94384658336639404297e-01) (82, 1.22258090972900390625e+00) (83, 5.12637138366699218750e-01) (84, 7.56007134914398193359e-01) (85, -1.10715538263320922852e-01) (86, 4.61309432983398437500e-01) (87, 1.23050439357757568359e+00) (88, 2.58952879905700683594e+00) (89, 1.08250570297241210938e+00) (90, 1.68200659751892089844e+00) (91, 2.53343772888183593750e+00) (92, 3.33420813083648681641e-01) (93, 6.01363658905029296875e-01) (94, 1.20381557941436767578e+00) (95, -7.67881348729133605957e-02) (96, 4.96392369270324707031e-01) (97, 4.67644482851028442383e-01) (98, 1.62571167945861816406e+00) (99, 1.76348161697387695312e+00) (100, 7.61224746704101562500e-01) (101, 1.18362700939178466797e+00) (102, 2.52529120445251464844e+00) (103, -3.63989651203155517578e-01) (104, 7.26124823093414306641e-01) (0, 9.20725524425506591797e-01) (1, 9.84109640121459960938e-01) (2, 1.16932821273803710938e+00) (3, -8.23216605931520462036e-03) (4, -6.39153301715850830078e-01) (5, 9.48799490928649902344e-01) (6, 3.62860649824142456055e-01) (7, 3.52565586566925048828e-01) (8, 1.14605641365051269531e+00) (9, -7.70422935485839843750e-01) (10, 7.41905272006988525391e-01) (11, 1.10635185241699218750e+00) (12, -5.02235829830169677734e-01) (13, -6.55858516693115234375e-01) (14, -2.78269648551940917969e-01) (15, -6.05528891086578369141e-01) (16, -1.24093607068061828613e-01) (17, 7.74551257491111755371e-02) (18, 1.53057053685188293457e-01) (19, 4.17103394865989685059e-02) (20, -1.32373183965682983398e-01) (21, 5.71846127510070800781e-01) (22, 1.44351974129676818848e-01) (23, -5.01175045967102050781e-01) (24, 2.89493829011917114258e-01) (25, 4.04276281595230102539e-01) (26, -5.35259723663330078125e-01) (27, 9.37799140810966491699e-02) (28, 1.15840040147304534912e-01) (29, -3.67178648710250854492e-01) (30, 4.64350312948226928711e-01) (31, -3.66576343774795532227e-01) (32, -1.50348544120788574219e-01) (33, -2.26184442639350891113e-01) (34, 4.15065670013427734375e+00) (35, -5.80685734748840332031e-01) (36, -4.20703470706939697266e-01) (37, -6.56425893306732177734e-01) (38, 5.74328377842903137207e-02) (39, 5.88924139738082885742e-02) (40, 3.50520342588424682617e-01) (41, 1.44644916057586669922e+00) (42, -5.28393685817718505859e-01) (43, -5.74009597301483154297e-01) (44, -5.49674689769744873047e-01) (45, -4.24353003501892089844e-01) (46, -1.31277916952967643738e-02) (47, -6.04716360569000244141e-01) (48, -5.20605683326721191406e-01) (49, 1.46069591864943504333e-02) (50, -4.91966128349304199219e-01) (51, -6.00664138793945312500e-01) (52, 1.85587182641029357910e-01) (53, -1.27845430374145507812e+00) (54, -6.27642035484313964844e-01) (55, 1.34063816070556640625e+00) (56, -3.45968335866928100586e-01) (57, 5.51277780532836914062e+00) (58, 1.96611121296882629395e-01) (59, 2.84062206745147705078e-01) (60, -6.11407637596130371094e-01) (61, -2.65782976150512695312e+00) (62, -5.44029593467712402344e-01) (63, -5.72964131832122802734e-01) (64, 6.17508828639984130859e-01) (65, -6.69118225574493408203e-01) (66, 8.37893843650817871094e-01) (67, -4.53573286533355712891e-01) (68, -2.18438893556594848633e-01) (69, 6.84513524174690246582e-02) (70, -6.68364226818084716797e-01) (71, -1.42655909061431884766e-01) (72, -5.75063884258270263672e-01) (73, 6.87320977449417114258e-02) (74, -8.36427211761474609375e-02) (75, 2.50031739473342895508e-01) (76, -7.28894919157028198242e-02) (77, 7.52547234296798706055e-02) (78, -2.83196568489074707031e-01) (79, -1.37565299868583679199e-01) (80, 3.07758897542953491211e-01) (81, 7.88178563117980957031e-01) (82, -3.03886055946350097656e-01) (83, -4.73522633314132690430e-01) (84, -5.89472986757755279541e-02) (85, -4.62579056620597839355e-02) (86, -5.54534345865249633789e-02) (87, -1.33693395182490348816e-02) (88, 2.24162483215332031250e+00) (89, -4.23259198665618896484e-01) (90, -4.79473650455474853516e-01) (91, -4.15932774543762207031e-01) (92, -7.06615209579467773438e-01) (93, -5.43690323829650878906e-02) (94, -5.82146644592285156250e-01) (95, 4.73625212907791137695e-01) (96, -5.75070440769195556641e-01) (97, 6.64070472121238708496e-02) (98, 2.84587174654006958008e-01) (99, 2.49762848019599914551e-01) (100, -5.88854134082794189453e-01) (101, -5.54113924503326416016e-01) (102, 2.74901318550109863281e+00) (103, 8.47359746694564819336e-02) (104, 2.62120580673217773438e+00) (0, -2.81113338470458984375e+01) (1, 5.46724557876586914062e-01) (2, 6.27776503562927246094e-01) (3, 4.56647038459777832031e-01) (4, -6.80473923683166503906e-01) (5, -1.04788243770599365234e+00) (6, 5.29537558555603027344e-01) (7, -8.42889547348022460938e-01) (8, -7.02696859836578369141e-01) (9, -7.68554508686065673828e-01) (10, 5.10603129863739013672e-01) (11, -1.70255020260810852051e-01) (12, -8.55402767658233642578e-01) (13, 6.02037668228149414062e-01) (14, -8.39049041271209716797e-01) (15, -8.56463491916656494141e-01) (16, -7.82981753349304199219e-01) (17, -7.15268492698669433594e-01) (18, -6.59503817558288574219e-01) (19, -7.70885884761810302734e-01) (20, -6.77225708961486816406e-01) (21, -6.39233410358428955078e-01) (22, -8.62880825996398925781e-01) (23, -1.66547521948814392090e-01) (24, 6.52405500411987304688e-01) (25, -7.77502954006195068359e-01) (26, -7.90121078491210937500e-01) (27, -7.66777694225311279297e-01) (28, -6.89637541770935058594e-01) (29, -7.02129483222961425781e-01) (30, -7.64243245124816894531e-01) (31, -2.76930868625640869141e-01) (32, -7.12237715721130371094e-01) (33, -1.65047144889831542969e+00) (34, 8.65201171875000000000e+02) (35, -8.14158678054809570312e-01) (36, -5.52483737468719482422e-01) (37, -2.39637398719787597656e+00) (38, -4.28423523902893066406e-01) (39, -2.14191102981567382812e+00) (40, -3.99056863784790039062e+00) (41, -1.50000000000000000000e+03) (42, -8.55724036693572998047e-01) (43, -6.75874412059783935547e-01) (44, -7.25511848926544189453e-01) (45, 5.44172286987304687500e-01) (46, 4.86902832984924316406e-01) (47, 5.68279623985290527344e-01) (48, -5.75712382793426513672e-01) (49, -8.85973989963531494141e-01) (50, -1.09426665306091308594e+00) (51, -3.52052420377731323242e-01) (52, 4.84461486339569091797e-01) (53, 6.47212505340576171875e-01) (54, -5.88632524013519287109e-01) (55, 7.93667459487915039062e+00) (56, 6.02560520172119140625e-01) (57, -4.41087096929550170898e-01) (58, -8.09634864330291748047e-01) (59, 5.13324618339538574219e-01) (60, -7.03860938549041748047e-01) (61, -1.95176327228546142578e+00) (62, -7.72198259830474853516e-01) (63, -7.07063198089599609375e-01) (64, -6.64051711559295654297e-01) (65, -8.28704476356506347656e-01) (66, -3.11114817857742309570e-01) (67, -5.57920104980468750000e+02) (68, 6.80914878845214843750e-01) (69, -7.30436623096466064453e-01) (70, -7.17183351516723632812e-01) (71, -7.59472489356994628906e-01) (72, -8.52344870567321777344e-01) (73, -3.70447695255279541016e-01) (74, -8.45513641834259033203e-01) (75, -8.21959257125854492188e-01) (76, -8.08376491069793701172e-01) (77, 4.94384467601776123047e-01) (78, -3.93814941406250000000e+02) (79, 5.13680577278137207031e-01) (80, -1.10730516910552978516e+00) (81, -3.72511566162109375000e+02) (82, 4.28709566593170166016e-01) (83, -8.16232740879058837891e-01) (84, -8.63717854022979736328e-01) (85, -9.76353883743286132812e-01) (86, -8.71615648269653320312e-01) (87, -7.64517605304718017578e-01) (88, 6.04353427886962890625e-01) (89, -7.19953000545501708984e-01) (90, 5.24093687534332275391e-01) (91, 5.56769728660583496094e-01) (92, -7.88541913032531738281e-01) (93, -9.51143980026245117188e-01) (94, -8.20518195629119873047e-01) (95, -7.34320640563964843750e-01) (96, -7.86536812782287597656e-01) (97, -8.11874568462371826172e-01) (98, 4.29287850856781005859e-01) (99, -7.07737207412719726562e-01) (100, -7.58654177188873291016e-01) (101, -8.04125547409057617188e-01) (102, 9.01892423629760742188e-01) (103, 1.13872468471527099609e+00) (104, 2.72482252120971679688e+00) (0, 3.13501605987548828125e+01) (1, 1.14006102085113525391e-01) (2, 2.26476788520812988281e+00) (3, 5.97905039787292480469e-01) (4, 1.60018801689147949219e-01) (5, -1.58572566509246826172e+00) (6, 1.57992824912071228027e-01) (7, -6.64056110382080078125e+00) (8, 8.57697874307632446289e-02) (9, 2.07807064056396484375e-01) (10, 1.45198071002960205078e+00) (11, -1.03634095191955566406e+00) (12, 2.04510927200317382812e-01) (13, 1.05943334102630615234e+00) (14, 1.96658909320831298828e-01) (15, 7.06639623641967773438e+00) (16, 4.27153205871582031250e+00) (17, 1.43088805675506591797e+00) (18, 1.32347321510314941406e+00) (19, -7.30830013751983642578e-01) (20, -7.12919330596923828125e+00) (21, 1.28610157966613769531e+00) (22, 1.46714210510253906250e+00) (23, -9.73642706871032714844e-01) (24, -1.35643005371093750000e+00) (25, 3.72207760810852050781e-01) (26, 1.75847008824348449707e-01) (27, 1.22146701812744140625e+00) (28, 2.02481940388679504395e-01) (29, -3.09912972152233123779e-02) (30, -7.64176726341247558594e-01) (31, 1.03018708527088165283e-01) (32, -7.05774843692779541016e-01) (33, 2.67224401235580444336e-01) (34, -3.56158876419067382812e+00) (35, 1.46432548761367797852e-01) (36, -2.00280499458312988281e+00) (37, -4.54425483942031860352e-01) (38, -6.64470016956329345703e-01) (39, -7.67617344856262207031e-01) (40, -6.29921972751617431641e-01) (41, -9.46346664428710937500e+00) (42, -6.45134687423706054688e-01) (43, -7.13350713253021240234e-01) (44, -5.82649469375610351562e-01) (45, 2.34964355826377868652e-01) (46, -1.20419430732727050781e+00) (47, -5.70213854312896728516e-01) (48, 1.10110569000244140625e+00) (49, 6.18340894579887390137e-02) (50, 9.72758889198303222656e-01) (51, 1.19230292737483978271e-01) (52, -6.04601204395294189453e-01) (53, -6.89351737499237060547e-01) (54, 1.34109959006309509277e-01) (55, 1.03277719020843505859e+00) (56, -4.86603647470474243164e-01) (57, 1.64535582065582275391e-01) (58, 1.23075507581233978271e-01) (59, -1.48919057846069335938e+00) (60, 1.21123218536376953125e+00) (61, 2.33445852994918823242e-01) (62, 2.66860038042068481445e-01) (63, 1.22734427452087402344e+00) (64, 1.55652427673339843750e+00) (65, 1.15225183963775634766e+00) (66, 1.18206024169921875000e+00) (67, 1.07081115245819091797e+00) (68, 1.58461213111877441406e-01) (69, 5.27733862400054931641e-01) (70, 1.21309220790863037109e+00) (71, 1.13378691673278808594e+00) (72, 1.14710831642150878906e+00) (73, 2.04659819602966308594e-01) (74, 9.19457152485847473145e-02) (75, -5.51747441291809082031e-01) (76, -6.13079369068145751953e-01) (77, 1.12957203388214111328e+00) (78, 1.49552345275878906250e-01) (79, -6.54175937175750732422e-01) (80, 2.00859069824218750000e-01) (81, 1.04037690162658691406e+00) (82, -6.75172507762908935547e-01) (83, 2.39694595336914062500e-01) (84, 1.21893966197967529297e+00) (85, -6.03410720825195312500e-01) (86, 1.20364642143249511719e+00) (87, 2.46002346277236938477e-01) (88, 9.42599654197692871094e-01) (89, 2.35162809491157531738e-01) (90, 9.40613374114036560059e-02) (91, 1.68491199612617492676e-01) (92, -5.02365887165069580078e-01) (93, 9.66107368469238281250e-01) (94, 3.40989947319030761719e-01) (95, 4.76335525512695312500e-01) (96, 2.14610949158668518066e-01) (97, 1.93232178688049316406e-01) (98, 1.89220950007438659668e-01) (99, 2.06412315368652343750e-01) (100, 3.18053185939788818359e-01) (101, 2.58364021778106689453e-01) (102, 1.37242162227630615234e+00) (103, 9.34114217758178710938e-01) (104, 1.61580336093902587891e+00) (0, -8.33604240417480468750e+00) (1, 3.33346724510192871094e+00) (2, 1.56234681606292724609e+00) (3, 2.59736120700836181641e-01) (4, -2.32774734497070312500e+00) (5, -2.20553827285766601562e+00) (6, 1.61896717548370361328e+00) (7, -2.05003380775451660156e+00) (8, 4.29519271850585937500e+00) (9, 3.54154556989669799805e-01) (10, -5.90959310531616210938e-01) (11, 1.12410891056060791016e+00) (12, -1.92682969570159912109e+00) (13, 7.91933774948120117188e-01) (14, 1.59552469849586486816e-01) (15, 1.02681434154510498047e+00) (16, 1.49237442016601562500e+00) (17, 1.13945949077606201172e+00) (18, 9.35091257095336914062e-01) (19, 3.92874568700790405273e-01) (20, -2.85363984107971191406e+00) (21, 1.58331084251403808594e+00) (22, 4.17119646072387695312e+00) (23, 1.43737721443176269531e+00) (24, 2.68812131881713867188e+00) (25, -4.30046033859252929688e+00) (26, 4.62159305810928344727e-01) (27, -2.38014906644821166992e-01) (28, -9.48435604572296142578e-01) (29, 6.45379066467285156250e-01) (30, 5.54340600967407226562e-01) (31, 8.35375070571899414062e-01) (32, -4.05028438568115234375e+00) (33, 1.23617184162139892578e+00) (34, 9.62742745876312255859e-01) (35, 8.07683885097503662109e-01) (36, 8.79208981990814208984e-01) (37, -5.09687304496765136719e-01) (38, -1.10238039493560791016e+00) (39, -5.63206851482391357422e-01) (40, -1.38208401203155517578e+00) (41, -3.93760895729064941406e+00) (42, -4.25785690546035766602e-01) (43, -3.57144206762313842773e-01) (44, -1.60752141475677490234e+00) (45, 4.75205570459365844727e-01) (46, 1.33194342255592346191e-01) (47, -2.80755072832107543945e-01) (48, 1.89542576670646667480e-01) (49, 8.28417018055915832520e-02) (50, -9.29222524166107177734e-01) (51, -2.59458452463150024414e-01) (52, -4.28574413061141967773e-01) (53, -1.10660934448242187500e+00) (54, -2.28931084275245666504e-01) (55, 1.93692699074745178223e-01) (56, 5.67715149372816085815e-04) (57, -7.12282538414001464844e-01) (58, 1.33707904815673828125e+00) (59, -2.99961358308792114258e-01) (60, 1.15171658992767333984e+00) (61, 7.89638698101043701172e-01) (62, 3.96243959665298461914e-01) (63, -3.85832309722900390625e-01) (64, 8.68302643299102783203e-01) (65, -3.09238433837890625000e-01) (66, -3.14801670610904693604e-02) (67, 7.65739262104034423828e-01) (68, -6.23572543263435363770e-02) (69, -3.11508104205131530762e-02) (70, -2.33021825551986694336e-01) (71, 4.62037473917007446289e-01) (72, 1.16700625419616699219e+00) (73, 1.39084565639495849609e+00) (74, 5.51839828491210937500e-01) (75, -6.65619596838951110840e-02) (76, -4.58636552095413208008e-01) (77, 5.55698871612548828125e-01) (78, 4.19618636369705200195e-01) (79, 6.49666547775268554688e-01) (80, 2.92569518089294433594e-01) (81, 3.44316691160202026367e-01) (82, 5.61775088310241699219e-01) (83, 3.43516439199447631836e-01) (84, 3.48046630620956420898e-01) (85, 3.76100450754165649414e-01) (86, 3.08349251747131347656e-01) (87, 3.06982874870300292969e-01) (88, -3.06335449218750000000e-01) (89, 4.03686612844467163086e-01) (90, 5.01346409320831298828e-01) (91, -3.34804654121398925781e-01) (92, 4.47969436645507812500e-01) (93, 4.69470649957656860352e-01) (94, 3.12459796667098999023e-01) (95, 4.57693606615066528320e-01) (96, 4.36724871397018432617e-02) (97, 4.37774628400802612305e-01) (98, -2.53386378288269042969e-01) (99, 4.44942027330398559570e-01) (100, 1.58914569765329360962e-02) (101, -2.71552324295043945312e-01) (102, 4.88759565353393554688e+00) (103, -1.24845540523529052734e+00) (104, 1.93491983413696289062e+00) (0, 1.21847152709960937500e+00) (1, 1.25828683376312255859e+00) (2, 1.15649461746215820312e+00) (3, -2.48373597860336303711e-01) (4, -5.85752487182617187500e-01) (5, -6.24331235885620117188e-01) (6, -9.47750866413116455078e-01) (7, 4.91633772850036621094e-01) (8, -2.32976961135864257812e+00) (9, -1.40412718057632446289e-01) (10, 7.26952791213989257812e-01) (11, 4.38800036907196044922e-01) (12, -6.83010399341583251953e-01) (13, 8.02921533584594726562e-01) (14, 6.03549599647521972656e-01) (15, -3.49528044462203979492e-01) (16, 5.33167219161987304688e+00) (17, -4.40874159336090087891e-01) (18, 1.29287755489349365234e+00) (19, -9.02810990810394287109e-01) (20, 1.91309702396392822266e+00) (21, 2.50531721115112304688e+00) (22, -9.44840252399444580078e-01) (23, -1.96061837673187255859e+00) (24, 1.64314711093902587891e+00) (25, 1.08528912067413330078e+00) (26, 5.15138506889343261719e-01) (27, -1.35647654533386230469e-01) (28, -2.47493124008178710938e+00) (29, -1.31003153324127197266e+00) (30, -6.37926340103149414062e-01) (31, 2.71296530961990356445e-01) (32, -9.00328576564788818359e-01) (33, 3.73117208480834960938e-01) (34, -7.04407274723052978516e-01) (35, 1.49270582199096679688e+00) (36, 1.70801842212677001953e+00) (37, 5.31922429800033569336e-02) (38, 1.33054423332214355469e+00) (39, 4.72692340612411499023e-01) (40, 2.94671964645385742188e+00) (41, -3.28767395019531250000e+00) (42, 1.49663329124450683594e+00) (43, -1.82703328132629394531e+00) (44, 1.51767945289611816406e+00) (45, -2.19724607467651367188e+00) (46, -9.04249787330627441406e-01) (47, -2.16730451583862304688e+00) (48, 3.35351634025573730469e+00) (49, 9.27586197853088378906e-01) (50, -6.07479751110076904297e-01) (51, -5.86865007877349853516e-01) (52, -1.13200795650482177734e+00) (53, 2.40315175056457519531e+00) (54, 1.46680951118469238281e+00) (55, -2.62464332580566406250e+00) (56, -3.38528066873550415039e-01) (57, 8.44349741935729980469e-01) (58, 5.99286735057830810547e-01) (59, 4.08044636249542236328e-01) (60, 5.35187404602766036987e-03) (61, 1.34054446220397949219e+00) (62, 7.33574330806732177734e-01) (63, 2.68210291862487792969e-01) (64, 7.48458504676818847656e-01) (65, 1.94974631071090698242e-01) (66, -7.76792347431182861328e-01) (67, 2.72371441125869750977e-01) (68, 1.60373263061046600342e-02) (69, -8.66075158119201660156e-01) (70, 6.88145518302917480469e-01) (71, 3.42903971672058105469e-01) (72, 3.45926344394683837891e-01) (73, -5.28339743614196777344e-01) (74, 1.72453737258911132812e+00) (75, 5.50077497959136962891e-01) (76, 5.33461391925811767578e-01) (77, -7.01692104339599609375e-02) (78, -4.71500784158706665039e-01) (79, -1.20652222633361816406e+00) (80, -2.49798983335494995117e-01) (81, 1.25847005844116210938e+00) (82, 1.23801350593566894531e-01) (83, -5.11055707931518554688e-01) (84, -6.67158842086791992188e-01) (85, -5.45645833015441894531e-01) (86, -4.57402855157852172852e-01) (87, -2.46140118688344955444e-02) (88, 4.42496538162231445312e-01) (89, -2.28871494531631469727e-01) (90, 1.18014961481094360352e-02) (91, -8.97580385208129882812e-02) (92, -9.00957465171813964844e-01) (93, 2.01518177986145019531e-01) (94, -4.64739233255386352539e-01) (95, -9.22219693660736083984e-01) (96, -7.22800493240356445312e-01) (97, -8.90615344047546386719e-01) (98, -2.77461320161819458008e-01) (99, -9.13577675819396972656e-01) (100, -8.75959932804107666016e-01) (101, 1.33778405189514160156e+00) (102, 4.86701059341430664062e+00) (103, -1.18835723400115966797e+00) (104, 1.88878834247589111328e+00) (0, 2.29644470214843750000e+01) (1, 8.41624677181243896484e-01) (2, 1.37473118305206298828e+00) (3, 1.22718441486358642578e+00) (4, 3.86452198028564453125e-01) (5, 1.09918129444122314453e+00) (6, 8.60603570938110351562e-01) (7, 1.13026201725006103516e+00) (8, 2.90485787391662597656e+00) (9, 1.00925695896148681641e+00) (10, 1.38896977901458740234e+00) (11, 4.88827079534530639648e-01) (12, 2.87037223577499389648e-01) (13, 4.83031123876571655273e-01) (14, 4.46236521005630493164e-01) (15, 6.30284786224365234375e-01) (16, 3.97494167089462280273e-01) (17, 4.00322556495666503906e-01) (18, 9.92001712322235107422e-01) (19, 1.00027406215667724609e+00) (20, 3.61650586128234863281e-01) (21, 8.70645761489868164062e-01) (22, 1.02330493927001953125e+00) (23, 3.98433983325958251953e-01) (24, 1.21292006969451904297e+00) (25, 6.27388596534729003906e-01) (26, 3.73347997665405273438e-01) (27, 8.95776033401489257812e-01) (28, 1.02284693717956542969e+00) (29, 4.92296606302261352539e-01) (30, 8.94533693790435791016e-01) (31, 2.76832312345504760742e-01) (32, 9.37812745571136474609e-01) (33, 6.69547855854034423828e-01) (34, -5.72807846069335937500e+01) (35, 4.03242617845535278320e-01) (36, 3.13814342021942138672e-01) (37, 9.35552835464477539062e-01) (38, 1.04465711116790771484e+00) (39, 8.74832391738891601562e-01) (40, 9.99830722808837890625e-01) (41, 1.66910994052886962891e+00) (42, 8.53555738925933837891e-01) (43, 7.93983280658721923828e-01) (44, 5.44307410717010498047e-01) (45, 5.47562479972839355469e-01) (46, 1.00071406364440917969e+00) (47, 8.82101476192474365234e-01) (48, 2.30407789349555969238e-01) (49, 9.82053220272064208984e-01) (50, 2.30567350983619689941e-01) (51, 2.31476351618766784668e-01) (52, 1.14930748939514160156e+00) (53, 5.59668064117431640625e-01) (54, 4.25652801990509033203e-01) (55, 1.40899896621704101562e+00) (56, 4.86444771289825439453e-01) (57, 2.17502808570861816406e+00) (58, 1.31514334678649902344e+00) (59, 1.22665607929229736328e+00) (60, 2.97113150358200073242e-01) (61, 7.08051502704620361328e-01) (62, 4.35105890035629272461e-01) (63, 3.11727076768875122070e-01) (64, 1.42952942848205566406e+00) (65, 3.51130753755569458008e-01) (66, 6.32299125194549560547e-01) (67, 4.00420761108398437500e+00) (68, 6.18821322917938232422e-01) (69, 1.57109427452087402344e+00) (70, 5.30850291252136230469e-01) (71, 5.93071997165679931641e-01) (72, 3.24090689420700073242e-01) (73, 5.29072880744934082031e-01) (74, 3.78102809190750122070e-01) (75, 9.51249480247497558594e-01) (76, 2.65187799930572509766e-01) (77, 5.01387238502502441406e-01) (78, 5.34776210784912109375e+00) (79, 5.93226909637451171875e-01) (80, 3.94617289304733276367e-01) (81, 8.61452770233154296875e+00) (82, 7.12803363800048828125e-01) (83, 3.49826127290725708008e-01) (84, 7.84762561321258544922e-01) (85, 7.92551159858703613281e-01) (86, 3.89062613248825073242e-01) (87, 8.72526347637176513672e-01) (88, 4.59761679172515869141e-01) (89, 3.37501764297485351562e-01) (90, 6.97133660316467285156e-01) (91, 4.79928821325302124023e-01) (92, 3.45091223716735839844e-01) (93, 1.30417442321777343750e+00) (94, 3.54388892650604248047e-01) (95, 3.10926496982574462891e-01) (96, 3.19036066532135009766e-01) (97, 2.27251574397087097168e-01) (98, 1.10444700717926025391e+00) (99, 1.24774014949798583984e+00) (100, 4.14947867393493652344e-01) (101, 4.20233786106109619141e-01) (102, 2.37129449844360351562e+00) (103, 3.20169329643249511719e-01) (104, 1.55867373943328857422e+00) (0, 1.66257743835449218750e+01) (1, 1.86429417133331298828e+00) (2, 1.51837086677551269531e+00) (3, 4.99692261219024658203e-01) (4, 3.54271799325942993164e-01) (5, 5.95132052898406982422e-01) (6, 1.46829342842102050781e+00) (7, 1.42551332712173461914e-01) (8, 2.03852748870849609375e+00) (9, 1.01275518536567687988e-01) (10, 1.36450874805450439453e+00) (11, 5.05757033824920654297e-01) (12, 7.98472285270690917969e-01) (13, 1.71155750751495361328e+00) (14, 7.56240546703338623047e-01) (15, 7.85172641277313232422e-01) (16, 8.91702473163604736328e-01) (17, 2.28234574198722839355e-01) (18, 2.36533522605895996094e-01) (19, 1.00853987038135528564e-01) (20, 8.13747286796569824219e-01) (21, 1.53770849108695983887e-01) (22, 6.55367821455001831055e-02) (23, 8.86719584465026855469e-01) (24, 1.39920449256896972656e+00) (25, 9.90349426865577697754e-02) (26, 8.44824552536010742188e-01) (27, 8.27357470989227294922e-02) (28, 8.58760848641395568848e-02) (29, 9.29085552692413330078e-01) (30, 1.47544473409652709961e-01) (31, 7.22568154335021972656e-01) (32, 2.36291125416755676270e-01) (33, 7.80287384986877441406e-01) (34, 4.03543205261230468750e+01) (35, 7.25242912769317626953e-01) (36, 7.73994445800781250000e-01) (37, 8.54233920574188232422e-01) (38, 1.45590707659721374512e-01) (39, 1.21532946825027465820e-01) (40, 2.04978018999099731445e-01) (41, -7.71663904190063476562e+00) (42, 8.04032206535339355469e-01) (43, 6.85926854610443115234e-01) (44, 8.93435060977935791016e-01) (45, 2.14381480216979980469e+00) (46, 2.40696024894714355469e+00) (47, 2.06505751609802246094e+00) (48, 2.49659180641174316406e-01) (49, 7.73622930049896240234e-01) (50, 8.12947988510131835938e-01) (51, 7.42287337779998779297e-01) (52, 2.00755119323730468750e+00) (53, 1.61755776405334472656e+00) (54, 3.13087821006774902344e-01) (55, -2.51422572135925292969e+00) (56, 2.16718554496765136719e+00) (57, -2.05438041687011718750e+01) (58, 1.46410739421844482422e+00) (59, 1.49273335933685302734e+00) (60, 7.78046011924743652344e-01) (61, 1.10357713699340820312e+00) (62, 8.36839377880096435547e-01) (63, 1.19426715373992919922e+00) (64, 2.93610095977783203125e-01) (65, 1.37178039550781250000e+00) (66, 2.66842663288116455078e-01) (67, 3.49602043628692626953e-01) (68, 2.76544356346130371094e+00) (69, 5.95655560493469238281e-01) (70, 1.34890961647033691406e+00) (71, 1.28826189041137695312e+00) (72, 7.98203825950622558594e-01) (73, 9.45991277694702148438e-01) (74, 8.32091510295867919922e-01) (75, 8.28625038266181945801e-02) (76, 2.02477931976318359375e-01) (77, 2.13285493850708007812e+00) (78, -1.80448651313781738281e+00) (79, 1.39931178092956542969e+00) (80, 1.46427974104881286621e-01) (81, -5.82704734802246093750e+00) (82, 8.47148120403289794922e-01) (83, 7.40167558193206787109e-01) (84, 1.25881826877593994141e+00) (85, 2.54797875881195068359e-01) (86, 8.58473300933837890625e-01) (87, 1.32254493236541748047e+00) (88, 1.96326041221618652344e+00) (89, 8.34139585494995117188e-01) (90, 2.09962630271911621094e+00) (91, 2.45775461196899414062e+00) (92, 8.19893360137939453125e-01) (93, 8.10473382472991943359e-01) (94, 1.20968592166900634766e+00) (95, 7.51756012439727783203e-01) (96, 4.58456158638000488281e-01) (97, 5.58120496571063995361e-02) (98, 1.56843101978302001953e+00) (99, 1.31105756759643554688e+00) (100, 2.84371256828308105469e-01) (101, 1.27638733386993408203e+00) (102, 2.46656727790832519531e+00) (103, -3.40225338935852050781e-01) (104, 7.11396813392639160156e-01) (0, 6.06589965820312500000e+01) (1, 7.46522009372711181641e-01) (2, 8.75882387161254882812e-01) (3, 1.03993391990661621094e+00) (4, 7.74499118328094482422e-01) (5, 1.19654834270477294922e+00) (6, 9.93778347969055175781e-01) (7, 1.00285577774047851562e+00) (8, 8.61572802066802978516e-01) (9, 2.32994842529296875000e+00) (10, 8.81749033927917480469e-01) (11, 1.88114643096923828125e+01) (12, 2.06920480728149414062e+00) (13, 7.59844779968261718750e-01) (14, 2.11258411407470703125e+00) (15, 2.08259606361389160156e+00) (16, 2.12208628654479980469e+00) (17, 2.15889167785644531250e+00) (18, 2.16566920280456542969e+00) (19, 2.24862098693847656250e+00) (20, 2.01928067207336425781e+00) (21, 2.08015823364257812500e+00) (22, 2.12668180465698242188e+00) (23, 2.14326167106628417969e+00) (24, 9.49413299560546875000e-01) (25, 2.12897610664367675781e+00) (26, 2.00935959815979003906e+00) (27, 2.19133043289184570312e+00) (28, 2.28295230865478515625e+00) (29, 2.12561917304992675781e+00) (30, 9.63974177837371826172e-01) (31, 2.11035704612731933594e+00) (32, 9.37429547309875488281e-01) (33, 2.05509924888610839844e+00) (34, -1.61950408935546875000e+02) (35, 2.02941060066223144531e+00) (36, 2.04577183723449707031e+00) (37, 2.16139578819274902344e+00) (38, 2.26160502433776855469e+00) (39, 2.20289397239685058594e+00) (40, 1.36508929729461669922e+00) (41, 1.50000000000000000000e+03) (42, 8.19068014621734619141e-01) (43, 2.09169292449951171875e+00) (44, 2.02208852767944335938e+00) (45, 8.73800277709960937500e-01) (46, 8.50112795829772949219e-01) (47, 7.32951879501342773438e-01) (48, 2.10724496841430664062e+00) (49, 2.18067932128906250000e+00) (50, 2.11649465560913085938e+00) (51, 2.05855894088745117188e+00) (52, 8.41474056243896484375e-01) (53, 6.76103472709655761719e-01) (54, 2.18406605720520019531e+00) (55, 6.40630340576171875000e+00) (56, 7.50221133232116699219e-01) (57, 5.45915756225585937500e+01) (58, 2.14764046669006347656e+00) (59, 2.03072667121887207031e+00) (60, 8.91376137733459472656e-01) (61, 2.06230759620666503906e+00) (62, 2.10476994514465332031e+00) (63, 2.10917830467224121094e+00) (64, 2.05209851264953613281e+00) (65, 2.05472850799560546875e+00) (66, 1.85342013835906982422e+00) (67, 2.34091210365295410156e+00) (68, 5.85901975631713867188e-01) (69, 2.08865690231323242188e+00) (70, 2.12530541419982910156e+00) (71, 2.17138528823852539062e+00) (72, 2.07514739036560058594e+00) (73, 1.95434796810150146484e+00) (74, 2.11768007278442382812e+00) (75, 2.14707589149475097656e+00) (76, 2.03717112541198730469e+00) (77, 6.66648507118225097656e-01) (78, 1.50000000000000000000e+03) (79, 6.51610374450683593750e-01) (80, 2.55758190155029296875e+00) (81, 1.50000000000000000000e+03) (82, 7.54619061946868896484e-01) (83, 2.12498116493225097656e+00) (84, 2.00728559494018554688e+00) (85, 2.05602502822875976562e+00) (86, 7.98806309700012207031e-01) (87, 2.01190829277038574219e+00) (88, 6.83923184871673583984e-01) (89, 2.01253032684326171875e+00) (90, 7.37906813621520996094e-01) (91, 7.96652078628540039062e-01) (92, 2.19566082954406738281e+00) (93, 2.06705784797668457031e+00) (94, 2.14962148666381835938e+00) (95, 2.08613395690917968750e+00) (96, 2.16317558288574218750e+00) (97, 8.01675438880920410156e-01) (98, 9.65780735015869140625e-01) (99, 8.18998396396636962891e-01) (100, 2.00738739967346191406e+00) (101, 2.05930590629577636719e+00) (102, 8.95017683506011962891e-01) (103, 1.28586411476135253906e+00) (104, -2.14884877204895019531e-01) (0, 1.94996520876884460449e-01) (1, 8.99552583694458007812e-01) (2, -1.15201167762279510498e-01) (3, -9.04681861400604248047e-01) (4, 3.49819093942642211914e-01) (5, 1.98287630081176757812e+00) (6, 7.41816461086273193359e-01) (7, 2.78664054870605468750e+01) (8, 4.78587716817855834961e-01) (9, 1.07403290271759033203e+00) (10, 1.25629520416259765625e+01) (11, 2.45395641326904296875e+01) (12, 1.18680262565612792969e+00) (13, 7.21302080154418945312e+00) (14, 1.29965555667877197266e+00) (15, 1.18405115604400634766e+00) (16, 7.23235177993774414062e+00) (17, 2.94854593276977539062e+00) (18, 1.23517215251922607422e+00) (19, 1.40856742858886718750e+00) (20, 3.54987549781799316406e+00) (21, 1.52397346496582031250e+00) (22, 1.41315519809722900391e+00) (23, 9.87283170223236083984e-01) (24, 6.78358173370361328125e+00) (25, 2.83935451507568359375e+00) (26, 1.25101983547210693359e+00) (27, 1.24183011054992675781e+00) (28, 2.30516925454139709473e-01) (29, 1.74432110786437988281e+00) (30, 5.39590835571289062500e-01) (31, 4.59454804658889770508e-01) (32, 1.06085807085037231445e-01) (33, -5.00615775585174560547e-01) (34, 1.16843640804290771484e-01) (35, -3.99865865707397460938e-01) (36, -4.67009425163269042969e-01) (37, -2.63594418764114379883e-01) (38, 1.68977633118629455566e-01) (39, 1.35308519005775451660e-01) (40, -4.50446873903274536133e-01) (41, 3.02558809518814086914e-01) (42, 2.25805327296257019043e-01) (43, 1.55722773075103759766e+00) (44, 5.98610699176788330078e-01) (45, 2.41766929626464843750e+00) (46, -1.89049899578094482422e-01) (47, -2.26578310132026672363e-01) (48, 3.73251169919967651367e-01) (49, 1.56167507171630859375e-01) (50, -2.10191115736961364746e-01) (51, -3.33719760179519653320e-01) (52, -1.86313062906265258789e-01) (53, -2.80449599027633666992e-01) (54, 4.11686509847640991211e-01) (55, 5.90039610862731933594e-01) (56, -5.15046358108520507812e-01) (57, 1.75311416387557983398e-01) (58, -3.42706412076950073242e-01) (59, -6.70708075631409883499e-04) (60, -4.62088793516159057617e-01) (61, 2.10231751203536987305e-01) (62, -3.54044109582901000977e-01) (63, -1.45618636161088943481e-02) (64, 1.30272936820983886719e+00) (65, -4.46383506059646606445e-01) (66, 4.49358552694320678711e-01) (67, 4.76325899362564086914e-01) (68, -3.29813390970230102539e-01) (69, 5.47718286514282226562e-01) (70, -4.69460904598236083984e-01) (71, -4.64114457368850708008e-01) (72, -3.30000519752502441406e-01) (73, 5.37911236286163330078e-01) (74, -3.48988115787506103516e-01) (75, -1.02858409285545349121e-01) (76, -4.60172027349472045898e-01) (77, -3.83946478366851806641e-01) (78, 3.36047500371932983398e-01) (79, 5.41695594787597656250e-01) (80, 2.04674765467643737793e-01) (81, 8.87121021747589111328e-01) (82, 5.37145853042602539062e-01) (83, 3.10235500335693359375e-01) (84, -4.09760862588882446289e-01) (85, 3.90500813722610473633e-01) (86, -5.45741558074951171875e-01) (87, -4.50225025415420532227e-01) (88, -1.94890603423118591309e-01) (89, -2.47508227825164794922e-01) (90, -1.74870759248733520508e-01) (91, -2.53451377153396606445e-01) (92, -5.55454134941101074219e-01) (93, -3.37568163871765136719e-01) (94, -3.82100284099578857422e-01) (95, -5.84439218044281005859e-01) (96, -4.77557301521301269531e-01) (97, -2.77493685483932495117e-01) (98, -2.42186218500137329102e-01) (99, -1.27793788909912109375e-01) (100, -4.56791132688522338867e-01) (101, -4.49739843606948852539e-01) (102, 4.79007816314697265625e+00) (103, -1.17286884784698486328e+00) (104, 2.43905878067016601562e+00) (0, -1.74147186279296875000e+01) (1, -8.94452780485153198242e-02) (2, -1.06289438903331756592e-01) (3, 1.33718788623809814453e+00) (4, 1.09951758384704589844e+00) (5, 1.41058754920959472656e+00) (6, -7.17502385377883911133e-02) (7, 1.53298735618591308594e+00) (8, -3.23663175106048583984e-01) (9, 1.16946792602539062500e+00) (10, 1.28546130657196044922e+00) (11, 3.76095080375671386719e+00) (12, 1.13904702663421630859e+00) (13, 2.30010285973548889160e-01) (14, 1.14080882072448730469e+00) (15, 1.17913782596588134766e+00) (16, 1.10860657691955566406e+00) (17, 1.17799055576324462891e+00) (18, 1.25732409954071044922e+00) (19, 1.17547762393951416016e+00) (20, 1.04171490669250488281e+00) (21, 1.26429033279418945312e+00) (22, 1.18519353866577148438e+00) (23, 1.14701771736145019531e+00) (24, 1.29420185089111328125e+00) (25, 1.28770267963409423828e+00) (26, 1.17249405384063720703e+00) (27, 1.18651998043060302734e+00) (28, 1.28437244892120361328e+00) (29, 1.06962466239929199219e+00) (30, 1.22564947605133056641e+00) (31, 1.16411435604095458984e+00) (32, 1.17232429981231689453e+00) (33, 1.10072588920593261719e+00) (34, -1.30594635009765625000e+02) (35, 1.03597009181976318359e+00) (36, 1.17547476291656494141e+00) (37, 1.08179771900177001953e+00) (38, 1.15382575988769531250e+00) (39, 1.20264172554016113281e+00) (40, 1.20871007442474365234e+00) (41, 1.49955603027343750000e+03) (42, 1.17269241809844970703e+00) (43, 1.04278147220611572266e+00) (44, 1.11306989192962646484e+00) (45, 1.03084945678710937500e+00) (46, -2.13402837514877319336e-01) (47, -2.34150275588035583496e-01) (48, 9.65747535228729248047e-01) (49, 1.09301793575286865234e+00) (50, 1.04654896259307861328e+00) (51, 1.08034765720367431641e+00) (52, -2.18344077467918395996e-01) (53, -2.27087959647178649902e-01) (54, 1.05113339424133300781e+00) (55, 6.94877922534942626953e-01) (56, -1.67941316962242126465e-01) (57, 7.20912094116210937500e+01) (58, 1.32497894763946533203e+00) (59, 1.31676125526428222656e+00) (60, 9.97264325618743896484e-01) (61, 9.54161822795867919922e-01) (62, 1.18670678138732910156e+00) (63, 1.18769645690917968750e+00) (64, 1.25717329978942871094e+00) (65, 1.06815755367279052734e+00) (66, 9.25962030887603759766e-01) (67, 1.29460883140563964844e+00) (68, -3.40723425149917602539e-01) (69, 1.18602514266967773438e+00) (70, 1.10129630565643310547e+00) (71, 1.19305312633514404297e+00) (72, 1.08510148525238037109e+00) (73, 1.09641778469085693359e+00) (74, 1.13890361785888671875e+00) (75, 1.25345742702484130859e+00) (76, 1.16491758823394775391e+00) (77, -2.74991750717163085938e-01) (78, 1.49948815917968750000e+03) (79, -2.46689334511756896973e-01) (80, 1.23345398902893066406e+00) (81, 1.15759472656250000000e+03) (82, -2.43640676140785217285e-01) (83, 1.06278765201568603516e+00) (84, 1.10353875160217285156e+00) (85, 1.09519565105438232422e+00) (86, 9.84785616397857666016e-01) (87, 1.16355836391448974609e+00) (88, -3.02773237228393554688e-01) (89, 1.19787311553955078125e+00) (90, -2.71226346492767333984e-01) (91, -2.96891868114471435547e-01) (92, 1.05314898490905761719e+00) (93, 1.10152816772460937500e+00) (94, 1.00313699245452880859e+00) (95, 1.12276363372802734375e+00) (96, 1.06560254096984863281e+00) (97, 1.18400526046752929688e+00) (98, 1.19288337230682373047e+00) (99, 1.20751619338989257812e+00) (100, 1.03826296329498291016e+00) (101, 1.04179298877716064453e+00) (102, 9.18507039546966552734e-01) (103, 1.12194836139678955078e+00) (104, 8.21149110794067382812e-01) (0, -7.92755544185638427734e-01) (1, -8.54081809520721435547e-02) (2, -1.78047895431518554688e-01) (3, -7.41836801171302795410e-02) (4, -1.03201664984226226807e-01) (5, -7.32223033905029296875e-01) (6, -5.21694049239158630371e-02) (7, -3.63100528717041015625e-01) (8, -1.33213663101196289062e+00) (9, 7.68297687172889709473e-02) (10, -2.75774866342544555664e-01) (11, 1.69507169723510742188e+00) (12, -1.20106764137744903564e-01) (13, 3.74443984031677246094e+00) (14, -1.06234066188335418701e-01) (15, 1.78058460354804992676e-01) (16, -2.90740877389907836914e-01) (17, -7.68414378166198730469e-01) (18, -7.97789037227630615234e-01) (19, 3.29093411564826965332e-02) (20, -4.16525363922119140625e-01) (21, -6.55525743961334228516e-01) (22, -7.13461399078369140625e-01) (23, -7.48580932617187500000e-01) (24, -2.25664466619491577148e-01) (25, -7.56419360637664794922e-01) (26, 5.80789968371391296387e-02) (27, 3.71288716793060302734e-01) (28, 2.49229013919830322266e-01) (29, -8.52820798754692077637e-02) (30, -3.07206690311431884766e-01) (31, 4.40125307068228721619e-03) (32, 7.97374360263347625732e-03) (33, 4.29480820894241333008e-02) (34, 1.58097493648529052734e+00) (35, -5.88478088378906250000e-01) (36, -7.46114194393157958984e-01) (37, -6.31988704204559326172e-01) (38, 8.76459293067455291748e-03) (39, -3.10778040438890457153e-02) (40, -3.88864101842045783997e-03) (41, 9.11853015422821044922e-01) (42, 4.32738184928894042969e-01) (43, 1.36366814374923706055e-01) (44, 8.25830399990081787109e-01) (45, 4.41448062658309936523e-01) (46, 2.78298997879028320312e+00) (47, 3.43240588903427124023e-01) (48, 6.04384616017341613770e-02) (49, 6.95146620273590087891e-02) (50, 9.00323018431663513184e-02) (51, 7.48573482036590576172e-01) (52, 4.76748526096343994141e-01) (53, 4.88601505756378173828e-01) (54, -1.06956241652369499207e-02) (55, 5.70973575115203857422e-01) (56, 1.74545848369598388672e+00) (57, 5.46610057353973388672e-01) (58, 1.37143206596374511719e+00) (59, 2.51302212476730346680e-01) (60, 1.11131668090820312500e+00) (61, -4.70127314329147338867e-02) (62, -6.43617033958435058594e-01) (63, 5.34284710884094238281e-01) (64, 1.32459545135498046875e+00) (65, -6.87691289931535720825e-03) (66, 3.81134748458862304688e+00) (67, 7.88083910942077636719e-01) (68, 1.25464046001434326172e+00) (69, -3.19557227194309234619e-02) (70, 7.39776134490966796875e-01) (71, 7.61744678020477294922e-02) (72, 6.80223643779754638672e-01) (73, -3.89334380626678466797e-01) (74, 3.41240793466567993164e-01) (75, 1.94806590676307678223e-01) (76, 1.27661240100860595703e+00) (77, 5.51544964313507080078e-01) (78, 7.18647956848144531250e-01) (79, 1.38787913322448730469e+00) (80, -1.44442582130432128906e+00) (81, 1.38448894023895263672e+00) (82, 4.23420846462249755859e-01) (83, -2.35902965068817138672e-01) (84, 1.05637657642364501953e+00) (85, 8.70621681213378906250e-01) (86, 6.97864770889282226562e-01) (87, -6.37568473815917968750e-01) (88, -1.67231810092926025391e+00) (89, 3.02128291130065917969e+00) (90, -6.91105484962463378906e-01) (91, 7.97780871391296386719e-01) (92, -1.03341162204742431641e+00) (93, 6.66353893280029296875e+00) (94, -2.28968009352684020996e-01) (95, 1.48887050151824951172e+00) (96, 7.18310832977294921875e-01) (97, 1.11767101287841796875e+00) (98, -1.38248133659362792969e+00) (99, 2.76547718048095703125e+00) (100, -2.05890670418739318848e-01) (101, 6.53725326061248779297e-01) (102, -6.08047485351562500000e+00) (103, 1.13524637222290039062e+01) (104, 1.81486248970031738281e+00) (0, -8.92636477947235107422e-01) (1, -3.95482629537582397461e-01) (2, 1.52494978904724121094e+00) (3, 6.40699028968811035156e-01) (4, 6.22335433959960937500e-01) (5, -8.13064754009246826172e-01) (6, -4.90853756666183471680e-01) (7, -1.42521059513092041016e+00) (8, -2.99702596664428710938e+00) (9, -1.23669219017028808594e+00) (10, 1.49043393135070800781e+00) (11, -8.18616926670074462891e-01) (12, -8.33434402942657470703e-01) (13, 2.51222538948059082031e+00) (14, 2.32705295085906982422e-01) (15, -8.48172128200531005859e-01) (16, -7.80579805374145507812e-01) (17, 5.67611336708068847656e-01) (18, 5.53957819938659667969e-01) (19, -7.81335651874542236328e-01) (20, -6.94504857063293457031e-01) (21, 1.80343580245971679688e+00) (22, -2.41022992134094238281e+00) (23, 2.12130522727966308594e+00) (24, -9.71159636974334716797e-01) (25, 1.26661550998687744141e+00) (26, -6.98524236679077148438e-01) (27, -1.45898127555847167969e+00) (28, 1.91720128059387207031e-01) (29, -1.21626269817352294922e+00) (30, -3.82816553115844726562e+00) (31, -2.20913457870483398438e+00) (32, -1.13572990894317626953e+00) (33, -1.70471656322479248047e+00) (34, 3.67422461509704589844e-01) (35, 2.10324120521545410156e+00) (36, -2.93396854400634765625e+00) (37, -3.53144335746765136719e+00) (38, -6.58545136451721191406e-01) (39, 1.29935240745544433594e+00) (40, -7.27459669113159179688e-01) (41, 4.99639129638671875000e+00) (42, 3.48692715167999267578e-01) (43, -8.23553085327148437500e-01) (44, 7.50866174697875976562e-01) (45, -1.07783567905426025391e+00) (46, 1.87551307678222656250e+00) (47, -3.78709696233272552490e-02) (48, 5.58836102485656738281e-01) (49, -7.45330631732940673828e-01) (50, 1.79307445883750915527e-01) (51, -1.12422990798950195312e+01) (52, -8.96932601928710937500e-01) (53, 1.45700311660766601562e+00) (54, 1.50318777561187744141e+00) (55, -4.32248145341873168945e-01) (56, -3.04636192321777343750e+00) (57, 1.38024473190307617188e+00) (58, 2.53808736801147460938e-01) (59, -2.49043893814086914062e+00) (60, -6.80224180221557617188e-01) (61, 8.68525683879852294922e-01) (62, -7.78952360153198242188e-01) (63, 3.27787041664123535156e-01) (64, 1.52946543693542480469e+00) (65, 1.17500042915344238281e+00) (66, 6.72407805919647216797e-01) (67, 4.48164567351341247559e-02) (68, -7.30232954025268554688e-01) (69, 5.04953145980834960938e-01) (70, 4.51123952865600585938e-01) (71, 1.57311856746673583984e+00) (72, 1.14213180541992187500e+00) (73, 1.22499930858612060547e+00) (74, -5.52948474884033203125e-01) (75, 1.39099538326263427734e+00) (76, 4.04510693624615669250e-03) (77, 6.23206913471221923828e-01) (78, -3.44417124986648559570e-01) (79, -4.16559219360351562500e-01) (80, -2.05714777112007141113e-01) (81, -9.70883071422576904297e-02) (82, -5.01286745071411132812e-01) (83, 9.88106429576873779297e-01) (84, 9.20930951833724975586e-02) (85, -7.37632578238844871521e-03) (86, 4.88270640373229980469e-01) (87, -7.82172024250030517578e-01) (88, 7.70517706871032714844e-01) (89, 1.62704691290855407715e-01) (90, -3.46078962087631225586e-01) (91, 9.23220098018646240234e-01) (92, 4.87374663352966308594e-02) (93, -6.60347267985343933105e-02) (94, 4.23372626304626464844e-01) (95, -5.57948172092437744141e-01) (96, -6.53137624263763427734e-01) (97, -6.20128810405731201172e-01) (98, 2.37638801336288452148e-01) (99, 3.29550564289093017578e-01) (100, 4.75639641284942626953e-01) (101, -6.49895250797271728516e-01) (102, 9.89836215972900390625e-01) (103, 1.18033874034881591797e+00) (104, 1.44009447097778320312e+00) (0, -3.69551610946655273438e+00) (1, -2.40479254722595214844e+00) (2, -2.20044517517089843750e+00) (3, -2.45375275611877441406e-01) (4, -1.60649895668029785156e-01) (5, -9.84661579132080078125e-01) (6, -6.11569464206695556641e-01) (7, 2.06171703338623046875e+00) (8, -1.47326815128326416016e+00) (9, -5.50263583660125732422e-01) (10, 2.40684002637863159180e-01) (11, 1.74593150615692138672e+00) (12, 1.91527798771858215332e-01) (13, 6.17288470268249511719e-01) (14, 1.03918993473052978516e+00) (15, 3.15318465232849121094e-01) (16, -6.80319249629974365234e-01) (17, -3.08333247900009155273e-01) (18, -1.03328859806060791016e+00) (19, -7.92429670691490173340e-02) (20, -2.00446510314941406250e+00) (21, 1.37951600551605224609e+00) (22, -1.03098857402801513672e+00) (23, -8.81087005138397216797e-01) (24, 8.07835698127746582031e-01) (25, -9.12982106208801269531e-01) (26, -2.69620060920715332031e-01) (27, 2.19970092177391052246e-01) (28, 2.67568945884704589844e-01) (29, -7.20904886722564697266e-01) (30, 7.78250634670257568359e-01) (31, 6.55255734920501708984e-01) (32, -3.97641867399215698242e-01) (33, -7.82336533069610595703e-01) (34, -7.27277919650077819824e-02) (35, -2.64634162187576293945e-01) (36, -6.77805483341217041016e-01) (37, -1.05076849460601806641e+00) (38, -5.68898141384124755859e-01) (39, -6.51294350624084472656e-01) (40, -7.37051963806152343750e-01) (41, 3.64549905061721801758e-02) (42, 5.00096321105957031250e-01) (43, -7.47155666351318359375e-01) (44, -7.96157419681549072266e-01) (45, 5.08802592754364013672e-01) (46, -1.00331997871398925781e+00) (47, 4.35290396213531494141e-01) (48, -5.03728091716766357422e-01) (49, -2.28986620903015136719e+00) (50, -8.56841981410980224609e-01) (51, 3.60654413700103759766e-01) (52, -6.96606576442718505859e-01) (53, 3.95741164684295654297e-01) (54, -7.65234410762786865234e-01) (55, 3.09670388698577880859e-01) (56, 1.31017476320266723633e-01) (57, 1.11027014255523681641e+00) (58, -6.96294605731964111328e-01) (59, 6.23767018318176269531e-01) (60, 5.64914464950561523438e-01) (61, -8.57138216495513916016e-01) (62, 9.99218225479125976562e-03) (63, -7.64602780342102050781e-01) (64, 5.07990956306457519531e-01) (65, -7.94548213481903076172e-01) (66, -7.95643925666809082031e-01) (67, 7.16318339109420776367e-02) (68, 2.08723711967468261719e+00) (69, 1.67012646794319152832e-01) (70, 6.88910067081451416016e-01) (71, 1.78251817822456359863e-01) (72, -6.59935951232910156250e-01) (73, -3.27279828488826751709e-02) (74, -1.53391852974891662598e-01) (75, 1.48061525821685791016e+00) (76, -2.45193362236022949219e-01) (77, 1.62707877159118652344e+00) (78, 1.56820011138916015625e+00) (79, 1.11652843654155731201e-01) (80, 1.15108475089073181152e-01) (81, 1.52464759349822998047e+00) (82, -5.62453985214233398438e-01) (83, 8.70006084442138671875e-01) (84, -8.22465419769287109375e-01) (85, -1.72702163457870483398e-01) (86, -2.08562791347503662109e-01) (87, -2.34231576323509216309e-01) (88, 8.33845585584640502930e-02) (89, 1.36725294589996337891e+00) (90, 8.71925130486488342285e-02) (91, 5.24281263351440429688e-01) (92, 7.85354852676391601562e-01) (93, 1.55664217472076416016e+00) (94, 1.52857589721679687500e+00) (95, -5.05777120590209960938e-01) (96, 1.07699744403362274170e-01) (97, 1.54632353782653808594e+00) (98, -4.73278433084487915039e-01) (99, -5.93601763248443603516e-01) (100, 1.48417890071868896484e+00) (101, 9.81474518775939941406e-02) (102, -1.94744932651519775391e+00) (103, 5.01700925827026367188e+00) (104, 3.61558228731155395508e-01) (0, -6.30675029754638671875e+00) (1, 1.23343944549560546875e-01) (2, -3.08152765035629272461e-01) (3, -3.23532819747924804688e+00) (4, -1.19801986217498779297e+00) (5, 1.18058109283447265625e+00) (6, 4.25659567117691040039e-02) (7, 1.23250746726989746094e+00) (8, 1.23662270605564117432e-01) (9, -1.07810124754905700684e-01) (10, 1.24022114276885986328e+00) (11, -1.89036214351654052734e+00) (12, 9.06386315822601318359e-01) (13, 1.25937536358833312988e-01) (14, 8.94154012203216552734e-01) (15, -7.39998102188110351562e-01) (16, 1.01056945323944091797e+00) (17, -7.81915247440338134766e-01) (18, 9.42218184471130371094e-01) (19, 7.65678882598876953125e-02) (20, -2.47435823082923889160e-01) (21, 1.12423643469810485840e-01) (22, -2.97824239730834960938e+00) (23, -4.55338621139526367188e+00) (24, 2.32970070838928222656e+00) (25, -2.34628343582153320312e+00) (26, 1.85111105442047119141e-01) (27, -4.58961009979248046875e-01) (28, -1.43480157852172851562e+00) (29, 4.49214309453964233398e-01) (30, -1.36309833526611328125e+01) (31, -1.59540023803710937500e+01) (32, 1.57045948505401611328e+00) (33, -1.82165825366973876953e+00) (34, -3.50453943014144897461e-01) (35, 8.51501464843750000000e-01) (36, 1.91362237930297851562e+00) (37, 1.77523767948150634766e+00) (38, -5.62932193279266357422e-02) (39, -3.51474851369857788086e-01) (40, -7.33453452587127685547e-01) (41, 1.37336432933807373047e+00) (42, -4.95504945516586303711e-01) (43, -1.71817951202392578125e+01) (44, -1.22298836708068847656e+00) (45, 2.18095213174819946289e-01) (46, 8.46129748970270156860e-03) (47, 1.16244569420814514160e-01) (48, -5.52033185958862304688e-01) (49, 1.19947636127471923828e+00) (50, -6.09206104278564453125e+00) (51, -5.64790725708007812500e+00) (52, 1.32754611968994140625e+00) (53, 1.19294834136962890625e+00) (54, -8.93023908138275146484e-02) (55, -4.25213336944580078125e-01) (56, 1.31537413597106933594e+00) (57, 2.00604610145092010498e-02) (58, 9.48485195636749267578e-01) (59, -2.13587594032287597656e+00) (60, -3.16437363624572753906e-01) (61, 7.29724287986755371094e-01) (62, 2.84980744123458862305e-01) (63, -2.79818773269653320312e-01) (64, 1.02544516324996948242e-01) (65, -5.23992300033569335938e-01) (66, 6.90035879611968994141e-01) (67, 1.12780773639678955078e+00) (68, 6.43350780010223388672e-01) (69, 8.07421147823333740234e-01) (70, 8.91760647296905517578e-01) (71, 9.22461211681365966797e-01) (72, -5.99937289953231811523e-02) (73, 1.05665552616119384766e+00) (74, -8.16243469715118408203e-01) (75, -8.19561630487442016602e-02) (76, 9.70269501209259033203e-01) (77, 1.24371290206909179688e+00) (78, -7.66692757606506347656e-01) (79, 1.54347991943359375000e+00) (80, 1.17071591317653656006e-01) (81, 1.06633245944976806641e+00) (82, 1.00979518890380859375e+00) (83, -5.27873814105987548828e-01) (84, 8.83806526660919189453e-01) (85, 1.00911653041839599609e+00) (86, -6.02494835853576660156e-01) (87, 2.49116048216819763184e-01) (88, 7.68535077571868896484e-01) (89, 1.08403110504150390625e+00) (90, 4.26172226667404174805e-01) (91, 3.98228853940963745117e-01) (92, 2.11356684565544128418e-01) (93, -5.30223608016967773438e-01) (94, -4.32573974132537841797e-01) (95, -5.40211319923400878906e-01) (96, 1.52216508984565734863e-01) (97, 5.48919916152954101562e-01) (98, 2.20487877726554870605e-01) (99, 1.22923254966735839844e+00) (100, -5.42179584503173828125e-01) (101, 1.16826139390468597412e-01) (102, 6.59734547138214111328e-01) (103, 1.44063973426818847656e+00) (104, 1.61225259304046630859e+00) (0, 3.31876730918884277344e+00) (1, 5.77342450618743896484e-01) (2, 1.22805726528167724609e+00) (3, 9.57117557525634765625e-01) (4, 4.07715439796447753906e-01) (5, 9.71607506275177001953e-01) (6, 1.18346798419952392578e+00) (7, 1.15549540519714355469e+00) (8, 8.11742484569549560547e-01) (9, 9.34805393218994140625e-01) (10, 1.39143526554107666016e+00) (11, 5.01536786556243896484e-01) (12, 3.33170294761657714844e-01) (13, 9.22743499279022216797e-01) (14, 3.73579800128936767578e-01) (15, 3.48974317312240600586e-01) (16, 5.33473253250122070312e-01) (17, 9.68428492546081542969e-01) (18, 1.02199816703796386719e+00) (19, 8.96371483802795410156e-01) (20, 3.85213345289230346680e-01) (21, 1.01568138599395751953e+00) (22, 9.93698894977569580078e-01) (23, 7.27111876010894775391e-01) (24, 1.29592406749725341797e+00) (25, 1.01874458789825439453e+00) (26, 3.55690032243728637695e-01) (27, 9.23553884029388427734e-01) (28, 1.00336956977844238281e+00) (29, 5.55618107318878173828e-01) (30, 1.00639772415161132812e+00) (31, 3.16982150077819824219e-01) (32, 8.94872844219207763672e-01) (33, 2.29134574532508850098e-01) (34, -4.21162605285644531250e+01) (35, 2.49562218785285949707e-01) (36, 3.28335374593734741211e-01) (37, 4.93120610713958740234e-01) (38, 1.00825643539428710938e+00) (39, 8.75849902629852294922e-01) (40, 8.62938106060028076172e-01) (41, 1.44541561603546142578e+00) (42, 2.37413302063941955566e-01) (43, 5.92164218425750732422e-01) (44, 3.39763432741165161133e-01) (45, 4.82499420642852783203e-01) (46, 8.39854598045349121094e-01) (47, 7.89170384407043457031e-01) (48, 3.17743211984634399414e-01) (49, 6.22377455234527587891e-01) (50, 2.59430736303329467773e-01) (51, 2.83771783113479614258e-01) (52, 6.28286898136138916016e-01) (53, 6.49273455142974853516e-01) (54, 4.67360854148864746094e-01) (55, 2.16958212852478027344e+00) (56, 5.93656063079833984375e-01) (57, 1.74696648120880126953e+00) (58, 1.16176640987396240234e+00) (59, 1.15273940563201904297e+00) (60, 3.81546944379806518555e-01) (61, 5.04473209381103515625e-01) (62, 3.52870494127273559570e-01) (63, 3.59933048486709594727e-01) (64, 1.52310001850128173828e+00) (65, 3.01982820034027099609e-01) (66, 1.65376353263854980469e+00) (67, 1.10661621093750000000e+01) (68, 5.87561011314392089844e-01) (69, 9.59514379501342773438e-01) (70, 3.02235335111618041992e-01) (71, 3.66160243749618530273e-01) (72, 2.28287786245346069336e-01) (73, -1.10712319612503051758e-01) (74, 2.82984524965286254883e-01) (75, 1.09662532806396484375e+00) (76, -4.58541721105575561523e-01) (77, 5.21699786186218261719e-01) (78, 1.03606235980987548828e+00) (79, 9.08956348896026611328e-01) (80, 6.47656321525573730469e-01) (81, 2.21396684646606445312e+00) (82, 9.25516366958618164062e-01) (83, 3.32552999258041381836e-01) (84, 4.65408086776733398438e-01) (85, 1.07302367687225341797e+00) (86, 2.91727930307388305664e-01) (87, 3.82798492908477783203e-01) (88, 4.77836757898330688477e-01) (89, 2.59581416845321655273e-01) (90, 4.79371696710586547852e-01) (91, 5.19075393676757812500e-01) (92, 2.37345010042190551758e-01) (93, 3.27185869216918945312e-01) (94, 3.42347949743270874023e-01) (95, 3.20096462965011596680e-01) (96, 2.30836927890777587891e-01) (97, 8.38255167007446289062e-01) (98, 1.15711414813995361328e+00) (99, 1.15862143039703369141e+00) (100, 3.18597644567489624023e-01) (101, 3.48322838544845581055e-01) (102, 2.05859136581420898438e+00) (103, 6.65125906467437744141e-01) (104, 1.68407952785491943359e+00) (0, -7.99105465412139892578e-01) (1, -4.66337174177169799805e-01) (2, 1.37656426429748535156e+00) (3, 9.93455722928047180176e-02) (4, -8.21014195680618286133e-02) (5, -2.50784635543823242188e+00) (6, 7.89508521556854248047e-02) (7, -7.22624123096466064453e-01) (8, -1.08581848442554473877e-01) (9, 1.16877412796020507812e+00) (10, 1.84942901134490966797e-01) (11, 6.40610218048095703125e-01) (12, -8.82143974304199218750e-01) (13, 6.08855581283569335938e+00) (14, -6.67673945426940917969e-01) (15, -5.64692199230194091797e-01) (16, -3.32132148742675781250e+00) (17, 1.36136102676391601562e+00) (18, -5.69712460041046142578e-01) (19, 1.23566353321075439453e+00) (20, 1.76612108945846557617e-01) (21, -7.44491481781005859375e+00) (22, 4.63532954454421997070e-01) (23, 4.96522545814514160156e-01) (24, 1.82616388797760009766e+00) (25, 4.45832051336765289307e-02) (26, 1.40526926517486572266e+00) (27, -5.16888380050659179688e-01) (28, 1.45901775360107421875e+00) (29, -1.62441098690032958984e+00) (30, 1.40473976731300354004e-01) (31, 1.81484267115592956543e-01) (32, -9.05524373054504394531e-01) (33, 9.93086934089660644531e-01) (34, -6.33705675601959228516e-01) (35, 5.81349611282348632812e-01) (36, -1.49196133017539978027e-01) (37, 5.84282934665679931641e-01) (38, 8.20075869560241699219e-01) (39, -1.22463464736938476562e+00) (40, -6.88343822956085205078e-01) (41, 4.10051763057708740234e-01) (42, 4.77597653865814208984e-01) (43, 1.16615474224090576172e-01) (44, -6.27607405185699462891e-01) (45, 1.52068531513214111328e+00) (46, -8.11499416828155517578e-01) (47, 1.57662522792816162109e+00) (48, -6.84076666831970214844e-01) (49, 6.76587200164794921875e+00) (50, 6.63037657737731933594e-01) (51, -1.51947632431983947754e-01) (52, 3.25578451156616210938e+00) (53, -3.37209254503250122070e-01) (54, 6.34982943534851074219e-01) (55, -2.85443037748336791992e-01) (56, -5.55946767330169677734e-01) (57, 3.64848375320434570312e+00) (58, -2.17453151941299438477e-01) (59, 8.40481162071228027344e-01) (60, -4.40383762121200561523e-01) (61, -2.28637981414794921875e+00) (62, -3.79601031541824340820e-01) (63, 4.40507054328918457031e-01) (64, 1.28379058837890625000e+00) (65, -3.96741747856140136719e-01) (66, 9.71907377243041992188e-01) (67, -1.61739468574523925781e-01) (68, 8.21120977401733398438e-01) (69, 1.35037159919738769531e+00) (70, 3.04382979869842529297e-01) (71, 4.39392149448394775391e-01) (72, -4.46870297193527221680e-01) (73, -1.16819572448730468750e+00) (74, -3.15380841493606567383e-01) (75, -8.21349859237670898438e-01) (76, -1.45872259140014648438e+00) (77, 3.15391451120376586914e-01) (78, -7.81934797763824462891e-01) (79, -9.81202781200408935547e-01) (80, -6.57653629779815673828e-01) (81, 1.24907040596008300781e+00) (82, 9.57386612892150878906e-01) (83, 1.15418064594268798828e+00) (84, -1.43566644191741943359e+00) (85, 2.85592257976531982422e-01) (86, 1.41733837127685546875e+00) (87, -8.63320469856262207031e-01) (88, 8.40803444385528564453e-01) (89, 2.61889553070068359375e+00) (90, 4.13503125309944152832e-02) (91, 6.76487088203430175781e-01) (92, -8.26840281486511230469e-01) (93, -7.74143815040588378906e-01) (94, 5.19405782222747802734e-01) (95, -1.33141255378723144531e+00) (96, -6.31036758422851562500e-01) (97, 4.59198355674743652344e-01) (98, -1.26329076290130615234e+00) (99, -6.42544746398925781250e-01) (100, -3.76031041145324707031e-01) (101, -8.71043741703033447266e-01) (102, 5.71715235710144042969e-01) (103, 1.65252983570098876953e+00) (104, 2.39413571357727050781e+00) (0, -2.97977676391601562500e+01) (1, 2.32012614607810974121e-01) (2, 4.52989906072616577148e-01) (3, 1.80295979976654052734e+00) (4, 1.59629118442535400391e+00) (5, 1.68597841262817382812e+00) (6, 4.32003706693649291992e-01) (7, 1.68896520137786865234e+00) (8, 5.06716966629028320312e-01) (9, 1.80933260917663574219e+00) (10, 4.18977767229080200195e-01) (11, 2.15236878395080566406e+00) (12, 1.63582074642181396484e+00) (13, 4.16723489761352539062e-01) (14, 1.57865166664123535156e+00) (15, 1.63884413242340087891e+00) (16, 1.42534744739532470703e+00) (17, 2.06313300132751464844e+00) (18, 1.99396455287933349609e+00) (19, 1.66674959659576416016e+00) (20, 1.76684844493865966797e+00) (21, 1.96631658077239990234e+00) (22, 1.94231283664703369141e+00) (23, 1.89305531978607177734e+00) (24, 5.55711686611175537109e-01) (25, 1.96702468395233154297e+00) (26, 1.53737783432006835938e+00) (27, 1.94812405109405517578e+00) (28, 1.98200047016143798828e+00) (29, 1.78146040439605712891e+00) (30, 2.04431128501892089844e+00) (31, 1.72524976730346679688e+00) (32, 1.93992173671722412109e+00) (33, 1.77786946296691894531e+00) (34, -3.94355438232421875000e+02) (35, 1.86958110332489013672e+00) (36, 1.72199428081512451172e+00) (37, 1.92835390567779541016e+00) (38, 1.87547481060028076172e+00) (39, 1.97906911373138427734e+00) (40, 1.85149216651916503906e+00) (41, -7.47634338378906250000e+02) (42, 1.55760884284973144531e+00) (43, 1.50935256481170654297e+00) (44, 1.51487445831298828125e+00) (45, 5.34525156021118164062e-01) (46, 2.87097275257110595703e-01) (47, 4.76431220769882202148e-01) (48, 1.76966309547424316406e+00) (49, 1.82957041263580322266e+00) (50, 1.59877145290374755859e+00) (51, 1.76659941673278808594e+00) (52, 4.76709693670272827148e-01) (53, 4.08897370100021362305e-01) (54, 1.77553164958953857422e+00) (55, 1.24815797805786132812e+00) (56, 5.31162917613983154297e-01) (57, 8.47510299682617187500e+01) (58, 6.94482028484344482422e-01) (59, 9.42997157573699951172e-01) (60, 1.79832911491394042969e+00) (61, 1.37754082679748535156e+00) (62, 1.46707344055175781250e+00) (63, 1.71828114986419677734e+00) (64, 1.79325485229492187500e+00) (65, 1.47886455059051513672e+00) (66, 1.84515154361724853516e+00) (67, 1.80270195007324218750e+00) (68, 6.32696568965911865234e-01) (69, 2.31657814979553222656e+00) (70, 1.64455938339233398438e+00) (71, 1.91756260395050048828e+00) (72, 1.73909282684326171875e+00) (73, 1.78501248359680175781e+00) (74, 1.73949325084686279297e+00) (75, 1.94587409496307373047e+00) (76, 2.19926667213439941406e+00) (77, 4.35285419225692749023e-01) (78, 1.50000000000000000000e+03) (79, 8.57962548732757568359e-01) (80, 1.27448835372924804688e+01) (81, 1.50000000000000000000e+03) (82, 9.59595501422882080078e-01) (83, 1.79706895351409912109e+00) (84, 2.13832950592041015625e+00) (85, 2.21017336845397949219e+00) (86, 1.74967253208160400391e+00) (87, 1.80468916893005371094e+00) (88, 8.55658710002899169922e-01) (89, 1.64086127281188964844e+00) (90, 4.90072220563888549805e-01) (91, 1.95895865559577941895e-01) (92, 1.90214276313781738281e+00) (93, 1.90113699436187744141e+00) (94, 1.54856991767883300781e+00) (95, 1.85889744758605957031e+00) (96, 1.62255454063415527344e+00) (97, 2.03926205635070800781e+00) (98, 4.64399844408035278320e-01) (99, 7.02698588371276855469e-01) (100, 1.53488993644714355469e+00) (101, 1.51416397094726562500e+00) (102, -3.38848292827606201172e-01) (103, 2.49411678314208984375e+00) (104, 1.28769159317016601562e-01) (0, 9.35220658779144287109e-01) (1, 6.03523612022399902344e-01) (2, 5.90482771396636962891e-01) (3, 2.74136090278625488281e+00) (4, -6.60852670669555664062e-01) (5, 3.14523965120315551758e-01) (6, 6.72691404819488525391e-01) (7, -3.59065115451812744141e-01) (8, -1.13500797748565673828e+00) (9, -1.42182970046997070312e+00) (10, 9.77081239223480224609e-01) (11, 6.91649794578552246094e-01) (12, -6.11448287963867187500e-01) (13, 5.55208444595336914062e-01) (14, -1.02752625942230224609e-01) (15, -1.25841856002807617188e+00) (16, 5.51948189735412597656e-01) (17, -2.24231943488121032715e-01) (18, -5.51987707614898681641e-01) (19, -6.16243660449981689453e-01) (20, 2.35702872276306152344e-01) (21, -7.35068991780281066895e-02) (22, 7.61210918426513671875e-01) (23, 1.62655621767044067383e-01) (24, 2.14421361684799194336e-01) (25, -1.58677533268928527832e-01) (26, -6.30250632762908935547e-01) (27, -2.00346246361732482910e-01) (28, -5.19082844257354736328e-01) (29, 1.39083504676818847656e-01) (30, -1.44640684127807617188e-01) (31, -2.53985226154327392578e-01) (32, -6.63601756095886230469e-01) (33, -4.71886843442916870117e-01) (34, 2.58517193794250488281e+00) (35, -3.39258909225463867188e-01) (36, -9.39309224486351013184e-02) (37, 4.53301131725311279297e-01) (38, 1.78979858756065368652e-01) (39, -5.62210142612457275391e-01) (40, 1.78928777575492858887e-01) (41, -1.02092576026916503906e+00) (42, -5.00186145305633544922e-01) (43, -5.83587646484375000000e-01) (44, -5.80121040344238281250e-01) (45, -2.81766235828399658203e-01) (46, 1.39794635772705078125e+00) (47, -3.18665266036987304688e-01) (48, 3.47863614559173583984e-01) (49, -6.19853794574737548828e-01) (50, -1.05593836307525634766e+00) (51, 1.38061046600341796875e-01) (52, -2.16878995299339294434e-01) (53, -3.35989952087402343750e-01) (54, -4.94116544723510742188e-01) (55, 5.01136493682861328125e+00) (56, -3.29985767602920532227e-01) (57, -4.89305764436721801758e-01) (58, -4.81875032186508178711e-01) (59, 9.27253365516662597656e-01) (60, 3.53970468044281005859e-01) (61, -1.18212056159973144531e+00) (62, -5.82039654254913330078e-01) (63, 2.05900415778160095215e-01) (64, -3.11599254608154296875e-01) (65, 2.43915215134620666504e-01) (66, -5.31432747840881347656e-01) (67, 1.14754378795623779297e+00) (68, -4.30425733327865600586e-01) (69, -7.79146134853363037109e-01) (70, 1.69364139437675476074e-01) (71, -6.30604922771453857422e-01) (72, 4.10103797912597656250e-01) (73, 5.63591837882995605469e-01) (74, 2.72610425949096679688e-01) (75, 3.47451269626617431641e-01) (76, 9.82948094606399536133e-02) (77, -2.91423618793487548828e-01) (78, -2.82928299903869628906e+00) (79, 1.40530073642730712891e+00) (80, 2.23342728614807128906e+00) (81, 7.42936553433537483215e-03) (82, 3.84758353233337402344e-01) (83, -6.27073764801025390625e-01) (84, -5.01968026161193847656e-01) (85, -5.25341294705867767334e-02) (86, -5.79518735408782958984e-01) (87, -6.83760762214660644531e-01) (88, 9.72254872322082519531e-01) (89, 3.45638483762741088867e-01) (90, 1.22446823120117187500e+00) (91, -3.85427057743072509766e-01) (92, -3.46010118722915649414e-01) (93, -4.10845994949340820312e+00) (94, -6.72078311443328857422e-01) (95, 8.80441665649414062500e-02) (96, -5.21184206008911132812e-01) (97, 1.96347400546073913574e-01) (98, 1.95436286926269531250e+00) (99, 9.20950531959533691406e-01) (100, -5.01194775104522705078e-01) (101, -1.34061723947525024414e-01) (102, 1.92835545539855957031e+00) (103, 7.85727143287658691406e-01) (104, 2.46336674690246582031e+00) (0, 4.16757869720458984375e+00) (1, 1.33366370201110839844e+00) (2, 1.26115381717681884766e+00) (3, 4.12806689739227294922e-01) (4, 4.76278364658355712891e-01) (5, 5.01222014427185058594e-01) (6, 1.14499330520629882812e+00) (7, 4.43556398153305053711e-01) (8, 1.31636559963226318359e+00) (9, 5.01902282238006591797e-01) (10, 1.77727937698364257812e+00) (11, 4.92130786180496215820e-01) (12, 1.03722286224365234375e+00) (13, 1.42158782482147216797e+00) (14, 1.18662583827972412109e+00) (15, 1.03187823295593261719e+00) (16, 4.61200237274169921875e-01) (17, -1.70823067426681518555e-01) (18, -1.73834681510925292969e-01) (19, -1.56616523861885070801e-01) (20, 6.74423635005950927734e-01) (21, -1.67932078242301940918e-01) (22, -2.60360985994338989258e-01) (23, -3.53101529181003570557e-02) (24, 1.19371271133422851562e+00) (25, -1.77177488803863525391e-01) (26, 4.23417448997497558594e-01) (27, -2.54914134740829467773e-01) (28, -1.81602865457534790039e-01) (29, 1.09564960002899169922e-02) (30, -1.57757848501205444336e-01) (31, 4.32088434696197509766e-01) (32, -1.05021230876445770264e-01) (33, -7.47457891702651977539e-02) (34, 1.91259403228759765625e+01) (35, 4.22684073448181152344e-01) (36, 4.86183822154998779297e-01) (37, 4.38202083110809326172e-01) (38, -2.24349796772003173828e-01) (39, -1.53343781828880310059e-01) (40, 4.05255317687988281250e-01) (41, -2.99358224868774414062e+00) (42, 1.11557888984680175781e+00) (43, 5.63156485557556152344e-01) (44, -3.31769064068794250488e-02) (45, 1.85031771659851074219e+00) (46, 1.87425279617309570312e+00) (47, 1.25154006481170654297e+00) (48, 4.24504339694976806641e-01) (49, -1.01876460015773773193e-01) (50, 4.32245373725891113281e-01) (51, 5.17803788185119628906e-01) (52, 1.14888167381286621094e+00) (53, 1.28318488597869873047e+00) (54, -6.57196268439292907715e-02) (55, -1.06210260391235351562e+01) (56, 2.49292945861816406250e+00) (57, -2.27292060852050781250e+01) (58, 1.68387258052825927734e+00) (59, 1.07500553131103515625e+00) (60, 6.17697000503540039062e-01) (61, 1.09559082984924316406e+00) (62, 1.19281196594238281250e+00) (63, 1.11022973060607910156e+00) (64, 6.51987493038177490234e-01) (65, 1.02441430091857910156e+00) (66, 7.04041063785552978516e-01) (67, 5.23101806640625000000e-01) (68, 1.96807503700256347656e+00) (69, 3.92243176698684692383e-01) (70, 1.06314575672149658203e+00) (71, 1.16329371929168701172e+00) (72, 1.02819359302520751953e+00) (73, 6.41820907592773437500e-01) (74, 5.29661774635314941406e-01) (75, 4.23232644796371459961e-01) (76, 4.81849074363708496094e-01) (77, 1.89402973651885986328e+00) (78, -1.79817140102386474609e-01) (79, 1.70137619972229003906e+00) (80, 1.43239900469779968262e-01) (81, -3.01380562782287597656e+00) (82, 1.29933369159698486328e+00) (83, 4.82093811035156250000e-01) (84, 5.91926455497741699219e-01) (85, -2.96573471277952194214e-02) (86, 1.07800137996673583984e+00) (87, 1.14509117603302001953e+00) (88, 1.85511660575866699219e+00) (89, 9.86002504825592041016e-01) (90, 2.48597717285156250000e+00) (91, 2.32633781433105468750e+00) (92, 1.08863508701324462891e+00) (93, 6.23294711112976074219e-01) (94, 1.18622517585754394531e+00) (95, 4.43866103887557983398e-01) (96, 1.12022209167480468750e+00) (97, 3.58776599168777465820e-01) (98, 1.47704851627349853516e+00) (99, 1.54262065887451171875e+00) (100, 6.41216993331909179688e-01) (101, 1.03916811943054199219e+00) (102, 2.40546202659606933594e+00) (103, -3.34760367870330810547e-01) (104, 8.49208176136016845703e-01) (0, -2.03928995132446289062e+00) (1, -6.24723374843597412109e-01) (2, 3.75221180915832519531e+00) (3, 3.21136450767517089844e+00) (4, 2.40535664558410644531e+00) (5, -1.84494233131408691406e+00) (6, -6.09471350908279418945e-02) (7, 9.94625031948089599609e-01) (8, 3.56306228637695312500e+01) (9, 7.60879468917846679688e+00) (10, 1.40717136859893798828e+00) (11, 4.40717935562133789062e+00) (12, 1.09658849239349365234e+00) (13, 4.58121824264526367188e+00) (14, 1.22392988204956054688e+00) (15, 2.62696743011474609375e-01) (16, 2.36743658781051635742e-01) (17, 3.71483564376831054688e-01) (18, 1.09596705436706542969e+00) (19, 2.40324527025222778320e-01) (20, 1.23222911357879638672e+00) (21, 3.23909878730773925781e-01) (22, -7.62226521968841552734e-01) (23, -7.90808081626892089844e-01) (24, -4.18679654598236083984e-01) (25, -4.43111228942871093750e+00) (26, 3.48587244749069213867e-01) (27, -1.06910252571105957031e+00) (28, 1.12185895442962646484e+00) (29, 3.08929979801177978516e-01) (30, -8.84630978107452392578e-01) (31, 1.56889986991882324219e+00) (32, 2.75612807273864746094e+00) (33, 1.66438847780227661133e-01) (34, 2.04762864112854003906e+00) (35, 2.15389221906661987305e-01) (36, 3.77502366900444030762e-02) (37, -1.78789532184600830078e+00) (38, -5.55220484733581542969e-01) (39, 1.63524836301803588867e-01) (40, 1.68260574340820312500e-01) (41, -1.57123029232025146484e+00) (42, -7.55266845226287841797e-01) (43, -7.28327929973602294922e-01) (44, -8.31307590007781982422e-01) (45, -4.45780217647552490234e-01) (46, 3.57513785362243652344e-01) (47, -4.00256365537643432617e-01) (48, 9.69334363937377929688e-01) (49, 1.16945572197437286377e-01) (50, 5.72578161954879760742e-02) (51, 1.17332816123962402344e-01) (52, 1.09489822387695312500e+00) (53, 1.14701604843139648438e+00) (54, -2.20849204063415527344e+00) (55, -1.52788305282592773438e+00) (56, -4.31576967239379882812e-01) (57, -9.52086210250854492188e-01) (58, 1.62393629550933837891e+00) (59, -1.57928442955017089844e+00) (60, 3.38413953781127929688e-01) (61, -8.42375636100769042969e-01) (62, 2.55718022584915161133e-01) (63, -4.81348395347595214844e-01) (64, -4.00175094604492187500e-01) (65, 1.11721992492675781250e+00) (66, 5.25623559951782226562e-02) (67, -6.79295837879180908203e-01) (68, 4.32605922222137451172e-01) (69, 1.07222862541675567627e-01) (70, 1.95736214518547058105e-01) (71, 2.44506493210792541504e-01) (72, 1.17024016380310058594e+00) (73, -9.15040597319602966309e-02) (74, 1.05187368392944335938e+00) (75, 1.56356826424598693848e-01) (76, -7.15793669223785400391e-01) (77, 1.37615597248077392578e+00) (78, -7.16003119945526123047e-01) (79, -5.03491401672363281250e-01) (80, 3.53272736072540283203e-01) (81, -1.92333683371543884277e-01) (82, -7.33998000621795654297e-01) (83, 3.22785556316375732422e-01) (84, 7.53317952156066894531e-01) (85, -1.76831275224685668945e-01) (86, 1.41078639030456542969e+00) (87, -7.24517405033111572266e-01) (88, 3.46364825963973999023e-01) (89, 6.15689277648925781250e-01) (90, 3.58777105808258056641e-01) (91, 1.30870068073272705078e+00) (92, 1.38302251696586608887e-01) (93, -7.88373351097106933594e-01) (94, 1.38833999633789062500e+00) (95, 1.35524645447731018066e-01) (96, -6.93635761737823486328e-01) (97, 1.59309351444244384766e+00) (98, 2.90780615806579589844e+00) (99, 1.56980037689208984375e+00) (100, 1.39636683464050292969e+00) (101, 9.07117068767547607422e-01) (102, -2.44363650679588317871e-01) (103, 2.34701156616210937500e+00) (104, 7.93435871601104736328e-01) (0, 7.63230848312377929688e+00) (1, 1.14859933853149414062e+01) (2, 1.11605477333068847656e+00) (3, 1.12745714187622070312e+00) (4, 9.98064637184143066406e-01) (5, 1.23654878139495849609e+00) (6, 1.05904138088226318359e+00) (7, 2.19664554595947265625e+01) (8, 1.62996463775634765625e+01) (9, 1.07725954055786132812e+00) (10, 1.23584675788879394531e+00) (11, 3.65513092041015625000e+02) (12, 9.51699376106262207031e-01) (13, 2.00838470458984375000e+01) (14, 1.07787942886352539062e+00) (15, 8.25858533382415771484e-01) (16, 8.85721504688262939453e-01) (17, 1.05175232887268066406e+00) (18, 1.09516322612762451172e+00) (19, 1.09144103527069091797e+00) (20, 9.75141763687133789062e-01) (21, 1.05737233161926269531e+00) (22, 1.04942417144775390625e+00) (23, 1.01079487800598144531e+00) (24, 1.20740234851837158203e+00) (25, 1.12161767482757568359e+00) (26, 1.04045784473419189453e+00) (27, 1.16105592250823974609e+00) (28, 1.23985826969146728516e+00) (29, 1.12236917018890380859e+00) (30, 1.19007694721221923828e+00) (31, 1.20245397090911865234e+00) (32, 1.11045932769775390625e+00) (33, 1.18066859245300292969e+00) (34, 3.93150100708007812500e+01) (35, 1.20278394222259521484e+00) (36, 1.04680764675140380859e+00) (37, 9.67108249664306640625e-01) (38, 1.15575540065765380859e+00) (39, 1.06806719303131103516e+00) (40, 2.67086005210876464844e+00) (41, 8.33886051177978515625e+00) (42, 1.05529236793518066406e+00) (43, 9.67289090156555175781e-01) (44, 9.54088568687438964844e-01) (45, 9.39461112022399902344e-01) (46, 1.12206661701202392578e+00) (47, 3.86535495519638061523e-01) (48, 1.04290568828582763672e+00) (49, 1.10605990886688232422e+00) (50, 9.37403559684753417969e-01) (51, 9.90909337997436523438e-01) (52, 1.07704675197601318359e+00) (53, 9.49144363403320312500e-01) (54, 8.79278600215911865234e-01) (55, 4.32751750946044921875e+00) (56, 1.03804850578308105469e+00) (57, 1.12935953140258789062e+01) (58, 7.63095498085021972656e-01) (59, 1.50620543956756591797e+00) (60, 8.79207372665405273438e-01) (61, 9.39534425735473632812e-01) (62, 9.50840592384338378906e-01) (63, 9.49484586715698242188e-01) (64, 1.25131273269653320312e+00) (65, 9.11097526550292968750e-01) (66, 1.22491896152496337891e+00) (67, 1.26115667819976806641e+00) (68, 3.11134368181228637695e-01) (69, 1.02406215667724609375e+00) (70, 9.68842387199401855469e-01) (71, 9.41548764705657958984e-01) (72, 9.88991379737854003906e-01) (73, 5.32548725605010986328e-01) (74, 9.56414461135864257812e-01) (75, 1.21444582939147949219e+00) (76, 1.03584730625152587891e+00) (77, 1.01505208015441894531e+00) (78, 1.61282801628112792969e+00) (79, 1.13764739036560058594e+00) (80, 1.05558395385742187500e+00) (81, 1.68220672607421875000e+01) (82, 1.02471423149108886719e+00) (83, 1.05320763587951660156e+00) (84, 1.00748848915100097656e+00) (85, 1.13147687911987304688e+00) (86, 9.73883390426635742188e-01) (87, 9.42544341087341308594e-01) (88, 1.15272986888885498047e+00) (89, 1.09086287021636962891e+00) (90, 9.61942911148071289062e-01) (91, 3.47410887479782104492e-01) (92, 9.36560213565826416016e-01) (93, 1.03809165954589843750e+00) (94, 1.01680612564086914062e+00) (95, 9.46986436843872070312e-01) (96, 9.63359713554382324219e-01) (97, 1.07830452919006347656e+00) (98, 1.34545993804931640625e+00) (99, 1.16403567790985107422e+00) (100, 1.06916129589080810547e+00) (101, 1.01485192775726318359e+00) (102, 5.55717229843139648438e-01) (103, 1.71864724159240722656e+00) (104, 9.32517290115356445312e-01) (0, -2.60788288116455078125e+01) (1, -2.25783586502075195312e-02) (2, 7.29065015912055969238e-02) (3, 2.56855636835098266602e-02) (4, -6.63536712527275085449e-02) (5, 6.45508617162704467773e-02) (6, 4.04732972383499145508e-02) (7, 4.32378262281417846680e-01) (8, -1.97974756360054016113e-01) (9, 1.33029806613922119141e+00) (10, 8.94549563527107238770e-02) (11, 1.07468948364257812500e+02) (12, 1.16618800163269042969e+00) (13, -5.92408515512943267822e-02) (14, 1.20892763137817382812e+00) (15, 1.22280585765838623047e+00) (16, 1.08481311798095703125e+00) (17, 1.40599060058593750000e+00) (18, 1.25818133354187011719e+00) (19, 1.24301314353942871094e+00) (20, 1.20003569126129150391e+00) (21, 1.33881282806396484375e+00) (22, 1.29952454566955566406e+00) (23, 7.38428011536598205566e-02) (24, -8.96730944514274597168e-02) (25, 1.28914201259613037109e+00) (26, -9.57769975066184997559e-02) (27, 1.25295639038085937500e+00) (28, 1.41118061542510986328e+00) (29, 1.17484211921691894531e+00) (30, 1.91451653838157653809e-01) (31, 1.93984936922788619995e-02) (32, 1.25613296031951904297e+00) (33, 1.13971102237701416016e+00) (34, -1.01179916381835937500e+02) (35, 