FANN_FLO_2.1
num_layers=3
learning_rate=0.700000
connection_rate=1.000000
network_type=0
learning_momentum=0.000000
training_algorithm=2
train_error_function=1
train_stop_function=0
cascade_output_change_fraction=0.010000
quickprop_decay=-0.000100
quickprop_mu=1.750000
rprop_increase_factor=1.200000
rprop_decrease_factor=0.500000
rprop_delta_min=0.000000
rprop_delta_max=50.000000
rprop_delta_zero=0.100000
cascade_output_stagnation_epochs=12
cascade_candidate_change_fraction=0.010000
cascade_candidate_stagnation_epochs=12
cascade_max_out_epochs=150
cascade_max_cand_epochs=150
cascade_num_candidate_groups=2
bit_fail_limit=3.49999994039535522461e-01
cascade_candidate_limit=1.00000000000000000000e+03
cascade_weight_multiplier=4.00000005960464477539e-01
cascade_activation_functions_count=10
cascade_activation_functions=3 5 7 8 10 11 14 15 16 17 
cascade_activation_steepnesses_count=4
cascade_activation_steepnesses=2.50000000000000000000e-01 5.00000000000000000000e-01 7.50000000000000000000e-01 1.00000000000000000000e+00 
layer_sizes=105 61 2 
scale_included=0
neurons (num_inputs, activation_function, activation_steepness)=(0, 0, 0.00000000000000000000e+00) (0, 0, 0.00000000000000000000e+00) (0, 0, 0.00000000000000000000e+00) (0, 0, 0.00000000000000000000e+00) (0, 0, 0.00000000000000000000e+00) (0, 0, 0.00000000000000000000e+00) (0, 0, 0.00000000000000000000e+00) (0, 0, 0.00000000000000000000e+00) (0, 0, 0.00000000000000000000e+00) (0, 0, 0.00000000000000000000e+00) (0, 0, 0.00000000000000000000e+00) (0, 0, 0.00000000000000000000e+00) (0, 0, 0.00000000000000000000e+00) (0, 0, 0.00000000000000000000e+00) (0, 0, 0.00000000000000000000e+00) (0, 0, 0.00000000000000000000e+00) (0, 0, 0.00000000000000000000e+00) (0, 0, 0.00000000000000000000e+00) (0, 0, 0.00000000000000000000e+00) (0, 0, 0.00000000000000000000e+00) (0, 0, 0.00000000000000000000e+00) (0, 0, 0.00000000000000000000e+00) (0, 0, 0.00000000000000000000e+00) (0, 0, 0.00000000000000000000e+00) (0, 0, 0.00000000000000000000e+00) (0, 0, 0.00000000000000000000e+00) (0, 0, 0.00000000000000000000e+00) (0, 0, 0.00000000000000000000e+00) (0, 0, 0.00000000000000000000e+00) (0, 0, 0.00000000000000000000e+00) (0, 0, 0.00000000000000000000e+00) (0, 0, 0.00000000000000000000e+00) (0, 0, 0.00000000000000000000e+00) (0, 0, 0.00000000000000000000e+00) (0, 0, 0.00000000000000000000e+00) (0, 0, 0.00000000000000000000e+00) (0, 0, 0.00000000000000000000e+00) (0, 0, 0.00000000000000000000e+00) (0, 0, 0.00000000000000000000e+00) (0, 0, 0.00000000000000000000e+00) (0, 0, 0.00000000000000000000e+00) (0, 0, 0.00000000000000000000e+00) (0, 0, 0.00000000000000000000e+00) (0, 0, 0.00000000000000000000e+00) (0, 0, 0.00000000000000000000e+00) (0, 0, 0.00000000000000000000e+00) (0, 0, 0.00000000000000000000e+00) (0, 0, 0.00000000000000000000e+00) (0, 0, 0.00000000000000000000e+00) (0, 0, 0.00000000000000000000e+00) (0, 0, 0.00000000000000000000e+00) (0, 0, 0.00000000000000000000e+00) (0, 0, 0.00000000000000000000e+00) (0, 0, 0.00000000000000000000e+00) (0, 0, 0.00000000000000000000e+00) (0, 0, 0.00000000000000000000e+00) (0, 0, 0.00000000000000000000e+00) (0, 0, 0.00000000000000000000e+00) (0, 0, 0.00000000000000000000e+00) (0, 0, 0.00000000000000000000e+00) (0, 0, 0.00000000000000000000e+00) (0, 0, 0.00000000000000000000e+00) (0, 0, 0.00000000000000000000e+00) (0, 0, 0.00000000000000000000e+00) (0, 0, 0.00000000000000000000e+00) (0, 0, 0.00000000000000000000e+00) (0, 0, 0.00000000000000000000e+00) (0, 0, 0.00000000000000000000e+00) (0, 0, 0.00000000000000000000e+00) (0, 0, 0.00000000000000000000e+00) (0, 0, 0.00000000000000000000e+00) (0, 0, 0.00000000000000000000e+00) (0, 0, 0.00000000000000000000e+00) (0, 0, 0.00000000000000000000e+00) (0, 0, 0.00000000000000000000e+00) (0, 0, 0.00000000000000000000e+00) (0, 0, 0.00000000000000000000e+00) (0, 0, 0.00000000000000000000e+00) (0, 0, 0.00000000000000000000e+00) (0, 0, 0.00000000000000000000e+00) (0, 0, 0.00000000000000000000e+00) (0, 0, 0.00000000000000000000e+00) (0, 0, 0.00000000000000000000e+00) (0, 0, 0.00000000000000000000e+00) (0, 0, 0.00000000000000000000e+00) (0, 0, 0.00000000000000000000e+00) (0, 0, 0.00000000000000000000e+00) (0, 0, 0.00000000000000000000e+00) (0, 0, 0.00000000000000000000e+00) (0, 0, 0.00000000000000000000e+00) (0, 0, 0.00000000000000000000e+00) (0, 0, 0.00000000000000000000e+00) (0, 0, 0.00000000000000000000e+00) (0, 0, 0.00000000000000000000e+00) (0, 0, 0.00000000000000000000e+00) (0, 0, 0.00000000000000000000e+00) (0, 0, 0.00000000000000000000e+00) (0, 0, 0.00000000000000000000e+00) (0, 0, 0.00000000000000000000e+00) (0, 0, 0.00000000000000000000e+00) (0, 0, 0.00000000000000000000e+00) (0, 0, 0.00000000000000000000e+00) (0, 0, 0.00000000000000000000e+00) (0, 0, 0.00000000000000000000e+00) (0, 0, 0.00000000000000000000e+00) (105, 5, 5.00000000000000000000e-01) (105, 5, 5.00000000000000000000e-01) (105, 5, 5.00000000000000000000e-01) (105, 5, 5.00000000000000000000e-01) (105, 5, 5.00000000000000000000e-01) (105, 5, 5.00000000000000000000e-01) (105, 5, 5.00000000000000000000e-01) (105, 5, 5.00000000000000000000e-01) (105, 5, 5.00000000000000000000e-01) (105, 5, 5.00000000000000000000e-01) (105, 5, 5.00000000000000000000e-01) (105, 5, 5.00000000000000000000e-01) (105, 5, 5.00000000000000000000e-01) (105, 5, 5.00000000000000000000e-01) (105, 5, 5.00000000000000000000e-01) (105, 5, 5.00000000000000000000e-01) (105, 5, 5.00000000000000000000e-01) (105, 5, 5.00000000000000000000e-01) (105, 5, 5.00000000000000000000e-01) (105, 5, 5.00000000000000000000e-01) (105, 5, 5.00000000000000000000e-01) (105, 5, 5.00000000000000000000e-01) (105, 5, 5.00000000000000000000e-01) (105, 5, 5.00000000000000000000e-01) (105, 5, 5.00000000000000000000e-01) (105, 5, 5.00000000000000000000e-01) (105, 5, 5.00000000000000000000e-01) (105, 5, 5.00000000000000000000e-01) (105, 5, 5.00000000000000000000e-01) (105, 5, 5.00000000000000000000e-01) (105, 5, 5.00000000000000000000e-01) (105, 5, 5.00000000000000000000e-01) (105, 5, 5.00000000000000000000e-01) (105, 5, 5.00000000000000000000e-01) (105, 5, 5.00000000000000000000e-01) (105, 5, 5.00000000000000000000e-01) (105, 5, 5.00000000000000000000e-01) (105, 5, 5.00000000000000000000e-01) (105, 5, 5.00000000000000000000e-01) (105, 5, 5.00000000000000000000e-01) (105, 5, 5.00000000000000000000e-01) (105, 5, 5.00000000000000000000e-01) (105, 5, 5.00000000000000000000e-01) (105, 5, 5.00000000000000000000e-01) (105, 5, 5.00000000000000000000e-01) (105, 5, 5.00000000000000000000e-01) (105, 5, 5.00000000000000000000e-01) (105, 5, 5.00000000000000000000e-01) (105, 5, 5.00000000000000000000e-01) (105, 5, 5.00000000000000000000e-01) (105, 5, 5.00000000000000000000e-01) (105, 5, 5.00000000000000000000e-01) (105, 5, 5.00000000000000000000e-01) (105, 5, 5.00000000000000000000e-01) (105, 5, 5.00000000000000000000e-01) (105, 5, 5.00000000000000000000e-01) (105, 5, 5.00000000000000000000e-01) (105, 5, 5.00000000000000000000e-01) (105, 5, 5.00000000000000000000e-01) (105, 5, 5.00000000000000000000e-01) (0, 5, 0.00000000000000000000e+00) (61, 5, 5.00000000000000000000e-01) (0, 5, 0.00000000000000000000e+00) 
connections (connected_to_neuron, weight)=(0, 9.67029724121093750000e+01) (1, -2.72587799072265625000e+02) (2, -4.61602490395307540894e-03) (3, -4.15457487106323242188e+00) (4, 6.24389827251434326172e-01) (5, 4.82029914855957031250e-01) (6, 8.46825838088989257812e-01) (7, -1.49925280761718750000e+03) (8, -1.49988671875000000000e+03) (9, 8.19526910781860351562e-01) (10, 8.43523144721984863281e-01) (11, 8.18707942962646484375e-01) (12, 6.00541353225708007812e-01) (13, 3.51005673408508300781e-01) (14, 8.70663225650787353516e-01) (15, 6.29353344440460205078e-01) (16, 6.55521035194396972656e-01) (17, 1.49999975585937500000e+03) (18, 1.49999975585937500000e+03) (19, 9.06903266906738281250e-01) (20, 1.49999975585937500000e+03) (21, 1.49999975585937500000e+03) (22, -9.18112243652343750000e+02) (23, 1.49999975585937500000e+03) (24, 1.49999975585937500000e+03) (25, 1.49999975585937500000e+03) (26, 1.49997619628906250000e+03) (27, 1.49997485351562500000e+03) (28, 1.49999975585937500000e+03) (29, 1.49999975585937500000e+03) (30, 9.39570248126983642578e-01) (31, 1.49999975585937500000e+03) (32, 1.49999975585937500000e+03) (33, 1.27934741973876953125e+00) (34, -1.50000000000000000000e+03) (35, 1.49999975585937500000e+03) (36, 1.49999133300781250000e+03) (37, 1.49999975585937500000e+03) (38, -1.50000000000000000000e+03) (39, 1.49997143554687500000e+03) (40, 1.49999975585937500000e+03) (41, -1.50000000000000000000e+03) (42, 1.49994775390625000000e+03) (43, 3.53859335184097290039e-01) (44, 1.49990393066406250000e+03) (45, -5.57392001152038574219e-01) (46, 6.97343811035156250000e+02) (47, 1.49989025878906250000e+03) (48, 1.49999975585937500000e+03) (49, 1.49998181152343750000e+03) (50, 1.49999975585937500000e+03) (51, 1.49999975585937500000e+03) (52, 7.44470179080963134766e-01) (53, 1.49999975585937500000e+03) (54, 1.49999975585937500000e+03) (55, 1.49999975585937500000e+03) (56, 1.49999975585937500000e+03) (57, 1.49999975585937500000e+03) (58, -1.49996044921875000000e+03) (59, 1.49999975585937500000e+03) (60, 7.02534377574920654297e-01) (61, 2.86271750926971435547e-01) (62, 1.49999975585937500000e+03) (63, 5.07488548755645751953e-01) (64, 1.49970751953125000000e+03) (65, 5.47151446342468261719e-01) (66, 1.49999975585937500000e+03) (67, 1.49999975585937500000e+03) (68, 1.49999975585937500000e+03) (69, 4.91343230009078979492e-01) (70, 7.18366801738739013672e-01) (71, 8.98603796958923339844e-01) (72, 1.01423418521881103516e+00) (73, 2.68910050392150878906e-01) (74, 9.01500105857849121094e-01) (75, 9.52674388885498046875e-01) (76, 9.51130688190460205078e-01) (77, 5.31514644622802734375e-01) (78, 9.88806724548339843750e-01) (79, 4.78951305150985717773e-01) (80, -1.16736853027343750000e+03) (81, 1.49999975585937500000e+03) (82, 1.49999975585937500000e+03) (83, -1.49999536132812500000e+03) (84, 9.30632293224334716797e-01) (85, 1.09839844703674316406e+00) (86, 6.98162496089935302734e-01) (87, 7.83340334892272949219e-01) (88, 7.38435089588165283203e-01) (89, 6.18266174316406250000e+02) (90, 2.26587429642677307129e-01) (91, -1.14516735076904296875e+00) (92, 9.54388439655303955078e-01) (93, 6.84313058853149414062e-01) (94, 3.96375775337219238281e-01) (95, 8.20738375186920166016e-01) (96, 7.83437192440032958984e-01) (97, 3.09006214141845703125e-01) (98, 2.55100101232528686523e-01) (99, 1.49999975585937500000e+03) (100, 6.11994981765747070312e-01) (101, 6.34292483329772949219e-01) (102, -1.49867846679687500000e+03) (103, 1.49891113281250000000e+03) (104, 1.23521888256072998047e+00) (0, -1.06285705566406250000e+01) (1, -5.99711298942565917969e-01) (2, -9.08317327499389648438e-01) (3, 1.55607625842094421387e-01) (4, -3.19482326507568359375e-01) (5, -3.81495594978332519531e+00) (6, -6.29895627498626708984e-01) (7, 8.79980564117431640625e-01) (8, -1.49994897460937500000e+03) (9, -3.55952292680740356445e-01) (10, 4.19603675603866577148e-01) (11, 3.35172683000564575195e-01) (12, -6.46316349506378173828e-01) (13, 5.78068256378173828125e-01) (14, -3.78881841897964477539e-01) (15, 2.66922742128372192383e-01) (16, 4.94340091943740844727e-01) (17, 1.22224271297454833984e-01) (18, 2.45746397972106933594e+00) (19, 3.71673963963985443115e-02) (20, 1.62979423999786376953e-01) (21, 1.19680476188659667969e+00) (22, -4.88413047790527343750e+00) (23, -1.51735052466392517090e-01) (24, 9.27913475036621093750e+00) (25, -1.66999840736389160156e+00) (26, 6.03346049785614013672e-01) (27, 3.27695727348327636719e-01) (28, 9.61617529392242431641e-01) (29, 2.45281934738159179688e+00) (30, -3.94914150238037109375e+00) (31, 1.12073376774787902832e-01) (32, 1.95732079446315765381e-02) (33, -6.96213781833648681641e-01) (34, -1.45100744628906250000e+03) (35, 2.68007564544677734375e+00) (36, 2.27239774540066719055e-03) (37, -2.10818186402320861816e-01) (38, -1.93177953362464904785e-01) (39, 1.09013485908508300781e+00) (40, 1.40811312198638916016e+00) (41, -1.50000000000000000000e+03) (42, 2.32685104012489318848e-01) (43, 2.10352039337158203125e+00) (44, 1.24358272552490234375e+01) (45, -3.83869558572769165039e-01) (46, -9.50244064331054687500e+01) (47, -2.81587862968444824219e+00) (48, 2.52614951133728027344e+00) (49, 5.37954509258270263672e-01) (50, 3.34914159774780273438e+00) (51, 1.35830008983612060547e+00) (52, 2.20853567123413085938e-01) (53, 3.52822036743164062500e+01) (54, 7.82670080661773681641e-01) (55, 1.95943641662597656250e+01) (56, 7.66648590564727783203e-01) (57, 5.57233870029449462891e-01) (58, -1.50000000000000000000e+03) (59, 4.92034530639648437500e+00) (60, -3.69982212781906127930e-01) (61, -1.35825881958007812500e+01) (62, 4.23154756426811218262e-02) (63, -2.86384224891662597656e-01) (64, 1.06258349609375000000e+03) (65, -9.05141979455947875977e-02) (66, 1.49999975585937500000e+03) (67, 2.95568645000457763672e-01) (68, 2.53134584426879882812e+00) (69, 2.31142401695251464844e-01) (70, 3.92403937876224517822e-02) (71, -2.15875327587127685547e-01) (72, -1.27214944362640380859e+00) (73, -1.70147743225097656250e+01) (74, -3.34888309240341186523e-01) (75, 9.34875547885894775391e-01) (76, -1.64084076881408691406e-01) (77, -2.49896004796028137207e-01) (78, -3.77197235822677612305e-01) (79, 9.83336806297302246094e-01) (80, -1.12968194484710693359e+00) (81, 5.39501607418060302734e-01) (82, 1.72552418708801269531e+00) (83, -1.50000000000000000000e+03) (84, 5.03914713859558105469e-01) (85, 5.62706708908081054688e-01) (86, 1.46700991317629814148e-02) (87, 2.84426569938659667969e-01) (88, 4.03147429227828979492e-01) (89, 1.05542346191406250000e+03) (90, 2.72566556930541992188e-01) (91, -1.43634319305419921875e-01) (92, -6.66786968708038330078e-01) (93, 8.73762741684913635254e-02) (94, -4.28527712821960449219e-01) (95, -3.94538402557373046875e-01) (96, -4.86981540918350219727e-01) (97, -3.90672355890274047852e-01) (98, -1.60333082079887390137e-01) (99, 5.41086554527282714844e-01) (100, -2.74003595113754272461e-01) (101, -5.81868827342987060547e-01) (102, 4.12709665298461914062e+00) (103, -6.21156811714172363281e-01) (104, 2.65418410301208496094e+00) (0, -1.21818399429321289062e+01) (1, 5.21769618988037109375e+00) (2, 2.27181959152221679688e+00) (3, 2.09680891036987304688e+00) (4, 1.01124191284179687500e+00) (5, 1.11482226848602294922e+00) (6, 1.15444576740264892578e+00) (7, -3.08350563049316406250e+01) (8, 2.83156156539916992188e-01) (9, 2.62815088033676147461e-01) (10, 9.48106646537780761719e-01) (11, 1.37990319728851318359e+00) (12, 3.20849865674972534180e-01) (13, -4.24658155441284179688e+00) (14, 6.92203998565673828125e-01) (15, -1.78297415375709533691e-01) (16, 1.43676733970642089844e+00) (17, 1.43448519706726074219e+00) (18, 2.60408893227577209473e-02) (19, 1.60828673839569091797e+00) (20, 2.49339389801025390625e+00) (21, 4.36666071414947509766e-01) (22, 2.01550102233886718750e+00) (23, 2.31573402881622314453e-01) (24, 1.68253707885742187500e+00) (25, 3.91899275779724121094e+00) (26, 7.92900502681732177734e-01) (27, -1.04271553456783294678e-01) (28, 6.16555988788604736328e-01) (29, -1.86722710728645324707e-01) (30, 2.02642822265625000000e+00) (31, 7.83522129058837890625e-02) (32, 4.48559612035751342773e-01) (33, 6.48231685161590576172e-01) (34, -5.59359455108642578125e+00) (35, 1.49826984852552413940e-02) (36, 7.26688504219055175781e-02) (37, -1.43350028991699218750e+00) (38, 7.12704896926879882812e-01) (39, -1.65788792073726654053e-02) (40, 5.67500174045562744141e-01) (41, 4.79125833511352539062e+00) (42, -5.44099628925323486328e-01) (43, 1.92776620388031005859e+00) (44, -8.95459175109863281250e+00) (45, 5.62471628189086914062e-01) (46, 4.10966491699218750000e+00) (47, 4.47434395551681518555e-01) (48, -1.47529971599578857422e+00) (49, 2.16775870323181152344e+00) (50, -4.17017251253128051758e-01) (51, 9.09955427050590515137e-02) (52, 1.40629386901855468750e+00) (53, 7.98836827278137207031e-01) (54, 1.79133093357086181641e+00) (55, -1.30847799777984619141e+00) (56, 5.04877008497714996338e-02) (57, -1.32372164726257324219e+00) (58, -8.79594385623931884766e-02) (59, -2.39238813519477844238e-01) (60, 3.21399122476577758789e-01) (61, 1.65351176261901855469e+00) (62, -1.34338587522506713867e-01) (63, 3.39447379112243652344e-01) (64, -5.52944612503051757812e+00) (65, 1.26215964555740356445e-01) (66, -9.94423961639404296875e+00) (67, -5.71014843881130218506e-02) (68, -6.60577201843261718750e+00) (69, 2.17451596260070800781e+00) (70, -3.05957794189453125000e-01) (71, -6.57006399706006050110e-03) (72, 2.15442776679992675781e+00) (73, -9.88770425319671630859e-01) (74, 3.88643264770507812500e-01) (75, 9.36493301391601562500e+00) (76, 3.19050788879394531250e+00) (77, -2.36199513077735900879e-01) (78, 1.22210645675659179688e+00) (79, 1.03373718261718750000e+00) (80, 4.81786918640136718750e+00) (81, 9.84843432903289794922e-01) (82, -8.69180023670196533203e-01) (83, -8.20403814315795898438e-01) (84, -1.70012462139129638672e+00) (85, -1.42606937885284423828e+00) (86, 1.74406334757804870605e-01) (87, 3.62746387720108032227e-01) (88, 2.92954826354980468750e+00) (89, 1.06887805461883544922e+00) (90, 2.14357137680053710938e+00) (91, -1.82337105274200439453e-01) (92, 1.33206377029418945312e+01) (93, -9.08834934234619140625e-01) (94, 7.17586934566497802734e-01) (95, 1.66557323932647705078e+00) (96, 6.13745927810668945312e-01) (97, 1.07706069946289062500e+00) (98, 5.38271379470825195312e+00) (99, -3.38491886854171752930e-01) (100, -1.76831753924489021301e-03) (101, -4.95821163058280944824e-02) (102, 1.22274398803710937500e+00) (103, 1.57955491542816162109e+00) (104, 1.54002475738525390625e+00) (0, -2.83056497573852539062e+00) (1, 1.00306078791618347168e-01) (2, -1.03377032279968261719e+00) (3, 2.76554048061370849609e-01) (4, -4.60804641246795654297e-01) (5, -3.94598722457885742188e-01) (6, -2.38987207412719726562e-01) (7, 1.69903898239135742188e+00) (8, -3.08023452758789062500e+00) (9, 1.16419270634651184082e-01) (10, 9.27673399448394775391e-01) (11, 3.29461485147476196289e-01) (12, -1.03474462032318115234e+00) (13, 6.81784451007843017578e-01) (14, 1.73808589577674865723e-01) (15, 5.82207858562469482422e-01) (16, 9.82572615146636962891e-01) (17, 3.64792764186859130859e-01) (18, 1.95353627204895019531e+00) (19, -2.76799649000167846680e-01) (20, 7.78642416000366210938e-01) (21, 6.60054147243499755859e-01) (22, -4.43193483352661132812e+00) (23, -3.30947577953338623047e-01) (24, 1.20684823989868164062e+01) (25, 3.46686542034149169922e-01) (26, 5.45007824897766113281e-01) (27, 1.37083441019058227539e-01) (28, 6.72062110900878906250e+00) (29, 4.81390905380249023438e+00) (30, -2.35190620422363281250e+01) (31, 5.24509310722351074219e-01) (32, 7.34918653964996337891e-01) (33, -3.46901454031467437744e-02) (34, -5.68344688415527343750e+00) (35, 8.04708099365234375000e+00) (36, 6.74153268337249755859e-02) (37, 3.71294289827346801758e-01) (38, -3.08444142341613769531e-01) (39, 6.41171514987945556641e-01) (40, 1.06196200847625732422e+00) (41, -2.75401172637939453125e+01) (42, -6.25165030360221862793e-02) (43, -3.88327211141586303711e-01) (44, 1.12114953994750976562e+00) (45, -4.45059251785278320312e+00) (46, -4.82826614379882812500e+00) (47, -3.10042452812194824219e+00) (48, 1.47086791992187500000e+01) (49, 3.93242508172988891602e-01) (50, 4.90023672580718994141e-01) (51, 4.29579645395278930664e-01) (52, 1.87859445810317993164e-01) (53, 1.44590270519256591797e+00) (54, 1.89302575588226318359e+00) (55, 4.45122385025024414062e+00) (56, 8.26230645179748535156e-01) (57, 1.82476267218589782715e-01) (58, -6.91793382167816162109e-01) (59, 5.40717983245849609375e+00) (60, -4.06460464000701904297e-01) (61, -2.64481353759765625000e+00) (62, -3.76911550760269165039e-01) (63, -5.36460876464843750000e-01) (64, 1.14754498004913330078e-01) (65, -3.83466571569442749023e-01) (66, -6.90298080444335937500e-01) (67, -8.55120718479156494141e-02) (68, 4.58268523216247558594e-01) (69, -9.51239883899688720703e-01) (70, 5.51895648241043090820e-02) (71, -2.66807705163955688477e-01) (72, -5.29851794242858886719e-01) (73, -4.00065917968750000000e+01) (74, -4.61482465267181396484e-01) (75, 1.24216401576995849609e+00) (76, -5.03243654966354370117e-02) (77, -4.89673852920532226562e-01) (78, -2.08695292472839355469e+00) (79, 5.38317441940307617188e-01) (80, 4.88095492124557495117e-01) (81, -8.83416980504989624023e-02) (82, 3.21756243705749511719e-01) (83, -1.34035575389862060547e+00) (84, 6.11144781112670898438e-01) (85, 9.20826137065887451172e-01) (86, 4.06873598694801330566e-02) (87, -6.71078801155090332031e-01) (88, 4.28720265626907348633e-01) (89, 6.09005808830261230469e-01) (90, 4.98385459184646606445e-01) (91, -2.56341665983200073242e-01) (92, -1.45696055889129638672e+00) (93, 7.36300200223922729492e-02) (94, -4.79109317064285278320e-01) (95, -9.91317391395568847656e-01) (96, -7.19376981258392333984e-01) (97, -4.47213023900985717773e-01) (98, 4.72324043512344360352e-02) (99, 1.53246968984603881836e-01) (100, -5.63479661941528320312e-01) (101, -1.09425806999206542969e+00) (102, 2.49713373184204101562e+00) (103, 7.27086067199707031250e-02) (104, 2.79979991912841796875e+00) (0, -2.80590763092041015625e+01) (1, -1.40183525085449218750e+01) (2, -5.13191270828247070312e+00) (3, -2.23263472318649291992e-01) (4, 1.56864190101623535156e+00) (5, 5.99325323104858398438e+00) (6, 2.50429797172546386719e+00) (7, 1.27759399414062500000e+01) (8, -7.00680398941040039062e+00) (9, 2.49706104397773742676e-01) (10, -2.00322255492210388184e-01) (11, 1.31148970127105712891e+00) (12, -2.91623163223266601562e+00) (13, 3.11653316020965576172e-01) (14, 7.50204026699066162109e-01) (15, 1.34723586961627006531e-02) (16, 4.41974163055419921875e-01) (17, 8.91196727752685546875e-01) (18, 3.70264363288879394531e+00) (19, 4.76893126964569091797e-01) (20, 1.84755146503448486328e+00) (21, 8.60951483249664306641e-01) (22, 1.29909443855285644531e+00) (23, 2.16144466400146484375e+00) (24, 2.15438723564147949219e+00) (25, 1.32343590259552001953e+00) (26, 2.18342795968055725098e-01) (27, 3.50088745355606079102e-01) (28, 7.55848467350006103516e-01) (29, -9.85905289649963378906e-01) (30, 1.78847089409828186035e-01) (31, -5.01418054103851318359e-01) (32, 3.79408337175846099854e-02) (33, 1.12663879990577697754e-01) (34, -1.51155109405517578125e+01) (35, 4.32307291030883789062e+00) (36, 1.24524354934692382812e-01) (37, -4.03914928436279296875e-01) (38, -7.61929392814636230469e-01) (39, -2.62080848217010498047e-01) (40, -1.94412851333618164062e+00) (41, -2.37064504623413085938e+00) (42, -1.90016418695449829102e-01) (43, -3.42215597629547119141e-01) (44, -4.02855783700942993164e-01) (45, -5.80077171325683593750e-01) (46, -6.91876173019409179688e-01) (47, -1.19236433506011962891e+00) (48, -8.29377397894859313965e-02) (49, -1.76980644464492797852e-01) (50, 2.25500106811523437500e-01) (51, 3.24947647750377655029e-02) (52, -4.33057337999343872070e-01) (53, 2.27650299668312072754e-01) (54, 2.02665939927101135254e-01) (55, -5.86746744811534881592e-02) (56, -1.28484666347503662109e-01) (57, -1.92452371120452880859e-01) (58, -1.81250572204589843750e-01) (59, -2.88350772857666015625e+00) (60, -3.61072391271591186523e-01) (61, 9.40984189510345458984e-01) (62, -1.39100939035415649414e-01) (63, -6.18198871612548828125e-01) (64, -1.58317482471466064453e+00) (65, -4.31491911411285400391e-01) (66, -3.07019025087356567383e-01) (67, -6.70876443386077880859e-01) (68, -5.49743890762329101562e-01) (69, -9.28676128387451171875e-01) (70, -2.04512044787406921387e-01) (71, -9.23506449908018112183e-03) (72, -4.09308709204196929932e-02) (73, -2.04306587576866149902e-01) (74, -4.16507050395011901855e-02) (75, -3.75500251539051532745e-03) (76, -5.39431255310773849487e-03) (77, -4.73601818084716796875e-01) (78, 5.71939954534173011780e-03) (79, -9.03408229351043701172e-01) (80, -1.16295740008354187012e-01) (81, -9.83386561274528503418e-02) (82, -1.81570798158645629883e-01) (83, -5.42536139488220214844e-01) (84, -2.60207742452621459961e-01) (85, -2.65384942293167114258e-01) (86, -2.46823787689208984375e-01) (87, -1.26945972442626953125e-01) (88, -2.94429421424865722656e-01) (89, -1.40273064374923706055e-01) (90, -5.57995200157165527344e-01) (91, -7.38835155963897705078e-01) (92, -2.35134392976760864258e-01) (93, -9.35598984360694885254e-02) (94, -2.76030093431472778320e-01) (95, -2.42554098367691040039e-02) (96, -1.41062036156654357910e-01) (97, -2.66373246908187866211e-01) (98, -4.87807065248489379883e-01) (99, -2.18520060181617736816e-01) (100, -2.97476559877395629883e-01) (101, -1.26611784100532531738e-01) (102, -1.49881030273437500000e+03) (103, 1.49903027343750000000e+03) (104, 2.13419198989868164062e+00) (0, 1.42267818450927734375e+01) (1, 3.89629974365234375000e+02) (2, 7.58965194225311279297e-01) (3, 9.48018836975097656250e+00) (4, 2.13326311111450195312e+00) (5, 2.17041039466857910156e+00) (6, 2.10884523391723632812e+00) (7, 1.49999975585937500000e+03) (8, -1.49988671875000000000e+03) (9, 2.20773315429687500000e+00) (10, 2.43704557418823242188e+00) (11, 1.53705012798309326172e+00) (12, 1.86125612258911132812e+00) (13, 1.95829749107360839844e+00) (14, 1.72524940967559814453e+00) (15, 2.91503214836120605469e+00) (16, 2.93013358116149902344e+00) (17, 1.49999975585937500000e+03) (18, 1.49999975585937500000e+03) (19, 2.43414306640625000000e+00) (20, 1.49999975585937500000e+03) (21, 1.49999975585937500000e+03) (22, -9.17295227050781250000e+02) (23, 1.49999975585937500000e+03) (24, 1.49999975585937500000e+03) (25, 1.49999975585937500000e+03) (26, 1.49997619628906250000e+03) (27, 1.49997485351562500000e+03) (28, 1.49999975585937500000e+03) (29, 1.49999975585937500000e+03) (30, 8.76110136508941650391e-01) (31, 1.49999975585937500000e+03) (32, 1.49999975585937500000e+03) (33, 1.58094632625579833984e+00) (34, -1.50000000000000000000e+03) (35, 1.49999975585937500000e+03) (36, 1.49999133300781250000e+03) (37, 1.49999975585937500000e+03) (38, 1.49946081542968750000e+03) (39, 1.49997143554687500000e+03) (40, 1.49999975585937500000e+03) (41, -1.50000000000000000000e+03) (42, 1.49994775390625000000e+03) (43, 1.76423764228820800781e+00) (44, 1.49990393066406250000e+03) (45, 1.85781307220458984375e+01) (46, 6.97343811035156250000e+02) (47, 1.49989025878906250000e+03) (48, 1.49999975585937500000e+03) (49, 1.49998181152343750000e+03) (50, 1.49999975585937500000e+03) (51, 1.49999975585937500000e+03) (52, 2.66530823707580566406e+00) (53, 1.49999975585937500000e+03) (54, 1.49999975585937500000e+03) (55, 1.49999975585937500000e+03) (56, 1.49999975585937500000e+03) (57, 1.49999975585937500000e+03) (58, -1.49996044921875000000e+03) (59, 1.49999975585937500000e+03) (60, 3.21028041839599609375e+00) (61, 1.22990608215332031250e+00) (62, 1.49999975585937500000e+03) (63, 2.57688975334167480469e+00) (64, 1.49970751953125000000e+03) (65, 2.50642275810241699219e+00) (66, 1.49999975585937500000e+03) (67, 1.49999975585937500000e+03) (68, 1.49999975585937500000e+03) (69, 3.64620208740234375000e+00) (70, 2.81095504760742187500e+00) (71, 2.57863569259643554688e+00) (72, 1.51112580299377441406e+00) (73, -1.02017188072204589844e+00) (74, 2.21946907043457031250e+00) (75, 2.54223775863647460938e+00) (76, 2.08640623092651367188e+00) (77, 2.59069824218750000000e+00) (78, 1.97858679294586181641e+00) (79, 3.32205605506896972656e+00) (80, 1.49999975585937500000e+03) (81, 1.49999975585937500000e+03) (82, 1.49999975585937500000e+03) (83, -1.49999536132812500000e+03) (84, 2.85830974578857421875e+00) (85, 2.51155710220336914062e+00) (86, 2.47994375228881835938e+00) (87, 1.88573336601257324219e+00) (88, 2.52479839324951171875e+00) (89, 1.09178735351562500000e+03) (90, 2.55185556411743164062e+00) (91, 2.89470195770263671875e+00) (92, 1.80137395858764648438e+00) (93, 2.43127512931823730469e+00) (94, 2.46696066856384277344e+00) (95, 2.15470170974731445312e+00) (96, 9.07918870449066162109e-01) (97, 1.88988852500915527344e+00) (98, 2.66654086112976074219e+00) (99, 1.49999975585937500000e+03) (100, 2.75998163223266601562e+00) (101, 1.17402350902557373047e+00) (102, 1.49999975585937500000e+03) (103, -1.49999975585937500000e+03) (104, 6.85921728610992431641e-01) (0, -4.51757965087890625000e+01) (1, -1.79468627929687500000e+02) (2, 7.97577762603759765625e+00) (3, -3.16794090270996093750e+01) (4, -4.36509735882282257080e-02) (5, -8.96732032299041748047e-01) (6, 2.28247475624084472656e+00) (7, -8.39316787719726562500e+01) (8, 9.80810070037841796875e+00) (9, -4.79945600032806396484e-01) (10, -1.36399803161621093750e+01) (11, 4.79877501726150512695e-01) (12, -1.75594985485076904297e-01) (13, -1.39297657012939453125e+01) (14, -2.14032437652349472046e-02) (15, -5.78625321388244628906e-01) (16, -4.84434187412261962891e-01) (17, -2.14210063219070434570e-01) (18, -2.93950676918029785156e-01) (19, -1.15240857005119323730e-01) (20, 1.90748572349548339844e-01) (21, 1.71689152717590332031e-01) (22, 2.85097932815551757812e+00) (23, 3.06522935628890991211e-01) (24, -6.48763626813888549805e-02) (25, 9.46741178631782531738e-02) (26, -1.90512466430664062500e+00) (27, -1.02284049987792968750e+00) (28, -6.64972186088562011719e-01) (29, -3.58434462547302246094e+00) (30, 1.00128006935119628906e+00) (31, -5.43742060661315917969e-01) (32, -7.44536519050598144531e-01) (33, -4.48678582906723022461e-01) (34, -4.06368446350097656250e+00) (35, -1.37858521938323974609e+00) (36, -5.75448036193847656250e-01) (37, -8.96990180015563964844e-01) (38, -3.17711859941482543945e-01) (39, -1.25679874420166015625e+00) (40, -4.69629096984863281250e+00) (41, 1.90220832824707031250e+01) (42, -6.32243514060974121094e-01) (43, -1.50959774851799011230e-01) (44, -3.45828604698181152344e+00) (45, -6.29211306571960449219e-01) (46, -6.59318149089813232422e-01) (47, -5.85664319992065429688e+00) (48, -7.46034908294677734375e+00) (49, -4.61650609970092773438e-01) (50, -1.00621902942657470703e+00) (51, -7.75576055049896240234e-01) (52, -7.38974452018737792969e-01) (53, -7.91466236114501953125e-01) (54, -8.98454964160919189453e-01) (55, -3.70394325256347656250e+00) (56, -6.40141844749450683594e-01) (57, -6.04881048202514648438e-01) (58, 5.32009780406951904297e-01) (59, -2.84192943572998046875e+01) (60, -4.71319258213043212891e-01) (61, 1.66459262371063232422e+00) (62, -5.40183663368225097656e-01) (63, -4.30968552827835083008e-01) (64, -6.40920715332031250000e+01) (65, -7.41638839244842529297e-01) (66, -7.05917310714721679688e+00) (67, -1.56447410583496093750e+00) (68, -2.14326858520507812500e+00) (69, -1.29490482807159423828e+00) (70, -6.81184709072113037109e-01) (71, -7.32485711574554443359e-01) (72, -1.44177868962287902832e-01) (73, 1.05323171615600585938e+00) (74, -4.62328910827636718750e-01) (75, -9.83526527881622314453e-01) (76, -5.04943132400512695312e-02) (77, -4.54665541648864746094e-01) (78, -8.84397253394126892090e-02) (79, -1.39055347442626953125e+00) (80, -2.31834201812744140625e+01) (81, -8.78918290138244628906e-01) (82, -1.07265698909759521484e+00) (83, 7.13144183158874511719e-01) (84, -7.91499495506286621094e-01) (85, -4.91324514150619506836e-01) (86, -3.72664123773574829102e-01) (87, -3.37966009974479675293e-02) (88, -1.00430727005004882812e+00) (89, -2.02455592155456542969e+00) (90, -9.74378883838653564453e-01) (91, -1.52632141113281250000e+00) (92, -4.97471839189529418945e-01) (93, -2.83059239387512207031e-01) (94, -4.34143394231796264648e-01) (95, -5.65868496894836425781e-01) (96, -1.21174104511737823486e-01) (97, -4.89008754491806030273e-01) (98, -1.85328707098960876465e-01) (99, -8.20968389511108398438e-01) (100, -3.23140174150466918945e-01) (101, 1.49925071746110916138e-02) (102, -1.49999975585937500000e+03) (103, 1.49999975585937500000e+03) (104, 1.94081592559814453125e+00) (0, 9.72592449188232421875e+00) (1, -3.11510533094406127930e-01) (2, -1.87338924407958984375e+01) (3, -4.08276319503784179688e-02) (4, -5.32293379306793212891e-01) (5, 1.93483817577362060547e+00) (6, -1.72206425666809082031e+00) (7, -6.03886175155639648438e+00) (8, 2.04592871665954589844e+00) (9, 9.10698592662811279297e-01) (10, 1.35869312286376953125e+00) (11, -9.93086874485015869141e-01) (12, -3.15752506256103515625e+00) (13, 1.79042649269104003906e+00) (14, 9.34722781181335449219e-01) (15, 1.23260557651519775391e+00) (16, 4.88144111633300781250e+00) (17, 2.91209351271390914917e-02) (18, -3.79003977775573730469e+00) (19, -2.24921256303787231445e-01) (20, 1.27570188045501708984e+00) (21, -5.72071838378906250000e+00) (22, 5.40858983993530273438e+00) (23, 1.94106233119964599609e+00) (24, 6.00012421607971191406e-01) (25, -1.34240570068359375000e+01) (26, 2.99139201641082763672e-01) (27, -9.55119073390960693359e-01) (28, 1.81136846542358398438e+00) (29, -2.07375574111938476562e+00) (30, 3.39052271842956542969e+00) (31, -6.70812749862670898438e+00) (32, -5.11395502090454101562e+00) (33, 1.18252551555633544922e+00) (34, 2.26559400558471679688e+00) (35, 2.91116982698440551758e-01) (36, -1.57142952084541320801e-01) (37, 2.23090577125549316406e+00) (38, 1.21329641342163085938e+00) (39, -3.03628778457641601562e+00) (40, -1.37883305549621582031e+00) (41, 1.02403175830841064453e+00) (42, -8.61098051071166992188e-01) (43, 6.41949623823165893555e-02) (44, 8.42810332775115966797e-01) (45, 5.31569099426269531250e+00) (46, 6.97348070144653320312e+00) (47, 5.97038745880126953125e+00) (48, 6.96200275421142578125e+00) (49, -1.08909010887145996094e+00) (50, 2.92577648162841796875e+00) (51, 7.48653650283813476562e-01) (52, 1.50858736038208007812e+00) (53, -1.70451033115386962891e+00) (54, 5.44238281250000000000e+00) (55, -1.46444106101989746094e+00) (56, -1.59650766849517822266e+00) (57, -7.22721517086029052734e-01) (58, -1.66750222444534301758e-01) (59, -8.67342710494995117188e-01) (60, -7.48126208782196044922e-01) (61, 5.58504581451416015625e+00) (62, -7.65178382396697998047e-01) (63, -1.08902966976165771484e+00) (64, 5.95910644531250000000e+00) (65, -7.14702129364013671875e-01) (66, -1.17265617847442626953e+00) (67, 8.71268391609191894531e-01) (68, -1.42097389698028564453e+00) (69, -6.69754445552825927734e-01) (70, 4.48769867420196533203e-01) (71, 3.89887720346450805664e-01) (72, 1.58895456790924072266e+00) (73, -3.63453745841979980469e-01) (74, -2.50409674644470214844e+00) (75, -7.10259866714477539062e+00) (76, 6.93408846855163574219e-01) (77, -7.29575991630554199219e-01) (78, -5.87392210960388183594e-01) (79, -9.30216979980468750000e+00) (80, -5.77135610580444335938e+00) (81, -1.01275622844696044922e+00) (82, -5.01065611839294433594e-01) (83, 7.64684855937957763672e-01) (84, 3.88975691795349121094e+00) (85, 2.02056860923767089844e+00) (86, 1.15795183181762695312e+00) (87, -3.96317571401596069336e-01) (88, 5.58177828788757324219e-01) (89, -6.24073266983032226562e-01) (90, 4.97406572103500366211e-01) (91, 5.15505194664001464844e-01) (92, -7.26101174950599670410e-02) (93, -5.55086314678192138672e-01) (94, -4.48097407817840576172e-01) (95, 1.77485663443803787231e-02) (96, -6.86439573764801025391e-01) (97, -2.70927786827087402344e-01) (98, -7.50015005469322204590e-02) (99, 1.69690921902656555176e-01) (100, -5.75483202934265136719e-01) (101, 3.80494654178619384766e-01) (102, -2.51220369338989257812e+00) (103, 6.06546306610107421875e+00) (104, 1.97890245914459228516e+00) (0, 1.76051197052001953125e+01) (1, -3.15080285072326660156e+00) (2, -7.23109602928161621094e-01) (3, 3.37676405906677246094e+00) (4, -4.34749394655227661133e-01) (5, -3.06438159942626953125e+00) (6, -2.18929275870323181152e-01) (7, -3.50473546981811523438e+00) (8, 2.64295101165771484375e-01) (9, 2.22366142272949218750e+00) (10, -1.44496396183967590332e-01) (11, -6.51600241661071777344e-01) (12, -1.09193458557128906250e+01) (13, -1.90740704536437988281e+00) (14, -1.51990830898284912109e+00) (15, -6.12231492996215820312e-01) (16, -6.93198144435882568359e-01) (17, -3.88058871030807495117e-01) (18, 6.48715317249298095703e-01) (19, 5.62949419021606445312e-01) (20, 2.03891801834106445312e+00) (21, -1.03406631946563720703e+00) (22, -1.19894027709960937500e+00) (23, 1.26699185371398925781e+00) (24, 3.69130563735961914062e+00) (25, -1.52146980166435241699e-01) (26, 2.47580814361572265625e+00) (27, 9.67539906501770019531e-01) (28, 4.98581491410732269287e-02) (29, 8.29846203327178955078e-01) (30, -1.33020806312561035156e+00) (31, 2.81768411397933959961e-01) (32, -6.45184695720672607422e-01) (33, -9.04183328151702880859e-01) (34, -5.69709634780883789062e+00) (35, 1.07747566699981689453e+00) (36, 9.36871945858001708984e-01) (37, -5.10755896568298339844e-01) (38, -5.38548007607460021973e-02) (39, -3.43816317617893218994e-02) (40, -3.70439231395721435547e-01) (41, -5.46310329437255859375e+00) (42, 1.16416037082672119141e+00) (43, -1.56021296977996826172e+00) (44, 1.93763315677642822266e+00) (45, -5.04732656478881835938e+00) (46, -2.69604516029357910156e+00) (47, -7.57470801472663879395e-02) (48, -1.12336230278015136719e+00) (49, -1.61772954463958740234e+00) (50, 6.12952649593353271484e-01) (51, -6.32306277751922607422e-01) (52, 1.14049839973449707031e+00) (53, 5.78284680843353271484e-01) (54, 5.91760158538818359375e-01) (55, 4.25557231903076171875e+00) (56, 1.05103981494903564453e+00) (57, 3.68821716308593750000e+00) (58, 6.57965362071990966797e-01) (59, -1.75534814596176147461e-01) (60, -1.13764502108097076416e-01) (61, -2.99091792106628417969e+00) (62, 4.67236429452896118164e-01) (63, 1.96578323841094970703e-01) (64, -1.35689651966094970703e+00) (65, 1.22557532787322998047e+00) (66, -4.12963294982910156250e+00) (67, -2.91389179229736328125e+00) (68, -5.73899364471435546875e+00) (69, -1.62139207124710083008e-01) (70, -1.67334601283073425293e-01) (71, 1.64726686477661132812e+00) (72, 4.20574158430099487305e-01) (73, -2.44616246223449707031e+00) (74, 5.82023620605468750000e-01) (75, 1.62310028076171875000e+00) (76, -9.85596418380737304688e-01) (77, 6.68267130851745605469e-01) (78, 2.19653773307800292969e+00) (79, -2.94547152519226074219e+00) (80, 7.92659044265747070312e-01) (81, -2.33202719688415527344e+00) (82, -2.22942113876342773438e+00) (83, -4.14707809686660766602e-01) (84, -2.26099386811256408691e-01) (85, -1.91105782985687255859e+00) (86, 7.13072001934051513672e-01) (87, -6.35597646236419677734e-01) (88, -3.29780769348144531250e+00) (89, 3.62847614288330078125e+00) (90, 1.69979155063629150391e+00) (91, -3.58689039945602416992e-01) (92, 5.88752698898315429688e+00) (93, -3.31655979156494140625e-01) (94, 1.22123081237077713013e-02) (95, -2.40810900926589965820e-01) (96, 1.62240386009216308594e-01) (97, -8.14369320869445800781e-01) (98, -4.50316965579986572266e-02) (99, -8.77880871295928955078e-01) (100, -1.64671000093221664429e-02) (101, -2.72138714790344238281e-01) (102, 4.42495679855346679688e+00) (103, -6.81947290897369384766e-01) (104, 2.34077095985412597656e+00) (0, 1.41585903167724609375e+01) (1, 3.91446014404296875000e+02) (2, 8.54573249816894531250e-01) (3, 9.18526744842529296875e+00) (4, 2.10965371131896972656e+00) (5, 2.01263737678527832031e+00) (6, 2.20623207092285156250e+00) (7, 1.49999975585937500000e+03) (8, -1.49988671875000000000e+03) (9, 2.10430097579956054688e+00) (10, 2.41901993751525878906e+00) (11, 1.53099691867828369141e+00) (12, 1.80313050746917724609e+00) (13, 1.96688210964202880859e+00) (14, 1.77092242240905761719e+00) (15, 2.83271932601928710938e+00) (16, 2.66501402854919433594e+00) (17, 1.49999975585937500000e+03) (18, 1.49999975585937500000e+03) (19, 2.54226303100585937500e+00) (20, 1.49999975585937500000e+03) (21, 1.49999975585937500000e+03) (22, -9.17278015136718750000e+02) (23, 1.49999975585937500000e+03) (24, 1.49999975585937500000e+03) (25, 1.49999975585937500000e+03) (26, 1.49997619628906250000e+03) (27, 1.49997485351562500000e+03) (28, 1.49999975585937500000e+03) (29, 1.49999975585937500000e+03) (30, 8.00553143024444580078e-01) (31, 1.49999975585937500000e+03) (32, 1.49999975585937500000e+03) (33, 1.62003910541534423828e+00) (34, -1.50000000000000000000e+03) (35, 1.49999975585937500000e+03) (36, 1.49999133300781250000e+03) (37, 1.49999975585937500000e+03) (38, 1.49946081542968750000e+03) (39, 1.49997143554687500000e+03) (40, 1.49999975585937500000e+03) (41, -1.50000000000000000000e+03) (42, 1.49994775390625000000e+03) (43, 2.03401255607604980469e+00) (44, 1.49990393066406250000e+03) (45, 1.05474754333496093750e+02) (46, 6.97343811035156250000e+02) (47, 1.49989025878906250000e+03) (48, 1.49999975585937500000e+03) (49, 1.49998181152343750000e+03) (50, 1.49999975585937500000e+03) (51, 1.49999975585937500000e+03) (52, 2.71829366683959960938e+00) (53, 1.49999975585937500000e+03) (54, 1.49999975585937500000e+03) (55, 1.49999975585937500000e+03) (56, 1.49999975585937500000e+03) (57, 1.49999975585937500000e+03) (58, -1.49996044921875000000e+03) (59, 1.49999975585937500000e+03) (60, 1.43951654434204101562e+01) (61, 1.19237124919891357422e+00) (62, 1.49999975585937500000e+03) (63, 2.86711406707763671875e+00) (64, 1.49970715332031250000e+03) (65, 3.04804563522338867188e+00) (66, 1.49999975585937500000e+03) (67, 1.49999975585937500000e+03) (68, 1.49999975585937500000e+03) (69, 3.69317483901977539062e+00) (70, 2.85541200637817382812e+00) (71, 2.60780143737792968750e+00) (72, 1.40693426132202148438e+00) (73, -7.23310351371765136719e-01) (74, 2.25847935676574707031e+00) (75, 2.57010459899902343750e+00) (76, 1.89078569412231445312e+00) (77, 2.35312080383300781250e+00) (78, 1.85144484043121337891e+00) (79, 3.19237256050109863281e+00) (80, 1.49999975585937500000e+03) (81, 1.49999975585937500000e+03) (82, 1.49999975585937500000e+03) (83, -1.49999536132812500000e+03) (84, 2.86812162399291992188e+00) (85, 2.46199202537536621094e+00) (86, 2.39640283584594726562e+00) (87, 1.84043836593627929688e+00) (88, 2.47982072830200195312e+00) (89, 1.09164123535156250000e+03) (90, 2.65601038932800292969e+00) (91, 5.06812906265258789062e+00) (92, 1.98369503021240234375e+00) (93, 2.41053509712219238281e+00) (94, 2.25993633270263671875e+00) (95, 2.23961305618286132812e+00) (96, 9.25187408924102783203e-01) (97, 1.97576355934143066406e+00) (98, 2.77390623092651367188e+00) (99, 1.49999975585937500000e+03) (100, 2.64629697799682617188e+00) (101, 1.04912221431732177734e+00) (102, 1.49999975585937500000e+03) (103, -1.49999975585937500000e+03) (104, 7.19830155372619628906e-01) (0, -2.60540370941162109375e+01) (1, -6.91763458251953125000e+01) (2, -3.89796972274780273438e-01) (3, -6.84775471687316894531e-01) (4, 6.72709703445434570312e-01) (5, -2.34994173049926757812e+00) (6, -5.63424170017242431641e-01) (7, -1.49420751953125000000e+03) (8, 7.50837020874023437500e+01) (9, 7.37318515777587890625e-01) (10, -8.01607370376586914062e-01) (11, 2.80095517635345458984e-01) (12, 9.83985543251037597656e-01) (13, 3.44323420524597167969e+00) (14, 1.07257676124572753906e+00) (15, 5.81286668777465820312e-01) (16, -5.01684665679931640625e+00) (17, 7.85706937313079833984e-01) (18, -2.86390453577041625977e-01) (19, 6.62290871143341064453e-01) (20, 1.69454887509346008301e-01) (21, 5.98779320716857910156e-01) (22, 6.07255840301513671875e+00) (23, 7.41464436054229736328e-01) (24, -3.76821815967559814453e-01) (25, 1.11664152145385742188e+00) (26, 3.91524553298950195312e-01) (27, 5.55376231670379638672e-01) (28, 5.51479279994964599609e-01) (29, -2.06216603517532348633e-01) (30, 9.78443145751953125000e-01) (31, 2.03812167048454284668e-01) (32, 4.91041988134384155273e-01) (33, 9.19415950775146484375e-01) (34, 1.83100833892822265625e+01) (35, -1.06318302154541015625e+01) (36, -2.48268812894821166992e-01) (37, -4.96379524469375610352e-01) (38, 8.88220369815826416016e-01) (39, 4.36193317174911499023e-01) (40, -7.67387002706527709961e-02) (41, 1.44063348770141601562e+01) (42, 3.97286474704742431641e-01) (43, 8.66901040077209472656e-01) (44, -1.56262035369873046875e+01) (45, 6.27429544925689697266e-01) (46, 5.13636648654937744141e-01) (47, -7.38309717178344726562e+00) (48, -1.25829210281372070312e+01) (49, -1.28686308860778808594e-01) (50, -9.41917657852172851562e-01) (51, -1.46124377846717834473e-01) (52, 1.55864909291267395020e-01) (53, -2.23367005586624145508e-01) (54, -3.58116745948791503906e-01) (55, -9.92221736907958984375e+00) (56, 3.76257419586181640625e-01) (57, -4.75175797939300537109e-01) (58, 8.23379874229431152344e-01) (59, -3.49560302734375000000e+02) (60, 3.53497564792633056641e-01) (61, 5.14539420604705810547e-01) (62, 3.86646032333374023438e-01) (63, 5.50573706626892089844e-01) (64, -1.25072231292724609375e+01) (65, 3.64049375057220458984e-01) (66, -3.63356590270996093750e+00) (67, -2.58270263671875000000e-01) (68, -8.71448934078216552734e-01) (69, -2.55627065896987915039e-01) (70, 3.19215297698974609375e-01) (71, 4.11745667457580566406e-01) (72, 5.73974013328552246094e-01) (73, 4.68488752841949462891e-01) (74, 3.51401090621948242188e-01) (75, 7.07255080342292785645e-02) (76, 4.31575030088424682617e-01) (77, 4.94242072105407714844e-01) (78, 5.37378311157226562500e-01) (79, -1.60224929451942443848e-01) (80, -2.43923721313476562500e+02) (81, -3.30891489982604980469e-01) (82, -5.91037161648273468018e-02) (83, 9.74994719028472900391e-01) (84, 1.41736060380935668945e-01) (85, 4.27202761173248291016e-01) (86, 3.99953395128250122070e-01) (87, 6.77031993865966796875e-01) (88, 2.45185732841491699219e-01) (89, -2.76921939849853515625e+00) (90, 4.01937395334243774414e-01) (91, 3.45219671726226806641e-01) (92, 5.17395675182342529297e-01) (93, 4.49773639440536499023e-01) (94, 5.30677974224090576172e-01) (95, 5.41706323623657226562e-01) (96, 7.31279313564300537109e-01) (97, 5.00870168209075927734e-01) (98, 3.87699961662292480469e-01) (99, 1.13810814917087554932e-01) (100, 5.92844784259796142578e-01) (101, 5.20055055618286132812e-01) (102, -1.49999975585937500000e+03) (103, 1.49999975585937500000e+03) (104, 1.14872312545776367188e+00) (0, 1.42368984222412109375e+01) (1, 4.01147613525390625000e+02) (2, 8.80924344062805175781e-01) (3, 9.57799816131591796875e+00) (4, 2.06589818000793457031e+00) (5, 2.14738082885742187500e+00) (6, 2.09285593032836914062e+00) (7, 1.49999975585937500000e+03) (8, -1.49988671875000000000e+03) (9, 2.12625098228454589844e+00) (10, 2.47007274627685546875e+00) (11, 1.54481351375579833984e+00) (12, 1.92208981513977050781e+00) (13, 2.00972914695739746094e+00) (14, 1.75772893428802490234e+00) (15, 3.20063090324401855469e+00) (16, 2.95039629936218261719e+00) (17, 1.49999975585937500000e+03) (18, 1.49999975585937500000e+03) (19, 2.28268361091613769531e+00) (20, 1.49999975585937500000e+03) (21, 1.49999975585937500000e+03) (22, -9.17295410156250000000e+02) (23, 1.49999975585937500000e+03) (24, 1.49999975585937500000e+03) (25, 1.49999975585937500000e+03) (26, 1.49997619628906250000e+03) (27, 1.49997485351562500000e+03) (28, 1.49999975585937500000e+03) (29, 1.49999975585937500000e+03) (30, 1.14756786823272705078e+00) (31, 1.49999975585937500000e+03) (32, 1.49999975585937500000e+03) (33, 1.48686218261718750000e+00) (34, -1.50000000000000000000e+03) (35, 1.49999975585937500000e+03) (36, 1.49999133300781250000e+03) (37, 1.49999975585937500000e+03) (38, 1.49946081542968750000e+03) (39, 1.49997143554687500000e+03) (40, 1.49999975585937500000e+03) (41, -1.50000000000000000000e+03) (42, 1.49994775390625000000e+03) (43, 1.88703083992004394531e+00) (44, 1.49990393066406250000e+03) (45, 6.61421966552734375000e+01) (46, 6.97343811035156250000e+02) (47, 1.49989025878906250000e+03) (48, 1.49999975585937500000e+03) (49, 1.49998181152343750000e+03) (50, 1.49999975585937500000e+03) (51, 1.49999975585937500000e+03) (52, 2.43408870697021484375e+00) (53, 1.49999975585937500000e+03) (54, 1.49999975585937500000e+03) (55, 1.49999975585937500000e+03) (56, 1.49999975585937500000e+03) (57, 1.49999975585937500000e+03) (58, -1.49996044921875000000e+03) (59, 1.49999975585937500000e+03) (60, 2.57939205169677734375e+01) (61, 1.11042547225952148438e+00) (62, 1.49999975585937500000e+03) (63, 2.85267043113708496094e+00) (64, 1.49970715332031250000e+03) (65, 2.80809783935546875000e+00) (66, 1.49999975585937500000e+03) (67, 1.49999975585937500000e+03) (68, 1.49999975585937500000e+03) (69, 3.44339132308959960938e+00) (70, 2.85360169410705566406e+00) (71, 2.55937290191650390625e+00) (72, 1.50175487995147705078e+00) (73, -1.03575277328491210938e+00) (74, 2.28152585029602050781e+00) (75, 2.48940420150756835938e+00) (76, 1.90044128894805908203e+00) (77, 2.48308205604553222656e+00) (78, 1.80653429031372070312e+00) (79, 3.29650592803955078125e+00) (80, 1.49999975585937500000e+03) (81, 1.49999975585937500000e+03) (82, 1.49999975585937500000e+03) (83, -1.49999536132812500000e+03) (84, 3.00497889518737792969e+00) (85, 2.50484132766723632812e+00) (86, 2.51834464073181152344e+00) (87, 1.85553431510925292969e+00) (88, 2.64402604103088378906e+00) (89, 1.09172924804687500000e+03) (90, 2.41844081878662109375e+00) (91, 1.20468769073486328125e+01) (92, 1.86944854259490966797e+00) (93, 2.44697093963623046875e+00) (94, 2.27034211158752441406e+00) (95, 2.22130799293518066406e+00) (96, 9.59661424160003662109e-01) (97, 1.88176929950714111328e+00) (98, 3.04431366920471191406e+00) (99, 1.49999975585937500000e+03) (100, 2.55181741714477539062e+00) (101, 1.08747541904449462891e+00) (102, 1.49999975585937500000e+03) (103, -1.49999975585937500000e+03) (104, 5.79647302627563476562e-01) (0, -1.87402229309082031250e+01) (1, -1.44450020790100097656e+00) (2, -4.61876094341278076172e-01) (3, -8.46860170364379882812e-01) (4, -6.40888035297393798828e-01) (5, -1.06659650802612304688e+00) (6, -8.72512102127075195312e-01) (7, 4.66749382019042968750e+00) (8, -1.49762182617187500000e+03) (9, -6.09444558620452880859e-01) (10, -1.37052059173583984375e-01) (11, -1.94049552083015441895e-01) (12, -1.13224971294403076172e+00) (13, -8.87203216552734375000e-02) (14, -2.28944391012191772461e-01) (15, 1.37979388236999511719e-01) (16, -1.13539099693298339844e-01) (17, -2.83958852291107177734e-01) (18, 3.01838308572769165039e-01) (19, -2.99407601356506347656e-01) (20, -4.35922473669052124023e-01) (21, -3.61867189407348632812e-01) (22, -1.34336519241333007812e+01) (23, -5.23852586746215820312e-01) (24, -4.44928741455078125000e+00) (25, -4.27338868379592895508e-01) (26, 4.85697060823440551758e-01) (27, -4.06698323786258697510e-03) (28, -1.00104200839996337891e+00) (29, 1.33313477039337158203e-01) (30, -1.93739433288574218750e+01) (31, -9.43247973918914794922e-01) (32, -7.28206098079681396484e-01) (33, -6.00597560405731201172e-01) (34, -1.48964440917968750000e+03) (35, 3.30604629516601562500e+01) (36, -5.73197230696678161621e-02) (37, -5.03632903099060058594e-01) (38, 1.19865946471691131592e-01) (39, 1.68155938386917114258e-01) (40, -1.05128276348114013672e+00) (41, -1.46563452148437500000e+03) (42, 2.02258154749870300293e-01) (43, -4.01185363531112670898e-01) (44, 7.23228573799133300781e-01) (45, -3.93930017948150634766e-01) (46, 3.80253529548645019531e+00) (47, -3.61928868293762207031e+00) (48, 6.32595109939575195312e+00) (49, 8.18053483963012695312e-02) (50, 1.87075865268707275391e+00) (51, -4.68156218528747558594e-01) (52, -2.11840882897377014160e-01) (53, 3.37296447753906250000e+01) (54, 4.43138144910335540771e-02) (55, 1.98949050903320312500e+00) (56, 6.09873771667480468750e-01) (57, -3.15163946151733398438e+00) (58, -1.49721679687500000000e+03) (59, -4.24469232559204101562e-01) (60, 1.37605309486389160156e-01) (61, -1.75291347503662109375e+00) (62, -2.20712885260581970215e-01) (63, -3.09348642826080322266e-01) (64, 1.06075842285156250000e+03) (65, 2.71382659673690795898e-01) (66, 1.49508435058593750000e+03) (67, 1.58487796783447265625e-01) (68, 1.71922191977500915527e-01) (69, -4.32730078697204589844e-01) (70, -4.46464627981185913086e-01) (71, -2.23940223455429077148e-01) (72, -9.81654748320579528809e-02) (73, -1.93293590545654296875e+01) (74, 1.72874942421913146973e-01) (75, -4.47543084621429443359e-01) (76, 2.91843891143798828125e-01) (77, 3.33493322134017944336e-01) (78, -1.90592154860496520996e-01) (79, 2.02797368168830871582e-01) (80, -6.42399024963378906250e+00) (81, 4.05925465747714042664e-03) (82, 4.17269587516784667969e-01) (83, -1.49867175292968750000e+03) (84, -7.81641304492950439453e-02) (85, -1.43321409821510314941e-01) (86, 4.46979403495788574219e-01) (87, -6.25094234943389892578e-01) (88, -7.02172219753265380859e-02) (89, 1.05721069335937500000e+03) (90, 9.04233992099761962891e-01) (91, 3.61173063516616821289e-01) (92, -1.18002533912658691406e+00) (93, -1.02144539356231689453e-01) (94, 1.20626047253608703613e-01) (95, -5.14238119125366210938e-01) (96, -3.04146081209182739258e-01) (97, -4.64810490608215332031e-01) (98, -4.28308308124542236328e-01) (99, -2.12616696953773498535e-01) (100, 1.19905345141887664795e-01) (101, -5.61968743801116943359e-01) (102, 7.54313886165618896484e-01) (103, 5.41126394271850585938e+00) (104, 2.31074690818786621094e+00) (0, 1.40918941497802734375e+01) (1, 3.84204864501953125000e+02) (2, 8.35266113281250000000e-01) (3, 9.09963703155517578125e+00) (4, 2.21641469001770019531e+00) (5, 2.13275146484375000000e+00) (6, 2.17685818672180175781e+00) (7, 1.49999975585937500000e+03) (8, -1.49988671875000000000e+03) (9, 2.11407065391540527344e+00) (10, 2.36454916000366210938e+00) (11, 1.57359540462493896484e+00) (12, 1.80802333354949951172e+00) (13, 1.99312663078308105469e+00) (14, 1.67713940143585205078e+00) (15, 2.68755650520324707031e+00) (16, 2.74510431289672851562e+00) (17, 1.49999975585937500000e+03) (18, 1.49999975585937500000e+03) (19, 2.39433169364929199219e+00) (20, 1.49999975585937500000e+03) (21, 1.49999975585937500000e+03) (22, -9.17285156250000000000e+02) (23, 1.49999975585937500000e+03) (24, 1.49999975585937500000e+03) (25, 1.49999975585937500000e+03) (26, 1.49997619628906250000e+03) (27, 1.49997485351562500000e+03) (28, 1.49999975585937500000e+03) (29, 1.49999975585937500000e+03) (30, 1.10199952125549316406e+00) (31, 1.49999975585937500000e+03) (32, 1.49999975585937500000e+03) (33, 1.48496079444885253906e+00) (34, -1.50000000000000000000e+03) (35, 1.49999975585937500000e+03) (36, 1.49999133300781250000e+03) (37, 1.49999975585937500000e+03) (38, 1.49946081542968750000e+03) (39, 1.49997143554687500000e+03) (40, 1.49999975585937500000e+03) (41, -1.50000000000000000000e+03) (42, 1.49994775390625000000e+03) (43, 2.01041984558105468750e+00) (44, 1.49990393066406250000e+03) (45, 1.57405986785888671875e+01) (46, 6.97343811035156250000e+02) (47, 1.49989025878906250000e+03) (48, 1.49999975585937500000e+03) (49, 1.49998181152343750000e+03) (50, 1.49999975585937500000e+03) (51, 1.49999975585937500000e+03) (52, 2.53135800361633300781e+00) (53, 1.49999975585937500000e+03) (54, 1.49999975585937500000e+03) (55, 1.49999975585937500000e+03) (56, 1.49999975585937500000e+03) (57, 1.49999975585937500000e+03) (58, -1.49996044921875000000e+03) (59, 1.49999975585937500000e+03) (60, 3.63748669624328613281e+00) (61, 1.20836615562438964844e+00) (62, 1.49999975585937500000e+03) (63, 2.23043775558471679688e+00) (64, 1.49970715332031250000e+03) (65, 2.61658191680908203125e+00) (66, 1.49999975585937500000e+03) (67, 1.49999975585937500000e+03) (68, 1.49999975585937500000e+03) (69, 3.55516791343688964844e+00) (70, 2.83342528343200683594e+00) (71, 2.41230988502502441406e+00) (72, 1.53275859355926513672e+00) (73, -1.03440558910369873047e+00) (74, 2.24234247207641601562e+00) (75, 2.44949555397033691406e+00) (76, 1.98728418350219726562e+00) (77, 2.44968962669372558594e+00) (78, 1.85325324535369873047e+00) (79, 3.24736380577087402344e+00) (80, 1.49999975585937500000e+03) (81, 1.49999975585937500000e+03) (82, 1.49999975585937500000e+03) (83, -1.49999536132812500000e+03) (84, 2.98804593086242675781e+00) (85, 2.47549581527709960938e+00) (86, 2.37939643859863281250e+00) (87, 1.90690803527832031250e+00) (88, 2.61893820762634277344e+00) (89, 1.09157690429687500000e+03) (90, 2.50564646720886230469e+00) (91, 3.09417700767517089844e+00) (92, 1.81648755073547363281e+00) (93, 2.32627320289611816406e+00) (94, 2.20999979972839355469e+00) (95, 2.13120150566101074219e+00) (96, 8.19920897483825683594e-01) (97, 1.94783174991607666016e+00) (98, 2.32407116889953613281e+00) (99, 1.49999975585937500000e+03) (100, 2.43311238288879394531e+00) (101, 1.06837344169616699219e+00) (102, 1.49999975585937500000e+03) (103, -1.49999975585937500000e+03) (104, 6.23689830303192138672e-01) (0, 6.85791015625000000000e+01) (1, 7.10656356811523437500e+01) (2, 1.03303551673889160156e+00) (3, 2.40963888168334960938e+00) (4, 1.61255466938018798828e+00) (5, -9.36720252037048339844e-01) (6, -3.60302124023437500000e+01) (7, 1.48381848144531250000e+03) (8, 6.84757629394531250000e+02) (9, 1.72840678691864013672e+00) (10, 3.16024646759033203125e+01) (11, 2.64569401741027832031e+00) (12, 2.01260066032409667969e+00) (13, 1.68558871746063232422e+00) (14, 2.21531558036804199219e+00) (15, 3.37910819053649902344e+00) (16, 2.95977950096130371094e+00) (17, 2.53708982467651367188e+00) (18, 1.48684753417968750000e+02) (19, 1.92208898067474365234e+00) (20, 2.31709503173828125000e+02) (21, 2.47165107727050781250e+00) (22, -9.75402474403381347656e-01) (23, 1.13942599296569824219e+00) (24, 1.02603330612182617188e+01) (25, 1.87166523933410644531e+00) (26, 3.04273271560668945312e+00) (27, 2.72552251815795898438e+00) (28, 3.72012853622436523438e+00) (29, 3.30902338027954101562e+00) (30, 8.97455155849456787109e-01) (31, 2.08946990966796875000e+00) (32, 1.52855896949768066406e+00) (33, 8.84717643260955810547e-01) (34, -7.89946670532226562500e+01) (35, 4.80430650711059570312e+00) (36, 1.74738574028015136719e+00) (37, 4.21615839004516601562e+00) (38, 1.53742885589599609375e+00) (39, 1.47242605686187744141e+00) (40, 2.52538323402404785156e+00) (41, -4.11382751464843750000e+01) (42, 2.47996425628662109375e+00) (43, 1.16129910945892333984e+00) (44, 8.90671348571777343750e+00) (45, 4.76665687561035156250e+00) (46, 2.66805529594421386719e+00) (47, 8.67519950866699218750e+00) (48, 2.67374362945556640625e+01) (49, 2.56266593933105468750e+00) (50, 4.39055824279785156250e+00) (51, 1.55577075481414794922e+00) (52, 2.27916955947875976562e+00) (53, 1.92671585083007812500e+00) (54, 2.63762664794921875000e+00) (55, 1.54740695953369140625e+01) (56, 2.28127980232238769531e+00) (57, 1.35811597108840942383e-01) (58, 3.13711810111999511719e+00) (59, 5.09016342163085937500e+01) (60, 2.18893814086914062500e+00) (61, 5.32874524593353271484e-01) (62, 1.72921419143676757812e+00) (63, 1.62909162044525146484e+00) (64, 2.33575839996337890625e+01) (65, 1.91142749786376953125e+00) (66, 1.47374172210693359375e+01) (67, 4.05417537689208984375e+00) (68, 1.27412033081054687500e+01) (69, 3.10802912712097167969e+00) (70, 2.02280020713806152344e+00) (71, 1.90236723423004150391e+00) (72, 9.81947064399719238281e-01) (73, -1.76567840576171875000e+00) (74, 1.49794471263885498047e+00) (75, 2.37057566642761230469e+00) (76, 1.24641811847686767578e+00) (77, 1.69036900997161865234e+00) (78, 8.39744031429290771484e-01) (79, 2.52637934684753417969e+00) (80, 2.94093170166015625000e+02) (81, 2.31406378746032714844e+00) (82, 2.71641850471496582031e+00) (83, 4.79069530963897705078e-01) (84, 2.02127933502197265625e+00) (85, 1.54201936721801757812e+00) (86, 1.70309913158416748047e+00) (87, 8.30179274082183837891e-01) (88, 2.13515567779541015625e+00) (89, 1.31791868209838867188e+01) (90, 1.89862406253814697266e+00) (91, 1.94207382202148437500e+00) (92, 1.24845921993255615234e+00) (93, 1.46344566345214843750e+00) (94, 1.43903493881225585938e+00) (95, 1.41211700439453125000e+00) (96, 1.19011044502258300781e+00) (97, 1.43667030334472656250e+00) (98, 2.07221078872680664062e+00) (99, 2.23167228698730468750e+00) (100, 1.62271344661712646484e+00) (101, 1.18616521358489990234e+00) (102, 1.49999975585937500000e+03) (103, -1.49999975585937500000e+03) (104, 8.53242456912994384766e-01) (0, 9.29581604003906250000e+01) (1, 8.79504680633544921875e-01) (2, 1.84649407863616943359e+00) (3, 8.53065997362136840820e-02) (4, 5.00684082508087158203e-01) (5, 2.07844400405883789062e+00) (6, 1.29693686962127685547e+00) (7, -1.02634167480468750000e+03) (8, 1.20046567916870117188e+00) (9, 4.53729391098022460938e-01) (10, 5.04298639297485351562e+00) (11, 9.70308899879455566406e-01) (12, 2.00046539306640625000e+00) (13, 2.88786125183105468750e+00) (14, 2.03431391716003417969e+00) (15, 4.53608632087707519531e-01) (16, 5.50207018852233886719e-01) (17, 4.70722049474716186523e-01) (18, -6.92331016063690185547e-01) (19, 2.20025002956390380859e-01) (20, 2.13090464472770690918e-01) (21, 3.82809758186340332031e-01) (22, 8.94237041473388671875e-01) (23, 1.11472213268280029297e+00) (24, 7.02767312526702880859e-01) (25, 2.52090513706207275391e-01) (26, 1.19166016578674316406e+00) (27, 7.30611622333526611328e-01) (28, 2.12843976914882659912e-02) (29, 1.66338598728179931641e+00) (30, 1.46544241905212402344e+00) (31, 1.12915480136871337891e+00) (32, 1.59463453292846679688e+00) (33, 3.46458959579467773438e+00) (34, 1.51432752609252929688e+01) (35, -3.05438507348299026489e-02) (36, 1.59131681919097900391e+00) (37, 4.01330858469009399414e-01) (38, 1.02398693561553955078e+00) (39, 9.29696917533874511719e-01) (40, 1.00871741771697998047e+00) (41, 2.93923687934875488281e+00) (42, 8.46190750598907470703e-01) (43, 1.81723618507385253906e+00) (44, 6.67072832584381103516e-01) (45, 4.47581815719604492188e+00) (46, 5.01361083984375000000e+00) (47, 4.46408414840698242188e+00) (48, 2.66410541534423828125e+00) (49, 4.87314552068710327148e-01) (50, 3.36056351661682128906e-01) (51, 1.17285542190074920654e-01) (52, 1.30986392498016357422e+00) (53, 2.66216665506362915039e-01) (54, 9.39211025834083557129e-02) (55, 1.09590172767639160156e+00) (56, 8.86724531650543212891e-01) (57, 2.14234995841979980469e+00) (58, 5.24197101593017578125e+00) (59, 4.06595993041992187500e+01) (60, 9.67993795871734619141e-01) (61, 2.36363768577575683594e+00) (62, 8.48824739456176757812e-01) (63, 9.79394614696502685547e-01) (64, 8.34218978881835937500e+00) (65, 7.70573019981384277344e-01) (66, 1.10395317077636718750e+01) (67, 2.10794091224670410156e+00) (68, 1.27111234664916992188e+01) (69, 1.31955862045288085938e+00) (70, 3.86746674776077270508e-01) (71, 8.32983374595642089844e-01) (72, 3.31370025873184204102e-01) (73, 1.35733079910278320312e+01) (74, 2.69548803567886352539e-01) (75, 1.67840504646301269531e+00) (76, 2.06307098269462585449e-01) (77, 6.78312361240386962891e-01) (78, -7.39624857902526855469e-01) (79, 1.06930053234100341797e+00) (80, 1.36405136108398437500e+02) (81, -2.47348475456237792969e+00) (82, -3.14549207687377929688e+00) (83, 7.73206770420074462891e-01) (84, 2.24190745502710342407e-02) (85, 2.34019327163696289062e+00) (86, 6.13570928573608398438e-01) (87, 9.76383447647094726562e-01) (88, 6.28424644470214843750e-01) (89, -1.89442485570907592773e-01) (90, 2.97333526611328125000e+00) (91, 4.25713729858398437500e+00) (92, 1.27442926168441772461e-01) (93, 3.48201572895050048828e-01) (94, 9.81466054916381835938e-01) (95, 9.09348070621490478516e-01) (96, 1.07581365108489990234e+00) (97, 2.90726637840270996094e+00) (98, 5.28504276275634765625e+00) (99, 6.62132441997528076172e-01) (100, 8.08370590209960937500e-01) (101, 1.99793314933776855469e+00) (102, 4.07225952148437500000e+02) (103, -2.75426757812500000000e+02) (104, 8.35584640502929687500e-01) (0, -1.32366113662719726562e+01) (1, 7.67045259475708007812e+00) (2, 3.01552891731262207031e+00) (3, 1.56755840778350830078e+00) (4, 1.43481802940368652344e+00) (5, 1.47392559051513671875e+00) (6, 1.69215917587280273438e+00) (7, 3.27486801147460937500e+00) (8, -2.06008100509643554688e+00) (9, 9.04113590717315673828e-01) (10, 7.65393197536468505859e-01) (11, 7.11981475353240966797e-01) (12, 3.19842576980590820312e+00) (13, -2.86501550674438476562e+00) (14, 2.51109361648559570312e+00) (15, 7.52288281917572021484e-01) (16, 1.06548321247100830078e+00) (17, 5.15114963054656982422e-01) (18, -3.77349942922592163086e-01) (19, 1.15651988983154296875e+00) (20, 1.51137876510620117188e+00) (21, 1.16755127906799316406e+00) (22, 1.28180295228958129883e-01) (23, 1.15431964397430419922e+00) (24, -6.76626861095428466797e-01) (25, 1.34142267704010009766e+00) (26, 5.98248422145843505859e-01) (27, 8.48399460315704345703e-01) (28, 1.21335208415985107422e+00) (29, 5.73956131935119628906e-01) (30, 1.09894204139709472656e+00) (31, 1.04259228706359863281e+00) (32, 9.81222689151763916016e-01) (33, 1.56632602214813232422e+00) (34, -4.17797775268554687500e+01) (35, -8.13412761688232421875e+00) (36, 6.27667963504791259766e-01) (37, 7.13399350643157958984e-01) (38, 1.06491863727569580078e+00) (39, 4.96790587902069091797e-01) (40, 2.14735284447669982910e-01) (41, 4.24381835937500000000e+02) (42, 2.11423531174659729004e-01) (43, 8.30211102962493896484e-01) (44, -5.17576038837432861328e-01) (45, 6.46730780601501464844e-01) (46, 1.07673376464843750000e+03) (47, 5.13414204120635986328e-01) (48, -5.83655261993408203125e+00) (49, 3.97239565849304199219e-01) (50, 2.11857587099075317383e-01) (51, 5.94044625759124755859e-01) (52, 5.78163087368011474609e-01) (53, 3.04853916168212890625e-01) (54, 2.55779170989990234375e+00) (55, 1.82958912849426269531e+00) (56, 1.03967142105102539062e+00) (57, 1.31913614273071289062e+00) (58, 1.50643358230590820312e+01) (59, 3.33101987838745117188e+00) (60, 1.60358905792236328125e+00) (61, 5.36588239669799804688e+00) (62, 1.52723515033721923828e+00) (63, 1.63124752044677734375e+00) (64, -6.44442462921142578125e+00) (65, 1.65048110485076904297e+00) (66, -2.79394173622131347656e+00) (67, 9.48471784591674804688e-01) (68, -4.86270809173583984375e+00) (69, 1.10922932624816894531e+00) (70, 7.65592694282531738281e-01) (71, 9.40881013870239257812e-01) (72, 3.30413985252380371094e+00) (73, 1.11428868770599365234e+00) (74, 1.18655371665954589844e+00) (75, 9.31833863258361816406e-01) (76, 9.97377634048461914062e-01) (77, 1.42159789800643920898e-01) (78, 2.35334682464599609375e+00) (79, -1.54914632439613342285e-01) (80, 5.92321777343750000000e+00) (81, 1.43914592266082763672e+00) (82, 2.67066597938537597656e+00) (83, 9.54480648040771484375e+00) (84, 7.93554484844207763672e-01) (85, 2.20993947982788085938e+00) (86, 3.67768764495849609375e+00) (87, 1.21379959583282470703e+00) (88, 8.58864188194274902344e-01) (89, -6.45117640495300292969e-01) (90, 1.36214852333068847656e+00) (91, 4.79310065507888793945e-01) (92, 1.53381776809692382812e+00) (93, -5.68631768226623535156e-01) (94, 8.15905392169952392578e-01) (95, 1.29762947559356689453e+00) (96, 1.38497793674468994141e+00) (97, 2.27114105224609375000e+00) (98, 1.91256034374237060547e+00) (99, 3.64976108074188232422e-01) (100, 6.99559390544891357422e-01) (101, -7.11947739124298095703e-01) (102, -3.90056705474853515625e+00) (103, 8.54255485534667968750e+00) (104, -7.80132180079817771912e-03) (0, -9.06516361236572265625e+00) (1, 2.44275741577148437500e+02) (2, 8.17104101181030273438e-01) (3, 1.25485515594482421875e+01) (4, 9.72907423973083496094e-01) (5, 1.32648706436157226562e+00) (6, 1.45222699642181396484e+00) (7, 3.44616973876953125000e+02) (8, 3.60857963562011718750e+00) (9, 2.19953966140747070312e+00) (10, 1.74842286109924316406e+00) (11, 1.66905891895294189453e+00) (12, 5.58528244495391845703e-01) (13, 2.73058748245239257812e+00) (14, 1.49353253841400146484e+00) (15, 1.63744139671325683594e+00) (16, 1.09123647212982177734e+00) (17, 1.80183506011962890625e+00) (18, 1.01240386962890625000e+01) (19, 1.78494441509246826172e+00) (20, 2.39807677268981933594e+00) (21, 1.87251234054565429688e+00) (22, 3.36563134193420410156e+00) (23, 9.48148071765899658203e-01) (24, 2.21807098388671875000e+00) (25, 3.45024728775024414062e+00) (26, 3.68498086929321289062e-01) (27, 3.76493126153945922852e-01) (28, 1.46643710136413574219e+00) (29, 4.58949029445648193359e-01) (30, 1.28718471527099609375e+01) (31, 6.22755110263824462891e-01) (32, 6.22518837451934814453e-01) (33, 5.86564421653747558594e-01) (34, -2.77827091217041015625e+01) (35, 1.83101701736450195312e+00) (36, 6.29333674907684326172e-01) (37, 9.78985667228698730469e-01) (38, -1.96366176009178161621e-01) (39, 5.45434415340423583984e-01) (40, 5.16158580780029296875e-01) (41, -2.26478023529052734375e+01) (42, 6.32089376449584960938e-01) (43, 4.02885138988494873047e-01) (44, 8.96820902824401855469e-01) (45, 4.33732748031616210938e+00) (46, 2.84829978942871093750e+01) (47, 5.77852821350097656250e+00) (48, 3.69854283332824707031e+00) (49, 6.13262534141540527344e-01) (50, 1.95630562305450439453e+00) (51, 1.03185617923736572266e+00) (52, 7.34497845172882080078e-01) (53, 1.49806118011474609375e+00) (54, 2.03575539588928222656e+00) (55, 4.14822435379028320312e+00) (56, 9.00388777256011962891e-01) (57, 4.59638309478759765625e+00) (58, -1.45899963378906250000e+00) (59, 2.97714843750000000000e+02) (60, 5.95904171466827392578e-01) (61, 1.08340702056884765625e+01) (62, 1.14890229701995849609e+00) (63, 4.77095067501068115234e-01) (64, 1.41847813129425048828e+00) (65, 6.16373479366302490234e-01) (66, -4.56766939163208007812e+00) (67, -3.12962055206298828125e-01) (68, -3.44884443283081054688e+00) (69, -1.70335054397583007812e+00) (70, 1.58600544929504394531e+00) (71, 1.14728987216949462891e+00) (72, 9.88274693489074707031e-01) (73, 1.82982826232910156250e+01) (74, 6.11322402954101562500e-01) (75, 5.80394148826599121094e-01) (76, 4.82691586017608642578e-01) (77, 3.53757560253143310547e-01) (78, 1.07758831977844238281e+00) (79, 3.53390723466873168945e-01) (80, 2.18668479919433593750e+01) (81, 9.27644789218902587891e-01) (82, 1.26728987693786621094e+00) (83, 3.22568565607070922852e-01) (84, 1.18286907672882080078e+00) (85, 1.17557168006896972656e+00) (86, 4.40031200647354125977e-01) (87, 9.16895627975463867188e-01) (88, 6.82373762130737304688e-01) (89, 5.22807788848876953125e+00) (90, 4.47440803050994873047e-01) (91, 4.74668323993682861328e-01) (92, 1.21423983573913574219e+00) (93, 1.06630861759185791016e+00) (94, 4.17953461408615112305e-01) (95, 8.22025895118713378906e-01) (96, 7.95049726963043212891e-01) (97, 4.29016500711441040039e-01) (98, 4.24858689308166503906e-01) (99, 8.41795265674591064453e-01) (100, 5.20804941654205322266e-01) (101, 8.26315522193908691406e-01) (102, -2.65994842529296875000e+02) (103, 4.27570098876953125000e+02) (104, 1.01286506652832031250e+00) (0, -3.82662582397460937500e+01) (1, 3.15161204338073730469e+00) (2, 1.11466026306152343750e+00) (3, 2.34142273664474487305e-01) (4, -1.24183893203735351562e+00) (5, 4.71405655145645141602e-01) (6, -2.31637194752693176270e-01) (7, 2.36284523010253906250e+01) (8, 7.81208753585815429688e-01) (9, -1.90733507275581359863e-01) (10, -4.32199209928512573242e-01) (11, -1.44221810624003410339e-02) (12, 6.48689493536949157715e-02) (13, 3.97935479879379272461e-01) (14, 4.42417144775390625000e-01) (15, -3.62011790275573730469e-01) (16, 2.89087686687707901001e-02) (17, -2.46916785836219787598e-01) (18, -5.96836745738983154297e-01) (19, -2.07973331212997436523e-01) (20, -1.01659119129180908203e+00) (21, -4.37677651643753051758e-01) (22, 4.89290893077850341797e-01) (23, -9.77188497781753540039e-02) (24, -1.20782363414764404297e+00) (25, -6.55537545680999755859e-02) (26, -9.75298047065734863281e-01) (27, -4.33354973793029785156e-01) (28, -4.98438954353332519531e-01) (29, -1.45227408409118652344e+00) (30, 2.97711819410324096680e-01) (31, -3.22188824415206909180e-01) (32, -3.70121538639068603516e-01) (33, 3.17529529333114624023e-01) (34, 6.58953094482421875000e+00) (35, -9.61515903472900390625e-01) (36, -9.80546623468399047852e-02) (37, -5.69963812828063964844e-01) (38, -1.92822188138961791992e-01) (39, -3.32931697368621826172e-01) (40, -8.94270777702331542969e-01) (41, 6.84738683700561523438e+00) (42, -4.17732030153274536133e-01) (43, -3.84732298552989959717e-02) (44, -5.73686122894287109375e-01) (45, -1.27909377217292785645e-01) (46, 1.47105026245117187500e+00) (47, -4.30281430482864379883e-01) (48, -9.42769765853881835938e-01) (49, -5.03390729427337646484e-01) (50, -7.24249660968780517578e-01) (51, -6.09124660491943359375e-01) (52, -3.76337587833404541016e-01) (53, -5.47761082649230957031e-01) (54, -8.02683293819427490234e-01) (55, -6.25887870788574218750e-01) (56, -7.01406717300415039062e-01) (57, -4.46379810571670532227e-01) (58, 4.16122734546661376953e-01) (59, -1.32400071620941162109e+00) (60, -4.05561238527297973633e-01) (61, 6.95028603076934814453e-01) (62, -3.58657777309417724609e-01) (63, -3.15765142440795898438e-01) (64, -6.52292823791503906250e+00) (65, -5.77352821826934814453e-01) (66, -8.40128898620605468750e+00) (67, -1.56313347816467285156e+00) (68, -3.44510912895202636719e+00) (69, -1.08716225624084472656e+00) (70, -6.40269875526428222656e-01) (71, -5.78462362289428710938e-01) (72, -1.27135738730430603027e-01) (73, -2.74301022291183471680e-01) (74, -3.84705394506454467773e-01) (75, -7.11314618587493896484e-01) (76, -6.81647583842277526855e-02) (77, -4.69596922397613525391e-01) (78, -7.30298534035682678223e-02) (79, -1.14764225482940673828e+00) (80, 5.00292003154754638672e-01) (81, -6.95703387260437011719e-01) (82, -6.04505419731140136719e-01) (83, 7.06349015235900878906e-01) (84, -6.02786839008331298828e-01) (85, -3.77349227666854858398e-01) (86, -4.74428415298461914062e-01) (87, -1.87612429261207580566e-01) (88, -1.03903746604919433594e+00) (89, -7.82828986644744873047e-01) (90, -5.78704118728637695312e-01) (91, -1.20478165149688720703e+00) (92, -1.13997220993041992188e-01) (93, -1.42930701375007629395e-01) (94, -3.60047131776809692383e-01) (95, -3.87495100498199462891e-01) (96, -8.01755338907241821289e-02) (97, -1.27783432602882385254e-01) (98, -3.35801124572753906250e-01) (99, -6.18824601173400878906e-01) (100, -3.98173272609710693359e-01) (101, 1.61650568246841430664e-01) (102, -1.49999975585937500000e+03) (103, 1.49999975585937500000e+03) (104, 1.88346958160400390625e+00) (0, 1.42036037445068359375e+01) (1, 3.84849273681640625000e+02) (2, 8.13596010208129882812e-01) (3, 9.22514247894287109375e+00) (4, 2.14639210700988769531e+00) (5, 2.01677942276000976562e+00) (6, 2.10311603546142578125e+00) (7, 1.49999975585937500000e+03) (8, -1.49988671875000000000e+03) (9, 2.09619855880737304688e+00) (10, 2.50393080711364746094e+00) (11, 1.68102109432220458984e+00) (12, 1.96821188926696777344e+00) (13, 1.96298444271087646484e+00) (14, 1.69492685794830322266e+00) (15, 2.82239699363708496094e+00) (16, 2.67564272880554199219e+00) (17, 1.49999975585937500000e+03) (18, 1.49999975585937500000e+03) (19, 2.37493348121643066406e+00) (20, 1.49999975585937500000e+03) (21, 1.49999975585937500000e+03) (22, -9.17300964355468750000e+02) (23, 1.49999975585937500000e+03) (24, 1.49999975585937500000e+03) (25, 1.49999975585937500000e+03) (26, 1.49997619628906250000e+03) (27, 1.49997485351562500000e+03) (28, 1.49999975585937500000e+03) (29, 1.49999975585937500000e+03) (30, 1.09595596790313720703e+00) (31, 1.49999975585937500000e+03) (32, 1.49999975585937500000e+03) (33, 1.49232459068298339844e+00) (34, -1.50000000000000000000e+03) (35, 1.49999975585937500000e+03) (36, 1.49999133300781250000e+03) (37, 1.49999975585937500000e+03) (38, 1.49946081542968750000e+03) (39, 1.49997143554687500000e+03) (40, 1.49999975585937500000e+03) (41, -1.50000000000000000000e+03) (42, 1.49994775390625000000e+03) (43, 2.14192461967468261719e+00) (44, 1.49990393066406250000e+03) (45, 4.50060539245605468750e+01) (46, 6.97343811035156250000e+02) (47, 1.49989025878906250000e+03) (48, 1.49999975585937500000e+03) (49, 1.49998181152343750000e+03) (50, 1.49999975585937500000e+03) (51, 1.49999975585937500000e+03) (52, 2.46694135665893554688e+00) (53, 1.49999975585937500000e+03) (54, 1.49999975585937500000e+03) (55, 1.49999975585937500000e+03) (56, 1.49999975585937500000e+03) (57, 1.49999975585937500000e+03) (58, -1.49996044921875000000e+03) (59, 1.49999975585937500000e+03) (60, 1.48217258453369140625e+01) (61, 1.11124575138092041016e+00) (62, 1.49999975585937500000e+03) (63, 2.38434696197509765625e+00) (64, 1.49970715332031250000e+03) (65, 3.08593153953552246094e+00) (66, 1.49999975585937500000e+03) (67, 1.49999975585937500000e+03) (68, 1.49999975585937500000e+03) (69, 3.51525330543518066406e+00) (70, 2.74722886085510253906e+00) (71, 2.44040393829345703125e+00) (72, 1.39793884754180908203e+00) (73, -9.68857467174530029297e-01) (74, 2.25697207450866699219e+00) (75, 2.48721051216125488281e+00) (76, 1.95086109638214111328e+00) (77, 2.57557749748229980469e+00) (78, 1.80821943283081054688e+00) (79, 3.30099606513977050781e+00) (80, 1.49999975585937500000e+03) (81, 1.49999975585937500000e+03) (82, 1.49999975585937500000e+03) (83, -1.49999536132812500000e+03) (84, 2.96722030639648437500e+00) (85, 2.57064247131347656250e+00) (86, 2.48818325996398925781e+00) (87, 1.93441128730773925781e+00) (88, 2.65744781494140625000e+00) (89, 1.09160864257812500000e+03) (90, 2.45447945594787597656e+00) (91, 3.26036596298217773438e+00) (92, 1.97187113761901855469e+00) (93, 2.33788609504699707031e+00) (94, 2.44584345817565917969e+00) (95, 2.10208201408386230469e+00) (96, 9.14164006710052490234e-01) (97, 1.87375986576080322266e+00) (98, 2.60329151153564453125e+00) (99, 1.49999975585937500000e+03) (100, 2.75746130943298339844e+00) (101, 1.19714164733886718750e+00) (102, 1.49999975585937500000e+03) (103, -1.49999975585937500000e+03) (104, 5.54139733314514160156e-01) (0, -1.15527667999267578125e+01) (1, 5.97626256942749023438e+00) (2, 3.14977431297302246094e+00) (3, 1.78049945831298828125e+00) (4, 6.04026436805725097656e-01) (5, 2.38564682006835937500e+00) (6, -1.35851860046386718750e+00) (7, 2.72349095344543457031e+00) (8, -5.09435832500457763672e-01) (9, 1.75573849678039550781e+00) (10, -1.74236309528350830078e+00) (11, 4.96815919876098632812e+00) (12, 1.49729156494140625000e+00) (13, 1.92819058895111083984e+00) (14, 4.98916596174240112305e-01) (15, 8.35609063506126403809e-02) (16, -1.49447703734040260315e-03) (17, -8.83793067932128906250e+00) (18, -6.23154878616333007812e-01) (19, 1.44882345199584960938e+00) (20, 4.00307369232177734375e+00) (21, -1.42790645360946655273e-01) (22, -3.49795198440551757812e+00) (23, -3.28724086284637451172e-01) (24, 2.24012708663940429688e+00) (25, -9.46905612945556640625e-01) (26, -2.39295288920402526855e-01) (27, -8.12162113189697265625e+00) (28, 6.63174200057983398438e+00) (29, -8.67703795433044433594e-01) (30, 1.10220944881439208984e+00) (31, 2.88497900962829589844e+00) (32, -6.20308160781860351562e+00) (33, 6.19377434253692626953e-01) (34, -3.61934542655944824219e+00) (35, 4.70836734771728515625e+00) (36, 5.58909988403320312500e+00) (37, -7.22003757953643798828e-01) (38, 2.34958243370056152344e+00) (39, -1.67519843578338623047e+00) (40, -6.90040409564971923828e-01) (41, 5.97061681747436523438e+00) (42, -3.44970464706420898438e-01) (43, -2.15737596154212951660e-01) (44, 5.47211766242980957031e-01) (45, -2.69052100181579589844e+00) (46, 6.02550888061523437500e+00) (47, -3.74913245439529418945e-01) (48, -1.21524322032928466797e+00) (49, 1.52570557594299316406e+00) (50, 2.22218513488769531250e+00) (51, -2.40819945931434631348e-01) (52, -2.21288532018661499023e-01) (53, 2.92505669593811035156e+00) (54, -2.90573477745056152344e+00) (55, 4.30458211898803710938e+00) (56, -1.09915696084499359131e-01) (57, -4.77445095777511596680e-01) (58, 1.06167745590209960938e+00) (59, 4.40434694290161132812e-01) (60, 8.06348443031311035156e-01) (61, 3.33689117431640625000e+00) (62, -1.25369989871978759766e+00) (63, 1.02368652820587158203e+00) (64, -1.09410753250122070312e+01) (65, 3.55902552604675292969e-01) (66, -5.47909402847290039062e+00) (67, -3.00599664449691772461e-01) (68, -5.71389675140380859375e+00) (69, 2.48735975474119186401e-02) (70, 2.51695513725280761719e+00) (71, 4.94724750518798828125e+00) (72, 5.98986387252807617188e+00) (73, 8.98559284210205078125e+00) (74, 1.66332781314849853516e+00) (75, 4.41036254167556762695e-01) (76, -1.98489677906036376953e+00) (77, 1.54607260227203369141e+00) (78, 3.30871343612670898438e-01) (79, -9.79014158248901367188e-01) (80, -1.38277225494384765625e+01) (81, -6.45756959915161132812e-01) (82, -2.90301728248596191406e+00) (83, 2.04154086112976074219e+00) (84, -6.29683375358581542969e-01) (85, -5.04340082406997680664e-02) (86, -1.00323334336280822754e-01) (87, 1.30113756656646728516e+00) (88, -1.25260627269744873047e+00) (89, 8.55986416339874267578e-01) (90, -3.25214684009552001953e-01) (91, 1.01209938526153564453e+00) (92, 2.12110805511474609375e+00) (93, -3.68728339672088623047e-02) (94, 1.14626932144165039062e+00) (95, 2.75031995773315429688e+00) (96, 5.26349902153015136719e-01) (97, 1.08392751216888427734e+00) (98, 4.11294922232627868652e-02) (99, 4.31257724761962890625e-01) (100, 9.59244251251220703125e-01) (101, 1.32030773162841796875e+00) (102, -1.82357922196388244629e-01) (103, 3.21118974685668945312e+00) (104, 6.78566753864288330078e-01) (0, -4.54380912780761718750e+01) (1, 3.59962964057922363281e+00) (2, -3.00897264480590820312e+00) (3, -1.14358568191528320312e+00) (4, 1.04798233509063720703e+00) (5, -7.13676929473876953125e+00) (6, -8.70293140411376953125e-01) (7, -2.82019367218017578125e+01) (8, 6.08087205886840820312e+00) (9, -4.88339737057685852051e-02) (10, -2.65089958906173706055e-01) (11, -2.96673506498336791992e-01) (12, 1.14620530605316162109e+00) (13, 5.32136447727680206299e-02) (14, -1.45413562655448913574e-01) (15, -7.53312230110168457031e-01) (16, -9.55061495304107666016e-01) (17, 1.13872087001800537109e+00) (18, -4.60972726345062255859e-01) (19, 2.50766336917877197266e-01) (20, 6.90071344375610351562e-01) (21, 1.07380636036396026611e-01) (22, 1.85929015278816223145e-01) (23, 8.47309947013854980469e-01) (24, 7.82325625419616699219e-01) (25, 1.56723991036415100098e-01) (26, 3.93395632505416870117e-01) (27, -3.95825207233428955078e-01) (28, -1.59433913230895996094e+00) (29, -1.54061150550842285156e+00) (30, 3.91989439725875854492e-01) (31, -7.61541426181793212891e-01) (32, -6.59568846225738525391e-01) (33, -6.13050997257232666016e-01) (34, 6.89440059661865234375e+00) (35, -3.69205284118652343750e+00) (36, -6.11485838890075683594e-01) (37, -7.42030441761016845703e-01) (38, 1.05935871601104736328e-01) (39, -4.58485126495361328125e-01) (40, -6.32005631923675537109e-01) (41, 5.57379150390625000000e+00) (42, -7.03138709068298339844e-02) (43, 2.16387018561363220215e-01) (44, -8.45991551876068115234e-01) (45, 3.24079655110836029053e-02) (46, 8.83069992065429687500e-01) (47, -7.52174973487854003906e-01) (48, -1.10557568073272705078e+00) (49, -4.51298952102661132812e-01) (50, -8.32005143165588378906e-01) (51, -6.84624373912811279297e-01) (52, -4.84361439943313598633e-01) (53, -1.90765380859375000000e-01) (54, -7.56798923015594482422e-01) (55, -9.99000787734985351562e-01) (56, -6.31795406341552734375e-01) (57, -1.77111908793449401855e-01) (58, 9.01015400886535644531e-01) (59, -4.97958421707153320312e+00) (60, -9.41465049982070922852e-02) (61, 2.82470583915710449219e-01) (62, -5.11170208454132080078e-01) (63, 1.58015742897987365723e-01) (64, -4.25384330749511718750e+00) (65, -5.79772531986236572266e-01) (66, -1.76546859741210937500e+00) (67, -1.16013634204864501953e+00) (68, -1.24381530284881591797e+00) (69, -9.65861022472381591797e-01) (70, -7.71235764026641845703e-01) (71, -5.39757668972015380859e-01) (72, 3.07380288839340209961e-01) (73, 6.59799218177795410156e-01) (74, 2.61675179004669189453e-01) (75, -2.72006187587976455688e-02) (76, 4.92293477058410644531e-01) (77, -1.23692527413368225098e-01) (78, 5.07631719112396240234e-01) (79, -9.40562665462493896484e-01) (80, -1.06230700016021728516e+00) (81, -6.55578613281250000000e-01) (82, -7.49386489391326904297e-01) (83, 6.27044498920440673828e-01) (84, -5.55059731006622314453e-01) (85, -4.63102698326110839844e-01) (86, 8.46764259040355682373e-03) (87, 3.41815769672393798828e-01) (88, -3.01265627145767211914e-01) (89, -9.37956392765045166016e-01) (90, 3.15285772085189819336e-01) (91, 2.41283491253852844238e-01) (92, 4.11699384450912475586e-01) (93, 6.67953431606292724609e-01) (94, 1.03753842413425445557e-01) (95, -1.19920305907726287842e-01) (96, 5.02509653568267822266e-01) (97, 4.92447316646575927734e-01) (98, 3.11490535736083984375e-01) (99, -7.24876284599304199219e-01) (100, 9.32092294096946716309e-02) (101, 8.88793051242828369141e-01) (102, -1.49999975585937500000e+03) (103, 1.49999975585937500000e+03) (104, 1.50814521312713623047e+00) (0, 2.06766366958618164062e+00) (1, -2.83173131942749023438e+00) (2, -9.14236843585968017578e-01) (3, -4.02915382385253906250e+00) (4, -4.08720636367797851562e+00) (5, 3.82187318801879882812e+00) (6, -1.80041804909706115723e-01) (7, -1.46575107574462890625e+01) (8, 3.68442463874816894531e+00) (9, 1.60595774650573730469e+00) (10, 7.48912715911865234375e+00) (11, -9.00330007076263427734e-01) (12, -8.96155297756195068359e-01) (13, 5.10269212722778320312e+00) (14, -5.03672242164611816406e-01) (15, 2.77502536773681640625e-01) (16, -5.87942719459533691406e-01) (17, -2.42160558700561523438e-01) (18, 1.91881549358367919922e+00) (19, -3.89946371316909790039e-01) (20, -9.50835585594177246094e-01) (21, 2.57428693771362304688e+00) (22, -1.57904100418090820312e+00) (23, 6.58240765333175659180e-02) (24, 4.72305953502655029297e-01) (25, -1.05819880962371826172e+00) (26, 1.81844639778137207031e+00) (27, 1.56592774391174316406e+00) (28, -5.78251123428344726562e-01) (29, 1.42794406414031982422e+00) (30, -4.64549922943115234375e+00) (31, -6.10949754714965820312e-01) (32, 5.79272925853729248047e-01) (33, -8.13111722469329833984e-01) (34, 8.93493938446044921875e+00) (35, 1.54020404815673828125e+00) (36, -2.79616594314575195312e-01) (37, 1.59553813934326171875e+00) (38, -5.95444403588771820068e-02) (39, 1.03018379211425781250e+00) (40, -1.38216838240623474121e-01) (41, -7.47148275375366210938e+00) (42, -1.47386059165000915527e-01) (43, -8.49751055240631103516e-01) (44, -3.05029928684234619141e-01) (45, -1.28388822078704833984e+00) (46, 3.34125086665153503418e-02) (47, 5.21990716457366943359e-01) (48, 3.06749868392944335938e+00) (49, 2.03242182731628417969e+00) (50, 5.55053889751434326172e-01) (51, 1.63200795650482177734e+00) (52, -6.92907571792602539062e-01) (53, 1.00926530361175537109e+00) (54, 1.82742571830749511719e+00) (55, 4.72574520111083984375e+00) (56, 2.11001053452491760254e-01) (57, -3.47235226631164550781e+00) (58, -1.27496409416198730469e+00) (59, 2.50544738769531250000e+00) (60, -1.21926357969641685486e-02) (61, -5.53480529785156250000e+00) (62, 4.09914463758468627930e-01) (63, 7.57034599781036376953e-01) (64, 1.85827183723449707031e+00) (65, 7.14332833886146545410e-02) (66, 3.80109548568725585938e+00) (67, 2.19152760505676269531e+00) (68, 2.37739920616149902344e+00) (69, -9.39924716949462890625e-01) (70, 4.88814890384674072266e-01) (71, -3.55939030647277832031e-01) (72, -9.25261497497558593750e-01) (73, -1.64739763736724853516e+00) (74, -5.01501023769378662109e-01) (75, -9.21622693538665771484e-01) (76, -2.12562441825866699219e+00) (77, -6.07788503170013427734e-01) (78, -8.94518852233886718750e-01) (79, 1.25037804245948791504e-01) (80, -1.42327439785003662109e+00) (81, -1.47932350635528564453e-01) (82, 4.07902896404266357422e-01) (83, -4.29480028152465820312e+00) (84, -2.74545836448669433594e+00) (85, 2.30703687667846679688e+00) (86, -4.59011405706405639648e-01) (87, -8.54414045810699462891e-01) (88, -5.43147027492523193359e-01) (89, 7.10008442401885986328e-02) (90, -1.31764018535614013672e+00) (91, -1.47904360294342041016e+00) (92, -8.89346718788146972656e-01) (93, -2.35895800590515136719e+00) (94, -4.39549833536148071289e-01) (95, -1.33493065834045410156e+00) (96, -6.30644023418426513672e-01) (97, -1.21351517736911773682e-01) (98, -2.77477949857711791992e-01) (99, 7.11207687854766845703e-01) (100, -2.34368965029716491699e-01) (101, -7.11465477943420410156e-01) (102, 1.54086315631866455078e+00) (103, 1.14889657497406005859e+00) (104, 2.33274745941162109375e+00) (0, 1.42199764251708984375e+01) (1, 3.84007049560546875000e+02) (2, 8.27701091766357421875e-01) (3, 9.14108085632324218750e+00) (4, 2.11780881881713867188e+00) (5, 2.11423158645629882812e+00) (6, 2.19888448715209960938e+00) (7, 1.49999975585937500000e+03) (8, -1.49988671875000000000e+03) (9, 2.20392775535583496094e+00) (10, 2.38188958168029785156e+00) (11, 1.55701792240142822266e+00) (12, 1.80444443225860595703e+00) (13, 2.05828785896301269531e+00) (14, 1.74698030948638916016e+00) (15, 2.87986922264099121094e+00) (16, 2.88862252235412597656e+00) (17, 1.49999975585937500000e+03) (18, 1.49999975585937500000e+03) (19, 2.39696455001831054688e+00) (20, 1.49999975585937500000e+03) (21, 1.49999975585937500000e+03) (22, -9.17429260253906250000e+02) (23, 1.49999975585937500000e+03) (24, 1.49999975585937500000e+03) (25, 1.49999975585937500000e+03) (26, 1.49997619628906250000e+03) (27, 1.49997485351562500000e+03) (28, 1.49999975585937500000e+03) (29, 1.49999975585937500000e+03) (30, 1.00825524330139160156e+00) (31, 1.49999975585937500000e+03) (32, 1.49999975585937500000e+03) (33, 1.60142338275909423828e+00) (34, -1.50000000000000000000e+03) (35, 1.49999975585937500000e+03) (36, 1.49999133300781250000e+03) (37, 1.49999975585937500000e+03) (38, 1.49946081542968750000e+03) (39, 1.49997143554687500000e+03) (40, 1.49999975585937500000e+03) (41, -1.50000000000000000000e+03) (42, 1.49994775390625000000e+03) (43, 1.68770253658294677734e+00) (44, 1.49990393066406250000e+03) (45, 4.68362846374511718750e+01) (46, 6.97343811035156250000e+02) (47, 1.49989025878906250000e+03) (48, 1.49999975585937500000e+03) (49, 1.49998181152343750000e+03) (50, 1.49999975585937500000e+03) (51, 1.49999975585937500000e+03) (52, 2.60576629638671875000e+00) (53, 1.49999975585937500000e+03) (54, 1.49999975585937500000e+03) (55, 1.49999975585937500000e+03) (56, 1.49999975585937500000e+03) (57, 1.49999975585937500000e+03) (58, -1.49996044921875000000e+03) (59, 1.49999975585937500000e+03) (60, 3.38107752799987792969e+00) (61, 1.15351212024688720703e+00) (62, 1.49999975585937500000e+03) (63, 2.71266937255859375000e+00) (64, 1.49970751953125000000e+03) (65, 2.54705047607421875000e+00) (66, 1.49999975585937500000e+03) (67, 1.49999975585937500000e+03) (68, 1.49999975585937500000e+03) (69, 3.57581663131713867188e+00) (70, 2.90149927139282226562e+00) (71, 2.60708594322204589844e+00) (72, 1.57239234447479248047e+00) (73, -9.13103938102722167969e-01) (74, 2.16336703300476074219e+00) (75, 2.53548955917358398438e+00) (76, 2.06033754348754882812e+00) (77, 2.54893732070922851562e+00) (78, 1.81618487834930419922e+00) (79, 3.34359550476074218750e+00) (80, 1.49999975585937500000e+03) (81, 1.49999975585937500000e+03) (82, 1.49999975585937500000e+03) (83, -1.49999536132812500000e+03) (84, 3.00405073165893554688e+00) (85, 2.50506615638732910156e+00) (86, 2.55427575111389160156e+00) (87, 1.83951914310455322266e+00) (88, 2.55542945861816406250e+00) (89, 1.07865600585937500000e+03) (90, 2.44850945472717285156e+00) (91, 3.06739687919616699219e+00) (92, 1.95248818397521972656e+00) (93, 2.46265339851379394531e+00) (94, 2.53889727592468261719e+00) (95, 2.10823655128479003906e+00) (96, 8.94890129566192626953e-01) (97, 1.96463298797607421875e+00) (98, 2.63623905181884765625e+00) (99, 1.49999975585937500000e+03) (100, 2.85404324531555175781e+00) (101, 1.13807761669158935547e+00) (102, 1.49999975585937500000e+03) (103, -1.49999975585937500000e+03) (104, 5.82514882087707519531e-01) (0, -1.82234054565429687500e+02) (1, 8.56449699401855468750e+00) (2, 2.06991910934448242188e+00) (3, 8.91475772857666015625e+00) (4, 1.90145933628082275391e+00) (5, 2.05371356010437011719e+00) (6, 2.19685602188110351562e+00) (7, 1.49999975585937500000e+03) (8, -1.49988671875000000000e+03) (9, 2.27310514450073242188e+00) (10, 2.30113291740417480469e+00) (11, 1.32762932777404785156e+00) (12, 2.04035711288452148438e+00) (13, 1.96328711509704589844e+00) (14, 2.11111569404602050781e+00) (15, 2.36568570137023925781e+00) (16, 2.56247949600219726562e+00) (17, 1.49999975585937500000e+03) (18, 1.49999975585937500000e+03) (19, 1.76680517196655273438e+00) (20, 1.49999975585937500000e+03) (21, 1.49999975585937500000e+03) (22, -9.12667846679687500000e+02) (23, 1.49999975585937500000e+03) (24, 1.49999975585937500000e+03) (25, 1.49999975585937500000e+03) (26, 1.49997619628906250000e+03) (27, 1.49997485351562500000e+03) (28, 1.49999975585937500000e+03) (29, 1.49999975585937500000e+03) (30, 1.19070243835449218750e+00) (31, 1.49999975585937500000e+03) (32, 1.49999975585937500000e+03) (33, 1.61241090297698974609e+00) (34, -1.50000000000000000000e+03) (35, 1.49999975585937500000e+03) (36, 1.49999133300781250000e+03) (37, 1.49999975585937500000e+03) (38, 1.49946081542968750000e+03) (39, 1.49997143554687500000e+03) (40, 1.49999975585937500000e+03) (41, -1.50000000000000000000e+03) (42, 1.49994775390625000000e+03) (43, 3.31267476081848144531e+00) (44, 1.49990393066406250000e+03) (45, 3.59515047073364257812e+00) (46, 6.97343811035156250000e+02) (47, 1.49989025878906250000e+03) (48, 1.49999975585937500000e+03) (49, 1.49998181152343750000e+03) (50, 1.49999975585937500000e+03) (51, 1.49999975585937500000e+03) (52, 2.64259028434753417969e+00) (53, 1.49999975585937500000e+03) (54, 1.49999975585937500000e+03) (55, 1.49999975585937500000e+03) (56, 1.49999975585937500000e+03) (57, 1.49999975585937500000e+03) (58, -1.49996044921875000000e+03) (59, 1.49999975585937500000e+03) (60, 2.48818135261535644531e+00) (61, 4.18654060363769531250e+00) (62, 1.49999975585937500000e+03) (63, 2.42720079421997070312e+00) (64, 1.49970751953125000000e+03) (65, 2.27309751510620117188e+00) (66, 1.49999975585937500000e+03) (67, 1.49999975585937500000e+03) (68, 1.49999975585937500000e+03) (69, 1.75937068462371826172e+00) (70, 2.18711686134338378906e+00) (71, 2.21445393562316894531e+00) (72, 8.50894391536712646484e-01) (73, 3.33569121360778808594e+00) (74, 1.78312170505523681641e+00) (75, 2.21609449386596679688e+00) (76, 1.80218517780303955078e+00) (77, 1.89926064014434814453e+00) (78, 1.48111927509307861328e+00) (79, 1.45102369785308837891e+00) (80, 1.49999975585937500000e+03) (81, 1.49999975585937500000e+03) (82, 1.49999975585937500000e+03) (83, -1.49999536132812500000e+03) (84, 2.60058546066284179688e+00) (85, 2.28123283386230468750e+00) (86, 2.14572048187255859375e+00) (87, 1.65746235847473144531e+00) (88, 1.86393392086029052734e+00) (89, 1.06113073730468750000e+03) (90, 2.03947305679321289062e+00) (91, 2.19865465164184570312e+00) (92, 2.58349657058715820312e+00) (93, 2.20269346237182617188e+00) (94, 1.75107765197753906250e+00) (95, 2.01193284988403320312e+00) (96, 1.43502199649810791016e+00) (97, 1.53745198249816894531e+00) (98, 2.14368367195129394531e+00) (99, 1.49999975585937500000e+03) (100, 2.04634046554565429688e+00) (101, 1.88355028629302978516e+00) (102, 1.49999975585937500000e+03) (103, -1.49999975585937500000e+03) (104, 5.66799879074096679688e-01) (0, 5.24257965087890625000e+01) (1, 3.14935951232910156250e+01) (2, 1.49883663654327392578e+00) (3, 2.60954952239990234375e+01) (4, 2.10135817527770996094e+00) (5, 5.61847076416015625000e+01) (6, 2.09743285179138183594e+00) (7, 1.49999975585937500000e+03) (8, -1.49988671875000000000e+03) (9, 2.11595630645751953125e+00) (10, 3.72115182876586914062e+00) (11, 7.77912750244140625000e+01) (12, 1.93480682373046875000e+00) (13, 1.74490940570831298828e+00) (14, 1.74329519271850585938e+00) (15, 2.31878137588500976562e+00) (16, 2.24918270111083984375e+00) (17, 1.49999975585937500000e+03) (18, 1.49999975585937500000e+03) (19, 2.06152391433715820312e+00) (20, 1.49999975585937500000e+03) (21, 1.49999975585937500000e+03) (22, -9.17729248046875000000e+02) (23, 1.49999975585937500000e+03) (24, 1.49999975585937500000e+03) (25, 1.49999975585937500000e+03) (26, 1.49997619628906250000e+03) (27, 1.49997485351562500000e+03) (28, 1.49999975585937500000e+03) (29, 1.49999975585937500000e+03) (30, 9.57580804824829101562e-01) (31, 1.49999975585937500000e+03) (32, 1.49999975585937500000e+03) (33, 1.39673936367034912109e+00) (34, -1.50000000000000000000e+03) (35, 1.49999975585937500000e+03) (36, 1.49999133300781250000e+03) (37, 1.49999975585937500000e+03) (38, 1.39295232295989990234e+00) (39, 1.49997143554687500000e+03) (40, 1.49999975585937500000e+03) (41, -1.50000000000000000000e+03) (42, 1.49994775390625000000e+03) (43, 1.17702460289001464844e+00) (44, 1.49990393066406250000e+03) (45, 4.09924173355102539062e+00) (46, 6.97343811035156250000e+02) (47, 1.49989025878906250000e+03) (48, 1.49999975585937500000e+03) (49, 1.49998181152343750000e+03) (50, 1.49999975585937500000e+03) (51, 1.49999975585937500000e+03) (52, 2.43767356872558593750e+00) (53, 1.49999975585937500000e+03) (54, 1.49999975585937500000e+03) (55, 1.49999975585937500000e+03) (56, 1.49999975585937500000e+03) (57, 1.49999975585937500000e+03) (58, -1.49996044921875000000e+03) (59, 1.49999975585937500000e+03) (60, 2.04862737655639648438e+00) (61, 6.52515172958374023438e-01) (62, 1.49999975585937500000e+03) (63, 1.78018534183502197266e+00) (64, 1.49970751953125000000e+03) (65, 2.18590927124023437500e+00) (66, 1.49999975585937500000e+03) (67, 1.49999975585937500000e+03) (68, 1.49999975585937500000e+03) (69, 3.39327263832092285156e+00) (70, 2.38207626342773437500e+00) (71, 2.29739832878112792969e+00) (72, 1.61670017242431640625e+00) (73, -6.15374505519866943359e-01) (74, 1.98789620399475097656e+00) (75, 2.31974339485168457031e+00) (76, 1.67509305477142333984e+00) (77, 2.07141137123107910156e+00) (78, 1.68921446800231933594e+00) (79, 3.08020305633544921875e+00) (80, 1.49999975585937500000e+03) (81, 1.49999975585937500000e+03) (82, 1.49999975585937500000e+03) (83, -1.49999536132812500000e+03) (84, 2.68690800666809082031e+00) (85, 2.38024640083312988281e+00) (86, 1.97228014469146728516e+00) (87, 1.64277553558349609375e+00) (88, 2.43129944801330566406e+00) (89, 1.06057922363281250000e+03) (90, 2.21815228462219238281e+00) (91, 2.32387924194335937500e+00) (92, 1.73383843898773193359e+00) (93, 1.83424425125122070312e+00) (94, 1.79240667819976806641e+00) (95, 1.69877135753631591797e+00) (96, 1.65722012519836425781e+00) (97, 1.38180017471313476562e+00) (98, 2.00456905364990234375e+00) (99, 1.49999975585937500000e+03) (100, 1.96361088752746582031e+00) (101, 1.31586134433746337891e+00) (102, 1.49999975585937500000e+03) (103, -1.49999975585937500000e+03) (104, 4.43594336509704589844e-01) (0, 3.42233443260192871094e+00) (1, -4.60934877395629882812e-01) (2, -9.18275117874145507812e-01) (3, -5.56774556636810302734e-01) (4, -3.60222488641738891602e-01) (5, -5.48247873783111572266e-01) (6, -5.04110336303710937500e-01) (7, 3.34769636392593383789e-01) (8, 6.86751231551170349121e-02) (9, -4.16440308094024658203e-01) (10, 1.66169598698616027832e-01) (11, 5.98241686820983886719e-01) (12, 8.11126470565795898438e-01) (13, -6.85381770133972167969e-01) (14, -7.73333668708801269531e-01) (15, 1.08044767379760742188e+00) (16, 1.68916082382202148438e+00) (17, 4.87919896841049194336e-01) (18, -2.95210890471935272217e-02) (19, -4.94304448366165161133e-01) (20, -1.87414258718490600586e-01) (21, -9.68727618455886840820e-02) (22, -7.10726559162139892578e-01) (23, -6.72005653381347656250e-01) (24, -3.17609399557113647461e-01) (25, -3.82846117019653320312e-01) (26, 2.42143675684928894043e-01) (27, 1.21364779770374298096e-02) (28, -4.37398970127105712891e-01) (29, 5.48264920711517333984e-01) (30, -7.14617431163787841797e-01) (31, -5.61878323554992675781e-01) (32, -4.81943786144256591797e-01) (33, -7.94146716594696044922e-01) (34, 3.28188204765319824219e+00) (35, -4.21758919954299926758e-01) (36, -4.82167929410934448242e-01) (37, 1.54504731297492980957e-01) (38, 4.38030004501342773438e-01) (39, 1.31514342501759529114e-03) (40, -2.41892471909523010254e-01) (41, 7.26534545421600341797e-01) (42, 2.57977902889251708984e-01) (43, -5.64154326915740966797e-01) (44, 1.26069617271423339844e+00) (45, 1.64010775089263916016e+00) (46, -9.55983158200979232788e-03) (47, 1.31711602210998535156e+00) (48, -5.72424121201038360596e-02) (49, -3.68514031171798706055e-01) (50, -5.91630399227142333984e-01) (51, 7.79427438974380493164e-02) (52, 7.66527831554412841797e-01) (53, 1.68959689140319824219e+00) (54, -5.76250612735748291016e-01) (55, -1.51528567075729370117e-01) (56, -1.31753748282790184021e-02) (57, -5.20493388175964355469e-01) (58, -1.04704272747039794922e+00) (59, 