FANN_FLO_2.1
num_layers=3
learning_rate=0.700000
connection_rate=1.000000
network_type=0
learning_momentum=0.000000
training_algorithm=2
train_error_function=1
train_stop_function=0
cascade_output_change_fraction=0.010000
quickprop_decay=-0.000100
quickprop_mu=1.750000
rprop_increase_factor=1.200000
rprop_decrease_factor=0.500000
rprop_delta_min=0.000000
rprop_delta_max=50.000000
rprop_delta_zero=0.100000
cascade_output_stagnation_epochs=12
cascade_candidate_change_fraction=0.010000
cascade_candidate_stagnation_epochs=12
cascade_max_out_epochs=150
cascade_max_cand_epochs=150
cascade_num_candidate_groups=2
bit_fail_limit=3.49999994039535522461e-01
cascade_candidate_limit=1.00000000000000000000e+03
cascade_weight_multiplier=4.00000005960464477539e-01
cascade_activation_functions_count=10
cascade_activation_functions=3 5 7 8 10 11 14 15 16 17 
cascade_activation_steepnesses_count=4
cascade_activation_steepnesses=2.50000000000000000000e-01 5.00000000000000000000e-01 7.50000000000000000000e-01 1.00000000000000000000e+00 
layer_sizes=105 26 2 
scale_included=0
neurons (num_inputs, activation_function, activation_steepness)=(0, 0, 0.00000000000000000000e+00) (0, 0, 0.00000000000000000000e+00) (0, 0, 0.00000000000000000000e+00) (0, 0, 0.00000000000000000000e+00) (0, 0, 0.00000000000000000000e+00) (0, 0, 0.00000000000000000000e+00) (0, 0, 0.00000000000000000000e+00) (0, 0, 0.00000000000000000000e+00) (0, 0, 0.00000000000000000000e+00) (0, 0, 0.00000000000000000000e+00) (0, 0, 0.00000000000000000000e+00) (0, 0, 0.00000000000000000000e+00) (0, 0, 0.00000000000000000000e+00) (0, 0, 0.00000000000000000000e+00) (0, 0, 0.00000000000000000000e+00) (0, 0, 0.00000000000000000000e+00) (0, 0, 0.00000000000000000000e+00) (0, 0, 0.00000000000000000000e+00) (0, 0, 0.00000000000000000000e+00) (0, 0, 0.00000000000000000000e+00) (0, 0, 0.00000000000000000000e+00) (0, 0, 0.00000000000000000000e+00) (0, 0, 0.00000000000000000000e+00) (0, 0, 0.00000000000000000000e+00) (0, 0, 0.00000000000000000000e+00) (0, 0, 0.00000000000000000000e+00) (0, 0, 0.00000000000000000000e+00) (0, 0, 0.00000000000000000000e+00) (0, 0, 0.00000000000000000000e+00) (0, 0, 0.00000000000000000000e+00) (0, 0, 0.00000000000000000000e+00) (0, 0, 0.00000000000000000000e+00) (0, 0, 0.00000000000000000000e+00) (0, 0, 0.00000000000000000000e+00) (0, 0, 0.00000000000000000000e+00) (0, 0, 0.00000000000000000000e+00) (0, 0, 0.00000000000000000000e+00) (0, 0, 0.00000000000000000000e+00) (0, 0, 0.00000000000000000000e+00) (0, 0, 0.00000000000000000000e+00) (0, 0, 0.00000000000000000000e+00) (0, 0, 0.00000000000000000000e+00) (0, 0, 0.00000000000000000000e+00) (0, 0, 0.00000000000000000000e+00) (0, 0, 0.00000000000000000000e+00) (0, 0, 0.00000000000000000000e+00) (0, 0, 0.00000000000000000000e+00) (0, 0, 0.00000000000000000000e+00) (0, 0, 0.00000000000000000000e+00) (0, 0, 0.00000000000000000000e+00) (0, 0, 0.00000000000000000000e+00) (0, 0, 0.00000000000000000000e+00) (0, 0, 0.00000000000000000000e+00) (0, 0, 0.00000000000000000000e+00) (0, 0, 0.00000000000000000000e+00) (0, 0, 0.00000000000000000000e+00) (0, 0, 0.00000000000000000000e+00) (0, 0, 0.00000000000000000000e+00) (0, 0, 0.00000000000000000000e+00) (0, 0, 0.00000000000000000000e+00) (0, 0, 0.00000000000000000000e+00) (0, 0, 0.00000000000000000000e+00) (0, 0, 0.00000000000000000000e+00) (0, 0, 0.00000000000000000000e+00) (0, 0, 0.00000000000000000000e+00) (0, 0, 0.00000000000000000000e+00) (0, 0, 0.00000000000000000000e+00) (0, 0, 0.00000000000000000000e+00) (0, 0, 0.00000000000000000000e+00) (0, 0, 0.00000000000000000000e+00) (0, 0, 0.00000000000000000000e+00) (0, 0, 0.00000000000000000000e+00) (0, 0, 0.00000000000000000000e+00) (0, 0, 0.00000000000000000000e+00) (0, 0, 0.00000000000000000000e+00) (0, 0, 0.00000000000000000000e+00) (0, 0, 0.00000000000000000000e+00) (0, 0, 0.00000000000000000000e+00) (0, 0, 0.00000000000000000000e+00) (0, 0, 0.00000000000000000000e+00) (0, 0, 0.00000000000000000000e+00) (0, 0, 0.00000000000000000000e+00) (0, 0, 0.00000000000000000000e+00) (0, 0, 0.00000000000000000000e+00) (0, 0, 0.00000000000000000000e+00) (0, 0, 0.00000000000000000000e+00) (0, 0, 0.00000000000000000000e+00) (0, 0, 0.00000000000000000000e+00) (0, 0, 0.00000000000000000000e+00) (0, 0, 0.00000000000000000000e+00) (0, 0, 0.00000000000000000000e+00) (0, 0, 0.00000000000000000000e+00) (0, 0, 0.00000000000000000000e+00) (0, 0, 0.00000000000000000000e+00) (0, 0, 0.00000000000000000000e+00) (0, 0, 0.00000000000000000000e+00) (0, 0, 0.00000000000000000000e+00) (0, 0, 0.00000000000000000000e+00) (0, 0, 0.00000000000000000000e+00) (0, 0, 0.00000000000000000000e+00) (0, 0, 0.00000000000000000000e+00) (0, 0, 0.00000000000000000000e+00) (0, 0, 0.00000000000000000000e+00) (0, 0, 0.00000000000000000000e+00) (0, 0, 0.00000000000000000000e+00) (105, 5, 5.00000000000000000000e-01) (105, 5, 5.00000000000000000000e-01) (105, 5, 5.00000000000000000000e-01) (105, 5, 5.00000000000000000000e-01) (105, 5, 5.00000000000000000000e-01) (105, 5, 5.00000000000000000000e-01) (105, 5, 5.00000000000000000000e-01) (105, 5, 5.00000000000000000000e-01) (105, 5, 5.00000000000000000000e-01) (105, 5, 5.00000000000000000000e-01) (105, 5, 5.00000000000000000000e-01) (105, 5, 5.00000000000000000000e-01) (105, 5, 5.00000000000000000000e-01) (105, 5, 5.00000000000000000000e-01) (105, 5, 5.00000000000000000000e-01) (105, 5, 5.00000000000000000000e-01) (105, 5, 5.00000000000000000000e-01) (105, 5, 5.00000000000000000000e-01) (105, 5, 5.00000000000000000000e-01) (105, 5, 5.00000000000000000000e-01) (105, 5, 5.00000000000000000000e-01) (105, 5, 5.00000000000000000000e-01) (105, 5, 5.00000000000000000000e-01) (105, 5, 5.00000000000000000000e-01) (105, 5, 5.00000000000000000000e-01) (0, 5, 0.00000000000000000000e+00) (26, 5, 5.00000000000000000000e-01) (0, 5, 0.00000000000000000000e+00) 
connections (connected_to_neuron, weight)=(0, -6.25687181949615478516e-01) (1, -1.84267978668212890625e+01) (2, 1.85690736770629882812e+00) (3, 1.38593530654907226562e+00) (4, 1.97193932533264160156e+00) (5, 1.22838866710662841797e+00) (6, 1.56755697727203369141e+00) (7, -2.20828914642333984375e+00) (8, 3.42741608619689941406e-02) (9, 1.67425632476806640625e+00) (10, 2.44961357116699218750e+00) (11, -7.22900927066802978516e-01) (12, -3.86962652206420898438e-01) (13, 2.31641912460327148438e+00) (14, 1.97427356243133544922e+00) (15, 3.74659514427185058594e+00) (16, 9.48882579803466796875e+00) (17, 2.16061902046203613281e+00) (18, 2.14323449134826660156e+00) (19, 1.12108123302459716797e+00) (20, -3.02445054054260253906e+00) (21, 2.46203184127807617188e+00) (22, 1.96201479434967041016e+00) (23, 1.47632336616516113281e+00) (24, 1.00293016433715820312e+00) (25, -2.29392218589782714844e+00) (26, 2.28526139259338378906e+00) (27, 8.12548160552978515625e-01) (28, -4.25336480140686035156e-01) (29, -8.49979400634765625000e+00) (30, 4.96278715133666992188e+00) (31, 7.47308433055877685547e-01) (32, 1.34975397586822509766e+00) (33, 3.66815066337585449219e+00) (34, 4.82418358325958251953e-01) (35, -2.68179750442504882812e+00) (36, 7.31754732131958007812e+00) (37, 4.80827599763870239258e-01) (38, 1.71581125259399414062e+00) (39, -5.65065336227416992188e+00) (40, -5.58292269706726074219e-01) (41, 8.09232807159423828125e+00) (42, -8.54775756597518920898e-02) (43, -5.11506557464599609375e-01) (44, 3.25750398635864257812e+00) (45, 3.29836875200271606445e-01) (46, 3.47648906707763671875e+00) (47, -8.35624873638153076172e-01) (48, 2.29389548301696777344e+00) (49, 1.62412309646606445312e+00) (50, 3.46465706825256347656e+00) (51, 6.50138258934020996094e-01) (52, 2.35880851745605468750e+00) (53, -3.62710499763488769531e+00) (54, 3.50156235694885253906e+00) (55, 9.25886869430541992188e-01) (56, 1.82273125648498535156e+00) (57, 2.14244508743286132812e+00) (58, -3.65531754493713378906e+00) (59, -3.30513882637023925781e+00) (60, 4.56869274377822875977e-01) (61, -1.04669123888015747070e-01) (62, 6.66267275810241699219e-01) (63, 3.65398705005645751953e-01) (64, -1.79958119988441467285e-02) (65, 4.02052700519561767578e-01) (66, -1.12653722763061523438e+01) (67, -9.70825552940368652344e-02) (68, 2.01930999755859375000e+00) (69, -1.54185011982917785645e-01) (70, 5.21015405654907226562e-01) (71, 5.49904882907867431641e-01) (72, -1.52847141027450561523e-01) (73, -5.50577640533447265625e-01) (74, -3.41283917427062988281e-01) (75, -1.04665122926235198975e-01) (76, 7.72053360939025878906e-01) (77, -2.13317960500717163086e-01) (78, 8.14922690391540527344e-01) (79, 5.25481760501861572266e-01) (80, 3.98870825767517089844e-01) (81, 1.66750416159629821777e-01) (82, -2.43379343301057815552e-02) (83, -5.64799755811691284180e-02) (84, -5.44100940227508544922e-01) (85, 1.48951911926269531250e+00) (86, 2.74499386548995971680e-01) (87, 1.06223082542419433594e+00) (88, -1.32319405674934387207e-01) (89, -1.89606979489326477051e-01) (90, -2.34214067459106445312e-01) (91, -1.77391454577445983887e-01) (92, -8.06986540555953979492e-02) (93, 3.82182449102401733398e-02) (94, 4.22029644250869750977e-01) (95, -1.92963853478431701660e-01) (96, 5.80986201763153076172e-01) (97, 3.61177831888198852539e-01) (98, 3.49696844816207885742e-01) (99, -2.63172805309295654297e-01) (100, 3.42024475336074829102e-01) (101, -1.44595935940742492676e-01) (102, 1.50000000000000000000e+03) (103, -1.24604699707031250000e+03) (104, 1.79292976856231689453e+00) (0, 3.99298936128616333008e-01) (1, -1.22670121490955352783e-01) (2, 4.67652268707752227783e-02) (3, -6.40102028846740722656e-01) (4, -1.88790872693061828613e-01) (5, 9.80985105037689208984e-01) (6, -2.04876989126205444336e-01) (7, 1.79598522186279296875e+00) (8, -7.95016646385192871094e-01) (9, 1.23840808868408203125e-01) (10, 6.90411150455474853516e-01) (11, 7.49577656388282775879e-02) (12, 6.10337674617767333984e-01) (13, 1.54433146119117736816e-01) (14, 1.98995411396026611328e-01) (15, 4.34973567724227905273e-01) (16, -4.11506220698356628418e-02) (17, -3.30878719687461853027e-02) (18, 3.64252239465713500977e-01) (19, -2.20235943794250488281e-01) (20, -8.73411521315574645996e-02) (21, 7.41075634956359863281e-01) (22, 2.83709079027175903320e-01) (23, 7.42054451256990432739e-03) (24, -6.72381758689880371094e-01) (25, 5.42687416076660156250e-01) (26, -8.75502884387969970703e-01) (27, -1.06285288929939270020e-01) (28, 2.79531121253967285156e-01) (29, -9.37845259904861450195e-02) (30, 1.30671393871307373047e+00) (31, -5.86607158184051513672e-02) (32, 1.25665783882141113281e-01) (33, 5.61732411384582519531e-01) (34, 5.19913792610168457031e-01) (35, -8.08279514312744140625e-01) (36, -7.04480290412902832031e-01) (37, 8.58742356300354003906e-01) (38, 2.73701518774032592773e-01) (39, 2.75961399078369140625e-01) (40, 4.81304317712783813477e-01) (41, 1.14986932277679443359e+00) (42, 4.33306783437728881836e-01) (43, 7.85676836967468261719e-01) (44, 6.59559905529022216797e-01) (45, -1.19021698832511901855e-01) (46, 8.56173098087310791016e-01) (47, 3.21414530277252197266e-01) (48, 1.28223407268524169922e+00) (49, 7.02479183673858642578e-01) (50, 9.73077654838562011719e-01) (51, 1.09537279605865478516e+00) (52, -2.94741898775100708008e-01) (53, -6.98216140270233154297e-01) (54, -4.54657524824142456055e-01) (55, -1.90912103652954101562e+00) (56, -1.06438970565795898438e+00) (57, 7.31702387332916259766e-01) (58, 1.79725575447082519531e+00) (59, 1.94956675171852111816e-01) (60, -4.17591452598571777344e-01) (61, 8.86438548564910888672e-01) (62, 7.08207845687866210938e-01) (63, -8.56007158756256103516e-01) (64, 6.80972039699554443359e-01) (65, -4.83566969633102416992e-01) (66, 1.52113151550292968750e+00) (67, 2.84748345613479614258e-01) (68, -4.55109588801860809326e-03) (69, 4.86562877893447875977e-01) (70, 5.14066359028220176697e-03) (71, 1.99156358838081359863e-01) (72, -8.92759561538696289062e-01) (73, -4.74047511816024780273e-01) (74, -3.36606442928314208984e-01) (75, -1.11426413059234619141e+00) (76, -4.49894845485687255859e-01) (77, -4.28327113389968872070e-01) (78, 4.16341632604598999023e-01) (79, -2.34994840621948242188e+00) (80, -7.11066126823425292969e-01) (81, -4.08671766519546508789e-01) (82, -7.93218433856964111328e-01) (83, -7.94217050075531005859e-01) (84, 4.21775490045547485352e-01) (85, -2.72115580737590789795e-02) (86, -4.45738434791564941406e-01) (87, 6.78812563419342041016e-01) (88, -1.30107891559600830078e+00) (89, -1.33723163604736328125e+00) (90, -9.98348653316497802734e-01) (91, -1.45068776607513427734e+00) (92, 8.10097575187683105469e-01) (93, -2.84991294145584106445e-01) (94, -1.66303724050521850586e-01) (95, 1.00335538387298583984e+00) (96, 1.40829280018806457520e-01) (97, 9.93853881955146789551e-02) (98, -8.79543185234069824219e-01) (99, -6.94815039634704589844e-01) (100, -7.82911777496337890625e-01) (101, 9.03102278709411621094e-01) (102, -2.13824197649955749512e-01) (103, 2.14985537528991699219e+00) (104, 2.53145861625671386719e+00) (0, 2.67882680892944335938e+00) (1, 2.96967267990112304688e-01) (2, 3.99197816848754882812e-01) (3, 9.58133786916732788086e-02) (4, 1.08308410644531250000e+00) (5, -1.92404419183731079102e-01) (6, 3.36794346570968627930e-01) (7, 1.36584210395812988281e+00) (8, 1.27704679965972900391e+00) (9, -5.19399344921112060547e-01) (10, -5.12012660503387451172e-01) (11, 5.11125087738037109375e-01) (12, 2.38300696015357971191e-01) (13, -5.90795755386352539062e-01) (14, -5.81738173961639404297e-01) (15, -3.59959363937377929688e-01) (16, -6.71188175678253173828e-01) (17, -4.17716085910797119141e-01) (18, -4.06463831663131713867e-01) (19, -1.01405261084437370300e-02) (20, -6.91470444202423095703e-01) (21, -1.01833373308181762695e-01) (22, 1.91435471177101135254e-01) (23, -5.19774913787841796875e-01) (24, 1.64741575717926025391e-01) (25, -8.52768793702125549316e-02) (26, -4.92182910442352294922e-01) (27, -3.97148817777633666992e-01) (28, -1.35204285383224487305e-01) (29, -3.35745334625244140625e-01) (30, -4.74914580583572387695e-01) (31, 3.89755666255950927734e-01) (32, 6.43049180507659912109e-01) (33, 2.01390838623046875000e+00) (34, -1.23022472858428955078e+00) (35, 1.68076384067535400391e+00) (36, 9.02088079601526260376e-03) (37, 2.46010556817054748535e-01) (38, -6.79400622844696044922e-01) (39, 7.07464991137385368347e-03) (40, 5.05103319883346557617e-02) (41, -4.29844409227371215820e-01) (42, -4.26178038120269775391e-01) (43, 1.33891561999917030334e-02) (44, -7.42985382676124572754e-02) (45, -5.66255807876586914062e-01) (46, 4.49983358383178710938e+00) (47, -2.82605767250061035156e-01) (48, 5.68168580532073974609e-01) (49, 8.13902080059051513672e-01) (50, 1.80775940418243408203e+00) (51, -3.61671537160873413086e-01) (52, 2.38670277595520019531e+00) (53, -2.95027375221252441406e+00) (54, 4.67355871200561523438e+00) (55, 4.72384661436080932617e-01) (56, 2.34871959686279296875e+00) (57, 1.72831666469573974609e+00) (58, 2.92776441574096679688e+00) (59, 1.55451285839080810547e+00) (60, -4.73060607910156250000e-01) (61, -8.40084075927734375000e+00) (62, 5.44816970825195312500e-01) (63, 3.95694851875305175781e-01) (64, 3.81400442123413085938e+00) (65, 8.33687633275985717773e-02) (66, 6.39325380325317382812e-01) (67, -1.64793193340301513672e+00) (68, 6.80614888668060302734e-01) (69, -2.83646941184997558594e+00) (70, -4.65520709753036499023e-01) (71, 1.79383203387260437012e-01) (72, -5.45578002929687500000e-01) (73, 3.36655354499816894531e+00) (74, 8.71618315577507019043e-02) (75, -9.11726093292236328125e+00) (76, 2.83685612678527832031e+00) (77, -7.09329694509506225586e-02) (78, 4.96573352813720703125e+00) (79, -6.70129585266113281250e+00) (80, 1.12565481662750244141e+00) (81, 5.15131998062133789062e+00) (82, 1.78542363643646240234e+00) (83, 1.84520268440246582031e+00) (84, -8.26176166534423828125e-01) (85, 1.51890158653259277344e+00) (86, -3.27126622200012207031e-01) (87, 2.47532263398170471191e-01) (88, 3.40838527679443359375e+00) (89, -8.92010688781738281250e-01) (90, 6.40976071357727050781e-01) (91, -9.20410230755805969238e-02) (92, 1.96877047419548034668e-01) (93, -4.72341299057006835938e-01) (94, -4.89842474460601806641e-01) (95, -5.97333014011383056641e-01) (96, 1.84222269058227539062e+00) (97, -1.17439977824687957764e-01) (98, -3.79489469528198242188e+00) (99, 2.18540835380554199219e+00) (100, 8.24494212865829467773e-02) (101, -4.55301856994628906250e+00) (102, -1.13844561576843261719e+00) (103, 5.09071397781372070312e+00) (104, 2.01852011680603027344e+00) (0, -9.99014472961425781250e+00) (1, -1.01319348812103271484e+00) (2, 1.95502266287803649902e-01) (3, -4.87530618906021118164e-01) (4, -3.67041766643524169922e-01) (5, -8.44583034515380859375e+00) (6, -7.38660764694213867188e+00) (7, 1.40767908096313476562e+01) (8, -4.49583679437637329102e-01) (9, -8.68911683559417724609e-01) (10, 1.24404497146606445312e+01) (11, -3.36646884679794311523e-01) (12, 9.30005669593811035156e-01) (13, -2.88119554519653320312e+00) (14, -1.65558731555938720703e+00) (15, -8.81439685821533203125e-01) (16, -3.48223781585693359375e+00) (17, -1.40106543898582458496e-01) (18, 2.11170053482055664062e+00) (19, -1.14978834986686706543e-01) (20, -9.67884898185729980469e-01) (21, -1.18701982498168945312e+00) (22, -1.04927790164947509766e+00) (23, -9.68732893466949462891e-01) (24, 1.24159419536590576172e+00) (25, 1.75451254844665527344e+00) (26, -4.88935917615890502930e-01) (27, -6.75478279590606689453e-01) (28, -6.04249000549316406250e+00) (29, -2.89680689573287963867e-01) (30, -1.64740848541259765625e+00) (31, 1.45160424709320068359e+00) (32, -1.76372483372688293457e-01) (33, 1.02395713329315185547e+00) (34, -5.11609137058258056641e-01) (35, -4.33746904134750366211e-01) (36, 1.62475550174713134766e+00) (37, 1.86278283596038818359e+00) (38, 2.49204087257385253906e+00) (39, 2.03791904449462890625e+00) (40, 1.74770915508270263672e+00) (41, 9.99273240566253662109e-01) (42, 6.90695524215698242188e-01) (43, 8.11042726039886474609e-01) (44, -8.95304083824157714844e-01) (45, 4.44938898086547851562e-01) (46, 2.85006165504455566406e+00) (47, 2.67183244228363037109e-01) (48, -4.12542670965194702148e-01) (49, 2.92311966419219970703e-01) (50, -4.79624301195144653320e-01) (51, -5.29520988464355468750e-01) (52, -3.24223011732101440430e-01) (53, 4.23118844628334045410e-02) (54, -1.49387025833129882812e+00) (55, -2.55577111244201660156e+00) (56, -8.77969041466712951660e-02) (57, -1.61814737319946289062e+00) (58, 1.34300589561462402344e+00) (59, 1.55037939548492431641e-01) (60, -8.15289691090583801270e-02) (61, -1.38467979431152343750e+00) (62, -1.24626144766807556152e-01) (63, 1.22349226474761962891e+00) (64, 1.10205113887786865234e+00) (65, 1.32458436489105224609e+00) (66, -1.52309274673461914062e+00) (67, -1.33755552768707275391e+00) (68, -2.59686017036437988281e+00) (69, 1.33299887180328369141e-01) (70, 7.72870421409606933594e-01) (71, 8.27781558036804199219e-01) (72, 8.51060986518859863281e-01) (73, -6.40301942825317382812e-01) (74, 1.61190056800842285156e+00) (75, 3.87809485197067260742e-01) (76, 6.84890151023864746094e-01) (77, 1.46610164642333984375e+00) (78, -2.29686170816421508789e-01) (79, 9.05229523777961730957e-02) (80, -3.54690432548522949219e-01) (81, -4.64644134044647216797e-01) (82, -1.93491056561470031738e-01) (83, 6.71557664871215820312e-01) (84, -2.87773549556732177734e-01) (85, -6.94664657115936279297e-01) (86, -2.18351513147354125977e-01) (87, -6.54676556587219238281e-01) (88, -2.47455453872680664062e+00) (89, -3.59213858842849731445e-01) (90, -5.77110946178436279297e-01) (91, -5.39978265762329101562e-01) (92, 1.76282867789268493652e-01) (93, -7.08684027194976806641e-01) (94, -2.78169810771942138672e-01) (95, 3.94476950168609619141e-01) (96, -6.30179226398468017578e-01) (97, 9.47272181510925292969e-01) (98, -1.43323644995689392090e-01) (99, -1.90766498446464538574e-01) (100, -1.72937035560607910156e-01) (101, -1.63157358765602111816e-01) (102, 2.93860363960266113281e+00) (103, 5.09828662872314453125e+00) (104, 2.39786052703857421875e+00) (0, 2.44385421752929687500e+02) (1, 3.56991615295410156250e+01) (2, 4.06239748001098632812e+00) (3, -3.68497085571289062500e+01) (4, 2.54734516143798828125e+00) (5, 5.51487970352172851562e+00) (6, 3.79149699211120605469e+00) (7, 5.21228456497192382812e+00) (8, 1.02931237220764160156e+00) (9, 1.75925767421722412109e+00) (10, 3.01329731941223144531e+00) (11, 2.98191428184509277344e+00) (12, 1.65004992485046386719e+00) (13, 5.67526006698608398438e+00) (14, 1.50660204887390136719e+00) (15, 9.93140101432800292969e-01) (16, 2.31529951095581054688e+00) (17, 1.67393791675567626953e+00) (18, 1.69639718532562255859e+00) (19, 6.92638993263244628906e-01) (20, 1.43672084808349609375e+00) (21, 1.47172641754150390625e+00) (22, 1.64570486545562744141e+00) (23, 1.11829841136932373047e+00) (24, 1.52654218673706054688e+00) (25, 1.87687778472900390625e+00) (26, 1.51833474636077880859e+00) (27, 1.85826945304870605469e+00) (28, 1.32539308071136474609e+00) (29, 1.78901553153991699219e+00) (30, 6.31922302246093750000e+01) (31, 1.34209787845611572266e+00) (32, 1.31434452533721923828e+00) (33, 1.04991579055786132812e+00) (34, 6.16724586486816406250e+00) (35, 1.24203193187713623047e+00) (36, 1.28882563114166259766e+00) (37, 1.11122977733612060547e+00) (38, 1.36348128318786621094e+00) (39, 6.65242791175842285156e-01) (40, 5.07760226726531982422e-01) (41, 1.80772233009338378906e+00) (42, 5.54137706756591796875e-01) (43, 5.84624886512756347656e-01) (44, 5.50210475921630859375e-01) (45, 1.14217889308929443359e+00) (46, 2.31284356117248535156e+00) (47, 1.50990200042724609375e+00) (48, 1.09151256084442138672e+00) (49, 8.07270050048828125000e-01) (50, 1.57973647117614746094e+00) (51, 1.31660997867584228516e+00) (52, 1.34332740306854248047e+00) (53, 1.42165350914001464844e+00) (54, 7.73811757564544677734e-01) (55, 1.26328444480895996094e+00) (56, 6.51869475841522216797e-01) (57, 5.84210038185119628906e-01) (58, 3.45264739990234375000e+02) (59, 1.14401912689208984375e+00) (60, 6.36931657791137695312e-01) (61, 5.02370238304138183594e-01) (62, 3.00603032112121582031e-01) (63, 6.86230123043060302734e-01) (64, 1.12246893346309661865e-01) (65, 8.62885296344757080078e-01) (66, 6.95661020278930664062e+00) (67, 4.38627213239669799805e-01) (68, 8.93126606941223144531e-01) (69, 3.55480611324310302734e-01) (70, 1.36565208435058593750e+00) (71, 9.03846979141235351562e-01) (72, 1.00345432758331298828e+00) (73, 7.18115687370300292969e-01) (74, 1.11718368530273437500e+00) (75, 2.45416477322578430176e-01) (76, 5.33867895603179931641e-01) (77, 3.62093544006347656250e+00) (78, 7.17543792724609375000e+00) (79, 2.15996012091636657715e-01) (80, 7.55516469478607177734e-01) (81, 2.20242547988891601562e+00) (82, 5.19767224788665771484e-01) (83, 7.33317852020263671875e-01) (84, -3.15361389160156250000e+02) (85, 4.67801541090011596680e-01) (86, 8.53107333183288574219e-01) (87, 4.82428342103958129883e-01) (88, 7.24562883377075195312e-01) (89, 7.75925695896148681641e-01) (90, 7.04595685005187988281e-01) (91, 6.36777400970458984375e-01) (92, -8.61368328332901000977e-02) (93, 2.64675289392471313477e-01) (94, 9.19951498508453369141e-01) (95, -6.09006423950195312500e+01) (96, 4.78678554296493530273e-01) (97, 6.09583206176757812500e+01) (98, 1.44589221477508544922e+00) (99, 1.34762620925903320312e+00) (100, 1.43243908882141113281e+00) (101, 1.33483454585075378418e-01) (102, 7.08271121978759765625e+00) (103, -3.43096017837524414062e+00) (104, 9.49064910411834716797e-01) (0, -3.92944679260253906250e+01) (1, -3.08732938766479492188e+00) (2, -1.73176455497741699219e+00) (3, 3.80513739585876464844e+00) (4, -4.72660112380981445312e+00) (5, 7.24616909027099609375e+00) (6, 1.52096676826477050781e+00) (7, 1.90724315643310546875e+01) (8, 1.73376381397247314453e+00) (9, -3.36382597684860229492e-01) (10, 1.78430104255676269531e+00) (11, 5.29648828506469726562e+00) (12, 1.05604924261569976807e-01) (13, 1.97650945186614990234e+00) (14, 6.66540741920471191406e-01) (15, -3.35414814949035644531e+00) (16, -3.34448289871215820312e+00) (17, -2.63852953910827636719e+00) (18, -1.22057235240936279297e+00) (19, -6.40931487083435058594e-01) (20, 8.55860900878906250000e+00) (21, 1.61261558532714843750e+00) (22, -1.77582108974456787109e+00) (23, 2.63015657663345336914e-01) (24, -5.46327531337738037109e-01) (25, -1.59067958593368530273e-01) (26, -7.11669147014617919922e-01) (27, -8.01773726940155029297e-01) (28, -6.15090906620025634766e-01) (29, 9.74883913993835449219e-01) (30, -5.19434452056884765625e-01) (31, 1.07758307456970214844e+00) (32, -1.61325529217720031738e-01) (33, 3.24583858251571655273e-01) (34, 1.46464014053344726562e+00) (35, 4.25977438688278198242e-01) (36, 5.79598359763622283936e-03) (37, 3.29643845558166503906e-01) (38, 5.01878023147583007812e-01) (39, 1.41709637641906738281e+00) (40, 9.34109985828399658203e-01) (41, 1.90605425834655761719e+00) (42, -4.60849970579147338867e-01) (43, -1.16346508264541625977e-01) (44, -4.85606014728546142578e-01) (45, -1.26368135213851928711e-01) (46, 2.26145815849304199219e+00) (47, -2.77285122871398925781e+00) (48, -2.72557258605957031250e-01) (49, 8.41577351093292236328e-01) (50, -4.25829142332077026367e-01) (51, 7.60723650455474853516e-01) (52, 9.46252644062042236328e-01) (53, -3.42483013868331909180e-01) (54, -3.82600545883178710938e+00) (55, 3.32974362373352050781e+00) (56, -3.54260832071304321289e-01) (57, -8.66358101367950439453e-01) (58, 7.91073417663574218750e+00) (59, -7.22894012928009033203e-01) (60, -5.20734190940856933594e-01) (61, -1.39801669120788574219e+00) (62, -5.68878710269927978516e-01) (63, -1.76609486341476440430e-01) (64, -3.84506851434707641602e-01) (65, -1.58803865313529968262e-01) (66, -2.73224544525146484375e+00) (67, 9.66278374195098876953e-01) (68, -2.90287137031555175781e+00) (69, 1.05863666534423828125e+00) (70, 2.52747654914855957031e-01) (71, 1.15193557739257812500e+00) (72, 5.47201919555664062500e+00) (73, -1.58598852157592773438e+00) (74, 1.75740206241607666016e+00) (75, -2.76858878135681152344e+00) (76, -3.93246263265609741211e-01) (77, 1.02489459514617919922e+00) (78, -5.89713096618652343750e-01) (79, -1.12311467528343200684e-01) (80, -8.09235215187072753906e-01) (81, -4.50307279825210571289e-01) (82, -1.20001375675201416016e-01) (83, -2.51155304908752441406e+00) (84, -9.23977375030517578125e-01) (85, -8.44631314277648925781e-01) (86, -2.24246338009834289551e-01) (87, -5.16738235950469970703e-01) (88, -7.97429084777832031250e-01) (89, 4.71956700086593627930e-01) (90, -1.28276348114013671875e-01) (91, -2.10935980081558227539e-01) (92, -3.06895762681961059570e-01) (93, 7.70512670278549194336e-02) (94, -2.14109018445014953613e-01) (95, 5.67623913288116455078e-01) (96, -6.58096134662628173828e-01) (97, 1.72532045841217041016e+00) (98, 4.70024883747100830078e-01) (99, 1.09027421474456787109e+00) (100, -1.29560783505439758301e-01) (101, -4.86335068941116333008e-01) (102, -3.38694691658020019531e-01) (103, 2.73267889022827148438e+00) (104, 2.04223942756652832031e+00) (0, 1.50000000000000000000e+03) (1, 1.50000000000000000000e+03) (2, 1.62069892883300781250e+00) (3, 1.50000000000000000000e+03) (4, 1.98839116096496582031e+00) (5, 1.50000000000000000000e+03) (6, 1.50000000000000000000e+03) (7, 1.49982312011718750000e+03) (8, 1.50000000000000000000e+03) (9, 1.54220175743103027344e+00) (10, 1.50000000000000000000e+03) (11, 1.50000000000000000000e+03) (12, 1.66902911663055419922e+00) (13, 1.50000000000000000000e+03) (14, 1.73903238773345947266e+00) (15, 1.45187830924987792969e+00) (16, 2.35200929641723632812e+00) (17, 9.81540560722351074219e-01) (18, 4.14595723152160644531e-01) (19, 1.55723893642425537109e+00) (20, 5.87798118591308593750e-01) (21, 2.37695183604955673218e-02) (22, 5.94190657138824462891e-01) (23, 8.47294449806213378906e-01) (24, 2.75451779365539550781e-01) (25, 1.44393116235733032227e-01) (26, 1.37615561485290527344e+00) (27, 1.15662515163421630859e+00) (28, 1.32847189903259277344e+00) (29, 1.33424627780914306641e+00) (30, 2.95790328979492187500e+01) (31, 8.65526139736175537109e-01) (32, 1.43424344062805175781e+00) (33, 1.06835532188415527344e+00) (34, 6.17692291736602783203e-01) (35, 6.57587647438049316406e-01) (36, 8.14323365688323974609e-01) (37, 7.91781544685363769531e-02) (38, 1.50000000000000000000e+03) (39, 1.50000000000000000000e+03) (40, 1.50000000000000000000e+03) (41, -9.39220397949218750000e+02) (42, 1.75054597854614257812e+00) (43, 1.26181852817535400391e+00) (44, 1.78784775733947753906e+00) (45, 1.38703393936157226562e+00) (46, 1.50000000000000000000e+03) (47, 7.99990892410278320312e-01) (48, 4.23255145549774169922e-01) (49, 9.73808050155639648438e-01) (50, 1.29728174209594726562e+00) (51, 1.19895446300506591797e+00) (52, 3.78177762031555175781e-01) (53, 1.53563940525054931641e+00) (54, -1.23931162059307098389e-01) (55, 9.05334830284118652344e-01) (56, 1.20720005035400390625e+00) (57, 9.99167799949645996094e-01) (58, 1.50000000000000000000e+03) (59, 1.49910864257812500000e+03) (60, 2.02206754684448242188e+00) (61, 1.50000000000000000000e+03) (62, 1.51807236671447753906e+00) (63, 1.62492311000823974609e+00) (64, 1.50000000000000000000e+03) (65, 2.34227514266967773438e+00) (66, 1.50000000000000000000e+03) (67, 1.50000000000000000000e+03) (68, 1.89311337471008300781e+00) (69, 1.50000000000000000000e+03) (70, 1.50000000000000000000e+03) (71, 1.50000000000000000000e+03) (72, 1.78634071350097656250e+00) (73, 2.06849122047424316406e+00) (74, 1.50000000000000000000e+03) (75, 1.50000000000000000000e+03) (76, 1.51605343818664550781e+00) (77, 1.50000000000000000000e+03) (78, 1.50000000000000000000e+03) (79, 1.50000000000000000000e+03) (80, 1.59394598007202148438e+00) (81, 1.50000000000000000000e+03) (82, 1.50000000000000000000e+03) (83, 1.50000000000000000000e+03) (84, 1.50000000000000000000e+03) (85, 1.50000000000000000000e+03) (86, 2.12725067138671875000e+00) (87, 1.50000000000000000000e+03) (88, 1.50000000000000000000e+03) (89, 1.50000000000000000000e+03) (90, 1.50000000000000000000e+03) (91, 1.50000000000000000000e+03) (92, 1.50000000000000000000e+03) (93, 1.50000000000000000000e+03) (94, 1.89005553722381591797e+00) (95, 1.50000000000000000000e+03) (96, 1.48684668540954589844e+00) (97, 1.50000000000000000000e+03) (98, 1.81813693046569824219e+00) (99, 1.50000000000000000000e+03) (100, 2.15629911422729492188e+00) (101, 1.50000000000000000000e+03) (102, -1.68951080322265625000e+02) (103, 2.96414215087890625000e+02) (104, 4.10762503743171691895e-02) (0, -5.58537054061889648438e+00) (1, -1.27688980102539062500e+01) (2, -8.14988994598388671875e+00) (3, 5.46682643890380859375e+00) (4, -5.67265078425407409668e-02) (5, -3.28892211914062500000e+01) (6, -6.26942634582519531250e+00) (7, 2.76560726165771484375e+01) (8, 2.70172858238220214844e+00) (9, -1.03094041347503662109e+00) (10, -4.65580654144287109375e+00) (11, -4.90572118759155273438e+00) (12, -1.00565135478973388672e+00) (13, 3.36522722244262695312e+00) (14, 1.88946318626403808594e+00) (15, -9.99757766723632812500e-01) (16, 7.50005185604095458984e-01) (17, 1.44407188892364501953e+00) (18, 2.51023507118225097656e+00) (19, 6.95962727069854736328e-01) (20, -1.26726019382476806641e+00) (21, -1.84371960163116455078e+00) (22, -7.14781045913696289062e-01) (23, 1.89992010593414306641e+00) (24, -2.71695166826248168945e-01) (25, 3.74935746192932128906e+00) (26, 9.21871662139892578125e-01) (27, -3.70581984519958496094e-01) (28, 2.10874938964843750000e+00) (29, -2.20843404531478881836e-01) (30, 3.50453913211822509766e-01) (31, -4.22905731201171875000e+00) (32, -1.01616889238357543945e-01) (33, 3.42382311820983886719e-01) (34, 6.10855817794799804688e-01) (35, 1.97011798620223999023e-01) (36, -2.11198896169662475586e-01) (37, -9.81796979904174804688e-01) (38, -4.23408836126327514648e-01) (39, -1.49997800588607788086e-01) (40, 1.56037688255310058594e+00) (41, 3.16125702857971191406e+00) (42, 1.80959939956665039062e+00) (43, 1.65524458885192871094e+00) (44, 1.69367575645446777344e+00) (45, 1.26437878608703613281e+00) (46, 1.14668715000152587891e+00) (47, -4.83745485544204711914e-01) (48, 1.10221815109252929688e+00) (49, -5.78663647174835205078e-01) (50, -6.60161316394805908203e-01) (51, -9.25222754478454589844e-01) (52, 1.46519994735717773438e+00) (53, -3.34483087062835693359e-01) (54, -8.48288595676422119141e-01) (55, -7.77045607566833496094e-01) (56, 2.46496748924255371094e+00) (57, -5.73682844638824462891e-01) (58, 2.09142518043518066406e+00) (59, 4.04054784774780273438e+00) (60, 1.29918980598449707031e+00) (61, -3.72954308986663818359e-01) (62, -1.42620533704757690430e-01) (63, 6.36351287364959716797e-01) (64, -1.74881994724273681641e-01) (65, -4.38557147979736328125e-01) (66, -3.72790479660034179688e+00) (67, -2.63506114482879638672e-01) (68, -1.04989886283874511719e+00) (69, 8.62959176301956176758e-02) (70, -7.38099217414855957031e-01) (71, -7.01567530632019042969e-01) (72, -6.39330863952636718750e-01) (73, -2.12641382217407226562e+00) (74, -4.45051223039627075195e-01) (75, -4.42847460508346557617e-01) (76, -6.84619426727294921875e-01) (77, 7.27893114089965820312e-01) (78, -6.88315272331237792969e-01) (79, 3.88635396957397460938e-02) (80, -7.22863733768463134766e-01) (81, 4.15133267641067504883e-01) (82, -1.53311803936958312988e-01) (83, 6.17221534252166748047e-01) (84, -7.17892050743103027344e-01) (85, -6.79472923278808593750e-01) (86, -4.50155287981033325195e-01) (87, -8.07521462440490722656e-01) (88, -7.43574142456054687500e-01) (89, -6.51013195514678955078e-01) (90, -6.87935769557952880859e-01) (91, -1.91306248307228088379e-02) (92, -5.15131726861000061035e-02) (93, -7.89711952209472656250e-01) (94, -3.79713714122772216797e-01) (95, 4.32647734880447387695e-01) (96, -6.67038321495056152344e-01) (97, 8.00820291042327880859e-01) (98, -3.00292670726776123047e-01) (99, -4.76622253656387329102e-01) (100, -3.45786482095718383789e-01) (101, -7.60598421096801757812e-01) (102, -1.44313354492187500000e+03) (103, 1.50000000000000000000e+03) (104, 2.38767242431640625000e+00) (0, -7.45946466922760009766e-01) (1, -2.77136254310607910156e+00) (2, -2.32499703764915466309e-01) (3, 2.02193832397460937500e+00) (4, -6.03616774082183837891e-01) (5, -7.92996823787689208984e-01) (6, 1.22985017299652099609e+00) (7, 8.82711768150329589844e-01) (8, -7.13050127029418945312e-01) (9, 1.58836114406585693359e+00) (10, -1.51481106877326965332e-01) (11, 2.39586289972066879272e-02) (12, 1.89833307266235351562e+00) (13, -1.77355890627950429916e-03) (14, 8.54575097560882568359e-01) (15, -4.66101229190826416016e-01) (16, -6.51749193668365478516e-01) (17, 1.69993352890014648438e+00) (18, 4.18406903743743896484e-01) (19, 1.33508157730102539062e+00) (20, 1.24019968509674072266e+00) (21, 8.20049822330474853516e-01) (22, -4.33863937854766845703e-01) (23, 1.17337763309478759766e+00) (24, 1.36959838867187500000e+00) (25, -4.02137011289596557617e-01) (26, -5.96258461475372314453e-01) (27, -6.99095726013183593750e-01) (28, 1.64843499660491943359e+00) (29, -7.00937330722808837891e-01) (30, -4.98395711183547973633e-02) (31, 2.02354073524475097656e+00) (32, -3.21997255086898803711e-02) (33, 1.11347448825836181641e+00) (34, -4.46264219284057617188e+00) (35, -4.78659003973007202148e-01) (36, -6.01193487644195556641e-01) (37, 1.04948294162750244141e+00) (38, -9.09637629985809326172e-01) (39, -6.26045167446136474609e-01) (40, -8.23167324066162109375e-01) (41, -2.03529739379882812500e+00) (42, -2.81656801700592041016e-01) (43, 1.62505197525024414062e+00) (44, 7.25723743438720703125e-01) (45, 1.33724737167358398438e+00) (46, -9.48964804410934448242e-02) (47, -9.41343069076538085938e-01) (48, -7.67880797386169433594e-01) (49, -5.88503360748291015625e-01) (50, 3.20755958557128906250e-01) (51, 1.99665284156799316406e+00) (52, 7.93143749237060546875e-01) (53, 7.70815238356590270996e-02) (54, 8.59050214290618896484e-01) (55, -4.07737195491790771484e-01) (56, 1.10488367080688476562e+00) (57, -2.47301831841468811035e-01) (58, 5.44196903705596923828e-01) (59, -4.76927399635314941406e-01) (60, -5.58115124702453613281e-01) (61, 2.45355987548828125000e+00) (62, 1.21591746807098388672e+00) (63, -6.09631061553955078125e-01) (64, -3.17036837339401245117e-01) (65, -2.38170772790908813477e-01) (66, -4.24030971527099609375e+00) (67, -4.17427062988281250000e-01) (68, -8.02710711956024169922e-01) (69, 1.67204588651657104492e-01) (70, 1.46434307098388671875e-01) (71, 1.65099704265594482422e+00) (72, -6.72930419445037841797e-01) (73, -2.86365509033203125000e+00) (74, 1.33705091476440429688e+00) (75, 1.51338434219360351562e+00) (76, 1.96141338348388671875e+00) (77, -6.00738704204559326172e-01) (78, -4.00770872831344604492e-01) (79, 7.08192050457000732422e-01) (80, 1.16537559032440185547e+00) (81, -3.40081095695495605469e-01) (82, -6.36699020862579345703e-01) (83, -7.64188289642333984375e-01) (84, 8.00729990005493164062e-02) (85, 8.38927567005157470703e-01) (86, -6.17105484008789062500e-01) (87, 1.08356916904449462891e+00) (88, 2.01224613189697265625e+00) (89, 1.71606206893920898438e+00) (90, 9.09823238849639892578e-01) (91, 5.52405953407287597656e-01) (92, 1.03957664966583251953e+00) (93, -1.31551511585712432861e-02) (94, -5.38635194301605224609e-01) (95, 2.35472869873046875000e+00) (96, -3.24971050024032592773e-01) (97, 7.38237142562866210938e-01) (98, 1.55295372009277343750e+00) (99, -3.15881967544555664062e-01) (100, -5.54229438304901123047e-01) (101, 1.39292168617248535156e+00) (102, -4.47282361984252929688e+00) (103, 9.23571681976318359375e+00) (104, 2.62053108215332031250e+00) (0, 4.06568720936775207520e-02) (1, -3.41130185127258300781e+00) (2, 4.68495264649391174316e-02) (3, -1.54840385913848876953e+00) (4, 4.23391193151473999023e-01) (5, 9.14829909801483154297e-01) (6, 7.14522972702980041504e-03) (7, -4.49161499738693237305e-01) (8, -5.06995391845703125000e+00) (9, -5.98632514476776123047e-01) (10, -4.32819426059722900391e-01) (11, 3.87325286865234375000e-01) (12, 4.26659375429153442383e-01) (13, 1.06225478649139404297e+00) (14, -3.96119803190231323242e-01) (15, -5.08265256881713867188e-01) (16, 3.65550190210342407227e-01) (17, 5.39716124534606933594e-01) (18, 2.15738102793693542480e-01) (19, -1.64861932396888732910e-01) (20, 1.67629525065422058105e-01) (21, 5.20617723464965820312e-01) (22, 3.85435163974761962891e-01) (23, 1.74833405017852783203e+00) (24, 1.72438764572143554688e+00) (25, 5.66313087940216064453e-01) (26, 3.84206354618072509766e-01) (27, 7.65696525573730468750e-01) (28, 3.39481055736541748047e-01) (29, 4.00652468204498291016e-01) (30, -7.52045202255249023438e+00) (31, 2.95071721076965332031e-01) (32, -1.27189517021179199219e+00) (33, 8.27386140823364257812e-01) (34, 1.39646053314208984375e+00) (35, 6.96994960308074951172e-01) (36, 2.30967903137207031250e+00) (37, 4.76929128170013427734e-01) (38, 5.20632803440093994141e-01) (39, -5.98669111728668212891e-01) (40, -1.85929358005523681641e-01) (41, 3.69280129671096801758e-01) (42, -1.14225164055824279785e-01) (43, 7.61518120765686035156e-01) (44, -1.31541478633880615234e+00) (45, -9.09348368644714355469e-01) (46, 3.47042798995971679688e-01) (47, -5.75481474399566650391e-01) (48, 4.32347089052200317383e-01) (49, 3.31138700246810913086e-01) (50, -3.20246458053588867188e-01) (51, 5.18310487270355224609e-01) (52, 1.61379790306091308594e+00) (53, 1.14883315563201904297e+00) (54, 1.68491446971893310547e+00) (55, 1.44421863555908203125e+00) (56, 9.90290224552154541016e-01) (57, 1.41756415367126464844e+00) (58, -3.41137790679931640625e+00) (59, -9.47589337825775146484e-01) (60, 1.96265876293182373047e+00) (61, -1.79326653480529785156e+00) (62, 5.98024487495422363281e-01) (63, 1.27004712820053100586e-01) (64, -3.46047997474670410156e+00) (65, 5.33960282802581787109e-01) (66, -3.23536992073059082031e+00) (67, -2.44763031601905822754e-01) (68, -1.05485928058624267578e+00) (69, 1.33602166175842285156e+00) (70, -5.10746955871582031250e-01) (71, 3.75390768051147460938e-01) (72, 5.68653643131256103516e-01) (73, 2.36240124702453613281e+00) (74, -3.12762856483459472656e+00) (75, -3.91240072250366210938e+00) (76, -6.40838563442230224609e-01) (77, -9.09887433052062988281e-01) (78, -3.20323395729064941406e+00) (79, 1.40878896713256835938e+01) (80, -4.98963689804077148438e+00) (81, -4.92428004741668701172e-01) (82, 5.17046928405761718750e+00) (83, 4.09713363647460937500e+00) (84, 2.28635454177856445312e+00) (85, -4.26834964752197265625e+00) (86, -1.04793357849121093750e+00) (87, -8.56912016868591308594e-01) (88, 2.91191458702087402344e+00) (89, 2.20438599586486816406e+00) (90, -8.23219835758209228516e-01) (91, 1.53978037834167480469e+00) (92, 8.95851135253906250000e-01) (93, 2.63294553756713867188e+00) (94, 4.80240374803543090820e-01) (95, -3.70597052574157714844e+00) (96, 8.28208827972412109375e+00) (97, 3.57502967119216918945e-01) (98, 2.19038987159729003906e+00) (99, 1.43253803253173828125e+00) (100, -4.03235286474227905273e-01) (101, -8.04273068904876708984e-01) (102, -9.71038818359375000000e-01) (103, 5.07375764846801757812e+00) (104, 1.97271037101745605469e+00) (0, -4.99811601638793945312e+00) (1, -2.44640636444091796875e+00) (2, 2.04453483223915100098e-01) (3, -5.46513080596923828125e-01) (4, 1.85100182890892028809e-01) (5, 1.42875134944915771484e+00) (6, 1.13431401550769805908e-01) (7, -9.42057132720947265625e-01) (8, -1.34582072496414184570e-01) (9, -1.99610576033592224121e-01) (10, -4.57761347293853759766e-01) (11, -1.32045841217041015625e+00) (12, 2.09163382649421691895e-01) (13, 1.52498054504394531250e+00) (14, 2.91664272546768188477e-01) (15, 1.58794581890106201172e-01) (16, 2.56490409374237060547e-01) (17, 2.42353036999702453613e-01) (18, 5.61934173107147216797e-01) (19, 4.73614543676376342773e-01) (20, -1.25272080302238464355e-01) (21, 1.17587792873382568359e+00) (22, 2.78818339109420776367e-01) (23, -4.16161537170410156250e-01) (24, 7.34892606735229492188e-01) (25, 2.30797842144966125488e-01) (26, 2.27975621819496154785e-02) (27, 2.26071253418922424316e-01) (28, -1.22760489583015441895e-01) (29, -1.60794138908386230469e-01) (30, -4.42668944597244262695e-01) (31, -3.42155486345291137695e-01) (32, 7.35023915767669677734e-01) (33, 7.33156442642211914062e-01) (34, 1.61388170719146728516e+00) (35, 1.18069171905517578125e-01) (36, 8.25605541467666625977e-02) (37, 1.31944322586059570312e+00) (38, 2.56627768278121948242e-01) (39, 4.80389773845672607422e-01) (40, -5.13221681118011474609e-01) (41, -4.91460275650024414062e+00) (42, 3.49557071924209594727e-01) (43, -4.29660737514495849609e-01) (44, -3.19507390260696411133e-01) (45, -4.03044223785400390625e+00) (46, 1.71750700473785400391e+00) (47, 2.18271449208259582520e-01) (48, 2.61047315597534179688e+00) (49, 6.89658761024475097656e-01) (50, 7.62797415256500244141e-01) (51, 8.20556581020355224609e-01) (52, 1.70946562290191650391e+00) (53, -2.02788874506950378418e-01) (54, 5.24004340171813964844e-01) (55, 8.64246368408203125000e+00) (56, 1.60861745476722717285e-01) (57, -1.74573862552642822266e+00) (58, -5.70655822753906250000e+00) (59, -3.84419536590576171875e+00) (60, 1.47357249259948730469e+00) (61, 9.23914313316345214844e-01) (62, 4.26875740289688110352e-01) (63, 4.85323637723922729492e-01) (64, 4.28228639066219329834e-02) (65, 2.55320608615875244141e-01) (66, -5.03603839874267578125e+00) (67, 5.88297224044799804688e+00) (68, 2.43819355964660644531e+00) (69, 5.99437877535820007324e-02) (70, 9.44210737943649291992e-02) (71, -1.64932429790496826172e-01) (72, -4.91760224103927612305e-01) (73, 1.03434956073760986328e+00) (74, -5.20175039768218994141e-01) (75, 1.66119980812072753906e+00) (76, 3.30163764953613281250e+00) (77, -6.42725229263305664062e-01) (78, -2.95274066925048828125e+00) (79, 3.41210389137268066406e+00) (80, 1.76021432876586914062e+00) (81, 2.65408658981323242188e+00) (82, -5.62989187240600585938e+00) (83, -2.82697939872741699219e+00) (84, -3.37292718887329101562e+00) (85, 8.77625226974487304688e-01) (86, -1.07251870632171630859e+00) (87, 7.84734368324279785156e-01) (88, -1.03299832344055175781e+00) (89, 4.68905639648437500000e+00) (90, 3.15601319074630737305e-01) (91, -4.45798456668853759766e-01) (92, -4.00364160537719726562e+00) (93, -3.48434895277023315430e-01) (94, 7.50515386462211608887e-02) (95, 2.08695292472839355469e-01) (96, 3.76113235950469970703e-01) (97, 5.03028535842895507812e+00) (98, 3.94055867195129394531e+00) (99, 4.06251716613769531250e+00) (100, 1.23360383510589599609e+00) (101, -1.03550732135772705078e-01) (102, 1.33599564433097839355e-02) (103, 4.15678691864013671875e+00) (104, 2.07604146003723144531e+00) (0, -4.46223402023315429688e+00) (1, 2.41907238960266113281e+00) (2, -7.55613446235656738281e-02) (3, -3.18931841850280761719e+00) (4, -2.01534342765808105469e+00) (5, -1.11469335556030273438e+01) (6, 2.57721495628356933594e+00) (7, 8.56223201751708984375e+00) (8, -6.76789045333862304688e+00) (9, -6.06937742233276367188e+00) (10, 1.81010513305664062500e+01) (11, -1.86227008700370788574e-01) (12, -1.09606111049652099609e+00) (13, 4.75463718175888061523e-01) (14, 4.72054094076156616211e-01) (15, -1.70192494988441467285e-02) (16, 1.95134961605072021484e+00) (17, 3.94741678237915039062e+00) (18, 4.44018030166625976562e+00) (19, 2.22092062234878540039e-01) (20, -3.14325243234634399414e-01) (21, -1.48289430141448974609e+00) (22, -8.36858808994293212891e-01) (23, -6.10775589942932128906e-01) (24, 3.26748561859130859375e+00) (25, -4.37314122915267944336e-01) (26, 7.83411800861358642578e-01) (27, -9.81006264686584472656e-01) (28, -3.98894119262695312500e+00) (29, 1.23518776893615722656e+00) (30, -1.76142179965972900391e+00) (31, 2.36634612083435058594e+00) (32, 2.67874300479888916016e-01) (33, 8.16483378410339355469e-01) (34, 3.22188138961791992188e-01) (35, -4.32454884052276611328e-01) (36, 8.83002430200576782227e-02) (37, -5.38113236427307128906e-01) (38, -9.25128161907196044922e-02) (39, 2.99398493766784667969e+00) (40, -1.14752277731895446777e-01) (41, -1.41275763511657714844e-01) (42, -6.70538067817687988281e-01) (43, -4.36327099800109863281e-01) (44, -3.10134458541870117188e+00) (45, -2.31968498229980468750e+00) (46, -8.59049022197723388672e-01) (47, -9.65351760387420654297e-02) (48, -8.55043888092041015625e-01) (49, -3.50025862455368041992e-01) (50, -6.86863541603088378906e-01) (51, -8.36419593542814254761e-03) (52, 1.19489204883575439453e+00) (53, 1.75575196743011474609e+00) (54, -4.29698991775512695312e+00) (55, 9.19991016387939453125e-01) (56, -1.80422866344451904297e+00) (57, -8.62085938453674316406e-01) (58, 1.40689265727996826172e+00) (59, -5.83263695240020751953e-01) (60, -6.57235860824584960938e-01) (61, -5.57429432868957519531e-01) (62, -3.58419036865234375000e+00) (63, -7.01177477836608886719e-01) (64, -4.46777403354644775391e-01) (65, -1.41699597239494323730e-01) (66, -2.86790370941162109375e+00) (67, -9.24701809883117675781e-01) (68, -1.70121645927429199219e+00) (69, 9.44718182086944580078e-01) (70, -1.77426731586456298828e+00) (71, 3.96134114265441894531e+00) (72, -2.41604471206665039062e+00) (73, 1.23710823059082031250e+00) (74, 1.31466341018676757812e+00) (75, 1.10759413242340087891e+00) (76, 9.46644425392150878906e-01) (77, 1.49358904361724853516e+00) (78, 4.69888448715209960938e-01) (79, 7.48796701431274414062e-01) (80, 4.01738792657852172852e-01) (81, 5.80833375453948974609e-01) (82, 5.45285403728485107422e-01) (83, 1.12465918064117431641e+00) (84, -2.06587910652160644531e-01) (85, -5.62291502952575683594e-01) (86, 5.76245605945587158203e-01) (87, 6.64839208126068115234e-01) (88, -5.10664880275726318359e-01) (89, 6.16760730743408203125e-01) (90, -1.25724807381629943848e-01) (91, 6.26828312873840332031e-01) (92, -2.29911878705024719238e-01) (93, -4.86355662345886230469e-01) (94, 4.69557523727416992188e-01) (95, -1.06072299182415008545e-01) (96, 5.28433740139007568359e-01) (97, 1.04245316982269287109e+00) (98, 7.20372617244720458984e-01) (99, 7.05316603183746337891e-01) (100, -3.42479318380355834961e-01) (101, -4.75284069776535034180e-01) (102, -5.59860351562500000000e+02) (103, 8.42517822265625000000e+02) (104, 2.38910174369812011719e+00) (0, 4.54815002441406250000e+02) (1, 1.62777481079101562500e+01) (2, 9.75893139839172363281e-01) (3, 1.03513264656066894531e+00) (4, 9.42484140396118164062e-01) (5, 1.25195908546447753906e+00) (6, 8.63276362419128417969e-01) (7, 1.15781438350677490234e+00) (8, -2.10075902938842773438e+00) (9, 8.87193083763122558594e-01) (10, 1.26484954357147216797e+00) (11, 9.64724898338317871094e-01) (12, 6.03109061717987060547e-01) (13, 4.35478985309600830078e-01) (14, 8.59997570514678955078e-01) (15, 5.49513578414916992188e-01) (16, 1.58275917172431945801e-01) (17, -1.44375905394554138184e-01) (18, 1.02620840072631835938e+00) (19, -7.55309462547302246094e-02) (20, -2.47673705220222473145e-01) (21, -3.20669502019882202148e-01) (22, -1.29151761531829833984e-01) (23, -2.04697042703628540039e-01) (24, -1.98141053318977355957e-01) (25, -1.28406971693038940430e-01) (26, 1.11044347286224365234e+00) (27, -2.05367922782897949219e-01) (28, 7.75046944618225097656e-01) (29, 6.88436079025268554688e+00) (30, 6.22148017883300781250e+01) (31, 1.23466529846191406250e+02) (32, 1.88705384731292724609e+00) (33, 1.74424088001251220703e+00) (34, 1.80703914165496826172e+00) (35, 7.34704971313476562500e-01) (36, 1.63324940204620361328e+00) (37, 1.10545217990875244141e+00) (38, 1.10929441452026367188e+00) (39, 3.41675048828125000000e+02) (40, 8.54772758483886718750e+00) (41, -2.12205123901367187500e+01) (42, 1.24509406089782714844e+00) (43, 7.83097445964813232422e-01) (44, 1.92215037345886230469e+00) (45, 1.45982712507247924805e-01) (46, 1.03384231567382812500e+02) (47, 8.05688095092773437500e+00) (48, 3.10609173774719238281e+00) (49, 1.60250201821327209473e-01) (50, 6.60202562808990478516e-01) (51, 6.20744228363037109375e-01) (52, 4.62440848350524902344e-01) (53, 6.05210959911346435547e-01) (54, -3.54449450969696044922e-01) (55, 5.69870099425315856934e-02) (56, 5.98788917064666748047e-01) (57, -4.95186485350131988525e-02) (58, 2.27175354957580566406e+00) (59, 1.50000000000000000000e+03) (60, 9.49731945991516113281e-01) (61, 7.80056774616241455078e-01) (62, 6.13174140453338623047e-01) (63, 8.44966590404510498047e-01) (64, 1.31098604202270507812e+00) (65, 9.04040217399597167969e-01) (66, 3.47585463523864746094e+00) (67, 1.28667855262756347656e+00) (68, -2.99877762794494628906e+00) (69, 1.86492335796356201172e+00) (70, 8.39373111724853515625e-01) (71, 9.47167992591857910156e-01) (72, 9.58147644996643066406e-01) (73, -5.48851633071899414062e+00) (74, 1.52242255210876464844e+00) (75, 1.25425648689270019531e+00) (76, 7.88929045200347900391e-01) (77, 1.95814156532287597656e+00) (78, 1.04806590080261230469e+00) (79, 1.40479207038879394531e+00) (80, 8.23485016822814941406e-01) (81, 1.34668600559234619141e+00) (82, 8.87073695659637451172e-01) (83, 1.91181218624114990234e+00) (84, 1.96162629127502441406e+00) (85, 1.40299558639526367188e+00) (86, 9.41529631614685058594e-01) (87, 7.42876052856445312500e-01) (88, 9.05620157718658447266e-01) (89, 8.73584568500518798828e-01) (90, 1.31740045547485351562e+00) (91, 1.05369544029235839844e+00) (92, 2.77257013320922851562e+00) (93, 9.87725794315338134766e-01) (94, 9.88988399505615234375e-01) (95, 1.71506996154785156250e+01) (96, 7.93864667415618896484e-01) (97, 1.41063988208770751953e+00) (98, 1.06319689750671386719e+00) (99, 1.24026453495025634766e+00) (100, 1.13700401782989501953e+00) (101, 1.20205676555633544922e+00) (102, -1.36320762634277343750e+01) (103, 2.77871284484863281250e+01) (104, 9.36826050281524658203e-01) (0, -6.01809787750244140625e+00) (1, 1.58935251235961914062e+01) (2, 1.64912700653076171875e+00) (3, 1.07175862789154052734e+00) (4, -6.85719847679138183594e-01) (5, -1.88350882381200790405e-02) (6, -2.02317237854003906250e+00) (7, 1.37390410900115966797e+00) (8, 1.90818655490875244141e+00) (9, -5.61178565025329589844e-01) (10, -7.53134298324584960938e+00) (11, 7.57759451866149902344e-01) (12, 9.85745489597320556641e-01) (13, -2.87061643600463867188e+00) (14, -7.67733633518218994141e-01) (15, 1.07704257965087890625e+00) (16, 3.97291517257690429688e+00) (17, -5.99078893661499023438e-01) (18, -1.03275597095489501953e+00) (19, -1.34375602006912231445e-01) (20, 1.78047084808349609375e+00) (21, -1.80357694625854492188e+00) (22, -1.06669301986694335938e+01) (23, -4.37686353921890258789e-01) (24, -5.61367750167846679688e-01) (25, 9.57246971130371093750e+00) (26, -1.34719669818878173828e+00) (27, -3.81911897659301757812e+00) (28, 1.42595267295837402344e+00) (29, 1.56955420970916748047e+00) (30, 4.70570504665374755859e-01) (31, -2.32165145874023437500e+00) (32, 1.48829138278961181641e+00) (33, -1.56273639202117919922e+00) (34, 7.47754037380218505859e-01) (35, 3.19344592094421386719e+00) (36, -5.39992630481719970703e-01) (37, -1.06029093265533447266e+00) (38, 5.00283718109130859375e-01) (39, 3.65964859724044799805e-01) (40, 1.02089190483093261719e+00) (41, -5.45065581798553466797e-01) (42, -1.23208367824554443359e+00) (43, -2.28165245056152343750e+00) (44, -4.49207305908203125000e-01) (45, 6.98176324367523193359e-01) (46, -4.41347137093544006348e-02) (47, -8.38598346710205078125e+00) (48, -8.40414583683013916016e-01) (49, -1.94181346893310546875e+00) (50, -1.81515920162200927734e+00) (51, 3.05362075567245483398e-01) (52, -1.45760154724121093750e+00) (53, 2.71544218063354492188e+00) (54, 8.82646620273590087891e-01) (55, -2.01306486129760742188e+00) (56, -3.52422952651977539062e-01) (57, -3.50349843502044677734e-01) (58, 2.46035647392272949219e+00) (59, 2.12400913238525390625e+00) (60, -2.60948151350021362305e-01) (61, 4.94273185729980468750e-01) (62, 5.22620797157287597656e-01) (63, 3.44910860061645507812e-01) (64, -6.00119829177856445312e-01) (65, -5.75104594230651855469e-01) (66, 8.96117150783538818359e-01) (67, 1.69010233879089355469e+00) (68, -2.31724047660827636719e+00) (69, 1.29608452320098876953e+00) (70, 1.76460325717926025391e+00) (71, 2.99036324024200439453e-01) (72, 2.06727433204650878906e+00) (73, -6.67389631271362304688e-01) (74, -5.58448255062103271484e-01) (75, -7.67738163471221923828e-01) (76, -8.71404528617858886719e-01) (77, 2.21860975027084350586e-01) (78, 5.78437089920043945312e-01) (79, -1.84808158874511718750e+00) (80, -2.54359751939773559570e-01) (81, -3.20800811052322387695e-01) (82, 4.61072564125061035156e-01) (83, -1.94034397602081298828e-01) (84, 8.92175808548927307129e-02) (85, -7.37923502922058105469e-01) (86, 1.38616412878036499023e-01) (87, -7.28436470031738281250e-01) (88, -7.54792213439941406250e-01) (89, -2.98612803220748901367e-01) (90, 2.48568370938301086426e-01) (91, 2.31571346521377563477e-01) (92, -5.32376840710639953613e-02) (93, -4.28921401500701904297e-01) (94, -2.97672990709543228149e-02) (95, 1.79535734653472900391e+00) (96, -5.04487872123718261719e-01) (97, 3.60731452703475952148e-01) (98, -5.07374882698059082031e-01) (99, 4.84265923500061035156e-01) (100, -7.24718451499938964844e-01) (101, -8.36046874523162841797e-01) (102, -8.27168524265289306641e-01) (103, 8.05585670471191406250e+00) (104, 2.64907288551330566406e+00) (0, 3.10217928886413574219e+00) (1, 2.29398965835571289062e+00) (2, -6.37960731983184814453e-01) (3, -3.07852905243635177612e-02) (4, -7.85995066165924072266e-01) (5, -4.89851713180541992188e+00) (6, 8.77385795116424560547e-01) (7, 3.21612024307250976562e+00) (8, -1.87832638621330261230e-01) (9, -7.17971086502075195312e-01) (10, 1.69913005828857421875e+00) (11, 4.82542783021926879883e-01) (12, -5.57138204574584960938e-01) (13, 1.61186307668685913086e-01) (14, -1.52018105983734130859e+00) (15, 1.55097949504852294922e+00) (16, 6.22192561626434326172e-01) (17, 1.29663205146789550781e+00) (18, -5.06807982921600341797e-01) (19, 2.12797001004219055176e-01) (20, -1.30943226814270019531e+00) (21, 3.30567449331283569336e-01) (22, -3.24099040031433105469e+00) (23, 2.55800366401672363281e+00) (24, 3.54995369911193847656e+00) (25, 9.36924040317535400391e-01) (26, 1.17803514003753662109e+00) (27, -1.90913665574043989182e-03) (28, -2.77350616455078125000e+00) (29, 2.44463801383972167969e+00) (30, 8.53509232401847839355e-02) (31, 1.77184700965881347656e+00) (32, 6.18880748748779296875e-01) (33, 8.36894929409027099609e-01) (34, 7.52084136009216308594e-01) (35, -1.17656007409095764160e-01) (36, -5.95337152481079101562e-01) (37, -3.01839160919189453125e+00) (38, -4.85100775957107543945e-01) (39, -7.28902101516723632812e-01) (40, 1.23147189617156982422e+00) (41, -1.57236659526824951172e+00) (42, 6.35803341865539550781e-01) (43, 1.90886124968528747559e-01) (44, 1.74756324291229248047e+00) (45, -1.07370173931121826172e+00) (46, -2.91803330183029174805e-02) (47, 1.45202863216400146484e+00) (48, 9.51031506061553955078e-01) (49, 2.54674434661865234375e-01) (50, -1.67020416259765625000e+00) (51, -4.58179920911788940430e-01) (52, -5.82818984985351562500e-01) (53, -5.41037023067474365234e-01) (54, 1.13553559780120849609e+00) (55, 2.40324571728706359863e-01) (56, -3.22361528873443603516e-01) (57, -6.18215322494506835938e-01) (58, -7.16904699802398681641e-01) (59, -7.91211962699890136719e-01) (60, -7.84130752086639404297e-01) (61, -3.46956878900527954102e-01) (62, 3.36988508701324462891e-01) (63, 3.94602298736572265625e-01) (64, 1.59028697013854980469e+00) (65, 1.42493978142738342285e-01) (66, 2.44328781962394714355e-01) (67, 1.72613346576690673828e+00) (68, -1.52533315122127532959e-02) (69, -6.68535530567169189453e-01) (70, 5.50211966037750244141e-01) (71, -4.73028346896171569824e-02) (72, -5.90617597103118896484e-01) (73, -2.74675965309143066406e-01) (74, -2.80726462602615356445e-01) (75, -6.31169199943542480469e-01) (76, 8.73100399971008300781e-01) (77, -2.00782954692840576172e-01) (78, -4.43417429924011230469e-01) (79, 1.07207083702087402344e+00) (80, -6.78763568401336669922e-01) (81, -2.47695386409759521484e-01) (82, 1.44111621379852294922e+00) (83, -5.68823099136352539062e-01) (84, -6.60771846771240234375e-01) (85, 7.36063659191131591797e-01) (86, -3.10662180185317993164e-01) (87, 1.37376546859741210938e+00) (88, -2.61305600404739379883e-01) (89, -5.05358695983886718750e-01) (90, -4.95032429695129394531e-01) (91, 2.28005364537239074707e-01) (92, -6.43815934658050537109e-01) (93, 1.82267951965332031250e+00) (94, -4.65070635080337524414e-01) (95, -7.63432264328002929688e-01) (96, 2.79961645603179931641e-01) (97, -6.59162223339080810547e-01) (98, -4.73446428775787353516e-01) (99, -8.10298562049865722656e-01) (100, -3.25191706418991088867e-01) (101, -6.59903228282928466797e-01) (102, -4.73266506195068359375e+00) (103, 8.44939231872558593750e+00) (104, 2.78513813018798828125e+00) (0, -1.26125705242156982422e+00) (1, -1.11322963237762451172e+00) (2, -1.60090935230255126953e+00) (3, 7.77513861656188964844e-01) (4, 3.51705938577651977539e-01) (5, -1.59574165940284729004e-01) (6, 8.96648406982421875000e-01) (7, -8.07759225368499755859e-01) (8, 1.50846803188323974609e+00) (9, -1.02863109111785888672e+00) (10, -6.03583276271820068359e-01) (11, 1.49885606765747070312e+00) (12, 4.07755374908447265625e-01) (13, -7.74584650993347167969e-01) (14, 1.09214901924133300781e+00) (15, -3.21022629737854003906e-01) (16, 1.02996194362640380859e+00) (17, -2.02553737908601760864e-02) (18, 1.33052718639373779297e+00) (19, -5.65462410449981689453e-01) (20, -2.98966741561889648438e+00) (21, 1.04694545269012451172e+00) (22, 3.42304259538650512695e-01) (23, -7.61467695236206054688e-01) (24, 3.04580020904541015625e+00) (25, 6.69613659381866455078e-01) (26, 7.98671424388885498047e-01) (27, 1.66034591197967529297e+00) (28, -2.58390212059020996094e+00) (29, 6.51165127754211425781e-01) (30, 1.34428203105926513672e+00) (31, -1.38968396186828613281e+00) (32, 8.25905442237854003906e-01) (33, -4.30001139640808105469e-01) (34, 4.03508186340332031250e+00) (35, -3.24259495735168457031e+00) (36, 1.17967128753662109375e+00) (37, -5.19344449043273925781e-01) (38, 1.00945389270782470703e+00) (39, 1.26504135131835937500e+00) (40, 1.24325561523437500000e+00) (41, -4.22897249460220336914e-01) (42, 1.77025198936462402344e+00) (43, 1.40855157375335693359e+00) (44, -1.30043423175811767578e+00) (45, 5.56666731834411621094e-01) (46, -5.67067563533782958984e-01) (47, -1.87506783008575439453e+00) (48, -1.10835909843444824219e+00) (49, -4.31556177139282226562e+00) (50, -3.54897904396057128906e+00) (51, -6.03841356933116912842e-02) (52, -6.89570307731628417969e-01) (53, -1.10027633607387542725e-01) (54, -2.56022632122039794922e-01) (55, -2.93120503425598144531e+00) (56, 2.11796951293945312500e+00) (57, -4.16148245334625244141e-01) (58, -9.02184128761291503906e-01) (59, 2.49786663055419921875e+00) (60, 2.42506161332130432129e-01) (61, -1.55863988399505615234e+00) (62, 6.15564107894897460938e-01) (63, 4.72526401281356811523e-01) (64, -9.18324589729309082031e-01) (65, -2.98186063766479492188e-01) (66, -6.36186599731445312500e-01) (67, 4.04295444488525390625e-01) (68, -1.67915380001068115234e+00) (69, 3.34224283695220947266e-01) (70, 1.99016153812408447266e+00) (71, 5.43740391731262207031e-01) (72, -2.63644397258758544922e-01) (73, -2.67691940069198608398e-01) (74, 9.49522912502288818359e-01) (75, 4.69334030151367187500e+00) (76, -5.87863445281982421875e-01) (77, 1.99305343627929687500e+00) (78, 1.12738668918609619141e+00) (79, -2.07093983888626098633e-01) (80, 2.81362390518188476562e+00) (81, -2.61534303426742553711e-02) (82, 9.34320151805877685547e-01) (83, 2.43806719779968261719e+00) (84, 1.42028093338012695312e+00) (85, -9.93988215923309326172e-01) (86, -4.91393417119979858398e-01) (87, -2.34425902366638183594e-01) (88, -4.53387089073657989502e-02) (89, -1.09368853271007537842e-01) (90, 1.65021908283233642578e+00) (91, 2.19375371932983398438e+00) (92, -4.48715746402740478516e-01) (93, 7.01663643121719360352e-02) (94, -4.02292132377624511719e-01) (95, -1.81096839904785156250e+00) (96, 4.24563795328140258789e-01) (97, -1.27256202697753906250e+00) (98, -4.46491688489913940430e-02) (99, -1.14552998542785644531e+00) (100, -1.41904389858245849609e+00) (101, -1.80024623870849609375e-01) (102, 1.88205313682556152344e+00) (103, 4.40925985574722290039e-01) (104, 2.83038544654846191406e+00) (0, 1.50000000000000000000e+03) (1, 5.14289512634277343750e+01) (2, 9.84071493148803710938e-01) (3, 2.33289077758789062500e+02) (4, 1.16612923145294189453e+00) (5, 7.81962728500366210938e+00) (6, 1.12857723236083984375e+00) (7, -4.06156969070434570312e+00) (8, 7.83095016479492187500e+01) (9, 9.91105318069458007812e-01) (10, 1.21817493438720703125e+00) (11, 7.14186251163482666016e-01) (12, 1.04340672492980957031e+00) (13, 2.17955207824707031250e+00) (14, 8.16376745700836181641e-01) (15, 1.16849410533905029297e+00) (16, 1.41153323650360107422e+00) (17, 2.59528577327728271484e-01) (18, 3.48459839820861816406e-01) (19, 8.59182655811309814453e-01) (20, -5.83002507686614990234e-01) (21, -1.10151743888854980469e+00) (22, 8.64233493804931640625e-01) (23, 2.85319805145263671875e-01) (24, 4.84917640686035156250e-01) (25, -2.51334977149963378906e+00) (26, 3.37209939956665039062e-01) (27, 2.01600492000579833984e-01) (28, -4.01386082172393798828e-01) (29, -6.82233452796936035156e-01) (30, 6.09360656738281250000e+01) (31, -4.14473682641983032227e-01) (32, 6.64984047412872314453e-01) (33, 6.57858312129974365234e-01) (34, -2.86538934707641601562e+00) (35, 6.35746538639068603516e-01) (36, 1.14949536323547363281e+00) (37, 1.04208195209503173828e+00) (38, 1.66049802303314208984e+00) (39, 1.86714041233062744141e+00) (40, 2.43793988227844238281e+00) (41, -1.38822784423828125000e+02) (42, 1.26779532432556152344e+00) (43, 1.09294426441192626953e+00) (44, 6.79416716098785400391e-01) (45, 7.70842552185058593750e-01) (46, 4.18941116333007812500e+00) (47, 6.63440179824829101562e+00) (48, 3.54754805564880371094e-01) (49, 8.58474731445312500000e-01) (50, 4.60129678249359130859e-01) (51, 5.31505763530731201172e-01) (52, 3.98018956184387207031e-01) (53, 4.46498274803161621094e-01) (54, -1.36640369892120361328e-01) (55, 1.21032342910766601562e+01) (56, 4.23752009868621826172e-01) (57, 8.12500298023223876953e-01) (58, 6.71811218261718750000e+02) (59, 3.07399153709411621094e+00) (60, 1.12743341922760009766e+00) (61, 1.57554650306701660156e+00) (62, 6.90336167812347412109e-01) (63, 1.11608064174652099609e+00) (64, 1.27129673957824707031e+00) (65, 1.39675819873809814453e+00) (66, 3.86318702697753906250e+01) (67, 2.17917561531066894531e+00) (68, -1.26364022493362426758e-01) (69, 2.10469889640808105469e+00) (70, 1.23264265060424804688e+00) (71, 1.67807257175445556641e+00) (72, 1.47558367252349853516e+00) (73, 7.71416234970092773438e+00) (74, 1.80219173431396484375e+00) (75, 1.33911585807800292969e+00) (76, 1.04868578910827636719e+00) (77, 7.30342197418212890625e+00) (78, 2.20005035400390625000e+01) (79, 1.11409485340118408203e+00) (80, 4.08758878707885742188e-01) (81, 2.38421368598937988281e+00) (82, 1.05581235885620117188e+00) (83, 9.49870014190673828125e+00) (84, 1.64138622283935546875e+01) (85, 1.18525516986846923828e+00) (86, 1.18254256248474121094e+00) (87, 1.15992057323455810547e+00) (88, 1.30797719955444335938e+00) (89, 1.20820772647857666016e+00) (90, 1.82142710685729980469e+00) (91, 1.14924883842468261719e+00) (92, 2.30040860176086425781e+00) (93, 1.45122718811035156250e+00) (94, 1.25371575355529785156e+00) (95, 1.09757339477539062500e+02) (96, 9.78379368782043457031e-01) (97, 1.42594146728515625000e+02) (98, 1.57241368293762207031e+00) (99, 1.92445170879364013672e+00) (100, 1.58090484142303466797e+00) (101, 1.21585583686828613281e+00) (102, 5.42190361022949218750e+01) (103, -3.32854309082031250000e+01) (104, 8.87460052967071533203e-01) (0, 9.23891663551330566406e-01) (1, -1.56627702713012695312e+00) (2, -1.27018131315708160400e-02) (3, 2.19118452072143554688e+00) (4, -3.73182743787765502930e-02) (5, 2.03914093971252441406e+00) (6, -3.37664365768432617188e+00) (7, -1.55719721317291259766e+00) (8, 7.56564188003540039062e+00) (9, 5.70377111434936523438e-01) (10, 3.25938433408737182617e-01) (11, 9.14133429527282714844e-01) (12, 1.46499291062355041504e-01) (13, -4.49022591114044189453e-01) (14, 2.90637207031250000000e+00) (15, -7.79070794582366943359e-01) (16, -1.73023068904876708984e+00) (17, -7.02222228050231933594e-01) (18, 1.76754057407379150391e+00) (19, -8.17802727222442626953e-01) (20, 1.17974066734313964844e+00) (21, 8.80118608474731445312e-01) (22, -9.00018095970153808594e-01) (23, -4.19631862640380859375e+00) (24, -4.46964055299758911133e-02) (25, 2.93533539772033691406e+00) (26, 1.29791605472564697266e+00) (27, 1.49657106399536132812e+00) (28, -7.72511303424835205078e-01) (29, -2.19736322760581970215e-01) (30, -2.15023231506347656250e+00) (31, 3.15545231103897094727e-01) (32, -5.04176914691925048828e-01) (33, -8.60864877700805664062e-01) (34, -1.71404826641082763672e+00) (35, -9.22582000494003295898e-02) (36, 1.71214497089385986328e+00) (37, 6.06171905994415283203e-01) (38, 2.71453070640563964844e+00) (39, -3.55422645807266235352e-01) (40, 1.98072052001953125000e+00) (41, -5.32490789890289306641e-01) (42, -6.24518513679504394531e-01) (43, -4.65222835540771484375e+00) (44, 6.12713813781738281250e-01) (45, -3.03103446960449218750e-01) (46, -2.09589052200317382812e+00) (47, -9.44211483001708984375e-01) (48, 1.98156106472015380859e+00) (49, -4.85615655779838562012e-02) (50, -2.01077365875244140625e+00) (51, -9.97270345687866210938e-01) (52, -3.77064526081085205078e-01) (53, 2.81426596641540527344e+00) (54, 5.54366230964660644531e-01) (55, 3.99413752555847167969e+00) (56, -4.17584598064422607422e-01) (57, -4.78053808212280273438e-01) (58, 2.62377929687500000000e+00) (59, -2.90619194507598876953e-01) (60, -6.20215773582458496094e-01) (61, 1.22875511646270751953e+00) (62, 5.38685498759150505066e-03) (63, -7.32460498809814453125e-01) (64, 3.19930791854858398438e-01) (65, -5.47555387020111083984e-01) (66, -8.00673007965087890625e-01) (67, 1.37084949016571044922e+00) (68, -1.47199952602386474609e+00) (69, -4.28599715232849121094e-01) (70, 1.53806400299072265625e+00) (71, 2.01343759894371032715e-01) (72, -1.30407595634460449219e+00) (73, 6.92126810550689697266e-01) (74, -3.55848938226699829102e-01) (75, 6.74092352390289306641e-01) (76, -3.85180622339248657227e-01) (77, -4.88296747207641601562e-01) (78, -2.44923397898674011230e-01) (79, -9.93820965290069580078e-01) (80, 2.18272137641906738281e+00) (81, 7.21301555633544921875e-01) (82, -3.08113485574722290039e-01) (83, -2.91054487228393554688e-01) (84, -1.44478213787078857422e+00) (85, 7.06263899803161621094e-01) (86, -7.52583622932434082031e-01) (87, -5.03358185291290283203e-01) (88, 1.61923736333847045898e-01) (89, 1.18755662441253662109e+00) (90, 4.90849226713180541992e-01) (91, -7.09509968757629394531e-01) (92, 7.60263025760650634766e-01) (93, 5.51250994205474853516e-01) (94, -7.65994608402252197266e-01) (95, -8.72005283832550048828e-01) (96, 1.17295110225677490234e+00) (97, -2.19119966030120849609e-01) (98, 1.13679766654968261719e+00) (99, -7.07428097724914550781e-01) (100, -7.91899502277374267578e-01) (101, 1.41035830974578857422e+00) (102, 8.72396945953369140625e-01) (103, 2.11210131645202636719e+00) (104, 2.83580780029296875000e+00) (0, 1.05001660156250000000e+03) (1, 4.52251968383789062500e+01) (2, 2.48648214340209960938e+00) (3, 2.06848168373107910156e+00) (4, 1.92021131515502929688e+00) (5, 2.25452613830566406250e+00) (6, 1.81172513961791992188e+00) (7, 2.01507735252380371094e+00) (8, 2.80524301528930664062e+00) (9, 1.84563922882080078125e+00) (10, 1.93345546722412109375e+00) (11, 2.15470576286315917969e+00) (12, 1.35291409492492675781e+00) (13, 2.05579757690429687500e+00) (14, 1.39466714859008789062e+00) (15, 1.41673302650451660156e+00) (16, 1.64648437500000000000e+00) (17, 1.31733787059783935547e+00) (18, 1.33723890781402587891e+00) (19, 1.26017463207244873047e+00) (20, 1.51465213298797607422e+00) (21, 1.13942015171051025391e+00) (22, 1.43436980247497558594e+00) (23, 1.40862524509429931641e+00) (24, 1.41779983043670654297e+00) (25, 1.17212736606597900391e+00) (26, 1.36107575893402099609e+00) (27, 1.22813832759857177734e+00) (28, 1.35651206970214843750e+00) (29, 1.43665027618408203125e+00) (30, 6.27469139099121093750e+01) (31, 1.20399153232574462891e+00) (32, 1.49030983448028564453e+00) (33, 1.39794743061065673828e+00) (34, 1.09197175502777099609e+00) (35, 1.71675443649291992188e+00) (36, 1.44597160816192626953e+00) (37, 1.34021329879760742188e+00) (38, 2.16779494285583496094e+00) (39, 2.14655494689941406250e+00) (40, 2.34915351867675781250e+00) (41, 1.27472078800201416016e+00) (42, 2.27441883087158203125e+00) (43, 1.21226119995117187500e+00) (44, 1.30462455749511718750e+00) (45, 1.39187252521514892578e+00) (46, 1.58011078834533691406e+00) (47, 1.51772820949554443359e+00) (48, 1.01952552795410156250e+00) (49, 1.39064347743988037109e+00) (50, 1.31887340545654296875e+00) (51, 1.21466255187988281250e+00) (52, 1.42226266860961914062e+00) (53, 1.46157538890838623047e+00) (54, 9.41229462623596191406e-01) (55, 1.91090118885040283203e+00) (56, 1.33575880527496337891e+00) (57, 1.36592996120452880859e+00) (58, 6.77425109863281250000e+02) (59, 3.96219515800476074219e+00) (60, 1.67138361930847167969e+00) (61, 1.83682870864868164062e+00) (62, 1.15664696693420410156e+00) (63, 1.43788588047027587891e+00) (64, 1.41592228412628173828e+00) (65, 2.28786253929138183594e+00) (66, 8.33400344848632812500e+00) (67, 2.12826061248779296875e+00) (68, 9.02968645095825195312e-01) (69, 2.64114999771118164062e+00) (70, 1.99403762817382812500e+00) (71, 2.45869421958923339844e+00) (72, 2.20846748352050781250e+00) (73, 1.30849099159240722656e+00) (74, 2.68224573135375976562e+00) (75, 1.42236518859863281250e+00) (76, 1.26685833930969238281e+00) (77, 3.32877707481384277344e+00) (78, 8.23138713836669921875e+00) (79, 1.35379445552825927734e+00) (80, 1.23200094699859619141e+00) (81, 3.44308209419250488281e+00) (82, 1.32358694076538085938e+00) (83, 3.20257949829101562500e+00) (84, 2.39453697204589843750e+00) (85, 2.16588950157165527344e+00) (86, 1.83785057067871093750e+00) (87, 2.00592947006225585938e+00) (88, 1.37540292739868164062e+00) (89, 1.43046450614929199219e+00) (90, 2.60896325111389160156e+00) (91, 1.91991055011749267578e+00) (92, 2.47031545639038085938e+00) (93, 1.71447753906250000000e+00) (94, 2.24278759956359863281e+00) (95, 2.77627182006835937500e+00) (96, 1.54059433937072753906e+00) (97, 7.52647933959960937500e+01) (98, 2.45480203628540039062e+00) (99, 2.63891744613647460938e+00) (100, 2.41486811637878417969e+00) (101, 2.00706386566162109375e+00) (102, 4.15137052536010742188e+00) (103, -1.34567067027091979980e-01) (104, -4.01841700077056884766e-01) (0, 1.50000000000000000000e+03) (1, 1.50000000000000000000e+03) (2, 1.61424684524536132812e+00) (3, 1.50000000000000000000e+03) (4, 1.92476046085357666016e+00) (5, 1.50000000000000000000e+03) (6, 1.50000000000000000000e+03) (7, 1.49982312011718750000e+03) (8, 1.50000000000000000000e+03) (9, 1.67025852203369140625e+00) (10, 1.50000000000000000000e+03) (11, 1.50000000000000000000e+03) (12, 1.51578199863433837891e+00) (13, 1.50000000000000000000e+03) (14, 1.83267128467559814453e+00) (15, 1.66413223743438720703e+00) (16, 1.26840507984161376953e+00) (17, 9.58321571350097656250e-01) (18, 2.39717274904251098633e-01) (19, 1.36338460445404052734e+00) (20, 5.12149930000305175781e-01) (21, 7.97823220491409301758e-02) (22, 7.84183368086814880371e-02) (23, 8.69318127632141113281e-01) (24, 2.11207032203674316406e-01) (25, 3.00251960754394531250e-01) (26, 1.27707982063293457031e+00) (27, 8.09519827365875244141e-01) (28, 8.00613403320312500000e-01) (29, 1.27931308746337890625e+00) (30, 2.96998291015625000000e+01) (31, 8.61303865909576416016e-01) (32, 1.32640910148620605469e+00) (33, 6.44245147705078125000e-01) (34, 1.21481001377105712891e+00) (35, 6.28307282924652099609e-01) (36, 9.92666006088256835938e-01) (37, 1.57760575413703918457e-01) (38, 1.50000000000000000000e+03) (39, 1.50000000000000000000e+03) (40, 1.50000000000000000000e+03) (41, -9.39344177246093750000e+02) (42, 2.32122230529785156250e+00) (43, 8.99188220500946044922e-01) (44, 1.58503711223602294922e+00) (45, 1.31187677383422851562e+00) (46, 1.50000000000000000000e+03) (47, 7.75211393833160400391e-01) (48, 2.72315055131912231445e-01) (49, 9.57183122634887695312e-01) (50, 1.31116127967834472656e+00) (51, 1.10044443607330322266e+00) (52, 3.39734315872192382812e-01) (53, 1.62399625778198242188e+00) (54, 6.26335758715867996216e-03) (55, 1.04444456100463867188e+00) (56, 1.34631490707397460938e+00) (57, 1.02616310119628906250e+00) (58, 1.50000000000000000000e+03) (59, 1.49910864257812500000e+03) (60, 2.40578866004943847656e+00) (61, 1.50000000000000000000e+03) (62, 2.18490147590637207031e+00) (63, 2.38854575157165527344e+00) (64, 1.50000000000000000000e+03) (65, 2.32654023170471191406e+00) (66, 1.50000000000000000000e+03) (67, 1.50000000000000000000e+03) (68, 1.83572292327880859375e+00) (69, 1.50000000000000000000e+03) (70, 1.50000000000000000000e+03) (71, 1.50000000000000000000e+03) (72, 2.33393645286560058594e+00) (73, 1.99586272239685058594e+00) (74, 1.50000000000000000000e+03) (75, 1.50000000000000000000e+03) (76, 1.40719509124755859375e+00) (77, 1.50000000000000000000e+03) (78, 1.50000000000000000000e+03) (79, 1.50000000000000000000e+03) (80, 1.59479689598083496094e+00) (81, 1.50000000000000000000e+03) (82, 1.50000000000000000000e+03) (83, 1.50000000000000000000e+03) (84, 1.50000000000000000000e+03) (85, 1.50000000000000000000e+03) (86, 2.29119348526000976562e+00) (87, 1.50000000000000000000e+03) (88, 1.50000000000000000000e+03) (89, 1.50000000000000000000e+03) (90, 1.50000000000000000000e+03) (91, 1.50000000000000000000e+03) (92, 1.50000000000000000000e+03) (93, 1.50000000000000000000e+03) (94, 2.41484522819519042969e+00) (95, 1.50000000000000000000e+03) (96, 2.24215054512023925781e+00) (97, 1.50000000000000000000e+03) (98, 2.37551236152648925781e+00) (99, 1.50000000000000000000e+03) (100, 2.37990570068359375000e+00) (101, 1.50000000000000000000e+03) (102, -1.67563537597656250000e+02) (103, 2.94514434814453125000e+02) (104, -4.77973937988281250000e-01) (0, -5.62605047225952148438e+00) (1, 5.43636932373046875000e+01) (2, 1.31200397014617919922e+00) (3, 1.07101595401763916016e+00) (4, 2.03391909599304199219e+00) (5, 3.16717416048049926758e-01) (6, 1.61009001731872558594e+00) (7, 1.71691179275512695312e-01) (8, -1.07810902595520019531e+00) (9, 8.81341397762298583984e-01) (10, 2.02372121810913085938e+00) (11, 5.04111719131469726562e+00) (12, 9.07733738422393798828e-01) (13, 1.14728569984436035156e+00) (14, -1.54771253466606140137e-01) (15, -3.16196054220199584961e-01) (16, 3.01832556724548339844e+00) (17, -2.42657959461212158203e-01) (18, 1.95779490470886230469e+00) (19, 6.97877764701843261719e-01) (20, 1.52592927217483520508e-01) (21, -1.03416346013545989990e-01) (22, 6.33035361766815185547e-01) (23, 5.49417674541473388672e-01) (24, 1.29905298352241516113e-01) (25, 5.12607812881469726562e+00) (26, 5.32458353042602539062e+00) (27, 7.73725330829620361328e-01) (28, 5.85209190845489501953e-01) (29, 3.39606475830078125000e+00) (30, 9.05266799926757812500e+01) (31, -4.88614559173583984375e-01) (32, 7.51586556434631347656e-01) (33, 6.51417016983032226562e-01) (34, -3.72055441141128540039e-01) (35, 7.67967164516448974609e-01) (36, 6.88120245933532714844e-01) (37, 3.88419717550277709961e-01) (38, 1.14927494525909423828e+00) (39, 1.49499762058258056641e+00) (40, 8.02835166454315185547e-01) (41, -8.83581695556640625000e+01) (42, 7.19997525215148925781e-01) (43, -2.94190691784024238586e-03) (44, -4.13752160966396331787e-02) (45, 5.30984997749328613281e-01) (46, 4.67832148075103759766e-01) (47, 3.06407356262207031250e+00) (48, 3.11025351285934448242e-01) (49, 5.34738361835479736328e-01) (50, 1.67793464660644531250e+00) (51, 9.87203836441040039062e-01) (52, 4.49713230133056640625e+00) (53, 4.75734329223632812500e+00) (54, 1.60350942611694335938e+00) (55, 1.22490000724792480469e+00) (56, -2.09439098834991455078e-01) (57, -5.34843873977661132812e+00) (58, 2.37936043739318847656e+00) (59, 1.83734722137451171875e+01) (60, 2.23233842849731445312e+00) (61, -2.50945687294006347656e-01) (62, -2.84871637821197509766e-01) (63, 1.77072095870971679688e+00) (64, 1.05545413494110107422e+00) (65, 1.07006847858428955078e+00) (66, 2.38541030883789062500e+01) (67, 1.64858114719390869141e+00) (68, -6.48550987243652343750e+00) (69, 2.37368345260620117188e+00) (70, 1.48991394042968750000e+00) (71, 1.54940438270568847656e+00) (72, 1.29709160327911376953e+00) (73, -1.20582160949707031250e+01) (74, 1.59096944332122802734e+00) (75, 5.16168296337127685547e-01) (76, 7.89623796939849853516e-01) (77, 2.38726329803466796875e+00) (78, 9.96223568916320800781e-01) (79, -1.06481261551380157471e-01) (80, 1.01936221122741699219e+00) (81, 1.60909605026245117188e+00) (82, -2.12899416685104370117e-01) (83, 3.41305136680603027344e+00) (84, 1.45509684085845947266e+00) (85, 1.22994256019592285156e+00) (86, 1.08431363105773925781e+00) (87, 1.60588607192039489746e-01) (88, 1.02606356143951416016e+00) (89, 1.12629985809326171875e+00) (90, 1.65152633190155029297e+00) (91, 1.00974178314208984375e+00) (92, 2.17740154266357421875e+00) (93, 1.43693315982818603516e+00) (94, 1.41597223281860351562e+00) (95, 2.30430459976196289062e+00) (96, 1.21075963973999023438e+00) (97, 1.61706602573394775391e+00) (98, 1.72464358806610107422e+00) (99, 1.49662268161773681641e+00) (100, 1.55418872833251953125e+00) (101, 2.10641860961914062500e+00) (102, -3.69463768005371093750e+01) (103, 1.00524734497070312500e+02) (104, 4.33352619409561157227e-01) (0, -2.03330564498901367188e+00) (1, 2.57526326179504394531e+00) (2, 2.08233857154846191406e+00) (3, 2.49697971343994140625e+00) (4, -1.21345199644565582275e-01) (5, -1.89466524124145507812e+00) (6, 8.89194726943969726562e-01) (7, 2.96514463424682617188e+00) (8, -6.27213335037231445312e+00) (9, -8.74872326850891113281e-01) (10, 1.70089697837829589844e+00) (11, 9.51865136623382568359e-01) (12, 2.78540223836898803711e-01) (13, 1.41748309135437011719e-01) (14, -2.35163778066635131836e-01) (15, -1.23555088043212890625e+00) (16, 3.74695777893066406250e+00) (17, -1.09401494264602661133e-01) (18, -3.65052771568298339844e+00) (19, -2.25177239626646041870e-02) (20, 7.88202381134033203125e+00) (21, -2.90999293327331542969e+00) (22, -4.31750379502773284912e-02) (23, -3.59830975532531738281e+00) (24, -4.86229753494262695312e+00) (25, -4.82239341735839843750e+00) (26, 1.04611361026763916016e+00) (27, -1.13723731040954589844e+00) (28, 2.26328301429748535156e+00) (29, 3.58771592378616333008e-01) (30, 4.07592678070068359375e+00) (31, -2.53616285324096679688e+00) (32, 9.06135439872741699219e-01) (33, -3.00985276699066162109e-01) (34, -8.92687892913818359375e+00) (35, -2.05296802520751953125e+00) (36, -5.47429800033569335938e-01) (37, 4.00997972488403320312e+00) (38, -2.45092496275901794434e-01) (39, 2.18037152290344238281e+00) (40, 1.38351365923881530762e-01) (41, -3.01668465137481689453e-01) (42, 8.99376571178436279297e-01) (43, -3.47024917602539062500e+00) (44, 1.22138416767120361328e+00) (45, -1.21915638446807861328e+00) (46, -1.56007719039916992188e+00) (47, -3.10583996772766113281e+00) (48, -1.22522950172424316406e+00) (49, 1.77934944629669189453e+00) (50, 1.57761442661285400391e+00) (51, -1.78867831826210021973e-01) (52, 3.21677446365356445312e-01) (53, 5.44082522392272949219e-01) (54, 2.79046535491943359375e-01) (55, -1.04759085178375244141e+00) (56, 1.79360735416412353516e+00) (57, 3.39775204658508300781e+00) (58, -3.18525958061218261719e+00) (59, -4.18363600969314575195e-01) (60, -1.19291627407073974609e+00) (61, -3.02880644798278808594e-01) (62, -4.39166903495788574219e-01) (63, -3.89539122581481933594e-01) (64, 1.96529126167297363281e+00) (65, -8.76034736633300781250e-01) (66, 4.30223792791366577148e-01) (67, -8.22533309459686279297e-01) (68, 1.85087990760803222656e+00) (69, 1.66671860218048095703e+00) (70, -3.04451823234558105469e+00) (71, 2.15027675032615661621e-01) (72, 3.14682674407958984375e+00) (73, 3.56926321983337402344e-01) (74, 2.26654553413391113281e+00) (75, 8.45046043395996093750e-01) (76, 7.07634687423706054688e-01) (77, -7.22656488418579101562e-01) (78, 6.00226938724517822266e-01) (79, 3.22966194152832031250e+00) (80, 2.51727610826492309570e-01) (81, -3.77537161111831665039e-01) (82, 1.06306895613670349121e-01) (83, -7.13930666446685791016e-01) (84, -5.82325518131256103516e-01) (85, -4.23557519912719726562e-01) (86, -6.41855239868164062500e-01) (87, -3.76684099435806274414e-01) (88, 6.72954227775335311890e-03) (89, -2.11892545223236083984e-01) (90, -7.04374194145202636719e-01) (91, -6.41768395900726318359e-01) (92, -7.52527177333831787109e-01) (93, -6.00761115550994873047e-01) (94, -7.15441524982452392578e-01) (95, -6.51637732982635498047e-01) (96, -1.98237858712673187256e-02) (97, -7.08763539791107177734e-01) (98, -7.56606101989746093750e-01) (99, -5.67439556121826171875e-01) (100, -6.05269491672515869141e-01) (101, -3.45602631568908691406e-01) (102, 1.63759117126464843750e+01) (103, 2.51912689208984375000e+01) (104, 2.15044569969177246094e+00) (0, -7.20068931579589843750e+00) (1, -1.81810169219970703125e+01) (2, 1.06911158561706542969e+00) (3, 6.50520384311676025391e-01) (4, 1.22891187667846679688e+00) (5, -4.63555693626403808594e-01) (6, -2.48923629522323608398e-01) (7, -3.26067638397216796875e+00) (8, -3.64493489265441894531e+00) (9, 9.11616444587707519531e-01) (10, 2.31455159187316894531e+00) (11, 1.00213313102722167969e+00) (12, 4.78610724210739135742e-01) (13, 3.92146778106689453125e+00) (14, -1.29714667797088623047e-01) (15, 1.05853879451751708984e+00) (16, -6.94362580776214599609e-01) (17, 2.21245622634887695312e+00) (18, 5.42533099651336669922e-01) (19, 1.38967669010162353516e+00) (20, 3.57832002639770507812e+00) (21, 6.19811344146728515625e+00) (22, 2.10409879684448242188e+00) (23, 2.88954448699951171875e+00) (24, 2.31609392166137695312e+00) (25, 3.15187215805053710938e+00) (26, 1.71713840961456298828e+00) (27, 2.72329759597778320312e+00) (28, -5.70465207099914550781e-01) (29, -2.71944856643676757812e+00) (30, 2.63010096549987792969e+00) (31, -4.52591061592102050781e-01) (32, -1.93461751937866210938e+00) (33, 1.27033972740173339844e+00) (34, 3.62829637527465820312e+00) (35, 1.75155198574066162109e+00) (36, 4.15272712707519531250e+00) (37, -2.31141304969787597656e+00) (38, 7.18704983592033386230e-02) (39, -2.45993280410766601562e+00) (40, -1.49673545360565185547e+00) (41, -9.70128536224365234375e-01) (42, 8.49711716175079345703e-01) (43, -2.35881161689758300781e+00) (44, 1.90500557422637939453e+00) (45, 5.89617133140563964844e-01) (46, -1.94983661174774169922e+00) (47, 3.15606927871704101562e+00) (48, -1.77888894081115722656e+00) (49, 1.65243101119995117188e+00) (50, 1.26940059661865234375e+00) (51, 2.50330376625061035156e+00) (52, 2.31166219711303710938e+00) (53, 2.30430409312248229980e-01) (54, 2.13417530059814453125e+00) (55, 5.68462753295898437500e+00) (56, 8.20940852165222167969e-01) (57, 1.36246621608734130859e+00) (58, -2.69965958595275878906e+00) (59, -2.42456483840942382812e+00) (60, -1.78078800439834594727e-01) (61, 1.53628873825073242188e+00) (62, 1.94723498821258544922e+00) (63, 1.95775067806243896484e+00) (64, 8.57177913188934326172e-01) (65, 1.59807002544403076172e+00) (66, -1.04472694396972656250e+01) (67, 4.11545578390359878540e-03) (68, 2.81822681427001953125e+00) (69, 7.04557597637176513672e-02) (70, 4.12690639495849609375e-01) (71, 3.78767549991607666016e-01) (72, 2.72456794977188110352e-01) (73, 5.20490825176239013672e-01) (74, -1.82626187801361083984e+00) (75, -2.92636156082153320312e-01) (76, 5.57703077793121337891e-01) (77, -3.04853588342666625977e-01) (78, 8.18301796913146972656e-01) (79, -1.52296155691146850586e-01) (80, 1.03768384456634521484e+00) (81, 1.94678023457527160645e-01) (82, 6.02857708930969238281e-01) (83, -2.14451268315315246582e-01) (84, 3.41128647327423095703e-01) (85, 2.39752197265625000000e+00) (86, 4.69948798418045043945e-01) (87, 1.90921759605407714844e+00) (88, 1.28822171688079833984e+00) (89, 8.80943000316619873047e-01) (90, 5.78694760799407958984e-01) (91, 3.12918648123741149902e-02) (92, 4.00990843772888183594e-01) (93, 5.01108169555664062500e-01) (94, 4.86119478940963745117e-01) (95, 6.83392724022269248962e-03) (96, 2.12591934204101562500e+00) (97, 6.55181169509887695312e-01) (98, 5.54260849952697753906e-01) (99, -2.79756151139736175537e-02) (100, 3.33198964595794677734e-01) (101, 1.38643121719360351562e+00) (102, -7.10173702239990234375e+00) (103, 1.62277679443359375000e+01) (104, 1.42830514907836914062e+00) (0, -5.30641794204711914062e-01) (1, 1.76372873783111572266e+00) (2, 1.67033886909484863281e+00) (3, 1.48669624328613281250e+00) (4, 2.18322730064392089844e+00) (5, -6.10901308059692382812e+00) (6, 9.05650436878204345703e-01) (7, -7.25335502624511718750e+00) (8, -2.43065881729125976562e+00) (9, -3.08115128427743911743e-02) (10, -7.56653356552124023438e+00) (11, -4.15751647949218750000e+00) (12, -4.30834352970123291016e-01) (13, 8.01804065704345703125e-02) (14, 4.57327187061309814453e-01) (15, -4.97293651103973388672e-01) (16, 1.77608203887939453125e+00) (17, 1.49835872650146484375e+00) (18, -5.44599413871765136719e-01) (19, -4.91238743066787719727e-01) (20, 5.13079595565795898438e+00) (21, 6.91335439682006835938e+00) (22, 4.45981025695800781250e+00) (23, 9.41699683666229248047e-01) (24, -2.93274426460266113281e+00) (25, 9.54797077178955078125e+00) (26, -2.37070298194885253906e+00) (27, 2.15563201904296875000e+00) (28, -3.00028896331787109375e+00) (29, 1.44218671321868896484e+00) (30, -4.69730520248413085938e+00) (31, 4.57082939147949218750e+00) (32, -3.67560935020446777344e+00) (33, 6.33439838886260986328e-01) (34, 1.57389521598815917969e+00) (35, 1.50560121536254882812e+01) (36, 2.41275921463966369629e-01) (37, -2.73148417472839355469e-01) (38, 5.91506195068359375000e+00) (39, 6.34273767471313476562e+00) (40, -1.54604876041412353516e+00) (41, 3.68715941905975341797e-01) (42, 1.08975827693939208984e+00) (43, 2.84510731697082519531e+00) (44, -4.42219257354736328125e+00) (45, 2.89160698652267456055e-01) (46, 2.63917016983032226562e+00) (47, 2.91171050071716308594e+00) (48, -1.81859099864959716797e+00) (49, -4.30493623018264770508e-01) (50, 1.41184139251708984375e+00) (51, 1.41356956958770751953e+00) (52, 1.28583419322967529297e+00) (53, 2.49916061758995056152e-01) (54, -6.99759125709533691406e-01) (55, 7.67037630081176757812e-01) (56, 6.00977778434753417969e-01) (57, 2.69830465316772460938e+00) (58, 5.19986510276794433594e-01) (59, -9.58766579627990722656e-01) (60, -9.95901525020599365234e-01) (61, 1.46027910709381103516e+00) (62, -1.97151884436607360840e-01) (63, -5.94555556774139404297e-01) (64, -2.32654616236686706543e-01) (65, -4.69523310661315917969e-01) (66, -9.30636882781982421875e+00) (67, -8.44396054744720458984e-01) (68, 2.58089756965637207031e+00) (69, -5.17960190773010253906e-01) (70, 6.70527935028076171875e-01) (71, -7.40583017468452453613e-02) (72, 1.03122271597385406494e-01) (73, 5.97906160354614257812e+00) (74, -6.32219016551971435547e-01) (75, -1.22730422019958496094e+00) (76, 1.01624155044555664062e+00) (77, 2.26242348551750183105e-01) (78, 5.08801937103271484375e-01) (79, -2.73113131523132324219e-01) (80, 4.29724305868148803711e-01) (81, -2.07917436957359313965e-01) (82, -5.87661750614643096924e-02) (83, -1.84203195571899414062e+00) (84, -3.92816096544265747070e-01) (85, 5.38738608360290527344e-01) (86, 2.44735851883888244629e-02) (87, 1.68294000625610351562e+00) (88, 4.87138122320175170898e-01) (89, 4.63036209344863891602e-01) (90, 3.03266763687133789062e-01) (91, -2.09221273660659790039e-01) (92, -2.97533869743347167969e-01) (93, -1.06442295014858245850e-01) (94, 1.53614923357963562012e-01) (95, -6.83867454528808593750e-01) (96, 4.28724735975265502930e-01) (97, -2.59441696107387542725e-02) (98, 6.42530247569084167480e-02) (99, 1.09420865774154663086e-01) (100, -1.49626545608043670654e-02) (101, -3.28244119882583618164e-02) (102, -1.20740723609924316406e+00) (103, 4.82838439941406250000e+00) (104, 1.95932054519653320312e+00) (0, 2.30604124069213867188e+00) (1, 9.07701313495635986328e-01) (2, -4.83859330415725708008e-01) (3, 6.11962735652923583984e-01) (4, 1.83070093393325805664e-01) (5, 4.58889722824096679688e-01) (6, 3.32322344183921813965e-02) (7, -7.05583035945892333984e-01) (8, 1.41387581825256347656e+00) (9, 1.29648059606552124023e-01) (10, -5.83587348461151123047e-01) (11, 8.92938435077667236328e-01) (12, -2.69088260829448699951e-02) (13, 2.63685248792171478271e-02) (14, -4.53855365514755249023e-01) (15, -5.86148649454116821289e-02) (16, -7.51204311847686767578e-01) (17, 1.30745112895965576172e+00) (18, -6.66965246200561523438e-01) (19, 1.20879614353179931641e+00) (20, 3.01237199455499649048e-02) (21, -1.14583754539489746094e+00) (22, -4.51548635959625244141e-01) (23, -1.47719457745552062988e-01) (24, 1.60812866687774658203e+00) (25, 5.04724755883216857910e-02) (26, 8.36329042911529541016e-01) (27, -6.71017229557037353516e-01) (28, 9.00538086891174316406e-01) (29, -2.71946370601654052734e-01) (30, 8.42719495296478271484e-01) (31, 1.05506825447082519531e+00) (32, -7.04581022262573242188e-01) (33, 8.29614520072937011719e-01) (34, 7.19112932682037353516e-01) (35, -1.14481544494628906250e+00) (36, -6.01584315299987792969e-01) (37, -5.67757964134216308594e-01) (38, 7.20781311392784118652e-02) (39, 4.34444546699523925781e-01) (40, 2.91753321886062622070e-01) (41, -3.58767241239547729492e-01) (42, -2.65028811991214752197e-02) (43, -1.94665759801864624023e-01) (44, 2.05524772405624389648e-01) (45, 4.01212662458419799805e-01) (46, 1.13264584541320800781e+00) (47, -2.17297479510307312012e-01) (48, -1.34260249137878417969e+00) (49, 1.66896015405654907227e-01) (50, 5.86073935031890869141e-01) (51, 7.24970459938049316406e-01) (52, -5.96715569496154785156e-01) (53, -6.44756078720092773438e-01) (54, -7.84240305423736572266e-01) (55, 5.30579924583435058594e-01) (56, -7.25659608840942382812e-01) (57, 7.00180292129516601562e-01) (58, 1.32289731502532958984e+00) (59, -1.05160064995288848877e-01) (60, -7.91135802865028381348e-02) (61, 3.75557273626327514648e-01) (62, -2.81585365533828735352e-01) (63, 9.93527173995971679688e-02) (64, 1.01893782615661621094e+00) (65, -3.86565446853637695312e-01) (66, -1.89505741000175476074e-01) (67, 1.83295339345932006836e-01) (68, -5.89998722076416015625e-01) (69, 6.12637877464294433594e-01) (70, -2.90542393922805786133e-01) (71, 9.52835977077484130859e-01) (72, -5.67153096199035644531e-01) (73, -2.81617641448974609375e-01) (74, -2.85726159811019897461e-01) (75, 3.54916393756866455078e-01) (76, -2.67808020114898681641e-01) (77, 8.39454352855682373047e-01) (78, 7.04238235950469970703e-01) (79, 2.69051846116781234741e-02) (80, -4.20344471931457519531e-01) (81, 5.15913426876068115234e-01) (82, -1.41985476016998291016e-01) (83, -7.29380786418914794922e-01) (84, 7.88317918777465820312e-01) (85, 1.48817583918571472168e-01) (86, -6.57070577144622802734e-01) (87, -7.64640867710113525391e-01) (88, 8.37516248226165771484e-01) (89, 4.36340689659118652344e-01) (90, -6.52152597904205322266e-01) (91, 1.01800739765167236328e+00) (92, -5.54289072751998901367e-02) (93, -4.08782720565795898438e-01) (94, -4.82608079910278320312e-01) (95, -5.64511001110076904297e-01) (96, -8.08102190494537353516e-01) (97, 1.00093436241149902344e+00) (98, 7.00627744197845458984e-01) (99, 3.48572015762329101562e-01) (100, -6.43898129463195800781e-01) (101, -1.09260223805904388428e-01) (102, -2.40892723202705383301e-01) (103, 1.97490632534027099609e+00) (104, 2.43983840942382812500e+00) (105, 2.36646747589111328125e+00) (106, 5.10501623153686523438e+00) (107, 2.39480376243591308594e+00) (108, -1.21455657482147216797e+00) (109, 1.28276002407073974609e+00) (110, -1.16462635993957519531e+00) (111, -9.76080775260925292969e-01) (112, -1.14089190959930419922e+00) (113, 2.35718703269958496094e+00) (114, 2.43673467636108398438e+00) (115, 2.30594706535339355469e+00) (116, -1.23109924793243408203e+00) (117, -6.11172080039978027344e-01) (118, -1.67122495174407958984e+00) (119, 4.42364501953125000000e+00) (120, 3.12241888046264648438e+00) (121, -1.19509828090667724609e+00) (122, 1.74273335933685302734e+00) (123, -6.30489587783813476562e-01) (124, -9.81606960296630859375e-01) (125, -1.27201962471008300781e+00) (126, 4.63033580780029296875e+00) (127, 8.48209321498870849609e-01) (128, 3.04395937919616699219e+00) (129, -6.23043584823608398438e+00) (130, 2.64798164367675781250e+00) 
