FANN_FLO_2.1
num_layers=3
learning_rate=0.700000
connection_rate=1.000000
network_type=0
learning_momentum=0.000000
training_algorithm=2
train_error_function=1
train_stop_function=0
cascade_output_change_fraction=0.010000
quickprop_decay=-0.000100
quickprop_mu=1.750000
rprop_increase_factor=1.200000
rprop_decrease_factor=0.500000
rprop_delta_min=0.000000
rprop_delta_max=50.000000
rprop_delta_zero=0.100000
cascade_output_stagnation_epochs=12
cascade_candidate_change_fraction=0.010000
cascade_candidate_stagnation_epochs=12
cascade_max_out_epochs=150
cascade_max_cand_epochs=150
cascade_num_candidate_groups=2
bit_fail_limit=3.49999994039535522461e-01
cascade_candidate_limit=1.00000000000000000000e+03
cascade_weight_multiplier=4.00000005960464477539e-01
cascade_activation_functions_count=10
cascade_activation_functions=3 5 7 8 10 11 14 15 16 17 
cascade_activation_steepnesses_count=4
cascade_activation_steepnesses=2.50000000000000000000e-01 5.00000000000000000000e-01 7.50000000000000000000e-01 1.00000000000000000000e+00 
layer_sizes=105 26 2 
scale_included=0
neurons (num_inputs, activation_function, activation_steepness)=(0, 0, 0.00000000000000000000e+00) (0, 0, 0.00000000000000000000e+00) (0, 0, 0.00000000000000000000e+00) (0, 0, 0.00000000000000000000e+00) (0, 0, 0.00000000000000000000e+00) (0, 0, 0.00000000000000000000e+00) (0, 0, 0.00000000000000000000e+00) (0, 0, 0.00000000000000000000e+00) (0, 0, 0.00000000000000000000e+00) (0, 0, 0.00000000000000000000e+00) (0, 0, 0.00000000000000000000e+00) (0, 0, 0.00000000000000000000e+00) (0, 0, 0.00000000000000000000e+00) (0, 0, 0.00000000000000000000e+00) (0, 0, 0.00000000000000000000e+00) (0, 0, 0.00000000000000000000e+00) (0, 0, 0.00000000000000000000e+00) (0, 0, 0.00000000000000000000e+00) (0, 0, 0.00000000000000000000e+00) (0, 0, 0.00000000000000000000e+00) (0, 0, 0.00000000000000000000e+00) (0, 0, 0.00000000000000000000e+00) (0, 0, 0.00000000000000000000e+00) (0, 0, 0.00000000000000000000e+00) (0, 0, 0.00000000000000000000e+00) (0, 0, 0.00000000000000000000e+00) (0, 0, 0.00000000000000000000e+00) (0, 0, 0.00000000000000000000e+00) (0, 0, 0.00000000000000000000e+00) (0, 0, 0.00000000000000000000e+00) (0, 0, 0.00000000000000000000e+00) (0, 0, 0.00000000000000000000e+00) (0, 0, 0.00000000000000000000e+00) (0, 0, 0.00000000000000000000e+00) (0, 0, 0.00000000000000000000e+00) (0, 0, 0.00000000000000000000e+00) (0, 0, 0.00000000000000000000e+00) (0, 0, 0.00000000000000000000e+00) (0, 0, 0.00000000000000000000e+00) (0, 0, 0.00000000000000000000e+00) (0, 0, 0.00000000000000000000e+00) (0, 0, 0.00000000000000000000e+00) (0, 0, 0.00000000000000000000e+00) (0, 0, 0.00000000000000000000e+00) (0, 0, 0.00000000000000000000e+00) (0, 0, 0.00000000000000000000e+00) (0, 0, 0.00000000000000000000e+00) (0, 0, 0.00000000000000000000e+00) (0, 0, 0.00000000000000000000e+00) (0, 0, 0.00000000000000000000e+00) (0, 0, 0.00000000000000000000e+00) (0, 0, 0.00000000000000000000e+00) (0, 0, 0.00000000000000000000e+00) (0, 0, 0.00000000000000000000e+00) (0, 0, 0.00000000000000000000e+00) (0, 0, 0.00000000000000000000e+00) (0, 0, 0.00000000000000000000e+00) (0, 0, 0.00000000000000000000e+00) (0, 0, 0.00000000000000000000e+00) (0, 0, 0.00000000000000000000e+00) (0, 0, 0.00000000000000000000e+00) (0, 0, 0.00000000000000000000e+00) (0, 0, 0.00000000000000000000e+00) (0, 0, 0.00000000000000000000e+00) (0, 0, 0.00000000000000000000e+00) (0, 0, 0.00000000000000000000e+00) (0, 0, 0.00000000000000000000e+00) (0, 0, 0.00000000000000000000e+00) (0, 0, 0.00000000000000000000e+00) (0, 0, 0.00000000000000000000e+00) (0, 0, 0.00000000000000000000e+00) (0, 0, 0.00000000000000000000e+00) (0, 0, 0.00000000000000000000e+00) (0, 0, 0.00000000000000000000e+00) (0, 0, 0.00000000000000000000e+00) (0, 0, 0.00000000000000000000e+00) (0, 0, 0.00000000000000000000e+00) (0, 0, 0.00000000000000000000e+00) (0, 0, 0.00000000000000000000e+00) (0, 0, 0.00000000000000000000e+00) (0, 0, 0.00000000000000000000e+00) (0, 0, 0.00000000000000000000e+00) (0, 0, 0.00000000000000000000e+00) (0, 0, 0.00000000000000000000e+00) (0, 0, 0.00000000000000000000e+00) (0, 0, 0.00000000000000000000e+00) (0, 0, 0.00000000000000000000e+00) (0, 0, 0.00000000000000000000e+00) (0, 0, 0.00000000000000000000e+00) (0, 0, 0.00000000000000000000e+00) (0, 0, 0.00000000000000000000e+00) (0, 0, 0.00000000000000000000e+00) (0, 0, 0.00000000000000000000e+00) (0, 0, 0.00000000000000000000e+00) (0, 0, 0.00000000000000000000e+00) (0, 0, 0.00000000000000000000e+00) (0, 0, 0.00000000000000000000e+00) (0, 0, 0.00000000000000000000e+00) (0, 0, 0.00000000000000000000e+00) (0, 0, 0.00000000000000000000e+00) (0, 0, 0.00000000000000000000e+00) (0, 0, 0.00000000000000000000e+00) (0, 0, 0.00000000000000000000e+00) (0, 0, 0.00000000000000000000e+00) (0, 0, 0.00000000000000000000e+00) (105, 5, 5.00000000000000000000e-01) (105, 5, 5.00000000000000000000e-01) (105, 5, 5.00000000000000000000e-01) (105, 5, 5.00000000000000000000e-01) (105, 5, 5.00000000000000000000e-01) (105, 5, 5.00000000000000000000e-01) (105, 5, 5.00000000000000000000e-01) (105, 5, 5.00000000000000000000e-01) (105, 5, 5.00000000000000000000e-01) (105, 5, 5.00000000000000000000e-01) (105, 5, 5.00000000000000000000e-01) (105, 5, 5.00000000000000000000e-01) (105, 5, 5.00000000000000000000e-01) (105, 5, 5.00000000000000000000e-01) (105, 5, 5.00000000000000000000e-01) (105, 5, 5.00000000000000000000e-01) (105, 5, 5.00000000000000000000e-01) (105, 5, 5.00000000000000000000e-01) (105, 5, 5.00000000000000000000e-01) (105, 5, 5.00000000000000000000e-01) (105, 5, 5.00000000000000000000e-01) (105, 5, 5.00000000000000000000e-01) (105, 5, 5.00000000000000000000e-01) (105, 5, 5.00000000000000000000e-01) (105, 5, 5.00000000000000000000e-01) (0, 5, 0.00000000000000000000e+00) (26, 5, 5.00000000000000000000e-01) (0, 5, 0.00000000000000000000e+00) 
connections (connected_to_neuron, weight)=(0, -1.00916719436645507812e+00) (1, 5.24348616600036621094e-01) (2, 1.45563673973083496094e+00) (3, -2.95418596267700195312e+00) (4, -8.17352831363677978516e-01) (5, 1.12368631362915039062e+00) (6, -1.37510418891906738281e-01) (7, -6.18426263332366943359e-01) (8, -8.20132446289062500000e+00) (9, 1.71369206905364990234e+00) (10, 5.30533827841281890869e-02) (11, -1.62418711185455322266e+00) (12, 2.35704287886619567871e-01) (13, 1.22728157043457031250e+00) (14, -4.24959473311901092529e-02) (15, -3.78513485193252563477e-01) (16, -5.55517554283142089844e-01) (17, -6.53594791889190673828e-01) (18, 1.17348112165927886963e-01) (19, -5.36123871803283691406e-01) (20, -8.97271707653999328613e-02) (21, 2.88781791925430297852e-01) (22, -1.61917817592620849609e+00) (23, -7.67146348953247070312e-01) (24, -7.33253240585327148438e-01) (25, 1.30382549762725830078e+00) (26, -7.74528503417968750000e-01) (27, 4.65758115053176879883e-01) (28, 3.90862077474594116211e-01) (29, 1.82627201080322265625e+00) (30, 1.28406131267547607422e+00) (31, -5.22278308868408203125e-01) (32, 1.72618842124938964844e+00) (33, -5.82122683525085449219e-01) (34, -4.30820131301879882812e+00) (35, -7.62130737304687500000e-01) (36, -5.99403500556945800781e-01) (37, 3.77497673034667968750e-01) (38, -1.00513052940368652344e+00) (39, -5.95613867044448852539e-02) (40, 1.12619912624359130859e+00) (41, -4.55766290426254272461e-01) (42, 1.13477456569671630859e+00) (43, -1.68686926364898681641e-01) (44, 9.18066725134849548340e-02) (45, 3.35269868373870849609e-01) (46, -3.61417818069458007812e+00) (47, 1.93965113162994384766e+00) (48, -4.05474305152893066406e-01) (49, 1.97108852863311767578e+00) (50, -5.29522478580474853516e-01) (51, -6.68391644954681396484e-01) (52, 1.00960111618041992188e+00) (53, 1.79410219192504882812e+00) (54, -1.60399150848388671875e+00) (55, -4.18380784988403320312e+00) (56, 4.91020858287811279297e-01) (57, -2.08296751976013183594e+00) (58, 3.69461774826049804688e-01) (59, 3.01714968681335449219e+00) (60, 1.59380388259887695312e+00) (61, -4.43616437911987304688e+00) (62, 1.57958745956420898438e+00) (63, -1.21572151780128479004e-01) (64, -4.59514284133911132812e+00) (65, -3.62135350704193115234e-01) (66, -7.08322525024414062500e-01) (67, -1.17524027824401855469e+00) (68, -3.25798660516738891602e-01) (69, -2.55798369646072387695e-01) (70, -2.13913154602050781250e+00) (71, -2.09398460388183593750e+00) (72, 2.47369762510061264038e-02) (73, -5.66211700439453125000e+00) (74, 9.72076475620269775391e-01) (75, -2.22660589218139648438e+00) (76, 6.99314546585083007812e+00) (77, 7.63745903968811035156e-02) (78, 6.24393761157989501953e-01) (79, 4.96307706832885742188e+00) (80, -1.91665720939636230469e+00) (81, 3.09194874763488769531e+00) (82, 2.34763526916503906250e+00) (83, 6.29214191436767578125e+00) (84, -1.32969856262207031250e+00) (85, 4.61288928985595703125e+00) (86, -6.40633285045623779297e-01) (87, 1.40462601184844970703e+00) (88, -9.40510749816894531250e+00) (89, -4.39271640777587890625e+00) (90, -9.23841178417205810547e-01) (91, 1.58542644977569580078e+00) (92, 4.39375257492065429688e+00) (93, 1.65008950233459472656e+00) (94, 1.06967484951019287109e+00) (95, -1.72877192497253417969e+00) (96, 3.93561795353889465332e-02) (97, -6.28802701830863952637e-02) (98, -1.27654790878295898438e+00) (99, -1.41010928153991699219e+00) (100, 1.41471898555755615234e+00) (101, 1.73070073127746582031e-01) (102, 2.84189724922180175781e+00) (103, 7.41917490959167480469e-02) (104, 9.49595034122467041016e-01) (0, 3.42405319213867187500e+01) (1, 6.64372146129608154297e-01) (2, 2.52748870849609375000e+00) (3, 6.91582918167114257812e-01) (4, 1.11606335639953613281e+00) (5, 2.45953202247619628906e+00) (6, 1.46467268466949462891e-01) (7, 1.36403071880340576172e+00) (8, -8.88399064540863037109e-01) (9, 1.64662146568298339844e+00) (10, 1.26444935798645019531e+00) (11, 1.45067453384399414062e+00) (12, 1.24423575401306152344e+00) (13, -8.65125507116317749023e-02) (14, 5.65170235931873321533e-02) (15, 7.12474167346954345703e-01) (16, 2.30287119746208190918e-01) (17, 4.16434966027736663818e-02) (18, 1.20681345462799072266e+00) (19, 2.38060846924781799316e-01) (20, -4.44506615400314331055e-01) (21, 1.43084490299224853516e+00) (22, 1.09982752799987792969e+00) (23, 2.46149480342864990234e-01) (24, 1.01587206125259399414e-01) (25, 2.00093221664428710938e+00) (26, -2.70026296377182006836e-01) (27, 6.37102961540222167969e-01) (28, 2.34425932168960571289e-01) (29, 4.85731214284896850586e-01) (30, -8.25109183788299560547e-02) (31, -4.48600292205810546875e+00) (32, 5.55532351136207580566e-02) (33, -2.91025936603546142578e-01) (34, 1.10089528560638427734e+00) (35, -1.01499164104461669922e+00) (36, 6.48719787597656250000e-01) (37, 7.11643457412719726562e-01) (38, 9.77781891822814941406e-01) (39, 1.16442620754241943359e+00) (40, 2.43261384963989257812e+00) (41, -9.74883460998535156250e+00) (42, 7.64186799526214599609e-01) (43, 1.99364912509918212891e+00) (44, 1.10386645793914794922e+00) (45, 1.69584786891937255859e+00) (46, 8.76363158226013183594e-01) (47, 1.71533024311065673828e+00) (48, 5.19512295722961425781e-01) (49, 1.34406298398971557617e-01) (50, -6.01715631783008575439e-02) (51, 1.62420839071273803711e-01) (52, 4.29705917835235595703e-01) (53, -3.54395222663879394531e+00) (54, 1.53931224346160888672e+00) (55, -2.20525150299072265625e+01) (56, 7.62441992759704589844e-01) (57, 1.52930879592895507812e+00) (58, -7.57286453247070312500e+00) (59, 1.38257592916488647461e-01) (60, 3.62749785184860229492e-01) (61, 2.18569487333297729492e-01) (62, 1.40708065032958984375e+00) (63, 2.17369854450225830078e-01) (64, 5.94869911670684814453e-01) (65, 1.10016369819641113281e+00) (66, 3.73807048797607421875e+00) (67, 4.28992366790771484375e+00) (68, 9.16069746017456054688e-01) (69, 5.69503605365753173828e-01) (70, 3.21812003850936889648e-01) (71, 7.64907658100128173828e-01) (72, 3.67849171161651611328e-01) (73, 5.63418340682983398438e+00) (74, 7.67890870571136474609e-01) (75, 2.54365348815917968750e+00) (76, 1.09888970851898193359e+00) (77, 2.45247197151184082031e+00) (78, 3.94293069839477539062e+00) (79, 1.34093776345252990723e-01) (80, 3.68530690670013427734e-01) (81, -1.93405508995056152344e+00) (82, 1.03042993545532226562e+01) (83, 5.64531311392784118652e-02) (84, -1.65081843733787536621e-01) (85, -1.58899343013763427734e+00) (86, 9.24900472164154052734e-01) (87, 2.42086172103881835938e+00) (88, -6.36720955371856689453e-01) (89, -5.79132616519927978516e-01) (90, -8.70966464281082153320e-02) (91, 7.01916158199310302734e-01) (92, 2.35473155975341796875e-01) (93, 1.03368365764617919922e+00) (94, 9.90856707096099853516e-01) (95, -1.92992128431797027588e-02) (96, 9.84723806381225585938e-01) (97, 1.04249024391174316406e+00) (98, -9.28527265787124633789e-02) (99, 3.58199737966060638428e-02) (100, 2.27367486804723739624e-02) (101, 7.96950280666351318359e-01) (102, 5.86249017715454101562e+00) (103, 1.04732668399810791016e+00) (104, 8.05799245834350585938e-01) (0, -2.93288478851318359375e+01) (1, 2.02651843428611755371e-01) (2, 1.07801055908203125000e+00) (3, 8.77955913543701171875e-01) (4, 4.91536378860473632812e-01) (5, -1.32886737585067749023e-01) (6, 5.70763230323791503906e-01) (7, -2.07275295257568359375e+00) (8, -1.62812972068786621094e+00) (9, 1.46938216686248779297e+00) (10, 5.10743558406829833984e-01) (11, 6.83350265026092529297e-01) (12, 1.06052482128143310547e+00) (13, -3.36342620849609375000e+00) (14, -1.74020752310752868652e-01) (15, 1.31128883361816406250e+00) (16, -3.56972765922546386719e+00) (17, -2.08038187026977539062e+00) (18, 1.23762702941894531250e+00) (19, 8.61240446567535400391e-01) (20, -3.88423824310302734375e+00) (21, 1.00572967529296875000e+00) (22, 4.44900083541870117188e+00) (23, 2.06984972953796386719e+00) (24, -1.87631809711456298828e+00) (25, 2.28085470199584960938e+00) (26, 4.65715706348419189453e-01) (27, 1.43848335742950439453e+00) (28, 8.56395435333251953125e+00) (29, 5.48491701483726501465e-02) (30, 2.70248365402221679688e+00) (31, 1.51806175708770751953e+00) (32, -1.06144595146179199219e+00) (33, -6.70309364795684814453e-01) (34, 3.23424386978149414062e+00) (35, 1.01233206689357757568e-01) (36, 1.39859008789062500000e+00) (37, -2.97918200492858886719e-01) (38, -4.09678697586059570312e-01) (39, -2.25589767098426818848e-01) (40, -1.05007022619247436523e-01) (41, -1.29364728927612304688e+00) (42, -4.67252098023891448975e-02) (43, -7.56361782550811767578e-01) (44, 1.39962232112884521484e+00) (45, 1.92436921596527099609e+00) (46, 2.60499572753906250000e+00) (47, 4.36386394500732421875e+00) (48, 6.24018490314483642578e-01) (49, 5.76898753643035888672e-01) (50, 1.05849134922027587891e+00) (51, -1.55239760875701904297e-01) (52, 4.64062958955764770508e-01) (53, 7.32411026954650878906e-01) (54, -1.65299877524375915527e-01) (55, -4.92163276672363281250e+00) (56, 2.12426471710205078125e+00) (57, -3.35301327705383300781e+00) (58, -6.49040281772613525391e-01) (59, 4.44309234619140625000e+00) (60, 1.29756689071655273438e+00) (61, 4.78074513375759124756e-02) (62, 1.92785203456878662109e+00) (63, 8.78052294254302978516e-01) (64, -3.77007693052291870117e-01) (65, 5.39303123950958251953e-01) (66, 3.73649406433105468750e+00) (67, 2.39175295829772949219e+00) (68, 2.42459654808044433594e+00) (69, 1.81020557880401611328e+00) (70, 4.32895243167877197266e-01) (71, -2.85897664725780487061e-02) (72, 8.88261198997497558594e-01) (73, -3.26913523674011230469e+00) (74, 1.45578399300575256348e-01) (75, -1.24803930521011352539e-01) (76, -3.04012537002563476562e+00) (77, -6.49371147155761718750e-02) (78, -3.38515496253967285156e+00) (79, 6.27601575851440429688e+00) (80, 4.41137552261352539062e+00) (81, -1.23339521884918212891e+00) (82, 4.89460039138793945312e+00) (83, 3.04981732368469238281e+00) (84, 5.72706401348114013672e-01) (85, -5.42692756652832031250e+00) (86, 1.20903503894805908203e+00) (87, 1.34453094005584716797e+00) (88, 4.84491646289825439453e-01) (89, 2.14883303642272949219e+00) (90, 1.29188323020935058594e+00) (91, 9.27614748477935791016e-01) (92, 4.51188921928405761719e-01) (93, 1.85259342193603515625e+00) (94, 8.33543002605438232422e-01) (95, -3.27263808250427246094e+00) (96, 1.11483204364776611328e+00) (97, -4.50123846530914306641e-01) (98, -2.03209389001131057739e-02) (99, 2.12645363807678222656e+00) (100, 7.55175411701202392578e-01) (101, 4.79545086622238159180e-01) (102, -1.17723906040191650391e+00) (103, 1.14864149093627929688e+01) (104, 1.11904871463775634766e+00) (0, -1.49996057128906250000e+03) (1, 2.44560551643371582031e+00) (2, 5.42068123817443847656e-01) (3, 2.29954738616943359375e+01) (4, 1.59148001670837402344e+00) (5, 2.96481251716613769531e+00) (6, 2.54198908805847167969e+00) (7, 1.66966021060943603516e+00) (8, 1.50600373744964599609e+00) (9, 1.17100751399993896484e+00) (10, 1.70940172672271728516e+00) (11, 1.86292266845703125000e+00) (12, 1.63953197002410888672e+00) (13, 1.50000000000000000000e+03) (14, 2.42949295043945312500e+00) (15, 2.21108675003051757812e+00) (16, 2.62759208679199218750e+00) (17, 2.67234539985656738281e+00) (18, 2.14178061485290527344e+00) (19, 2.55499887466430664062e+00) (20, 2.55848312377929687500e+00) (21, 1.36598169803619384766e+00) (22, 2.20980572700500488281e+00) (23, 2.59172964096069335938e+00) (24, 2.29131698608398437500e+00) (25, 1.07572734355926513672e+00) (26, 2.29793381690979003906e+00) (27, 2.36558508872985839844e+00) (28, 2.52565240859985351562e+00) (29, 2.63428807258605957031e+00) (30, 2.56346917152404785156e+00) (31, 1.50000000000000000000e+03) (32, 2.60159564018249511719e+00) (33, 1.50000000000000000000e+03) (34, 1.33677232265472412109e+00) (35, 2.70329785346984863281e+00) (36, 1.98582434654235839844e+00) (37, 2.01178359985351562500e+00) (38, 2.66569948196411132812e+00) (39, 2.61892795562744140625e+00) (40, 1.19419479370117187500e+00) (41, 1.50000000000000000000e+03) (42, 2.19776868820190429688e+00) (43, 2.30172038078308105469e+00) (44, 2.29742860794067382812e+00) (45, 1.54747223854064941406e+00) (46, 1.50000000000000000000e+03) (47, 2.74085426330566406250e+00) (48, 1.50000000000000000000e+03) (49, 2.77473974227905273438e+00) (50, 1.50000000000000000000e+03) (51, 5.92453125000000000000e+02) (52, 1.50000000000000000000e+03) (53, 1.50000000000000000000e+03) (54, 1.50000000000000000000e+03) (55, 1.50000000000000000000e+03) (56, 2.32823753356933593750e+00) (57, 1.13131499290466308594e+00) (58, 1.50000000000000000000e+03) (59, 1.50000000000000000000e+03) (60, 2.40614819526672363281e+00) (61, 1.49996447753906250000e+03) (62, 1.26429939270019531250e+00) (63, 2.38568806648254394531e+00) (64, 1.83566451072692871094e+00) (65, 2.02755904197692871094e+00) (66, 5.70706129074096679688e-01) (67, 2.34244212508201599121e-01) (68, 1.57943391799926757812e+00) (69, 1.20875155925750732422e+00) (70, 2.22643113136291503906e+00) (71, 1.59125173091888427734e+00) (72, 2.26986503601074218750e+00) (73, 4.21507692337036132812e+00) (74, 2.05804395675659179688e+00) (75, 7.28968322277069091797e-01) (76, 1.39662623405456542969e+00) (77, 2.39498114585876464844e+00) (78, 1.53812956809997558594e+00) (79, 2.70004677772521972656e+00) (80, 2.33266878128051757812e+00) (81, 2.46640729904174804688e+00) (82, 2.29185962677001953125e+00) (83, 1.50000000000000000000e+03) (84, 4.11148284912109375000e+02) (85, 2.78712654113769531250e+00) (86, 2.10953855514526367188e+00) (87, 1.10323071479797363281e+00) (88, 1.50000000000000000000e+03) (89, 1.88422906398773193359e+00) (90, 1.55168795585632324219e+00) (91, 2.62116169929504394531e+00) (92, 2.34908199310302734375e+00) (93, 1.76019918918609619141e+00) (94, 2.17796111106872558594e+00) (95, 2.56728363037109375000e+00) (96, 1.15081131458282470703e+00) (97, 1.69524788856506347656e+00) (98, 2.26411747932434082031e+00) (99, 2.51349878311157226562e+00) (100, 2.26599884033203125000e+00) (101, 2.24314117431640625000e+00) (102, -4.99179810285568237305e-01) (103, 5.96570253372192382812e+00) (104, -2.02542185783386230469e-01) (0, 2.08725494384765625000e+02) (1, 1.68498980998992919922e+00) (2, -3.22308570146560668945e-01) (3, 1.39675569534301757812e+00) (4, 8.16702008247375488281e-01) (5, 1.77457499504089355469e+00) (6, 8.56401264667510986328e-01) (7, 8.74323844909667968750e-01) (8, 6.18826687335968017578e-01) (9, 4.50086057186126708984e-01) (10, 9.96123969554901123047e-01) (11, 9.99743223190307617188e-01) (12, -3.64413000643253326416e-02) (13, 4.96394062042236328125e+00) (14, 1.38136112689971923828e+00) (15, -7.42733031511306762695e-02) (16, 2.04425001144409179688e+00) (17, 1.93582379817962646484e+00) (18, 1.14271247386932373047e+00) (19, 1.20495116710662841797e+00) (20, 1.30948019027709960938e+00) (21, -2.01543182134628295898e-01) (22, 9.14422452449798583984e-01) (23, 1.96112120151519775391e+00) (24, 1.37687861919403076172e+00) (25, -3.28872710466384887695e-01) (26, 8.83904933929443359375e-01) (27, 9.58155870437622070312e-01) (28, 1.19081449508666992188e+00) (29, 6.94039762020111083984e-02) (30, 1.26530790328979492188e+00) (31, 2.90513038635253906250e+00) (32, 3.13212215900421142578e-01) (33, 2.30530905723571777344e+00) (34, 9.21084880828857421875e-01) (35, 1.28379034996032714844e+00) (36, 1.97237223386764526367e-01) (37, -5.75597956776618957520e-02) (38, 1.31097841262817382812e+00) (39, 1.64575397968292236328e+00) (40, -8.08654502034187316895e-02) (41, 2.71376342773437500000e+01) (42, 3.22339713573455810547e-01) (43, 3.13415467739105224609e-01) (44, 9.82674181461334228516e-01) (45, 1.04011476039886474609e+00) (46, 1.09744071960449218750e+00) (47, 2.09214282035827636719e+00) (48, 2.19872045516967773438e+00) (49, 1.13061499595642089844e+00) (50, 2.00186181068420410156e+00) (51, 1.94741570949554443359e+00) (52, 2.14203333854675292969e+00) (53, 2.27246809005737304688e+00) (54, 1.24135971069335937500e+00) (55, 2.61324048042297363281e+00) (56, 7.59796738624572753906e-01) (57, -3.34184026718139648438e+00) (58, 9.57907638549804687500e+01) (59, 8.84196221828460693359e-01) (60, 2.83862262964248657227e-01) (61, 1.63633561134338378906e+00) (62, -3.88521343469619750977e-01) (63, 1.80570805072784423828e+00) (64, 8.30635964870452880859e-01) (65, 1.11961150169372558594e+00) (66, -5.05602180957794189453e-01) (67, -2.52179056406021118164e-01) (68, 1.03572690486907958984e+00) (69, 9.92262065410614013672e-01) (70, 1.38661921024322509766e+00) (71, 7.73733198642730712891e-01) (72, 1.82456433773040771484e+00) (73, -8.39596462249755859375e+00) (74, 7.66967952251434326172e-01) (75, 7.08688318729400634766e-01) (76, 7.98889815807342529297e-01) (77, 8.46696853637695312500e-01) (78, 8.40206563472747802734e-01) (79, 1.20822024345397949219e+00) (80, 1.77234899997711181641e+00) (81, 1.16294920444488525391e+00) (82, 1.13614153861999511719e+00) (83, 1.42625677585601806641e+00) (84, 1.41631519794464111328e+00) (85, 1.66940522193908691406e+00) (86, 8.22085201740264892578e-01) (87, 7.33791351318359375000e-01) (88, 2.30671858787536621094e+00) (89, 1.47534823417663574219e+00) (90, 9.81394827365875244141e-01) (91, 1.38412272930145263672e+00) (92, 4.12371098995208740234e-01) (93, 2.67983883619308471680e-01) (94, 5.06225466728210449219e-01) (95, 2.06758832931518554688e+00) (96, 6.15131020545959472656e-01) (97, 8.24754416942596435547e-01) (98, 1.32834434509277343750e+00) (99, 1.74841356277465820312e+00) (100, 4.00761425495147705078e-01) (101, 4.51784521341323852539e-01) (102, -2.25988960266113281250e+00) (103, 8.07595825195312500000e+00) (104, 1.63294041156768798828e+00) (0, -3.02030611038208007812e+00) (1, -3.56584811210632324219e+00) (2, 1.95961117744445800781e+00) (3, -5.28896570205688476562e-01) (4, -4.14715856313705444336e-02) (5, 4.34092187881469726562e+00) (6, 2.13078165054321289062e+00) (7, 5.38740158081054687500e+00) (8, -9.49271869659423828125e+00) (9, -3.09890449047088623047e-01) (10, 3.77976030111312866211e-01) (11, -1.70144423842430114746e-01) (12, -1.02811694145202636719e+00) (13, -8.34899520874023437500e+00) (14, -8.33497047424316406250e-01) (15, -3.66393232345581054688e+00) (16, 1.21899092197418212891e+00) (17, 3.32093095779418945312e+00) (18, -9.43656325340270996094e-01) (19, 8.05111408233642578125e-01) (20, 6.23721122741699218750e+00) (21, -2.67666530609130859375e+00) (22, 3.72276973724365234375e+00) (23, -3.20536613464355468750e+00) (24, -1.40385036468505859375e+01) (25, 4.40977382659912109375e+00) (26, -1.56228721141815185547e+00) (27, -1.10574638843536376953e+00) (28, -5.22679746150970458984e-01) (29, 1.48307943344116210938e+00) (30, 3.39119744300842285156e+00) (31, -5.69764471054077148438e+00) (32, 4.90890562534332275391e-01) (33, -3.04782319068908691406e+00) (34, -5.62976598739624023438e+00) (35, -7.23951697349548339844e-01) (36, 4.79904077947139739990e-02) (37, 5.35984516143798828125e+00) (38, -3.77138286828994750977e-01) (39, -4.95181441307067871094e-01) (40, 6.12365186214447021484e-01) (41, -2.35162091255187988281e+00) (42, -4.20219153165817260742e-01) (43, -1.09985889866948127747e-02) (44, 9.75053727626800537109e-01) (45, 4.46496665477752685547e-01) (46, -3.42063158750534057617e-01) (47, -2.81077250838279724121e-02) (48, -2.43488645553588867188e+00) (49, -5.30191719532012939453e-01) (50, 1.03236043453216552734e+00) (51, -2.24898719787597656250e+00) (52, 4.06958192586898803711e-01) (53, -2.35276722908020019531e+00) (54, 1.68489873409271240234e-01) (55, 7.34668540954589843750e+00) (56, -3.83414000272750854492e-01) (57, 2.58388829231262207031e+00) (58, -3.16087007522583007812e+00) (59, 8.16407859325408935547e-01) (60, -2.27070242166519165039e-01) (61, -7.90247619152069091797e-01) (62, -8.18960905075073242188e-01) (63, -7.41633951663970947266e-01) (64, -2.91052699089050292969e-01) (65, 4.89538520574569702148e-01) (66, -6.31817579269409179688e-01) (67, -7.44641199707984924316e-02) (68, 1.23608648777008056641e+00) (69, -9.86359179019927978516e-01) (70, -4.38053131103515625000e-01) (71, -4.15496319532394409180e-01) (72, 2.39904120564460754395e-01) (73, 2.21918010711669921875e+00) (74, 2.88620162010192871094e+00) (75, 2.93009966611862182617e-01) (76, 1.36614382266998291016e+00) (77, 9.81666743755340576172e-01) (78, -2.04136833548545837402e-01) (79, -3.76199275255203247070e-01) (80, -6.33804380893707275391e-01) (81, 5.36148130893707275391e-01) (82, -5.64432561397552490234e-01) (83, -6.89208686351776123047e-01) (84, 5.21604657173156738281e-01) (85, -4.97758626937866210938e-01) (86, 2.64444708824157714844e-01) (87, 1.12863194942474365234e+00) (88, -5.38589715957641601562e-01) (89, -2.86792635917663574219e-01) (90, -8.80129873752593994141e-01) (91, -7.07514762878417968750e-01) (92, -2.18829944729804992676e-01) (93, -4.23651523888111114502e-02) (94, 1.90864458680152893066e-01) (95, -6.95582628250122070312e-01) (96, 1.01883232593536376953e+00) (97, 8.05552482604980468750e-01) (98, -5.14958620071411132812e-01) (99, -3.76181989908218383789e-01) (100, 2.48798474669456481934e-01) (101, -2.86916315555572509766e-01) (102, -1.18233179673552513123e-02) (103, 2.64629125595092773438e+00) (104, 1.58743441104888916016e+00) (0, -2.01912069320678710938e+00) (1, 9.34499204158782958984e-01) (2, -7.87809550762176513672e-01) (3, -1.38347089290618896484e+00) (4, 2.08270594477653503418e-01) (5, 9.35641229152679443359e-01) (6, -7.86480367183685302734e-01) (7, 3.71380019187927246094e+00) (8, 3.58857417106628417969e+00) (9, -1.10969968140125274658e-01) (10, 7.53413677215576171875e-01) (11, -5.54175674915313720703e-01) (12, -4.65700864791870117188e-01) (13, 4.06232774257659912109e-01) (14, 3.91803240776062011719e+00) (15, -2.69055336713790893555e-01) (16, -8.10077476501464843750e+00) (17, -8.54468524456024169922e-01) (18, 4.18659353256225585938e+00) (19, -2.08896160125732421875e+00) (20, 5.33060693740844726562e+00) (21, -1.55268526077270507812e+00) (22, -1.68792879581451416016e+00) (23, 1.41580536961555480957e-01) (24, -1.29479761123657226562e+01) (25, 9.41248035430908203125e+00) (26, -8.86676728725433349609e-01) (27, 1.75352692604064941406e+00) (28, 1.03339970111846923828e+00) (29, 4.58158159255981445312e+00) (30, 1.43349921703338623047e+00) (31, -5.98671293258666992188e+00) (32, -2.54266142845153808594e+00) (33, 6.10054922103881835938e+00) (34, -1.97676801681518554688e+00) (35, -7.18203783035278320312e+00) (36, 1.00635111331939697266e+00) (37, -2.40365839004516601562e+00) (38, 1.09787940979003906250e+00) (39, -3.86628836393356323242e-01) (40, -2.09576392173767089844e+00) (41, 4.36838054656982421875e+00) (42, -4.41976815462112426758e-01) (43, 4.94668707251548767090e-02) (44, -2.96340250968933105469e+00) (45, -2.17801499366760253906e+00) (46, -5.49570977687835693359e-01) (47, -4.82599675655364990234e-01) (48, 3.43980455398559570312e+00) (49, -4.31740760803222656250e-01) (50, -3.66482043266296386719e+00) (51, -4.64466065168380737305e-01) (52, -7.26428627967834472656e-03) (53, -8.48482966423034667969e-01) (54, -8.11779379844665527344e-01) (55, 1.04685771465301513672e+00) (56, 6.10965788364410400391e-01) (57, -4.61989974975585937500e+00) (58, 1.71443605422973632812e+00) (59, 2.72550058364868164062e+00) (60, 9.41437125205993652344e-01) (61, 1.19336557388305664062e+00) (62, 2.50054836273193359375e-01) (63, 8.25879693031311035156e-01) (64, -4.35093212127685546875e+00) (65, -8.99466693401336669922e-01) (66, 1.53377926349639892578e+00) (67, -4.08920735120773315430e-01) (68, -3.93773615360260009766e-01) (69, 1.81215219199657440186e-02) (70, 5.87281346321105957031e-01) (71, -8.88657748699188232422e-01) (72, 1.29950344562530517578e+00) (73, 3.31147283315658569336e-01) (74, 1.31897103786468505859e+00) (75, 1.01520128548145294189e-01) (76, -1.35241341590881347656e+00) (77, -5.10442733764648437500e-01) (78, -6.48334145545959472656e-01) (79, -6.10277235507965087891e-01) (80, 8.22228968143463134766e-01) (81, -9.64552089571952819824e-02) (82, 1.12907871603965759277e-01) (83, 3.64859759807586669922e-01) (84, 5.44458389282226562500e-01) (85, -3.93329262733459472656e-01) (86, -4.59176808595657348633e-01) (87, -5.73055371642112731934e-02) (88, 5.80844700336456298828e-01) (89, 3.61200898885726928711e-01) (90, -4.99271489679813385010e-02) (91, 1.04125213623046875000e+00) (92, 5.15172369778156280518e-02) (93, 1.45939171314239501953e-01) (94, 1.58229961991310119629e-01) (95, 8.30885827541351318359e-01) (96, -7.47599065303802490234e-01) (97, 9.58482176065444946289e-02) (98, 8.95375072956085205078e-01) (99, 6.24573886394500732422e-01) (100, 9.64372754096984863281e-02) (101, -5.71142613887786865234e-01) (102, 8.98094698786735534668e-02) (103, 7.07952594757080078125e+00) (104, 2.59720301628112792969e+00) (0, 2.78367280960083007812e+00) (1, -8.95328819751739501953e-01) (2, 3.11137294769287109375e+00) (3, 1.91264271736145019531e-01) (4, 5.29621958732604980469e-01) (5, 1.17676043510437011719e+00) (6, 7.75118768215179443359e-01) (7, -1.17515218257904052734e+00) (8, -7.40026521682739257812e+00) (9, 1.01561032235622406006e-01) (10, -3.38928055763244628906e+00) (11, 8.40838015079498291016e-01) (12, 1.08444906771183013916e-01) (13, -3.71221280097961425781e+00) (14, -1.17461216449737548828e+00) (15, 2.89208006858825683594e+00) (16, 7.22933053970336914062e+00) (17, -5.27990341186523437500e-01) (18, -2.21848654747009277344e+00) (19, 5.95831727981567382812e+00) (20, -5.97623062133789062500e+00) (21, -4.38130521774291992188e+00) (22, -1.73045730590820312500e+00) (23, -3.30644392967224121094e+00) (24, 4.21774911880493164062e+00) (25, 2.28406429290771484375e+00) (26, -4.13017034530639648438e+00) (27, -4.25594758987426757812e+00) (28, 4.62592458724975585938e+00) (29, -7.31722688674926757812e+00) (30, 1.50520443916320800781e+00) (31, -3.86921435594558715820e-01) (32, -2.69943284988403320312e+00) (33, 2.08263301849365234375e+00) (34, -7.14064180850982666016e-01) (35, -5.35006189346313476562e+00) (36, -9.93631601333618164062e-01) (37, 2.28271579742431640625e+00) (38, -4.94178724288940429688e+00) (39, 8.22875976562500000000e-01) (40, 1.46913802623748779297e+00) (41, -1.92102766036987304688e+00) (42, -1.69679038226604461670e-02) (43, 1.52001810073852539062e+00) (44, 1.63431537151336669922e+00) (45, 5.91125488281250000000e+00) (46, 7.41201758384704589844e-01) (47, -2.59131693840026855469e+00) (48, 2.95783567428588867188e+00) (49, 2.62470626831054687500e+00) (50, -1.50016069412231445312e+00) (51, 2.39910411834716796875e+00) (52, -1.39177453517913818359e+00) (53, 7.75590538978576660156e-01) (54, -4.24324363470077514648e-01) (55, -1.18410503864288330078e+00) (56, 9.90138649940490722656e-01) (57, -3.62748289108276367188e+00) (58, 6.19898676872253417969e-01) (59, -3.90187919139862060547e-01) (60, 3.36081147193908691406e-01) (61, -7.46266245841979980469e-02) (62, -5.56803084909915924072e-02) (63, -1.26761093735694885254e-01) (64, -4.10326480865478515625e-01) (65, -1.84293881058692932129e-01) (66, 3.65437698364257812500e+00) (67, -3.66557455062866210938e+00) (68, 7.83616542816162109375e-01) (69, -5.54883182048797607422e-01) (70, -6.03523313999176025391e-01) (71, -3.86593997478485107422e-01) (72, 2.86140394210815429688e+00) (73, 3.42029213905334472656e-01) (74, 8.19999933242797851562e-01) (75, 5.93012511730194091797e-01) (76, -9.02471899986267089844e-01) (77, -6.54903888702392578125e-01) (78, -7.12650120258331298828e-01) (79, -5.97747921943664550781e-01) (80, -7.87238955497741699219e-01) (81, -6.92160010337829589844e-01) (82, -5.35013198852539062500e-01) (83, -4.60834950208663940430e-01) (84, 5.04791855812072753906e-01) (85, 6.48199677467346191406e-01) (86, -4.45063441991806030273e-01) (87, -8.49677324295043945312e-01) (88, 7.95581042766571044922e-01) (89, -6.44819736480712890625e-01) (90, 2.50894725322723388672e-01) (91, 6.23080015182495117188e-01) (92, 1.79601624608039855957e-01) (93, 1.04638032615184783936e-01) (94, -5.57084143161773681641e-01) (95, 1.97543650865554809570e-01) (96, -1.48643972352147102356e-02) (97, -5.22620975971221923828e-01) (98, 1.59721150994300842285e-01) (99, 5.55698454380035400391e-01) (100, -9.05745252966880798340e-02) (101, 6.73847198486328125000e-01) (102, 6.49441194534301757812e+00) (103, 2.23928308486938476562e+00) (104, 1.92508625984191894531e+00) (0, 1.62212109565734863281e+00) (1, 1.62747502326965332031e+00) (2, 4.63022291660308837891e-01) (3, -2.91090464591979980469e+00) (4, -2.88378506898880004883e-01) (5, 4.09443473815917968750e+00) (6, -9.77324247360229492188e-01) (7, 4.62317657470703125000e+00) (8, 3.97572302818298339844e+00) (9, 1.47703814506530761719e+00) (10, 3.64179223775863647461e-01) (11, -2.22855761647224426270e-01) (12, 1.70342767238616943359e+00) (13, 8.99896264076232910156e-01) (14, 8.39075386524200439453e-01) (15, 5.84316432476043701172e-01) (16, -7.67180994153022766113e-02) (17, -7.43210172653198242188e+00) (18, 4.20309638977050781250e+00) (19, -6.30819141864776611328e-01) (20, -3.27292704582214355469e+00) (21, 2.07777380943298339844e+00) (22, 2.23216176033020019531e+00) (23, -9.73591327667236328125e-01) (24, -2.22376823425292968750e+00) (25, 5.34888505935668945312e+00) (26, -1.82187569141387939453e+00) (27, 5.09841775894165039062e+00) (28, -2.07062578201293945312e+00) (29, -6.54437637329101562500e+00) (30, 3.68478250503540039062e+00) (31, -1.00139598846435546875e+01) (32, 3.31114983558654785156e+00) (33, 3.08988356590270996094e+00) (34, -2.40010690689086914062e+00) (35, -8.98108863830566406250e+00) (36, -3.09253692626953125000e+00) (37, -7.23937451839447021484e-01) (38, -3.69378733634948730469e+00) (39, 9.44877982139587402344e-01) (40, -1.11328911781311035156e+00) (41, 4.12024641036987304688e+00) (42, -7.02282965183258056641e-01) (43, 1.26342236995697021484e+00) (44, 1.84741485118865966797e+00) (45, 4.24425649642944335938e+00) (46, 4.06367331743240356445e-01) (47, -1.07599830627441406250e+00) (48, -2.05467796325683593750e+00) (49, 2.71546888351440429688e+00) (50, 8.74041438102722167969e-01) (51, -1.97213387489318847656e+00) (52, -3.09894394874572753906e+00) (53, -3.12633156776428222656e-01) (54, -1.26392352581024169922e+00) (55, -4.34576243162155151367e-01) (56, -2.87785339355468750000e+00) (57, -1.18012678623199462891e+00) (58, 1.63344848155975341797e+00) (59, -4.14941906929016113281e-01) (60, -1.60950556397438049316e-01) (61, 4.01809781789779663086e-01) (62, -2.46342457830905914307e-02) (63, 9.91310715675354003906e-01) (64, -2.44971171021461486816e-01) (65, -6.81032598018646240234e-01) (66, 1.09134006500244140625e+00) (67, -4.33155202865600585938e+00) (68, -5.74511468410491943359e-01) (69, -4.55793946981430053711e-01) (70, -2.72866696119308471680e-01) (71, -2.22777798771858215332e-01) (72, 1.55994510650634765625e+00) (73, -2.60123729705810546875e+00) (74, -7.95548975467681884766e-01) (75, 3.72717261314392089844e-01) (76, 4.31405901908874511719e-01) (77, -7.94130027294158935547e-01) (78, 1.74260631203651428223e-01) (79, -3.55029284954071044922e-01) (80, 8.52520763874053955078e-01) (81, -3.29109698534011840820e-01) (82, 2.54565060138702392578e-01) (83, 2.19811365008354187012e-01) (84, 5.11431135237216949463e-02) (85, 4.98262643814086914062e-01) (86, -5.56569635868072509766e-01) (87, -7.14955747127532958984e-01) (88, 1.73794710636138916016e+00) (89, 8.12330305576324462891e-01) (90, 2.16780483722686767578e-01) (91, 1.08276450634002685547e+00) (92, -1.92917034029960632324e-01) (93, -4.30187612771987915039e-01) (94, -6.39595091342926025391e-01) (95, 1.10760951042175292969e+00) (96, -7.74454832077026367188e-01) (97, 1.48767352104187011719e-01) (98, 7.40702986717224121094e-01) (99, 5.57998657226562500000e-01) (100, -4.10223752260208129883e-01) (101, -3.74591112136840820312e-01) (102, 1.52480423450469970703e+00) (103, 5.54702568054199218750e+00) (104, 2.65717864036560058594e+00) (0, 1.56687903404235839844e+00) (1, -7.21858263015747070312e+00) (2, -4.34515810012817382812e+00) (3, -2.69335556030273437500e+00) (4, 1.08564816415309906006e-01) (5, 6.03730154037475585938e+00) (6, 8.31883072853088378906e-01) (7, 1.47864627838134765625e+00) (8, 2.97333025932312011719e+00) (9, 2.17634439468383789062e-01) (10, 2.80810141563415527344e+00) (11, 3.49246412515640258789e-01) (12, 1.93075680732727050781e+00) (13, -9.69693243503570556641e-01) (14, 6.45484507083892822266e-01) (15, -8.99737358093261718750e-01) (16, -5.47550010681152343750e+00) (17, 4.60436642169952392578e-01) (18, -4.24676358699798583984e-01) (19, -8.36573064327239990234e-01) (20, 2.85776162147521972656e+00) (21, 9.83265340328216552734e-01) (22, -6.57078325748443603516e-01) (23, -1.40353465080261230469e+00) (24, -2.08293056488037109375e+00) (25, 1.22632408142089843750e+01) (26, -2.02875638008117675781e+00) (27, 1.15378046035766601562e+00) (28, -1.86761176586151123047e+00) (29, 1.22380943298339843750e+01) (30, -1.23890602588653564453e+00) (31, 3.63419085741043090820e-01) (32, -3.59817706048488616943e-02) (33, -2.58073902130126953125e+00) (34, -9.46125984191894531250e-02) (35, -6.11185646057128906250e+00) (36, -6.65750026702880859375e-01) (37, 2.29813531041145324707e-01) (38, -1.61078619956970214844e+00) (39, 6.83176040649414062500e-01) (40, -1.02932834625244140625e+01) (41, 4.06983518600463867188e+00) (42, 8.39196667075157165527e-02) (43, -1.08658933639526367188e+00) (44, 2.06384992599487304688e+00) (45, 2.17717480659484863281e+00) (46, -2.93734359741210937500e+00) (47, -1.40339112281799316406e+00) (48, 2.59094929695129394531e+00) (49, 1.78350341320037841797e+00) (50, -2.11454105377197265625e+00) (51, -1.45424693822860717773e-01) (52, 6.03292822837829589844e-01) (53, 2.23583266139030456543e-01) (54, -8.47223818302154541016e-01) (55, 1.18598175048828125000e+00) (56, -6.68002665042877197266e-01) (57, -1.05366170406341552734e+00) (58, 2.01568746566772460938e+00) (59, -1.48530292510986328125e+00) (60, -8.57683539390563964844e-01) (61, -1.55829325318336486816e-01) (62, -1.41875970363616943359e+00) (63, 6.46210968494415283203e-01) (64, -6.36856079101562500000e-01) (65, 7.06584751605987548828e-01) (66, -2.71660815924406051636e-02) (67, 6.77391409873962402344e-01) (68, -2.54079431295394897461e-01) (69, -2.92817562818527221680e-01) (70, -1.94355654716491699219e+00) (71, 8.12690436840057373047e-01) (72, -1.42474412918090820312e+00) (73, 2.66306829452514648438e+00) (74, -7.00159430503845214844e-01) (75, 7.67967879772186279297e-01) (76, -2.00263455510139465332e-01) (77, -9.58051860332489013672e-01) (78, -2.45371803641319274902e-01) (79, -1.61891269683837890625e+00) (80, -1.07028789818286895752e-01) (81, -1.36962974071502685547e+00) (82, 9.02094423770904541016e-01) (83, 9.32854771614074707031e-01) (84, -3.17115932703018188477e-01) (85, -3.14600378274917602539e-01) (86, -6.30334094166755676270e-02) (87, -8.89170765876770019531e-01) (88, -1.01107990741729736328e+00) (89, 7.11460784077644348145e-02) (90, 2.28614300489425659180e-01) (91, 8.34315419197082519531e-01) (92, 1.35248875617980957031e+00) (93, -7.65058338642120361328e-01) (94, 2.02701658010482788086e-01) (95, 1.81468456983566284180e-01) (96, 1.07692384719848632812e+00) (97, 2.12767735123634338379e-01) (98, 1.33563947677612304688e+00) (99, 7.89413630962371826172e-01) (100, -3.67751598358154296875e-01) (101, 1.17166742682456970215e-01) (102, -4.55526399612426757812e+00) (103, 1.38653869628906250000e+01) (104, 2.63275361061096191406e+00) (0, 1.87221634387969970703e+00) (1, 7.75163412094116210938e-01) (2, -5.22003471851348876953e-01) (3, 1.15077769756317138672e+00) (4, 1.01747345924377441406e+00) (5, 4.01677370071411132812e+00) (6, -9.79242682456970214844e-01) (7, -1.33810624480247497559e-01) (8, 9.16673183441162109375e-01) (9, 6.53280079364776611328e-01) (10, 2.39694148302078247070e-01) (11, 3.86091917753219604492e-01) (12, -6.18952155113220214844e-01) (13, -2.19590830802917480469e+00) (14, 2.82631546258926391602e-01) (15, -3.77885878086090087891e-01) (16, -4.69144165515899658203e-01) (17, -1.61734744906425476074e-01) (18, -1.60421878099441528320e-01) (19, 2.84900188446044921875e-01) (20, -1.60847201943397521973e-01) (21, -1.12566992640495300293e-01) (22, -1.38099181652069091797e+00) (23, 2.02455088496208190918e-01) (24, -1.41555035114288330078e+00) (25, 6.98497295379638671875e-01) (26, 8.99053990840911865234e-01) (27, -2.73449629545211791992e-01) (28, 2.33984923362731933594e+00) (29, 7.69968032836914062500e-01) (30, -8.34640622138977050781e-01) (31, -1.16125762462615966797e+00) (32, 2.76300400495529174805e-01) (33, -5.49905395507812500000e+00) (34, -1.31243729591369628906e+00) (35, 2.09172868728637695312e+00) (36, -7.00923323631286621094e-01) (37, -2.32932996749877929688e+00) (38, 3.26379895210266113281e-01) (39, 1.53037473559379577637e-01) (40, -6.91974937915802001953e-01) (41, 2.49357759952545166016e-01) (42, -9.37415063381195068359e-01) (43, -7.88895487785339355469e-01) (44, 1.33281898498535156250e+00) (45, 7.05397188663482666016e-01) (46, -1.59098714590072631836e-01) (47, 2.32409715652465820312e+00) (48, -4.01014953851699829102e-01) (49, 1.85895591974258422852e-01) (50, -4.13376659154891967773e-01) (51, -3.18688988685607910156e+00) (52, -6.43083870410919189453e-01) (53, -1.03089094161987304688e+00) (54, -5.31176149845123291016e-01) (55, 2.43455719947814941406e+00) (56, 5.81217184662818908691e-02) (57, 3.19462954998016357422e-01) (58, -2.00593781471252441406e+00) (59, 7.35882103443145751953e-01) (60, -3.97443860769271850586e-01) (61, -1.11991310119628906250e+00) (62, -3.37165147066116333008e-01) (63, 1.36660802364349365234e+00) (64, 1.88629555702209472656e+00) (65, 8.88257861137390136719e-01) (66, 1.37638306617736816406e+00) (67, 2.64582180976867675781e+00) (68, 5.75402438640594482422e-01) (69, -9.81321334838867187500e-01) (70, -3.73697370290756225586e-01) (71, 5.60233771800994873047e-01) (72, 1.27018466591835021973e-01) (73, 1.18214078247547149658e-01) (74, 2.44277529418468475342e-02) (75, 5.44306933879852294922e-01) (76, 5.93637645244598388672e-01) (77, -2.30099812150001525879e-01) (78, -3.30189108848571777344e+00) (79, -4.43610578775405883789e-01) (80, 2.61304235458374023438e+00) (81, 2.40936136245727539062e+00) (82, -4.26137506961822509766e-01) (83, -1.64116108417510986328e+00) (84, -6.93776845932006835938e-01) (85, 2.26321840286254882812e+00) (86, 9.89595949649810791016e-02) (87, -2.33805313706398010254e-01) (88, -1.42304062843322753906e+00) (89, 2.73612594604492187500e+00) (90, 9.75903570652008056641e-01) (91, 4.36372488737106323242e-01) (92, 2.67804235219955444336e-01) (93, -2.03856086730957031250e+00) (94, 2.95145623385906219482e-03) (95, -1.54953086376190185547e+00) (96, -4.06962275505065917969e-01) (97, 4.38738733530044555664e-01) (98, -1.75043344497680664062e+00) (99, 2.10142180323600769043e-01) (100, -1.44217759370803833008e-02) (101, -2.47194170951843261719e+00) (102, 3.30662298202514648438e+00) (103, 3.74244427680969238281e+00) (104, 2.06931042671203613281e+00) (0, 3.36213867187500000000e+02) (1, 1.15868866443634033203e+00) (2, -1.04664362967014312744e-01) (3, 1.47566127777099609375e+00) (4, 8.62833857536315917969e-01) (5, 2.03827691078186035156e+00) (6, 1.12023508548736572266e+00) (7, 7.27020680904388427734e-01) (8, 7.62662947177886962891e-01) (9, 5.58578550815582275391e-01) (10, 9.29635226726531982422e-01) (11, 1.14791882038116455078e+00) (12, -1.14391699433326721191e-01) (13, 4.72485828399658203125e+00) (14, 1.67429721355438232422e+00) (15, 9.73029971122741699219e-01) (16, 1.71255218982696533203e+00) (17, 1.78815364837646484375e+00) (18, 1.24576127529144287109e+00) (19, 1.09685719013214111328e+00) (20, 1.37791001796722412109e+00) (21, -6.43533691763877868652e-02) (22, 9.12729799747467041016e-01) (23, 1.64074218273162841797e+00) (24, 1.48757135868072509766e+00) (25, -1.21011920273303985596e-01) (26, 9.35662567615509033203e-01) (27, 1.15171253681182861328e+00) (28, 1.11584234237670898438e+00) (29, 3.18296477198600769043e-02) (30, 1.12847971916198730469e+00) (31, 5.32692623138427734375e+00) (32, 1.22362330555915832520e-01) (33, 1.80927789211273193359e+00) (34, 9.80330407619476318359e-01) (35, 1.47434389591217041016e+00) (36, 8.90659809112548828125e-01) (37, 2.07665637135505676270e-01) (38, 1.33263683319091796875e+00) (39, 1.19995796680450439453e+00) (40, 1.01110525429248809814e-01) (41, 3.22822570800781250000e+01) (42, 1.58777721226215362549e-02) (43, 1.31446011364459991455e-02) (44, 2.09470197558403015137e-01) (45, 9.04939696192741394043e-02) (46, 1.37574243545532226562e+00) (47, 1.67977142333984375000e+00) (48, 1.80314826965332031250e+00) (49, 1.01001417636871337891e+00) (50, 1.83636927604675292969e+00) (51, 1.85319304466247558594e+00) (52, 1.75037956237792968750e+00) (53, 3.33049368858337402344e+00) (54, 8.92347931861877441406e-01) (55, 2.77414512634277343750e+00) (56, 4.49488341808319091797e-01) (57, -3.13159048557281494141e-01) (58, 2.17281188964843750000e+02) (59, 1.33795964717864990234e+00) (60, 8.35830271244049072266e-01) (61, 1.62348377704620361328e+00) (62, -3.10530990362167358398e-01) (63, 9.26008582115173339844e-01) (64, 4.56632703542709350586e-01) (65, 8.23399662971496582031e-01) (66, -7.06650853157043457031e-01) (67, -2.10136532783508300781e-01) (68, 7.94365167617797851562e-01) (69, 2.34385296702384948730e-01) (70, 8.96052479743957519531e-01) (71, 5.42302250862121582031e-01) (72, 9.87902164459228515625e-01) (73, 1.65878856182098388672e+00) (74, 1.37264326214790344238e-01) (75, 9.08074557781219482422e-01) (76, 7.66439676284790039062e-01) (77, 9.91524994373321533203e-01) (78, 2.49180078506469726562e-01) (79, 4.51199591159820556641e-01) (80, 1.34640765190124511719e+00) (81, 4.99214887619018554688e-01) (82, 6.04628503322601318359e-01) (83, 7.72581100463867187500e-01) (84, 1.07638168334960937500e+00) (85, 1.33518266677856445312e+00) (86, 3.24249826371669769287e-02) (87, -5.81294447183609008789e-02) (88, 1.50980246067047119141e+00) (89, 9.54935491085052490234e-01) (90, 2.53020107746124267578e-01) (91, 8.76386702060699462891e-01) (92, 9.23812270164489746094e-01) (93, 8.45117628574371337891e-01) (94, 9.76795017719268798828e-01) (95, 1.03466570377349853516e+00) (96, -4.46114949882030487061e-02) (97, 8.78770768642425537109e-01) (98, 1.17171978950500488281e+00) (99, 1.05356621742248535156e+00) (100, 9.03571188449859619141e-01) (101, 7.41712674498558044434e-02) (102, -2.39450025558471679688e+00) (103, 8.09133148193359375000e+00) (104, 1.85885846614837646484e+00) (0, -5.72243809700012207031e-01) (1, -6.06151044368743896484e-01) (2, 1.01745736598968505859e+00) (3, 8.04206132888793945312e-01) (4, 6.42930805683135986328e-01) (5, -1.55901753902435302734e+00) (6, -4.82645362615585327148e-01) (7, -1.95389688014984130859e+00) (8, 1.37951064109802246094e+00) (9, -3.05871590971946716309e-02) (10, -2.93742060661315917969e+00) (11, -2.38203191757202148438e+00) (12, 3.49752932786941528320e-01) (13, 5.58565807342529296875e+00) (14, -3.92341703176498413086e-01) (15, -9.46340113878250122070e-02) (16, -7.01917362213134765625e+00) (17, -1.39484477043151855469e+00) (18, 5.19477224349975585938e+00) (19, 2.41608381271362304688e+00) (20, 5.97906970977783203125e+00) (21, -8.88487637042999267578e-01) (22, 9.24723803997039794922e-01) (23, -6.80230665206909179688e+00) (24, 8.73654842376708984375e+00) (25, 1.96069568395614624023e-01) (26, 1.47001993656158447266e+00) (27, -7.41577327251434326172e-01) (28, 5.77575743198394775391e-01) (29, -3.60389423370361328125e+00) (30, 1.62766301631927490234e+00) (31, -1.08038544654846191406e+00) (32, -5.03787517547607421875e+00) (33, -3.34563702344894409180e-01) (34, -3.27768707275390625000e+00) (35, 8.17517757415771484375e-01) (36, -1.57972919940948486328e+00) (37, -5.08267688751220703125e+00) (38, -4.41376256942749023438e+00) (39, 3.00263500213623046875e+00) (40, 1.01714384555816650391e+00) (41, -5.68536996841430664062e-01) (42, -1.43215703964233398438e+00) (43, -9.11415874958038330078e-01) (44, -7.01548576354980468750e-01) (45, -1.86251267790794372559e-01) (46, 2.56503611803054809570e-01) (47, -1.99533462524414062500e+00) (48, 1.12364268302917480469e+00) (49, -1.03232979774475097656e+00) (50, -6.63111582398414611816e-02) (51, -5.02634525299072265625e-01) (52, -1.14204704761505126953e+00) (53, -4.40544128417968750000e+00) (54, -1.00726604461669921875e+00) (55, -5.70218920707702636719e-01) (56, -7.36311733722686767578e-01) (57, 1.04808521270751953125e+00) (58, -2.54685306549072265625e+00) (59, -1.57495892047882080078e+00) (60, 6.00142180919647216797e-01) (61, 5.64199507236480712891e-01) (62, 6.69270038604736328125e-01) (63, -6.20536088943481445312e-01) (64, 1.09053778648376464844e+00) (65, 5.17588913440704345703e-01) (66, -1.43787592649459838867e-01) (67, 7.63084590435028076172e-01) (68, 1.87520220875740051270e-01) (69, 1.15519738197326660156e+00) (70, -3.65542024374008178711e-01) (71, 1.06911861896514892578e+00) (72, -1.80684447288513183594e+00) (73, -7.59604692459106445312e-01) (74, 5.75723469257354736328e-01) (75, 6.85337364673614501953e-01) (76, 7.60768055915832519531e-01) (77, 9.75849926471710205078e-01) (78, -2.32009977102279663086e-01) (79, 4.57070380449295043945e-01) (80, -1.20837473869323730469e+00) (81, 7.70201563835144042969e-01) (82, 3.71741175651550292969e-01) (83, -4.32671368122100830078e-01) (84, -6.85161054134368896484e-01) (85, -3.42255294322967529297e-01) (86, 4.76485431194305419922e-01) (87, 1.12967371940612792969e+00) (88, -6.66226744651794433594e-01) (89, -1.04024529457092285156e-01) (90, -2.72922545671463012695e-01) (91, 1.31217181682586669922e-01) (92, -4.48795288801193237305e-01) (93, 6.19007289409637451172e-01) (94, 8.25447380542755126953e-01) (95, -5.81731975078582763672e-01) (96, 1.11662507057189941406e+00) (97, 1.37953114509582519531e+00) (98, 8.15167278051376342773e-02) (99, -5.71776032447814941406e-01) (100, 6.72065734863281250000e-01) (101, 6.96040391921997070312e-01) (102, -1.49995568847656250000e+03) (103, 1.49997277832031250000e+03) (104, 6.62151694297790527344e-01) (0, 2.07966876029968261719e+00) (1, -5.96085131168365478516e-01) (2, 3.32754589617252349854e-02) (3, 2.43417054414749145508e-01) (4, -5.01851797103881835938e-01) (5, 3.13410490751266479492e-01) (6, 3.60935330390930175781e-01) (7, 4.91142958402633666992e-01) (8, 4.25036877393722534180e-01) (9, 7.67475962638854980469e-02) (10, -9.19619724154472351074e-02) (11, 1.78348183631896972656e-01) (12, 4.68355119228363037109e-01) (13, -8.62004041671752929688e-01) (14, 1.02686119079589843750e+00) (15, 3.59810799360275268555e-01) (16, -6.08013391494750976562e-01) (17, -2.65552520751953125000e-01) (18, 5.26076316833496093750e-01) (19, 5.20408928394317626953e-01) (20, -5.17156958580017089844e-01) (21, 2.28508901596069335938e+00) (22, 4.07278351485729217529e-02) (23, -8.85416507720947265625e-01) (24, -4.11712765693664550781e-01) (25, 1.07664549350738525391e+00) (26, -8.72987687587738037109e-01) (27, -2.56522726267576217651e-02) (28, -3.64993512630462646484e-01) (29, 1.03499621152877807617e-01) (30, 2.22823694348335266113e-01) (31, -9.99262750148773193359e-01) (32, 9.90791544318199157715e-02) (33, -6.64263188838958740234e-01) (34, 1.27768650650978088379e-01) (35, -8.43407392501831054688e-01) (36, 1.73654973506927490234e-01) (37, -4.27628576755523681641e-01) (38, 3.97814661264419555664e-01) (39, 3.40134531259536743164e-01) (40, 6.16195082664489746094e-01) (41, 1.00995206832885742188e+00) (42, 2.29456022381782531738e-01) (43, 9.46466982364654541016e-01) (44, 8.64588081836700439453e-01) (45, 7.48013138771057128906e-01) (46, -4.42856848239898681641e-01) (47, -1.03382611274719238281e+00) (48, 4.40758615732192993164e-01) (49, 4.08031672239303588867e-01) (50, 5.50056934356689453125e-01) (51, -4.81011152267456054688e-01) (52, 1.87986195087432861328e-01) (53, 2.26032599806785583496e-01) (54, 1.41886878013610839844e+00) (55, 5.47574162483215332031e-01) (56, -9.28414538502693176270e-02) (57, 1.91523537039756774902e-01) (58, -8.24146866798400878906e-01) (59, 3.98583412170410156250e-01) (60, 1.15006789565086364746e-01) (61, -3.28722536563873291016e-01) (62, 4.15891319513320922852e-01) (63, -7.82951891422271728516e-01) (64, 5.62126517295837402344e-01) (65, -6.71449482440948486328e-01) (66, 3.37510079145431518555e-01) (67, 2.99005210399627685547e-01) (68, 4.26457017660140991211e-01) (69, -4.34363573789596557617e-01) (70, 2.06934571266174316406e-01) (71, 2.17144027352333068848e-01) (72, 6.62660524249076843262e-02) (73, 9.35781478881835937500e-01) (74, -2.50034481287002563477e-01) (75, -4.78220283985137939453e-01) (76, 5.08405029773712158203e-01) (77, -6.32396697998046875000e-01) (78, -3.59328299760818481445e-01) (79, -8.13560128211975097656e-01) (80, 5.64422667026519775391e-01) (81, 1.10982596874237060547e-01) (82, -5.57172954082489013672e-01) (83, -3.55379521846771240234e-01) (84, 1.21049903333187103271e-01) (85, 2.51855611801147460938e-01) (86, -6.29851996898651123047e-01) (87, 9.71967995166778564453e-01) (88, -6.31166815757751464844e-01) (89, -4.13388788700103759766e-01) (90, -5.82065507769584655762e-02) (91, -1.04217767715454101562e+00) (92, -2.49023348093032836914e-01) (93, -5.31356990337371826172e-01) (94, -5.40986120700836181641e-01) (95, -7.21164166927337646484e-01) (96, 5.11757194995880126953e-01) (97, 3.85107100009918212891e-02) (98, -1.04464399814605712891e+00) (99, -1.51951789855957031250e-01) (100, -5.67562997341156005859e-01) (101, -4.34844225645065307617e-01) (102, 1.09251976013183593750e+00) (103, 1.42400038242340087891e+00) (104, 2.42097282409667968750e+00) (0, 1.04465881347656250000e+02) (1, -2.89453911781311035156e+00) (2, 1.94659841060638427734e+00) (3, 2.26223751902580261230e-01) (4, 2.90365964174270629883e-01) (5, 7.67472207546234130859e-01) (6, 1.38311231136322021484e+00) (7, 9.25148367881774902344e-01) (8, 1.73864269256591796875e+00) (9, 1.54923129081726074219e+00) (10, 1.00748121738433837891e+00) (11, 9.33493673801422119141e-01) (12, 1.87017393112182617188e+00) (13, -7.57351589202880859375e+00) (14, 9.19138431549072265625e-01) (15, 9.46595907211303710938e-01) (16, 9.35111045837402343750e-01) (17, 9.16709482669830322266e-01) (18, 1.17512464523315429688e+00) (19, 1.01636993885040283203e+00) (20, 8.38033318519592285156e-01) (21, 2.07266330718994140625e+00) (22, 1.26407158374786376953e+00) (23, 2.87943422794342041016e-01) (24, 1.16148996353149414062e+00) (25, 1.98375236988067626953e+00) (26, 7.75974810123443603516e-01) (27, 7.10821866989135742188e-01) (28, 1.00511801242828369141e+00) (29, 1.81460809707641601562e+00) (30, 4.03332352638244628906e-01) (31, 3.17988514900207519531e-01) (32, 1.69829094409942626953e+00) (33, 2.21097394824028015137e-01) (34, 1.66055977344512939453e+00) (35, 6.84274852275848388672e-01) (36, 8.22775363922119140625e-01) (37, 1.73013782501220703125e+00) (38, 3.06794017553329467773e-01) (39, 8.75537037849426269531e-01) (40, 1.93414890766143798828e+00) (41, 1.68032944202423095703e+00) (42, 1.42441666126251220703e+00) (43, 5.88979542255401611328e-01) (44, 1.32238471508026123047e+00) (45, 1.22594738006591796875e+00) (46, 1.34513095021247863770e-01) (47, 9.46186244487762451172e-01) (48, -5.45792169868946075439e-02) (49, 4.18648570775985717773e-01) (50, -1.04667730629444122314e-01) (51, 1.83751108124852180481e-03) (52, 1.05387188494205474854e-01) (53, -4.13937717676162719727e-01) (54, 3.70844960212707519531e-01) (55, -2.56269574165344238281e+00) (56, 1.33129906654357910156e+00) (57, 1.19630277156829833984e+00) (58, -2.26929206848144531250e+01) (59, 1.55831500887870788574e-01) (60, 5.76814532279968261719e-01) (61, 3.79745773971080780029e-02) (62, 2.13983774185180664062e+00) (63, 3.96936595439910888672e-01) (64, 1.34127759933471679688e+00) (65, 4.12433922290802001953e-01) (66, 8.11087799072265625000e+00) (67, 1.60885639190673828125e+01) (68, 7.56609201431274414062e-01) (69, 1.62994757294654846191e-01) (70, 5.42080581188201904297e-01) (71, 9.00314033031463623047e-01) (72, 3.82768034934997558594e-01) (73, 1.54556159973144531250e+01) (74, 1.30650603771209716797e+00) (75, 2.01408309936523437500e+01) (76, 1.25220358371734619141e+00) (77, 4.18255299329757690430e-01) (78, 3.67724090814590454102e-01) (79, 3.75715732574462890625e-01) (80, -1.33959248661994934082e-01) (81, 1.15027773380279541016e+00) (82, 6.91430941224098205566e-02) (83, -1.16644442081451416016e-01) (84, 7.60624110698699951172e-01) (85, 5.64855217933654785156e-01) (86, 1.34176373481750488281e+00) (87, 1.57892990112304687500e+00) (88, 1.16883695125579833984e+00) (89, 3.58648717403411865234e-01) (90, 1.20638442039489746094e+00) (91, -1.58804848790168762207e-01) (92, 1.33987927436828613281e+00) (93, 8.15185368061065673828e-01) (94, 1.18749320507049560547e+00) (95, -6.74722790718078613281e-02) (96, 1.44746935367584228516e+00) (97, 1.09818220138549804688e+00) (98, 3.98496925830841064453e-01) (99, 3.26947003602981567383e-01) (100, 4.23864722251892089844e-01) (101, 8.69996786117553710938e-01) (102, 7.21076107025146484375e+00) (103, 9.82819318771362304688e-01) (104, 5.27709007263183593750e-01) (0, -1.40687885284423828125e+01) (1, 9.57989156246185302734e-01) (2, 2.32637596130371093750e+00) (3, 1.29337084293365478516e+00) (4, 1.45197296142578125000e+00) (5, 9.74493443965911865234e-01) (6, 8.38018059730529785156e-01) (7, 2.10881257057189941406e+00) (8, 2.18908929824829101562e+00) (9, 1.77489173412322998047e+00) (10, 1.30005216598510742188e+00) (11, 1.21810364723205566406e+00) (12, 2.00397133827209472656e+00) (13, -3.20391774177551269531e+00) (14, 8.16999197006225585938e-01) (15, 1.58078002929687500000e+00) (16, 1.84911683201789855957e-01) (17, 3.15695285797119140625e-01) (18, 1.56994199752807617188e+00) (19, 8.43933582305908203125e-01) (20, 6.53834700584411621094e-01) (21, 1.85276818275451660156e+00) (22, 1.62198269367218017578e+00) (23, 2.87186384201049804688e-01) (24, 9.58988845348358154297e-01) (25, 1.53832805156707763672e+00) (26, 8.42806279659271240234e-01) (27, 1.12343966960906982422e+00) (28, 1.10702228546142578125e+00) (29, 8.92994046211242675781e-01) (30, 9.64717388153076171875e-01) (31, -1.19169764220714569092e-01) (32, 8.81080448627471923828e-01) (33, -2.90229082107543945312e-01) (34, 1.07549846172332763672e+00) (35, 3.95413368940353393555e-01) (36, 9.14209365844726562500e-01) (37, 5.70657193660736083984e-01) (38, 8.84785056114196777344e-02) (39, 2.46435090899467468262e-01) (40, 1.21206557750701904297e+00) (41, 1.62962508201599121094e+00) (42, 4.81506615877151489258e-01) (43, 8.08381676673889160156e-01) (44, 1.08008131384849548340e-01) (45, 4.60270673036575317383e-01) (46, 6.61297976970672607422e-01) (47, 1.22384399175643920898e-01) (48, -1.05717897415161132812e-01) (49, -3.92146892845630645752e-02) (50, -2.48279243707656860352e-01) (51, -1.28468275070190429688e-02) (52, 3.34739163517951965332e-02) (53, -1.37808501720428466797e-01) (54, 2.51452982425689697266e-01) (55, -7.22960853576660156250e+00) (56, 5.81896305084228515625e-01) (57, 1.46146953105926513672e+00) (58, -2.53910427093505859375e+01) (59, 7.17052042484283447266e-01) (60, 1.09194540977478027344e+00) (61, -2.46290683746337890625e+00) (62, 1.97868871688842773438e+00) (63, 3.43713283538818359375e-01) (64, 1.34070014953613281250e+00) (65, 1.07803988456726074219e+00) (66, 2.94928436279296875000e+01) (67, 4.45659685134887695312e+00) (68, 2.13886022567749023438e+00) (69, 6.90163195133209228516e-01) (70, 1.11557030677795410156e+00) (71, 8.83430182933807373047e-01) (72, 6.45167946815490722656e-01) (73, 2.11055564880371093750e+00) (74, 5.92530667781829833984e-01) (75, 9.81405854225158691406e-01) (76, 7.79907763004302978516e-01) (77, 5.04135787487030029297e-01) (78, 7.64707267284393310547e-01) (79, -3.65246146917343139648e-01) (80, -9.65255796909332275391e-02) (81, 1.04011762142181396484e+00) (82, 3.79435837268829345703e-01) (83, -2.81757664680480957031e+00) (84, 7.01069474220275878906e-01) (85, 4.17968183755874633789e-02) (86, 5.09104609489440917969e-01) (87, 1.10941696166992187500e+00) (88, 1.89420199394226074219e+00) (89, 1.00673489272594451904e-01) (90, 8.94244372844696044922e-01) (91, -2.38244965672492980957e-01) (92, 4.63139981031417846680e-01) (93, 9.42838966846466064453e-01) (94, 4.06958937644958496094e-01) (95, -6.77163377404212951660e-02) (96, 1.46615254878997802734e+00) (97, 7.49556303024291992188e-01) (98, 1.44627615809440612793e-01) (99, 5.63640713691711425781e-01) (100, 3.49713683128356933594e-01) (101, 4.00014638900756835938e-01) (102, 2.48545503616333007812e+00) (103, 6.71097517013549804688e+00) (104, 4.88314509391784667969e-01) (0, 2.20270156860351562500e+00) (1, 1.40323615074157714844e+00) (2, 1.24333453178405761719e+00) (3, 3.15685510635375976562e-01) (4, -6.49369060993194580078e-01) (5, 6.48622632026672363281e-01) (6, 7.89418041706085205078e-01) (7, -1.15769314765930175781e+00) (8, 7.81105458736419677734e-01) (9, 3.20887875556945800781e+00) (10, 1.34091103076934814453e+00) (11, -1.03841960430145263672e+00) (12, -2.33540490269660949707e-01) (13, -1.82676506042480468750e+00) (14, -6.94588184356689453125e-01) (15, -1.51298064738512039185e-02) (16, 9.89983320236206054688e-01) (17, 1.57824501395225524902e-01) (18, -6.21408641338348388672e-01) (19, 1.10119175910949707031e+00) (20, 8.87125611305236816406e-01) (21, 8.57403874397277832031e-02) (22, 7.26304948329925537109e-02) (23, -7.16417074203491210938e-01) (24, 4.22744840383529663086e-01) (25, 3.05383682250976562500e+00) (26, 1.15574002265930175781e+00) (27, 1.12699195742607116699e-02) (28, -6.51994571089744567871e-02) (29, -1.66450607776641845703e+00) (30, -5.70546209812164306641e-01) (31, 7.50834524631500244141e-01) (32, -1.69007563591003417969e+00) (33, 1.20045614242553710938e+00) (34, -9.02921855449676513672e-01) (35, -1.50653433799743652344e+00) (36, 1.20625197887420654297e+00) (37, 2.02838850021362304688e+00) (38, 7.33449339866638183594e-01) (39, 4.33917075395584106445e-01) (40, -3.77599865198135375977e-01) (41, 1.74899101257324218750e+00) (42, -7.18448698520660400391e-01) (43, 3.29256558418273925781e+00) (44, -2.78508633375167846680e-01) (45, 2.85074591636657714844e+00) (46, -6.04788541793823242188e-01) (47, 7.00745344161987304688e-01) (48, 6.10155403614044189453e-01) (49, 6.60576045513153076172e-01) (50, 4.92473393678665161133e-01) (51, 9.08843040466308593750e-01) (52, -6.55403584241867065430e-02) (53, -2.72951126098632812500e-01) (54, 1.50551009178161621094e+00) (55, -6.12032175064086914062e+00) (56, -5.97719311714172363281e-01) (57, -7.63831675052642822266e-01) (58, 7.28197872638702392578e-01) (59, 9.19848620891571044922e-01) (60, -5.82272469997406005859e-01) (61, -3.81827163696289062500e+00) (62, 1.81232154369354248047e-01) (63, 2.40378573536872863770e-01) (64, 6.07583820819854736328e-01) (65, 6.72047674655914306641e-01) (66, 1.88396728038787841797e+00) (67, -8.63544344902038574219e-01) (68, -6.28306925296783447266e-01) (69, -2.33899921178817749023e-01) (70, -5.89606583118438720703e-01) (71, -4.89122271537780761719e-01) (72, -3.66500169038772583008e-02) (73, 8.06623339653015136719e-01) (74, 5.59364557266235351562e-01) (75, -1.07865297794342041016e+00) (76, -2.61757940053939819336e-01) (77, -8.35797727108001708984e-01) (78, -6.34137094020843505859e-01) (79, 3.27331908047199249268e-02) (80, -7.55132913589477539062e-01) (81, 1.62318587303161621094e-01) (82, -7.17389762401580810547e-01) (83, -8.17689418792724609375e-01) (84, 1.98881125450134277344e+00) (85, 1.10463643074035644531e+00) (86, -6.28783226013183593750e-01) (87, -8.31875979900360107422e-01) (88, -7.86920607089996337891e-01) (89, 8.34728404879570007324e-02) (90, -1.48176878690719604492e-01) (91, -1.66135624051094055176e-01) (92, 1.18754036724567413330e-01) (93, 5.94918802380561828613e-02) (94, -4.26455825567245483398e-01) (95, 8.41284871101379394531e-01) (96, -1.35533249378204345703e+00) (97, -7.91108250617980957031e-01) (98, -3.13773006200790405273e-01) (99, -4.00741063058376312256e-02) (100, -5.37905752658843994141e-01) (101, -7.14724600315093994141e-01) (102, -2.93851017951965332031e+00) (103, 1.25989074707031250000e+01) (104, 2.09717679023742675781e+00) (0, 1.05153238773345947266e+00) (1, 3.14766097068786621094e+00) (2, -1.75779923796653747559e-01) (3, 9.91268277168273925781e-01) (4, 1.59050869941711425781e+00) (5, -3.07733917236328125000e+00) (6, 9.05383303761482238770e-02) (7, -2.64732331037521362305e-01) (8, 1.65646481513977050781e+00) (9, -5.55178642272949218750e-01) (10, -4.12232488393783569336e-01) (11, 1.70875692367553710938e+00) (12, 1.87950527667999267578e+00) (13, -9.12051320075988769531e-01) (14, 2.45787811279296875000e+00) (15, 1.29503893852233886719e+00) (16, 3.16493535041809082031e+00) (17, -2.64243841171264648438e+00) (18, 1.66481542587280273438e+00) (19, -5.08593380451202392578e-01) (20, 1.13193631172180175781e-01) (21, -4.49537706375122070312e+00) (22, -1.18635368347167968750e+00) (23, 4.16648268699645996094e-01) (24, -4.41318702697753906250e+00) (25, 2.31166458129882812500e+00) (26, -1.66607689857482910156e+00) (27, 3.40828061103820800781e-01) (28, -1.23216676712036132812e+00) (29, 1.60593652725219726562e+00) (30, -9.38203275203704833984e-01) (31, 2.51946687698364257812e-01) (32, -7.97957956790924072266e-01) (33, -8.42123210430145263672e-01) (34, 1.95229157805442810059e-01) (35, -3.34875226020812988281e+00) (36, 3.47975820302963256836e-01) (37, -7.37184166908264160156e-01) (38, -3.56700837612152099609e-01) (39, 6.73384070396423339844e-01) (40, 2.26487016677856445312e+00) (41, 1.30404329299926757812e+00) (42, 1.16857457160949707031e+00) (43, 1.99224337935447692871e-01) (44, 8.91356229782104492188e-01) (45, 5.27950823307037353516e-01) (46, 1.77282798290252685547e+00) (47, 1.29077458381652832031e+00) (48, -6.53056085109710693359e-01) (49, 2.81004428863525390625e-01) (50, -3.16236168146133422852e-03) (51, -9.36507061123847961426e-02) (52, 2.91860342025756835938e-01) (53, -1.13737118244171142578e+00) (54, 1.11607825756072998047e+00) (55, -4.42336440086364746094e-01) (56, 1.25983917713165283203e+00) (57, 5.23213267326354980469e-01) (58, -7.94390916824340820312e-01) (59, 3.74833524227142333984e-01) (60, 4.20434810221195220947e-02) (61, -6.49465799331665039062e-01) (62, 3.80472898483276367188e-01) (63, -5.47035157680511474609e-01) (64, 2.40903973579406738281e-01) (65, 1.06918621063232421875e+00) (66, 1.28629553318023681641e+00) (67, 1.08565187454223632812e+00) (68, 3.50179709494113922119e-02) (69, -4.47680205106735229492e-01) (70, -2.76870131492614746094e-01) (71, 1.30308389663696289062e+00) (72, -8.68914067745208740234e-01) (73, -9.58946049213409423828e-02) (74, -3.54334741830825805664e-01) (75, -6.71792626380920410156e-01) (76, -1.71784436702728271484e+00) (77, -7.25513398647308349609e-02) (78, -1.08811473846435546875e+00) (79, -6.68836116790771484375e-01) (80, -1.52590483427047729492e-01) (81, 7.98907577991485595703e-02) (82, -5.37433743476867675781e-01) (83, 8.51688012480735778809e-02) (84, -2.29352638125419616699e-01) (85, 1.29801854491233825684e-01) (86, 7.57501959800720214844e-01) (87, 9.86091375350952148438e-01) (88, -1.56133949756622314453e-01) (89, -2.69066244363784790039e-01) (90, 3.66583883762359619141e-01) (91, 9.39910829067230224609e-01) (92, -6.35723650455474853516e-01) (93, -2.32828557491302490234e-01) (94, -5.29133796691894531250e-01) (95, -9.32411909103393554688e-01) (96, -4.29060339927673339844e-01) (97, -4.60292339324951171875e-01) (98, -4.21262681484222412109e-01) (99, -7.49164223670959472656e-01) (100, -5.06292819976806640625e-01) (101, -6.20347738265991210938e-01) (102, -1.49995568847656250000e+03) (103, 1.49997277832031250000e+03) (104, 2.52647495269775390625e+00) (0, -1.15422868728637695312e+00) (1, 3.74899536371231079102e-01) (2, -9.43575739860534667969e-01) (3, 7.61744305491447448730e-02) (4, 1.04385328292846679688e+00) (5, 2.38611340522766113281e+00) (6, -3.67247551679611206055e-01) (7, -1.24434876441955566406e+00) (8, -1.86412483453750610352e-01) (9, -6.45469188690185546875e-01) (10, -3.11379981040954589844e+00) (11, -2.64563828706741333008e-01) (12, -1.69834792613983154297e+00) (13, -5.36933064460754394531e-01) (14, -1.14279663562774658203e+00) (15, 8.96193623542785644531e-01) (16, -1.03951036930084228516e+00) (17, -3.36545062065124511719e+00) (18, 6.04206800460815429688e+00) (19, -6.87921881675720214844e-01) (20, 4.26915788650512695312e+00) (21, 1.08094429969787597656e+00) (22, -3.87437902390956878662e-02) (23, 6.50241196155548095703e-01) (24, -3.22527337074279785156e+00) (25, -5.92422485351562500000e+00) (26, -7.15011930465698242188e+00) (27, -7.25902032852172851562e+00) (28, -2.67987656593322753906e+00) (29, 4.92687320709228515625e+00) (30, -4.87842708826065063477e-01) (31, 1.13896179199218750000e+00) (32, 3.39131784439086914062e+00) (33, -2.10965728759765625000e+00) (34, 2.81378316879272460938e+00) (35, -4.36554729938507080078e-01) (36, -8.85188674926757812500e+00) (37, 6.99852883815765380859e-01) (38, -6.94919407367706298828e-01) (39, -2.72822588682174682617e-01) (40, 1.71229302883148193359e-01) (41, 9.73009347915649414062e-01) (42, -1.13696134090423583984e+00) (43, 1.42491161823272705078e+00) (44, -1.54777944087982177734e+00) (45, 1.99265336990356445312e+00) (46, -5.01970589160919189453e-01) (47, -1.81331232190132141113e-01) (48, 2.36527657508850097656e+00) (49, 6.79052543640136718750e+00) (50, 2.25117993354797363281e+00) (51, 9.01040673255920410156e-01) (52, -1.24904960393905639648e-01) (53, -4.17211389541625976562e+00) (54, 6.95982575416564941406e-01) (55, 6.97602033615112304688e-01) (56, -9.09240007400512695312e-01) (57, -2.28643953800201416016e-01) (58, 1.99538037180900573730e-01) (59, -1.03664815425872802734e+00) (60, 9.75746870040893554688e-01) (61, 1.56836903095245361328e+00) (62, 2.50950336456298828125e+00) (63, 2.76881307363510131836e-01) (64, 1.64676535129547119141e+00) (65, 9.47395920753479003906e-01) (66, 3.23917150497436523438e+00) (67, 1.13483202457427978516e+00) (68, -6.73499941825866699219e-01) (69, -2.92857289314270019531e-01) (70, -1.47506833076477050781e+00) (71, -1.61538362503051757812e+00) (72, 1.86869347095489501953e+00) (73, 1.20976813137531280518e-01) (74, -7.18760848045349121094e-01) (75, -8.60173478722572326660e-02) (76, -2.21889600157737731934e-01) (77, -6.36492252349853515625e-01) (78, 1.33626237511634826660e-01) (79, 4.99534666538238525391e-01) (80, 4.02354210615158081055e-01) (81, -4.96835857629776000977e-01) (82, -2.59741574525833129883e-01) (83, -3.02327908575534820557e-02) (84, 2.41240963339805603027e-01) (85, 3.90995889902114868164e-02) (86, -6.36377692222595214844e-01) (87, -8.68683755397796630859e-01) (88, 7.03601479530334472656e-01) (89, 1.14820867776870727539e-01) (90, -1.11798398196697235107e-01) (91, -3.33996087312698364258e-01) (92, -7.27210819721221923828e-01) (93, -4.51535135507583618164e-01) (94, -4.35682445764541625977e-01) (95, -4.67562824487686157227e-01) (96, -8.40734899044036865234e-01) (97, -6.97091400623321533203e-01) (98, -4.60765302181243896484e-01) (99, 4.82202433049678802490e-02) (100, -6.38465583324432373047e-01) (101, -5.07257699966430664062e-01) (102, 1.75142776966094970703e+00) (103, 5.91686296463012695312e+00) (104, 2.67470383644104003906e+00) (0, 2.87873530387878417969e+00) (1, 5.27891635894775390625e-01) (2, 4.85974758863449096680e-01) (3, -1.01096689701080322266e+00) (4, -1.28843680024147033691e-01) (5, 1.91440439224243164062e+00) (6, 5.51767051219940185547e-01) (7, 8.29070582985877990723e-02) (8, -1.14986911416053771973e-01) (9, 1.11383640766143798828e+00) (10, 1.00179143249988555908e-01) (11, -4.93495166301727294922e-01) (12, 2.15828329324722290039e-01) (13, 2.96298265457153320312e-01) (14, -1.32743918895721435547e+00) (15, 1.18264675140380859375e+00) (16, 4.05137091875076293945e-01) (17, 1.68929249048233032227e-01) (18, -7.97591149806976318359e-01) (19, -4.05869334936141967773e-01) (20, -4.81562167406082153320e-01) (21, 2.83546161651611328125e+00) (22, -5.98313689231872558594e-01) (23, -1.80357766151428222656e+00) (24, 4.16635799407958984375e+00) (25, 1.02465391159057617188e+00) (26, -5.13860940933227539062e-01) (27, -1.10977478325366973877e-01) (28, 2.42295965552330017090e-01) (29, 1.77656996250152587891e+00) (30, -6.10956132411956787109e-01) (31, -1.33412390947341918945e-01) (32, 7.25604057312011718750e-01) (33, -2.53777533769607543945e-01) (34, -6.19920611381530761719e-01) (35, 1.14559733867645263672e+00) (36, 1.77428317070007324219e+00) (37, -1.11637330055236816406e+00) (38, -3.61535280942916870117e-01) (39, -5.44364452362060546875e-01) (40, 1.06918297708034515381e-01) (41, 1.19202888011932373047e+00) (42, -6.57594084739685058594e-01) (43, -8.61241579055786132812e-01) (44, 1.39330208301544189453e+00) (45, -1.19731771945953369141e+00) (46, -3.50525951385498046875e+00) (47, -1.74714788794517517090e-01) (48, 5.51418638229370117188e+00) (49, 1.05592989921569824219e+00) (50, -9.17910337448120117188e-01) (51, -1.23636031150817871094e+00) (52, -7.24551796913146972656e-01) (53, -9.56211447715759277344e-01) (54, -4.76954162120819091797e-01) (55, -8.11060488224029541016e-01) (56, 8.84442687034606933594e-01) (57, -6.59703433513641357422e-01) (58, -9.73241388797760009766e-01) (59, 3.61715704202651977539e-01) (60, 8.47682654857635498047e-02) (61, -4.65282440185546875000e-01) (62, 7.42066621780395507812e-01) (63, 1.17792546749114990234e-01) (64, -5.63312113285064697266e-01) (65, -3.41341286897659301758e-01) (66, 8.65777969360351562500e-01) (67, 2.70551300048828125000e+00) (68, -3.31670343875885009766e-01) (69, -2.89126873016357421875e-01) (70, 1.10262021422386169434e-01) (71, 2.16038245707750320435e-02) (72, -3.46697270870208740234e-01) (73, 9.84489262104034423828e-01) (74, -4.52820993959903717041e-02) (75, 5.38157582283020019531e-01) (76, 1.95766448974609375000e-01) (77, 2.12638556957244873047e-01) (78, 4.72495779395103454590e-02) (79, -4.71062898635864257812e-01) (80, 9.25247073173522949219e-01) (81, 1.05396759510040283203e+00) (82, 5.22798717021942138672e-01) (83, -6.24216914176940917969e-01) (84, -1.24754793941974639893e-02) (85, -6.28022789955139160156e-01) (86, 2.70514547824859619141e-01) (87, -6.49828433990478515625e-01) (88, -5.03918170928955078125e-01) (89, -1.09169729053974151611e-01) (90, -6.85574471950531005859e-01) (91, -5.08787035942077636719e-01) (92, -6.36227607727050781250e-01) (93, 9.54001426696777343750e-01) (94, -7.61060833930969238281e-01) (95, -1.06762158870697021484e+00) (96, 3.21281999349594116211e-01) (97, -7.20210194587707519531e-01) (98, -7.00665354728698730469e-01) (99, -6.46322369575500488281e-01) (100, -7.32008814811706542969e-01) (101, 6.44203364849090576172e-01) (102, -1.49995568847656250000e+03) (103, 1.49997277832031250000e+03) (104, 2.56601023674011230469e+00) (0, -2.40785179138183593750e+01) (1, -3.58467578887939453125e+00) (2, 2.04678153991699218750e+00) (3, 3.46288919448852539062e-01) (4, 1.54017531871795654297e+00) (5, 8.91108632087707519531e-01) (6, 4.77854132652282714844e-01) (7, -2.05395221710205078125e+00) (8, 6.91136264801025390625e+00) (9, 2.74432277679443359375e+00) (10, -7.06441640853881835938e+00) (11, 1.58451151847839355469e+00) (12, 1.26896858215332031250e-01) (13, -1.35536193847656250000e+00) (14, -1.23448836803436279297e+00) (15, 1.33779335021972656250e+00) (16, -1.60255527496337890625e+00) (17, -2.40099787712097167969e+00) (18, 3.70033979415893554688e+00) (19, -7.84350931644439697266e-02) (20, 1.62726473808288574219e+00) (21, -3.47916632890701293945e-01) (22, -9.20929387211799621582e-03) (23, 1.27687573432922363281e+00) (24, 1.41997742652893066406e+00) (25, -1.16688642501831054688e+01) (26, 6.01457715034484863281e-01) (27, 1.59394800662994384766e-01) (28, -6.76861882209777832031e-01) (29, 2.38556218147277832031e+00) (30, -2.20217511057853698730e-01) (31, -3.01194339990615844727e-01) (32, -2.66779375076293945312e+00) (33, 1.21365118026733398438e+00) (34, -2.33837747573852539062e+00) (35, -1.10462594032287597656e+00) (36, 1.47501158714294433594e+00) (37, 5.52974402904510498047e-01) (38, 4.67628985643386840820e-01) (39, -1.95029604434967041016e+00) (40, 1.48647880554199218750e+00) (41, 3.13998770713806152344e+00) (42, 1.74677538871765136719e+00) (43, 1.54131495952606201172e+00) (44, 5.74348449707031250000e+00) (45, 7.32023239135742187500e-01) (46, -7.95369267463684082031e-01) (47, 3.35468554496765136719e+00) (48, 1.02006280422210693359e+00) (49, 6.93573713302612304688e-01) (50, -5.04817366600036621094e-01) (51, -7.87661746144294738770e-02) (52, 3.77102762460708618164e-01) (53, -7.23798930644989013672e-01) (54, 3.43080615997314453125e+00) (55, -8.73093485832214355469e-01) (56, 1.78733277320861816406e+00) (57, -3.41839998960494995117e-01) (58, -1.65691757202148437500e+00) (59, 5.33989715576171875000e+00) (60, -1.54227882623672485352e-01) (61, 9.36937749385833740234e-01) (62, 5.25046157836914062500e+00) (63, 8.22682976722717285156e-01) (64, 2.84618806838989257812e+00) (65, 1.77394524216651916504e-01) (66, -2.67259567975997924805e-01) (67, 8.51750135421752929688e-01) (68, 7.11425662040710449219e-01) (69, 7.89422988891601562500e-01) (70, 8.75063955783843994141e-01) (71, 8.89750272035598754883e-02) (72, -1.16746973991394042969e+00) (73, -1.01569175720214843750e+00) (74, 1.26820290088653564453e+00) (75, 1.99572098255157470703e+00) (76, 8.19615483283996582031e-01) (77, 1.22046029567718505859e+00) (78, 8.45893204212188720703e-01) (79, 6.49317562580108642578e-01) (80, 1.43067753314971923828e+00) (81, 2.98091149330139160156e+00) (82, -1.10323941707611083984e+00) (83, 1.07069551944732666016e+00) (84, -1.54977524280548095703e+00) (85, 4.77919995784759521484e-01) (86, 2.09844887256622314453e-01) (87, 8.27867686748504638672e-02) (88, -1.43585383892059326172e-01) (89, 7.47450113296508789062e-01) (90, 3.93463760614395141602e-01) (91, -1.00214958190917968750e+00) (92, 8.26647102832794189453e-01) (93, 1.20439310558140277863e-03) (94, 1.11238574981689453125e+00) (95, -8.94618749618530273438e-01) (96, 1.57510161399841308594e+00) (97, 1.18612539768218994141e+00) (98, -1.43641030788421630859e+00) (99, -2.03076407313346862793e-01) (100, -7.00336545705795288086e-02) (101, 6.92715883255004882812e-01) (102, 5.52878999710083007812e+00) (103, 1.56797266006469726562e+00) (104, 1.04373466968536376953e+00) (0, -1.61879801750183105469e+00) (1, -3.41342806816101074219e-01) (2, 1.13064551353454589844e+00) (3, 1.99021518230438232422e+00) (4, 1.44012582302093505859e+00) (5, -4.72235488891601562500e+00) (6, -1.39852240681648254395e-01) (7, -2.08529996871948242188e+00) (8, 2.19689846038818359375e+00) (9, -1.45561134815216064453e+00) (10, 3.80259084701538085938e+00) (11, -5.09022831916809082031e-01) (12, -1.93621766567230224609e+00) (13, -2.73197221755981445312e+00) (14, -3.17173624038696289062e+00) (15, -7.80221939086914062500e-01) (16, 1.14933919906616210938e+00) (17, 8.65858048200607299805e-02) (18, -3.04205924272537231445e-01) (19, 5.24798333644866943359e-01) (20, 8.05928409099578857422e-01) (21, 7.99074363708496093750e+00) (22, -2.02723646163940429688e+00) (23, -1.34893991053104400635e-02) (24, 2.49952626228332519531e+00) (25, -9.21094894409179687500e-01) (26, 2.00304239988327026367e-02) (27, 1.93331882357597351074e-01) (28, -2.17120337486267089844e+00) (29, -4.37154817581176757812e+00) (30, 1.10087819397449493408e-01) (31, 1.00198638439178466797e+00) (32, 2.18218064308166503906e+00) (33, 6.31989538669586181641e-01) (34, 3.51401591300964355469e+00) (35, -3.10779356956481933594e+00) (36, -2.71327519416809082031e+00) (37, -1.40781831741333007812e+00) (38, -1.00125634670257568359e+00) (39, 1.85014173388481140137e-01) (40, -3.96734189987182617188e+00) (41, -3.63955807685852050781e+00) (42, -6.75355792045593261719e-01) (43, 2.89716744422912597656e+00) (44, 5.15846133232116699219e-01) (45, 7.13428020477294921875e-01) (46, 4.22087860107421875000e+00) (47, -1.29202321171760559082e-01) (48, 8.83981466293334960938e-01) (49, -7.80820369720458984375e-01) (50, -3.00213885307312011719e+00) (51, -9.42474752664566040039e-02) (52, 1.23563551902770996094e+00) (53, 2.29759231209754943848e-01) (54, 2.10857272148132324219e+00) (55, -6.15460062026977539062e+00) (56, -4.39828515052795410156e-01) (57, -2.76667261123657226562e+00) (58, 4.07138633728027343750e+00) (59, -3.92390394210815429688e+00) (60, -6.12923204898834228516e-01) (61, 3.81644439697265625000e+00) (62, -4.65245664119720458984e-01) (63, 1.53254762291908264160e-01) (64, 2.31154370307922363281e+00) (65, 1.40945747494697570801e-01) (66, 9.50520873069763183594e-01) (67, -2.42854431271553039551e-02) (68, 2.93983125686645507812e+00) (69, -2.29213267564773559570e-01) (70, -1.67050570249557495117e-01) (71, -5.99403142929077148438e-01) (72, -8.02824020385742187500e-01) (73, 2.24176168441772460938e+00) (74, 9.37632918357849121094e-01) (75, 2.08777606487274169922e-01) (76, 6.64768397808074951172e-01) (77, 4.10103425383567810059e-02) (78, 2.52071142196655273438e-01) (79, 1.04233515262603759766e+00) (80, -9.93737399578094482422e-01) (81, -3.74221831560134887695e-01) (82, 1.34422838687896728516e+00) (83, -8.53441953659057617188e-01) (84, -8.36232066154479980469e-01) (85, 1.32497286796569824219e+00) (86, 1.78467825055122375488e-01) (87, 4.43405270576477050781e-01) (88, -2.90314972400665283203e-01) (89, 1.04637217521667480469e+00) (90, -1.54221821576356887817e-02) (91, 9.01876449584960937500e-01) (92, -1.44466567039489746094e+00) (93, 3.84337105788290500641e-03) (94, -7.45934367179870605469e-01) (95, -3.85617184638977050781e+00) (96, 4.03867542743682861328e-01) (97, -9.73018407821655273438e-02) (98, 6.13415300846099853516e-01) (99, 1.21771204471588134766e+00) (100, 9.36804153025150299072e-03) (101, -2.05826020240783691406e+00) (102, 2.41575121879577636719e+00) (103, 1.70339679718017578125e+00) (104, 2.58280968666076660156e+00) (0, -3.29923973083496093750e+01) (1, -1.59444248676300048828e+00) (2, 2.06950473785400390625e+00) (3, 1.81087696552276611328e+00) (4, 1.43608927726745605469e+00) (5, 1.37438237667083740234e+00) (6, 1.03865408897399902344e+00) (7, 5.96964120864868164062e-01) (8, 2.42819234728813171387e-01) (9, 2.00467085838317871094e+00) (10, 2.38493990898132324219e+00) (11, -1.64659309387207031250e+00) (12, 1.96217432618141174316e-01) (13, -3.17432832717895507812e+00) (14, -8.53213369846343994141e-02) (15, 1.15735149383544921875e+00) (16, 3.21315884590148925781e+00) (17, 5.76010793447494506836e-02) (18, 6.98069036006927490234e-01) (19, 9.32812571525573730469e-01) (20, 1.90249025821685791016e+00) (21, 6.72235712409019470215e-02) (22, -2.50625944137573242188e+00) (23, 8.77564048767089843750e+00) (24, -1.96021592617034912109e+00) (25, -5.21677637100219726562e+00) (26, -2.46988162398338317871e-01) (27, 5.17183721065521240234e-01) (28, -5.62180101871490478516e-01) (29, -1.01285848617553710938e+01) (30, 4.75055277347564697266e-01) (31, -1.78161397576332092285e-01) (32, -7.89825379848480224609e-01) (33, 2.32644248008728027344e+00) (34, -1.04910564422607421875e+00) (35, 1.10094177722930908203e+00) (36, 2.31424641609191894531e+00) (37, 1.72750365734100341797e+00) (38, 1.36672222614288330078e+00) (39, -1.40346325933933258057e-02) (40, 8.46809089183807373047e-01) (41, 1.72963070869445800781e+00) (42, 4.96992558240890502930e-01) (43, 1.24608242511749267578e+00) (44, -2.87756752967834472656e+00) (45, 6.50390028953552246094e-01) (46, 2.69809335470199584961e-01) (47, -5.25017678737640380859e-01) (48, 1.01501297950744628906e+00) (49, 9.20324027538299560547e-02) (50, 1.07811188697814941406e+00) (51, 1.23081374168395996094e+00) (52, 2.26890969276428222656e+00) (53, -1.08442878723144531250e+00) (54, -3.02325546741485595703e-01) (55, -4.23405313491821289062e+00) (56, 3.99397706985473632812e+00) (57, 1.84871315956115722656e+00) (58, -3.54781985282897949219e-01) (59, 3.23040217161178588867e-01) (60, -2.26031124591827392578e-01) (61, -7.30896770954132080078e-01) (62, 2.51550340652465820312e+00) (63, 3.16749572753906250000e-01) (64, 7.63960957527160644531e-01) (65, 1.24559640884399414062e+00) (66, -2.52099251747131347656e+00) (67, 4.11036396026611328125e+00) (68, 1.21242213249206542969e+00) (69, 7.40760803222656250000e-01) (70, 2.81443905830383300781e+00) (71, 1.34245014190673828125e+00) (72, 8.54453921318054199219e-01) (73, 9.24662828445434570312e-01) (74, 1.84831440448760986328e-01) (75, -5.50791382789611816406e-01) (76, 1.66267430782318115234e+00) (77, 1.50943553447723388672e+00) (78, -2.09584236145019531250e+00) (79, -4.87486743927001953125e+00) (80, -1.50666236877441406250e+00) (81, 5.24445009231567382812e+00) (82, 1.87513065338134765625e+00) (83, -9.71018791198730468750e-01) (84, -1.03542006015777587891e+00) (85, 4.89089679718017578125e+00) (86, 1.35331690311431884766e-01) (87, 1.72425463795661926270e-01) (88, 5.97804594039916992188e+00) (89, -6.45382702350616455078e-01) (90, 5.04738140106201171875e+00) (91, 1.14636018872261047363e-01) (92, 9.98218238353729248047e-01) (93, -3.72462570667266845703e-01) (94, 5.31242787837982177734e-01) (95, -9.44763660430908203125e-01) (96, 1.50555944442749023438e+00) (97, -2.44130110740661621094e+00) (98, 4.82813388109207153320e-01) (99, 1.73474359512329101562e+00) (100, -4.50508326292037963867e-01) (101, -2.21501922607421875000e+00) (102, 5.44142580032348632812e+00) (103, 1.79586422443389892578e+00) (104, 1.48100495338439941406e+00) (0, -1.49996057128906250000e+03) (1, 2.36482000350952148438e+00) (2, 4.98263597488403320312e-01) (3, 2.30156154632568359375e+01) (4, 1.69176518917083740234e+00) (5, 2.80401659011840820312e+00) (6, 2.62223768234252929688e+00) (7, 1.71600997447967529297e+00) (8, 1.22275972366333007812e+00) (9, 1.12905311584472656250e+00) (10, 1.77041184902191162109e+00) (11, 1.92287361621856689453e+00) (12, 1.54310023784637451172e+00) (13, 1.50000000000000000000e+03) (14, 2.63739752769470214844e+00) (15, 2.20658683776855468750e+00) (16, 2.52539658546447753906e+00) (17, 2.75203895568847656250e+00) (18, 2.12315750122070312500e+00) (19, 2.63623023033142089844e+00) (20, 2.47523546218872070312e+00) (21, 1.32984507083892822266e+00) (22, 2.09609174728393554688e+00) (23, 2.66119503974914550781e+00) (24, 2.21988558769226074219e+00) (25, 1.06387281417846679688e+00) (26, 2.24641966819763183594e+00) (27, 2.45131325721740722656e+00) (28, 2.47774624824523925781e+00) (29, 2.55987310409545898438e+00) (30, 2.71492362022399902344e+00) (31, 1.50000000000000000000e+03) (32, 2.80338835716247558594e+00) (33, 1.50000000000000000000e+03) (34, 1.81103193759918212891e+00) (35, 2.83833432197570800781e+00) (36, 1.96535837650299072266e+00) (37, 1.96951854228973388672e+00) (38, 2.67178034782409667969e+00) (39, 2.56450176239013671875e+00) (40, 1.17313504219055175781e+00) (41, 1.50000000000000000000e+03) (42, 2.01879692077636718750e+00) (43, 2.11529064178466796875e+00) (44, 2.16332960128784179688e+00) (45, 1.86278593540191650391e+00) (46, 1.50000000000000000000e+03) (47, 2.78310298919677734375e+00) (48, 1.50000000000000000000e+03) (49, 3.01496767997741699219e+00) (50, 1.50000000000000000000e+03) (51, 5.04424041748046875000e+02) (52, 1.50000000000000000000e+03) (53, 1.50000000000000000000e+03) (54, 1.50000000000000000000e+03) (55, 1.50000000000000000000e+03) (56, 2.26792120933532714844e+00) (57, 1.28108096122741699219e+00) (58, 1.50000000000000000000e+03) (59, 1.50000000000000000000e+03) (60, 2.32401371002197265625e+00) (61, 1.49996447753906250000e+03) (62, 1.17303550243377685547e+00) (63, 2.36633133888244628906e+00) (64, 2.01880407333374023438e+00) (65, 2.07879590988159179688e+00) (66, 9.88876402378082275391e-01) (67, 3.52927297353744506836e-01) (68, 1.98613095283508300781e+00) (69, 1.32212781906127929688e+00) (70, 2.13961410522460937500e+00) (71, 1.53005301952362060547e+00) (72, 2.14907550811767578125e+00) (73, 3.65431594848632812500e+00) (74, 2.01598048210144042969e+00) (75, 7.31685578823089599609e-01) (76, 1.19699335098266601562e+00) (77, 2.19077396392822265625e+00) (78, 1.59714663028717041016e+00) (79, 2.70809340476989746094e+00) (80, 2.37635850906372070312e+00) (81, 2.55369305610656738281e+00) (82, 2.53670787811279296875e+00) (83, 1.50000000000000000000e+03) (84, 4.11262054443359375000e+02) (85, 2.77720355987548828125e+00) (86, 2.06754159927368164062e+00) (87, 1.13506865501403808594e+00) (88, 1.50000000000000000000e+03) (89, 1.98516094684600830078e+00) (90, 1.50072288513183593750e+00) (91, 2.69873452186584472656e+00) (92, 2.44060587882995605469e+00) (93, 1.68157434463500976562e+00) (94, 2.28549933433532714844e+00) (95, 2.71360635757446289062e+00) (96, 1.03730750083923339844e+00) (97, 1.80623364448547363281e+00) (98, 2.37283563613891601562e+00) (99, 2.51935434341430664062e+00) (100, 2.12247252464294433594e+00) (101, 2.27483725547790527344e+00) (102, -4.87244009971618652344e-01) (103, 5.85936737060546875000e+00) (104, -1.06035441160202026367e-01) (0, 3.08220815658569335938e+00) (1, 7.76703000068664550781e-01) (2, 4.15070205926895141602e-01) (3, -1.62329173088073730469e+00) (4, -3.84552001953125000000e-01) (5, 3.09952855110168457031e+00) (6, 6.89767658710479736328e-01) (7, -7.06688404083251953125e-01) (8, 3.71328890323638916016e-01) (9, -1.77481710910797119141e+00) (10, -8.41179132461547851562e-01) (11, -5.30158691108226776123e-02) (12, -8.06251943111419677734e-01) (13, 5.06626069545745849609e-01) (14, -2.78218030929565429688e-01) (15, 2.37979575991630554199e-01) (16, 1.15801239013671875000e+00) (17, -7.43557587265968322754e-02) (18, 6.02118909358978271484e-01) (19, 4.34364080429077148438e-01) (20, -1.11218738555908203125e+00) (21, -8.12577664852142333984e-01) (22, 1.31850826740264892578e+00) (23, 1.13016819953918457031e+00) (24, 1.45744204521179199219e-01) (25, 5.30812859535217285156e-01) (26, 2.02576816082000732422e-01) (27, 7.76948750019073486328e-01) (28, -1.23361194133758544922e+00) (29, 1.04517661035060882568e-01) (30, 2.86850124597549438477e-01) (31, -4.03260052204132080078e-01) (32, -3.10973465442657470703e-01) (33, -5.74732720851898193359e-02) (34, 3.43778824806213378906e+00) (35, 2.59775489568710327148e-01) (36, 5.24237275123596191406e-01) (37, 7.73711085319519042969e-01) (38, 8.32080185413360595703e-01) (39, 7.03767001628875732422e-01) (40, -4.43566024303436279297e-01) (41, 2.27228236198425292969e+00) (42, 6.38913512229919433594e-01) (43, -2.74728965759277343750e+00) (44, -3.18068981170654296875e-01) (45, 7.44023501873016357422e-01) (46, -1.41482079029083251953e+00) (47, 4.24235224723815917969e-01) (48, 3.77922594547271728516e-01) (49, 1.39200389385223388672e+00) (50, -2.40469992160797119141e-01) (51, -1.18659877777099609375e+00) (52, 2.33048051595687866211e-01) (53, 1.51282823085784912109e+00) (54, 4.94370341300964355469e-01) (55, -1.10880404710769653320e-01) (56, 8.92510563135147094727e-02) (57, -1.36942279338836669922e+00) (58, -1.80267536640167236328e+00) (59, -6.34005814790725708008e-02) (60, 1.10150408744812011719e+00) (61, 6.47098571062088012695e-02) (62, -9.15540993213653564453e-01) (63, 3.70643585920333862305e-01) (64, 1.47397398948669433594e+00) (65, 2.83725466579198837280e-02) (66, 3.29590320587158203125e+00) (67, -5.90528190135955810547e-01) (68, 3.16752982139587402344e+00) (69, -1.39339089393615722656e-01) (70, -1.39334946870803833008e-01) (71, -1.25128471851348876953e+00) (72, 3.33799153566360473633e-01) (73, 3.37862849235534667969e+00) (74, -1.09099352359771728516e+00) (75, -2.77066993713378906250e+00) (76, -1.11886119842529296875e+00) (77, 2.29865416884422302246e-01) (78, -1.47526860237121582031e-01) (79, 6.88253521919250488281e-01) (80, -6.96231901645660400391e-01) (81, 5.79341828823089599609e-01) (82, 1.25324690341949462891e+00) (83, -2.39331588149070739746e-01) (84, -1.05159854888916015625e+00) (85, 1.18055593967437744141e+00) (86, -5.58260641992092132568e-02) (87, -2.06388163566589355469e+00) (88, -2.36216828227043151855e-01) (89, -2.33497929573059082031e+00) (90, -5.17594754695892333984e-01) (91, 2.16849476099014282227e-01) (92, -2.39701390266418457031e+00) (93, -4.20606553554534912109e-01) (94, -2.55153357982635498047e-01) (95, -2.75672197341918945312e+00) (96, -1.40471994876861572266e+00) (97, -9.33014810085296630859e-01) (98, -1.66052460670471191406e+00) (99, 3.91257643699645996094e-01) (100, -2.70934194326400756836e-01) (101, -2.50130033493041992188e+00) (102, 3.87490701675415039062e+00) (103, 3.27755928039550781250e+00) (104, 2.55967402458190917969e+00) (105, 3.84469580650329589844e+00) (106, 1.38831257820129394531e+00) (107, 2.89328122138977050781e+00) (108, -2.31534332036972045898e-01) (109, -4.74870711565017700195e-01) (110, 4.43166112899780273438e+00) (111, -1.33959436416625976562e+00) (112, -2.09524941444396972656e+00) (113, -2.36302375793457031250e+00) (114, -1.38524472713470458984e+00) (115, -2.82281041145324707031e+00) (116, -4.96924072504043579102e-01) (117, 3.99942612648010253906e+00) (118, 3.67816424369812011719e+00) (119, 3.54242831468582153320e-01) (120, 8.78237545490264892578e-01) (121, -3.18459773063659667969e+00) (122, 4.22877550125122070312e+00) (123, -3.15657925605773925781e+00) (124, 3.98437261581420898438e+00) (125, 2.56534719467163085938e+00) (126, 3.82797741889953613281e+00) (127, 2.82499933242797851562e+00) (128, -2.44104802608489990234e-01) (129, -2.39359879493713378906e+00) (130, 2.04771184921264648438e+00) 
