FANN_FLO_2.1
num_layers=3
learning_rate=0.700000
connection_rate=1.000000
network_type=0
learning_momentum=0.000000
training_algorithm=2
train_error_function=1
train_stop_function=0
cascade_output_change_fraction=0.010000
quickprop_decay=-0.000100
quickprop_mu=1.750000
rprop_increase_factor=1.200000
rprop_decrease_factor=0.500000
rprop_delta_min=0.000000
rprop_delta_max=50.000000
rprop_delta_zero=0.100000
cascade_output_stagnation_epochs=12
cascade_candidate_change_fraction=0.010000
cascade_candidate_stagnation_epochs=12
cascade_max_out_epochs=150
cascade_max_cand_epochs=150
cascade_num_candidate_groups=2
bit_fail_limit=3.49999994039535522461e-01
cascade_candidate_limit=1.00000000000000000000e+03
cascade_weight_multiplier=4.00000005960464477539e-01
cascade_activation_functions_count=10
cascade_activation_functions=3 5 7 8 10 11 14 15 16 17 
cascade_activation_steepnesses_count=4
cascade_activation_steepnesses=2.50000000000000000000e-01 5.00000000000000000000e-01 7.50000000000000000000e-01 1.00000000000000000000e+00 
layer_sizes=105 26 2 
scale_included=0
neurons (num_inputs, activation_function, activation_steepness)=(0, 0, 0.00000000000000000000e+00) (0, 0, 0.00000000000000000000e+00) (0, 0, 0.00000000000000000000e+00) (0, 0, 0.00000000000000000000e+00) (0, 0, 0.00000000000000000000e+00) (0, 0, 0.00000000000000000000e+00) (0, 0, 0.00000000000000000000e+00) (0, 0, 0.00000000000000000000e+00) (0, 0, 0.00000000000000000000e+00) (0, 0, 0.00000000000000000000e+00) (0, 0, 0.00000000000000000000e+00) (0, 0, 0.00000000000000000000e+00) (0, 0, 0.00000000000000000000e+00) (0, 0, 0.00000000000000000000e+00) (0, 0, 0.00000000000000000000e+00) (0, 0, 0.00000000000000000000e+00) (0, 0, 0.00000000000000000000e+00) (0, 0, 0.00000000000000000000e+00) (0, 0, 0.00000000000000000000e+00) (0, 0, 0.00000000000000000000e+00) (0, 0, 0.00000000000000000000e+00) (0, 0, 0.00000000000000000000e+00) (0, 0, 0.00000000000000000000e+00) (0, 0, 0.00000000000000000000e+00) (0, 0, 0.00000000000000000000e+00) (0, 0, 0.00000000000000000000e+00) (0, 0, 0.00000000000000000000e+00) (0, 0, 0.00000000000000000000e+00) (0, 0, 0.00000000000000000000e+00) (0, 0, 0.00000000000000000000e+00) (0, 0, 0.00000000000000000000e+00) (0, 0, 0.00000000000000000000e+00) (0, 0, 0.00000000000000000000e+00) (0, 0, 0.00000000000000000000e+00) (0, 0, 0.00000000000000000000e+00) (0, 0, 0.00000000000000000000e+00) (0, 0, 0.00000000000000000000e+00) (0, 0, 0.00000000000000000000e+00) (0, 0, 0.00000000000000000000e+00) (0, 0, 0.00000000000000000000e+00) (0, 0, 0.00000000000000000000e+00) (0, 0, 0.00000000000000000000e+00) (0, 0, 0.00000000000000000000e+00) (0, 0, 0.00000000000000000000e+00) (0, 0, 0.00000000000000000000e+00) (0, 0, 0.00000000000000000000e+00) (0, 0, 0.00000000000000000000e+00) (0, 0, 0.00000000000000000000e+00) (0, 0, 0.00000000000000000000e+00) (0, 0, 0.00000000000000000000e+00) (0, 0, 0.00000000000000000000e+00) (0, 0, 0.00000000000000000000e+00) (0, 0, 0.00000000000000000000e+00) (0, 0, 0.00000000000000000000e+00) (0, 0, 0.00000000000000000000e+00) (0, 0, 0.00000000000000000000e+00) (0, 0, 0.00000000000000000000e+00) (0, 0, 0.00000000000000000000e+00) (0, 0, 0.00000000000000000000e+00) (0, 0, 0.00000000000000000000e+00) (0, 0, 0.00000000000000000000e+00) (0, 0, 0.00000000000000000000e+00) (0, 0, 0.00000000000000000000e+00) (0, 0, 0.00000000000000000000e+00) (0, 0, 0.00000000000000000000e+00) (0, 0, 0.00000000000000000000e+00) (0, 0, 0.00000000000000000000e+00) (0, 0, 0.00000000000000000000e+00) (0, 0, 0.00000000000000000000e+00) (0, 0, 0.00000000000000000000e+00) (0, 0, 0.00000000000000000000e+00) (0, 0, 0.00000000000000000000e+00) (0, 0, 0.00000000000000000000e+00) (0, 0, 0.00000000000000000000e+00) (0, 0, 0.00000000000000000000e+00) (0, 0, 0.00000000000000000000e+00) (0, 0, 0.00000000000000000000e+00) (0, 0, 0.00000000000000000000e+00) (0, 0, 0.00000000000000000000e+00) (0, 0, 0.00000000000000000000e+00) (0, 0, 0.00000000000000000000e+00) (0, 0, 0.00000000000000000000e+00) (0, 0, 0.00000000000000000000e+00) (0, 0, 0.00000000000000000000e+00) (0, 0, 0.00000000000000000000e+00) (0, 0, 0.00000000000000000000e+00) (0, 0, 0.00000000000000000000e+00) (0, 0, 0.00000000000000000000e+00) (0, 0, 0.00000000000000000000e+00) (0, 0, 0.00000000000000000000e+00) (0, 0, 0.00000000000000000000e+00) (0, 0, 0.00000000000000000000e+00) (0, 0, 0.00000000000000000000e+00) (0, 0, 0.00000000000000000000e+00) (0, 0, 0.00000000000000000000e+00) (0, 0, 0.00000000000000000000e+00) (0, 0, 0.00000000000000000000e+00) (0, 0, 0.00000000000000000000e+00) (0, 0, 0.00000000000000000000e+00) (0, 0, 0.00000000000000000000e+00) (0, 0, 0.00000000000000000000e+00) (0, 0, 0.00000000000000000000e+00) (0, 0, 0.00000000000000000000e+00) (0, 0, 0.00000000000000000000e+00) (0, 0, 0.00000000000000000000e+00) (105, 5, 5.00000000000000000000e-01) (105, 5, 5.00000000000000000000e-01) (105, 5, 5.00000000000000000000e-01) (105, 5, 5.00000000000000000000e-01) (105, 5, 5.00000000000000000000e-01) (105, 5, 5.00000000000000000000e-01) (105, 5, 5.00000000000000000000e-01) (105, 5, 5.00000000000000000000e-01) (105, 5, 5.00000000000000000000e-01) (105, 5, 5.00000000000000000000e-01) (105, 5, 5.00000000000000000000e-01) (105, 5, 5.00000000000000000000e-01) (105, 5, 5.00000000000000000000e-01) (105, 5, 5.00000000000000000000e-01) (105, 5, 5.00000000000000000000e-01) (105, 5, 5.00000000000000000000e-01) (105, 5, 5.00000000000000000000e-01) (105, 5, 5.00000000000000000000e-01) (105, 5, 5.00000000000000000000e-01) (105, 5, 5.00000000000000000000e-01) (105, 5, 5.00000000000000000000e-01) (105, 5, 5.00000000000000000000e-01) (105, 5, 5.00000000000000000000e-01) (105, 5, 5.00000000000000000000e-01) (105, 5, 5.00000000000000000000e-01) (0, 5, 0.00000000000000000000e+00) (26, 5, 5.00000000000000000000e-01) (0, 5, 0.00000000000000000000e+00) 
connections (connected_to_neuron, weight)=(0, 5.10942268371582031250e+00) (1, -2.52293324470520019531e+00) (2, -1.79543793201446533203e+00) (3, 2.90926903486251831055e-01) (4, 2.10871243476867675781e+00) (5, 9.86855220794677734375e+00) (6, -3.05104196071624755859e-01) (7, -3.12603974342346191406e+00) (8, 5.15143752098083496094e-01) (9, 1.17563217878341674805e-01) (10, 2.00880050659179687500e+00) (11, -1.34932005405426025391e+00) (12, -1.84244108200073242188e+00) (13, -2.08938002586364746094e+00) (14, 2.85545301437377929688e+00) (15, -1.36208605766296386719e+00) (16, 5.35307407379150390625e-01) (17, -5.38016021251678466797e-01) (18, 4.33822488784790039062e+00) (19, 1.15029072761535644531e+00) (20, 4.77287501096725463867e-01) (21, -4.34375953674316406250e+00) (22, 4.29412078857421875000e+00) (23, 6.36400508880615234375e+00) (24, -5.21811914443969726562e+00) (25, 1.85390365123748779297e+00) (26, 3.77080112695693969727e-01) (27, -4.13986396789550781250e+00) (28, 4.35360288619995117188e+00) (29, -1.21778059005737304688e+00) (30, 1.13897538185119628906e+00) (31, -1.40187561511993408203e+00) (32, -9.31482136249542236328e-01) (33, 1.41842651367187500000e+00) (34, 3.21079897880554199219e+00) (35, -1.53077197074890136719e+00) (36, -2.40555524826049804688e+00) (37, 4.35225152969360351562e+00) (38, -9.10977661609649658203e-01) (39, -3.36766314506530761719e+00) (40, -1.62651881575584411621e-01) (41, 1.71536281704902648926e-01) (42, -1.98164594173431396484e+00) (43, 4.02951097488403320312e+00) (44, -1.16416037082672119141e+00) (45, 2.40033888816833496094e+00) (46, -5.71970157325267791748e-02) (47, 1.19982612133026123047e+00) (48, -3.37592601776123046875e+00) (49, 1.26848590373992919922e+00) (50, 1.20817035436630249023e-01) (51, 2.06415319442749023438e+00) (52, 1.42346894741058349609e+00) (53, -1.60724341869354248047e+00) (54, 4.05619478225708007812e+00) (55, 2.10231232643127441406e+00) (56, -1.19398248195648193359e+00) (57, -4.79115188121795654297e-01) (58, 1.96480953693389892578e+00) (59, 9.64188992977142333984e-01) (60, -2.50783175230026245117e-01) (61, -5.28495311737060546875e-01) (62, 8.76840293407440185547e-01) (63, -5.32524943351745605469e-01) (64, -1.68733489513397216797e+00) (65, 4.79754954576492309570e-01) (66, -9.40155506134033203125e-01) (67, -9.41023588180541992188e-01) (68, -6.56373500823974609375e-01) (69, -4.90819960832595825195e-01) (70, -1.27236378192901611328e+00) (71, 5.36148607730865478516e-01) (72, 1.31525504589080810547e+00) (73, 1.17648291587829589844e+00) (74, -9.15587365627288818359e-01) (75, -2.20875427126884460449e-01) (76, 1.25424408912658691406e+00) (77, -7.13410019874572753906e-01) (78, -2.94314444065093994141e-01) (79, -2.76306807994842529297e-01) (80, -5.14057099819183349609e-01) (81, -4.75416928529739379883e-01) (82, -1.36840546131134033203e+00) (83, -2.72374637424945831299e-02) (84, -8.09526205062866210938e-01) (85, 6.45556151866912841797e-01) (86, 5.23834601044654846191e-02) (87, -5.29617369174957275391e-01) (88, 4.49062794446945190430e-01) (89, -1.96229726076126098633e-01) (90, -1.25467252731323242188e+00) (91, -7.11260080337524414062e-01) (92, -5.40520548820495605469e-01) (93, -1.31414219737052917480e-01) (94, -1.61341458559036254883e-01) (95, 1.88563489913940429688e+00) (96, -3.92332839965820312500e+00) (97, -2.21495494246482849121e-01) (98, -1.37172445654869079590e-01) (99, -8.12251389026641845703e-01) (100, 1.87144950032234191895e-01) (101, -1.70291095972061157227e-01) (102, 3.72505354881286621094e+00) (103, 1.85234332084655761719e+00) (104, 2.12820911407470703125e+00) (0, -2.71311111450195312500e+01) (1, 2.50445914268493652344e+00) (2, 1.97647881507873535156e+00) (3, -2.04169183969497680664e-01) (4, 1.94345498085021972656e+00) (5, 7.63016223907470703125e-01) (6, 7.35777425765991210938e+00) (7, 2.16441416740417480469e+00) (8, 1.41874521970748901367e-01) (9, -1.18692493438720703125e+00) (10, 3.44714546203613281250e+00) (11, 1.38137423992156982422e+00) (12, 2.53789991140365600586e-01) (13, 9.19678449630737304688e-01) (14, 3.31167072057723999023e-01) (15, 2.43407082557678222656e+00) (16, 7.73901164531707763672e-01) (17, 3.61606407165527343750e+00) (18, 1.28933668136596679688e+00) (19, 3.47881650924682617188e+00) (20, 6.59159946441650390625e+00) (21, 1.41753625869750976562e+00) (22, -3.71772313117980957031e+00) (23, 6.29198312759399414062e+00) (24, 2.83383774757385253906e+00) (25, 4.78310728073120117188e+00) (26, 9.51154613494873046875e+00) (27, 1.58833622932434082031e+00) (28, 2.27552151679992675781e+00) (29, -4.83560943603515625000e+00) (30, -2.85137271881103515625e+00) (31, 1.37758409976959228516e+00) (32, 3.07813811302185058594e+00) (33, 2.22809147834777832031e+00) (34, 2.74481415748596191406e+00) (35, 2.75258827209472656250e+00) (36, 7.92591047286987304688e+00) (37, 3.10254365205764770508e-01) (38, 2.00328087806701660156e+00) (39, 1.00470900535583496094e+00) (40, -5.36985456943511962891e-01) (41, 2.24296212196350097656e+00) (42, 1.68123447895050048828e+00) (43, -1.42908322811126708984e+00) (44, -3.25939685106277465820e-01) (45, -5.22639417648315429688e+00) (46, -7.69580900669097900391e-01) (47, -2.52288095653057098389e-02) (48, 2.24263572692871093750e+00) (49, -2.04743075370788574219e+00) (50, 1.14956426620483398438e+00) (51, 8.43385279178619384766e-01) (52, 2.74497890472412109375e+00) (53, -3.94858837127685546875e+00) (54, 5.80775260925292968750e-01) (55, -2.49772953987121582031e+00) (56, 2.47035169601440429688e+00) (57, -2.86853647232055664062e+00) (58, -1.41584098339080810547e+00) (59, 5.05808067321777343750e+00) (60, -3.43593657016754150391e-01) (61, 3.84870320558547973633e-01) (62, 5.23842155933380126953e-01) (63, -4.94790136814117431641e-01) (64, 6.30612671375274658203e-01) (65, 8.78670334815979003906e-01) (66, 4.09997552633285522461e-01) (67, 2.96573185920715332031e+00) (68, 1.64779770374298095703e+00) (69, 9.37105178833007812500e-01) (70, 1.63865876197814941406e+00) (71, 8.90669107437133789062e-01) (72, -1.54110521078109741211e-01) (73, -1.15704762935638427734e+00) (74, 3.59314918518066406250e-01) (75, 6.92525386810302734375e-01) (76, -8.67976248264312744141e-02) (77, 4.75211799144744873047e-01) (78, 3.56041729450225830078e-01) (79, -2.97133147716522216797e-01) (80, -3.19594591856002807617e-01) (81, -2.95625537633895874023e-01) (82, -1.65144637227058410645e-01) (83, -2.51728355884552001953e-01) (84, 5.17496287822723388672e-01) (85, -2.02054405212402343750e+00) (86, -1.68702423572540283203e-01) (87, 6.69137299060821533203e-01) (88, -1.89892327785491943359e+00) (89, -3.76250892877578735352e-01) (90, -3.91989469528198242188e-01) (91, -5.26595771312713623047e-01) (92, 4.28338587284088134766e-01) (93, -1.36403843760490417480e-01) (94, 5.18593549728393554688e-01) (95, 3.12071442604064941406e-01) (96, 6.16650760173797607422e-01) (97, -1.23425230383872985840e-01) (98, -4.35881495475769042969e-01) (99, -9.98112857341766357422e-02) (100, 4.93400156497955322266e-01) (101, 5.41830837726593017578e-01) (102, 1.50000000000000000000e+03) (103, -1.48540527343750000000e+03) (104, 1.43131828308105468750e+00) (0, 4.19988393783569335938e+00) (1, -1.96414804458618164062e+00) (2, -4.90137130022048950195e-01) (3, 8.22645306587219238281e-01) (4, -2.95305579900741577148e-01) (5, -1.20096170902252197266e+00) (6, -2.70194560289382934570e-01) (7, 1.70228183269500732422e-01) (8, 7.61532127857208251953e-01) (9, -5.62905132770538330078e-01) (10, 5.17100632190704345703e-01) (11, 3.61792802810668945312e-01) (12, 2.32331109046936035156e+00) (13, 9.44276340305805206299e-03) (14, 1.30756247043609619141e+00) (15, -5.76149225234985351562e-01) (16, -6.72633349895477294922e-01) (17, -8.55452537536621093750e-01) (18, 1.06480097770690917969e+00) (19, -8.01232099533081054688e-01) (20, 1.61014997959136962891e+00) (21, 1.99652957916259765625e+00) (22, -8.99693489074707031250e-01) (23, 1.01198387145996093750e+00) (24, 1.44051685929298400879e-01) (25, 2.73865580558776855469e-01) (26, 7.14353442192077636719e-01) (27, 1.51762202382087707520e-01) (28, 1.84569978713989257812e+00) (29, -7.41104632616043090820e-02) (30, 1.16454517841339111328e+00) (31, -6.16708219051361083984e-01) (32, -4.47420448064804077148e-01) (33, -1.04927730560302734375e+00) (34, -8.34873378276824951172e-01) (35, -1.16070806980133056641e+00) (36, -7.59593129158020019531e-01) (37, 2.48091244697570800781e+00) (38, -2.56041973829269409180e-01) (39, -7.42199122905731201172e-01) (40, 7.27053582668304443359e-02) (41, 2.03878879547119140625e+00) (42, -6.80903017520904541016e-01) (43, 1.70647025108337402344e+00) (44, 7.36213088035583496094e-01) (45, -4.97241884469985961914e-01) (46, -8.18362772464752197266e-01) (47, -1.69477307796478271484e+00) (48, 2.06741794943809509277e-01) (49, -2.89579391479492187500e-01) (50, -6.39454364776611328125e-01) (51, -5.67119836807250976562e-01) (52, -6.77645862102508544922e-01) (53, -3.41630667448043823242e-01) (54, 9.68955039978027343750e-01) (55, -1.09771037101745605469e+00) (56, 2.56703913211822509766e-01) (57, 1.13111138343811035156e+00) (58, -4.51695173978805541992e-01) (59, -6.58340752124786376953e-01) (60, 8.02870512008666992188e-01) (61, 1.48335886001586914062e+00) (62, 1.94996094703674316406e+00) (63, -6.35887861251831054688e-01) (64, 9.57123190164566040039e-02) (65, -4.96573299169540405273e-02) (66, -1.32432675361633300781e+00) (67, -1.03762090206146240234e+00) (68, 2.62285530567169189453e-01) (69, 7.92004406452178955078e-01) (70, -4.04791891574859619141e-01) (71, 1.33091127872467041016e+00) (72, -2.23733544349670410156e-01) (73, 6.80401315912604331970e-03) (74, 1.24372255802154541016e+00) (75, 2.88553893566131591797e-01) (76, 1.41830950975418090820e-01) (77, -4.28228050470352172852e-01) (78, 2.21072196960449218750e+00) (79, -1.01434481143951416016e+00) (80, 5.93773603439331054688e-01) (81, -1.04843604564666748047e+00) (82, -2.54179835319519042969e-01) (83, -1.85141250491142272949e-01) (84, 1.85173368453979492188e+00) (85, -2.79336813837289810181e-02) (86, -5.78999698162078857422e-01) (87, 1.89829337596893310547e+00) (88, -9.86402392387390136719e-01) (89, -4.57384884357452392578e-01) (90, 8.21196794509887695312e-01) (91, -1.04935455322265625000e+00) (92, -5.54013133049011230469e-01) (93, 1.11380286514759063721e-01) (94, -5.26578009128570556641e-01) (95, -9.86106097698211669922e-02) (96, 1.45900928974151611328e+00) (97, 5.87366878986358642578e-01) (98, -1.73184037208557128906e+00) (99, 6.39583885669708251953e-01) (100, -6.17050886154174804688e-01) (101, -3.29748719930648803711e-01) (102, -1.88622856140136718750e+00) (103, 4.05304574966430664062e+00) (104, 2.30808281898498535156e+00) (0, 1.50000000000000000000e+03) (1, 1.36186373233795166016e+00) (2, 8.99703741073608398438e-01) (3, -3.81755493164062500000e+02) (4, 8.76915216445922851562e-01) (5, 1.08105742931365966797e+00) (6, 1.60457289218902587891e+00) (7, 1.49964892578125000000e+03) (8, -1.43720403313636779785e-01) (9, 1.11455464363098144531e+00) (10, 4.75735435485839843750e+01) (11, 1.41728031635284423828e+00) (12, 1.58714294433593750000e+00) (13, -1.50000000000000000000e+03) (14, 1.70875513553619384766e+00) (15, 1.47071444988250732422e+00) (16, 1.15225815773010253906e+00) (17, 1.32714354991912841797e+00) (18, 1.68517055511474609375e+01) (19, 1.84316647052764892578e+00) (20, 1.61252748966217041016e+00) (21, 1.85645067691802978516e+00) (22, 1.06817328929901123047e+00) (23, 7.26187133789062500000e+00) (24, 1.50000000000000000000e+03) (25, 1.50000000000000000000e+03) (26, 6.78025126457214355469e-01) (27, 3.93379718065261840820e-01) (28, 1.43058359622955322266e+00) (29, 1.59310472011566162109e+00) (30, 1.24257159233093261719e+00) (31, 1.81400191783905029297e+00) (32, 1.81552624702453613281e+00) (33, 1.34193623065948486328e+00) (34, 2.74898509979248046875e+01) (35, 1.92293977737426757812e+00) (36, 1.52470517158508300781e+00) (37, 1.50000000000000000000e+03) (38, 2.18547537922859191895e-01) (39, 1.82227683067321777344e+00) (40, 1.14836585521697998047e+00) (41, 2.02445268630981445312e+00) (42, 2.11569571495056152344e+00) (43, 1.39534819126129150391e+00) (44, 2.14816594123840332031e+00) (45, 8.13653051853179931641e-01) (46, 1.50000000000000000000e+03) (47, 2.15555414557456970215e-01) (48, 1.50000000000000000000e+03) (49, 1.73809587955474853516e+00) (50, 1.48957049846649169922e+00) (51, 1.99560511112213134766e+00) (52, 2.37562370300292968750e+00) (53, 1.50000000000000000000e+03) (54, 1.50000000000000000000e+03) (55, 6.12804114818572998047e-01) (56, 1.06797790527343750000e+00) (57, -2.61103363037109375000e+02) (58, 7.09123730659484863281e-01) (59, 1.50000000000000000000e+03) (60, 8.66241693496704101562e-01) (61, 2.00794219970703125000e+00) (62, 1.49976977539062500000e+03) (63, 1.00535142421722412109e+00) (64, 2.57790660858154296875e+00) (65, 9.79123115539550781250e-01) (66, 1.50000000000000000000e+03) (67, 1.51948130130767822266e+00) (68, 1.50000000000000000000e+03) (69, 1.50000000000000000000e+03) (70, 2.04792618751525878906e+00) (71, 1.70113396644592285156e+00) (72, 8.87720227241516113281e-01) (73, 4.03863954544067382812e+00) (74, 1.27335631847381591797e+00) (75, 7.44882941246032714844e-01) (76, 8.64822268486022949219e-01) (77, 1.07307052612304687500e+00) (78, 1.10388493537902832031e+00) (79, 6.37872219085693359375e-01) (80, 6.89908146858215332031e-01) (81, 3.74411016702651977539e-01) (82, 1.02167952060699462891e+00) (83, 2.52291768789291381836e-01) (84, 1.27796350097656250000e+03) (85, -1.50000000000000000000e+03) (86, 8.28992426395416259766e-01) (87, 1.23455202579498291016e+00) (88, -1.50000000000000000000e+03) (89, 4.63911414146423339844e-01) (90, 3.23953628540039062500e-01) (91, -2.83596068620681762695e-01) (92, 1.20649826526641845703e+00) (93, -3.75659675598144531250e+01) (94, 9.34085011482238769531e-01) (95, 8.25521588325500488281e-01) (96, 1.35644280910491943359e+00) (97, 7.67573654651641845703e-01) (98, 4.67409968376159667969e-01) (99, 9.03425335884094238281e-01) (100, 7.61615037918090820312e-01) (101, 1.18787586688995361328e+00) (102, 1.50000000000000000000e+03) (103, -1.48540527343750000000e+03) (104, 8.72725009918212890625e-01) (0, -1.88186302185058593750e+01) (1, -5.67870426177978515625e+00) (2, 3.58936023712158203125e+00) (3, 1.06012439727783203125e+00) (4, 1.35194373130798339844e+00) (5, 1.28015860915184020996e-01) (6, 4.04285430908203125000e+00) (7, -7.03064489364624023438e+00) (8, -4.03145819902420043945e-01) (9, 1.46040093898773193359e+00) (10, 7.12957262992858886719e-01) (11, -8.91408979892730712891e-01) (12, 9.65798020362854003906e-01) (13, -1.34428250789642333984e+00) (14, -3.90682667493820190430e-01) (15, 1.28059589862823486328e+00) (16, 7.18746185302734375000e-01) (17, 1.40367877483367919922e+00) (18, -2.20926427841186523438e+00) (19, 2.90661901235580444336e-01) (20, 4.26019620895385742188e+00) (21, -2.68108487129211425781e-01) (22, 7.31602728366851806641e-01) (23, 7.85172939300537109375e-01) (24, 8.30651521682739257812e-01) (25, -1.40583372116088867188e+00) (26, -5.06081199645996093750e+00) (27, 9.98663783073425292969e-01) (28, 1.58427035808563232422e+00) (29, -8.25985729694366455078e-01) (30, 8.08684825897216796875e-01) (31, 1.05090653896331787109e+00) (32, 1.05257356166839599609e+00) (33, -1.14819209557026624680e-03) (34, -3.46278488636016845703e-01) (35, 1.14328742027282714844e+00) (36, 1.16021227836608886719e+00) (37, 1.47011399269104003906e+00) (38, -1.72242271900177001953e+00) (39, 3.28653097152709960938e-01) (40, -2.97051692008972167969e+00) (41, 7.77028143405914306641e-01) (42, -6.30118727684020996094e-01) (43, -4.90786373615264892578e-01) (44, 6.57287657260894775391e-01) (45, -4.04649448394775390625e+00) (46, -2.80381417274475097656e+00) (47, -5.13026475906372070312e-01) (48, 3.92186975479125976562e+00) (49, 4.69623386859893798828e-01) (50, 7.02181577682495117188e-01) (51, -1.60361602902412414551e-01) (52, 1.16303026676177978516e+00) (53, 1.21108067035675048828e+00) (54, 2.51812229156494140625e+01) (55, -8.10429191589355468750e+00) (56, 4.68594402074813842773e-01) (57, 1.10289430618286132812e+00) (58, -3.83647966384887695312e+00) (59, 2.65876203775405883789e-01) (60, -8.70597660541534423828e-01) (61, 8.44958901405334472656e-01) (62, -3.14453125000000000000e-01) (63, -7.42260634899139404297e-01) (64, 1.62812292575836181641e-01) (65, 4.08224582672119140625e-01) (66, -3.78628522157669067383e-02) (67, -2.25770339369773864746e-01) (68, 3.02101224660873413086e-01) (69, -8.72455537319183349609e-02) (70, -4.27555471658706665039e-01) (71, -3.92838150262832641602e-01) (72, -8.00851523876190185547e-01) (73, -5.46697473526000976562e+00) (74, -2.89141595363616943359e-01) (75, -2.44728967547416687012e-01) (76, 5.03035306930541992188e-01) (77, -7.47199833393096923828e-01) (78, -1.60513684153556823730e-01) (79, -7.23886191844940185547e-01) (80, -9.38950896263122558594e-01) (81, 7.16780245304107666016e-01) (82, -3.10220569372177124023e-01) (83, -9.86174941062927246094e-01) (84, -7.63400942087173461914e-02) (85, -6.62972450256347656250e-01) (86, -6.35220885276794433594e-01) (87, -1.22210085391998291016e-01) (88, -3.20801234245300292969e+00) (89, -8.39514493942260742188e-01) (90, -8.74848306179046630859e-01) (91, -1.08608019351959228516e+00) (92, -6.62740945816040039062e-01) (93, -4.67755883932113647461e-01) (94, -7.46244132518768310547e-01) (95, -7.47616529464721679688e-01) (96, -2.24540084600448608398e-01) (97, -6.08149647712707519531e-01) (98, -8.87274086475372314453e-01) (99, -5.42146086692810058594e-01) (100, -8.90154719352722167969e-01) (101, 9.51174259185791015625e-01) (102, 6.26275396347045898438e+00) (103, -2.11841058731079101562e+00) (104, 2.73235821723937988281e+00) (0, 2.89980506896972656250e+01) (1, 3.04881744384765625000e+01) (2, 3.46694421768188476562e+00) (3, 1.29521858692169189453e+00) (4, 2.55429840087890625000e+00) (5, 1.19377136230468750000e+00) (6, -2.27729097008705139160e-01) (7, 9.59577026367187500000e+01) (8, 1.47190046310424804688e+00) (9, 4.09913969039916992188e+00) (10, 1.56081521511077880859e+00) (11, 5.13671731948852539062e+00) (12, 1.75394141674041748047e+00) (13, -1.68573617935180664062e-01) (14, 4.25824046134948730469e-01) (15, 2.06990242004394531250e+00) (16, 4.65017199516296386719e-01) (17, 1.95137953758239746094e+00) (18, 1.94854569435119628906e+00) (19, 2.66708159446716308594e+00) (20, 1.86705601215362548828e+00) (21, 9.65672206878662109375e+00) (22, 2.96454977989196777344e+00) (23, 5.01056814193725585938e+00) (24, 5.33774662017822265625e+00) (25, 2.27688145637512207031e+00) (26, 1.61514270305633544922e+00) (27, 1.09044897556304931641e+00) (28, 1.90871124267578125000e+01) (29, 2.47814083099365234375e+00) (30, 8.10721457004547119141e-01) (31, 2.42469668388366699219e+00) (32, 5.17771244049072265625e-01) (33, 2.88624548912048339844e+00) (34, -3.40778064727783203125e+00) (35, -2.03059458732604980469e+00) (36, 1.35075998306274414062e+00) (37, 9.58786392211914062500e+00) (38, 4.00454711914062500000e+00) (39, 2.37162113189697265625e+00) (40, -3.00721824169158935547e-01) (41, 8.96171808242797851562e-01) (42, 2.39036655426025390625e+00) (43, 1.06502175331115722656e+00) (44, 2.06277656555175781250e+00) (45, 4.25656223297119140625e+00) (46, 4.18508720397949218750e+00) (47, 8.25359150767326354980e-02) (48, 1.81999855041503906250e+01) (49, 1.26720571517944335938e+00) (50, 1.64015817642211914062e+00) (51, 4.03836679458618164062e+00) (52, 2.58347368240356445312e+00) (53, 2.69425678253173828125e+00) (54, -1.10186014175415039062e+01) (55, 8.53689002990722656250e+00) (56, 2.00867295265197753906e+00) (57, -6.65282964706420898438e+00) (58, 2.29018306732177734375e+00) (59, 3.30410408973693847656e+00) (60, 1.05060577392578125000e+00) (61, 1.19130647182464599609e+00) (62, 1.22445764541625976562e+01) (63, 1.60812878608703613281e+00) (64, 6.84723520278930664062e+00) (65, 1.77958512306213378906e+00) (66, 3.20910120010375976562e+00) (67, 2.01792073249816894531e+00) (68, 1.51639115810394287109e+00) (69, 2.72310996055603027344e+00) (70, 1.62502861022949218750e+00) (71, 1.82966399192810058594e+00) (72, 1.18233740329742431641e+00) (73, -1.96378917694091796875e+01) (74, 1.93395090103149414062e+00) (75, 1.82549393177032470703e+00) (76, 1.74329447746276855469e+00) (77, 9.85221385955810546875e-01) (78, 2.19472122192382812500e+00) (79, 1.50766038894653320312e+00) (80, 8.20581912994384765625e-01) (81, 1.06522250175476074219e+00) (82, 1.88482284545898437500e+00) (83, 2.79203891754150390625e-01) (84, 2.01389598846435546875e+00) (85, -2.43812561035156250000e+01) (86, 1.09855926036834716797e+00) (87, 2.43805217742919921875e+00) (88, -3.25607604980468750000e+01) (89, 4.74015176296234130859e-01) (90, 1.22845983505249023438e+00) (91, -9.18414497375488281250e+00) (92, 8.11046481132507324219e-01) (93, -4.42491732537746429443e-02) (94, 9.26825523376464843750e-01) (95, 1.21654856204986572266e+00) (96, 1.74474060535430908203e+00) (97, 1.15717947483062744141e+00) (98, 3.06110590696334838867e-01) (99, 1.27340447902679443359e+00) (100, 1.06419336795806884766e+00) (101, 1.51074993610382080078e+00) (102, 1.50000000000000000000e+03) (103, -1.48540527343750000000e+03) (104, 9.46661829948425292969e-01) (0, -5.00139045715332031250e+00) (1, 9.75563824176788330078e-01) (2, 3.09806734323501586914e-01) (3, 1.31678414344787597656e+00) (4, 3.87170881032943725586e-01) (5, 5.79254865646362304688e-01) (6, 2.88925498723983764648e-01) (7, 3.05727601051330566406e+00) (8, -1.17530310153961181641e+00) (9, 1.04355263710021972656e+00) (10, -2.37328112125396728516e-02) (11, 8.28760027885437011719e-01) (12, 2.44977250695228576660e-01) (13, 6.73490190505981445312e+00) (14, -3.24621468782424926758e-01) (15, 4.14468199014663696289e-01) (16, 1.42733609676361083984e+00) (17, 2.09412407875061035156e+00) (18, -3.90780091285705566406e-01) (19, -1.09658680856227874756e-01) (20, 2.90824413299560546875e-01) (21, -2.49507093429565429688e+00) (22, 2.67919421195983886719e-01) (23, 1.36013400554656982422e+00) (24, 1.88046002388000488281e+00) (25, 9.20538485050201416016e-01) (26, -6.09641224145889282227e-02) (27, -6.91861808300018310547e-02) (28, -1.11076259613037109375e+00) (29, 1.97317683696746826172e+00) (30, 2.64587664604187011719e+00) (31, 2.11666154861450195312e+00) (32, -1.09484777450561523438e+01) (33, 3.07712644338607788086e-01) (34, 6.59777212142944335938e+00) (35, 7.22523164749145507812e+00) (36, 5.30624055862426757812e+00) (37, -1.07123672962188720703e+00) (38, 7.16733884811401367188e+00) (39, 3.50375652313232421875e-01) (40, -2.07400751113891601562e+00) (41, 7.18979954719543457031e-01) (42, -4.19266104698181152344e-01) (43, -2.23912220001220703125e+01) (44, 1.12056779861450195312e+01) (45, 9.54835700988769531250e+00) (46, 2.80193948745727539062e+00) (47, -4.25458049774169921875e+00) (48, -3.06255149841308593750e+00) (49, 4.54612064361572265625e+00) (50, -1.21767079830169677734e+00) (51, 2.72066324949264526367e-01) (52, -5.62113642692565917969e-01) (53, -2.02396854758262634277e-01) (54, -3.68856735229492187500e+01) (55, 2.93528580665588378906e+00) (56, 3.48060429096221923828e-02) (57, 9.45991933345794677734e-01) (58, 7.54313528537750244141e-01) (59, -3.84023860096931457520e-02) (60, 3.75134274363517761230e-02) (61, 1.09476602077484130859e+00) (62, -1.32609200477600097656e+00) (63, 1.67919099330902099609e-02) (64, 1.57783937454223632812e+00) (65, 1.28071856498718261719e+00) (66, 1.62415564060211181641e+00) (67, 7.80889332294464111328e-01) (68, -1.52881097793579101562e+00) (69, 3.70969355106353759766e-01) (70, 1.45409062504768371582e-01) (71, 1.14769542217254638672e+00) (72, 5.18225193023681640625e+00) (73, 4.91739082336425781250e+00) (74, 1.73653736710548400879e-01) (75, 2.58172690868377685547e-01) (76, 9.03591632843017578125e-01) (77, -5.56776896119117736816e-02) (78, -3.38252663612365722656e-01) (79, 4.60442751646041870117e-01) (80, 9.89016070961952209473e-02) (81, 7.49194800853729248047e-01) (82, -1.53153344988822937012e-01) (83, 1.93465030193328857422e+00) (84, -1.82355359196662902832e-01) (85, 3.01050567626953125000e+00) (86, 1.15829177200794219971e-01) (87, -5.20538091659545898438e-01) (88, 2.36714410781860351562e+00) (89, 5.43638527393341064453e-01) (90, 6.51071429252624511719e-01) (91, 2.44561982154846191406e+00) (92, -1.85081467032432556152e-01) (93, 9.02102649211883544922e-01) (94, 3.07521849870681762695e-01) (95, 2.78717696666717529297e-01) (96, -3.54708760976791381836e-01) (97, 2.60233283042907714844e-01) (98, 1.99371659755706787109e+00) (99, -1.92262995988130569458e-02) (100, 3.63887190818786621094e-01) (101, -2.23572045564651489258e-01) (102, 8.83719623088836669922e-01) (103, 1.67130208015441894531e+00) (104, 1.81111228466033935547e+00) (0, -4.89844512939453125000e+01) (1, -1.74776554107666015625e+01) (2, 4.78840738534927368164e-01) (3, 3.03485345840454101562e+00) (4, -1.47700503468513488770e-01) (5, -1.26767969131469726562e+01) (6, -2.03124594688415527344e+00) (7, 1.60846328735351562500e+01) (8, -9.86158657073974609375e+00) (9, -1.13365328311920166016e+00) (10, -3.30076605081558227539e-01) (11, 5.33441364765167236328e-01) (12, -8.62446844577789306641e-01) (13, 6.95844221115112304688e+00) (14, 8.06349563598632812500e+00) (15, -9.54490423202514648438e-01) (16, -6.99782729148864746094e-01) (17, -1.10545344650745391846e-01) (18, 1.02483296394348144531e+00) (19, -4.33003425598144531250e-01) (20, 9.73722398281097412109e-01) (21, 1.01034355163574218750e+00) (22, -1.20820023119449615479e-01) (23, -7.67471417784690856934e-02) (24, -1.33340454101562500000e+01) (25, -1.86186289787292480469e+00) (26, 5.35251665115356445312e+00) (27, 1.57693755626678466797e+00) (28, 1.11846113204956054688e+00) (29, 3.17385733127593994141e-01) (30, -1.83466404676437377930e-01) (31, -3.39854538440704345703e-01) (32, 4.84176486730575561523e-01) (33, 2.28288665413856506348e-01) (34, 1.95331964641809463501e-02) (35, 2.53807157278060913086e-01) (36, -6.11326992511749267578e-01) (37, -9.44296419620513916016e-01) (38, -5.11506974697113037109e-01) (39, -1.74482941627502441406e-01) (40, -2.66139984130859375000e-01) (41, -2.94369399547576904297e-01) (42, -7.86534190177917480469e-01) (43, -6.50784254074096679688e-01) (44, -8.75611960887908935547e-01) (45, -7.58696556091308593750e-01) (46, -8.79335582256317138672e-01) (47, -9.18967545032501220703e-01) (48, -6.86480236053466796875e+00) (49, -6.92246377468109130859e-01) (50, -8.28615307807922363281e-01) (51, -6.97439610958099365234e-01) (52, -5.84040939807891845703e-01) (53, -6.95443928241729736328e-01) (54, -8.83076012134552001953e-01) (55, -1.10016441345214843750e+00) (56, -7.11468219757080078125e-01) (57, 5.11435568332672119141e-01) (58, 1.22582800686359405518e-01) (59, -7.67093241214752197266e-01) (60, 9.37986314296722412109e-01) (61, -5.25766968727111816406e-01) (62, -7.14110136032104492188e-01) (63, -3.31033527851104736328e-01) (64, -7.17601060867309570312e-01) (65, -1.92031189799308776855e-01) (66, -8.11015784740447998047e-01) (67, -6.67686760425567626953e-01) (68, -7.54356861114501953125e-01) (69, -6.95068001747131347656e-01) (70, -6.63414180278778076172e-01) (71, -7.15601265430450439453e-01) (72, 8.86081397533416748047e-01) (73, -4.59656029939651489258e-01) (74, -6.54152452945709228516e-01) (75, -4.61537659168243408203e-01) (76, 3.24947863817214965820e-01) (77, 1.01025831699371337891e+00) (78, -7.28335738182067871094e-01) (79, -6.79568797349929809570e-02) (80, 8.15418362617492675781e-01) (81, 6.92587316036224365234e-01) (82, -6.23049080371856689453e-01) (83, 1.28362023830413818359e+00) (84, -7.76828467845916748047e-01) (85, 1.37861859798431396484e+00) (86, 9.66489851474761962891e-01) (87, -7.95608580112457275391e-01) (88, 1.15788853168487548828e+00) (89, 1.44431495666503906250e+00) (90, 2.13053420186042785645e-01) (91, 1.95596349239349365234e+00) (92, 9.39165413379669189453e-01) (93, 7.87859201431274414062e-01) (94, 8.84294331073760986328e-01) (95, -2.21240311861038208008e-01) (96, -8.51451337337493896484e-01) (97, -1.21732480823993682861e-01) (98, 1.07008397579193115234e+00) (99, 8.89650881290435791016e-01) (100, -2.09174811840057373047e-01) (101, -6.89397513866424560547e-01) (102, -4.04210042953491210938e+00) (103, 8.97983169555664062500e+00) (104, 9.14686203002929687500e-01) (0, 1.50000000000000000000e+03) (1, 1.63271629810333251953e+00) (2, 1.11152219772338867188e+00) (3, -4.37244529724121093750e+01) (4, 1.09554982185363769531e+00) (5, 8.12240600585937500000e-01) (6, 2.16500568389892578125e+00) (7, 1.49957446289062500000e+03) (8, 6.25675737857818603516e-01) (9, 1.69506871700286865234e+00) (10, 4.81864356994628906250e+01) (11, 1.96219944953918457031e+00) (12, 2.00580430030822753906e+00) (13, -1.50000000000000000000e+03) (14, 2.09252381324768066406e+00) (15, 2.13334250450134277344e+00) (16, 1.35344696044921875000e+00) (17, 2.15451836585998535156e+00) (18, 1.06707229614257812500e+01) (19, 2.30116963386535644531e+00) (20, 1.96074914932250976562e+00) (21, 2.53579044342041015625e+00) (22, 1.39538443088531494141e+00) (23, 8.11649513244628906250e+00) (24, 1.50000000000000000000e+03) (25, 1.50000000000000000000e+03) (26, 1.52819526195526123047e+00) (27, 3.11438053846359252930e-01) (28, 2.21644282341003417969e+00) (29, 2.44811725616455078125e+00) (30, 1.96247851848602294922e+00) (31, 2.53269290924072265625e+00) (32, 2.68339395523071289062e+00) (33, 2.22659039497375488281e+00) (34, 3.98021049499511718750e+01) (35, 1.48513352870941162109e+00) (36, 2.18977642059326171875e+00) (37, 1.50000000000000000000e+03) (38, 1.60801136493682861328e+00) (39, 2.55141758918762207031e+00) (40, 1.69422912597656250000e+00) (41, 3.03348898887634277344e+00) (42, 2.61546730995178222656e+00) (43, 2.07882380485534667969e+00) (44, 2.82394981384277343750e+00) (45, 1.08721661567687988281e+00) (46, 1.50000000000000000000e+03) (47, 6.09338521957397460938e-01) (48, 1.50000000000000000000e+03) (49, 2.43613982200622558594e+00) (50, 2.17097520828247070312e+00) (51, 2.55864763259887695312e+00) (52, 2.78179454803466796875e+00) (53, 1.50000000000000000000e+03) (54, 1.50000000000000000000e+03) (55, 2.75467944145202636719e+00) (56, 1.99151372909545898438e+00) (57, -3.85795384645462036133e-01) (58, 1.52249860763549804688e+00) (59, 1.50000000000000000000e+03) (60, 1.15049970149993896484e+00) (61, 1.63786399364471435547e+00) (62, 1.49976977539062500000e+03) (63, 1.70452988147735595703e+00) (64, 2.04421663284301757812e+00) (65, 1.77126419544219970703e+00) (66, 1.50000000000000000000e+03) (67, 1.34058761596679687500e+00) (68, 1.50000000000000000000e+03) (69, 1.50000000000000000000e+03) (70, 2.37752795219421386719e+00) (71, 2.43015861511230468750e+00) (72, 1.67499756813049316406e+00) (73, 4.49554367065429687500e+01) (74, 1.93315529823303222656e+00) (75, 5.47002613544464111328e-01) (76, 7.56698250770568847656e-01) (77, 1.80507695674896240234e+00) (78, 1.67366695404052734375e+00) (79, 1.06512987613677978516e+00) (80, 1.05179548263549804688e+00) (81, 1.21440029144287109375e+00) (82, 6.53199911117553710938e-01) (83, 2.00536578893661499023e-01) (84, 1.49969152832031250000e+03) (85, -1.50000000000000000000e+03) (86, 7.02508330345153808594e-01) (87, 2.05483317375183105469e+00) (88, -1.50000000000000000000e+03) (89, 3.24243158102035522461e-01) (90, 8.24823617935180664062e-01) (91, 3.12056820839643478394e-02) (92, 1.29175972938537597656e+00) (93, -3.77605400085449218750e+01) (94, 1.33664083480834960938e+00) (95, 1.26140856742858886719e+00) (96, 2.21434259414672851562e+00) (97, 1.27671110630035400391e+00) (98, 3.63163799047470092773e-01) (99, 7.04570889472961425781e-01) (100, 1.26625573635101318359e+00) (101, 1.93717145919799804688e+00) (102, 1.50000000000000000000e+03) (103, -1.48540527343750000000e+03) (104, 1.52673184871673583984e-01) (0, -9.16787445545196533203e-01) (1, -3.90862464904785156250e-01) (2, -3.81579130887985229492e-01) (3, -6.56911373138427734375e-01) (4, -3.79160583019256591797e-01) (5, 1.12971210479736328125e+00) (6, 5.74908912181854248047e-01) (7, 6.07762336730957031250e-01) (8, -4.29856255650520324707e-02) (9, 8.04474115371704101562e-01) (10, 1.05712389945983886719e+00) (11, -9.27634537220001220703e-02) (12, -4.84859049320220947266e-01) (13, 1.13499000668525695801e-01) (14, 2.75435388088226318359e-01) (15, 1.63886800408363342285e-01) (16, -1.02904066443443298340e-03) (17, 6.80386364459991455078e-01) (18, 7.72538734599947929382e-03) (19, -7.42255866527557373047e-01) (20, -9.37076270580291748047e-01) (21, 4.40028816461563110352e-01) (22, 4.02923643589019775391e-01) (23, 4.14486050605773925781e-01) (24, -3.17061394453048706055e-02) (25, 6.56994760036468505859e-01) (26, -8.11453223228454589844e-01) (27, -2.10188493132591247559e-01) (28, 8.97141814231872558594e-01) (29, -4.60467219352722167969e-01) (30, -8.27757775783538818359e-01) (31, -9.91791710257530212402e-02) (32, 1.52894183993339538574e-01) (33, 8.68573427200317382812e-01) (34, 4.43316996097564697266e-01) (35, -1.71991884708404541016e+00) (36, -3.39358836412429809570e-01) (37, 1.22462570667266845703e+00) (38, -4.42812263965606689453e-01) (39, -3.26451450586318969727e-01) (40, 2.33658224344253540039e-01) (41, 1.62855446338653564453e-01) (42, -1.32758095860481262207e-01) (43, 1.32348144054412841797e+00) (44, 5.02537727355957031250e-01) (45, -1.46216740831732749939e-02) (46, 4.65715229511260986328e-01) (47, 3.86138036847114562988e-02) (48, 3.25067549943923950195e-01) (49, -7.77627468109130859375e-01) (50, 3.76311480998992919922e-01) (51, 1.08787739276885986328e+00) (52, 5.83981633186340332031e-01) (53, 2.90052413940429687500e-01) (54, 4.30462360382080078125e-01) (55, 4.70515191555023193359e-01) (56, -2.08880826830863952637e-01) (57, -4.29060310125350952148e-01) (58, 6.56107068061828613281e-01) (59, 1.29810690879821777344e-01) (60, -6.39519572257995605469e-01) (61, -1.32426053285598754883e-01) (62, 1.50580716133117675781e+00) (63, -6.81424498558044433594e-01) (64, -5.88790893554687500000e-01) (65, -6.80913269519805908203e-01) (66, 1.20344236493110656738e-02) (67, 3.51815849542617797852e-01) (68, 4.33432519435882568359e-01) (69, -8.27471554279327392578e-01) (70, 3.93717318773269653320e-01) (71, 1.29792284965515136719e+00) (72, -1.07795424759387969971e-01) (73, -5.17629146575927734375e-01) (74, -6.47122085094451904297e-01) (75, 7.41775035858154296875e-01) (76, -2.40246713161468505859e-01) (77, -5.62615454196929931641e-01) (78, 3.04758995771408081055e-01) (79, -5.55324256420135498047e-01) (80, -4.08615469932556152344e-01) (81, -7.14033603668212890625e-01) (82, 1.07700490951538085938e+00) (83, -1.12595176696777343750e+00) (84, 3.39717477560043334961e-01) (85, -6.18474364280700683594e-01) (86, -5.75878679752349853516e-01) (87, 1.94068241119384765625e+00) (88, -5.05654633045196533203e-01) (89, -7.71429479122161865234e-01) (90, -7.81500816345214843750e-01) (91, -1.14188873767852783203e+00) (92, -3.18019300699234008789e-01) (93, 1.59687757492065429688e-01) (94, -6.54590129852294921875e-01) (95, -1.70449316501617431641e-01) (96, 1.33865821361541748047e+00) (97, 1.18510603904724121094e+00) (98, -6.95906400680541992188e-01) (99, 2.01554942131042480469e+00) (100, -7.76236176490783691406e-01) (101, -7.45625346899032592773e-02) (102, 1.10659325122833251953e+00) (103, 7.23255336284637451172e-01) (104, 2.56080317497253417969e+00) (0, 7.14655637741088867188e-01) (1, -1.00724780559539794922e+00) (2, 3.54239158332347869873e-02) (3, -4.89670366048812866211e-01) (4, -8.22411298751831054688e-01) (5, -5.85520982742309570312e-01) (6, -1.17622219026088714600e-01) (7, 1.09705746173858642578e+00) (8, -1.88046681880950927734e+00) (9, 3.31046104431152343750e-01) (10, -1.81113868951797485352e-01) (11, 4.82157200574874877930e-01) (12, 8.05129528045654296875e-01) (13, 9.11292970180511474609e-01) (14, -4.31447654962539672852e-01) (15, -7.40327894687652587891e-01) (16, 3.31692576408386230469e-01) (17, 9.63030040264129638672e-01) (18, 9.44570600986480712891e-01) (19, 2.94107645750045776367e-01) (20, 3.05355715751647949219e+00) (21, 3.75554978847503662109e-01) (22, 7.11336076259613037109e-01) (23, 1.08709239959716796875e+00) (24, 1.57890939712524414062e+00) (25, -4.65061157941818237305e-01) (26, -1.38787716627120971680e-01) (27, -4.63300831615924835205e-02) (28, 4.30092602968215942383e-01) (29, -1.60636067390441894531e+00) (30, 4.24133419990539550781e-01) (31, -1.04488170146942138672e+00) (32, -5.84888219833374023438e-01) (33, -4.29775863885879516602e-02) (34, -3.89698481559753417969e+00) (35, -9.27430987358093261719e-02) (36, -4.61688816547393798828e-01) (37, 1.46129548549652099609e+00) (38, -3.15408277511596679688e+00) (39, -9.60157513618469238281e-01) (40, 8.22075664997100830078e-01) (41, -3.42799139022827148438e+00) (42, -3.94785702228546142578e-01) (43, -5.98857283592224121094e-01) (44, -4.98922079801559448242e-01) (45, -4.99628162384033203125e+00) (46, 1.61795568466186523438e+00) (47, -5.63301372528076171875e+00) (48, -2.94786632061004638672e-01) (49, 8.11929926276206970215e-02) (50, 2.16526523232460021973e-01) (51, 8.63630354404449462891e-01) (52, -7.65484929084777832031e-01) (53, 1.14260745048522949219e+00) (54, 2.16237640380859375000e+01) (55, -9.38804912567138671875e+00) (56, -5.92481493949890136719e-01) (57, 2.68158841133117675781e+00) (58, -6.35027050971984863281e-01) (59, -3.32408142089843750000e+00) (60, -6.49056673049926757812e-01) (61, -1.21946632862091064453e+00) (62, 2.76418948173522949219e+00) (63, -9.24255132675170898438e-01) (64, 5.40564358234405517578e-01) (65, -9.03946220874786376953e-01) (66, 9.75371897220611572266e-02) (67, -2.17775177955627441406e+00) (68, 6.14746138453483581543e-02) (69, 2.33205652236938476562e+00) (70, 5.92822253704071044922e-01) (71, 7.07098186016082763672e-01) (72, -6.82897984981536865234e-01) (73, -6.85593795776367187500e+00) (74, 1.54708838462829589844e+00) (75, 7.11813831329345703125e+00) (76, -6.68676662445068359375e+00) (77, 4.61303383111953735352e-01) (78, 5.99103498458862304688e+00) (79, 9.19068872928619384766e-01) (80, -7.54414272308349609375e+00) (81, -4.52509403228759765625e+00) (82, -3.48289251327514648438e+00) (83, 3.83152747154235839844e+00) (84, 4.31813597679138183594e-02) (85, -9.45173168182373046875e+00) (86, 4.06017042696475982666e-02) (87, 3.11765819787979125977e-01) (88, 1.82541751861572265625e+00) (89, 3.54436278343200683594e+00) (90, -1.66580307483673095703e+00) (91, 5.82913696765899658203e-01) (92, -1.17598697543144226074e-02) (93, 5.63425016403198242188e+00) (94, -5.75273096561431884766e-01) (95, -1.13305306434631347656e+00) (96, 2.05157399177551269531e+00) (97, -1.79841026663780212402e-01) (98, 1.32257091999053955078e+00) (99, -7.30126798152923583984e-01) (100, 2.80686497688293457031e-01) (101, -8.81464406847953796387e-02) (102, -7.37151622772216796875e-01) (103, 3.43231821060180664062e+00) (104, 1.44065916538238525391e+00) (0, -1.89715606689453125000e+02) (1, 4.73265409469604492188e-01) (2, 1.19439981877803802490e-01) (3, 2.35478252172470092773e-01) (4, 3.25720965862274169922e-01) (5, 1.60383248329162597656e+00) (6, 2.09991765022277832031e+00) (7, 7.76222646236419677734e-01) (8, -1.62346804141998291016e+00) (9, 1.94217443466186523438e+00) (10, 2.32198095321655273438e+00) (11, -1.96713554859161376953e+00) (12, 1.99032664299011230469e+00) (13, 1.86796319484710693359e+00) (14, 1.83156824111938476562e+00) (15, 2.52789950370788574219e+00) (16, 1.78382701873779296875e+01) (17, 1.96594429016113281250e+00) (18, 9.72341728210449218750e+00) (19, 9.94032859802246093750e-01) (20, 2.97542738914489746094e+00) (21, 3.26941895484924316406e+00) (22, 1.44263124465942382812e+00) (23, 2.96492123603820800781e+00) (24, 2.04127712249755859375e+01) (25, 4.93856573104858398438e+00) (26, -3.16234499216079711914e-01) (27, 1.99247464537620544434e-01) (28, 2.08585762977600097656e+00) (29, -2.36262874603271484375e+01) (30, 1.19705605506896972656e+00) (31, 1.68478798866271972656e+00) (32, 2.19671082496643066406e+00) (33, 3.94196867942810058594e+00) (34, 2.98858833312988281250e+00) (35, 2.94092607498168945312e+00) (36, 9.82489681243896484375e+00) (37, 2.59199638366699218750e+01) (38, 2.36553263664245605469e+00) (39, 3.02413344383239746094e+00) (40, 6.12332677841186523438e+00) (41, 7.30931425094604492188e+00) (42, 1.07654941082000732422e+00) (43, 2.11657190322875976562e+00) (44, 2.44006276130676269531e+00) (45, 7.93631196022033691406e-01) (46, 3.16544795036315917969e+00) (47, 8.49608802795410156250e+00) (48, 2.62831726074218750000e+01) (49, 8.34190940856933593750e+00) (50, 6.02343368530273437500e+00) (51, 2.57680249214172363281e+00) (52, 5.86093664169311523438e+00) (53, 1.79696261882781982422e+00) (54, 1.15048332214355468750e+01) (55, -8.65211486816406250000e-01) (56, 1.94597750902175903320e-01) (57, -9.32039737701416015625e-01) (58, -2.53816992044448852539e-01) (59, 1.99021506309509277344e+00) (60, 1.12949095666408538818e-01) (61, 6.65966033935546875000e-01) (62, 2.93801593780517578125e+00) (63, 2.52870589494705200195e-01) (64, 2.00482249259948730469e+00) (65, 9.44386303424835205078e-01) (66, 1.85069692134857177734e+00) (67, 1.53204011917114257812e+00) (68, 1.30855545043945312500e+02) (69, 7.11335420608520507812e-01) (70, 1.09852814674377441406e+00) (71, 1.18095612525939941406e+00) (72, 2.50848263502120971680e-01) (73, -2.46940046548843383789e-01) (74, 6.00328624248504638672e-01) (75, 2.11527407169342041016e-01) (76, 4.29091274738311767578e-01) (77, 3.02887856960296630859e-01) (78, 9.07280564308166503906e-01) (79, 2.47680526226758956909e-02) (80, 1.94855630397796630859e-01) (81, -4.11950610578060150146e-02) (82, 2.01456356048583984375e+00) (83, 2.10954062640666961670e-02) (84, 1.93702268600463867188e+00) (85, -3.25762152671813964844e-01) (86, 4.57103610038757324219e-01) (87, 2.61242198944091796875e+00) (88, -5.63339889049530029297e-01) (89, 2.71359175443649291992e-01) (90, 7.57328718900680541992e-02) (91, -2.06747889518737792969e-01) (92, 3.99036765098571777344e-01) (93, 3.63180577754974365234e-01) (94, 3.10452759265899658203e-01) (95, 2.10418462753295898438e-01) (96, 1.93150687217712402344e+00) (97, 4.72137331962585449219e-01) (98, 5.31543791294097900391e-02) (99, 2.65133172273635864258e-01) (100, 2.41920530796051025391e-01) (101, 2.77955681085586547852e-01) (102, 1.50000000000000000000e+03) (103, -1.48540527343750000000e+03) (104, 1.51998376846313476562e+00) (0, -2.53073444366455078125e+01) (1, 1.41366457939147949219e+00) (2, 8.78919363021850585938e-01) (3, 1.79716980457305908203e+00) (4, 4.77518737316131591797e-01) (5, -3.40162277221679687500e+00) (6, 1.13098132610321044922e+00) (7, -1.67027771472930908203e+00) (8, -1.60276436805725097656e+00) (9, 1.03412222862243652344e+00) (10, 4.29020464420318603516e-01) (11, -2.18718695640563964844e+00) (12, -1.83477252721786499023e-01) (13, 1.59724009037017822266e+00) (14, 3.84746864438056945801e-02) (15, -2.96272307634353637695e-01) (16, 1.94450223445892333984e+00) (17, 9.18627262115478515625e-01) (18, 8.91592502593994140625e-01) (19, 1.34362292289733886719e+00) (20, 8.51983904838562011719e-01) (21, 6.79253756999969482422e-01) (22, -4.00681525468826293945e-01) (23, -9.20281186699867248535e-02) (24, 6.49453580379486083984e-01) (25, -1.02886114120483398438e+01) (26, 6.31764113903045654297e-01) (27, 2.71120667457580566406e-01) (28, -1.31071209907531738281e-01) (29, -7.05334484577178955078e-01) (30, -3.59135746955871582031e-01) (31, 4.14386272430419921875e+00) (32, 2.74590730667114257812e-01) (33, -3.43221276998519897461e-01) (34, 1.94179475307464599609e+00) (35, 3.91002964973449707031e+00) (36, 2.50107789039611816406e+00) (37, 1.64432853460311889648e-01) (38, 9.95396971702575683594e-01) (39, 1.08752954006195068359e+00) (40, 1.64268088340759277344e+00) (41, -3.63322067260742187500e+00) (42, 1.63406491279602050781e+00) (43, 1.13768398761749267578e+00) (44, -2.12166881561279296875e+00) (45, -9.66448247432708740234e-01) (46, 5.67227268218994140625e+00) (47, -1.37989912182092666626e-02) (48, 1.34695458412170410156e+00) (49, -3.75055581331253051758e-01) (50, 2.11217427253723144531e+00) (51, -3.12194138765335083008e-01) (52, 1.48758935928344726562e+00) (53, -6.05730628967285156250e+00) (54, -7.54897713661193847656e-01) (55, -3.49541163444519042969e+00) (56, 9.83453035354614257812e-01) (57, -4.11423921585083007812e+00) (58, -8.32732245326042175293e-02) (59, 3.94334226846694946289e-01) (60, -1.36550098657608032227e-01) (61, 6.57719314098358154297e-01) (62, -4.39352154731750488281e-01) (63, 2.81648159027099609375e-01) (64, -2.18173563480377197266e-01) (65, 1.07908856868743896484e+00) (66, 6.94161951541900634766e-01) (67, 1.51383543014526367188e+00) (68, 1.53322327136993408203e+00) (69, 2.31044816970825195312e+00) (70, 1.89615154266357421875e+00) (71, 7.72546947002410888672e-01) (72, 1.58154761791229248047e+00) (73, 6.12447738647460937500e-01) (74, -4.24683272838592529297e-01) (75, 3.47394108772277832031e+00) (76, -2.25668764114379882812e+00) (77, -3.43090206384658813477e-01) (78, 6.04523658752441406250e-01) (79, -1.40042746067047119141e+00) (80, 2.59223723411560058594e+00) (81, 7.61164799332618713379e-02) (82, -9.70065176486968994141e-01) (83, 1.92153537273406982422e+00) (84, 1.12233030796051025391e+00) (85, -2.87067842483520507812e+00) (86, -1.78933471441268920898e-01) (87, 7.24592864513397216797e-01) (88, 9.37440276145935058594e-01) (89, 2.71204280853271484375e+00) (90, -1.33457720279693603516e+00) (91, 2.61464571952819824219e+00) (92, 3.56701421737670898438e+00) (93, 7.67557561397552490234e-01) (94, 6.54367268085479736328e-01) (95, 1.90148591995239257812e+00) (96, -3.89562457799911499023e-01) (97, 2.55884736776351928711e-01) (98, 2.13465619087219238281e+00) (99, -5.99303424358367919922e-01) (100, 6.65446296334266662598e-02) (101, 3.96629381179809570312e+00) (102, 6.47535920143127441406e-01) (103, 1.25401020050048828125e+00) (104, 1.53423440456390380859e+00) (0, 1.11821289062500000000e+01) (1, -1.04825568199157714844e+00) (2, 4.45385664701461791992e-01) (3, 7.56038904190063476562e-01) (4, 2.47715663909912109375e+00) (5, 2.21039581298828125000e+00) (6, -5.86918973922729492188e+00) (7, 8.38687038421630859375e+00) (8, 8.50209295749664306641e-01) (9, 2.00411900877952575684e-01) (10, 1.48807406425476074219e+00) (11, 6.42819786071777343750e+00) (12, 1.33830356597900390625e+00) (13, 1.04773845672607421875e+01) (14, 1.76812136173248291016e+00) (15, 5.14663457870483398438e-01) (16, 5.80221295356750488281e-01) (17, -2.54587888717651367188e+00) (18, 4.65301901102066040039e-01) (19, -2.04233676195144653320e-01) (20, -3.78472834825515747070e-01) (21, -4.35599863529205322266e-01) (22, 1.06059372425079345703e+00) (23, -8.78274822235107421875e+00) (24, -7.82622957229614257812e+00) (25, -8.16374683380126953125e+00) (26, 6.88460022211074829102e-02) (27, 3.66662025451660156250e-01) (28, 2.01802420616149902344e+00) (29, 1.95851728320121765137e-01) (30, 4.26665163040161132812e+00) (31, 3.86036932468414306641e-01) (32, 5.49889087677001953125e-01) (33, 2.12429594993591308594e+00) (34, 4.84771400690078735352e-01) (35, 4.14610052108764648438e+00) (36, 5.43758678436279296875e+00) (37, 3.25015872716903686523e-01) (38, 5.66781425476074218750e+00) (39, 2.04411387443542480469e+00) (40, 4.44815492630004882812e+00) (41, 8.06964218616485595703e-01) (42, -2.27666735649108886719e-01) (43, 3.69638532400131225586e-01) (44, -1.79372417926788330078e+00) (45, 2.72602510452270507812e+00) (46, 2.17814636230468750000e+00) (47, 2.94708514213562011719e+00) (48, -2.97962355613708496094e+00) (49, 4.26685523986816406250e+00) (50, 1.25274813175201416016e+00) (51, -3.41797173023223876953e-02) (52, -1.58156359195709228516e+00) (53, 5.03550386428833007812e+00) (54, -9.07539272308349609375e+00) (55, 6.47470808029174804688e+00) (56, 1.26147806644439697266e+00) (57, 1.89242517948150634766e+00) (58, 8.76305878162384033203e-01) (59, -4.31661978363990783691e-02) (60, 1.29530298709869384766e+00) (61, -1.16289190948009490967e-01) (62, -5.63112676143646240234e-01) (63, -1.51811763644218444824e-01) (64, -5.41300678253173828125e+00) (65, -2.28184655308723449707e-01) (66, -7.68188178539276123047e-01) (67, -3.88568729162216186523e-01) (68, -3.70014548301696777344e-01) (69, 9.32104408740997314453e-01) (70, 8.97302925586700439453e-02) (71, -3.16305309534072875977e-01) (72, 1.21171092987060546875e+00) (73, -2.79428176879882812500e+01) (74, -4.39860016107559204102e-01) (75, -2.39336073398590087891e-01) (76, -8.07170331478118896484e-01) (77, 3.15022468566894531250e-01) (78, -2.15357780456542968750e-01) (79, -1.17024338245391845703e+00) (80, 1.24821364879608154297e+00) (81, 1.00838577747344970703e+00) (82, -1.71925574541091918945e-01) (83, 1.69684195518493652344e+00) (84, -1.60270065069198608398e-01) (85, 1.93360114097595214844e+00) (86, 5.31396806240081787109e-01) (87, -5.94830453395843505859e-01) (88, 1.67388725280761718750e+00) (89, 1.50473964214324951172e+00) (90, 9.29568886756896972656e-01) (91, 2.09081459045410156250e+00) (92, 1.01613712310791015625e+00) (93, 9.24701929092407226562e-01) (94, 1.73750922083854675293e-01) (95, 3.14840257167816162109e-01) (96, -9.72258687019348144531e-01) (97, 2.44690507650375366211e-01) (98, 1.98779821395874023438e+00) (99, 3.61786752939224243164e-01) (100, -6.25036656856536865234e-02) (101, 2.91750431060791015625e-01) (102, -7.33248329162597656250e+00) (103, 1.35420055389404296875e+01) (104, 1.42043614387512207031e+00) (0, -1.29383916854858398438e+01) (1, 6.53139686584472656250e+00) (2, -6.67074501514434814453e-01) (3, 1.29314911365509033203e+00) (4, 1.88427424430847167969e+00) (5, -7.80072736740112304688e+00) (6, 6.62431669235229492188e+00) (7, 5.24256420135498046875e+00) (8, 7.53223657608032226562e-01) (9, 1.64510793983936309814e-02) (10, 8.50436115264892578125e+00) (11, 2.52190756797790527344e+00) (12, -1.00017584860324859619e-01) (13, 4.34355306625366210938e+00) (14, 1.50379076600074768066e-01) (15, 6.29026770591735839844e-01) (16, -2.49676299095153808594e+00) (17, 1.92246749997138977051e-01) (18, -2.20718598365783691406e+00) (19, 1.50132179260253906250e+00) (20, -2.63073706626892089844e+00) (21, -3.29328966140747070312e+00) (22, 1.16215682029724121094e+00) (23, 6.60918712615966796875e+00) (24, -1.17870934307575225830e-01) (25, -4.16209459304809570312e+00) (26, 1.98243033885955810547e+00) (27, 9.63968455791473388672e-01) (28, 4.93496417999267578125e+00) (29, -2.23004245758056640625e+00) (30, 5.86221039295196533203e-01) (31, 6.80532753467559814453e-01) (32, -7.40443706512451171875e+00) (33, 2.80444717407226562500e+00) (34, 1.41952252388000488281e+00) (35, 7.19105434417724609375e+00) (36, -2.58936572074890136719e+00) (37, 9.01409015059471130371e-02) (38, 2.10571360588073730469e+00) (39, -1.04632586240768432617e-01) (40, 1.98814392089843750000e+00) (41, 7.34563684463500976562e+00) (42, -3.95667076110839843750e-01) (43, -9.27986621856689453125e-01) (44, 2.34421157836914062500e+00) (45, 1.72654151916503906250e+00) (46, 4.61131715774536132812e+00) (47, 1.62657713890075683594e+00) (48, -4.41663885116577148438e+00) (49, 1.74136710166931152344e+00) (50, 5.30303597450256347656e-01) (51, -4.95082050561904907227e-01) (52, -2.20577263832092285156e+00) (53, -5.08070826530456542969e-01) (54, -2.67583465576171875000e+00) (55, 9.22453689575195312500e+00) (56, -7.18108367919921875000e+00) (57, -9.06328737735748291016e-01) (58, -1.17884802818298339844e+00) (59, 3.96891188621520996094e+00) (60, 2.71534872055053710938e+00) (61, -2.09992587566375732422e-01) (62, -5.56049346923828125000e+00) (63, 4.06519681215286254883e-01) (64, -1.45079100131988525391e+00) (65, 1.19379207491874694824e-01) (66, 6.77576899528503417969e-01) (67, -5.78745603561401367188e-01) (68, -2.76056790351867675781e+00) (69, 3.39357948303222656250e+00) (70, -2.59845614433288574219e-01) (71, 1.46644786000251770020e-01) (72, 4.27234619855880737305e-02) (73, -1.98568286895751953125e+01) (74, -5.01418232917785644531e-01) (75, 5.07903861999511718750e+00) (76, -1.42736077308654785156e+00) (77, -1.34494692087173461914e-01) (78, -3.97236418724060058594e+00) (79, 9.51449349522590637207e-02) (80, 8.54576170444488525391e-01) (81, 3.81389665603637695312e+00) (82, -1.60809651017189025879e-01) (83, 2.44584393501281738281e+00) (84, 1.33415794372558593750e+00) (85, 1.20686662197113037109e+00) (86, -2.84974217414855957031e-01) (87, -5.12016832828521728516e-01) (88, 1.40965497493743896484e+00) (89, 1.92084586620330810547e+00) (90, -3.75299364328384399414e-01) (91, 6.27656519412994384766e-01) (92, -7.11330994963645935059e-02) (93, 3.53820896148681640625e+00) (94, 2.67710208892822265625e-01) (95, 5.41779947280883789062e+00) (96, -8.15019905567169189453e-01) (97, -2.90366673469543457031e+00) (98, 4.80275839567184448242e-01) (99, 1.33935272693634033203e+00) (100, 2.83258706331253051758e-01) (101, 1.24447762966156005859e+00) (102, -5.30804491043090820312e+00) (103, 9.51737976074218750000e+00) (104, 1.31395566463470458984e+00) (0, 1.16092910766601562500e+01) (1, 9.85173761844635009766e-01) (2, -1.18099868297576904297e+00) (3, -8.37071463465690612793e-02) (4, 2.20310702919960021973e-01) (5, 7.86368310451507568359e-01) (6, 1.97847306728363037109e+00) (7, 1.67128190398216247559e-01) (8, -9.13752460479736328125e+00) (9, 1.65772140026092529297e+00) (10, 2.40692830085754394531e+00) (11, -6.21073246002197265625e-01) (12, -9.92338806390762329102e-02) (13, 7.64097869396209716797e-01) (14, 3.88772201538085937500e+00) (15, -2.12870873510837554932e-02) (16, -3.72138172388076782227e-01) (17, 2.78011870384216308594e+00) (18, -9.38252747058868408203e-01) (19, -1.78344640880823135376e-02) (20, 2.44690462946891784668e-01) (21, 3.80251914262771606445e-01) (22, 1.89979270100593566895e-01) (23, -1.15781414508819580078e+00) (24, -8.65084946155548095703e-01) (25, 6.26213371753692626953e-01) (26, 5.73329567909240722656e-01) (27, 4.29962605237960815430e-01) (28, 2.14352846145629882812e+00) (29, -4.06957745552062988281e-01) (30, 1.94034731388092041016e+00) (31, 7.96691715717315673828e-01) (32, 3.22216129302978515625e+00) (33, 2.56563472747802734375e+00) (34, 3.02607583999633789062e+00) (35, -8.52914988994598388672e-01) (36, 5.00976800918579101562e+00) (37, 4.39228653907775878906e-01) (38, 5.60282826423645019531e-01) (39, 7.18610703945159912109e-01) (40, -9.34485673904418945312e-01) (41, 2.99720597267150878906e+00) (42, -1.55365154147148132324e-01) (43, 7.42769527435302734375e+00) (44, 3.42450165748596191406e+00) (45, 2.43129059672355651855e-01) (46, -2.01641845703125000000e+00) (47, -1.69240844249725341797e+00) (48, -3.54281711578369140625e+00) (49, 4.96664792299270629883e-01) (50, -8.84719967842102050781e-01) (51, -2.99206376075744628906e-01) (52, -3.00344824790954589844e+00) (53, 1.20481920242309570312e+00) (54, -2.22860012054443359375e+01) (55, 6.64483642578125000000e+00) (56, -2.96787977218627929688e-01) (57, 9.27057206630706787109e-01) (58, 8.40683043003082275391e-01) (59, 1.87153816223144531250e+00) (60, 1.77962219715118408203e+00) (61, 1.54992771148681640625e+00) (62, -7.15330314636230468750e+00) (63, 1.93732368946075439453e+00) (64, 3.50457406044006347656e+00) (65, 1.06445416808128356934e-01) (66, 1.02589535713195800781e+00) (67, 1.04646548628807067871e-01) (68, -2.34672408550977706909e-02) (69, 5.37814557552337646484e-01) (70, 1.54771223664283752441e-01) (71, -1.27159774303436279297e-01) (72, -1.44926890730857849121e-01) (73, -2.12786693572998046875e+01) (74, 1.95892202854156494141e+00) (75, 4.27401274442672729492e-01) (76, 8.16047549247741699219e-01) (77, 2.74283885955810546875e-01) (78, 6.66777715086936950684e-02) (79, 3.87150377035140991211e-01) (80, 8.30696344375610351562e-01) (81, 9.60687518119812011719e-01) (82, 7.58722841739654541016e-01) (83, 1.23204588890075683594e+00) (84, 4.41685020923614501953e-02) (85, 2.05949735641479492188e+00) (86, 2.26342067122459411621e-01) (87, 1.04396253824234008789e-01) (88, 2.11000657081604003906e+00) (89, 6.14141047000885009766e-01) (90, 4.30619925260543823242e-01) (91, 2.32500243186950683594e+00) (92, 4.33678239583969116211e-01) (93, 1.05131709575653076172e+00) (94, 3.89935404062271118164e-01) (95, 7.17219829559326171875e-01) (96, -8.19482281804084777832e-03) (97, 3.89755815267562866211e-01) (98, 6.58892333507537841797e-01) (99, 4.71133261919021606445e-01) (100, 6.60380661487579345703e-01) (101, 2.21521541476249694824e-01) (102, -4.47842866182327270508e-01) (103, 2.41308403015136718750e+00) (104, 1.52572202682495117188e+00) (0, 4.83945350646972656250e+01) (1, 4.76548385620117187500e+00) (2, 6.95645236968994140625e+00) (3, 2.35057091712951660156e+00) (4, 1.50973641872406005859e+00) (5, 1.68717041015625000000e+01) (6, -6.98038995265960693359e-01) (7, -7.18100786209106445312e-01) (8, 2.54546976089477539062e+00) (9, 1.51952803134918212891e+00) (10, -8.84094619750976562500e+00) (11, -1.39213886260986328125e+01) (12, -6.77798926830291748047e-01) (13, -1.23890972137451171875e+00) (14, -2.47095525264739990234e-01) (15, 5.08713340759277343750e+00) (16, -4.33514297008514404297e-01) (17, 1.46509671211242675781e+00) (18, -5.57632863521575927734e-01) (19, 2.17626738548278808594e+00) (20, -6.11586809158325195312e-01) (21, 2.46317100524902343750e+00) (22, 1.27010238170623779297e+00) (23, 3.33509802818298339844e+00) (24, 2.40395331382751464844e+00) (25, 5.10820858180522918701e-02) (26, 5.24481475353240966797e-01) (27, 3.60114455223083496094e-01) (28, 2.97647881507873535156e+00) (29, 2.27786675095558166504e-01) (30, 2.94866538047790527344e+00) (31, 2.23096132278442382812e+00) (32, 2.11036944389343261719e+00) (33, -5.39540290832519531250e-01) (34, -1.14935445785522460938e+00) (35, -3.28410863876342773438e-02) (36, 1.17792344093322753906e+00) (37, 1.31916689872741699219e+00) (38, -7.84927308559417724609e-01) (39, -5.91304302215576171875e-01) (40, -4.82490181922912597656e-01) (41, -1.41069006919860839844e+00) (42, 5.21979093551635742188e-01) (43, -3.25348824262619018555e-01) (44, 2.27297353744506835938e+00) (45, 2.28398233652114868164e-01) (46, 5.23985385894775390625e-01) (47, 2.27535247802734375000e+00) (48, 7.95665860176086425781e-01) (49, 2.27561068534851074219e+00) (50, 1.87401497364044189453e+00) (51, 2.24237227439880371094e+00) (52, 4.97585356235504150391e-01) (53, 2.12632322311401367188e+00) (54, 6.28640055656433105469e-01) (55, -1.51453122496604919434e-01) (56, -2.65825390815734863281e-01) (57, -2.83349967002868652344e+00) (58, -6.42687261104583740234e-01) (59, 5.73511302471160888672e-01) (60, -5.48135399818420410156e-01) (61, 1.40145644545555114746e-02) (62, 2.37087702751159667969e+00) (63, -1.77305355668067932129e-01) (64, 5.13347387313842773438e-01) (65, -1.02816991508007049561e-01) (66, 6.83449327945709228516e-01) (67, 8.07020545005798339844e-01) (68, 6.75393104553222656250e-01) (69, 3.95876944065093994141e-01) (70, 8.63545611500740051270e-02) (71, 2.81562566757202148438e-01) (72, -5.32168507575988769531e-01) (73, 2.91128605604171752930e-02) (74, -3.79001110792160034180e-01) (75, -3.22688482701778411865e-02) (76, -4.26307618618011474609e-01) (77, -4.45020467042922973633e-01) (78, -3.51599931716918945312e-01) (79, 1.15255582332611083984e+00) (80, -5.03619670867919921875e-01) (81, 7.76459991931915283203e-01) (82, 6.08615716919302940369e-03) (83, -6.40063285827636718750e-01) (84, -3.23634207248687744141e-01) (85, -2.59899735450744628906e+00) (86, -4.87317770719528198242e-01) (87, 1.82335174083709716797e+00) (88, -8.27690720558166503906e-01) (89, -5.11542201042175292969e-01) (90, -2.97986477613449096680e-01) (91, -7.28341639041900634766e-01) (92, -5.01483678817749023438e-01) (93, -4.72864151000976562500e-01) (94, -4.01243954896926879883e-01) (95, -2.27804526686668395996e-01) (96, -1.96373105049133300781e-01) (97, -2.19426289200782775879e-01) (98, -5.32455921173095703125e-01) (99, -3.44302237033843994141e-01) (100, -3.60114216804504394531e-01) (101, -4.23997521400451660156e-01) (102, 1.50000000000000000000e+03) (103, -1.48540527343750000000e+03) (104, 2.38381528854370117188e+00) (0, -3.10873508453369140625e+01) (1, 3.40891152620315551758e-01) (2, 3.60935211181640625000e-01) (3, 9.33418810367584228516e-01) (4, -1.42040699720382690430e-01) (5, 3.61807203292846679688e+00) (6, -5.76150596141815185547e-01) (7, 2.72798418998718261719e+00) (8, 2.71695375442504882812e+00) (9, -8.00139725208282470703e-01) (10, 5.74464738368988037109e-01) (11, -7.35186529159545898438e+00) (12, -9.01844725012779235840e-03) (13, -1.14165043830871582031e+00) (14, -3.61416608095169067383e-01) (15, -4.13786858320236206055e-01) (16, -7.11458683013916015625e-01) (17, -8.59333574771881103516e-02) (18, 1.73308357596397399902e-01) (19, 2.70612716674804687500e+00) (20, 3.31023859977722167969e+00) (21, 2.06282830238342285156e+00) (22, 3.57063436508178710938e+00) (23, -8.59931945800781250000e+00) (24, -3.05130624771118164062e+00) (25, -9.37353596091270446777e-02) (26, 8.19845378398895263672e-01) (27, -9.43505048751831054688e-01) (28, 1.80148577690124511719e+00) (29, -2.51206666231155395508e-01) (30, 3.93512153625488281250e+00) (31, 4.81513118743896484375e+00) (32, 5.84817028045654296875e+00) (33, 8.59602317214012145996e-02) (34, -5.28280973434448242188e+00) (35, -4.11620795726776123047e-01) (36, 2.01196026802062988281e+00) (37, -2.01218557357788085938e+00) (38, 3.54550909996032714844e+00) (39, -5.33806681632995605469e-01) (40, 1.25507223606109619141e+00) (41, 6.56660985946655273438e+00) (42, 5.87363541126251220703e-01) (43, -1.74423784017562866211e-01) (44, 1.15293812751770019531e+00) (45, 1.71405827999114990234e+00) (46, -4.24987077713012695312e-01) (47, 5.48247575759887695312e+00) (48, -4.50521230697631835938e+00) (49, 8.84181082248687744141e-01) (50, 5.76737344264984130859e-01) (51, -7.43612587451934814453e-01) (52, 5.24326622486114501953e-01) (53, 9.95642960071563720703e-01) (54, -6.91777229309082031250e+00) (55, 4.77997064590454101562e+00) (56, -5.22435307502746582031e-01) (57, 1.84432968497276306152e-01) (58, -6.96634128689765930176e-02) (59, 2.06876993179321289062e+00) (60, 1.87419390678405761719e+00) (61, -4.92412596940994262695e-01) (62, 1.07536447048187255859e+00) (63, 1.07670664787292480469e+00) (64, -1.48846423625946044922e+00) (65, 1.11603081226348876953e+00) (66, 1.50440260767936706543e-01) (67, 6.81963860988616943359e-01) (68, -2.63885855674743652344e+00) (69, 1.52653968334197998047e+00) (70, 6.47521972656250000000e+00) (71, 4.94994372129440307617e-01) (72, 1.35118329524993896484e+00) (73, 1.34700989723205566406e+00) (74, 7.07937419414520263672e-01) (75, 4.91514354944229125977e-01) (76, 2.21846699714660644531e+00) (77, -9.89816904067993164062e-01) (78, -3.25976163148880004883e-01) (79, 6.62046432495117187500e-01) (80, 3.10037326812744140625e+00) (81, 8.50500047206878662109e-01) (82, 4.85140308737754821777e-02) (83, -9.84883546829223632812e-01) (84, 1.36207148432731628418e-01) (85, 2.51121807098388671875e+00) (86, 1.31648778915405273438e+00) (87, 9.17114913463592529297e-01) (88, 3.09983301162719726562e+00) (89, -1.28723487257957458496e-01) (90, 1.53519010543823242188e+00) (91, 8.45381915569305419922e-01) (92, -3.63193809986114501953e-01) (93, 9.06669437885284423828e-01) (94, 1.31399378180503845215e-01) (95, 7.49294340610504150391e-01) (96, -4.87370729446411132812e+00) (97, 1.19904458522796630859e+00) (98, 1.78593635559082031250e+00) (99, -2.65961825847625732422e-01) (100, 1.74144670367240905762e-01) (101, 2.72534899413585662842e-02) (102, 1.34524035453796386719e+00) (103, 6.09045743942260742188e-01) (104, 8.00972640514373779297e-01) (0, -1.24910056591033935547e+00) (1, -1.63895308971405029297e+00) (2, -1.74642026424407958984e-01) (3, -1.28034317493438720703e+00) (4, -2.36903235316276550293e-01) (5, 4.37191367149353027344e-01) (6, 3.54136848449707031250e+00) (7, 3.12463760375976562500e+00) (8, -9.33853340148925781250e+00) (9, 1.95094561576843261719e+00) (10, 6.07705545425415039062e+00) (11, -5.32873034477233886719e-01) (12, -1.36699390411376953125e+00) (13, -9.54255771636962890625e+00) (14, 6.86754941940307617188e-01) (15, -4.89337712526321411133e-01) (16, 1.51855218410491943359e+00) (17, 6.06090641021728515625e+00) (18, -6.41199827194213867188e+00) (19, 1.10934114456176757812e+00) (20, 7.17985391616821289062e+00) (21, -3.52333736419677734375e+00) (22, 1.92779684066772460938e+00) (23, -9.22408401966094970703e-01) (24, -1.17092475891113281250e+01) (25, 1.04161179065704345703e+00) (26, -3.12251019477844238281e+00) (27, 1.51914954185485839844e+00) (28, 2.26473599672317504883e-01) (29, 3.47123026847839355469e+00) (30, 1.22284603118896484375e+00) (31, -8.61044216156005859375e+00) (32, 1.41489779949188232422e+00) (33, -1.35533428192138671875e+00) (34, -2.17494559288024902344e+00) (35, -8.94557237625122070312e-01) (36, -1.92573559284210205078e+00) (37, 6.82954931259155273438e+00) (38, -4.27298456430435180664e-01) (39, 6.29942119121551513672e-01) (40, -1.43861448764801025391e+00) (41, -9.44998741149902343750e-01) (42, 1.08443605899810791016e+00) (43, 4.03454542160034179688e-01) (44, 2.89101433753967285156e+00) (45, -5.28359524905681610107e-02) (46, -1.92035210132598876953e+00) (47, -7.15124607086181640625e-01) (48, -2.15129184722900390625e+00) (49, -2.06651639938354492188e+00) (50, 2.21950411796569824219e-01) (51, -1.11589336395263671875e+00) (52, 1.36400306224822998047e+00) (53, -2.02837252616882324219e+00) (54, -1.95844471454620361328e+00) (55, 9.96187782287597656250e+00) (56, -9.70619380474090576172e-01) (57, -5.57508952915668487549e-02) (58, -2.96085095405578613281e+00) (59, 1.32698786258697509766e+00) (60, -9.92209672927856445312e-01) (61, 1.00450026988983154297e+00) (62, -3.30401062965393066406e+00) (63, -1.13063074648380279541e-01) (64, 2.67383623123168945312e+00) (65, 1.20196022093296051025e-01) (66, -1.32393336296081542969e+00) (67, 1.92176747322082519531e+00) (68, 1.72689712047576904297e+00) (69, 4.30157244205474853516e-01) (70, -7.67502069473266601562e-01) (71, 2.72186970710754394531e+00) (72, 1.57536089420318603516e+00) (73, 1.47795885801315307617e-01) (74, 1.66700530052185058594e+00) (75, 1.06895923614501953125e+00) (76, 1.16234064102172851562e+00) (77, 8.10243375599384307861e-03) (78, 3.74784134328365325928e-03) (79, -1.62098959088325500488e-01) (80, -2.26192250847816467285e-01) (81, 4.30102720856666564941e-02) (82, -6.19210973381996154785e-02) (83, 1.87197357416152954102e-01) (84, 2.65207499265670776367e-01) (85, -4.77043008804321289062e+00) (86, 1.42080515623092651367e-01) (87, 8.82685542106628417969e-01) (88, -6.41201066970825195312e+00) (89, -2.80078709125518798828e-01) (90, -4.36219751834869384766e-01) (91, -1.08310472965240478516e+00) (92, -8.41538142412900924683e-03) (93, -1.46446321159601211548e-02) (94, -2.15104982256889343262e-01) (95, -1.96225330233573913574e-01) (96, 4.01566401124000549316e-02) (97, -1.71375706791877746582e-01) (98, -3.21960598230361938477e-01) (99, -1.98474749922752380371e-01) (100, -1.90935507416725158691e-01) (101, 2.65965722501277923584e-02) (102, -7.40374505519866943359e-01) (103, 2.92906665802001953125e+00) (104, 2.04280209541320800781e+00) (0, -3.27524447441101074219e+00) (1, 4.51538056135177612305e-01) (2, -2.02629044651985168457e-01) (3, 7.15838074684143066406e-01) (4, -7.31401503086090087891e-01) (5, 1.33514797687530517578e+00) (6, 1.17003774642944335938e+00) (7, 1.53545868396759033203e+00) (8, -2.18004250526428222656e+00) (9, -6.18420124053955078125e-01) (10, 1.94407033920288085938e+00) (11, -6.43497586250305175781e-01) (12, -7.80807495117187500000e-01) (13, -1.76093494892120361328e+00) (14, -6.92238984629511833191e-03) (15, 1.99197396636009216309e-01) (16, -3.36254000663757324219e-01) (17, -1.36975094676017761230e-01) (18, -7.07058012485504150391e-01) (19, -2.85338973999023437500e+00) (20, -4.39513444900512695312e-01) (21, -1.62975037097930908203e+00) (22, 1.11420190334320068359e+00) (23, 1.86670637130737304688e+00) (24, 1.04499638080596923828e+00) (25, 9.52771663665771484375e-01) (26, -1.06435513496398925781e+00) (27, -1.22325837612152099609e+00) (28, -9.26070153713226318359e-01) (29, -6.16360187530517578125e-01) (30, -5.06663620471954345703e-01) (31, -3.23953956365585327148e-01) (32, -1.05467945337295532227e-01) (33, -2.09143102169036865234e-01) (34, 1.36539626121520996094e+00) (35, -1.05242657661437988281e+00) (36, -1.46720051765441894531e-01) (37, 2.04970002174377441406e+00) (38, -3.13887894153594970703e-01) (39, -6.08434975147247314453e-02) (40, 1.70474815368652343750e+00) (41, -3.43052721023559570312e+00) (42, -5.45453652739524841309e-02) (43, 1.16914522647857666016e+00) (44, -5.06371140480041503906e-01) (45, -3.17142397165298461914e-01) (46, 1.41678497195243835449e-01) (47, 1.87935090065002441406e+00) (48, 3.50918078422546386719e+00) (49, 1.27319514751434326172e+00) (50, 1.01869595050811767578e+00) (51, 5.32610379159450531006e-02) (52, 8.81194770336151123047e-01) (53, 8.97784054279327392578e-01) (54, 1.80116820335388183594e+00) (55, 1.18498814105987548828e+00) (56, -4.00914877653121948242e-01) (57, 6.77132010459899902344e-01) (58, 1.10913543701171875000e+01) (59, 3.23934078216552734375e+00) (60, -6.95408940315246582031e-01) (61, -4.45180082321166992188e+00) (62, 3.06923389434814453125e-01) (63, -6.72177135944366455078e-01) (64, 5.11493110656738281250e+00) (65, -5.87028384208679199219e-01) (66, 1.08682227134704589844e+00) (67, 1.81838572025299072266e+00) (68, 9.86991822719573974609e-01) (69, -9.50633347034454345703e-01) (70, -3.36807280778884887695e-01) (71, -1.22026592493057250977e-01) (72, 1.02173280715942382812e+00) (73, -2.01697845458984375000e+01) (74, -1.08956778049468994141e+00) (75, -2.66609048843383789062e+00) (76, -2.15066719055175781250e+00) (77, -5.48919916152954101562e-01) (78, 4.21306848526000976562e+00) (79, -3.67628479003906250000e+00) (80, -1.97352230548858642578e+00) (81, 1.88485369086265563965e-01) (82, 5.54073274135589599609e-01) (83, 2.33438897132873535156e+00) (84, 1.18318760395050048828e+00) (85, -3.39413785934448242188e+00) (86, 3.59111838042736053467e-02) (87, -4.23756152391433715820e-01) (88, -2.04575443267822265625e+00) (89, 3.93323242664337158203e-01) (90, 1.52046489715576171875e+00) (91, -2.65547084808349609375e+00) (92, -3.62604212760925292969e+00) (93, 5.98910140991210937500e+00) (94, -5.23499190807342529297e-01) (95, -1.01498329639434814453e+00) (96, 1.13334679603576660156e+00) (97, -3.99238014221191406250e+00) (98, -4.35722637176513671875e+00) (99, 4.43190038204193115234e-01) (100, -7.06869363784790039062e-01) (101, -7.55932867527008056641e-01) (102, 9.30208802223205566406e-01) (103, 1.09945142269134521484e+00) (104, 2.62994003295898437500e+00) (0, -2.72220764160156250000e+01) (1, -1.04085230827331542969e+00) (2, -4.64671432971954345703e-01) (3, 3.17386955022811889648e-01) (4, 1.04408192634582519531e+00) (5, -7.28316605091094970703e-01) (6, 3.43151545524597167969e+00) (7, -3.00649428367614746094e+00) (8, -2.60060310363769531250e+00) (9, 8.13260555267333984375e-01) (10, -3.49877476692199707031e+00) (11, 1.87327146530151367188e-01) (12, 1.45559978485107421875e+00) (13, 1.65802252292633056641e+00) (14, -2.85796308517456054688e+00) (15, -2.37273890525102615356e-02) (16, 6.89930582046508789062e+00) (17, 1.31640613079071044922e+00) (18, 5.55884599685668945312e+00) (19, -3.29912573099136352539e-01) (20, -4.02357482910156250000e+00) (21, -1.75989556312561035156e+00) (22, 4.25009298324584960938e+00) (23, 6.35711050033569335938e+00) (24, 6.01810073852539062500e+00) (25, -8.34006977081298828125e+00) (26, -4.00492608547210693359e-01) (27, -9.98763203620910644531e-01) (28, -2.17004847526550292969e+00) (29, -2.66547054052352905273e-01) (30, 1.90398359298706054688e+00) (31, 7.21441805362701416016e-01) (32, -5.94235563278198242188e+00) (33, 1.88078939914703369141e+00) (34, -4.37114286422729492188e+00) (35, 1.71885585784912109375e+00) (36, -1.29743182659149169922e+00) (37, 5.11389160156250000000e+00) (38, -7.84111618995666503906e-01) (39, 3.76827120780944824219e-01) (40, 5.12409782409667968750e+00) (41, 8.10305178165435791016e-01) (42, 2.53796100616455078125e+00) (43, -1.62092471122741699219e+00) (44, 2.19666767120361328125e+01) (45, -5.66755867004394531250e+00) (46, -7.12175011634826660156e-01) (47, 5.80826902389526367188e+00) (48, 1.08318338394165039062e+01) (49, 5.54637491703033447266e-01) (50, 6.71862649917602539062e+00) (51, 8.61208617687225341797e-01) (52, 2.22681879997253417969e+00) (53, 2.27516078948974609375e+00) (54, 3.64454889297485351562e+00) (55, -2.65274190902709960938e+00) (56, -2.27808147668838500977e-01) (57, -8.75949978828430175781e-01) (58, -4.48515117168426513672e-01) (59, 9.83456611633300781250e-01) (60, -2.59205967187881469727e-01) (61, 1.11029934883117675781e+00) (62, 1.14329421520233154297e+00) (63, 9.29658293724060058594e-01) (64, 2.10886383056640625000e+00) (65, 2.37548017501831054688e+00) (66, 3.95064401626586914062e+00) (67, 2.54601454734802246094e+00) (68, 5.55903196334838867188e+00) (69, 4.00369137525558471680e-01) (70, 2.78852343559265136719e+00) (71, 3.71021747589111328125e-01) (72, 1.02091872692108154297e+00) (73, -1.64042150974273681641e+00) (74, -5.71028649806976318359e-01) (75, 1.56347429752349853516e+00) (76, -4.34764772653579711914e-01) (77, -2.00439523905515670776e-02) (78, 6.22936069965362548828e-01) (79, 1.49718284606933593750e+00) (80, -5.16065299510955810547e-01) (81, 6.08373403549194335938e-01) (82, -9.77733016014099121094e-01) (83, -6.76027461886405944824e-02) (84, -2.73361563682556152344e+00) (85, -1.04278004169464111328e+00) (86, 5.89264929294586181641e-01) (87, 1.57780790328979492188e+00) (88, -8.85597884654998779297e-01) (89, 1.00507938861846923828e+00) (90, -2.12458521127700805664e-01) (91, -9.84213829040527343750e-01) (92, 1.99292868375778198242e-01) (93, 7.34343677759170532227e-02) (94, 8.49009081721305847168e-02) (95, -1.49960470199584960938e+00) (96, 9.52793955802917480469e-02) (97, -2.81929969787597656250e-01) (98, -4.01595413684844970703e-01) (99, -4.18136864900588989258e-02) (100, -4.09623160958290100098e-02) (101, 1.11345970630645751953e+00) (102, -6.75822615623474121094e-01) (103, 3.02274012565612792969e+00) (104, 1.87111258506774902344e+00) (0, 2.05178260803222656250e-01) (1, 1.99217462539672851562e+00) (2, -5.21848142147064208984e-01) (3, 5.59411382675170898438e+00) (4, -6.86114072799682617188e-01) (5, -6.46270930767059326172e-01) (6, 8.68409872055053710938e-01) (7, 1.07504677772521972656e+00) (8, -5.68667030334472656250e+00) (9, 4.44416713714599609375e+00) (10, 2.20419549942016601562e+00) (11, -1.12428456544876098633e-01) (12, -2.37919235229492187500e+00) (13, 2.43825733661651611328e-01) (14, -7.06134438514709472656e-01) (15, -7.72123670578002929688e+00) (16, -3.25179910659790039062e+00) (17, -3.01984280347824096680e-01) (18, 7.30529487133026123047e-01) (19, -7.24043309688568115234e-01) (20, 5.29276609420776367188e+00) (21, -3.97450351715087890625e+00) (22, 2.17632222175598144531e+00) (23, 7.43741929531097412109e-01) (24, 1.80499970912933349609e+00) (25, 2.86272019147872924805e-01) (26, -6.31532192230224609375e-01) (27, 4.16865539550781250000e+00) (28, -1.39782536029815673828e+00) (29, -1.51003718376159667969e-01) (30, 1.76389741897583007812e+00) (31, 1.87366187572479248047e+00) (32, -4.56550025939941406250e+00) (33, 4.06595468521118164062e+00) (34, -6.31282567977905273438e+00) (35, 4.60324001312255859375e+00) (36, -1.30744263529777526855e-01) (37, -1.90420684814453125000e+01) (38, 1.06136283874511718750e+01) (39, -7.19720125198364257812e+00) (40, 2.16859984397888183594e+00) (41, -6.40238571166992187500e+00) (42, 2.95960474759340286255e-02) (43, 3.58516407012939453125e+00) (44, 1.23101425170898437500e+00) (45, 1.71629989147186279297e+00) (46, -5.34615457057952880859e-01) (47, 3.12516927719116210938e-01) (48, -4.97424459457397460938e+00) (49, 5.71392238140106201172e-01) (50, -4.93274641036987304688e+00) (51, -8.61337006092071533203e-01) (52, -2.37741068005561828613e-01) (53, 2.05081105232238769531e+00) (54, -1.91251087188720703125e+00) (55, -1.42422199249267578125e-01) (56, 5.37506103515625000000e-01) (57, -3.58930863440036773682e-02) (58, 1.66636908054351806641e+00) (59, -6.45333766937255859375e-01) (60, -1.29515433311462402344e+00) (61, 4.94869470596313476562e-01) (62, 2.74056053161621093750e+00) (63, -9.18713212013244628906e-01) (64, 3.69094657897949218750e+00) (65, -7.83354282379150390625e-01) (66, -4.82928365468978881836e-01) (67, 1.62753963470458984375e+00) (68, 1.22152006626129150391e+00) (69, 1.70082643628120422363e-01) (70, 1.40111315250396728516e+00) (71, -2.36618876457214355469e+00) (72, -6.77880585193634033203e-01) (73, 1.39006698131561279297e+00) (74, -2.86867678165435791016e-01) (75, -1.35006785392761230469e+00) (76, -6.91882252693176269531e-01) (77, 4.52801465988159179688e-01) (78, 1.22198355197906494141e+00) (79, 1.15292894840240478516e+00) (80, -9.42838847637176513672e-01) (81, -1.10837787389755249023e-01) (82, -4.50533807277679443359e-01) (83, -6.64663851261138916016e-01) (84, 9.34522747993469238281e-01) (85, -1.95039331912994384766e+00) (86, 1.47879794239997863770e-01) (87, 2.28089070320129394531e+00) (88, -6.36927068233489990234e-01) (89, -5.17348945140838623047e-01) (90, 5.45612514019012451172e-01) (91, -7.71336734294891357422e-01) (92, -2.75561928749084472656e-01) (93, 2.48197853565216064453e-01) (94, -4.35098037123680114746e-02) (95, -6.45075142383575439453e-01) (96, 2.33248043060302734375e+00) (97, -4.59050089120864868164e-01) (98, -6.81557953357696533203e-01) (99, -3.01257699728012084961e-01) (100, -3.80063891410827636719e-01) (101, 9.26111936569213867188e-02) (102, -2.13113117218017578125e+00) (103, 5.08852910995483398438e+00) (104, 1.82493543624877929688e+00) (0, 7.09035968780517578125e+00) (1, 6.69915854930877685547e-01) (2, 6.45065069198608398438e+00) (3, 1.12772679328918457031e+00) (4, 2.93806195259094238281e-01) (5, 2.80712336301803588867e-01) (6, -1.52841925621032714844e+00) (7, 6.51931571960449218750e+00) (8, -8.03577995300292968750e+00) (9, -7.25584208965301513672e-01) (10, 4.84611034393310546875e+00) (11, -1.36019337177276611328e+00) (12, 6.50651752948760986328e-01) (13, -8.15413475036621093750e-01) (14, -2.82124471664428710938e+00) (15, -9.16563794016838073730e-02) (16, -1.57829606533050537109e+00) (17, 5.57033109664916992188e+00) (18, -4.29275512695312500000e+00) (19, 3.78605604171752929688e+00) (20, 7.20975208282470703125e+00) (21, -3.50918769836425781250e+00) (22, 5.28543516993522644043e-02) (23, 4.22874641418457031250e+00) (24, 4.53686922788619995117e-01) (25, -1.12055158615112304688e+00) (26, -2.53842902183532714844e+00) (27, 1.45574414730072021484e+00) (28, 1.64129781723022460938e+00) (29, -8.67686748504638671875e-01) (30, 1.30139565467834472656e+00) (31, 3.85487824678421020508e-01) (32, 3.31707715988159179688e+00) (33, -2.59052610397338867188e+00) (34, 2.72821378707885742188e+00) (35, -1.17518973350524902344e+00) (36, 8.46037387847900390625e-01) (37, -3.93877840042114257812e+00) (38, 1.22137188911437988281e+00) (39, 1.62692582607269287109e+00) (40, -2.57542800903320312500e+00) (41, 4.58532601594924926758e-01) (42, 1.56185185909271240234e+00) (43, 7.81033515930175781250e+00) (44, 5.08439159393310546875e+00) (45, -4.82334947586059570312e+00) (46, 1.95465481281280517578e+00) (47, -1.49793648719787597656e+00) (48, 8.79944980144500732422e-01) (49, 2.33661100268363952637e-01) (50, 3.29243445396423339844e+00) (51, 6.91495299339294433594e-01) (52, -8.11638355255126953125e-01) (53, 1.79236292839050292969e+00) (54, -1.45396518707275390625e+01) (55, 2.06255888938903808594e+00) (56, -6.13452434539794921875e-01) (57, 6.96331918239593505859e-01) (58, 5.69858908653259277344e-01) (59, -8.06381165981292724609e-01) (60, 5.51685094833374023438e-01) (61, 2.18005204200744628906e+00) (62, -7.78180882334709167480e-02) (63, 4.64579790830612182617e-01) (64, -5.42834460735321044922e-01) (65, -2.30324238538742065430e-01) (66, 1.26715421676635742188e+00) (67, 2.48586893081665039062e+00) (68, -1.14379382133483886719e+00) (69, 3.62440198659896850586e-02) (70, 1.34114041924476623535e-01) (71, -2.06032067537307739258e-01) (72, 2.44807124137878417969e+00) (73, -2.18012676239013671875e+01) (74, -2.52368718385696411133e-01) (75, 2.58319377899169921875e-01) (76, 2.47052693367004394531e+00) (77, -2.15019702911376953125e-01) (78, 1.53589510917663574219e+00) (79, 4.24807578325271606445e-01) (80, 2.60133123397827148438e+00) (81, 8.08459699153900146484e-01) (82, -1.06610774993896484375e-01) (83, 7.86356925964355468750e-01) (84, -1.76395460963249206543e-01) (85, 8.23960900306701660156e-01) (86, -3.14995288848876953125e-01) (87, -2.88204461336135864258e-01) (88, 1.09615039825439453125e+00) (89, 4.10364031791687011719e-01) (90, 1.70929774641990661621e-01) (91, 9.06925797462463378906e-01) (92, -2.43877917528152465820e-01) (93, -3.99908632040023803711e-01) (94, -1.74919277429580688477e-01) (95, 3.44782844185829162598e-02) (96, -4.00456756353378295898e-01) (97, -1.21134579181671142578e-01) (98, 8.19848358631134033203e-01) (99, -2.71930217742919921875e-01) (100, -7.39704295992851257324e-02) (101, -4.55144256353378295898e-01) (102, -7.74084210395812988281e-01) (103, 4.10246753692626953125e+00) (104, 2.01589369773864746094e+00) (0, -2.93144750595092773438e+00) (1, -4.35762763023376464844e-01) (2, -5.88718593120574951172e-01) (3, -3.78460824489593505859e-01) (4, 1.72746837139129638672e+00) (5, -1.67890980839729309082e-01) (6, -6.25448942184448242188e-01) (7, 1.01519906520843505859e+00) (8, -1.61002945899963378906e+00) (9, -5.80294430255889892578e-01) (10, -1.42765596508979797363e-01) (11, 1.58538818359375000000e+00) (12, -5.01486957073211669922e-01) (13, 5.47675848007202148438e-01) (14, -2.90428817272186279297e-01) (15, 2.20503139495849609375e+00) (16, 6.86778008937835693359e-01) (17, -7.65230953693389892578e-01) (18, -3.77968519926071166992e-01) (19, 5.11697471141815185547e-01) (20, -2.79146552085876464844e-01) (21, 5.49162924289703369141e-01) (22, -1.68762609362602233887e-01) (23, 1.59529161453247070312e+00) (24, 3.21830928325653076172e-01) (25, 1.01568780839443206787e-01) (26, -7.61982738971710205078e-01) (27, -4.96590614318847656250e-01) (28, -4.97300922870635986328e-01) (29, -3.05905878543853759766e-01) (30, 4.90692704916000366211e-02) (31, -7.39856719970703125000e-01) (32, 1.69009590148925781250e+00) (33, -2.39750564098358154297e-01) (34, -4.71778690814971923828e-01) (35, 1.28751111030578613281e+00) (36, 1.43831610679626464844e+00) (37, 8.31377983093261718750e-01) (38, -8.84109497070312500000e-01) (39, -6.96976721286773681641e-01) (40, -6.64271652698516845703e-01) (41, -6.53370559215545654297e-01) (42, 1.68123888969421386719e+00) (43, -5.30696690082550048828e-01) (44, -2.79653668403625488281e-01) (45, -3.91685634851455688477e-01) (46, -3.00355100631713867188e+00) (47, -3.09329003095626831055e-01) (48, 1.48543500900268554688e+00) (49, 1.16308584809303283691e-01) (50, -6.70273005962371826172e-01) (51, -5.21825253963470458984e-01) (52, 4.77159708738327026367e-01) (53, -5.39280593395233154297e-01) (54, -2.14934553951025009155e-02) (55, -1.18782028555870056152e-01) (56, 9.82360005378723144531e-01) (57, 9.76082563400268554688e-01) (58, -1.62272155284881591797e-01) (59, 3.73123884201049804688e-01) (60, -3.74166488647460937500e-01) (61, -8.78650605678558349609e-01) (62, 2.91237652301788330078e-01) (63, 2.59769797325134277344e-01) (64, 4.86179172992706298828e-01) (65, 1.70611381530761718750e+00) (66, 3.73858690261840820312e-01) (67, -7.85728394985198974609e-01) (68, -2.06483316421508789062e+00) (69, -5.83624482154846191406e-01) (70, 1.41452765464782714844e+00) (71, -5.68406879901885986328e-01) (72, 7.79729723930358886719e-01) (73, -1.33188784122467041016e-01) (74, -1.63503009825944900513e-02) (75, -1.38128757476806640625e+00) (76, 9.71061229705810546875e-01) (77, -5.55673122406005859375e-01) (78, -1.84574234485626220703e+00) (79, 1.06701016426086425781e+00) (80, -5.08296191692352294922e-01) (81, 5.93236498534679412842e-02) (82, -7.47331917285919189453e-01) (83, 1.73292040824890136719e+00) (84, -2.36194252967834472656e+00) (85, -4.75056916475296020508e-02) (86, 1.12124466896057128906e+00) (87, 1.22680699825286865234e+00) (88, 1.01839792728424072266e+00) (89, -1.36262118816375732422e-01) (90, -2.05580115318298339844e-01) (91, -1.47142410278320312500e-01) (92, 2.17133924365043640137e-01) (93, 1.46962308883666992188e+00) (94, 8.97890210151672363281e-01) (95, 9.39093112945556640625e-01) (96, -5.02817213535308837891e-01) (97, -1.42290246486663818359e+00) (98, -6.96118593215942382812e-01) (99, -2.77500867843627929688e+00) (100, 9.84499454498291015625e-01) (101, 4.57444489002227783203e-01) (102, -8.27800408005714416504e-02) (103, 2.08306241035461425781e+00) (104, 2.43425321578979492188e+00) (0, -6.98420104980468750000e+01) (1, -1.10247774124145507812e+01) (2, -7.55909967422485351562e+00) (3, -7.96583890914916992188e-02) (4, 3.70472221374511718750e+01) (5, -7.82635116577148437500e+00) (6, 5.26943540573120117188e+00) (7, -5.72999429702758789062e+00) (8, -1.86375446319580078125e+01) (9, -3.26383054256439208984e-01) (10, -1.12957525253295898438e+00) (11, 5.10796785354614257812e-01) (12, -1.50384819507598876953e+00) (13, 1.28730487823486328125e+01) (14, -1.44048720598220825195e-01) (15, -5.81140756607055664062e-01) (16, 1.83129116892814636230e-01) (17, 6.22925341129302978516e-01) (18, -8.06417560577392578125e+00) (19, -6.52218982577323913574e-02) (20, 7.13634443283081054688e+00) (21, -3.04334449768066406250e+00) (22, -1.43464422225952148438e+00) (23, -2.98821955919265747070e-01) (24, -4.98062372207641601562e-01) (25, -3.70303034782409667969e+00) (26, 3.15053790807723999023e-01) (27, -8.29846143722534179688e-01) (28, -5.55374741554260253906e-01) (29, -2.80176606029272079468e-02) (30, 3.20201182365417480469e+00) (31, -9.88481938838958740234e-01) (32, -8.19262981414794921875e-01) (33, -8.92558336257934570312e-01) (34, -7.01722323894500732422e-01) (35, -7.24000096321105957031e-01) (36, -7.46453106403350830078e-01) (37, -1.79285717010498046875e+00) (38, -6.95011377334594726562e-01) (39, -7.20648705959320068359e-01) (40, -7.25440263748168945312e-01) (41, -2.90156096220016479492e-01) (42, -6.81839823722839355469e-01) (43, -3.73824268579483032227e-01) (44, -7.65213251113891601562e-01) (45, -7.14537680149078369141e-01) (46, -4.60654050111770629883e-01) (47, -1.47855067253112792969e+00) (48, -1.50237429141998291016e+00) (49, -7.18834578990936279297e-01) (50, -2.52031266689300537109e-01) (51, -1.33147597312927246094e+00) (52, -6.25282287597656250000e-01) (53, -7.25802183151245117188e-01) (54, -1.06763458251953125000e+01) (55, -5.08681201934814453125e+00) (56, 1.57094740867614746094e+00) (57, 1.97977256774902343750e+00) (58, 1.00668299198150634766e+00) (59, 3.51115286350250244141e-01) (60, 1.46688437461853027344e+00) (61, -8.75971496105194091797e-01) (62, -1.08239459991455078125e+00) (63, -4.20284569263458251953e-01) (64, -6.74456894397735595703e-01) (65, -4.28823769092559814453e-01) (66, -8.54198098182678222656e-01) (67, 2.52624750137329101562e-01) (68, -7.97047555446624755859e-01) (69, -7.90520727634429931641e-01) (70, -2.82317698001861572266e-01) (71, -8.11143279075622558594e-01) (72, 1.03454017639160156250e+00) (73, 7.81588137149810791016e-01) (74, -6.99656009674072265625e-01) (75, -4.58557158708572387695e-01) (76, -1.91208362579345703125e-01) (77, 1.04642951488494873047e+00) (78, -7.61716663837432861328e-01) (79, -1.55327737331390380859e-01) (80, 4.24518406391143798828e-01) (81, 2.05241471529006958008e-01) (82, -2.16932594776153564453e-01) (83, 1.92372000217437744141e+00) (84, -6.81841194629669189453e-01) (85, 1.45497488975524902344e+00) (86, 8.45113575458526611328e-01) (87, -8.40339064598083496094e-01) (88, 1.31447744369506835938e+00) (89, 1.72076666355133056641e+00) (90, -1.26023650169372558594e-01) (91, 2.08941745758056640625e+00) (92, 9.73684370517730712891e-01) (93, 7.78140187263488769531e-01) (94, 8.94519031047821044922e-01) (95, -5.73379278182983398438e-01) (96, -8.13600480556488037109e-01) (97, 1.16205024719238281250e+00) (98, 1.74798870086669921875e+00) (99, 7.13341414928436279297e-01) (100, -2.07254245877265930176e-01) (101, -7.70191729068756103516e-01) (102, -1.45378789901733398438e+01) (103, 2.59655017852783203125e+01) (104, 9.79463100433349609375e-01) (105, -2.04536843299865722656e+00) (106, 3.27327632904052734375e+00) (107, 3.38891339302062988281e+00) (108, 5.81363737583160400391e-01) (109, 3.19972085952758789062e+00) (110, 2.15822243690490722656e+00) (111, -1.71196913719177246094e+00) (112, -2.11339402198791503906e+00) (113, 7.43878126144409179688e-01) (114, 2.68463373184204101562e+00) (115, -2.33240413665771484375e+00) (116, 1.98151397705078125000e+00) (117, 3.45542407035827636719e+00) (118, -1.53833234310150146484e+00) (119, -1.94897067546844482422e+00) (120, -8.10281336307525634766e-01) (121, 1.89061045646667480469e+00) (122, -1.63131725788116455078e+00) (123, 3.71126413345336914062e+00) (124, 2.91310501098632812500e+00) (125, 3.58725190162658691406e+00) (126, 3.23973155021667480469e+00) (127, -2.00755620002746582031e+00) (128, 5.24028110504150390625e+00) (129, -4.02246952056884765625e+00) (130, 5.22702336311340332031e-01) 
