FANN_FLO_2.1
num_layers=3
learning_rate=0.700000
connection_rate=1.000000
network_type=0
learning_momentum=0.000000
training_algorithm=2
train_error_function=1
train_stop_function=0
cascade_output_change_fraction=0.010000
quickprop_decay=-0.000100
quickprop_mu=1.750000
rprop_increase_factor=1.200000
rprop_decrease_factor=0.500000
rprop_delta_min=0.000000
rprop_delta_max=50.000000
rprop_delta_zero=0.100000
cascade_output_stagnation_epochs=12
cascade_candidate_change_fraction=0.010000
cascade_candidate_stagnation_epochs=12
cascade_max_out_epochs=150
cascade_max_cand_epochs=150
cascade_num_candidate_groups=2
bit_fail_limit=3.49999994039535522461e-01
cascade_candidate_limit=1.00000000000000000000e+03
cascade_weight_multiplier=4.00000005960464477539e-01
cascade_activation_functions_count=10
cascade_activation_functions=3 5 7 8 10 11 14 15 16 17 
cascade_activation_steepnesses_count=4
cascade_activation_steepnesses=2.50000000000000000000e-01 5.00000000000000000000e-01 7.50000000000000000000e-01 1.00000000000000000000e+00 
layer_sizes=105 26 2 
scale_included=0
neurons (num_inputs, activation_function, activation_steepness)=(0, 0, 0.00000000000000000000e+00) (0, 0, 0.00000000000000000000e+00) (0, 0, 0.00000000000000000000e+00) (0, 0, 0.00000000000000000000e+00) (0, 0, 0.00000000000000000000e+00) (0, 0, 0.00000000000000000000e+00) (0, 0, 0.00000000000000000000e+00) (0, 0, 0.00000000000000000000e+00) (0, 0, 0.00000000000000000000e+00) (0, 0, 0.00000000000000000000e+00) (0, 0, 0.00000000000000000000e+00) (0, 0, 0.00000000000000000000e+00) (0, 0, 0.00000000000000000000e+00) (0, 0, 0.00000000000000000000e+00) (0, 0, 0.00000000000000000000e+00) (0, 0, 0.00000000000000000000e+00) (0, 0, 0.00000000000000000000e+00) (0, 0, 0.00000000000000000000e+00) (0, 0, 0.00000000000000000000e+00) (0, 0, 0.00000000000000000000e+00) (0, 0, 0.00000000000000000000e+00) (0, 0, 0.00000000000000000000e+00) (0, 0, 0.00000000000000000000e+00) (0, 0, 0.00000000000000000000e+00) (0, 0, 0.00000000000000000000e+00) (0, 0, 0.00000000000000000000e+00) (0, 0, 0.00000000000000000000e+00) (0, 0, 0.00000000000000000000e+00) (0, 0, 0.00000000000000000000e+00) (0, 0, 0.00000000000000000000e+00) (0, 0, 0.00000000000000000000e+00) (0, 0, 0.00000000000000000000e+00) (0, 0, 0.00000000000000000000e+00) (0, 0, 0.00000000000000000000e+00) (0, 0, 0.00000000000000000000e+00) (0, 0, 0.00000000000000000000e+00) (0, 0, 0.00000000000000000000e+00) (0, 0, 0.00000000000000000000e+00) (0, 0, 0.00000000000000000000e+00) (0, 0, 0.00000000000000000000e+00) (0, 0, 0.00000000000000000000e+00) (0, 0, 0.00000000000000000000e+00) (0, 0, 0.00000000000000000000e+00) (0, 0, 0.00000000000000000000e+00) (0, 0, 0.00000000000000000000e+00) (0, 0, 0.00000000000000000000e+00) (0, 0, 0.00000000000000000000e+00) (0, 0, 0.00000000000000000000e+00) (0, 0, 0.00000000000000000000e+00) (0, 0, 0.00000000000000000000e+00) (0, 0, 0.00000000000000000000e+00) (0, 0, 0.00000000000000000000e+00) (0, 0, 0.00000000000000000000e+00) (0, 0, 0.00000000000000000000e+00) (0, 0, 0.00000000000000000000e+00) (0, 0, 0.00000000000000000000e+00) (0, 0, 0.00000000000000000000e+00) (0, 0, 0.00000000000000000000e+00) (0, 0, 0.00000000000000000000e+00) (0, 0, 0.00000000000000000000e+00) (0, 0, 0.00000000000000000000e+00) (0, 0, 0.00000000000000000000e+00) (0, 0, 0.00000000000000000000e+00) (0, 0, 0.00000000000000000000e+00) (0, 0, 0.00000000000000000000e+00) (0, 0, 0.00000000000000000000e+00) (0, 0, 0.00000000000000000000e+00) (0, 0, 0.00000000000000000000e+00) (0, 0, 0.00000000000000000000e+00) (0, 0, 0.00000000000000000000e+00) (0, 0, 0.00000000000000000000e+00) (0, 0, 0.00000000000000000000e+00) (0, 0, 0.00000000000000000000e+00) (0, 0, 0.00000000000000000000e+00) (0, 0, 0.00000000000000000000e+00) (0, 0, 0.00000000000000000000e+00) (0, 0, 0.00000000000000000000e+00) (0, 0, 0.00000000000000000000e+00) (0, 0, 0.00000000000000000000e+00) (0, 0, 0.00000000000000000000e+00) (0, 0, 0.00000000000000000000e+00) (0, 0, 0.00000000000000000000e+00) (0, 0, 0.00000000000000000000e+00) (0, 0, 0.00000000000000000000e+00) (0, 0, 0.00000000000000000000e+00) (0, 0, 0.00000000000000000000e+00) (0, 0, 0.00000000000000000000e+00) (0, 0, 0.00000000000000000000e+00) (0, 0, 0.00000000000000000000e+00) (0, 0, 0.00000000000000000000e+00) (0, 0, 0.00000000000000000000e+00) (0, 0, 0.00000000000000000000e+00) (0, 0, 0.00000000000000000000e+00) (0, 0, 0.00000000000000000000e+00) (0, 0, 0.00000000000000000000e+00) (0, 0, 0.00000000000000000000e+00) (0, 0, 0.00000000000000000000e+00) (0, 0, 0.00000000000000000000e+00) (0, 0, 0.00000000000000000000e+00) (0, 0, 0.00000000000000000000e+00) (0, 0, 0.00000000000000000000e+00) (0, 0, 0.00000000000000000000e+00) (0, 0, 0.00000000000000000000e+00) (0, 0, 0.00000000000000000000e+00) (0, 0, 0.00000000000000000000e+00) (105, 5, 5.00000000000000000000e-01) (105, 5, 5.00000000000000000000e-01) (105, 5, 5.00000000000000000000e-01) (105, 5, 5.00000000000000000000e-01) (105, 5, 5.00000000000000000000e-01) (105, 5, 5.00000000000000000000e-01) (105, 5, 5.00000000000000000000e-01) (105, 5, 5.00000000000000000000e-01) (105, 5, 5.00000000000000000000e-01) (105, 5, 5.00000000000000000000e-01) (105, 5, 5.00000000000000000000e-01) (105, 5, 5.00000000000000000000e-01) (105, 5, 5.00000000000000000000e-01) (105, 5, 5.00000000000000000000e-01) (105, 5, 5.00000000000000000000e-01) (105, 5, 5.00000000000000000000e-01) (105, 5, 5.00000000000000000000e-01) (105, 5, 5.00000000000000000000e-01) (105, 5, 5.00000000000000000000e-01) (105, 5, 5.00000000000000000000e-01) (105, 5, 5.00000000000000000000e-01) (105, 5, 5.00000000000000000000e-01) (105, 5, 5.00000000000000000000e-01) (105, 5, 5.00000000000000000000e-01) (105, 5, 5.00000000000000000000e-01) (0, 5, 0.00000000000000000000e+00) (26, 5, 5.00000000000000000000e-01) (0, 5, 0.00000000000000000000e+00) 
connections (connected_to_neuron, weight)=(0, -7.83144216984510421753e-03) (1, 1.60989493131637573242e-01) (2, 2.13630700111389160156e+00) (3, -8.67255270481109619141e-01) (4, -5.81984639167785644531e-01) (5, 3.81265950202941894531e+00) (6, 1.36410868167877197266e+00) (7, 1.97681021690368652344e+00) (8, -4.68289852142333984375e+00) (9, -5.13231098651885986328e-01) (10, -5.96847116947174072266e-01) (11, -1.00628125667572021484e+00) (12, 1.34981632232666015625e+00) (13, 6.47834718227386474609e-01) (14, -4.65218096971511840820e-01) (15, -4.31407541036605834961e-01) (16, 1.19683456420898437500e+00) (17, -2.55507767200469970703e-01) (18, 2.07263946533203125000e-01) (19, 1.39492404460906982422e+00) (20, 1.97437345981597900391e-01) (21, 1.26908040046691894531e+00) (22, -6.83813869953155517578e-01) (23, 2.09541630744934082031e+00) (24, 1.51745569705963134766e+00) (25, 7.33630776405334472656e-01) (26, -7.72159814834594726562e-01) (27, -6.10719442367553710938e-01) (28, 1.99872756004333496094e+00) (29, 9.91167545318603515625e-01) (30, 4.04903471469879150391e-01) (31, 2.12782621383666992188e+00) (32, -6.81639552116394042969e-01) (33, 2.10701417922973632812e+00) (34, -1.50842559337615966797e+00) (35, -6.88696861267089843750e-01) (36, -1.07328152656555175781e+00) (37, -4.53016310930252075195e-01) (38, -1.72961473464965820312e+00) (39, -9.63085770606994628906e-01) (40, -9.06088799238204956055e-02) (41, 2.52678012847900390625e+00) (42, -5.38531303405761718750e-01) (43, -2.48663440346717834473e-01) (44, -7.69817769527435302734e-01) (45, -9.66401219367980957031e-01) (46, 3.17886829376220703125e+00) (47, -2.31469202041625976562e+00) (48, -5.61852872371673583984e-01) (49, -1.62501561641693115234e+00) (50, 1.68614304065704345703e+00) (51, -5.32090425491333007812e-01) (52, -6.88975691795349121094e-01) (53, -7.43719518184661865234e-01) (54, 7.97875076532363891602e-02) (55, -5.83716571331024169922e-01) (56, -9.34796929359436035156e-01) (57, -6.49027764797210693359e-01) (58, -1.31015658378601074219e-01) (59, -9.94846224784851074219e-01) (60, -7.19575762748718261719e-01) (61, 3.08457922935485839844e+00) (62, -2.79420703649520874023e-01) (63, -6.45069301128387451172e-01) (64, 1.97773265838623046875e+00) (65, -7.11168408393859863281e-01) (66, 2.47779273986816406250e+00) (67, 1.38469684123992919922e+00) (68, 2.15418845415115356445e-01) (69, -8.51797878742218017578e-01) (70, 2.16405129432678222656e+00) (71, 2.13014197349548339844e+00) (72, 1.46291542053222656250e+00) (73, -1.35489714145660400391e+00) (74, 4.10115838050842285156e-01) (75, 2.01138567924499511719e+00) (76, -1.84368681907653808594e+00) (77, -6.54981195926666259766e-01) (78, -3.23671847581863403320e-01) (79, -1.74679613113403320312e+00) (80, 9.93786752223968505859e-02) (81, -1.85628688335418701172e+00) (82, -1.01091158390045166016e+00) (83, -6.71935260295867919922e-01) (84, 1.89635682106018066406e+00) (85, -1.22749292850494384766e+00) (86, -7.85174369812011718750e-01) (87, -5.61578452587127685547e-01) (88, -1.17177438735961914062e+00) (89, -1.07151234149932861328e+00) (90, -1.34216630458831787109e+00) (91, -9.18680250644683837891e-01) (92, -5.37829816341400146484e-01) (93, 7.91758835315704345703e-01) (94, -6.44604861736297607422e-01) (95, 1.79450845718383789062e+00) (96, -8.73504132032394409180e-02) (97, -2.29215398430824279785e-01) (98, -8.07276070117950439453e-01) (99, 1.48040843009948730469e+00) (100, -6.50383353233337402344e-01) (101, 2.04870915412902832031e+00) (102, -7.93414771556854248047e-01) (103, 2.84800481796264648438e+00) (104, 2.57261466979980468750e+00) (0, 1.50000000000000000000e+03) (1, 1.50000000000000000000e+03) (2, 1.50000000000000000000e+03) (3, 1.50000000000000000000e+03) (4, 1.50000000000000000000e+03) (5, 1.50000000000000000000e+03) (6, 1.50000000000000000000e+03) (7, 1.50000000000000000000e+03) (8, 1.50000000000000000000e+03) (9, 1.50000000000000000000e+03) (10, 1.50000000000000000000e+03) (11, 1.50000000000000000000e+03) (12, 1.50000000000000000000e+03) (13, 3.50537061691284179688e+00) (14, 1.50000000000000000000e+03) (15, 1.50000000000000000000e+03) (16, 1.50000000000000000000e+03) (17, 1.50000000000000000000e+03) (18, 1.50000000000000000000e+03) (19, 1.50000000000000000000e+03) (20, 1.50000000000000000000e+03) (21, 1.50000000000000000000e+03) (22, 1.50000000000000000000e+03) (23, 1.50000000000000000000e+03) (24, 1.50000000000000000000e+03) (25, 1.50000000000000000000e+03) (26, 1.50000000000000000000e+03) (27, 1.50000000000000000000e+03) (28, 1.50000000000000000000e+03) (29, 1.50000000000000000000e+03) (30, 1.50000000000000000000e+03) (31, 1.50000000000000000000e+03) (32, 1.50000000000000000000e+03) (33, 1.50000000000000000000e+03) (34, 1.50000000000000000000e+03) (35, 1.50000000000000000000e+03) (36, 1.50000000000000000000e+03) (37, 1.50000000000000000000e+03) (38, 1.50000000000000000000e+03) (39, 1.50000000000000000000e+03) (40, 1.50000000000000000000e+03) (41, 3.77129048109054565430e-01) (42, 2.78068375587463378906e+00) (43, 2.31554775238037109375e+01) (44, 1.50000000000000000000e+03) (45, 1.50000000000000000000e+03) (46, 1.50000000000000000000e+03) (47, 1.49990747070312500000e+03) (48, 1.50000000000000000000e+03) (49, 1.50000000000000000000e+03) (50, 1.50000000000000000000e+03) (51, 1.50000000000000000000e+03) (52, 1.50000000000000000000e+03) (53, 1.50000000000000000000e+03) (54, 1.50000000000000000000e+03) (55, 1.49994299316406250000e+03) (56, 1.49994299316406250000e+03) (57, 1.50000000000000000000e+03) (58, 1.50000000000000000000e+03) (59, 1.50000000000000000000e+03) (60, 1.50000000000000000000e+03) (61, 1.50000000000000000000e+03) (62, 1.50000000000000000000e+03) (63, 1.50000000000000000000e+03) (64, 1.50000000000000000000e+03) (65, 2.90178322792053222656e+00) (66, 1.50000000000000000000e+03) (67, 1.50000000000000000000e+03) (68, 1.50000000000000000000e+03) (69, 1.50000000000000000000e+03) (70, 1.50000000000000000000e+03) (71, 1.50000000000000000000e+03) (72, 1.50000000000000000000e+03) (73, 1.50000000000000000000e+03) (74, 2.74965643882751464844e+00) (75, 1.50000000000000000000e+03) (76, 1.50000000000000000000e+03) (77, 1.50000000000000000000e+03) (78, 1.50000000000000000000e+03) (79, 1.50000000000000000000e+03) (80, 1.50000000000000000000e+03) (81, 1.50000000000000000000e+03) (82, 1.50000000000000000000e+03) (83, 1.50000000000000000000e+03) (84, 1.50000000000000000000e+03) (85, 1.50000000000000000000e+03) (86, 2.92765259742736816406e+00) (87, 2.53954529762268066406e+00) (88, 1.50000000000000000000e+03) (89, 1.50000000000000000000e+03) (90, 1.50000000000000000000e+03) (91, 1.50000000000000000000e+03) (92, 1.50000000000000000000e+03) (93, 1.50000000000000000000e+03) (94, 3.94013404846191406250e+00) (95, 1.50000000000000000000e+03) (96, 3.05865311622619628906e+00) (97, 1.50000000000000000000e+03) (98, 1.50000000000000000000e+03) (99, 1.50000000000000000000e+03) (100, 1.50000000000000000000e+03) (101, 1.50000000000000000000e+03) (102, 1.50000000000000000000e+03) (103, -1.50000000000000000000e+03) (104, -7.87865102291107177734e-01) (0, -1.08706789016723632812e+01) (1, -4.62151241302490234375e+00) (2, 1.17943584918975830078e-01) (3, -7.63193786144256591797e-01) (4, -3.12808007001876831055e-01) (5, 3.86383414268493652344e-01) (6, 3.10718314722180366516e-03) (7, 1.92363965511322021484e+00) (8, 3.32079076766967773438e+00) (9, -2.96326667070388793945e-01) (10, -3.21745872497558593750e-01) (11, 1.58242046833038330078e+00) (12, -2.39044055342674255371e-03) (13, 1.06793069839477539062e+00) (14, -3.40328156948089599609e-01) (15, -5.21638035774230957031e-01) (16, -4.68743801116943359375e-01) (17, -4.35584008693695068359e-01) (18, -1.62452712655067443848e-01) (19, -4.34138774871826171875e-01) (20, 1.42806004732847213745e-02) (21, -3.95148217678070068359e-01) (22, -6.39663159847259521484e-01) (23, -7.05555677413940429688e-01) (24, -9.45638120174407958984e-01) (25, -5.58882236480712890625e-01) (26, -5.43866276741027832031e-01) (27, -4.19363617897033691406e-01) (28, -5.04003226757049560547e-01) (29, -3.64010781049728393555e-01) (30, -6.02293670177459716797e-01) (31, -1.14471495151519775391e+00) (32, -1.29135027527809143066e-01) (33, -1.69138327240943908691e-01) (34, -9.46159934997558593750e+00) (35, -4.10201996564865112305e-01) (36, 1.03401690721511840820e-01) (37, -1.93487629294395446777e-02) (38, -1.83130070567131042480e-01) (39, -5.42381882667541503906e-01) (40, -5.19544482231140136719e-01) (41, 1.75960719585418701172e-01) (42, 1.81824493408203125000e+00) (43, -1.07042551040649414062e+00) (44, -5.70566236972808837891e-01) (45, 6.41323685646057128906e-01) (46, 8.33803176879882812500e+00) (47, 2.09379434585571289062e-01) (48, -1.50505201891064643860e-02) (49, -4.56745982170104980469e-01) (50, 1.62699127197265625000e+00) (51, -3.61075878143310546875e-01) (52, 1.67483901977539062500e+00) (53, 2.12582033127546310425e-02) (54, 3.52945804595947265625e+00) (55, 2.47911882400512695312e+00) (56, 1.97750842571258544922e+00) (57, -6.22285977005958557129e-02) (58, 6.75143241882324218750e+00) (59, 3.40220856666564941406e+00) (60, -2.32595801353454589844e-01) (61, 1.84830713272094726562e+00) (62, 2.28322815895080566406e+00) (63, -3.51649910211563110352e-01) (64, -2.26958441734313964844e+00) (65, 1.85730946063995361328e+00) (66, -1.23357820510864257812e+00) (67, 8.84351432323455810547e-01) (68, 1.75218319892883300781e+00) (69, -2.29147601127624511719e+00) (70, 5.31701743602752685547e-01) (71, 6.19026720523834228516e-01) (72, -2.67470926046371459961e-01) (73, 2.24496889114379882812e+00) (74, 1.84890854358673095703e+00) (75, 1.51659822463989257812e+00) (76, -2.67089319229125976562e+00) (77, 1.48798733949661254883e-01) (78, -4.50263708829879760742e-01) (79, 1.71733975410461425781e+00) (80, 2.67390072345733642578e-01) (81, 1.59090065956115722656e+00) (82, 3.60159575939178466797e-02) (83, 1.87909591197967529297e+00) (84, -9.78812396526336669922e-01) (85, -3.83967816829681396484e-01) (86, 1.83961355686187744141e+00) (87, 2.39002251625061035156e+00) (88, 2.01141262054443359375e+00) (89, -6.88111245632171630859e-01) (90, 1.37656843662261962891e+00) (91, -5.78894242644309997559e-02) (92, -2.59526193141937255859e-01) (93, -1.89624592661857604980e-01) (94, -3.09067159891128540039e-01) (95, 1.31858015060424804688e+00) (96, 2.61547446250915527344e+00) (97, 3.18495750427246093750e-01) (98, -4.31007719039916992188e+00) (99, 2.71699881553649902344e+00) (100, -2.57063806056976318359e-01) (101, 2.30290436744689941406e+00) (102, -1.45727956295013427734e+00) (103, 4.19815444946289062500e+00) (104, -7.02738404273986816406e-01) (0, 1.50000000000000000000e+03) (1, 1.50000000000000000000e+03) (2, 1.50000000000000000000e+03) (3, 1.50000000000000000000e+03) (4, 1.50000000000000000000e+03) (5, 1.50000000000000000000e+03) (6, 1.50000000000000000000e+03) (7, 1.50000000000000000000e+03) (8, 1.50000000000000000000e+03) (9, 1.50000000000000000000e+03) (10, 1.50000000000000000000e+03) (11, 1.50000000000000000000e+03) (12, 1.50000000000000000000e+03) (13, 3.24087262153625488281e+00) (14, 1.50000000000000000000e+03) (15, 1.50000000000000000000e+03) (16, 1.50000000000000000000e+03) (17, 1.50000000000000000000e+03) (18, 1.50000000000000000000e+03) (19, 1.50000000000000000000e+03) (20, 1.50000000000000000000e+03) (21, 1.50000000000000000000e+03) (22, 1.50000000000000000000e+03) (23, 1.50000000000000000000e+03) (24, 1.50000000000000000000e+03) (25, 1.50000000000000000000e+03) (26, 1.50000000000000000000e+03) (27, 1.50000000000000000000e+03) (28, 1.50000000000000000000e+03) (29, 1.50000000000000000000e+03) (30, 1.50000000000000000000e+03) (31, 1.50000000000000000000e+03) (32, 1.50000000000000000000e+03) (33, 1.50000000000000000000e+03) (34, 1.50000000000000000000e+03) (35, 1.50000000000000000000e+03) (36, 1.50000000000000000000e+03) (37, 1.50000000000000000000e+03) (38, 1.50000000000000000000e+03) (39, 1.50000000000000000000e+03) (40, 1.50000000000000000000e+03) (41, -4.39526746049523353577e-03) (42, 2.79341602325439453125e+00) (43, 2.60896987915039062500e+01) (44, 1.50000000000000000000e+03) (45, 1.50000000000000000000e+03) (46, 1.50000000000000000000e+03) (47, 1.49990747070312500000e+03) (48, 1.50000000000000000000e+03) (49, 1.50000000000000000000e+03) (50, 1.50000000000000000000e+03) (51, 1.50000000000000000000e+03) (52, 1.50000000000000000000e+03) (53, 1.50000000000000000000e+03) (54, 1.50000000000000000000e+03) (55, 1.49994299316406250000e+03) (56, 1.49994299316406250000e+03) (57, 1.50000000000000000000e+03) (58, 1.50000000000000000000e+03) (59, 1.50000000000000000000e+03) (60, 1.50000000000000000000e+03) (61, 1.50000000000000000000e+03) (62, 1.50000000000000000000e+03) (63, 1.50000000000000000000e+03) (64, 1.50000000000000000000e+03) (65, 3.08570861816406250000e+00) (66, 1.50000000000000000000e+03) (67, 1.50000000000000000000e+03) (68, 1.50000000000000000000e+03) (69, 1.50000000000000000000e+03) (70, 1.50000000000000000000e+03) (71, 1.50000000000000000000e+03) (72, 1.50000000000000000000e+03) (73, 1.50000000000000000000e+03) (74, 2.85668635368347167969e+00) (75, 1.50000000000000000000e+03) (76, 1.50000000000000000000e+03) (77, 1.50000000000000000000e+03) (78, 1.50000000000000000000e+03) (79, 1.50000000000000000000e+03) (80, 1.50000000000000000000e+03) (81, 1.50000000000000000000e+03) (82, 1.50000000000000000000e+03) (83, 1.50000000000000000000e+03) (84, 1.50000000000000000000e+03) (85, 1.50000000000000000000e+03) (86, 3.18356847763061523438e+00) (87, 2.74082636833190917969e+00) (88, 1.50000000000000000000e+03) (89, 1.50000000000000000000e+03) (90, 1.50000000000000000000e+03) (91, 1.50000000000000000000e+03) (92, 1.50000000000000000000e+03) (93, 1.50000000000000000000e+03) (94, 4.29768610000610351562e+00) (95, 1.50000000000000000000e+03) (96, 3.18300414085388183594e+00) (97, 1.50000000000000000000e+03) (98, 1.50000000000000000000e+03) (99, 1.50000000000000000000e+03) (100, 1.50000000000000000000e+03) (101, 1.50000000000000000000e+03) (102, 1.50000000000000000000e+03) (103, -1.50000000000000000000e+03) (104, -9.89159524440765380859e-01) (0, -1.50000000000000000000e+03) (1, -1.50000000000000000000e+03) (2, -1.50000000000000000000e+03) (3, -1.50000000000000000000e+03) (4, -1.50000000000000000000e+03) (5, -1.50000000000000000000e+03) (6, -1.50000000000000000000e+03) (7, -1.50000000000000000000e+03) (8, -1.50000000000000000000e+03) (9, -1.50000000000000000000e+03) (10, -1.50000000000000000000e+03) (11, -1.50000000000000000000e+03) (12, -1.50000000000000000000e+03) (13, -1.41212916374206542969e+00) (14, -1.50000000000000000000e+03) (15, -1.50000000000000000000e+03) (16, -1.50000000000000000000e+03) (17, -1.50000000000000000000e+03) (18, -1.50000000000000000000e+03) (19, -1.50000000000000000000e+03) (20, -1.50000000000000000000e+03) (21, -1.50000000000000000000e+03) (22, -1.50000000000000000000e+03) (23, -1.50000000000000000000e+03) (24, -1.50000000000000000000e+03) (25, -1.50000000000000000000e+03) (26, -1.50000000000000000000e+03) (27, -1.50000000000000000000e+03) (28, -1.50000000000000000000e+03) (29, -1.50000000000000000000e+03) (30, -1.50000000000000000000e+03) (31, -1.50000000000000000000e+03) (32, -1.50000000000000000000e+03) (33, -1.50000000000000000000e+03) (34, -1.50000000000000000000e+03) (35, -1.50000000000000000000e+03) (36, -1.50000000000000000000e+03) (37, -1.50000000000000000000e+03) (38, -1.50000000000000000000e+03) (39, -1.50000000000000000000e+03) (40, -1.50000000000000000000e+03) (41, 1.90215802192687988281e+00) (42, -8.84911000728607177734e-01) (43, -8.02632045745849609375e+00) (44, -1.50000000000000000000e+03) (45, -1.39435559082031250000e+03) (46, -1.50000000000000000000e+03) (47, -1.49990454101562500000e+03) (48, -1.50000000000000000000e+03) (49, -1.50000000000000000000e+03) (50, -1.50000000000000000000e+03) (51, -1.50000000000000000000e+03) (52, -1.50000000000000000000e+03) (53, -1.50000000000000000000e+03) (54, -1.50000000000000000000e+03) (55, -1.49994274902343750000e+03) (56, -1.49994274902343750000e+03) (57, -1.50000000000000000000e+03) (58, -1.50000000000000000000e+03) (59, -1.50000000000000000000e+03) (60, -1.50000000000000000000e+03) (61, -1.50000000000000000000e+03) (62, -1.50000000000000000000e+03) (63, -1.50000000000000000000e+03) (64, -1.50000000000000000000e+03) (65, -1.21606922149658203125e+00) (66, -1.50000000000000000000e+03) (67, -1.50000000000000000000e+03) (68, -1.50000000000000000000e+03) (69, -1.50000000000000000000e+03) (70, -1.50000000000000000000e+03) (71, -1.50000000000000000000e+03) (72, -1.50000000000000000000e+03) (73, -1.50000000000000000000e+03) (74, -9.68261361122131347656e-01) (75, -1.50000000000000000000e+03) (76, -1.50000000000000000000e+03) (77, -1.50000000000000000000e+03) (78, -1.50000000000000000000e+03) (79, -1.50000000000000000000e+03) (80, -1.50000000000000000000e+03) (81, -1.50000000000000000000e+03) (82, -1.50000000000000000000e+03) (83, -1.50000000000000000000e+03) (84, -1.50000000000000000000e+03) (85, -1.50000000000000000000e+03) (86, -1.22800052165985107422e+00) (87, -9.44266915321350097656e-01) (88, -1.50000000000000000000e+03) (89, -1.50000000000000000000e+03) (90, -1.50000000000000000000e+03) (91, -1.50000000000000000000e+03) (92, -1.50000000000000000000e+03) (93, -1.50000000000000000000e+03) (94, -2.07571887969970703125e+00) (95, -1.50000000000000000000e+03) (96, -1.32863545417785644531e+00) (97, -1.50000000000000000000e+03) (98, -1.50000000000000000000e+03) (99, -1.50000000000000000000e+03) (100, -1.50000000000000000000e+03) (101, -1.50000000000000000000e+03) (102, -1.50000000000000000000e+03) (103, 1.50000000000000000000e+03) (104, 2.77499151229858398438e+00) (0, -1.00829668045043945312e+01) (1, -4.90787535905838012695e-01) (2, -1.94896683096885681152e-01) (3, 2.76459026336669921875e+00) (4, -2.73248165845870971680e-01) (5, -1.54039812088012695312e+00) (6, 2.58094263076782226562e+00) (7, -6.46005451679229736328e-01) (8, -2.11181849241256713867e-01) (9, -2.19495162367820739746e-01) (10, 2.03876829147338867188e+00) (11, -3.64958465099334716797e-01) (12, -2.43914499878883361816e-01) (13, 8.65615177154541015625e+00) (14, 2.07386207580566406250e+00) (15, -4.10559445619583129883e-01) (16, -2.36442849040031433105e-01) (17, -5.25703728199005126953e-01) (18, -5.96358954906463623047e-01) (19, -5.91270446777343750000e-01) (20, -3.13306212425231933594e-01) (21, 2.52518796920776367188e+00) (22, 2.05719304084777832031e+00) (23, -1.83637869358062744141e+00) (24, -3.59513783454895019531e+00) (25, -3.70086491107940673828e-01) (26, -4.36979830265045166016e-01) (27, -3.87159615755081176758e-01) (28, -5.51389157772064208984e-01) (29, -6.63210093975067138672e-01) (30, -7.38163888454437255859e-01) (31, -6.95611774921417236328e-01) (32, 3.00186812877655029297e-01) (33, -5.61242341995239257812e-01) (34, 3.46257615089416503906e+00) (35, -4.07754480838775634766e-01) (36, 3.27860999107360839844e+00) (37, -5.13695657253265380859e-01) (38, 6.21545612812042236328e-02) (39, 2.44961953163146972656e+00) (40, -3.98353695869445800781e-01) (41, 4.60768312215805053711e-01) (42, 2.19414258003234863281e+00) (43, -1.30910813808441162109e+00) (44, -4.49501156806945800781e-01) (45, -4.61269235610961914062e+00) (46, -2.36765384674072265625e+00) (47, 4.82084655761718750000e+00) (48, 1.94663727283477783203e+00) (49, -1.13953602313995361328e+00) (50, -7.43208050727844238281e-01) (51, -7.93956816196441650391e-01) (52, -6.68260633945465087891e-01) (53, 1.20680952072143554688e+00) (54, -5.48656105995178222656e-01) (55, -9.86355590820312500000e+00) (56, 5.47238826751708984375e-01) (57, -2.27860546112060546875e+00) (58, 1.51890099048614501953e+00) (59, 5.36001157760620117188e+00) (60, -6.88801109790802001953e-01) (61, 1.76051056385040283203e+00) (62, -5.68106651306152343750e-01) (63, -4.06119972467422485352e-01) (64, 1.87937641143798828125e+00) (65, -3.13915789127349853516e-01) (66, 3.38648414611816406250e+00) (67, 1.16948401927947998047e+00) (68, 2.62474656105041503906e+00) (69, -2.93236851692199707031e+00) (70, -1.04193352162837982178e-01) (71, -2.71845638751983642578e-01) (72, -2.24217236042022705078e-01) (73, 1.43498492240905761719e+00) (74, -2.74186342954635620117e-01) (75, 7.53803789615631103516e-01) (76, 1.83844149112701416016e-01) (77, -3.30007642507553100586e-01) (78, 1.73172676563262939453e+00) (79, -5.68280267715454101562e+00) (80, 3.33037948608398437500e+00) (81, 9.51121330261230468750e-01) (82, 2.61809802055358886719e+00) (83, 3.93729043006896972656e+00) (84, 4.88250827789306640625e+00) (85, -3.33579516410827636719e+00) (86, 2.07204198837280273438e+00) (87, 3.58471333980560302734e-01) (88, 2.69210195541381835938e+00) (89, 1.00898718833923339844e+00) (90, 4.54102659225463867188e+00) (91, 3.67289829254150390625e+00) (92, 4.51376020908355712891e-01) (93, 2.38655138015747070312e+00) (94, -5.90964734554290771484e-01) (95, -1.85715779662132263184e-01) (96, 1.12769842147827148438e+00) (97, -6.69893074035644531250e+00) (98, 2.95422744750976562500e+00) (99, -5.36270236968994140625e+00) (100, -4.23906415700912475586e-01) (101, -1.89228892326354980469e+00) (102, 4.05689030885696411133e-02) (103, 1.82566833496093750000e+00) (104, 2.10870122909545898438e+00) (0, -1.50000000000000000000e+03) (1, -1.50000000000000000000e+03) (2, -1.50000000000000000000e+03) (3, -1.50000000000000000000e+03) (4, -1.50000000000000000000e+03) (5, -1.50000000000000000000e+03) (6, -1.50000000000000000000e+03) (7, -1.50000000000000000000e+03) (8, -1.50000000000000000000e+03) (9, -1.50000000000000000000e+03) (10, -1.50000000000000000000e+03) (11, -1.50000000000000000000e+03) (12, -1.50000000000000000000e+03) (13, -1.42761385440826416016e+00) (14, -1.50000000000000000000e+03) (15, -1.50000000000000000000e+03) (16, -1.50000000000000000000e+03) (17, -1.50000000000000000000e+03) (18, -1.50000000000000000000e+03) (19, -1.50000000000000000000e+03) (20, -1.50000000000000000000e+03) (21, -1.50000000000000000000e+03) (22, -1.50000000000000000000e+03) (23, -1.50000000000000000000e+03) (24, -1.50000000000000000000e+03) (25, -1.50000000000000000000e+03) (26, -1.50000000000000000000e+03) (27, -1.50000000000000000000e+03) (28, -1.50000000000000000000e+03) (29, -1.50000000000000000000e+03) (30, -1.50000000000000000000e+03) (31, -1.50000000000000000000e+03) (32, -1.50000000000000000000e+03) (33, -1.50000000000000000000e+03) (34, -1.50000000000000000000e+03) (35, -1.50000000000000000000e+03) (36, -1.50000000000000000000e+03) (37, -1.50000000000000000000e+03) (38, -1.50000000000000000000e+03) (39, -1.50000000000000000000e+03) (40, -1.50000000000000000000e+03) (41, 2.10110378265380859375e+00) (42, -8.70049118995666503906e-01) (43, -1.93047218322753906250e+01) (44, -1.50000000000000000000e+03) (45, -1.39438696289062500000e+03) (46, -1.50000000000000000000e+03) (47, -1.49990454101562500000e+03) (48, -1.50000000000000000000e+03) (49, -1.50000000000000000000e+03) (50, -1.50000000000000000000e+03) (51, -1.50000000000000000000e+03) (52, -1.50000000000000000000e+03) (53, -1.50000000000000000000e+03) (54, -1.50000000000000000000e+03) (55, -1.49994274902343750000e+03) (56, -1.49994274902343750000e+03) (57, -1.50000000000000000000e+03) (58, -1.50000000000000000000e+03) (59, -1.50000000000000000000e+03) (60, -1.50000000000000000000e+03) (61, -1.50000000000000000000e+03) (62, -1.50000000000000000000e+03) (63, -1.50000000000000000000e+03) (64, -1.50000000000000000000e+03) (65, -1.28231024742126464844e+00) (66, -1.50000000000000000000e+03) (67, -1.50000000000000000000e+03) (68, -1.50000000000000000000e+03) (69, -1.50000000000000000000e+03) (70, -1.50000000000000000000e+03) (71, -1.50000000000000000000e+03) (72, -1.50000000000000000000e+03) (73, -1.50000000000000000000e+03) (74, -9.07316029071807861328e-01) (75, -1.50000000000000000000e+03) (76, -1.50000000000000000000e+03) (77, -1.50000000000000000000e+03) (78, -1.50000000000000000000e+03) (79, -1.50000000000000000000e+03) (80, -1.50000000000000000000e+03) (81, -1.50000000000000000000e+03) (82, -1.50000000000000000000e+03) (83, -1.50000000000000000000e+03) (84, -1.50000000000000000000e+03) (85, -1.50000000000000000000e+03) (86, -1.13219463825225830078e+00) (87, -9.76183414459228515625e-01) (88, -1.50000000000000000000e+03) (89, -1.50000000000000000000e+03) (90, -1.50000000000000000000e+03) (91, -1.50000000000000000000e+03) (92, -1.50000000000000000000e+03) (93, -1.50000000000000000000e+03) (94, -1.95634925365447998047e+00) (95, -1.50000000000000000000e+03) (96, -1.27788698673248291016e+00) (97, -1.50000000000000000000e+03) (98, -1.50000000000000000000e+03) (99, -1.50000000000000000000e+03) (100, -1.50000000000000000000e+03) (101, -1.50000000000000000000e+03) (102, -1.50000000000000000000e+03) (103, 1.50000000000000000000e+03) (104, 2.74462890625000000000e+00) (0, -9.01556968688964843750e+00) (1, -3.65950465202331542969e+00) (2, 1.27514064311981201172e+00) (3, -1.84508347511291503906e+00) (4, 2.03913736343383789062e+00) (5, -2.17788720130920410156e+00) (6, 3.45702290534973144531e-01) (7, -2.28434658050537109375e+00) (8, -1.33152887225151062012e-01) (9, -4.89049375057220458984e-01) (10, 1.21870672702789306641e+00) (11, -2.25503373146057128906e+00) (12, -8.75894665718078613281e-01) (13, 2.82497501373291015625e+00) (14, -1.45184910297393798828e+00) (15, -5.41704475879669189453e-01) (16, 5.87005376815795898438e-01) (17, 3.53310108184814453125e+00) (18, -3.23558330535888671875e-01) (19, -4.03169065713882446289e-01) (20, 4.11725521087646484375e+00) (21, -2.65059947967529296875e+00) (22, 6.60116481781005859375e+00) (23, -1.78542718291282653809e-01) (24, 9.26683664321899414062e-01) (25, -7.14882564544677734375e+00) (26, -4.27099764347076416016e-02) (27, -5.09896516799926757812e-01) (28, -6.41266882419586181641e-01) (29, -3.66874265670776367188e+00) (30, 2.70535182952880859375e+00) (31, 3.89233064651489257812e+00) (32, -5.63218545913696289062e+00) (33, 2.24127244949340820312e+00) (34, 2.72340559959411621094e+00) (35, 4.18217897415161132812e-01) (36, -1.09044396877288818359e+00) (37, 1.91754892468452453613e-01) (38, 9.88876819610595703125e-03) (39, -8.07716622948646545410e-02) (40, 4.36361742019653320312e+00) (41, 2.39326268434524536133e-01) (42, 1.99649244546890258789e-01) (43, -2.39646935462951660156e+00) (44, 1.74152660369873046875e+01) (45, -4.29421663284301757812e+00) (46, -5.04200041294097900391e-01) (47, 5.10516595840454101562e+00) (48, 5.76495599746704101562e+00) (49, 5.45418739318847656250e+00) (50, -4.04909998178482055664e-01) (51, 3.91578507423400878906e+00) (52, 8.79522621631622314453e-01) (53, 6.78145885467529296875e-01) (54, 2.09979248046875000000e+00) (55, 6.37667536735534667969e-01) (56, 1.84194684028625488281e-01) (57, -1.11134672164916992188e+00) (58, -1.78115797042846679688e+00) (59, -1.53341281414031982422e+00) (60, -8.38211417198181152344e-01) (61, -4.00052219629287719727e-01) (62, 2.64982438087463378906e+00) (63, 2.55217432975769042969e+00) (64, 1.07936203479766845703e+00) (65, 2.46249246597290039062e+00) (66, 2.50055283308029174805e-01) (67, 2.09928345680236816406e+00) (68, -3.44483673572540283203e-01) (69, -1.17810070514678955078e+00) (70, -2.26288899779319763184e-01) (71, -6.30952239036560058594e-01) (72, -5.09093880653381347656e-01) (73, -3.84310793876647949219e+00) (74, 1.40441429615020751953e+00) (75, -5.00798702239990234375e-01) (76, -1.21445381641387939453e+00) (77, 7.64765501022338867188e-01) (78, 2.38782382011413574219e+00) (79, -2.77574688196182250977e-01) (80, 1.96885311603546142578e+00) (81, 8.60263109207153320312e-01) (82, -4.32984232902526855469e-01) (83, -3.01182448863983154297e-01) (84, -5.37191534042358398438e+00) (85, -4.51907575130462646484e-01) (86, 2.42198348045349121094e+00) (87, 2.46781301498413085938e+00) (88, 3.68679940700531005859e-01) (89, -6.77873492240905761719e-02) (90, -5.36639690399169921875e-01) (91, 2.08303356170654296875e+00) (92, 2.13713741302490234375e+00) (93, -2.94890612363815307617e-01) (94, -2.73996621370315551758e-01) (95, -9.65235650539398193359e-01) (96, 2.49809026718139648438e+00) (97, -2.38408401608467102051e-01) (98, -4.17663604021072387695e-01) (99, 3.27601879835128784180e-02) (100, -3.84552836418151855469e-01) (101, -2.31044963002204895020e-01) (102, -7.98447132110595703125e+00) (103, 1.35997953414916992188e+01) (104, -3.87993633747100830078e-01) (0, -1.50000000000000000000e+03) (1, -1.50000000000000000000e+03) (2, -1.50000000000000000000e+03) (3, -1.50000000000000000000e+03) (4, -1.50000000000000000000e+03) (5, -1.50000000000000000000e+03) (6, -1.50000000000000000000e+03) (7, -1.50000000000000000000e+03) (8, -1.50000000000000000000e+03) (9, -1.50000000000000000000e+03) (10, -1.50000000000000000000e+03) (11, -1.50000000000000000000e+03) (12, -1.50000000000000000000e+03) (13, -1.28093171119689941406e+00) (14, -1.50000000000000000000e+03) (15, -1.50000000000000000000e+03) (16, -1.50000000000000000000e+03) (17, -1.50000000000000000000e+03) (18, -1.50000000000000000000e+03) (19, -1.50000000000000000000e+03) (20, -1.50000000000000000000e+03) (21, -1.50000000000000000000e+03) (22, -1.50000000000000000000e+03) (23, -1.50000000000000000000e+03) (24, -1.50000000000000000000e+03) (25, -1.50000000000000000000e+03) (26, -1.50000000000000000000e+03) (27, -1.50000000000000000000e+03) (28, -1.50000000000000000000e+03) (29, -1.50000000000000000000e+03) (30, -1.50000000000000000000e+03) (31, -1.50000000000000000000e+03) (32, -1.50000000000000000000e+03) (33, -1.50000000000000000000e+03) (34, -1.50000000000000000000e+03) (35, -1.50000000000000000000e+03) (36, -1.50000000000000000000e+03) (37, -1.50000000000000000000e+03) (38, -1.50000000000000000000e+03) (39, -1.50000000000000000000e+03) (40, -1.50000000000000000000e+03) (41, 1.95658051967620849609e+00) (42, -9.74434316158294677734e-01) (43, -7.98523855209350585938e+00) (44, -1.50000000000000000000e+03) (45, -1.39444067382812500000e+03) (46, -1.50000000000000000000e+03) (47, -1.49990454101562500000e+03) (48, -1.50000000000000000000e+03) (49, -1.50000000000000000000e+03) (50, -1.50000000000000000000e+03) (51, -1.50000000000000000000e+03) (52, -1.50000000000000000000e+03) (53, -1.50000000000000000000e+03) (54, -1.50000000000000000000e+03) (55, -1.49994274902343750000e+03) (56, -1.49994274902343750000e+03) (57, -1.50000000000000000000e+03) (58, -1.50000000000000000000e+03) (59, -1.50000000000000000000e+03) (60, -1.50000000000000000000e+03) (61, -1.50000000000000000000e+03) (62, -1.50000000000000000000e+03) (63, -1.50000000000000000000e+03) (64, -1.50000000000000000000e+03) (65, -1.23413026332855224609e+00) (66, -1.50000000000000000000e+03) (67, -1.50000000000000000000e+03) (68, -1.50000000000000000000e+03) (69, -1.50000000000000000000e+03) (70, -1.50000000000000000000e+03) (71, -1.50000000000000000000e+03) (72, -1.50000000000000000000e+03) (73, -1.50000000000000000000e+03) (74, -1.03928709030151367188e+00) (75, -1.50000000000000000000e+03) (76, -1.50000000000000000000e+03) (77, -1.50000000000000000000e+03) (78, -1.50000000000000000000e+03) (79, -1.50000000000000000000e+03) (80, -1.50000000000000000000e+03) (81, -1.50000000000000000000e+03) (82, -1.50000000000000000000e+03) (83, -1.50000000000000000000e+03) (84, -1.50000000000000000000e+03) (85, -1.50000000000000000000e+03) (86, -1.22263205051422119141e+00) (87, -8.04660618305206298828e-01) (88, -1.50000000000000000000e+03) (89, -1.50000000000000000000e+03) (90, -1.50000000000000000000e+03) (91, -1.50000000000000000000e+03) (92, -1.50000000000000000000e+03) (93, -1.50000000000000000000e+03) (94, -2.08138704299926757812e+00) (95, -1.50000000000000000000e+03) (96, -1.29494249820709228516e+00) (97, -1.50000000000000000000e+03) (98, -1.50000000000000000000e+03) (99, -1.50000000000000000000e+03) (100, -1.50000000000000000000e+03) (101, -1.50000000000000000000e+03) (102, -1.50000000000000000000e+03) (103, 1.50000000000000000000e+03) (104, 2.74883127212524414062e+00) (0, -9.45305919647216796875e+00) (1, -4.16873693466186523438e-01) (2, -1.96923896670341491699e-01) (3, -2.70038485527038574219e-01) (4, -2.89680868387222290039e-01) (5, 1.09404110908508300781e+00) (6, -3.25761854648590087891e-01) (7, -4.25304323434829711914e-01) (8, 2.70380210876464843750e+00) (9, 2.29965090751647949219e+00) (10, -5.15857160091400146484e-01) (11, -4.85435515642166137695e-01) (12, -5.30794113874435424805e-02) (13, -1.32817074656486511230e-01) (14, -2.57667034864425659180e-01) (15, -4.48979973793029785156e-01) (16, -5.84174811840057373047e-01) (17, -4.35504287481307983398e-01) (18, -6.11429035663604736328e-01) (19, 1.86139333248138427734e+00) (20, -3.57711017131805419922e-01) (21, -2.19388619065284729004e-01) (22, -7.56719350814819335938e-01) (23, -7.41874933242797851562e-01) (24, -1.22587609291076660156e+00) (25, -4.72262710332870483398e-01) (26, -4.85270977020263671875e-01) (27, -3.84929656982421875000e-01) (28, 3.42773532867431640625e+00) (29, -4.71461176872253417969e-01) (30, -1.04686105251312255859e+00) (31, -7.51525342464447021484e-01) (32, -3.99853378534317016602e-01) (33, 2.08081769943237304688e+00) (34, -1.12768518924713134766e+00) (35, 8.80365610122680664062e-01) (36, -3.99176716804504394531e-01) (37, 2.67278122901916503906e+00) (38, -5.28700828552246093750e-01) (39, -5.60539722442626953125e-01) (40, -4.85904604196548461914e-01) (41, 2.52401113510131835938e+00) (42, -2.16240301728248596191e-01) (43, 1.83212772011756896973e-01) (44, -4.87240374088287353516e-01) (45, -2.51845622062683105469e+00) (46, 1.09958446025848388672e+00) (47, 4.67531308531761169434e-02) (48, 1.16346848011016845703e+00) (49, -6.11753940582275390625e-01) (50, 5.72934567928314208984e-01) (51, 3.16016364097595214844e+00) (52, 5.61667859554290771484e-01) (53, -3.13162595033645629883e-01) (54, 2.55451297760009765625e+00) (55, -6.28638491034507751465e-02) (56, -2.80004352331161499023e-01) (57, -4.45782989263534545898e-01) (58, 1.61459898948669433594e+00) (59, 7.18122482299804687500e-01) (60, -4.01634514331817626953e-01) (61, -2.39717340469360351562e+00) (62, 3.17013359069824218750e+00) (63, -2.74715721607208251953e-01) (64, 8.54685127735137939453e-01) (65, -9.74181070923805236816e-02) (66, -1.40543925762176513672e+00) (67, -1.83556222915649414062e+00) (68, 1.26869022846221923828e+00) (69, -1.33974921703338623047e+00) (70, -1.99992999434471130371e-01) (71, 2.42231678962707519531e+00) (72, -4.31778162717819213867e-01) (73, 6.22958600521087646484e-01) (74, -1.92074224352836608887e-01) (75, -4.21267938613891601562e+00) (76, 3.08954811096191406250e+00) (77, -3.84807378053665161133e-01) (78, 2.33819890022277832031e+00) (79, -4.04209041595458984375e+00) (80, 4.33074712753295898438e+00) (81, 1.21927762031555175781e+00) (82, -3.27054470777511596680e-01) (83, -1.21358132362365722656e+00) (84, -1.23105776309967041016e+00) (85, 3.17658114433288574219e+00) (86, -2.80501604080200195312e-01) (87, 2.67137002944946289062e+00) (88, -2.95235991477966308594e+00) (89, -1.03798258304595947266e+00) (90, 7.43104875087738037109e-01) (91, -3.53031307458877563477e-01) (92, 1.57797932624816894531e-01) (93, 2.25159510970115661621e-01) (94, 2.04700136184692382812e+00) (95, -7.22839772701263427734e-01) (96, 4.85367059707641601562e+00) (97, -5.43100893497467041016e-01) (98, -1.70268988609313964844e+00) (99, 5.77727317810058593750e-01) (100, 2.01393365859985351562e+00) (101, 1.45579671859741210938e+00) (102, -2.18754029273986816406e+00) (103, 4.88677883148193359375e+00) (104, -9.17934596538543701172e-01) (0, 1.50000000000000000000e+03) (1, 1.50000000000000000000e+03) (2, 1.50000000000000000000e+03) (3, 1.50000000000000000000e+03) (4, 1.50000000000000000000e+03) (5, 1.50000000000000000000e+03) (6, 1.50000000000000000000e+03) (7, 1.50000000000000000000e+03) (8, 1.50000000000000000000e+03) (9, 1.50000000000000000000e+03) (10, 1.50000000000000000000e+03) (11, 1.50000000000000000000e+03) (12, 1.50000000000000000000e+03) (13, 3.41030120849609375000e+00) (14, 1.50000000000000000000e+03) (15, 1.50000000000000000000e+03) (16, 1.50000000000000000000e+03) (17, 1.50000000000000000000e+03) (18, 1.50000000000000000000e+03) (19, 1.50000000000000000000e+03) (20, 1.50000000000000000000e+03) (21, 1.50000000000000000000e+03) (22, 1.50000000000000000000e+03) (23, 1.50000000000000000000e+03) (24, 1.50000000000000000000e+03) (25, 1.50000000000000000000e+03) (26, 1.50000000000000000000e+03) (27, 1.50000000000000000000e+03) (28, 1.50000000000000000000e+03) (29, 1.50000000000000000000e+03) (30, 1.50000000000000000000e+03) (31, 1.50000000000000000000e+03) (32, 1.50000000000000000000e+03) (33, 1.50000000000000000000e+03) (34, 1.50000000000000000000e+03) (35, 1.50000000000000000000e+03) (36, 1.50000000000000000000e+03) (37, 1.50000000000000000000e+03) (38, 1.50000000000000000000e+03) (39, 1.50000000000000000000e+03) (40, 1.50000000000000000000e+03) (41, -6.72180205583572387695e-02) (42, 2.79492545127868652344e+00) (43, 2.62572383880615234375e+01) (44, 1.50000000000000000000e+03) (45, 1.50000000000000000000e+03) (46, 1.50000000000000000000e+03) (47, 1.49990747070312500000e+03) (48, 1.50000000000000000000e+03) (49, 1.50000000000000000000e+03) (50, 1.50000000000000000000e+03) (51, 1.50000000000000000000e+03) (52, 1.50000000000000000000e+03) (53, 1.50000000000000000000e+03) (54, 1.50000000000000000000e+03) (55, 1.49994299316406250000e+03) (56, 1.49994299316406250000e+03) (57, 1.50000000000000000000e+03) (58, 1.50000000000000000000e+03) (59, 1.50000000000000000000e+03) (60, 1.50000000000000000000e+03) (61, 1.50000000000000000000e+03) (62, 1.50000000000000000000e+03) (63, 1.50000000000000000000e+03) (64, 1.50000000000000000000e+03) (65, 3.05962514877319335938e+00) (66, 1.50000000000000000000e+03) (67, 1.50000000000000000000e+03) (68, 1.50000000000000000000e+03) (69, 1.50000000000000000000e+03) (70, 1.50000000000000000000e+03) (71, 1.50000000000000000000e+03) (72, 1.50000000000000000000e+03) (73, 1.50000000000000000000e+03) (74, 2.75026798248291015625e+00) (75, 1.50000000000000000000e+03) (76, 1.50000000000000000000e+03) (77, 1.50000000000000000000e+03) (78, 1.50000000000000000000e+03) (79, 1.50000000000000000000e+03) (80, 1.50000000000000000000e+03) (81, 1.50000000000000000000e+03) (82, 1.50000000000000000000e+03) (83, 1.50000000000000000000e+03) (84, 1.50000000000000000000e+03) (85, 1.50000000000000000000e+03) (86, 3.12062859535217285156e+00) (87, 2.70297265052795410156e+00) (88, 1.50000000000000000000e+03) (89, 1.50000000000000000000e+03) (90, 1.50000000000000000000e+03) (91, 1.50000000000000000000e+03) (92, 1.50000000000000000000e+03) (93, 1.50000000000000000000e+03) (94, 4.27243089675903320312e+00) (95, 1.50000000000000000000e+03) (96, 3.19533157348632812500e+00) (97, 1.50000000000000000000e+03) (98, 1.50000000000000000000e+03) (99, 1.50000000000000000000e+03) (100, 1.50000000000000000000e+03) (101, 1.50000000000000000000e+03) (102, 1.50000000000000000000e+03) (103, -1.50000000000000000000e+03) (104, -9.72050845623016357422e-01) (0, 1.50000000000000000000e+03) (1, 1.50000000000000000000e+03) (2, 1.50000000000000000000e+03) (3, 1.50000000000000000000e+03) (4, 1.50000000000000000000e+03) (5, 1.50000000000000000000e+03) (6, 1.50000000000000000000e+03) (7, 1.50000000000000000000e+03) (8, 1.50000000000000000000e+03) (9, 1.50000000000000000000e+03) (10, 1.50000000000000000000e+03) (11, 1.50000000000000000000e+03) (12, 1.50000000000000000000e+03) (13, 3.44239282608032226562e+00) (14, 1.50000000000000000000e+03) (15, 1.50000000000000000000e+03) (16, 1.50000000000000000000e+03) (17, 1.50000000000000000000e+03) (18, 1.50000000000000000000e+03) (19, 1.50000000000000000000e+03) (20, 1.50000000000000000000e+03) (21, 1.50000000000000000000e+03) (22, 1.50000000000000000000e+03) (23, 1.50000000000000000000e+03) (24, 1.50000000000000000000e+03) (25, 1.50000000000000000000e+03) (26, 1.50000000000000000000e+03) (27, 1.50000000000000000000e+03) (28, 1.50000000000000000000e+03) (29, 1.50000000000000000000e+03) (30, 1.50000000000000000000e+03) (31, 1.50000000000000000000e+03) (32, 1.50000000000000000000e+03) (33, 1.50000000000000000000e+03) (34, 1.50000000000000000000e+03) (35, 1.50000000000000000000e+03) (36, 1.50000000000000000000e+03) (37, 1.50000000000000000000e+03) (38, 1.50000000000000000000e+03) (39, 1.50000000000000000000e+03) (40, 1.50000000000000000000e+03) (41, 4.29842382669448852539e-01) (42, 2.68020772933959960938e+00) (43, 2.30639228820800781250e+01) (44, 1.50000000000000000000e+03) (45, 1.50000000000000000000e+03) (46, 1.50000000000000000000e+03) (47, 1.49990747070312500000e+03) (48, 1.50000000000000000000e+03) (49, 1.50000000000000000000e+03) (50, 1.50000000000000000000e+03) (51, 1.50000000000000000000e+03) (52, 1.50000000000000000000e+03) (53, 1.50000000000000000000e+03) (54, 1.50000000000000000000e+03) (55, 1.49994299316406250000e+03) (56, 1.49994299316406250000e+03) (57, 1.50000000000000000000e+03) (58, 1.50000000000000000000e+03) (59, 1.50000000000000000000e+03) (60, 1.50000000000000000000e+03) (61, 1.50000000000000000000e+03) (62, 1.50000000000000000000e+03) (63, 1.50000000000000000000e+03) (64, 1.50000000000000000000e+03) (65, 2.95897889137268066406e+00) (66, 1.50000000000000000000e+03) (67, 1.50000000000000000000e+03) (68, 1.50000000000000000000e+03) (69, 1.50000000000000000000e+03) (70, 1.50000000000000000000e+03) (71, 1.50000000000000000000e+03) (72, 1.50000000000000000000e+03) (73, 1.50000000000000000000e+03) (74, 2.68192577362060546875e+00) (75, 1.50000000000000000000e+03) (76, 1.50000000000000000000e+03) (77, 1.50000000000000000000e+03) (78, 1.50000000000000000000e+03) (79, 1.50000000000000000000e+03) (80, 1.50000000000000000000e+03) (81, 1.50000000000000000000e+03) (82, 1.50000000000000000000e+03) (83, 1.50000000000000000000e+03) (84, 1.50000000000000000000e+03) (85, 1.50000000000000000000e+03) (86, 3.07541418075561523438e+00) (87, 2.64860248565673828125e+00) (88, 1.50000000000000000000e+03) (89, 1.50000000000000000000e+03) (90, 1.50000000000000000000e+03) (91, 1.50000000000000000000e+03) (92, 1.50000000000000000000e+03) (93, 1.50000000000000000000e+03) (94, 3.97831845283508300781e+00) (95, 1.50000000000000000000e+03) (96, 3.00709509849548339844e+00) (97, 1.50000000000000000000e+03) (98, 1.50000000000000000000e+03) (99, 1.50000000000000000000e+03) (100, 1.50000000000000000000e+03) (101, 1.50000000000000000000e+03) (102, 1.50000000000000000000e+03) (103, -1.50000000000000000000e+03) (104, -7.93277084827423095703e-01) (0, -1.15815057754516601562e+01) (1, -7.05853891372680664062e+00) (2, -4.90690618753433227539e-01) (3, 2.05056834220886230469e+00) (4, -1.71420112252235412598e-01) (5, -2.46768712997436523438e+00) (6, 2.36758065223693847656e+00) (7, -8.20366287231445312500e+00) (8, 1.22172677516937255859e+00) (9, 2.07560873031616210938e+00) (10, 1.89711488783359527588e-02) (11, 9.25240457057952880859e-01) (12, -3.79237949848175048828e-01) (13, 5.93937587738037109375e+00) (14, 6.16162204742431640625e+00) (15, -3.71286362409591674805e-01) (16, 3.88418626785278320312e+00) (17, -6.84073388576507568359e-01) (18, 1.84026551246643066406e+00) (19, 3.34785413742065429688e+00) (20, 1.21859192848205566406e+00) (21, -2.73297500610351562500e+00) (22, -7.41519308090209960938e+00) (23, -8.93317604064941406250e+00) (24, 6.52536058425903320312e+00) (25, -4.52423143386840820312e+00) (26, -8.14147114753723144531e-01) (27, 3.87181520462036132812e+00) (28, 1.06353750452399253845e-02) (29, 1.09673774242401123047e+00) (30, 5.63999748229980468750e+00) (31, -4.83972406387329101562e+00) (32, 2.35659313201904296875e+00) (33, -5.15481770038604736328e-01) (34, -1.35644829273223876953e+00) (35, 6.47624444961547851562e+00) (36, 5.35850572586059570312e+00) (37, -6.10421705245971679688e+00) (38, 3.05865788459777832031e+00) (39, 1.00159265100955963135e-01) (40, 1.58703386783599853516e+00) (41, -6.95115447044372558594e-01) (42, -2.72134959697723388672e-01) (43, 1.16775378584861755371e-01) (44, -4.39263820648193359375e+00) (45, 4.90772819519042968750e+00) (46, 1.55486345291137695312e+00) (47, 3.46209311485290527344e+00) (48, -2.82274699211120605469e+00) (49, 3.57867383956909179688e+00) (50, 8.39143753051757812500e-01) (51, -4.17668342590332031250e+00) (52, 3.44042992591857910156e+00) (53, -4.63864898681640625000e+00) (54, 1.37897431850433349609e+00) (55, -8.19626271724700927734e-01) (56, 3.41194105148315429688e+00) (57, -9.04304683208465576172e-01) (58, -1.85758125782012939453e+00) (59, -2.85770821571350097656e+00) (60, 9.90541577339172363281e-01) (61, 2.08375597000122070312e+00) (62, 2.64893102645874023438e+00) (63, -6.02229058742523193359e-01) (64, -1.91407287120819091797e+00) (65, 2.10975670814514160156e+00) (66, -6.27569258213043212891e-01) (67, 2.87312650680541992188e+00) (68, 2.26476645469665527344e+00) (69, -9.70785021781921386719e-01) (70, -1.39155316352844238281e+00) (71, 2.65099501609802246094e+00) (72, 1.13632714748382568359e+00) (73, 1.37614309787750244141e+00) (74, -3.24345916509628295898e-01) (75, 1.02068267762660980225e-01) (76, -4.90466475486755371094e-01) (77, -2.07613751292228698730e-01) (78, -2.54337847232818603516e-01) (79, -3.43684971332550048828e-01) (80, -2.80888974666595458984e-01) (81, -3.50713014602661132812e-01) (82, -3.20084005594253540039e-01) (83, -3.34886670112609863281e-01) (84, -1.02183413505554199219e+00) (85, -6.16757631301879882812e-01) (86, -3.87358754873275756836e-01) (87, 2.45294284820556640625e+00) (88, -4.03675705194473266602e-01) (89, -3.02382767200469970703e-01) (90, 1.97679007053375244141e+00) (91, 1.99129831790924072266e+00) (92, 2.17057085037231445312e+00) (93, -1.70018985867500305176e-01) (94, -3.21220427751541137695e-01) (95, -3.06262284517288208008e-01) (96, 2.48623061180114746094e+00) (97, -1.78914055228233337402e-01) (98, -3.69686931371688842773e-01) (99, -1.95496633648872375488e-01) (100, -3.89883100986480712891e-01) (101, 2.18678259849548339844e+00) (102, 2.20123752951622009277e-02) (103, 2.18178486824035644531e+00) (104, -2.97724634408950805664e-01) (0, -1.02823247909545898438e+01) (1, -1.22255725860595703125e+01) (2, -1.47405073046684265137e-01) (3, -2.03725934028625488281e+00) (4, -3.17114740610122680664e-01) (5, -6.31803929805755615234e-01) (6, 1.80058085918426513672e+00) (7, -3.10118913650512695312e-01) (8, 3.90342783927917480469e+00) (9, -2.55818903446197509766e-01) (10, -7.09243953227996826172e-01) (11, -4.37099486589431762695e-01) (12, 2.11527609825134277344e+00) (13, 1.99907016754150390625e+00) (14, -3.58553469181060791016e-01) (15, 1.86783635616302490234e+00) (16, -3.15772831439971923828e-01) (17, 1.78569018840789794922e-01) (18, -5.79405426979064941406e-02) (19, -4.87617641687393188477e-01) (20, -1.29804897308349609375e+00) (21, 2.07172483205795288086e-01) (22, 1.70981431007385253906e+00) (23, -6.92856907844543457031e-01) (24, 1.24995839595794677734e+00) (25, -2.17457723617553710938e+00) (26, -3.67930263280868530273e-01) (27, 1.84791195392608642578e+00) (28, -7.16282665729522705078e-01) (29, -3.22696894407272338867e-01) (30, 1.96915531158447265625e+00) (31, -8.87194275856018066406e-01) (32, 1.84733259677886962891e+00) (33, 2.03953719139099121094e+00) (34, 1.16289348602294921875e+01) (35, -8.86844933032989501953e-01) (36, -6.39804899692535400391e-01) (37, 2.18772339820861816406e+00) (38, -2.77826100587844848633e-01) (39, -5.63968849182128906250e+00) (40, 1.97827339172363281250e+00) (41, 6.38507187366485595703e-01) (42, -2.07142233848571777344e-01) (43, 2.29892897605895996094e+00) (44, -6.06772601604461669922e-01) (45, -1.34189283847808837891e+00) (46, -2.88204580545425415039e-01) (47, 1.29509663581848144531e+00) (48, 2.31097483634948730469e+00) (49, -1.20677399635314941406e+00) (50, -5.12407112121582031250e+00) (51, -5.57719707489013671875e-01) (52, 1.98360478878021240234e+00) (53, 1.89572227001190185547e+00) (54, 2.10086059570312500000e+00) (55, -2.42606711387634277344e+00) (56, 2.21502232551574707031e+00) (57, -3.63735651969909667969e+00) (58, 1.17962563037872314453e+00) (59, 9.07976055145263671875e+00) (60, 2.03016710281372070312e+00) (61, -1.65637493133544921875e+00) (62, -2.94599354267120361328e-01) (63, -3.94578307867050170898e-01) (64, -6.31172478199005126953e-01) (65, -3.02576392889022827148e-01) (66, 2.90423727035522460938e+00) (67, -4.25181955099105834961e-01) (68, 7.02981412410736083984e-01) (69, 3.63877463340759277344e+00) (70, -1.78716834634542465210e-02) (71, 2.53890800476074218750e+00) (72, 8.30960988998413085938e-01) (73, -4.52694177627563476562e+00) (74, -1.79165735840797424316e-01) (75, 1.13264632225036621094e+00) (76, 5.04815801978111267090e-02) (77, -1.92978903651237487793e-01) (78, 1.87304699420928955078e+00) (79, 6.47096514701843261719e-01) (80, 6.19304895401000976562e+00) (81, 9.86440181732177734375e-02) (82, 2.06839060783386230469e+00) (83, 6.62644624710083007812e-01) (84, 2.49704322777688503265e-03) (85, -1.84368336200714111328e+00) (86, 2.14615011215209960938e+00) (87, 2.41570544242858886719e+00) (88, -8.95653128623962402344e-01) (89, 3.86913388967514038086e-01) (90, 8.15949738025665283203e-02) (91, 2.31375694274902343750e+00) (92, 2.00729870796203613281e+00) (93, -1.11553736031055450439e-01) (94, 2.12909102439880371094e+00) (95, -5.54997777938842773438e+00) (96, 2.71329855918884277344e+00) (97, 2.72967839241027832031e+00) (98, -2.92466312646865844727e-01) (99, 1.65094405412673950195e-01) (100, -2.63654798269271850586e-01) (101, 1.80565786361694335938e+00) (102, -5.60875272750854492188e+00) (103, 9.53727340698242187500e+00) (104, -5.90369939804077148438e-01) (0, -6.76567733287811279297e-01) (1, 2.45101189613342285156e+00) (2, 1.32051491737365722656e+00) (3, 1.95687800645828247070e-01) (4, -2.54282855987548828125e+00) (5, -2.12243342399597167969e+00) (6, 3.41233515739440917969e+00) (7, -4.82296037673950195312e+00) (8, 3.41683959960937500000e+00) (9, 9.81674194335937500000e+00) (10, 1.14421701431274414062e+00) (11, 2.13305521011352539062e+00) (12, 4.17304801940917968750e+00) (13, 6.96793317794799804688e-01) (14, 2.36119955778121948242e-01) (15, -1.36373507976531982422e+00) (16, 4.39848184585571289062e+00) (17, 7.86495637893676757812e+00) (18, 3.37188315391540527344e+00) (19, 3.28778648376464843750e+00) (20, -2.16481709480285644531e+00) (21, -5.82288384437561035156e-01) (22, 1.60105121135711669922e+00) (23, -3.10548305511474609375e+00) (24, -2.76442432403564453125e+00) (25, 1.09921491146087646484e+00) (26, -4.46116566658020019531e-01) (27, -3.23073118925094604492e-01) (28, -3.99604940414428710938e+00) (29, 4.47318220138549804688e+00) (30, -1.31103916168212890625e+01) (31, 1.31201720237731933594e+00) (32, 5.44015789031982421875e+00) (33, -2.04492107033729553223e-01) (34, -3.90918493270874023438e-01) (35, -1.38180053234100341797e+00) (36, 1.87483060359954833984e+00) (37, 2.17472267150878906250e+00) (38, 2.86013960838317871094e+00) (39, -5.33817887306213378906e-01) (40, -4.42664563655853271484e-01) (41, 2.15245747566223144531e+00) (42, 6.52980387210845947266e-01) (43, -8.87564778327941894531e-01) (44, 1.77603423595428466797e+00) (45, 5.88205456733703613281e-01) (46, -2.29657268524169921875e+00) (47, 1.94992542266845703125e-01) (48, -5.52542090415954589844e-01) (49, 1.62464964389801025391e+00) (50, -4.38767051696777343750e+00) (51, -7.91822314262390136719e-01) (52, 1.08833897113800048828e+00) (53, 4.51835775375366210938e+00) (54, -4.72235977649688720703e-01) (55, -7.43318438529968261719e-01) (56, -2.81587988138198852539e-01) (57, -3.43861311674118041992e-01) (58, -2.21678242087364196777e-01) (59, -2.02210402488708496094e+00) (60, -5.21171808242797851562e-01) (61, -3.16378974914550781250e+00) (62, 3.92181539535522460938e+00) (63, 2.04818439483642578125e+00) (64, -1.59656450152397155762e-01) (65, -2.52634376287460327148e-01) (66, -1.38328456878662109375e+00) (67, 2.17404866218566894531e+00) (68, -2.58812755346298217773e-01) (69, -3.93781572580337524414e-01) (70, -2.66463816165924072266e-01) (71, -3.27906906604766845703e-01) (72, -4.07729476690292358398e-01) (73, -1.41317152976989746094e+00) (74, 1.01096403598785400391e+00) (75, -3.36939632892608642578e-01) (76, -5.31107068061828613281e-01) (77, -4.23513799905776977539e-01) (78, -2.99169510602951049805e-01) (79, 1.14010512828826904297e-01) (80, -3.61682057380676269531e-01) (81, -4.54042911529541015625e-01) (82, -3.56687039136886596680e-01) (83, -3.49447488784790039062e-01) (84, -6.62017047405242919922e-01) (85, -5.50454139709472656250e-01) (86, -3.52116733789443969727e-01) (87, 1.27867794036865234375e+00) (88, 1.91252160072326660156e+00) (89, -3.15099239349365234375e-01) (90, -2.70404368638992309570e-01) (91, 1.90639567375183105469e+00) (92, 1.60806524753570556641e+00) (93, -1.31526660919189453125e+00) (94, -2.85772085189819335938e-01) (95, -3.46902370452880859375e-01) (96, 2.51127147674560546875e+00) (97, -1.19605407118797302246e-01) (98, -9.14733052253723144531e-01) (99, -4.41155642271041870117e-01) (100, -2.67064601182937622070e-01) (101, -1.19870439171791076660e-01) (102, -4.62221908569335937500e+00) (103, 8.80752372741699218750e+00) (104, 2.13371729850769042969e+00) (0, 2.60583305358886718750e+00) (1, -4.94317144155502319336e-01) (2, 2.01744794845581054688e+00) (3, -5.70804417133331298828e-01) (4, -5.13392925262451171875e-01) (5, -7.51829445362091064453e-01) (6, 2.38478207588195800781e+00) (7, 1.13698053359985351562e+00) (8, -7.58613705635070800781e-01) (9, -5.18212437629699707031e-01) (10, 2.08078622817993164062e+00) (11, -7.04589903354644775391e-01) (12, 1.81660723686218261719e+00) (13, -1.77016580104827880859e+00) (14, 2.65454769134521484375e-01) (15, -6.14225566387176513672e-01) (16, 4.22575533390045166016e-01) (17, 1.27207756042480468750e-01) (18, 5.60790956020355224609e-01) (19, -3.50421667098999023438e-01) (20, -6.80873930454254150391e-01) (21, -1.01250922679901123047e+00) (22, -4.33711588382720947266e-01) (23, 7.41363942623138427734e-01) (24, -1.72379088401794433594e+00) (25, 2.45628118515014648438e-01) (26, 1.67599689960479736328e+00) (27, -9.07266438007354736328e-01) (28, -9.13596510887145996094e-01) (29, -5.96458554267883300781e-01) (30, -3.57512623071670532227e-01) (31, 2.02519917488098144531e+00) (32, -5.39905011653900146484e-01) (33, -3.55880707502365112305e-01) (34, -2.80596792697906494141e-01) (35, 7.20206081867218017578e-01) (36, -6.15678012371063232422e-01) (37, -5.30897140502929687500e-01) (38, 7.06893026828765869141e-01) (39, 1.47602915763854980469e+00) (40, -3.22293728590011596680e-01) (41, -7.35381960868835449219e-01) (42, 2.22277593612670898438e+00) (43, 6.42394959926605224609e-01) (44, -1.62769392132759094238e-01) (45, -3.69619652628898620605e-02) (46, -1.18388630449771881104e-01) (47, 3.13465356826782226562e-01) (48, -1.24246370792388916016e+00) (49, -6.80055141448974609375e-01) (50, -3.63559991121292114258e-01) (51, -1.80908069014549255371e-01) (52, 2.10587739944458007812e+00) (53, -2.93285042047500610352e-01) (54, 1.51472234725952148438e+00) (55, 3.29446703195571899414e-01) (56, 1.26425313949584960938e+00) (57, 5.29752261936664581299e-02) (58, -8.48753631114959716797e-01) (59, -1.15631568431854248047e+00) (60, 1.69406056404113769531e+00) (61, -6.21498167514801025391e-01) (62, 2.66433179378509521484e-01) (63, -6.00685596466064453125e-01) (64, -5.17155587673187255859e-01) (65, -4.60562974214553833008e-01) (66, -1.30062007904052734375e+00) (67, -3.74798625707626342773e-01) (68, 1.05560243129730224609e-01) (69, -2.28150799870491027832e-01) (70, 1.18337607383728027344e+00) (71, -2.15324684977531433105e-01) (72, 4.40224289894104003906e-01) (73, -9.90753710269927978516e-01) (74, -3.81791681051254272461e-01) (75, -5.19085824489593505859e-02) (76, 1.30139207839965820312e+00) (77, -5.44162809848785400391e-01) (78, -5.56718647480010986328e-01) (79, 5.32433092594146728516e-01) (80, -5.23256480693817138672e-01) (81, -2.90460258722305297852e-01) (82, -5.52497386932373046875e-01) (83, -5.27761042118072509766e-01) (84, -2.47800216078758239746e-01) (85, 3.46765577793121337891e-01) (86, -6.23073518276214599609e-01) (87, -2.01609149575233459473e-01) (88, -1.12880818545818328857e-01) (89, -5.48767566680908203125e-01) (90, -3.65976065397262573242e-01) (91, -2.12896823883056640625e+00) (92, -4.80460166931152343750e-01) (93, -1.91310390830039978027e-01) (94, -5.05508661270141601562e-01) (95, 1.88131302595138549805e-01) (96, 2.34095215797424316406e+00) (97, -5.90010762214660644531e-01) (98, -7.53906786441802978516e-01) (99, 5.53244948387145996094e-01) (100, -5.56697607040405273438e-01) (101, 8.67556810379028320312e-01) (102, -5.12521207332611083984e-01) (103, 2.44883680343627929688e+00) (104, 2.42134642601013183594e+00) (0, 1.20478904247283935547e+00) (1, 1.48295998573303222656e-01) (2, -4.77515488862991333008e-01) (3, 8.26796442270278930664e-02) (4, 2.05780833959579467773e-01) (5, -1.28789365291595458984e+00) (6, -5.82676410675048828125e-01) (7, 1.42295658588409423828e-01) (8, 1.24804306030273437500e+00) (9, -6.59284114837646484375e-01) (10, 1.71877071261405944824e-01) (11, 5.62378704547882080078e-01) (12, -2.55294740200042724609e-01) (13, 9.31321442127227783203e-01) (14, -6.89522325992584228516e-01) (15, 1.75536048412322998047e+00) (16, 7.89984315633773803711e-03) (17, -1.04129922389984130859e+00) (18, 1.50933176279067993164e-01) (19, -8.25081825256347656250e-01) (20, -7.99497604370117187500e-01) (21, 1.42348420619964599609e+00) (22, -1.07053768634796142578e+00) (23, -9.16927993297576904297e-01) (24, 2.22181129455566406250e+00) (25, 6.64595901966094970703e-01) (26, -7.14912116527557373047e-01) (27, 1.12895202636718750000e+00) (28, -4.81781475245952606201e-02) (29, -6.17126882076263427734e-01) (30, -1.36499881744384765625e-01) (31, -7.11257219314575195312e-01) (32, 3.53427648544311523438e-01) (33, -7.00606286525726318359e-01) (34, 1.09948956966400146484e+00) (35, -4.40975844860076904297e-01) (36, 9.59246695041656494141e-01) (37, -4.92800503969192504883e-01) (38, -4.18079584836959838867e-01) (39, -4.45410460233688354492e-01) (40, 1.09179830551147460938e+00) (41, -1.35028684139251708984e+00) (42, 5.68902373313903808594e-01) (43, 2.91958332061767578125e-01) (44, 1.37192153930664062500e+00) (45, -4.02416527271270751953e-01) (46, -1.78145647048950195312e+00) (47, 1.09768614172935485840e-01) (48, 4.44931030273437500000e+00) (49, 8.14205050468444824219e-01) (50, 4.19364450499415397644e-03) (51, -6.69208824634552001953e-01) (52, -7.82132208347320556641e-01) (53, -4.39901113510131835938e-01) (54, -8.33177208900451660156e-01) (55, -1.07877671718597412109e+00) (56, -7.29985535144805908203e-01) (57, 1.42951858043670654297e+00) (58, 1.11602151393890380859e+00) (59, 3.84001135826110839844e-01) (60, -1.24119985103607177734e+00) (61, -4.58142936229705810547e-01) (62, -4.95534837245941162109e-01) (63, -7.58058965206146240234e-01) (64, -7.53948271274566650391e-01) (65, -6.77053391933441162109e-01) (66, 2.76799261569976806641e-01) (67, 6.11631453037261962891e-01) (68, 1.54476724565029144287e-02) (69, 1.42233777046203613281e+00) (70, -5.38535475730895996094e-01) (71, -6.17932915687561035156e-01) (72, -9.18554663658142089844e-01) (73, 5.80788254737854003906e-01) (74, -2.03416272997856140137e-01) (75, 1.98792088031768798828e+00) (76, 2.26834321022033691406e+00) (77, -5.52743136882781982422e-01) (78, 3.11338193714618682861e-02) (79, -2.87028431892395019531e-01) (80, -8.15441370010375976562e-01) (81, -8.90496790409088134766e-01) (82, -7.17897236347198486328e-01) (83, -5.64832508563995361328e-01) (84, -6.73152923583984375000e-01) (85, 1.53608822822570800781e+00) (86, -6.37177705764770507812e-01) (87, -3.54576915502548217773e-01) (88, 1.89663434028625488281e+00) (89, -8.10884296894073486328e-01) (90, -7.94232785701751708984e-01) (91, 1.48621821403503417969e+00) (92, 1.69353020191192626953e+00) (93, -5.98349332809448242188e-01) (94, -6.52548611164093017578e-01) (95, -7.53950178623199462891e-01) (96, 2.27052164077758789062e+00) (97, -5.99990129470825195312e-01) (98, -6.80963695049285888672e-01) (99, -4.70754683017730712891e-01) (100, -7.79372751712799072266e-01) (101, -6.97722256183624267578e-01) (102, -4.22002255916595458984e-01) (103, 2.41755843162536621094e+00) (104, 2.42791008949279785156e+00) (0, -6.93828153610229492188e+00) (1, -2.83466172218322753906e+00) (2, 1.27422541379928588867e-01) (3, -8.31174015998840332031e-01) (4, -4.50800776481628417969e-01) (5, -4.82843637466430664062e+00) (6, 4.82492685317993164062e+00) (7, 4.25358343124389648438e+00) (8, -6.90956115722656250000e-01) (9, -5.20286738872528076172e-01) (10, 4.39586818218231201172e-01) (11, 2.03392529487609863281e+00) (12, -2.57579803466796875000e+00) (13, 1.20857820510864257812e+01) (14, -1.92340826988220214844e+00) (15, -2.02203917503356933594e+00) (16, 5.34710216522216796875e+00) (17, -7.33243882656097412109e-01) (18, -7.48005914688110351562e+00) (19, -2.00922155380249023438e+00) (20, 4.69850254058837890625e+00) (21, 6.94943380355834960938e+00) (22, -1.31201112270355224609e+00) (23, -2.23828148841857910156e+00) (24, -7.34029471874237060547e-01) (25, -3.09930145740509033203e-01) (26, 1.05677731335163116455e-01) (27, 1.06209239959716796875e+01) (28, -6.65004301071166992188e+00) (29, 1.63822457194328308105e-01) (30, 3.07582569122314453125e+00) (31, -3.94554376602172851562e-01) (32, 1.17142283916473388672e+00) (33, -6.78237438201904296875e-01) (34, -2.98687547445297241211e-01) (35, 2.42039132118225097656e+00) (36, 6.27428174018859863281e-01) (37, 3.89599990844726562500e+00) (38, -5.94223976135253906250e+00) (39, -2.35508814454078674316e-01) (40, 2.67612600326538085938e+00) (41, 5.27135419845581054688e+00) (42, 2.19641876220703125000e+00) (43, -3.69803309440612792969e+00) (44, 3.04190897941589355469e+00) (45, -1.91675817966461181641e+00) (46, -1.03386044502258300781e+00) (47, -1.74834287166595458984e+00) (48, -2.12582659721374511719e+00) (49, -1.73843562602996826172e+00) (50, -1.12360346317291259766e+00) (51, -1.50603377819061279297e+00) (52, 2.21345043182373046875e+00) (53, -5.17866671085357666016e-01) (54, 5.89426803588867187500e+00) (55, 4.84814345836639404297e-01) (56, 5.09015035629272460938e+00) (57, -9.67429652810096740723e-02) (58, -1.36442494392395019531e+00) (59, 4.50321584939956665039e-01) (60, 1.76606678962707519531e+00) (61, -5.34876823425292968750e-01) (62, 9.46468353271484375000e-01) (63, -6.29578471183776855469e-01) (64, 1.44898951053619384766e+00) (65, -3.41021925210952758789e-01) (66, 7.31078565120697021484e-01) (67, 6.29917144775390625000e-01) (68, -3.18006008863449096680e-01) (69, -1.17215788364410400391e+00) (70, 8.86344909667968750000e-01) (71, 4.67962646484375000000e+00) (72, -2.23740267753601074219e+00) (73, -1.27292084693908691406e+00) (74, 2.05601549148559570312e+00) (75, -5.59995114803314208984e-01) (76, -9.26221728324890136719e-01) (77, -6.46814405918121337891e-02) (78, 1.13554644584655761719e+00) (79, -7.11494982242584228516e-02) (80, -7.68851637840270996094e-01) (81, 2.83718764781951904297e-01) (82, 9.86846208572387695312e-01) (83, 2.99418449401855468750e+00) (84, 1.70003247261047363281e+00) (85, -2.51075959205627441406e+00) (86, 2.27887940406799316406e+00) (87, -9.51423943042755126953e-01) (88, -2.68827438354492187500e+00) (89, -3.43818753957748413086e-01) (90, -3.96909683942794799805e-01) (91, 2.03204846382141113281e+00) (92, 2.19321322441101074219e+00) (93, 2.22999906539916992188e+00) (94, -3.57981830835342407227e-01) (95, -5.37981092929840087891e-01) (96, 2.65257072448730468750e+00) (97, -6.03564918041229248047e-01) (98, -2.54906272888183593750e+00) (99, -3.55066806077957153320e-01) (100, -1.14136695861816406250e+00) (101, 1.05092334747314453125e+00) (102, -1.39655005931854248047e+00) (103, 3.78175401687622070312e+00) (104, 2.22298026084899902344e+00) (0, 1.50000000000000000000e+03) (1, 1.50000000000000000000e+03) (2, 1.50000000000000000000e+03) (3, 1.50000000000000000000e+03) (4, 1.50000000000000000000e+03) (5, 1.50000000000000000000e+03) (6, 1.50000000000000000000e+03) (7, 1.50000000000000000000e+03) (8, 1.50000000000000000000e+03) (9, 1.50000000000000000000e+03) (10, 1.50000000000000000000e+03) (11, 1.50000000000000000000e+03) (12, 1.50000000000000000000e+03) (13, 3.37975549697875976562e+00) (14, 1.50000000000000000000e+03) (15, 1.50000000000000000000e+03) (16, 1.50000000000000000000e+03) (17, 1.50000000000000000000e+03) (18, 1.50000000000000000000e+03) (19, 1.50000000000000000000e+03) (20, 1.50000000000000000000e+03) (21, 1.50000000000000000000e+03) (22, 1.50000000000000000000e+03) (23, 1.50000000000000000000e+03) (24, 1.50000000000000000000e+03) (25, 1.50000000000000000000e+03) (26, 1.50000000000000000000e+03) (27, 1.50000000000000000000e+03) (28, 1.50000000000000000000e+03) (29, 1.50000000000000000000e+03) (30, 1.50000000000000000000e+03) (31, 1.50000000000000000000e+03) (32, 1.50000000000000000000e+03) (33, 1.50000000000000000000e+03) (34, 1.50000000000000000000e+03) (35, 1.50000000000000000000e+03) (36, 1.50000000000000000000e+03) (37, 1.50000000000000000000e+03) (38, 1.50000000000000000000e+03) (39, 1.50000000000000000000e+03) (40, 1.50000000000000000000e+03) (41, 4.11658436059951782227e-02) (42, 2.70465803146362304688e+00) (43, 2.60906467437744140625e+01) (44, 1.50000000000000000000e+03) (45, 1.50000000000000000000e+03) (46, 1.50000000000000000000e+03) (47, 1.49990747070312500000e+03) (48, 1.50000000000000000000e+03) (49, 1.50000000000000000000e+03) (50, 1.50000000000000000000e+03) (51, 1.50000000000000000000e+03) (52, 1.50000000000000000000e+03) (53, 1.50000000000000000000e+03) (54, 1.50000000000000000000e+03) (55, 1.49994299316406250000e+03) (56, 1.49994299316406250000e+03) (57, 1.50000000000000000000e+03) (58, 1.50000000000000000000e+03) (59, 1.50000000000000000000e+03) (60, 1.50000000000000000000e+03) (61, 1.50000000000000000000e+03) (62, 1.50000000000000000000e+03) (63, 1.50000000000000000000e+03) (64, 1.50000000000000000000e+03) (65, 2.93962121009826660156e+00) (66, 1.50000000000000000000e+03) (67, 1.50000000000000000000e+03) (68, 1.50000000000000000000e+03) (69, 1.50000000000000000000e+03) (70, 1.50000000000000000000e+03) (71, 1.50000000000000000000e+03) (72, 1.50000000000000000000e+03) (73, 1.50000000000000000000e+03) (74, 2.88201236724853515625e+00) (75, 1.50000000000000000000e+03) (76, 1.50000000000000000000e+03) (77, 1.50000000000000000000e+03) (78, 1.50000000000000000000e+03) (79, 1.50000000000000000000e+03) (80, 1.50000000000000000000e+03) (81, 1.50000000000000000000e+03) (82, 1.50000000000000000000e+03) (83, 1.50000000000000000000e+03) (84, 1.50000000000000000000e+03) (85, 1.50000000000000000000e+03) (86, 3.19781637191772460938e+00) (87, 2.67350196838378906250e+00) (88, 1.50000000000000000000e+03) (89, 1.50000000000000000000e+03) (90, 1.50000000000000000000e+03) (91, 1.50000000000000000000e+03) (92, 1.50000000000000000000e+03) (93, 1.50000000000000000000e+03) (94, 4.32760190963745117188e+00) (95, 1.50000000000000000000e+03) (96, 3.12262940406799316406e+00) (97, 1.50000000000000000000e+03) (98, 1.50000000000000000000e+03) (99, 1.50000000000000000000e+03) (100, 1.50000000000000000000e+03) (101, 1.50000000000000000000e+03) (102, 1.50000000000000000000e+03) (103, -1.50000000000000000000e+03) (104, -1.03779733180999755859e+00) (0, -1.50000000000000000000e+03) (1, -1.50000000000000000000e+03) (2, -1.50000000000000000000e+03) (3, -1.50000000000000000000e+03) (4, -1.50000000000000000000e+03) (5, -1.50000000000000000000e+03) (6, -1.50000000000000000000e+03) (7, -1.50000000000000000000e+03) (8, -1.50000000000000000000e+03) (9, -1.50000000000000000000e+03) (10, -1.50000000000000000000e+03) (11, -1.50000000000000000000e+03) (12, -1.50000000000000000000e+03) (13, -1.31265032291412353516e+00) (14, -1.50000000000000000000e+03) (15, -1.50000000000000000000e+03) (16, -1.50000000000000000000e+03) (17, -1.50000000000000000000e+03) (18, -1.50000000000000000000e+03) (19, -1.50000000000000000000e+03) (20, -1.50000000000000000000e+03) (21, -1.50000000000000000000e+03) (22, -1.50000000000000000000e+03) (23, -1.50000000000000000000e+03) (24, -1.50000000000000000000e+03) (25, -1.50000000000000000000e+03) (26, -1.50000000000000000000e+03) (27, -1.50000000000000000000e+03) (28, -1.50000000000000000000e+03) (29, -1.50000000000000000000e+03) (30, -1.50000000000000000000e+03) (31, -1.50000000000000000000e+03) (32, -1.50000000000000000000e+03) (33, -1.50000000000000000000e+03) (34, -1.50000000000000000000e+03) (35, -1.50000000000000000000e+03) (36, -1.50000000000000000000e+03) (37, -1.50000000000000000000e+03) (38, -1.50000000000000000000e+03) (39, -1.50000000000000000000e+03) (40, -1.50000000000000000000e+03) (41, 1.98017954826354980469e+00) (42, -1.03076732158660888672e+00) (43, -1.93760223388671875000e+01) (44, -1.50000000000000000000e+03) (45, -1.39436779785156250000e+03) (46, -1.50000000000000000000e+03) (47, -1.49990454101562500000e+03) (48, -1.50000000000000000000e+03) (49, -1.50000000000000000000e+03) (50, -1.50000000000000000000e+03) (51, -1.50000000000000000000e+03) (52, -1.50000000000000000000e+03) (53, -1.50000000000000000000e+03) (54, -1.50000000000000000000e+03) (55, -1.49994274902343750000e+03) (56, -1.49994274902343750000e+03) (57, -1.50000000000000000000e+03) (58, -1.50000000000000000000e+03) (59, -1.50000000000000000000e+03) (60, -1.50000000000000000000e+03) (61, -1.50000000000000000000e+03) (62, -1.50000000000000000000e+03) (63, -1.50000000000000000000e+03) (64, -1.50000000000000000000e+03) (65, -1.14298963546752929688e+00) (66, -1.50000000000000000000e+03) (67, -1.50000000000000000000e+03) (68, -1.50000000000000000000e+03) (69, -1.50000000000000000000e+03) (70, -1.50000000000000000000e+03) (71, -1.50000000000000000000e+03) (72, -1.50000000000000000000e+03) (73, -1.50000000000000000000e+03) (74, -8.61717820167541503906e-01) (75, -1.50000000000000000000e+03) (76, -1.50000000000000000000e+03) (77, -1.50000000000000000000e+03) (78, -1.50000000000000000000e+03) (79, -1.50000000000000000000e+03) (80, -1.50000000000000000000e+03) (81, -1.50000000000000000000e+03) (82, -1.50000000000000000000e+03) (83, -1.50000000000000000000e+03) (84, -1.50000000000000000000e+03) (85, -1.50000000000000000000e+03) (86, -1.19192814826965332031e+00) (87, -8.25973689556121826172e-01) (88, -1.50000000000000000000e+03) (89, -1.50000000000000000000e+03) (90, -1.50000000000000000000e+03) (91, -1.50000000000000000000e+03) (92, -1.50000000000000000000e+03) (93, -1.50000000000000000000e+03) (94, -2.00212574005126953125e+00) (95, -1.50000000000000000000e+03) (96, -1.23085653781890869141e+00) (97, -1.50000000000000000000e+03) (98, -1.50000000000000000000e+03) (99, -1.50000000000000000000e+03) (100, -1.50000000000000000000e+03) (101, -1.50000000000000000000e+03) (102, -1.50000000000000000000e+03) (103, 1.50000000000000000000e+03) (104, 2.84700584411621093750e+00) (0, 1.80684757232666015625e+01) (1, 8.51090240478515625000e+00) (2, 1.43241405487060546875e+00) (3, -8.59830453991889953613e-02) (4, -6.94677650928497314453e-01) (5, 1.29182958602905273438e+00) (6, -1.50035187602043151855e-01) (7, -1.27111740112304687500e+01) (8, 1.36827449798583984375e+01) (9, 4.89863204956054687500e+00) (10, -1.03690230846405029297e+00) (11, 3.58861470222473144531e+00) (12, 2.68678712844848632812e+00) (13, -1.16080350875854492188e+01) (14, -9.13846206665039062500e+00) (15, 3.08497762680053710938e+00) (16, 9.40581142902374267578e-01) (17, 2.09449672698974609375e+00) (18, -3.32022517919540405273e-01) (19, -8.20377647876739501953e-01) (20, -3.03838753700256347656e+00) (21, 3.86031842231750488281e+00) (22, -1.69648766517639160156e+00) (23, -4.70891624689102172852e-01) (24, 2.18628764152526855469e-01) (25, -3.65948289632797241211e-01) (26, -6.11234486103057861328e-01) (27, 2.22976040840148925781e+00) (28, -7.98379242420196533203e-01) (29, 1.46618932485580444336e-01) (30, 9.80485737323760986328e-01) (31, -5.05778431892395019531e-01) (32, 3.38903141021728515625e+00) (33, 2.17048454284667968750e+00) (34, 5.25615513324737548828e-01) (35, 2.02957153320312500000e+00) (36, 1.95967829227447509766e+00) (37, -8.96205961704254150391e-01) (38, -6.39233171939849853516e-01) (39, -6.34758651256561279297e-01) (40, 1.78492856025695800781e+00) (41, 2.17646026611328125000e+00) (42, -4.47444796562194824219e-01) (43, -5.73474109172821044922e-01) (44, -5.60172438621520996094e-01) (45, -7.49594867229461669922e-01) (46, -5.52008330821990966797e-01) (47, -7.51127898693084716797e-01) (48, -5.01385450363159179688e-01) (49, -7.05386877059936523438e-01) (50, -9.85201075673103332520e-02) (51, -4.74749177694320678711e-01) (52, -6.48528039455413818359e-01) (53, -6.71363294124603271484e-01) (54, -5.30938088893890380859e-01) (55, 2.43487909436225891113e-01) (56, -5.75557291507720947266e-01) (57, -5.22665977478027343750e-01) (58, -5.02546310424804687500e-01) (59, 2.14910292625427246094e+00) (60, 1.87359857559204101562e+00) (61, -3.57989251613616943359e-01) (62, 1.97374367713928222656e+00) (63, -4.66079384088516235352e-01) (64, -6.27575099468231201172e-01) (65, 1.96359336376190185547e+00) (66, 2.79276907444000244141e-01) (67, -3.59785884618759155273e-01) (68, -4.10995543003082275391e-01) (69, -5.01136064529418945312e-01) (70, -5.51729500293731689453e-01) (71, -4.74845826625823974609e-01) (72, -5.77871978282928466797e-01) (73, 1.72125756740570068359e-01) (74, -4.40867930650711059570e-01) (75, -5.70267975330352783203e-01) (76, -5.20464181900024414062e-01) (77, -6.03723406791687011719e-01) (78, -5.34829616546630859375e-01) (79, -5.15860497951507568359e-01) (80, -6.58158302307128906250e-01) (81, -6.40338182449340820312e-01) (82, -5.33059239387512207031e-01) (83, -5.80945849418640136719e-01) (84, -5.07674396038055419922e-01) (85, -5.62888801097869873047e-01) (86, -5.54726362228393554688e-01) (87, 1.73780858516693115234e+00) (88, 1.97844952344894409180e-01) (89, -7.15904712677001953125e-01) (90, 1.77679574489593505859e+00) (91, 1.55068087577819824219e+00) (92, 1.88955569267272949219e+00) (93, -4.07165020704269409180e-01) (94, -6.99121534824371337891e-01) (95, -5.71561872959136962891e-01) (96, 2.07924795150756835938e+00) (97, -4.16079401969909667969e-01) (98, -6.31203114986419677734e-01) (99, 1.69363880157470703125e+00) (100, -5.27678847312927246094e-01) (101, -5.25620520114898681641e-01) (102, 7.42908525466918945312e+00) (103, -1.96631908416748046875e+00) (104, -8.22631791234016418457e-02) (0, -1.19434366226196289062e+01) (1, -1.22158014774322509766e+00) (2, 4.79462966322898864746e-02) (3, -9.40834641456604003906e-01) (4, 7.98392772674560546875e-01) (5, -2.13374185562133789062e+00) (6, 4.97692823410034179688e-01) (7, 2.39155673980712890625e+00) (8, -1.85080349445343017578e+00) (9, -4.32185202836990356445e-01) (10, 2.44452667236328125000e+00) (11, 7.72973775863647460938e-01) (12, -2.15673136711120605469e+00) (13, 3.39497327804565429688e+00) (14, -3.33008587360382080078e-01) (15, -4.52556937932968139648e-01) (16, -2.98975586891174316406e-01) (17, 2.03678035736083984375e+00) (18, 2.01943731307983398438e+00) (19, -4.72455322742462158203e-01) (20, 7.55040168762207031250e+00) (21, -1.82190108299255371094e+00) (22, 2.37517952919006347656e+00) (23, 6.77960968017578125000e+00) (24, -3.51248431205749511719e+00) (25, -3.23306727409362792969e+00) (26, -3.37665349245071411133e-01) (27, -1.46563076972961425781e+00) (28, 2.80688071250915527344e+00) (29, 2.32005476951599121094e+00) (30, -2.99497985839843750000e+00) (31, -2.20792698860168457031e+00) (32, 1.88106048107147216797e+00) (33, 3.40401738882064819336e-01) (34, -1.79577076435089111328e+00) (35, -4.02122586965560913086e-01) (36, 2.01855754852294921875e+00) (37, -1.54997360706329345703e+00) (38, -8.59826445579528808594e-01) (39, -1.29448688030242919922e+00) (40, -2.97582030296325683594e+00) (41, 4.70224857330322265625e+00) (42, -3.62914711236953735352e-01) (43, 9.21220004558563232422e-01) (44, -4.09400510787963867188e+00) (45, -1.46859025955200195312e+00) (46, -1.33979070186614990234e+00) (47, 1.14538979530334472656e+00) (48, -1.27163195610046386719e+00) (49, -1.83170467615127563477e-01) (50, 5.29440045356750488281e-01) (51, 4.23584413528442382812e+00) (52, 2.85192322731018066406e+00) (53, 2.33126616477966308594e+00) (54, 7.91977643966674804688e-02) (55, 2.28718280792236328125e+00) (56, 3.38419079780578613281e-02) (57, -4.19751256704330444336e-01) (58, -4.43795055150985717773e-01) (59, 1.77084457874298095703e+00) (60, 5.16915470361709594727e-02) (61, -6.31294071674346923828e-01) (62, 4.51082468032836914062e+00) (63, -5.92305421829223632812e-01) (64, 1.20439445972442626953e+00) (65, 2.09727597236633300781e+00) (66, 7.13489103317260742188e+00) (67, 2.48155862092971801758e-01) (68, -4.27488625049591064453e-01) (69, 1.09413659572601318359e+00) (70, 6.31719112396240234375e-01) (71, 2.46450805664062500000e+00) (72, -1.57961094379425048828e+00) (73, 5.85850667953491210938e+00) (74, -3.46918630599975585938e+00) (75, -1.47655320167541503906e+00) (76, -2.16752004623413085938e+00) (77, -3.73851507902145385742e-01) (78, -1.23098361492156982422e+00) (79, -1.18424832820892333984e-01) (80, -3.03190374374389648438e+00) (81, 2.57427263259887695312e+00) (82, 5.23593473434448242188e+00) (83, 2.78346920013427734375e+00) (84, -8.76379072666168212891e-01) (85, 1.57475507259368896484e+00) (86, 2.11092782020568847656e+00) (87, -3.99310380220413208008e-01) (88, -4.24805927276611328125e+00) (89, -4.47153472900390625000e+00) (90, 1.39082574844360351562e+00) (91, -8.42930614948272705078e-01) (92, -1.35892319679260253906e+00) (93, 2.51917862892150878906e+00) (94, 1.96414387226104736328e+00) (95, -3.23545384407043457031e+00) (96, 2.32875490188598632812e+00) (97, -2.78941124677658081055e-01) (98, -1.64537680149078369141e+00) (99, -3.12493592500686645508e-01) (100, -3.16744416952133178711e-01) (101, 7.69322365522384643555e-02) (102, -1.31340277194976806641e+00) (103, 3.44706106185913085938e+00) (104, -2.33533799648284912109e-01) (0, -1.13198070526123046875e+01) (1, -3.25771307945251464844e+00) (2, 1.01343667507171630859e+00) (3, -9.55216228961944580078e-01) (4, 2.09998154640197753906e+00) (5, -1.19358468055725097656e+00) (6, -1.65545269846916198730e-01) (7, -1.42397880554199218750e-01) (8, 8.53635311126708984375e-01) (9, -3.75855356454849243164e-01) (10, -3.18891644477844238281e-01) (11, -4.52287495136260986328e-01) (12, 2.34121847152709960938e+00) (13, -1.42214584350585937500e+00) (14, -4.59857225418090820312e-01) (15, -5.31413555145263671875e-01) (16, -2.89185136556625366211e-01) (17, -4.86214607954025268555e-01) (18, -5.58323681354522705078e-01) (19, -4.48864877223968505859e-01) (20, -2.72599428892135620117e-01) (21, -3.32427144050598144531e-01) (22, -5.83349645137786865234e-01) (23, -5.64077436923980712891e-01) (24, -9.99577760696411132812e-01) (25, -2.37240982055664062500e+00) (26, -4.70932602882385253906e-01) (27, -5.08145987987518310547e-01) (28, -8.83937060832977294922e-01) (29, 1.91584122180938720703e+00) (30, -4.17228728532791137695e-01) (31, -7.72521734237670898438e-01) (32, 2.00499081611633300781e+00) (33, 2.28246426582336425781e+00) (34, 8.43169093132019042969e-01) (35, -4.86402750015258789062e-01) (36, 1.89029037952423095703e+00) (37, -2.14064806699752807617e-01) (38, -5.19570350646972656250e-01) (39, -6.16187810897827148438e-01) (40, -4.60451155900955200195e-01) (41, 7.78014242649078369141e-01) (42, 2.09938216209411621094e+00) (43, -2.17659339308738708496e-01) (44, 1.87156140804290771484e+00) (45, 1.10158812999725341797e+00) (46, -2.62637400627136230469e+00) (47, 2.50697255134582519531e+00) (48, 1.97781217098236083984e+00) (49, 1.76272201538085937500e+00) (50, 7.67389118671417236328e-01) (51, -5.03546953201293945312e-01) (52, 1.89029586315155029297e+00) (53, -5.34606695175170898438e-01) (54, -2.26150736212730407715e-01) (55, 1.74229848384857177734e+00) (56, -3.46100717782974243164e-01) (57, -2.38997387886047363281e+00) (58, 1.44472375512123107910e-01) (59, 1.68715095520019531250e+00) (60, 1.80027580261230468750e+00) (61, 4.84316730499267578125e+00) (62, 2.51968502998352050781e+00) (63, 1.93622088432312011719e+00) (64, -2.27420663833618164062e+00) (65, 2.25229287147521972656e+00) (66, -6.29385566711425781250e+00) (67, 2.19640374183654785156e+00) (68, -2.04243850708007812500e+00) (69, 1.52530580759048461914e-01) (70, 1.88102632761001586914e-01) (71, 2.02144056558609008789e-01) (72, 2.07826972007751464844e+00) (73, -8.08226764202117919922e-01) (74, -2.55088388919830322266e-01) (75, -2.68349671363830566406e+00) (76, -2.54988789558410644531e+00) (77, -2.87563949823379516602e-01) (78, 1.36620771884918212891e+00) (79, 6.96959209442138671875e+00) (80, 5.30303537845611572266e-01) (81, 8.69098186492919921875e-01) (82, -1.11568880081176757812e+00) (83, 3.87997484207153320312e+00) (84, -1.90840625762939453125e+00) (85, -4.99733161926269531250e+00) (86, -5.23683093488216400146e-02) (87, 7.01657086610794067383e-02) (88, 4.41524684429168701172e-01) (89, 3.76079916954040527344e+00) (90, -8.94703567028045654297e-01) (91, -5.01740038394927978516e-01) (92, -7.33392592519521713257e-03) (93, -9.01429712772369384766e-01) (94, -3.40729773044586181641e-01) (95, 1.95843613147735595703e+00) (96, 2.59639382362365722656e-01) (97, 6.16161823272705078125e+00) (98, 3.74666392803192138672e-01) (99, 1.19922864437103271484e+00) (100, 1.97365391254425048828e+00) (101, 5.25439441204071044922e-01) (102, -2.36604404449462890625e+00) (103, 5.21848058700561523438e+00) (104, -6.85974657535552978516e-01) (0, 1.50000000000000000000e+03) (1, 1.50000000000000000000e+03) (2, 1.50000000000000000000e+03) (3, 1.50000000000000000000e+03) (4, 1.50000000000000000000e+03) (5, 1.50000000000000000000e+03) (6, 1.50000000000000000000e+03) (7, 1.50000000000000000000e+03) (8, 1.50000000000000000000e+03) (9, 1.50000000000000000000e+03) (10, 1.50000000000000000000e+03) (11, 1.50000000000000000000e+03) (12, 1.50000000000000000000e+03) (13, 3.29530715942382812500e+00) (14, 1.50000000000000000000e+03) (15, 1.50000000000000000000e+03) (16, 1.50000000000000000000e+03) (17, 1.50000000000000000000e+03) (18, 1.50000000000000000000e+03) (19, 1.50000000000000000000e+03) (20, 1.50000000000000000000e+03) (21, 1.50000000000000000000e+03) (22, 1.50000000000000000000e+03) (23, 1.50000000000000000000e+03) (24, 1.50000000000000000000e+03) (25, 1.50000000000000000000e+03) (26, 1.50000000000000000000e+03) (27, 1.50000000000000000000e+03) (28, 1.50000000000000000000e+03) (29, 1.50000000000000000000e+03) (30, 1.50000000000000000000e+03) (31, 1.50000000000000000000e+03) (32, 1.50000000000000000000e+03) (33, 1.50000000000000000000e+03) (34, 1.50000000000000000000e+03) (35, 1.50000000000000000000e+03) (36, 1.50000000000000000000e+03) (37, 1.50000000000000000000e+03) (38, 1.50000000000000000000e+03) (39, 1.50000000000000000000e+03) (40, 1.50000000000000000000e+03) (41, -4.34880219399929046631e-02) (42, 2.70810365676879882812e+00) (43, 2.62535381317138671875e+01) (44, 1.50000000000000000000e+03) (45, 1.50000000000000000000e+03) (46, 1.50000000000000000000e+03) (47, 1.49990747070312500000e+03) (48, 1.50000000000000000000e+03) (49, 1.50000000000000000000e+03) (50, 1.50000000000000000000e+03) (51, 1.50000000000000000000e+03) (52, 1.50000000000000000000e+03) (53, 1.50000000000000000000e+03) (54, 1.50000000000000000000e+03) (55, 1.49994299316406250000e+03) (56, 1.49994299316406250000e+03) (57, 1.50000000000000000000e+03) (58, 1.50000000000000000000e+03) (59, 1.50000000000000000000e+03) (60, 1.50000000000000000000e+03) (61, 1.50000000000000000000e+03) (62, 1.50000000000000000000e+03) (63, 1.50000000000000000000e+03) (64, 1.50000000000000000000e+03) (65, 2.97520446777343750000e+00) (66, 1.50000000000000000000e+03) (67, 1.50000000000000000000e+03) (68, 1.50000000000000000000e+03) (69, 1.50000000000000000000e+03) (70, 1.50000000000000000000e+03) (71, 1.50000000000000000000e+03) (72, 1.50000000000000000000e+03) (73, 1.50000000000000000000e+03) (74, 2.76453971862792968750e+00) (75, 1.50000000000000000000e+03) (76, 1.50000000000000000000e+03) (77, 1.50000000000000000000e+03) (78, 1.50000000000000000000e+03) (79, 1.50000000000000000000e+03) (80, 1.50000000000000000000e+03) (81, 1.50000000000000000000e+03) (82, 1.50000000000000000000e+03) (83, 1.50000000000000000000e+03) (84, 1.50000000000000000000e+03) (85, 1.50000000000000000000e+03) (86, 3.18573498725891113281e+00) (87, 2.81403207778930664062e+00) (88, 1.50000000000000000000e+03) (89, 1.50000000000000000000e+03) (90, 1.50000000000000000000e+03) (91, 1.50000000000000000000e+03) (92, 1.50000000000000000000e+03) (93, 1.50000000000000000000e+03) (94, 4.27296972274780273438e+00) (95, 1.50000000000000000000e+03) (96, 3.03930902481079101562e+00) (97, 1.50000000000000000000e+03) (98, 1.50000000000000000000e+03) (99, 1.50000000000000000000e+03) (100, 1.50000000000000000000e+03) (101, 1.50000000000000000000e+03) (102, 1.50000000000000000000e+03) (103, -1.50000000000000000000e+03) (104, -8.92082810401916503906e-01) (0, -9.31981849670410156250e+00) (1, -5.08166193962097167969e-01) (2, -5.13965070247650146484e-01) (3, 7.45072174072265625000e+00) (4, 8.19027721881866455078e-01) (5, -3.82998847961425781250e+00) (6, -2.10558223724365234375e+00) (7, -2.24344301223754882812e+00) (8, -9.20310616493225097656e-01) (9, -1.51703655719757080078e+00) (10, -1.39705872535705566406e+00) (11, -1.44736719131469726562e+00) (12, 2.39042758941650390625e+00) (13, 7.10558116436004638672e-01) (14, 3.50450873374938964844e+00) (15, -4.40071225166320800781e-01) (16, -5.92565357685089111328e-01) (17, 3.26811552047729492188e-01) (18, -1.20039153099060058594e+00) (19, -4.76235985755920410156e-01) (20, 1.27655780315399169922e+00) (21, 3.95892691612243652344e+00) (22, 1.24025106430053710938e+00) (23, -2.71058112382888793945e-01) (24, -7.98256278038024902344e-01) (25, 5.05135774612426757812e+00) (26, 2.91797542572021484375e+00) (27, 2.39559841156005859375e+00) (28, 3.48524093627929687500e-01) (29, 1.46019327640533447266e+00) (30, 9.92701530456542968750e-01) (31, 1.93535816669464111328e+00) (32, -1.41640377044677734375e+00) (33, 2.06665110588073730469e+00) (34, -3.32679462432861328125e+00) (35, 7.44671225547790527344e-01) (36, 2.65120530128479003906e+00) (37, 1.18068464100360870361e-01) (38, 1.37971127033233642578e+00) (39, 9.32565093040466308594e-01) (40, -6.03403568267822265625e-01) (41, -3.94959241151809692383e-01) (42, 2.70763206481933593750e+00) (43, -2.07935881614685058594e+00) (44, -1.35947859287261962891e+00) (45, -4.09390401840209960938e+00) (46, -7.16044306755065917969e-01) (47, -2.47768044471740722656e+00) (48, -3.56649070978164672852e-01) (49, -3.10723733901977539062e+00) (50, -2.40442013740539550781e+00) (51, -2.04573535919189453125e+00) (52, -8.20429027080535888672e-01) (53, 3.35820102691650390625e+00) (54, -1.03647720813751220703e+00) (55, -1.03078031539916992188e+00) (56, -2.25977078080177307129e-01) (57, 2.74168944358825683594e+00) (58, 2.06514406204223632812e+00) (59, -6.14637911319732666016e-01) (60, -6.17248594760894775391e-01) (61, -1.35468840599060058594e+00) (62, -4.81467425823211669922e-01) (63, -3.88221353292465209961e-01) (64, -2.07764220237731933594e+00) (65, 2.54989624023437500000e+00) (66, -3.09465956687927246094e+00) (67, 1.49164211750030517578e+00) (68, -2.58665895462036132812e+00) (69, 3.82622885704040527344e+00) (70, -2.33462512493133544922e-01) (71, 3.40885043144226074219e+00) (72, -1.23664426803588867188e+00) (73, 8.89124989509582519531e-01) (74, 1.03759057819843292236e-01) (75, 3.93104624748229980469e+00) (76, -6.29948735237121582031e-01) (77, -2.37889245152473449707e-01) (78, 1.36781275272369384766e+00) (79, -2.11705163121223449707e-01) (80, 2.29024553298950195312e+00) (81, 1.02969384193420410156e+00) (82, -2.40393543243408203125e+00) (83, -3.43349248170852661133e-01) (84, -9.74955856800079345703e-01) (85, -1.45106661319732666016e+00) (86, -2.86297917366027832031e-01) (87, -3.61519962549209594727e-01) (88, -2.02710175514221191406e+00) (89, 6.63420557975769042969e-01) (90, -2.18601718544960021973e-01) (91, -3.13320577144622802734e-01) (92, 4.37167072296142578125e+00) (93, -1.38264343142509460449e-01) (94, -4.18939262628555297852e-01) (95, 2.57123184204101562500e+00) (96, -2.30386599898338317871e-01) (97, 1.04098129272460937500e+00) (98, 4.80223941802978515625e+00) (99, 4.38366532325744628906e-01) (100, -5.20061910152435302734e-01) (101, 2.08860254287719726562e+00) (102, -9.46877539157867431641e-01) (103, 3.02632522583007812500e+00) (104, 2.14882230758666992188e+00) (105, 1.18017148971557617188e+00) (106, -8.75668108463287353516e-01) (107, 1.69120812416076660156e+00) (108, -9.56806540489196777344e-01) (109, 2.82774424552917480469e+00) (110, 3.44850420951843261719e+00) (111, 2.88228750228881835938e+00) (112, 3.29924416542053222656e+00) (113, 2.79370284080505371094e+00) (114, 2.08419728279113769531e+00) (115, -1.04224193096160888672e+00) (116, -8.76681506633758544922e-01) (117, 3.25945401191711425781e+00) (118, 2.92696762084960937500e+00) (119, 1.76152658462524414062e+00) (120, 5.28528499603271484375e+00) (121, 6.63422203063964843750e+00) (122, 2.84435343742370605469e+00) (123, -1.02880167961120605469e+00) (124, 2.89060735702514648438e+00) (125, 9.30451154708862304688e-01) (126, 3.53485417366027832031e+00) (127, 2.42910122871398925781e+00) (128, -9.94561791419982910156e-01) (129, 3.33119368553161621094e+00) (130, 2.78412055969238281250e+00) 
