FANN_FLO_2.1
num_layers=3
learning_rate=0.700000
connection_rate=1.000000
network_type=0
learning_momentum=0.000000
training_algorithm=2
train_error_function=1
train_stop_function=0
cascade_output_change_fraction=0.010000
quickprop_decay=-0.000100
quickprop_mu=1.750000
rprop_increase_factor=1.200000
rprop_decrease_factor=0.500000
rprop_delta_min=0.000000
rprop_delta_max=50.000000
rprop_delta_zero=0.100000
cascade_output_stagnation_epochs=12
cascade_candidate_change_fraction=0.010000
cascade_candidate_stagnation_epochs=12
cascade_max_out_epochs=150
cascade_max_cand_epochs=150
cascade_num_candidate_groups=2
bit_fail_limit=3.49999994039535522461e-01
cascade_candidate_limit=1.00000000000000000000e+03
cascade_weight_multiplier=4.00000005960464477539e-01
cascade_activation_functions_count=10
cascade_activation_functions=3 5 7 8 10 11 14 15 16 17 
cascade_activation_steepnesses_count=4
cascade_activation_steepnesses=2.50000000000000000000e-01 5.00000000000000000000e-01 7.50000000000000000000e-01 1.00000000000000000000e+00 
layer_sizes=105 26 2 
scale_included=0
neurons (num_inputs, activation_function, activation_steepness)=(0, 0, 0.00000000000000000000e+00) (0, 0, 0.00000000000000000000e+00) (0, 0, 0.00000000000000000000e+00) (0, 0, 0.00000000000000000000e+00) (0, 0, 0.00000000000000000000e+00) (0, 0, 0.00000000000000000000e+00) (0, 0, 0.00000000000000000000e+00) (0, 0, 0.00000000000000000000e+00) (0, 0, 0.00000000000000000000e+00) (0, 0, 0.00000000000000000000e+00) (0, 0, 0.00000000000000000000e+00) (0, 0, 0.00000000000000000000e+00) (0, 0, 0.00000000000000000000e+00) (0, 0, 0.00000000000000000000e+00) (0, 0, 0.00000000000000000000e+00) (0, 0, 0.00000000000000000000e+00) (0, 0, 0.00000000000000000000e+00) (0, 0, 0.00000000000000000000e+00) (0, 0, 0.00000000000000000000e+00) (0, 0, 0.00000000000000000000e+00) (0, 0, 0.00000000000000000000e+00) (0, 0, 0.00000000000000000000e+00) (0, 0, 0.00000000000000000000e+00) (0, 0, 0.00000000000000000000e+00) (0, 0, 0.00000000000000000000e+00) (0, 0, 0.00000000000000000000e+00) (0, 0, 0.00000000000000000000e+00) (0, 0, 0.00000000000000000000e+00) (0, 0, 0.00000000000000000000e+00) (0, 0, 0.00000000000000000000e+00) (0, 0, 0.00000000000000000000e+00) (0, 0, 0.00000000000000000000e+00) (0, 0, 0.00000000000000000000e+00) (0, 0, 0.00000000000000000000e+00) (0, 0, 0.00000000000000000000e+00) (0, 0, 0.00000000000000000000e+00) (0, 0, 0.00000000000000000000e+00) (0, 0, 0.00000000000000000000e+00) (0, 0, 0.00000000000000000000e+00) (0, 0, 0.00000000000000000000e+00) (0, 0, 0.00000000000000000000e+00) (0, 0, 0.00000000000000000000e+00) (0, 0, 0.00000000000000000000e+00) (0, 0, 0.00000000000000000000e+00) (0, 0, 0.00000000000000000000e+00) (0, 0, 0.00000000000000000000e+00) (0, 0, 0.00000000000000000000e+00) (0, 0, 0.00000000000000000000e+00) (0, 0, 0.00000000000000000000e+00) (0, 0, 0.00000000000000000000e+00) (0, 0, 0.00000000000000000000e+00) (0, 0, 0.00000000000000000000e+00) (0, 0, 0.00000000000000000000e+00) (0, 0, 0.00000000000000000000e+00) (0, 0, 0.00000000000000000000e+00) (0, 0, 0.00000000000000000000e+00) (0, 0, 0.00000000000000000000e+00) (0, 0, 0.00000000000000000000e+00) (0, 0, 0.00000000000000000000e+00) (0, 0, 0.00000000000000000000e+00) (0, 0, 0.00000000000000000000e+00) (0, 0, 0.00000000000000000000e+00) (0, 0, 0.00000000000000000000e+00) (0, 0, 0.00000000000000000000e+00) (0, 0, 0.00000000000000000000e+00) (0, 0, 0.00000000000000000000e+00) (0, 0, 0.00000000000000000000e+00) (0, 0, 0.00000000000000000000e+00) (0, 0, 0.00000000000000000000e+00) (0, 0, 0.00000000000000000000e+00) (0, 0, 0.00000000000000000000e+00) (0, 0, 0.00000000000000000000e+00) (0, 0, 0.00000000000000000000e+00) (0, 0, 0.00000000000000000000e+00) (0, 0, 0.00000000000000000000e+00) (0, 0, 0.00000000000000000000e+00) (0, 0, 0.00000000000000000000e+00) (0, 0, 0.00000000000000000000e+00) (0, 0, 0.00000000000000000000e+00) (0, 0, 0.00000000000000000000e+00) (0, 0, 0.00000000000000000000e+00) (0, 0, 0.00000000000000000000e+00) (0, 0, 0.00000000000000000000e+00) (0, 0, 0.00000000000000000000e+00) (0, 0, 0.00000000000000000000e+00) (0, 0, 0.00000000000000000000e+00) (0, 0, 0.00000000000000000000e+00) (0, 0, 0.00000000000000000000e+00) (0, 0, 0.00000000000000000000e+00) (0, 0, 0.00000000000000000000e+00) (0, 0, 0.00000000000000000000e+00) (0, 0, 0.00000000000000000000e+00) (0, 0, 0.00000000000000000000e+00) (0, 0, 0.00000000000000000000e+00) (0, 0, 0.00000000000000000000e+00) (0, 0, 0.00000000000000000000e+00) (0, 0, 0.00000000000000000000e+00) (0, 0, 0.00000000000000000000e+00) (0, 0, 0.00000000000000000000e+00) (0, 0, 0.00000000000000000000e+00) (0, 0, 0.00000000000000000000e+00) (0, 0, 0.00000000000000000000e+00) (0, 0, 0.00000000000000000000e+00) (0, 0, 0.00000000000000000000e+00) (0, 0, 0.00000000000000000000e+00) (105, 5, 5.00000000000000000000e-01) (105, 5, 5.00000000000000000000e-01) (105, 5, 5.00000000000000000000e-01) (105, 5, 5.00000000000000000000e-01) (105, 5, 5.00000000000000000000e-01) (105, 5, 5.00000000000000000000e-01) (105, 5, 5.00000000000000000000e-01) (105, 5, 5.00000000000000000000e-01) (105, 5, 5.00000000000000000000e-01) (105, 5, 5.00000000000000000000e-01) (105, 5, 5.00000000000000000000e-01) (105, 5, 5.00000000000000000000e-01) (105, 5, 5.00000000000000000000e-01) (105, 5, 5.00000000000000000000e-01) (105, 5, 5.00000000000000000000e-01) (105, 5, 5.00000000000000000000e-01) (105, 5, 5.00000000000000000000e-01) (105, 5, 5.00000000000000000000e-01) (105, 5, 5.00000000000000000000e-01) (105, 5, 5.00000000000000000000e-01) (105, 5, 5.00000000000000000000e-01) (105, 5, 5.00000000000000000000e-01) (105, 5, 5.00000000000000000000e-01) (105, 5, 5.00000000000000000000e-01) (105, 5, 5.00000000000000000000e-01) (0, 5, 0.00000000000000000000e+00) (26, 5, 5.00000000000000000000e-01) (0, 5, 0.00000000000000000000e+00) 
connections (connected_to_neuron, weight)=(0, -4.53540573120117187500e+01) (1, -1.49985949707031250000e+03) (2, -1.64189672470092773438e+00) (3, 1.26630382537841796875e+01) (4, -7.57051849365234375000e+00) (5, -9.48731750488281250000e+02) (6, 1.29947900772094726562e+00) (7, 8.15744750976562500000e+02) (8, -1.73326225280761718750e+01) (9, 1.14172697067260742188e+00) (10, -5.04520463943481445312e+00) (11, -6.81084213256835937500e+01) (12, 3.47868108749389648438e+00) (13, -1.34505249023437500000e+03) (14, 2.92823364257812500000e+02) (15, 4.35629844665527343750e+00) (16, 3.66652336120605468750e+01) (17, 1.99475440979003906250e+01) (18, 5.99607181549072265625e+00) (19, 9.25719642639160156250e+00) (20, 5.01237304687500000000e+02) (21, 1.49111645507812500000e+03) (22, 5.49536628723144531250e+01) (23, 7.46785430908203125000e+01) (24, 8.90213928222656250000e+01) (25, 1.13792785644531250000e+02) (26, 2.01865158081054687500e+01) (27, 2.12226394653320312500e+02) (28, 4.72082427978515625000e+02) (29, 5.92858215332031250000e+02) (30, 3.71959381103515625000e+02) (31, 4.67836669921875000000e+02) (32, 1.42848706054687500000e+03) (33, 1.49498376464843750000e+03) (34, -6.48163700103759765625e+00) (35, 1.28770141601562500000e+03) (36, 1.11951240539550781250e+02) (37, 1.49449780273437500000e+03) (38, -1.65524730682373046875e+01) (39, -1.20843114852905273438e+01) (40, 4.19985992431640625000e+02) (41, -1.27946472167968750000e+03) (42, 4.88647365570068359375e+00) (43, 8.38072681427001953125e+00) (44, 1.78082237243652343750e+01) (45, 5.99092941284179687500e+01) (46, 1.53606964111328125000e+02) (47, 4.15936012268066406250e+01) (48, 1.50000000000000000000e+03) (49, 6.30722717285156250000e+02) (50, 4.13324127197265625000e+02) (51, 1.48256787109375000000e+03) (52, 1.50000000000000000000e+03) (53, 1.49995153808593750000e+03) (54, 1.50000000000000000000e+03) (55, 3.16402721405029296875e+01) (56, 2.73402929306030273438e+00) (57, 1.86739788055419921875e+01) (58, 2.93456249237060546875e+01) (59, -2.22163558959960937500e+02) (60, -2.19452238082885742188e+00) (61, 1.95386428833007812500e+01) (62, 1.52439746856689453125e+01) (63, 2.21163821220397949219e+00) (64, -2.43512687683105468750e+01) (65, 4.03143548965454101562e+00) (66, -3.67656005859375000000e+02) (67, 6.45102005004882812500e+01) (68, 2.39942693710327148438e+00) (69, -4.93164215087890625000e+02) (70, 3.61090183258056640625e+00) (71, 1.26225543022155761719e+00) (72, -2.20101571083068847656e+00) (73, 1.15274787902832031250e+02) (74, 7.22063684463500976562e+00) (75, -1.64145526885986328125e+01) (76, -2.35744361877441406250e+01) (77, 1.31301414966583251953e+00) (78, -1.63393646240234375000e+02) (79, -1.49674523925781250000e+03) (80, -1.50000000000000000000e+03) (81, -1.50000000000000000000e+03) (82, -1.58349838256835937500e+02) (83, -3.62239789962768554688e+00) (84, -1.50000000000000000000e+03) (85, -3.71976654052734375000e+02) (86, 2.49240303039550781250e+00) (87, 3.88850545883178710938e+00) (88, -1.48745300292968750000e+03) (89, -7.02890548706054687500e+01) (90, -1.50000000000000000000e+03) (91, -1.50000000000000000000e+03) (92, 5.94310092926025390625e+00) (93, 1.61997997760772705078e+00) (94, 3.14827275276184082031e+00) (95, -9.05794334411621093750e+00) (96, 1.69504577636718750000e+02) (97, 1.11596822738647460938e+00) (98, -5.96743774414062500000e+00) (99, -1.66202430725097656250e+01) (100, 1.33985102176666259766e+00) (101, 3.45624089241027832031e+00) (102, -1.50000000000000000000e+03) (103, 1.50000000000000000000e+03) (104, -6.85095787048339843750e+00) (0, 3.91377220153808593750e+01) (1, 1.16805130004882812500e+02) (2, 5.91904699802398681641e-01) (3, 4.63624382019042968750e+00) (4, 2.26895356178283691406e+00) (5, 1.93509872436523437500e+02) (6, 8.24240863323211669922e-01) (7, -1.28655441284179687500e+02) (8, 2.69159355163574218750e+01) (9, 8.57385575771331787109e-01) (10, 3.42914128303527832031e+00) (11, 5.79342412948608398438e+00) (12, -3.11946272850036621094e-01) (13, 6.18303283691406250000e+02) (14, -8.63456497192382812500e+01) (15, -4.49484199285507202148e-01) (16, -3.41047272086143493652e-02) (17, 1.04882054030895233154e-01) (18, 3.35407090187072753906e+00) (19, 4.72651928663253784180e-01) (20, -7.88374481201171875000e+01) (21, -5.42445373535156250000e+02) (22, -5.12776279449462890625e+00) (23, -7.18926315307617187500e+01) (24, -4.79807243347167968750e+01) (25, -1.68608154296875000000e+02) (26, 1.64392709732055664062e+00) (27, -1.31018707275390625000e+02) (28, -3.12230285644531250000e+02) (29, -1.78959808349609375000e+01) (30, -1.55993118286132812500e+01) (31, -8.82508087158203125000e+01) (32, -9.96360092163085937500e+01) (33, -1.43160302734375000000e+03) (34, 1.07645825195312500000e+03) (35, -3.71560363769531250000e+02) (36, -1.01076679229736328125e+01) (37, -1.89589675903320312500e+02) (38, 2.97176361083984375000e+00) (39, 8.94111061096191406250e+00) (40, 2.28410649299621582031e+00) (41, 4.42854125976562500000e+02) (42, -3.91177177429199218750e+00) (43, -1.78914352416992187500e+02) (44, -6.12940430641174316406e-01) (45, -3.34746818542480468750e+01) (46, -3.81454238891601562500e+01) (47, -2.77609901428222656250e+01) (48, -7.28735412597656250000e+02) (49, -8.11836624145507812500e+00) (50, -3.71720520019531250000e+02) (51, -8.34364395141601562500e+01) (52, -2.63837951660156250000e+02) (53, -2.55067001342773437500e+02) (54, -3.59230895996093750000e+02) (55, -1.08771026611328125000e+02) (56, 9.52641248703002929688e-01) (57, 6.93976116180419921875e+00) (58, 1.37554492950439453125e+01) (59, 2.67209568023681640625e+01) (60, 1.42054986953735351562e+01) (61, -4.25092353820800781250e+01) (62, -5.04403877258300781250e+01) (63, -3.66389870643615722656e-01) (64, -4.73438491821289062500e+01) (65, -1.98366117477416992188e+00) (66, 3.45643310546875000000e+01) (67, -3.94272923469543457031e+00) (68, -5.41368961334228515625e+00) (69, 9.77276840209960937500e+01) (70, -2.78048658370971679688e+00) (71, -5.72696566581726074219e-01) (72, 7.88665151596069335938e+00) (73, -9.96696376800537109375e+00) (74, -4.20667171478271484375e+00) (75, 6.68241500854492187500e+00) (76, -2.87529239654541015625e+01) (77, 4.65583890676498413086e-01) (78, 5.00525321960449218750e+01) (79, 1.23344812393188476562e+01) (80, 3.88064956665039062500e+01) (81, 3.97049789428710937500e+01) (82, 5.65097761154174804688e+00) (83, 3.61050148010253906250e+01) (84, 1.19845855712890625000e+02) (85, -2.23919124603271484375e+01) (86, -9.94969964027404785156e-01) (87, -1.78427469730377197266e+00) (88, 2.38960494995117187500e+01) (89, 1.05170354843139648438e+01) (90, 9.24605712890625000000e+01) (91, 1.11930961608886718750e+02) (92, -1.26531088352203369141e+00) (93, 1.01788306236267089844e+00) (94, -1.46256554126739501953e+00) (95, 1.47698080539703369141e+00) (96, -1.39823776245117187500e+02) (97, 7.09220349788665771484e-01) (98, 2.31640768051147460938e+00) (99, 2.22587442398071289062e+00) (100, 5.83943307399749755859e-01) (101, 1.30124378204345703125e+00) (102, 1.50000000000000000000e+03) (103, -1.50000000000000000000e+03) (104, 1.87161140441894531250e+01) (0, 1.50000000000000000000e+03) (1, 5.62818670272827148438e+00) (2, 8.58908367156982421875e+00) (3, 1.38544570922851562500e+02) (4, 3.02713418006896972656e+00) (5, -2.04395980834960937500e+01) (6, 2.31927084922790527344e+00) (7, -3.01004669189453125000e+02) (8, 5.84009094238281250000e+02) (9, 2.11991333961486816406e+00) (10, 5.74332296848297119141e-01) (11, 4.81167984008789062500e+00) (12, 1.70856451988220214844e+00) (13, 1.70060775756835937500e+02) (14, -5.69051017761230468750e+01) (15, 2.41095805168151855469e+00) (16, 1.00229644775390625000e+01) (17, 8.59695732593536376953e-01) (18, 7.76350259780883789062e+00) (19, 2.25605058670043945312e+00) (20, -1.36792678833007812500e+01) (21, -2.59927959442138671875e+01) (22, 1.09463202953338623047e+00) (23, 1.58023643493652343750e+00) (24, -9.30292434692382812500e+01) (25, -3.22129745483398437500e+01) (26, 3.04025864601135253906e+00) (27, -1.14169797897338867188e+01) (28, -1.42125988006591796875e+01) (29, -1.92282600402832031250e+01) (30, 5.75956878662109375000e+01) (31, -3.55334281921386718750e+01) (32, 2.79638153076171875000e+02) (33, 8.79608688354492187500e+01) (34, -1.55911550521850585938e+01) (35, 7.51342236995697021484e-01) (36, 1.88390598297119140625e+01) (37, 6.29495954513549804688e+00) (38, 6.63404178619384765625e+00) (39, 3.81859817504882812500e+01) (40, 1.81662078857421875000e+02) (41, -9.98336410522460937500e+01) (42, 2.69962048530578613281e+00) (43, 5.52246093750000000000e+00) (44, 1.75085961818695068359e+00) (45, 2.22411394119262695312e+00) (46, -5.10143554687500000000e+02) (47, 4.43244819641113281250e+01) (48, -8.07188093662261962891e-01) (49, 1.47757828235626220703e+00) (50, 1.90063190460205078125e+00) (51, 8.08895349502563476562e-01) (52, -1.29766174316406250000e+02) (53, 8.63119482994079589844e-01) (54, 1.22264289855957031250e+00) (55, -1.74798828125000000000e+02) (56, 2.58371663093566894531e+00) (57, -8.41221523284912109375e+00) (58, 1.62897872924804687500e+00) (59, 1.93494105339050292969e+00) (60, 2.16007947921752929688e+00) (61, -1.28424912691116333008e-01) (62, 1.01710808277130126953e+00) (63, 1.42786431312561035156e+00) (64, 2.38144254684448242188e+00) (65, 9.96919989585876464844e-01) (66, 8.62519760131835937500e+01) (67, -2.21079208374023437500e+02) (68, 1.25917708873748779297e+00) (69, 6.81264953613281250000e+01) (70, 1.12829244136810302734e+00) (71, 2.18779087066650390625e+00) (72, 4.87060117721557617188e+00) (73, 6.11365173339843750000e+02) (74, 6.97933852672576904297e-01) (75, 5.22624874114990234375e+00) (76, 1.71411376953125000000e+02) (77, 2.19259190559387207031e+00) (78, 5.32676162719726562500e+01) (79, 3.98848462104797363281e+00) (80, 6.19128189086914062500e+01) (81, 1.34152526855468750000e+01) (82, 4.05783748626708984375e+00) (83, 6.63073873519897460938e+00) (84, 2.87820987701416015625e+01) (85, 1.08216743469238281250e+01) (86, 1.62382471561431884766e+00) (87, 1.07603919506072998047e+00) (88, 5.95438117980957031250e+01) (89, 1.02733459472656250000e+01) (90, 4.93007326126098632812e+00) (91, 1.43992660522460937500e+02) (92, 1.25110661983489990234e+00) (93, 2.51765513420104980469e+00) (94, 1.26194536685943603516e+00) (95, 2.80892276763916015625e+00) (96, -2.68892884254455566406e-01) (97, 2.19524455070495605469e+00) (98, 2.59281611442565917969e+00) (99, 2.65282607078552246094e+00) (100, 2.20569491386413574219e+00) (101, 2.49551892280578613281e+00) (102, 1.50000000000000000000e+03) (103, -1.50000000000000000000e+03) (104, 1.32352232933044433594e+00) (0, 1.50000000000000000000e+03) (1, 1.50000000000000000000e+03) (2, 1.50000000000000000000e+03) (3, 1.50000000000000000000e+03) (4, 1.50000000000000000000e+03) (5, 1.50000000000000000000e+03) (6, 1.50000000000000000000e+03) (7, 1.50000000000000000000e+03) (8, 1.50000000000000000000e+03) (9, 1.50000000000000000000e+03) (10, 1.50000000000000000000e+03) (11, 1.50000000000000000000e+03) (12, 1.50000000000000000000e+03) (13, 1.50000000000000000000e+03) (14, 1.50000000000000000000e+03) (15, 1.50000000000000000000e+03) (16, 1.50000000000000000000e+03) (17, 1.50000000000000000000e+03) (18, 1.50000000000000000000e+03) (19, 1.50000000000000000000e+03) (20, 1.50000000000000000000e+03) (21, 1.50000000000000000000e+03) (22, 1.50000000000000000000e+03) (23, 1.50000000000000000000e+03) (24, 1.50000000000000000000e+03) (25, 1.50000000000000000000e+03) (26, 1.50000000000000000000e+03) (27, 1.50000000000000000000e+03) (28, 1.50000000000000000000e+03) (29, 1.50000000000000000000e+03) (30, 1.50000000000000000000e+03) (31, 1.50000000000000000000e+03) (32, 1.50000000000000000000e+03) (33, 1.50000000000000000000e+03) (34, 1.49999755859375000000e+03) (35, 1.50000000000000000000e+03) (36, 1.50000000000000000000e+03) (37, 1.50000000000000000000e+03) (38, 1.50000000000000000000e+03) (39, 1.50000000000000000000e+03) (40, 1.50000000000000000000e+03) (41, 1.50000000000000000000e+03) (42, 1.50000000000000000000e+03) (43, 1.50000000000000000000e+03) (44, 1.50000000000000000000e+03) (45, 1.49987036132812500000e+03) (46, -1.50000000000000000000e+03) (47, 4.67423629760742187500e+01) (48, -1.43879492187500000000e+03) (49, 1.50000000000000000000e+03) (50, 6.86038665771484375000e+01) (51, 1.50000000000000000000e+03) (52, -1.49614831542968750000e+03) (53, 1.50000000000000000000e+03) (54, 1.50000000000000000000e+03) (55, 1.50000000000000000000e+03) (56, 1.50000000000000000000e+03) (57, -1.15646960449218750000e+03) (58, 1.49999755859375000000e+03) (59, 1.50000000000000000000e+03) (60, 1.50000000000000000000e+03) (61, 1.50000000000000000000e+03) (62, 1.92023925781250000000e+01) (63, 1.50000000000000000000e+03) (64, 1.50000000000000000000e+03) (65, 3.56484460830688476562e+00) (66, -1.49966906738281250000e+03) (67, -1.49879992675781250000e+03) (68, 1.50000000000000000000e+03) (69, 1.50000000000000000000e+03) (70, 7.61324691772460937500e+01) (71, 1.50000000000000000000e+03) (72, 1.50000000000000000000e+03) (73, 1.50000000000000000000e+03) (74, 9.33957099914550781250e+00) (75, 1.50000000000000000000e+03) (76, 1.50000000000000000000e+03) (77, 1.50000000000000000000e+03) (78, 1.50000000000000000000e+03) (79, 1.50000000000000000000e+03) (80, 1.50000000000000000000e+03) (81, 1.50000000000000000000e+03) (82, 1.50000000000000000000e+03) (83, 1.50000000000000000000e+03) (84, 1.50000000000000000000e+03) (85, 1.50000000000000000000e+03) (86, 1.50000000000000000000e+03) (87, 1.02911918640136718750e+02) (88, 1.50000000000000000000e+03) (89, 1.50000000000000000000e+03) (90, 1.50000000000000000000e+03) (91, 1.50000000000000000000e+03) (92, 1.50000000000000000000e+03) (93, 1.50000000000000000000e+03) (94, 2.55074340820312500000e+02) (95, 1.50000000000000000000e+03) (96, -1.49375341796875000000e+03) (97, 1.50000000000000000000e+03) (98, 1.50000000000000000000e+03) (99, 1.50000000000000000000e+03) (100, 1.50000000000000000000e+03) (101, 1.50000000000000000000e+03) (102, 1.50000000000000000000e+03) (103, -1.50000000000000000000e+03) (104, -5.50290644168853759766e-01) (0, 1.50000000000000000000e+03) (1, 1.50000000000000000000e+03) (2, 1.50000000000000000000e+03) (3, 1.50000000000000000000e+03) (4, 1.50000000000000000000e+03) (5, 1.50000000000000000000e+03) (6, 1.50000000000000000000e+03) (7, 1.50000000000000000000e+03) (8, 1.50000000000000000000e+03) (9, 1.50000000000000000000e+03) (10, 1.50000000000000000000e+03) (11, 1.50000000000000000000e+03) (12, 1.50000000000000000000e+03) (13, 1.50000000000000000000e+03) (14, 1.50000000000000000000e+03) (15, 1.50000000000000000000e+03) (16, 1.50000000000000000000e+03) (17, 1.50000000000000000000e+03) (18, 1.50000000000000000000e+03) (19, 1.50000000000000000000e+03) (20, 1.50000000000000000000e+03) (21, 1.50000000000000000000e+03) (22, 1.50000000000000000000e+03) (23, 1.50000000000000000000e+03) (24, 1.50000000000000000000e+03) (25, 1.50000000000000000000e+03) (26, 1.50000000000000000000e+03) (27, 1.50000000000000000000e+03) (28, 1.50000000000000000000e+03) (29, 1.50000000000000000000e+03) (30, 1.50000000000000000000e+03) (31, 1.50000000000000000000e+03) (32, 1.50000000000000000000e+03) (33, 1.50000000000000000000e+03) (34, 1.49999755859375000000e+03) (35, 1.50000000000000000000e+03) (36, 1.50000000000000000000e+03) (37, 1.50000000000000000000e+03) (38, 1.50000000000000000000e+03) (39, 1.50000000000000000000e+03) (40, 1.50000000000000000000e+03) (41, 1.50000000000000000000e+03) (42, 1.50000000000000000000e+03) (43, 1.50000000000000000000e+03) (44, 1.50000000000000000000e+03) (45, 1.49987036132812500000e+03) (46, -1.50000000000000000000e+03) (47, 4.65930824279785156250e+01) (48, -1.43879492187500000000e+03) (49, 1.50000000000000000000e+03) (50, 6.66126556396484375000e+01) (51, 1.50000000000000000000e+03) (52, -1.49614831542968750000e+03) (53, 1.50000000000000000000e+03) (54, 1.50000000000000000000e+03) (55, 1.50000000000000000000e+03) (56, 1.50000000000000000000e+03) (57, -1.15646960449218750000e+03) (58, 1.49999755859375000000e+03) (59, 1.50000000000000000000e+03) (60, 1.50000000000000000000e+03) (61, 1.50000000000000000000e+03) (62, 1.93251190185546875000e+01) (63, 1.50000000000000000000e+03) (64, 1.50000000000000000000e+03) (65, 3.64863872528076171875e+00) (66, -1.49966906738281250000e+03) (67, -1.49879992675781250000e+03) (68, 1.50000000000000000000e+03) (69, 1.50000000000000000000e+03) (70, 7.60352172851562500000e+01) (71, 1.50000000000000000000e+03) (72, 1.50000000000000000000e+03) (73, 1.50000000000000000000e+03) (74, 9.39782142639160156250e+00) (75, 1.50000000000000000000e+03) (76, 1.50000000000000000000e+03) (77, 1.50000000000000000000e+03) (78, 1.50000000000000000000e+03) (79, 1.50000000000000000000e+03) (80, 1.50000000000000000000e+03) (81, 1.50000000000000000000e+03) (82, 1.50000000000000000000e+03) (83, 1.50000000000000000000e+03) (84, 1.50000000000000000000e+03) (85, 1.50000000000000000000e+03) (86, 1.50000000000000000000e+03) (87, 1.02882865905761718750e+02) (88, 1.50000000000000000000e+03) (89, 1.50000000000000000000e+03) (90, 1.50000000000000000000e+03) (91, 1.50000000000000000000e+03) (92, 1.50000000000000000000e+03) (93, 1.50000000000000000000e+03) (94, 2.55051589965820312500e+02) (95, 1.50000000000000000000e+03) (96, -1.49375341796875000000e+03) (97, 1.50000000000000000000e+03) (98, 1.50000000000000000000e+03) (99, 1.50000000000000000000e+03) (100, 1.50000000000000000000e+03) (101, 1.50000000000000000000e+03) (102, 1.50000000000000000000e+03) (103, -1.50000000000000000000e+03) (104, -4.83409166336059570312e-01) (0, -1.36974136352539062500e+02) (1, 4.37324905395507812500e+00) (2, -6.25140547752380371094e-01) (3, 5.27164041996002197266e-01) (4, 6.26170694828033447266e-01) (5, -1.47277736663818359375e+00) (6, 4.44671511650085449219e-01) (7, -6.42620849609375000000e+01) (8, -2.90132369995117187500e+01) (9, 5.64787149429321289062e-01) (10, -7.23441764712333679199e-02) (11, 1.85001838207244873047e+00) (12, -5.66423535346984863281e-01) (13, 1.59082000732421875000e+02) (14, -2.35262184143066406250e+01) (15, -9.49447751045227050781e-02) (16, 2.67230367660522460938e+00) (17, 5.70146417617797851562e+00) (18, 2.50616288185119628906e+00) (19, 1.22077989578247070312e+00) (20, 7.42761325836181640625e+00) (21, 1.08789115905761718750e+02) (22, -1.10870742797851562500e+00) (23, 2.33359622955322265625e+00) (24, 1.21694778442382812500e+02) (25, 4.80969314575195312500e+01) (26, 4.26860237121582031250e+00) (27, 4.28461837768554687500e+01) (28, 6.30553855895996093750e+01) (29, 1.59136978149414062500e+02) (30, 3.58963928222656250000e+01) (31, 4.10030889511108398438e+00) (32, 1.45475891113281250000e+02) (33, -8.72385330200195312500e+01) (34, 8.07751846313476562500e+01) (35, 7.53573083877563476562e+00) (36, 1.40795669555664062500e+02) (37, 2.30765748023986816406e+00) (38, 1.19242274761199951172e+00) (39, 2.52136397361755371094e+00) (40, 4.40646514892578125000e+01) (41, 1.61332351684570312500e+02) (42, 7.33608603477478027344e-01) (43, 2.96924448013305664062e+00) (44, 1.99176263809204101562e+00) (45, -1.53062393188476562500e+02) (46, -2.74530303955078125000e+02) (47, -3.03163681030273437500e+01) (48, -4.30174530029296875000e+02) (49, -2.72849321365356445312e+00) (50, -2.89721441268920898438e+00) (51, -1.94414484500885009766e+00) (52, -7.99218139648437500000e+01) (53, -3.56718414306640625000e+02) (54, -1.50322186946868896484e+00) (55, -2.04261108398437500000e+02) (56, 7.09432512521743774414e-02) (57, -4.79928112030029296875e+00) (58, 1.43902730941772460938e+01) (59, 1.85878028869628906250e+01) (60, 5.56794595718383789062e+00) (61, -6.30107231140136718750e+01) (62, -1.24713182449340820312e+01) (63, -1.51306998729705810547e+00) (64, 5.48361444473266601562e+00) (65, -2.15040636062622070312e+00) (66, -2.19850738525390625000e+02) (67, -4.22394866943359375000e+01) (68, -2.88138484954833984375e+01) (69, -9.94223632812500000000e+01) (70, -3.03165149688720703125e+01) (71, -4.72095400094985961914e-01) (72, 9.30997772216796875000e+01) (73, -5.05538787841796875000e+02) (74, -2.54519629478454589844e+00) (75, 5.89868812561035156250e+01) (76, -2.77866764068603515625e+01) (77, -7.35688328742980957031e-01) (78, -5.00612545013427734375e+00) (79, 5.28204536437988281250e+01) (80, -4.94518890380859375000e+01) (81, -1.02754125595092773438e+01) (82, -1.41356649398803710938e+01) (83, -1.91070520877838134766e+00) (84, -1.32165622711181640625e+01) (85, -9.08846740722656250000e+01) (86, -8.62534821033477783203e-01) (87, -2.06035113334655761719e+00) (88, -2.38006805419921875000e+02) (89, 1.73282127380371093750e+01) (90, -3.87081193923950195312e+00) (91, 2.35712451934814453125e+01) (92, -5.63645095825195312500e+01) (93, 1.11728286743164062500e+00) (94, -1.78042483329772949219e+00) (95, -1.66507565975189208984e+00) (96, -3.47197967529296875000e+02) (97, 1.08315050601959228516e+00) (98, -1.08640742301940917969e+00) (99, 6.61799240112304687500e+00) (100, -4.03220579028129577637e-02) (101, -2.86245799064636230469e+00) (102, 7.70886535644531250000e+02) (103, -5.32106689453125000000e+02) (104, 7.03531112670898437500e+01) (0, 8.64884521484375000000e+02) (1, -5.06317443847656250000e+02) (2, 4.36570472717285156250e+01) (3, 3.84053492546081542969e+00) (4, 7.78988659381866455078e-01) (5, 6.28028991699218750000e+02) (6, 2.81324577331542968750e+00) (7, 3.65829193115234375000e+02) (8, 4.84905731201171875000e+02) (9, 5.15865027904510498047e-01) (10, 5.05730533599853515625e+00) (11, 5.18532896041870117188e+00) (12, 6.05651569366455078125e+00) (13, -5.82665954589843750000e+02) (14, 6.09876518249511718750e+01) (15, 2.22171998023986816406e+00) (16, -7.93973088264465332031e-01) (17, -1.91080546379089355469e+00) (18, -4.97362184524536132812e+00) (19, 1.47688627243041992188e+00) (20, -5.03701627254486083984e-01) (21, -9.48282546997070312500e+01) (22, 1.83950176239013671875e+01) (23, 6.69822514057159423828e-01) (24, -8.97270507812500000000e+01) (25, -2.62064075469970703125e+01) (26, -1.29605216979980468750e+01) (27, -1.47787933349609375000e+01) (28, -5.68082504272460937500e+01) (29, -3.95211822509765625000e+02) (30, -6.85136718750000000000e+01) (31, -6.22460403442382812500e+01) (32, -3.56694335937500000000e+01) (33, -2.03542881011962890625e+01) (34, -2.58082389831542968750e+01) (35, -1.05418224334716796875e+01) (36, -4.07386138916015625000e+02) (37, -1.15132188796997070312e+01) (38, -4.30436754226684570312e+00) (39, -5.75338897705078125000e+01) (40, -5.27506530761718750000e+02) (41, -2.41012191772460937500e+02) (42, -2.60037798434495925903e-02) (43, -5.94731283187866210938e+00) (44, -2.96843147277832031250e+00) (45, 3.26625609397888183594e+00) (46, 3.16558990478515625000e+02) (47, 4.86890945434570312500e+01) (48, 9.14037017822265625000e+01) (49, 2.63150119781494140625e+00) (50, 1.88412439823150634766e+00) (51, 2.22626280784606933594e+00) (52, 1.12677124023437500000e+02) (53, 8.94139175415039062500e+01) (54, 1.60867595672607421875e+01) (55, 1.45933874511718750000e+03) (56, 4.20756220817565917969e-01) (57, 3.21411857604980468750e+01) (58, -2.90875167846679687500e+01) (59, -6.32046165466308593750e+01) (60, -2.45117470622062683105e-01) (61, 6.62062835693359375000e+01) (62, 2.02584052085876464844e+00) (63, 1.24863159656524658203e+00) (64, 6.01711273193359375000e+00) (65, 1.80652463436126708984e+00) (66, 2.75596649169921875000e+02) (67, 1.18724349975585937500e+02) (68, 7.30677127838134765625e+00) (69, 2.80004024505615234375e+01) (70, 1.01945091247558593750e+02) (71, 2.57258534431457519531e+00) (72, -4.85123634338378906250e-01) (73, 6.13239196777343750000e+02) (74, 2.50018711090087890625e+01) (75, -1.16174230575561523438e+01) (76, 8.81023788452148437500e+01) (77, 2.43515682220458984375e+00) (78, -1.57978830337524414062e+01) (79, 2.11980628967285156250e+00) (80, -2.94187374114990234375e+01) (81, -5.89733276367187500000e+01) (82, 6.10883283615112304688e+00) (83, -8.20472488403320312500e+01) (84, 2.37900695800781250000e+01) (85, 4.11256980895996093750e+00) (86, 2.34972047805786132812e+00) (87, 4.42292747497558593750e+01) (88, 8.26132125854492187500e+01) (89, -1.33211603164672851562e+01) (90, -1.16431616210937500000e+03) (91, -2.25585815429687500000e+02) (92, 1.84165763854980468750e+01) (93, -4.34957146644592285156e-01) (94, 2.04181909561157226562e+00) (95, -3.20846486091613769531e+00) (96, 5.76393089294433593750e+01) (97, 1.72754347324371337891e-01) (98, -2.27085781097412109375e+00) (99, -8.16231310367584228516e-01) (100, 1.29213491454720497131e-02) (101, -1.06324875354766845703e+00) (102, -1.74712188720703125000e+02) (103, 2.64027770996093750000e+02) (104, -1.16179156303405761719e+00) (0, -1.49997473144531250000e+03) (1, -8.59808593750000000000e+02) (2, 1.79629421234130859375e+00) (3, -4.35565233230590820312e+00) (4, -1.40479898452758789062e+00) (5, -3.27765441894531250000e+02) (6, -8.48749923706054687500e+00) (7, 4.75791961669921875000e+02) (8, -1.11134997558593750000e+03) (9, -7.54268646240234375000e-01) (10, -2.53365588188171386719e+00) (11, -8.07761001586914062500e+01) (12, 1.86469829082489013672e+00) (13, -1.49187988281250000000e+03) (14, 1.10337562561035156250e+01) (15, 8.36728990077972412109e-01) (16, -2.26632289886474609375e+01) (17, 1.78682219982147216797e+00) (18, 2.24501457214355468750e+01) (19, 1.26355667114257812500e+01) (20, 2.71124206542968750000e+02) (21, 1.48261206054687500000e+03) (22, 1.07712020874023437500e+01) (23, 9.40850708007812500000e+02) (24, 3.70071624755859375000e+02) (25, -2.78399597167968750000e+02) (26, -1.19326831054687500000e+03) (27, -1.44692153930664062500e+02) (28, 1.30505273437500000000e+03) (29, -1.00308905029296875000e+03) (30, -1.32345178222656250000e+03) (31, 1.24164135742187500000e+03) (32, 1.32181958007812500000e+03) (33, 1.49835253906250000000e+03) (34, 4.92469406127929687500e+00) (35, 1.49945239257812500000e+03) (36, -2.36334018707275390625e+01) (37, 1.06800976562500000000e+03) (38, -2.38095259666442871094e+00) (39, -4.87362121582031250000e+02) (40, -5.44084587097167968750e+01) (41, -1.38331005859375000000e+03) (42, 1.86635994911193847656e+00) (43, -3.33069300651550292969e+00) (44, 1.58965167999267578125e+01) (45, 1.17508903503417968750e+02) (46, 1.50000000000000000000e+03) (47, 5.81046981811523437500e+01) (48, 1.50000000000000000000e+03) (49, 3.14607944488525390625e+01) (50, 1.46897293090820312500e+02) (51, 1.80136138916015625000e+02) (52, 1.19070141601562500000e+03) (53, 1.49999938964843750000e+03) (54, 8.76746520996093750000e+01) (55, 1.39386242675781250000e+03) (56, -2.56307544708251953125e+01) (57, 1.49999951171875000000e+03) (58, -1.49179968261718750000e+03) (59, -3.04772369384765625000e+02) (60, 3.94771099090576171875e+00) (61, 1.47990332031250000000e+03) (62, 3.47382092475891113281e+00) (63, 3.91950869560241699219e+00) (64, -1.39783926010131835938e+01) (65, 4.05086565017700195312e+00) (66, 1.57513336181640625000e+02) (67, 6.09659484863281250000e+02) (68, -4.06488838195800781250e+01) (69, -8.25068359375000000000e+01) (70, 4.46360092163085937500e+01) (71, 1.30281186103820800781e+00) (72, -1.69627141952514648438e+00) (73, 2.13922962546348571777e-01) (74, 7.91769552230834960938e+00) (75, -6.43829298019409179688e+00) (76, 1.17821113586425781250e+02) (77, 1.16425943374633789062e+00) (78, -1.50000000000000000000e+03) (79, -2.29649696350097656250e+01) (80, -2.10436737060546875000e+02) (81, -3.86140533447265625000e+02) (82, -8.37382411956787109375e+00) (83, -1.15556327819824218750e+02) (84, -1.04331701660156250000e+03) (85, -7.40155639648437500000e+01) (86, 2.56718635559082031250e+00) (87, 3.57450890541076660156e+00) (88, -2.02225143432617187500e+02) (89, -2.72546501159667968750e+01) (90, -1.10748925781250000000e+03) (91, -1.34188391113281250000e+03) (92, 2.22980356216430664062e+00) (93, -5.40671162307262420654e-02) (94, 3.45184612274169921875e+00) (95, 2.25182700157165527344e+00) (96, 2.70123352050781250000e+02) (97, 8.29027056694030761719e-01) (98, -2.53054708242416381836e-01) (99, 7.53074735403060913086e-02) (100, 1.28232562541961669922e+00) (101, 5.63290894031524658203e-01) (102, -1.50000000000000000000e+03) (103, 1.50000000000000000000e+03) (104, -1.25056724548339843750e+01) (0, 2.79173827171325683594e+00) (1, -1.24254569411277770996e-01) (2, 4.70361448824405670166e-02) (3, -1.13110294342041015625e+01) (4, 9.65594410896301269531e-01) (5, -1.35381019115447998047e+00) (6, -2.44186565279960632324e-01) (7, -1.50362205505371093750e+01) (8, -2.61142611503601074219e+00) (9, -2.89136618375778198242e-01) (10, -7.69703388214111328125e-01) (11, 2.34208273887634277344e+00) (12, -3.23013395071029663086e-01) (13, 8.20843601226806640625e+00) (14, -1.31429243087768554688e+00) (15, -3.29110056161880493164e-01) (16, 2.23690009117126464844e+00) (17, 9.65602636337280273438e-01) (18, 1.42763638496398925781e+00) (19, 1.22436130046844482422e+00) (20, 3.32097440958023071289e-01) (21, 1.56839776039123535156e+00) (22, 6.78538382053375244141e-01) (23, 1.87202036380767822266e+00) (24, 1.65116155147552490234e+00) (25, 2.90496140718460083008e-01) (26, 1.96584010124206542969e+00) (27, 2.76180458068847656250e+00) (28, -1.03553390502929687500e+00) (29, 2.95739817619323730469e+00) (30, 1.14344053268432617188e+01) (31, 7.26677894592285156250e-01) (32, 3.44666767120361328125e+00) (33, 2.61698579788208007812e+00) (34, -7.58044672012329101562e+00) (35, 1.04151380062103271484e+00) (36, 2.34888648986816406250e+00) (37, 3.55228161811828613281e+00) (38, 3.83847665786743164062e+00) (39, 7.68664693832397460938e+00) (40, 3.13489856719970703125e+01) (41, 1.30540609359741210938e-01) (42, -7.54515826702117919922e-01) (43, 3.04003787040710449219e+00) (44, 5.50149083137512207031e-01) (45, 1.66782867908477783203e+00) (46, -6.32857370376586914062e+00) (47, -8.23691463470458984375e+00) (48, -8.56613445281982421875e+00) (49, -1.77566123008728027344e+00) (50, -2.67929881811141967773e-02) (51, -5.34888982772827148438e+00) (52, -6.99517774581909179688e+00) (53, -8.39822387695312500000e+00) (54, -8.25839936733245849609e-01) (55, 3.42259597778320312500e+00) (56, -6.41214430332183837891e-01) (57, 5.53703927993774414062e+00) (58, -6.41143846511840820312e+00) (59, -7.15986585617065429688e+00) (60, 7.28427052497863769531e-01) (61, 9.79956805706024169922e-01) (62, -3.85624790191650390625e+00) (63, -3.65105807781219482422e-01) (64, 3.05344247817993164062e+00) (65, -1.47340095043182373047e+00) (66, -1.55021667480468750000e+00) (67, -3.66702818870544433594e+00) (68, -5.28152322769165039062e+00) (69, 5.59778785705566406250e+00) (70, -1.72652900218963623047e+00) (71, 8.12664926052093505859e-01) (72, 1.53424859046936035156e+00) (73, 2.12429094314575195312e+00) (74, -1.55295050144195556641e+00) (75, -2.30192184448242187500e+00) (76, -6.91161215305328369141e-01) (77, 2.74603813886642456055e-01) (78, 4.51213693618774414062e+00) (79, 1.23817300796508789062e+00) (80, -1.08623142242431640625e+01) (81, -3.49366903305053710938e+00) (82, -1.22177433967590332031e+00) (83, -2.89175105094909667969e+00) (84, -2.38140320777893066406e+00) (85, 2.63883280754089355469e+00) (86, 1.19422054290771484375e+00) (87, -1.10065612792968750000e+01) (88, -2.11196804046630859375e+00) (89, -2.45619750022888183594e+00) (90, -5.50700998306274414062e+00) (91, -2.26996541023254394531e-01) (92, 1.43250629305839538574e-01) (93, 4.46510505676269531250e+00) (94, -7.50778794288635253906e-01) (95, -1.68065881729125976562e+00) (96, -2.17554235458374023438e+00) (97, 5.36223649978637695312e+00) (98, -5.56298589706420898438e+00) (99, 2.77038425207138061523e-01) (100, -4.61676865816116333008e-01) (101, -7.09947168827056884766e-01) (102, 6.43705654144287109375e+00) (103, -3.64613676071166992188e+00) (104, 3.18190169334411621094e+00) (0, -2.76507293701171875000e+02) (1, -3.37209930419921875000e+01) (2, 4.73386421203613281250e+01) (3, 3.62996826171875000000e+01) (4, -3.81743526458740234375e+00) (5, 4.63658256530761718750e+01) (6, -1.30747756958007812500e+01) (7, 5.41577415466308593750e+01) (8, -1.26693859863281250000e+03) (9, -1.83129107952117919922e+00) (10, 3.82404632568359375000e+02) (11, -5.85655868053436279297e-01) (12, 9.45533676147460937500e+01) (13, -1.09551254272460937500e+02) (14, 1.73909637451171875000e+02) (15, 4.75732460021972656250e+01) (16, 4.23955297470092773438e+00) (17, 1.16978721618652343750e+01) (18, 3.49645733833312988281e+00) (19, 2.72360062599182128906e+00) (20, 1.70173828125000000000e+02) (21, 2.72692260742187500000e+01) (22, 7.90438604354858398438e+00) (23, 3.83300113677978515625e+00) (24, 5.54832763671875000000e+02) (25, 1.83695358276367187500e+02) (26, 6.84910058975219726562e+00) (27, 3.78018341064453125000e+01) (28, 9.94696502685546875000e+01) (29, 7.16913604736328125000e+01) (30, 2.78672313690185546875e+01) (31, 4.86362571716308593750e+01) (32, 1.30527160644531250000e+02) (33, 8.91686477661132812500e+01) (34, 4.28081588745117187500e+01) (35, 1.23475027084350585938e+01) (36, -1.85018280029296875000e+02) (37, 4.77388525009155273438e+00) (38, -3.73325014114379882812e+00) (39, -5.70678949356079101562e+00) (40, -7.07983551025390625000e+01) (41, 1.12350791931152343750e+02) (42, -4.77603644132614135742e-01) (43, -5.81676959991455078125e-02) (44, 1.71130919456481933594e+00) (45, 1.85442674160003662109e+00) (46, 6.76743469238281250000e+02) (47, -2.48126907348632812500e+01) (48, 1.12439002990722656250e+02) (49, 1.39687645435333251953e+00) (50, 8.33841502666473388672e-01) (51, 1.75627529621124267578e+00) (52, 3.42462234497070312500e+01) (53, 3.95653495788574218750e+01) (54, 4.28952741622924804688e+00) (55, -8.31193695068359375000e+01) (56, -3.17088603973388671875e-01) (57, 1.08930252075195312500e+02) (58, 1.18126600980758666992e-01) (59, -7.56115674972534179688e+00) (60, -1.43542838096618652344e+00) (61, 3.16640996932983398438e+00) (62, 1.10603487491607666016e+00) (63, 3.63582551479339599609e-01) (64, -7.39794111251831054688e+00) (65, 1.07550108432769775391e+00) (66, -1.61305450439453125000e+02) (67, 3.35903549194335937500e+01) (68, -3.50665509700775146484e-01) (69, -2.04904922485351562500e+02) (70, 1.19807374477386474609e+00) (71, -1.44810661673545837402e-01) (72, -2.62359881401062011719e+00) (73, -8.07671752929687500000e+02) (74, 2.07786870002746582031e+00) (75, -4.75749969482421875000e+01) (76, -4.12733192443847656250e+01) (77, 2.91578378528356552124e-02) (78, -2.55342285156250000000e+02) (79, -2.49512893676757812500e+02) (80, -1.55911285400390625000e+02) (81, -3.76678962707519531250e+01) (82, -8.89255142211914062500e+00) (83, -1.13897766113281250000e+02) (84, -4.07350387573242187500e+01) (85, 1.91122913360595703125e+01) (86, 6.35446488857269287109e-01) (87, 1.82132542133331298828e+00) (88, -1.38994567871093750000e+02) (89, -5.12346696853637695312e+00) (90, -1.13540172576904296875e+01) (91, -1.71663681030273437500e+02) (92, 3.93164396286010742188e-01) (93, -3.62460285425186157227e-01) (94, 8.48535060882568359375e-01) (95, -1.96367383003234863281e+00) (96, 1.99911727905273437500e+01) (97, -2.86645740270614624023e-01) (98, -1.83216059207916259766e+00) (99, -1.86771976947784423828e+00) (100, -1.02823667228221893311e-01) (101, -6.90934598445892333984e-01) (102, -2.22655868530273437500e+02) (103, 4.33277587890625000000e+02) (104, -5.46837210655212402344e-01) (0, -1.33904159069061279297e+00) (1, -1.36554181575775146484e-01) (2, 1.15452694892883300781e+00) (3, 2.51989769935607910156e+00) (4, -2.21841603517532348633e-01) (5, -5.93883395195007324219e-01) (6, -3.27029898762702941895e-02) (7, 3.47233504056930541992e-01) (8, -3.73096418380737304688e+00) (9, 1.44891059398651123047e+00) (10, 1.52127039432525634766e+00) (11, 6.91388428211212158203e-01) (12, -2.41149291396141052246e-01) (13, -4.35736060142517089844e-01) (14, -2.36800417304039001465e-01) (15, -1.89054596424102783203e+00) (16, 1.29882022738456726074e-01) (17, 1.90755200386047363281e+00) (18, -1.74175631999969482422e+00) (19, 1.61213350296020507812e+00) (20, 4.75941412150859832764e-02) (21, -3.22004532814025878906e+00) (22, 8.20588111877441406250e-01) (23, -3.07281047105789184570e-01) (24, -8.04096877574920654297e-01) (25, 1.36343038082122802734e+00) (26, 1.10783827304840087891e+00) (27, -1.19557952880859375000e+00) (28, -4.45065408945083618164e-01) (29, -2.57111966609954833984e-01) (30, 2.43682354688644409180e-01) (31, -1.91748201847076416016e-01) (32, -7.93479979038238525391e-01) (33, 9.77036178112030029297e-01) (34, 8.82011473178863525391e-01) (35, 2.25256115198135375977e-01) (36, 7.98323988914489746094e-01) (37, 1.28316581249237060547e+00) (38, 1.69274568557739257812e+00) (39, 5.46442806720733642578e-01) (40, 7.51256048679351806641e-01) (41, 4.11682188510894775391e-01) (42, 2.28019356727600097656e-02) (43, 2.11688756942749023438e+00) (44, -2.80060529708862304688e-01) (45, 7.50174343585968017578e-01) (46, 1.61577105522155761719e+00) (47, -5.23923218250274658203e-01) (48, -3.79281461238861083984e-01) (49, -4.01899635791778564453e-01) (50, -3.76605391502380371094e-01) (51, -1.64793640375137329102e-01) (52, 4.81212913990020751953e-01) (53, -5.59488832950592041016e-01) (54, 1.11981391906738281250e+00) (55, -2.57552170753479003906e+00) (56, 8.54752838611602783203e-01) (57, -3.47460865974426269531e-01) (58, 1.22710061073303222656e+00) (59, -1.55215606093406677246e-01) (60, -4.16408032178878784180e-01) (61, -1.74225366115570068359e+00) (62, 6.97843432426452636719e-01) (63, -4.45023506879806518555e-01) (64, 9.40900146961212158203e-01) (65, -8.09426546096801757812e-01) (66, 3.54292504489421844482e-02) (67, -8.87083232402801513672e-01) (68, 1.43156886100769042969e-01) (69, 4.98023569583892822266e-01) (70, -4.11782681941986083984e-01) (71, -5.94738066196441650391e-01) (72, 2.89006710052490234375e-01) (73, 3.00310671329498291016e-01) (74, 5.65734922885894775391e-01) (75, 3.44650208950042724609e-01) (76, -4.86320465803146362305e-01) (77, -8.81579518318176269531e-01) (78, -4.84793484210968017578e-02) (79, -4.94378238916397094727e-01) (80, 3.34809750318527221680e-01) (81, -7.07329869270324707031e-01) (82, 3.85190844535827636719e-01) (83, -4.68398571014404296875e-01) (84, 4.67613279819488525391e-01) (85, 2.35959410667419433594e-01) (86, -8.07886898517608642578e-01) (87, -9.26903009414672851562e-01) (88, -9.26626443862915039062e-01) (89, -4.89701658487319946289e-01) (90, -1.75358250737190246582e-01) (91, -3.15655432641506195068e-02) (92, -8.57643306255340576172e-01) (93, -1.57909095287322998047e-01) (94, -4.61329877376556396484e-01) (95, 4.83639776706695556641e-01) (96, -1.46215367317199707031e+00) (97, -3.80446404218673706055e-01) (98, 2.61524200439453125000e-01) (99, 5.02877354621887207031e-01) (100, -3.05940777063369750977e-01) (101, 1.15687775611877441406e+00) (102, 4.09187896728515625000e+02) (103, 4.11612518310546875000e+02) (104, 2.75461554527282714844e+00) (0, 1.50000000000000000000e+03) (1, 1.50000000000000000000e+03) (2, 1.50000000000000000000e+03) (3, 1.50000000000000000000e+03) (4, 1.50000000000000000000e+03) (5, 1.50000000000000000000e+03) (6, 1.50000000000000000000e+03) (7, 1.50000000000000000000e+03) (8, 1.50000000000000000000e+03) (9, 1.50000000000000000000e+03) (10, 1.50000000000000000000e+03) (11, 1.50000000000000000000e+03) (12, 1.50000000000000000000e+03) (13, 1.50000000000000000000e+03) (14, 1.50000000000000000000e+03) (15, 1.50000000000000000000e+03) (16, 1.50000000000000000000e+03) (17, 1.50000000000000000000e+03) (18, 1.50000000000000000000e+03) (19, 1.50000000000000000000e+03) (20, 1.50000000000000000000e+03) (21, 1.50000000000000000000e+03) (22, 1.50000000000000000000e+03) (23, 1.50000000000000000000e+03) (24, 1.50000000000000000000e+03) (25, 1.50000000000000000000e+03) (26, 1.50000000000000000000e+03) (27, 1.50000000000000000000e+03) (28, 1.50000000000000000000e+03) (29, 1.50000000000000000000e+03) (30, 1.50000000000000000000e+03) (31, 1.50000000000000000000e+03) (32, 1.50000000000000000000e+03) (33, 1.50000000000000000000e+03) (34, 1.49999755859375000000e+03) (35, 1.50000000000000000000e+03) (36, 1.50000000000000000000e+03) (37, 1.50000000000000000000e+03) (38, 1.50000000000000000000e+03) (39, 1.50000000000000000000e+03) (40, 1.50000000000000000000e+03) (41, 1.50000000000000000000e+03) (42, 1.50000000000000000000e+03) (43, 1.50000000000000000000e+03) (44, 1.50000000000000000000e+03) (45, 2.76486253738403320312e+00) (46, -1.50000000000000000000e+03) (47, 4.62223472595214843750e+01) (48, -1.43879492187500000000e+03) (49, 6.81834697723388671875e+00) (50, 6.86077117919921875000e+01) (51, 3.17726206779479980469e+00) (52, -1.45650739669799804688e+01) (53, 1.50000000000000000000e+03) (54, 1.21836560058593750000e+03) (55, 1.50000000000000000000e+03) (56, 1.50000000000000000000e+03) (57, -1.15646960449218750000e+03) (58, 2.28251123428344726562e+00) (59, 1.50000000000000000000e+03) (60, 1.78742237091064453125e+01) (61, 1.50000000000000000000e+03) (62, 1.16642255783081054688e+01) (63, 2.70654368400573730469e+00) (64, 1.50000000000000000000e+03) (65, 2.05517530441284179688e+00) (66, -1.49966906738281250000e+03) (67, -1.49879992675781250000e+03) (68, 1.50000000000000000000e+03) (69, 1.50000000000000000000e+03) (70, 7.47297439575195312500e+01) (71, 1.50000000000000000000e+03) (72, 1.50000000000000000000e+03) (73, 1.50000000000000000000e+03) (74, 8.39807319641113281250e+00) (75, 1.50000000000000000000e+03) (76, 1.50000000000000000000e+03) (77, 1.50000000000000000000e+03) (78, 1.50000000000000000000e+03) (79, 1.50000000000000000000e+03) (80, 1.50000000000000000000e+03) (81, 1.50000000000000000000e+03) (82, 1.50000000000000000000e+03) (83, 1.50000000000000000000e+03) (84, 1.50000000000000000000e+03) (85, 1.50000000000000000000e+03) (86, 1.25766773223876953125e+01) (87, 1.01462974548339843750e+02) (88, 1.50000000000000000000e+03) (89, 1.50000000000000000000e+03) (90, 1.50000000000000000000e+03) (91, 1.50000000000000000000e+03) (92, 1.50000000000000000000e+03) (93, 1.50000000000000000000e+03) (94, 2.55334353446960449219e+00) (95, 1.50000000000000000000e+03) (96, -5.45649409294128417969e-01) (97, 1.50000000000000000000e+03) (98, 1.50000000000000000000e+03) (99, 1.50000000000000000000e+03) (100, 1.50000000000000000000e+03) (101, 1.50000000000000000000e+03) (102, 1.50000000000000000000e+03) (103, -1.50000000000000000000e+03) (104, 6.47204875946044921875e-01) (0, 3.27566345214843750000e+02) (1, 9.69346557617187500000e+02) (2, 7.68925070762634277344e-01) (3, 4.11618560552597045898e-01) (4, -4.05529081821441650391e-01) (5, 1.48350122070312500000e+03) (6, 3.43752682209014892578e-01) (7, 1.36685058593750000000e+02) (8, 1.34319061279296875000e+02) (9, -1.17606198787689208984e+00) (10, 1.55460965633392333984e+00) (11, -4.20095825195312500000e+00) (12, 1.99855685234069824219e+00) (13, 4.40099258422851562500e+01) (14, 2.08755157470703125000e+02) (15, 7.99130976200103759766e-01) (16, -1.08918890357017517090e-01) (17, 2.84980697631835937500e+01) (18, -1.73226141929626464844e+00) (19, 2.28085160255432128906e-01) (20, 1.14160301208496093750e+02) (21, -1.80598022460937500000e+02) (22, 5.31911373138427734375e+00) (23, 4.84555397033691406250e+01) (24, -2.01427780151367187500e+02) (25, 2.50088867187500000000e+02) (26, 2.72810943603515625000e+02) (27, 8.40051757812500000000e+02) (28, -1.29010848999023437500e+02) (29, 4.52858795166015625000e+02) (30, 1.43542517089843750000e+03) (31, -7.24297607421875000000e+02) (32, -2.57816375732421875000e+02) (33, -1.49439965820312500000e+03) (34, 2.79173564910888671875e+01) (35, -1.48911462402343750000e+03) (36, -3.89680600166320800781e+00) (37, -8.98514648437500000000e+02) (38, 5.96702613830566406250e+01) (39, -9.28639471530914306641e-01) (40, -4.14393653869628906250e+01) (41, 1.50000000000000000000e+03) (42, 3.38780939579010009766e-01) (43, -1.37261600494384765625e+01) (44, -1.28504114151000976562e+01) (45, 2.66295576095581054688e+00) (46, 2.18964797973632812500e+02) (47, 4.42052879333496093750e+01) (48, -8.11398925781250000000e+02) (49, 4.75541353225708007812e+00) (50, -2.39136791229248046875e+00) (51, -1.68303890228271484375e+01) (52, -1.62052154541015625000e+02) (53, 1.44520874023437500000e+01) (54, -9.09060287475585937500e+01) (55, -6.30642089843750000000e+02) (56, 1.14542889595031738281e+00) (57, 7.97577438354492187500e+01) (58, -2.14834403991699218750e+01) (59, -6.78507690429687500000e+01) (60, -2.56814050674438476562e+00) (61, 5.38900260925292968750e+01) (62, 2.65395545959472656250e+01) (63, 1.19051909446716308594e+00) (64, 8.83850402832031250000e+01) (65, 2.01268529891967773438e+00) (66, 2.81273254394531250000e+02) (67, 1.62049530029296875000e+02) (68, 1.05655503273010253906e+00) (69, 2.26650428771972656250e+01) (70, 3.92920837402343750000e+01) (71, 1.10072124004364013672e+00) (72, -7.45967483520507812500e+01) (73, 5.31020141601562500000e+02) (74, 6.48724269866943359375e+00) (75, -8.17854080200195312500e+01) (76, -1.01873779296875000000e+01) (77, -5.82527518272399902344e-01) (78, -6.59857864379882812500e+01) (79, -5.44880142211914062500e+01) (80, -4.56609573364257812500e+01) (81, -1.47635364532470703125e+01) (82, -3.02620172500610351562e+00) (83, -3.39962997436523437500e+01) (84, -9.92682861328125000000e+02) (85, -2.11203689575195312500e+01) (86, 1.41620850563049316406e+00) (87, 2.85590815544128417969e+00) (88, -4.18530975341796875000e+02) (89, -4.41016823053359985352e-01) (90, -8.53223266601562500000e+01) (91, -3.58789947509765625000e+02) (92, 2.44344253540039062500e+01) (93, 3.12571048736572265625e+00) (94, 1.33755910396575927734e+00) (95, 1.84259624481201171875e+01) (96, 4.22033004760742187500e+01) (97, 6.05583608150482177734e-01) (98, 1.70266962051391601562e+00) (99, -2.32254788279533386230e-02) (100, 5.48905469477176666260e-02) (101, -5.35551190376281738281e-01) (102, -3.11337646484375000000e+02) (103, 5.08155303955078125000e+02) (104, -6.09666824340820312500e-01) (0, 1.50000000000000000000e+03) (1, 1.50000000000000000000e+03) (2, 1.50000000000000000000e+03) (3, 1.50000000000000000000e+03) (4, 1.50000000000000000000e+03) (5, 1.50000000000000000000e+03) (6, 1.50000000000000000000e+03) (7, 1.50000000000000000000e+03) (8, 1.50000000000000000000e+03) (9, 1.50000000000000000000e+03) (10, 1.50000000000000000000e+03) (11, 1.50000000000000000000e+03) (12, 1.50000000000000000000e+03) (13, 1.50000000000000000000e+03) (14, 1.50000000000000000000e+03) (15, 1.50000000000000000000e+03) (16, 1.50000000000000000000e+03) (17, 1.50000000000000000000e+03) (18, 1.50000000000000000000e+03) (19, 1.50000000000000000000e+03) (20, 1.50000000000000000000e+03) (21, 1.50000000000000000000e+03) (22, 1.50000000000000000000e+03) (23, 1.50000000000000000000e+03) (24, 1.50000000000000000000e+03) (25, 1.50000000000000000000e+03) (26, 1.50000000000000000000e+03) (27, 1.50000000000000000000e+03) (28, 1.50000000000000000000e+03) (29, 1.50000000000000000000e+03) (30, 1.50000000000000000000e+03) (31, 1.50000000000000000000e+03) (32, 1.50000000000000000000e+03) (33, 1.50000000000000000000e+03) (34, 1.49999755859375000000e+03) (35, 1.50000000000000000000e+03) (36, 1.50000000000000000000e+03) (37, 1.50000000000000000000e+03) (38, 1.50000000000000000000e+03) (39, 1.50000000000000000000e+03) (40, 1.50000000000000000000e+03) (41, 1.50000000000000000000e+03) (42, 1.50000000000000000000e+03) (43, 1.50000000000000000000e+03) (44, 1.50000000000000000000e+03) (45, 1.49987036132812500000e+03) (46, -1.50000000000000000000e+03) (47, 4.66425514221191406250e+01) (48, -1.43879492187500000000e+03) (49, 1.50000000000000000000e+03) (50, 6.78114471435546875000e+01) (51, 1.50000000000000000000e+03) (52, -1.49614831542968750000e+03) (53, 1.50000000000000000000e+03) (54, 1.50000000000000000000e+03) (55, 1.50000000000000000000e+03) (56, 1.50000000000000000000e+03) (57, -1.15646960449218750000e+03) (58, 1.49999755859375000000e+03) (59, 1.50000000000000000000e+03) (60, 1.50000000000000000000e+03) (61, 1.50000000000000000000e+03) (62, 1.92086906433105468750e+01) (63, 1.50000000000000000000e+03) (64, 1.50000000000000000000e+03) (65, 3.62316203117370605469e+00) (66, -1.49966906738281250000e+03) (67, -1.49879992675781250000e+03) (68, 1.50000000000000000000e+03) (69, 1.50000000000000000000e+03) (70, 7.60257186889648437500e+01) (71, 1.50000000000000000000e+03) (72, 1.50000000000000000000e+03) (73, 1.50000000000000000000e+03) (74, 9.30784416198730468750e+00) (75, 1.50000000000000000000e+03) (76, 1.50000000000000000000e+03) (77, 1.50000000000000000000e+03) (78, 1.50000000000000000000e+03) (79, 1.50000000000000000000e+03) (80, 1.50000000000000000000e+03) (81, 1.50000000000000000000e+03) (82, 1.50000000000000000000e+03) (83, 1.50000000000000000000e+03) (84, 1.50000000000000000000e+03) (85, 1.50000000000000000000e+03) (86, 1.50000000000000000000e+03) (87, 1.03024818420410156250e+02) (88, 1.50000000000000000000e+03) (89, 1.50000000000000000000e+03) (90, 1.50000000000000000000e+03) (91, 1.50000000000000000000e+03) (92, 1.50000000000000000000e+03) (93, 1.50000000000000000000e+03) (94, 2.55179870605468750000e+02) (95, 1.50000000000000000000e+03) (96, -1.49375341796875000000e+03) (97, 1.50000000000000000000e+03) (98, 1.50000000000000000000e+03) (99, 1.50000000000000000000e+03) (100, 1.50000000000000000000e+03) (101, 1.50000000000000000000e+03) (102, 1.50000000000000000000e+03) (103, -1.50000000000000000000e+03) (104, -4.37968075275421142578e-01) (0, 5.37919082641601562500e+01) (1, -2.66709375381469726562e+00) (2, 4.71631546020507812500e+01) (3, 1.31238174438476562500e+00) (4, -1.43817678093910217285e-01) (5, 3.77439111471176147461e-01) (6, 1.37873934581875801086e-02) (7, 2.31655502319335937500e+02) (8, -4.37356903076171875000e+02) (9, 9.57335174083709716797e-01) (10, 1.76475000381469726562e+00) (11, -1.11866116523742675781e+00) (12, 9.73877549171447753906e-01) (13, -7.80389451980590820312e+00) (14, 1.04086425781250000000e+02) (15, 6.90495610237121582031e-01) (16, -4.23743438720703125000e+01) (17, 1.37453250885009765625e+01) (18, 4.77294492721557617188e+00) (19, 1.40825891494750976562e+00) (20, 2.49446792602539062500e+01) (21, 6.46406250000000000000e+01) (22, 6.48378992080688476562e+00) (23, 6.96132993698120117188e+00) (24, 1.14009056091308593750e+02) (25, 1.35524856567382812500e+02) (26, 1.25571908950805664062e+01) (27, 7.03526840209960937500e+01) (28, 7.45499801635742187500e+01) (29, -8.12458038330078125000e+00) (30, -1.84752197265625000000e+01) (31, 6.97817764282226562500e+01) (32, -2.58513221740722656250e+01) (33, 3.01664867401123046875e+01) (34, 1.03088531494140625000e+02) (35, 2.57327423095703125000e+01) (36, -3.60588722229003906250e+01) (37, 1.97893631458282470703e+00) (38, -3.96626520156860351562e+00) (39, -8.92978515625000000000e+01) (40, -2.24790832519531250000e+02) (41, 1.59810546875000000000e+02) (42, -7.94622153043746948242e-02) (43, -7.80543908476829528809e-02) (44, 5.26898097991943359375e+00) (45, 4.12586688995361328125e+00) (46, 3.72027862548828125000e+02) (47, -4.26529731750488281250e+01) (48, 1.92318557739257812500e+02) (49, 2.45432186126708984375e+00) (50, 1.09872305393218994141e+00) (51, 3.17474007606506347656e+00) (52, 2.30655044555664062500e+02) (53, 8.81092300415039062500e+01) (54, 2.05271577835083007812e+00) (55, -2.92053012847900390625e+01) (56, -5.79715073108673095703e-01) (57, 8.59622955322265625000e+00) (58, -1.30539026260375976562e+01) (59, 1.77388343811035156250e+01) (60, -2.50804662704467773438e-01) (61, -2.45951423645019531250e+01) (62, 9.00765132904052734375e+00) (63, 2.32420015335083007812e+00) (64, -1.48100776672363281250e+01) (65, 2.75315165519714355469e+00) (66, -4.44405853271484375000e+02) (67, 1.22326526641845703125e+01) (68, -6.09155578613281250000e+01) (69, -2.10353469848632812500e+02) (70, 4.32703161239624023438e+00) (71, 4.91601377725601196289e-01) (72, -6.79733943939208984375e+00) (73, -4.32608825683593750000e+02) (74, 2.58712792396545410156e+00) (75, -1.72601547241210937500e+01) (76, 8.75210189819335937500e+01) (77, 4.46637332439422607422e-01) (78, -2.52411003112792968750e+01) (79, -2.34045076370239257812e+00) (80, 3.76467132568359375000e+01) (81, 1.95003414154052734375e+01) (82, -2.21300773620605468750e+01) (83, -6.36191558837890625000e+01) (84, -3.15360469818115234375e+01) (85, -1.67000222206115722656e+00) (86, 7.40400910377502441406e-01) (87, 1.79487895965576171875e+00) (88, -1.57951202392578125000e+02) (89, -2.18611431121826171875e+00) (90, -1.17465476989746093750e+01) (91, -9.01905517578125000000e+01) (92, 3.13886470794677734375e+01) (93, 1.43337182998657226562e+01) (94, 1.63631176948547363281e+00) (95, -2.83806438446044921875e+01) (96, 4.45065765380859375000e+01) (97, -3.78190732002258300781e+00) (98, -1.05321331024169921875e+01) (99, -1.31124153733253479004e-01) (100, 3.49377334117889404297e-01) (101, -5.22614479064941406250e+00) (102, -2.27609893798828125000e+02) (103, 3.29726043701171875000e+02) (104, -2.14909696578979492188e+00) (0, -1.37477807998657226562e+01) (1, -8.23055458068847656250e+00) (2, 4.16174936294555664062e+00) (3, -5.85524129867553710938e+00) (4, -9.76090812683105468750e+00) (5, -2.27365055084228515625e+01) (6, 5.52990496158599853516e-01) (7, -9.98479175567626953125e+00) (8, -5.16089200973510742188e+00) (9, -3.45823478698730468750e+00) (10, -5.35798072814941406250e+00) (11, -4.12309837341308593750e+00) (12, -2.06146469116210937500e+01) (13, -1.35868721008300781250e+01) (14, -4.72527933120727539062e+00) (15, -2.30674171447753906250e+00) (16, -2.84138536453247070312e+00) (17, -1.25652277469635009766e+00) (18, -2.18052768707275390625e+00) (19, 6.51350116729736328125e+00) (20, 3.62562904357910156250e+01) (21, 2.83449459075927734375e+00) (22, -6.06480121612548828125e+00) (23, 2.70821571350097656250e-01) (24, 2.20276951789855957031e+00) (25, -8.63181114196777343750e+00) (26, -1.24869477748870849609e+00) (27, 5.93800306320190429688e+00) (28, -2.14160099029541015625e+01) (29, -1.33639764785766601562e+01) (30, -3.41724419593811035156e+00) (31, 1.48886144161224365234e+00) (32, -4.68144893646240234375e+00) (33, -6.50032222270965576172e-01) (34, -1.56726303100585937500e+01) (35, -1.90563249588012695312e+00) (36, -8.98241519927978515625e+00) (37, -1.25387058258056640625e+01) (38, 1.79084467887878417969e+00) (39, -1.62751617431640625000e+01) (40, -7.97754240036010742188e+00) (41, -5.98349428176879882812e+00) (42, -9.18982386589050292969e-01) (43, -2.13568572998046875000e+01) (44, -5.69642734527587890625e+00) (45, -1.28549022674560546875e+01) (46, 6.45260393619537353516e-01) (47, 5.15169873833656311035e-02) (48, 2.76459145545959472656e+00) (49, -1.34707295894622802734e+00) (50, 2.25752639770507812500e+00) (51, 5.86839318275451660156e-01) (52, 5.15536308288574218750e-01) (53, -9.81475830078125000000e+00) (54, 4.74617063999176025391e-01) (55, -5.37021684646606445312e+00) (56, 3.45559924840927124023e-01) (57, 6.24158763885498046875e+00) (58, -8.88617992401123046875e-01) (59, -2.96562337875366210938e+00) (60, -2.64885950088500976562e+00) (61, 4.95754432678222656250e+00) (62, -4.62908059358596801758e-01) (63, 4.30239766836166381836e-01) (64, 2.90364027023315429688e-01) (65, -6.47431612014770507812e-01) (66, -1.27694380283355712891e+00) (67, 7.32125997543334960938e+00) (68, 3.91578817367553710938e+00) (69, -6.36220574378967285156e-01) (70, -1.89634308218955993652e-01) (71, -6.51142418384552001953e-01) (72, -1.18883693218231201172e+00) (73, 1.70648918151855468750e+01) (74, 4.12318849563598632812e+00) (75, -3.37444275617599487305e-01) (76, 1.18377418518066406250e+01) (77, 9.89204287528991699219e-01) (78, -3.76972913742065429688e-01) (79, 6.29729926586151123047e-02) (80, -4.77558046579360961914e-01) (81, 1.09865963459014892578e-02) (82, -3.38247530162334442139e-02) (83, -1.25017666816711425781e+00) (84, -8.99020195007324218750e-01) (85, 1.85238003730773925781e+00) (86, 1.69175314903259277344e+00) (87, 2.21201324462890625000e+00) (88, 4.32123363018035888672e-01) (89, -8.44395399093627929688e-01) (90, 1.56678631901741027832e-02) (91, -9.92134451866149902344e-01) (92, 2.18719244003295898438e+00) (93, 5.16432404518127441406e-01) (94, 1.95624005794525146484e+00) (95, 6.59006416797637939453e-01) (96, 3.73585662841796875000e+01) (97, 7.71578371524810791016e-01) (98, 6.25226676464080810547e-01) (99, 6.04089081287384033203e-01) (100, 8.22535514831542968750e-01) (101, 5.41284501552581787109e-01) (102, -1.50000000000000000000e+03) (103, 1.50000000000000000000e+03) (104, -3.08765983581542968750e+00) (0, 1.50000000000000000000e+03) (1, 1.50000000000000000000e+03) (2, 1.50000000000000000000e+03) (3, 1.50000000000000000000e+03) (4, 1.50000000000000000000e+03) (5, 1.50000000000000000000e+03) (6, 1.50000000000000000000e+03) (7, 1.50000000000000000000e+03) (8, 1.50000000000000000000e+03) (9, 1.50000000000000000000e+03) (10, 1.50000000000000000000e+03) (11, 1.50000000000000000000e+03) (12, 1.50000000000000000000e+03) (13, 1.50000000000000000000e+03) (14, 1.50000000000000000000e+03) (15, 1.50000000000000000000e+03) (16, 1.50000000000000000000e+03) (17, 1.50000000000000000000e+03) (18, 1.50000000000000000000e+03) (19, 1.50000000000000000000e+03) (20, 1.50000000000000000000e+03) (21, 1.50000000000000000000e+03) (22, 1.50000000000000000000e+03) (23, 1.50000000000000000000e+03) (24, 1.50000000000000000000e+03) (25, 1.50000000000000000000e+03) (26, 1.50000000000000000000e+03) (27, 1.50000000000000000000e+03) (28, 1.50000000000000000000e+03) (29, 1.50000000000000000000e+03) (30, 1.50000000000000000000e+03) (31, 1.50000000000000000000e+03) (32, 1.50000000000000000000e+03) (33, 1.50000000000000000000e+03) (34, 1.49999755859375000000e+03) (35, 1.50000000000000000000e+03) (36, 1.50000000000000000000e+03) (37, 1.50000000000000000000e+03) (38, 1.50000000000000000000e+03) (39, 1.50000000000000000000e+03) (40, 1.50000000000000000000e+03) (41, 1.50000000000000000000e+03) (42, 1.50000000000000000000e+03) (43, 1.50000000000000000000e+03) (44, 1.50000000000000000000e+03) (45, 1.49987036132812500000e+03) (46, -1.50000000000000000000e+03) (47, 4.66677665710449218750e+01) (48, -1.43879492187500000000e+03) (49, 1.09094958496093750000e+03) (50, 7.10998229980468750000e+01) (51, 1.50000000000000000000e+03) (52, -1.49614831542968750000e+03) (53, 1.50000000000000000000e+03) (54, 1.50000000000000000000e+03) (55, 1.50000000000000000000e+03) (56, 1.50000000000000000000e+03) (57, -1.15646960449218750000e+03) (58, 1.49999755859375000000e+03) (59, 1.50000000000000000000e+03) (60, 1.50000000000000000000e+03) (61, 1.50000000000000000000e+03) (62, 1.91716270446777343750e+01) (63, 1.50000000000000000000e+03) (64, 1.50000000000000000000e+03) (65, 3.67361068725585937500e+00) (66, -1.49966906738281250000e+03) (67, -1.49879992675781250000e+03) (68, 1.50000000000000000000e+03) (69, 1.50000000000000000000e+03) (70, 7.59934310913085937500e+01) (71, 1.50000000000000000000e+03) (72, 1.50000000000000000000e+03) (73, 1.50000000000000000000e+03) (74, 9.33450317382812500000e+00) (75, 1.50000000000000000000e+03) (76, 1.50000000000000000000e+03) (77, 1.50000000000000000000e+03) (78, 1.50000000000000000000e+03) (79, 1.50000000000000000000e+03) (80, 1.50000000000000000000e+03) (81, 1.50000000000000000000e+03) (82, 1.50000000000000000000e+03) (83, 1.50000000000000000000e+03) (84, 1.50000000000000000000e+03) (85, 1.50000000000000000000e+03) (86, 1.50000000000000000000e+03) (87, 1.03017738342285156250e+02) (88, 1.50000000000000000000e+03) (89, 1.50000000000000000000e+03) (90, 1.50000000000000000000e+03) (91, 1.50000000000000000000e+03) (92, 1.50000000000000000000e+03) (93, 1.50000000000000000000e+03) (94, 2.54964202880859375000e+02) (95, 1.50000000000000000000e+03) (96, -1.49375341796875000000e+03) (97, 1.50000000000000000000e+03) (98, 1.50000000000000000000e+03) (99, 1.50000000000000000000e+03) (100, 1.50000000000000000000e+03) (101, 1.50000000000000000000e+03) (102, 1.50000000000000000000e+03) (103, -1.50000000000000000000e+03) (104, -4.27425503730773925781e-01) (0, 4.83628779649734497070e-01) (1, 2.57098364830017089844e+00) (2, -1.93740379810333251953e+00) (3, -8.97213876247406005859e-01) (4, -1.19781064987182617188e+00) (5, -1.08748233318328857422e+00) (6, -2.41397285461425781250e+00) (7, -1.59934437274932861328e+00) (8, 5.23282051086425781250e-01) (9, 1.13032972812652587891e+00) (10, 2.37209051847457885742e-01) (11, -1.95143997669219970703e+00) (12, 1.73234415054321289062e+00) (13, 1.54398269951343536377e-02) (14, 3.58087234199047088623e-02) (15, 6.08286678791046142578e-01) (16, 3.33366632461547851562e-01) (17, -2.62763261795043945312e+00) (18, -1.15892291069030761719e+00) (19, 7.91213512420654296875e-01) (20, 1.69037806987762451172e+00) (21, -4.01516258716583251953e-01) (22, -5.70710182189941406250e-01) (23, -7.54082128405570983887e-02) (24, 1.93028867244720458984e-01) (25, -1.88665962219238281250e+00) (26, -1.40282320976257324219e+00) (27, -5.27534425258636474609e-01) (28, 9.97963786125183105469e-01) (29, 6.66872119903564453125e+00) (30, 1.74255394935607910156e+00) (31, -2.85901904106140136719e+00) (32, -6.44890427589416503906e-01) (33, -9.15053749084472656250e+00) (34, -3.68497967720031738281e+00) (35, 7.16369152069091796875e-01) (36, -1.62156260013580322266e+00) (37, 1.21702086925506591797e+00) (38, -1.74019479751586914062e+00) (39, 1.02406346797943115234e+00) (40, -4.07170623540878295898e-01) (41, 1.42508924007415771484e+00) (42, -2.21778774261474609375e+00) (43, -8.13432097434997558594e-01) (44, 4.75611305236816406250e+00) (45, 4.58559632301330566406e-01) (46, -6.99721932411193847656e-01) (47, -1.59954810142517089844e+00) (48, 2.93393111228942871094e+00) (49, 1.41950166225433349609e+00) (50, 1.30806291103363037109e+00) (51, 2.61914402246475219727e-01) (52, 1.37386724352836608887e-01) (53, 1.46700680255889892578e+00) (54, -2.85399258136749267578e-01) (55, 3.71091103553771972656e+00) (56, 1.23592101037502288818e-01) (57, 1.07414674758911132812e+00) (58, 3.02081084251403808594e+00) (59, -2.36131930351257324219e+00) (60, -6.82077288627624511719e-01) (61, -1.49260234832763671875e+00) (62, 8.23993086814880371094e-01) (63, 1.22198009490966796875e+00) (64, -1.43007004261016845703e+00) (65, 7.80630707740783691406e-01) (66, 7.02925741672515869141e-01) (67, -8.78233969211578369141e-01) (68, 8.73028182983398437500e+00) (69, -3.13383173942565917969e+00) (70, -7.72384405136108398438e-01) (71, 5.90406715869903564453e-01) (72, 4.21623528003692626953e-01) (73, 7.07623434066772460938e+00) (74, -2.20015215873718261719e+00) (75, -5.56380128860473632812e+00) (76, 2.63661980628967285156e+00) (77, -3.77627946436405181885e-02) (78, -3.81460905075073242188e+00) (79, 1.09098494052886962891e+00) (80, -2.55964636802673339844e+00) (81, 8.28610599040985107422e-01) (82, 2.53710746765136718750e+00) (83, -3.33538222312927246094e+00) (84, -3.00819253921508789062e+00) (85, 5.68302822113037109375e+00) (86, 3.06048691272735595703e-01) (87, -9.58893835544586181641e-01) (88, 1.51749598979949951172e+00) (89, 9.93002533912658691406e-01) (90, 2.34856915473937988281e+00) (91, 7.89463579654693603516e-01) (92, -1.46981728076934814453e+00) (93, -4.21933174133300781250e+00) (94, -8.87808740139007568359e-01) (95, 3.27963501214981079102e-01) (96, -1.47607922554016113281e+00) (97, -4.95556640625000000000e+00) (98, -1.88866615295410156250e+00) (99, 1.54495811462402343750e+00) (100, 3.28229695558547973633e-01) (101, -2.81746053695678710938e+00) (102, 4.03021574020385742188e+00) (103, -1.70302939414978027344e+00) (104, 2.83833050727844238281e+00) (0, 6.54128313064575195312e+00) (1, -1.81974184513092041016e+00) (2, 2.62915921211242675781e+00) (3, 3.74621343612670898438e+00) (4, -2.12626075744628906250e+00) (5, 2.44196319580078125000e+00) (6, -6.07480096817016601562e+00) (7, -1.78741586208343505859e+00) (8, -4.08805513381958007812e+00) (9, -5.02995789051055908203e-01) (10, -8.06992530822753906250e+00) (11, -4.85924386978149414062e+00) (12, -4.81783771514892578125e+00) (13, 3.37005704641342163086e-01) (14, -3.70993447303771972656e+00) (15, 1.44380736351013183594e+00) (16, -3.91505026817321777344e+00) (17, -5.18782019615173339844e-01) (18, 9.32908713817596435547e-01) (19, 4.31141424179077148438e+00) (20, -2.56306004524230957031e+00) (21, -7.97538709640502929688e+00) (22, 3.87352776527404785156e+00) (23, 2.44671821594238281250e+00) (24, -8.29931926727294921875e+00) (25, 2.76537656784057617188e+00) (26, 2.76441383361816406250e+00) (27, -5.49691963195800781250e+00) (28, -2.02687287330627441406e+00) (29, -6.98550939559936523438e+00) (30, -2.09286642074584960938e+00) (31, 2.21587324142456054688e+00) (32, -7.47618007659912109375e+00) (33, 6.76285123825073242188e+00) (34, 4.17594432830810546875e+00) (35, -1.98685204982757568359e+00) (36, -1.91620016098022460938e+00) (37, -2.98640459775924682617e-01) (38, -3.96594405174255371094e+00) (39, -7.81148195266723632812e+00) (40, 3.51837843656539916992e-01) (41, 1.05273640155792236328e+00) (42, -7.39321041107177734375e+00) (43, 1.90826356410980224609e+00) (44, 1.73716354370117187500e+00) (45, -2.53715229034423828125e+00) (46, -5.23770475387573242188e+00) (47, 2.23309069871902465820e-01) (48, 2.61051821708679199219e+00) (49, 2.73332333564758300781e+00) (50, 2.63226660899817943573e-03) (51, 5.39156198501586914062e+00) (52, -5.79266166687011718750e+00) (53, -2.82378029823303222656e+00) (54, 1.67842805385589599609e+00) (55, 3.45619988441467285156e+00) (56, -1.23930132389068603516e+00) (57, -8.54036331176757812500e-01) (58, -3.83959889411926269531e+00) (59, -2.22819834947586059570e-01) (60, 3.21717768907546997070e-01) (61, -1.23874878883361816406e+00) (62, -1.60725235939025878906e+00) (63, -3.88893514871597290039e-01) (64, -8.69946002960205078125e-01) (65, -5.31916618347167968750e-01) (66, 7.01846480369567871094e-01) (67, 6.40368103981018066406e-01) (68, -6.12789213657379150391e-01) (69, 2.01675343513488769531e+00) (70, -9.01634395122528076172e-01) (71, -1.09678244590759277344e+00) (72, 3.83989906311035156250e+00) (73, -8.68634164333343505859e-01) (74, -3.33541274070739746094e+00) (75, -1.59926116466522216797e-01) (76, -1.00256681442260742188e+00) (77, -2.64858901500701904297e-01) (78, 2.09359908103942871094e+00) (79, 2.87249445915222167969e-01) (80, 1.67459368705749511719e+00) (81, 8.03437292575836181641e-01) (82, 1.69595587253570556641e+00) (83, 2.45095968246459960938e+00) (84, 3.19413280487060546875e+00) (85, 2.11840343475341796875e+00) (86, 8.10858309268951416016e-02) (87, -3.63042414188385009766e-01) (88, 1.44319081306457519531e+00) (89, 2.28293704986572265625e+00) (90, 1.84958171844482421875e+00) (91, 2.19187617301940917969e+00) (92, -2.77407020330429077148e-01) (93, 1.00579404830932617188e+00) (94, -5.74355497956275939941e-02) (95, 9.09576773643493652344e-01) (96, -1.40802562236785888672e+00) (97, 6.43707036972045898438e-01) (98, 8.65500509738922119141e-01) (99, 9.44881498813629150391e-01) (100, 8.10019254684448242188e-01) (101, 9.32781219482421875000e-01) (102, 2.31453247070312500000e+01) (103, -3.55527949333190917969e+00) (104, 2.56251072883605957031e+00) (0, -1.50000000000000000000e+03) (1, -1.50000000000000000000e+03) (2, -1.50000000000000000000e+03) (3, -1.50000000000000000000e+03) (4, -1.50000000000000000000e+03) (5, -1.50000000000000000000e+03) (6, -1.50000000000000000000e+03) (7, -1.50000000000000000000e+03) (8, -1.50000000000000000000e+03) (9, -1.50000000000000000000e+03) (10, -1.50000000000000000000e+03) (11, -1.50000000000000000000e+03) (12, -1.50000000000000000000e+03) (13, -1.50000000000000000000e+03) (14, -1.50000000000000000000e+03) (15, -1.50000000000000000000e+03) (16, -1.50000000000000000000e+03) (17, -1.50000000000000000000e+03) (18, -1.50000000000000000000e+03) (19, -1.50000000000000000000e+03) (20, -1.50000000000000000000e+03) (21, -1.50000000000000000000e+03) (22, -1.50000000000000000000e+03) (23, -1.50000000000000000000e+03) (24, -1.50000000000000000000e+03) (25, -1.50000000000000000000e+03) (26, -1.50000000000000000000e+03) (27, -1.50000000000000000000e+03) (28, -1.49985083007812500000e+03) (29, -1.50000000000000000000e+03) (30, -1.50000000000000000000e+03) (31, -1.50000000000000000000e+03) (32, -1.50000000000000000000e+03) (33, -1.50000000000000000000e+03) (34, -1.49999755859375000000e+03) (35, -1.50000000000000000000e+03) (36, -1.50000000000000000000e+03) (37, -1.50000000000000000000e+03) (38, -1.50000000000000000000e+03) (39, -1.50000000000000000000e+03) (40, -1.50000000000000000000e+03) (41, -1.50000000000000000000e+03) (42, -1.50000000000000000000e+03) (43, -1.50000000000000000000e+03) (44, -1.49983374023437500000e+03) (45, 9.08877491950988769531e-01) (46, 1.50000000000000000000e+03) (47, -1.62256610393524169922e+00) (48, 1.50000000000000000000e+03) (49, 2.08630371093750000000e+00) (50, -3.60913162231445312500e+01) (51, 1.48339550781250000000e+03) (52, 1.49733618164062500000e+03) (53, -1.50000000000000000000e+03) (54, 5.01154266357421875000e+02) (55, -1.50000000000000000000e+03) (56, -1.49845629882812500000e+03) (57, 1.25608386230468750000e+03) (58, -1.67250263690948486328e+00) (59, -1.49968798828125000000e+03) (60, -8.31021308898925781250e+00) (61, -1.50000000000000000000e+03) (62, -5.70574903488159179688e+00) (63, 1.37810274958610534668e-01) (64, -1.50000000000000000000e+03) (65, 6.79011702537536621094e-01) (66, -6.10492897033691406250e+01) (67, 1.49919482421875000000e+03) (68, -1.49795166015625000000e+03) (69, -1.50000000000000000000e+03) (70, -7.31880187988281250000e+01) (71, -1.50000000000000000000e+03) (72, -1.50000000000000000000e+03) (73, -1.50000000000000000000e+03) (74, -2.73538231849670410156e+00) (75, -1.50000000000000000000e+03) (76, -1.50000000000000000000e+03) (77, -1.50000000000000000000e+03) (78, -1.50000000000000000000e+03) (79, -1.50000000000000000000e+03) (80, -1.50000000000000000000e+03) (81, -1.50000000000000000000e+03) (82, -1.50000000000000000000e+03) (83, -1.50000000000000000000e+03) (84, -1.50000000000000000000e+03) (85, -1.50000000000000000000e+03) (86, -6.56441736221313476562e+00) (87, -6.96693344116210937500e+01) (88, -1.50000000000000000000e+03) (89, -1.50000000000000000000e+03) (90, -1.50000000000000000000e+03) (91, -1.50000000000000000000e+03) (92, -1.50000000000000000000e+03) (93, -1.50000000000000000000e+03) (94, 5.20019590854644775391e-01) (95, -1.49983117675781250000e+03) (96, 7.75042486190795898438e+00) (97, -1.49940612792968750000e+03) (98, -1.49910522460937500000e+03) (99, -1.49919567871093750000e+03) (100, -1.19185095214843750000e+03) (101, -1.49961523437500000000e+03) (102, -1.50000000000000000000e+03) (103, 1.50000000000000000000e+03) (104, -5.55788993835449218750e-01) (0, -3.11497306823730468750e+00) (1, -1.70535602569580078125e+01) (2, -1.93318271636962890625e+01) (3, 6.40630722045898437500e+00) (4, 6.82427167892456054688e+00) (5, 5.06880426406860351562e+00) (6, -3.82749247550964355469e+00) (7, -3.00482964515686035156e+00) (8, 8.71891117095947265625e+00) (9, -1.15089340209960937500e+01) (10, 1.11141166687011718750e+01) (11, 2.07214164733886718750e+00) (12, -7.53817510604858398438e+00) (13, 7.17630863189697265625e+00) (14, 4.71203708648681640625e+00) (15, -4.24466848373413085938e+00) (16, 2.51304596662521362305e-01) (17, -3.30729931592941284180e-01) (18, 9.65754985809326171875e-01) (19, 5.80717921257019042969e-01) (20, 4.54754400253295898438e+00) (21, 4.47601467370986938477e-01) (22, -2.18514609336853027344e+00) (23, -1.07812607288360595703e+00) (24, 5.36356389522552490234e-01) (25, 7.34448552131652832031e-01) (26, -9.64077830314636230469e-01) (27, 3.95753502845764160156e-01) (28, -1.26643335819244384766e+00) (29, -1.19465792179107666016e+00) (30, -4.62050724029541015625e+00) (31, -7.34910249710083007812e-01) (32, -1.40891647338867187500e+00) (33, 8.07418704032897949219e-01) (34, 1.20733439922332763672e+00) (35, -1.75650584697723388672e+00) (36, 2.27785372734069824219e+00) (37, 2.07033276557922363281e+00) (38, 3.91812920570373535156e+00) (39, 1.79619336128234863281e+00) (40, 2.20397496223449707031e+00) (41, 2.61401271820068359375e+00) (42, 1.19169199466705322266e+00) (43, 3.26062870025634765625e+00) (44, 1.50166368484497070312e+00) (45, 2.10965082049369812012e-01) (46, -2.62831389904022216797e-01) (47, -5.56402802467346191406e-01) (48, -1.33526587486267089844e+00) (49, -9.56418156623840332031e-01) (50, 1.81939825415611267090e-02) (51, -1.86864840984344482422e+00) (52, 1.88543170690536499023e-01) (53, 1.34528830647468566895e-01) (54, -9.50849235057830810547e-01) (55, -2.72754359245300292969e+00) (56, -2.92156636714935302734e-01) (57, 3.07375955581665039062e+00) (58, 1.41058576107025146484e+00) (59, 9.86968100070953369141e-01) (60, -2.57141679525375366211e-01) (61, 1.56685340404510498047e+00) (62, -1.69323503971099853516e+00) (63, -1.87149989604949951172e+00) (64, -2.17313838005065917969e+00) (65, -1.36920857429504394531e+00) (66, -2.87098813056945800781e+00) (67, -1.74563014507293701172e+00) (68, -4.69893407821655273438e+00) (69, 3.01511377096176147461e-01) (70, -1.65536797046661376953e+00) (71, -1.39016091823577880859e-01) (72, 1.13128960132598876953e+00) (73, -5.39700651168823242188e+00) (74, -3.86360317468643188477e-01) (75, 1.02263946533203125000e+01) (76, -3.18018698692321777344e+00) (77, -2.97332197427749633789e-01) (78, -1.38914692401885986328e+00) (79, 4.76132774353027343750e+00) (80, -1.06822228431701660156e+00) (81, -1.99538278579711914062e+00) (82, -8.41948926448822021484e-01) (83, 1.26555204391479492188e+00) (84, 2.02442836761474609375e+00) (85, -6.67956256866455078125e+00) (86, -4.03867989778518676758e-01) (87, -9.97846961021423339844e-01) (88, -1.55338108539581298828e+00) (89, 6.55846738815307617188e+00) (90, -1.24361574649810791016e+00) (91, 1.29521834850311279297e+00) (92, 1.06995157897472381592e-01) (93, -2.42885899543762207031e+00) (94, -1.25032091140747070312e+00) (95, 9.28315281867980957031e-01) (96, -3.32082080841064453125e+00) (97, 2.95866417884826660156e+00) (98, 2.53964781761169433594e+00) (99, 8.12018215656280517578e-01) (100, -3.72113585472106933594e-01) (101, 1.46911457180976867676e-01) (102, 4.18743713378906250000e+02) (103, 4.06323425292968750000e+02) (104, 3.48828291893005371094e+00) (0, -1.29148614406585693359e+00) (1, 6.34525585174560546875e+00) (2, -1.48190784454345703125e+00) (3, -1.93425202369689941406e+00) (4, -8.60696017742156982422e-01) (5, 7.55701541900634765625e-01) (6, -7.03012704849243164062e-01) (7, -5.02551198005676269531e-01) (8, 8.19987878203392028809e-02) (9, 1.67558538913726806641e+00) (10, 4.81402635574340820312e+00) (11, 1.19149959087371826172e+00) (12, 6.30731046199798583984e-01) (13, -2.34963941574096679688e+00) (14, -2.07946133613586425781e+00) (15, -6.58915579319000244141e-01) (16, -1.34044134616851806641e+00) (17, 2.17624640464782714844e+00) (18, -1.51950359344482421875e+00) (19, -9.73654072731733322144e-03) (20, 2.85141420364379882812e+00) (21, 2.04930400848388671875e+00) (22, 5.96688836812973022461e-02) (23, -1.73620927333831787109e+00) (24, 1.86316466331481933594e+00) (25, 2.42033767700195312500e+00) (26, -1.06814384460449218750e+00) (27, -1.17910802364349365234e+00) (28, 1.76540970802307128906e+00) (29, 3.33724260330200195312e+00) (30, 1.65820908546447753906e+00) (31, -6.17518305778503417969e-01) (32, 2.88248777389526367188e+00) (33, -1.61780714988708496094e+00) (34, -1.55234932899475097656e-01) (35, -5.36128282546997070312e-01) (36, -1.05015063285827636719e+00) (37, -1.89128160476684570312e+00) (38, -1.51215231418609619141e+00) (39, 2.59930229187011718750e+00) (40, -1.52320635318756103516e+00) (41, -4.05172443389892578125e+00) (42, -5.88669717311859130859e-01) (43, -5.96308755874633789062e+00) (44, -5.49558687210083007812e+00) (45, 5.47986412048339843750e+00) (46, 1.31382238864898681641e+00) (47, -1.35737133026123046875e+00) (48, -1.37975215911865234375e+00) (49, -1.34538680315017700195e-01) (50, 3.25321722030639648438e+00) (51, -2.79291105270385742188e+00) (52, -1.33623719215393066406e+00) (53, 4.53314661979675292969e-01) (54, -1.67903888225555419922e+00) (55, 5.26531744003295898438e+00) (56, -1.25566351413726806641e+00) (57, 1.28710851073265075684e-01) (58, -4.34943199157714843750e+00) (59, 2.06832957267761230469e+00) (60, 1.86079776287078857422e+00) (61, -4.66109395027160644531e-01) (62, -2.71855688095092773438e+00) (63, -6.29951596260070800781e-01) (64, -8.26476752758026123047e-01) (65, -1.23563539981842041016e+00) (66, 4.91423273086547851562e+00) (67, 4.77224493026733398438e+00) (68, -2.23812484741210937500e+00) (69, -2.15496683120727539062e+00) (70, -2.04131269454956054688e+00) (71, -4.16212320327758789062e+00) (72, 4.00645971298217773438e-01) (73, 2.86340862512588500977e-01) (74, -5.59481561183929443359e-01) (75, 1.34603500366210937500e+00) (76, -3.18531799316406250000e+00) (77, -4.57781672477722167969e-01) (78, -3.28466057777404785156e+00) (79, 6.14287734031677246094e-01) (80, 1.15738034248352050781e+00) (81, 1.65894234180450439453e+00) (82, 3.74401211738586425781e-01) (83, -2.34556660056114196777e-01) (84, -2.27302503585815429688e+00) (85, 2.40878176689147949219e+00) (86, -1.03691077232360839844e+00) (87, -9.31542098522186279297e-01) (88, 4.10780477523803710938e+00) (89, 9.78625416755676269531e-01) (90, 1.34370028972625732422e+00) (91, 3.00188755989074707031e+00) (92, -3.26893639564514160156e+00) (93, 2.21859946846961975098e-01) (94, -1.00039231777191162109e+00) (95, 2.33244061470031738281e+00) (96, -6.13280439376831054688e+00) (97, 1.59139764308929443359e+00) (98, 2.66580200195312500000e+00) (99, -2.11367178708314895630e-02) (100, 2.34357666969299316406e+00) (101, -2.32815337181091308594e+00) (102, 1.66167092323303222656e+00) (103, 4.48086410760879516602e-01) (104, 2.80738544464111328125e+00) (0, -1.91446805000305175781e+00) (1, -5.09863042831420898438e+00) (2, 3.93895059823989868164e-01) (3, 6.31597161293029785156e-01) (4, -7.92566180229187011719e-01) (5, -3.72013425827026367188e+00) (6, -9.59671854972839355469e-01) (7, 4.36344528198242187500e+00) (8, -1.14287919998168945312e+01) (9, -9.11235237121582031250e+00) (10, -1.48112976551055908203e+00) (11, -4.53688192367553710938e+00) (12, 2.60121488571166992188e+00) (13, 2.05327415466308593750e+00) (14, 4.02467191219329833984e-01) (15, -3.05884289741516113281e+00) (16, -3.81951689720153808594e+00) (17, 2.81803369522094726562e+00) (18, -6.39005661010742187500e+00) (19, 1.85484898090362548828e+00) (20, -3.78358340263366699219e+00) (21, -1.08948783874511718750e+01) (22, 8.42536926269531250000e+00) (23, -7.73237848281860351562e+00) (24, -1.49450521469116210938e+01) (25, 6.73770093917846679688e+00) (26, 5.89653968811035156250e+00) (27, -3.70317769050598144531e+00) (28, -2.62043166160583496094e+00) (29, 3.55917668342590332031e+00) (30, -1.50959241390228271484e+00) (31, 3.49732398986816406250e-01) (32, -9.33275508880615234375e+00) (33, -1.19704663753509521484e+00) (34, -5.52207756042480468750e+00) (35, 3.27486634254455566406e+00) (36, -2.20160937309265136719e+00) (37, -6.04051637649536132812e+00) (38, -3.86283683776855468750e+00) (39, 4.37016040086746215820e-01) (40, 8.46251201629638671875e+00) (41, -4.96571958065032958984e-01) (42, 1.71139824390411376953e+00) (43, -5.03795909881591796875e+00) (44, 5.12923526763916015625e+00) (45, -5.43083047866821289062e+00) (46, -1.00654668807983398438e+01) (47, -5.67756509780883789062e+00) (48, 6.29194164276123046875e+00) (49, 6.86411023139953613281e-01) (50, -2.90493059158325195312e+00) (51, -1.12977661192417144775e-01) (52, -4.03846836090087890625e+00) (53, -3.16466474533081054688e+00) (54, 9.80825424194335937500e-01) (55, 1.22862672805786132812e+00) (56, 2.03331574797630310059e-01) (57, 6.83945083618164062500e+00) (58, -1.95473492145538330078e+00) (59, -4.40317392349243164062e+00) (60, -5.96124076843261718750e+00) (61, -1.09221279621124267578e+00) (62, 1.03573608398437500000e+00) (63, -1.01345002651214599609e+00) (64, 1.44514784216880798340e-01) (65, -1.97415038943290710449e-01) (66, 4.77670335769653320312e+00) (67, 1.15968656539916992188e+01) (68, 1.09894466400146484375e+01) (69, -5.63105881214141845703e-01) (70, -5.43379449844360351562e+00) (71, -5.14626979827880859375e-01) (72, -3.71229624748229980469e+00) (73, -1.71314311027526855469e+00) (74, 2.41788673400878906250e+00) (75, -3.68899178504943847656e+00) (76, -1.40670704841613769531e+00) (77, -2.46054053306579589844e-01) (78, -4.24286127090454101562e+00) (79, 3.96091118454933166504e-02) (80, -1.19809210300445556641e+00) (81, 7.05696284770965576172e-01) (82, -1.00448286533355712891e+00) (83, -3.66766667366027832031e+00) (84, -2.58895158767700195312e+00) (85, 1.33597135543823242188e-01) (86, 1.15210640430450439453e+00) (87, 2.46330165863037109375e+00) (88, -6.90485239028930664062e-02) (89, -2.97679281234741210938e+00) (90, 9.39794838428497314453e-01) (91, -3.14492940902709960938e+00) (92, 1.84598779678344726562e+00) (93, 2.32090735435485839844e+00) (94, 1.48190844058990478516e+00) (95, 3.75016063451766967773e-01) (96, 1.19695453643798828125e+01) (97, 1.28196203708648681641e+00) (98, -1.59770071506500244141e-01) (99, 4.98582303524017333984e-01) (100, 1.07833373546600341797e+00) (101, 8.77932310104370117188e-01) (102, -1.50000000000000000000e+03) (103, 1.50000000000000000000e+03) (104, -1.20236024856567382812e+01) (0, 1.50000000000000000000e+03) (1, 1.50000000000000000000e+03) (2, 1.50000000000000000000e+03) (3, 1.50000000000000000000e+03) (4, 1.50000000000000000000e+03) (5, 1.50000000000000000000e+03) (6, 1.50000000000000000000e+03) (7, 1.50000000000000000000e+03) (8, 1.50000000000000000000e+03) (9, 1.50000000000000000000e+03) (10, 1.50000000000000000000e+03) (11, 1.50000000000000000000e+03) (12, 1.50000000000000000000e+03) (13, 1.50000000000000000000e+03) (14, 1.50000000000000000000e+03) (15, 1.50000000000000000000e+03) (16, 1.50000000000000000000e+03) (17, 1.50000000000000000000e+03) (18, 1.50000000000000000000e+03) (19, 1.50000000000000000000e+03) (20, 1.50000000000000000000e+03) (21, 1.50000000000000000000e+03) (22, 1.50000000000000000000e+03) (23, 1.50000000000000000000e+03) (24, 1.50000000000000000000e+03) (25, 1.50000000000000000000e+03) (26, 1.50000000000000000000e+03) (27, 1.50000000000000000000e+03) (28, 1.50000000000000000000e+03) (29, 1.50000000000000000000e+03) (30, 1.50000000000000000000e+03) (31, 1.50000000000000000000e+03) (32, 1.50000000000000000000e+03) (33, 1.50000000000000000000e+03) (34, 1.49999755859375000000e+03) (35, 1.50000000000000000000e+03) (36, 1.50000000000000000000e+03) (37, 1.50000000000000000000e+03) (38, 1.50000000000000000000e+03) (39, 1.50000000000000000000e+03) (40, 1.50000000000000000000e+03) (41, 1.50000000000000000000e+03) (42, 1.50000000000000000000e+03) (43, 1.50000000000000000000e+03) (44, 1.50000000000000000000e+03) (45, 1.49987036132812500000e+03) (46, -1.50000000000000000000e+03) (47, 4.69638023376464843750e+01) (48, -1.43879492187500000000e+03) (49, 1.50000000000000000000e+03) (50, 7.10935134887695312500e+01) (51, 1.50000000000000000000e+03) (52, -1.49614831542968750000e+03) (53, 1.50000000000000000000e+03) (54, 1.50000000000000000000e+03) (55, 1.50000000000000000000e+03) (56, 1.50000000000000000000e+03) (57, -1.15646960449218750000e+03) (58, 1.49999755859375000000e+03) (59, 1.50000000000000000000e+03) (60, 1.50000000000000000000e+03) (61, 1.50000000000000000000e+03) (62, 1.93517189025878906250e+01) (63, 1.50000000000000000000e+03) (64, 1.50000000000000000000e+03) (65, 3.55440258979797363281e+00) (66, -1.49966906738281250000e+03) (67, -1.49879992675781250000e+03) (68, 1.50000000000000000000e+03) (69, 1.50000000000000000000e+03) (70, 7.61736373901367187500e+01) (71, 1.50000000000000000000e+03) (72, 1.50000000000000000000e+03) (73, 1.50000000000000000000e+03) (74, 9.30155658721923828125e+00) (75, 1.50000000000000000000e+03) (76, 1.50000000000000000000e+03) (77, 1.50000000000000000000e+03) (78, 1.50000000000000000000e+03) (79, 1.50000000000000000000e+03) (80, 1.50000000000000000000e+03) (81, 1.50000000000000000000e+03) (82, 1.50000000000000000000e+03) (83, 1.50000000000000000000e+03) (84, 1.50000000000000000000e+03) (85, 1.50000000000000000000e+03) (86, 1.50000000000000000000e+03) (87, 1.02928993225097656250e+02) (88, 1.50000000000000000000e+03) (89, 1.50000000000000000000e+03) (90, 1.50000000000000000000e+03) (91, 1.50000000000000000000e+03) (92, 1.50000000000000000000e+03) (93, 1.50000000000000000000e+03) (94, 2.55103439331054687500e+02) (95, 1.50000000000000000000e+03) (96, -1.49375341796875000000e+03) (97, 1.50000000000000000000e+03) (98, 1.50000000000000000000e+03) (99, 1.50000000000000000000e+03) (100, 1.50000000000000000000e+03) (101, 1.50000000000000000000e+03) (102, 1.50000000000000000000e+03) (103, -1.50000000000000000000e+03) (104, -4.15729910135269165039e-01) (0, -1.50000000000000000000e+03) (1, -1.50000000000000000000e+03) (2, -1.50000000000000000000e+03) (3, -1.50000000000000000000e+03) (4, -1.50000000000000000000e+03) (5, -1.50000000000000000000e+03) (6, -1.50000000000000000000e+03) (7, -1.50000000000000000000e+03) (8, -1.50000000000000000000e+03) (9, -1.50000000000000000000e+03) (10, -1.50000000000000000000e+03) (11, -1.50000000000000000000e+03) (12, -1.50000000000000000000e+03) (13, -1.50000000000000000000e+03) (14, -1.50000000000000000000e+03) (15, -1.50000000000000000000e+03) (16, -1.50000000000000000000e+03) (17, -1.50000000000000000000e+03) (18, -1.50000000000000000000e+03) (19, -1.50000000000000000000e+03) (20, -1.50000000000000000000e+03) (21, -1.50000000000000000000e+03) (22, -1.50000000000000000000e+03) (23, -1.50000000000000000000e+03) (24, -1.50000000000000000000e+03) (25, -1.50000000000000000000e+03) (26, -1.50000000000000000000e+03) (27, -1.50000000000000000000e+03) (28, -1.49985083007812500000e+03) (29, -1.50000000000000000000e+03) (30, -1.50000000000000000000e+03) (31, -1.50000000000000000000e+03) (32, -1.50000000000000000000e+03) (33, -1.50000000000000000000e+03) (34, -1.49999755859375000000e+03) (35, -1.50000000000000000000e+03) (36, -1.50000000000000000000e+03) (37, -1.50000000000000000000e+03) (38, -1.50000000000000000000e+03) (39, -1.50000000000000000000e+03) (40, -1.50000000000000000000e+03) (41, -1.50000000000000000000e+03) (42, -1.50000000000000000000e+03) (43, -1.50000000000000000000e+03) (44, -1.49983374023437500000e+03) (45, -1.49978491210937500000e+03) (46, 1.50000000000000000000e+03) (47, -9.59939861297607421875e+00) (48, 1.50000000000000000000e+03) (49, -4.68570251464843750000e+01) (50, -2.93581657409667968750e+01) (51, -1.50000000000000000000e+03) (52, 1.49733618164062500000e+03) (53, -1.50000000000000000000e+03) (54, -1.49998718261718750000e+03) (55, -1.50000000000000000000e+03) (56, -1.49845629882812500000e+03) (57, 1.25608386230468750000e+03) (58, -1.49040344238281250000e+03) (59, -1.49968798828125000000e+03) (60, -1.50000000000000000000e+03) (61, -1.50000000000000000000e+03) (62, -1.16739349365234375000e+01) (63, -1.50000000000000000000e+03) (64, -1.50000000000000000000e+03) (65, -8.69579076766967773438e-01) (66, 1.49989465332031250000e+03) (67, 1.49919482421875000000e+03) (68, -1.49795166015625000000e+03) (69, -1.50000000000000000000e+03) (70, -5.26244201660156250000e+01) (71, -1.50000000000000000000e+03) (72, -1.50000000000000000000e+03) (73, -1.50000000000000000000e+03) (74, -4.68585443496704101562e+00) (75, -1.50000000000000000000e+03) (76, -1.50000000000000000000e+03) (77, -1.50000000000000000000e+03) (78, -1.50000000000000000000e+03) (79, -1.50000000000000000000e+03) (80, -1.50000000000000000000e+03) (81, -1.50000000000000000000e+03) (82, -1.50000000000000000000e+03) (83, -1.50000000000000000000e+03) (84, -1.50000000000000000000e+03) (85, -1.50000000000000000000e+03) (86, -1.49983117675781250000e+03) (87, -7.18924331665039062500e+01) (88, -1.50000000000000000000e+03) (89, -1.50000000000000000000e+03) (90, -1.50000000000000000000e+03) (91, -1.50000000000000000000e+03) (92, -1.50000000000000000000e+03) (93, -1.50000000000000000000e+03) (94, -1.80695602416992187500e+02) (95, -1.49983117675781250000e+03) (96, 1.49992712402343750000e+03) (97, -1.49940612792968750000e+03) (98, -1.49910522460937500000e+03) (99, -1.49919567871093750000e+03) (100, -1.50000000000000000000e+03) (101, -1.49961523437500000000e+03) (102, -1.50000000000000000000e+03) (103, 1.50000000000000000000e+03) (104, 1.50340580940246582031e+00) (105, 1.83321312069892883301e-01) (106, -6.00113689899444580078e-01) (107, -4.38086986541748046875e-01) (108, -4.64967012405395507812e-01) (109, -4.83684301376342773438e-01) (110, -1.22068786621093750000e+00) (111, 1.68842464685440063477e-01) (112, 3.58534216880798339844e-01) (113, -3.76445531845092773438e+00) (114, 8.40360283851623535156e-01) (115, -3.44782042503356933594e+00) (116, -1.81209921836853027344e-01) (117, 5.20241856575012207031e-01) (118, -4.80346292257308959961e-01) (119, 1.44611191749572753906e+00) (120, 5.52196550369262695312e+00) (121, -4.86801475286483764648e-01) (122, -4.33073854446411132812e+00) (123, -3.63733625411987304688e+00) (124, 7.49212920665740966797e-01) (125, -1.65108871459960937500e+00) (126, -3.32441711425781250000e+00) (127, 5.29897642135620117188e+00) (128, -5.11581122875213623047e-01) (129, 1.89458179473876953125e+00) (130, 2.11282181739807128906e+00) 
