FANN_FLO_2.1
num_layers=3
learning_rate=0.700000
connection_rate=1.000000
network_type=0
learning_momentum=0.000000
training_algorithm=2
train_error_function=1
train_stop_function=0
cascade_output_change_fraction=0.010000
quickprop_decay=-0.000100
quickprop_mu=1.750000
rprop_increase_factor=1.200000
rprop_decrease_factor=0.500000
rprop_delta_min=0.000000
rprop_delta_max=50.000000
rprop_delta_zero=0.100000
cascade_output_stagnation_epochs=12
cascade_candidate_change_fraction=0.010000
cascade_candidate_stagnation_epochs=12
cascade_max_out_epochs=150
cascade_max_cand_epochs=150
cascade_num_candidate_groups=2
bit_fail_limit=3.49999994039535522461e-01
cascade_candidate_limit=1.00000000000000000000e+03
cascade_weight_multiplier=4.00000005960464477539e-01
cascade_activation_functions_count=10
cascade_activation_functions=3 5 7 8 10 11 14 15 16 17 
cascade_activation_steepnesses_count=4
cascade_activation_steepnesses=2.50000000000000000000e-01 5.00000000000000000000e-01 7.50000000000000000000e-01 1.00000000000000000000e+00 
layer_sizes=105 26 2 
scale_included=0
neurons (num_inputs, activation_function, activation_steepness)=(0, 0, 0.00000000000000000000e+00) (0, 0, 0.00000000000000000000e+00) (0, 0, 0.00000000000000000000e+00) (0, 0, 0.00000000000000000000e+00) (0, 0, 0.00000000000000000000e+00) (0, 0, 0.00000000000000000000e+00) (0, 0, 0.00000000000000000000e+00) (0, 0, 0.00000000000000000000e+00) (0, 0, 0.00000000000000000000e+00) (0, 0, 0.00000000000000000000e+00) (0, 0, 0.00000000000000000000e+00) (0, 0, 0.00000000000000000000e+00) (0, 0, 0.00000000000000000000e+00) (0, 0, 0.00000000000000000000e+00) (0, 0, 0.00000000000000000000e+00) (0, 0, 0.00000000000000000000e+00) (0, 0, 0.00000000000000000000e+00) (0, 0, 0.00000000000000000000e+00) (0, 0, 0.00000000000000000000e+00) (0, 0, 0.00000000000000000000e+00) (0, 0, 0.00000000000000000000e+00) (0, 0, 0.00000000000000000000e+00) (0, 0, 0.00000000000000000000e+00) (0, 0, 0.00000000000000000000e+00) (0, 0, 0.00000000000000000000e+00) (0, 0, 0.00000000000000000000e+00) (0, 0, 0.00000000000000000000e+00) (0, 0, 0.00000000000000000000e+00) (0, 0, 0.00000000000000000000e+00) (0, 0, 0.00000000000000000000e+00) (0, 0, 0.00000000000000000000e+00) (0, 0, 0.00000000000000000000e+00) (0, 0, 0.00000000000000000000e+00) (0, 0, 0.00000000000000000000e+00) (0, 0, 0.00000000000000000000e+00) (0, 0, 0.00000000000000000000e+00) (0, 0, 0.00000000000000000000e+00) (0, 0, 0.00000000000000000000e+00) (0, 0, 0.00000000000000000000e+00) (0, 0, 0.00000000000000000000e+00) (0, 0, 0.00000000000000000000e+00) (0, 0, 0.00000000000000000000e+00) (0, 0, 0.00000000000000000000e+00) (0, 0, 0.00000000000000000000e+00) (0, 0, 0.00000000000000000000e+00) (0, 0, 0.00000000000000000000e+00) (0, 0, 0.00000000000000000000e+00) (0, 0, 0.00000000000000000000e+00) (0, 0, 0.00000000000000000000e+00) (0, 0, 0.00000000000000000000e+00) (0, 0, 0.00000000000000000000e+00) (0, 0, 0.00000000000000000000e+00) (0, 0, 0.00000000000000000000e+00) (0, 0, 0.00000000000000000000e+00) (0, 0, 0.00000000000000000000e+00) (0, 0, 0.00000000000000000000e+00) (0, 0, 0.00000000000000000000e+00) (0, 0, 0.00000000000000000000e+00) (0, 0, 0.00000000000000000000e+00) (0, 0, 0.00000000000000000000e+00) (0, 0, 0.00000000000000000000e+00) (0, 0, 0.00000000000000000000e+00) (0, 0, 0.00000000000000000000e+00) (0, 0, 0.00000000000000000000e+00) (0, 0, 0.00000000000000000000e+00) (0, 0, 0.00000000000000000000e+00) (0, 0, 0.00000000000000000000e+00) (0, 0, 0.00000000000000000000e+00) (0, 0, 0.00000000000000000000e+00) (0, 0, 0.00000000000000000000e+00) (0, 0, 0.00000000000000000000e+00) (0, 0, 0.00000000000000000000e+00) (0, 0, 0.00000000000000000000e+00) (0, 0, 0.00000000000000000000e+00) (0, 0, 0.00000000000000000000e+00) (0, 0, 0.00000000000000000000e+00) (0, 0, 0.00000000000000000000e+00) (0, 0, 0.00000000000000000000e+00) (0, 0, 0.00000000000000000000e+00) (0, 0, 0.00000000000000000000e+00) (0, 0, 0.00000000000000000000e+00) (0, 0, 0.00000000000000000000e+00) (0, 0, 0.00000000000000000000e+00) (0, 0, 0.00000000000000000000e+00) (0, 0, 0.00000000000000000000e+00) (0, 0, 0.00000000000000000000e+00) (0, 0, 0.00000000000000000000e+00) (0, 0, 0.00000000000000000000e+00) (0, 0, 0.00000000000000000000e+00) (0, 0, 0.00000000000000000000e+00) (0, 0, 0.00000000000000000000e+00) (0, 0, 0.00000000000000000000e+00) (0, 0, 0.00000000000000000000e+00) (0, 0, 0.00000000000000000000e+00) (0, 0, 0.00000000000000000000e+00) (0, 0, 0.00000000000000000000e+00) (0, 0, 0.00000000000000000000e+00) (0, 0, 0.00000000000000000000e+00) (0, 0, 0.00000000000000000000e+00) (0, 0, 0.00000000000000000000e+00) (0, 0, 0.00000000000000000000e+00) (0, 0, 0.00000000000000000000e+00) (0, 0, 0.00000000000000000000e+00) (0, 0, 0.00000000000000000000e+00) (0, 0, 0.00000000000000000000e+00) (105, 5, 5.00000000000000000000e-01) (105, 5, 5.00000000000000000000e-01) (105, 5, 5.00000000000000000000e-01) (105, 5, 5.00000000000000000000e-01) (105, 5, 5.00000000000000000000e-01) (105, 5, 5.00000000000000000000e-01) (105, 5, 5.00000000000000000000e-01) (105, 5, 5.00000000000000000000e-01) (105, 5, 5.00000000000000000000e-01) (105, 5, 5.00000000000000000000e-01) (105, 5, 5.00000000000000000000e-01) (105, 5, 5.00000000000000000000e-01) (105, 5, 5.00000000000000000000e-01) (105, 5, 5.00000000000000000000e-01) (105, 5, 5.00000000000000000000e-01) (105, 5, 5.00000000000000000000e-01) (105, 5, 5.00000000000000000000e-01) (105, 5, 5.00000000000000000000e-01) (105, 5, 5.00000000000000000000e-01) (105, 5, 5.00000000000000000000e-01) (105, 5, 5.00000000000000000000e-01) (105, 5, 5.00000000000000000000e-01) (105, 5, 5.00000000000000000000e-01) (105, 5, 5.00000000000000000000e-01) (105, 5, 5.00000000000000000000e-01) (0, 5, 0.00000000000000000000e+00) (26, 5, 5.00000000000000000000e-01) (0, 5, 0.00000000000000000000e+00) 
connections (connected_to_neuron, weight)=(0, -1.27228012084960937500e+01) (1, 6.31657540798187255859e-01) (2, 9.90819990634918212891e-01) (3, 2.42448195815086364746e-01) (4, 1.91390216350555419922e+00) (5, 6.99877321720123291016e-01) (6, 4.37845915555953979492e-01) (7, 2.58763521909713745117e-01) (8, -3.49159317016601562500e+01) (9, 7.70042955875396728516e-01) (10, 2.99978703260421752930e-01) (11, 1.00553798675537109375e+00) (12, 2.17765495181083679199e-01) (13, 5.77704846858978271484e-01) (14, 5.28203248977661132812e-01) (15, 1.35562443733215332031e+00) (16, 2.45190906524658203125e+00) (17, 6.26700162887573242188e-01) (18, 1.35870909690856933594e+00) (19, 3.34220796823501586914e-01) (20, 2.92777150869369506836e-01) (21, 1.48987150192260742188e+00) (22, 4.74391192197799682617e-01) (23, 6.26877844333648681641e-01) (24, 2.58366155624389648438e+00) (25, 3.05147266387939453125e+00) (26, 5.75751781463623046875e-01) (27, 5.61269342899322509766e-01) (28, 6.43295764923095703125e-01) (29, 8.16767513751983642578e-01) (30, 9.33985054492950439453e-01) (31, 3.98466438055038452148e-01) (32, 6.54809594154357910156e-01) (33, 5.78147947788238525391e-01) (34, 7.36733257770538330078e-01) (35, -3.52855277061462402344e+00) (36, 8.11946570873260498047e-01) (37, -5.01204371452331542969e-01) (38, 1.16127169132232666016e+00) (39, 1.06907534599304199219e+00) (40, 2.39017891883850097656e+00) (41, -1.25808250904083251953e+00) (42, 4.12637084722518920898e-01) (43, 1.10446691513061523438e+00) (44, -8.14588740468025207520e-02) (45, 1.26830267906188964844e+00) (46, 1.38594999909400939941e-01) (47, -1.71394789218902587891e+00) (48, 1.43504381179809570312e+00) (49, 1.02777910232543945312e+00) (50, 1.56135976314544677734e+00) (51, 1.67717599868774414062e+00) (52, 4.78472620248794555664e-01) (53, 9.21273604035377502441e-02) (54, -3.14577221870422363281e+00) (55, 4.48184680938720703125e+00) (56, 7.04809486865997314453e-01) (57, -1.82907009124755859375e+00) (58, 3.11071062088012695312e+00) (59, 8.15506160259246826172e-01) (60, 5.62331914901733398438e-01) (61, 1.42539703845977783203e+00) (62, 3.56745928525924682617e-01) (63, 7.73581087589263916016e-01) (64, 2.12340950965881347656e+00) (65, 1.66659343242645263672e+00) (66, -5.61207723617553710938e+00) (67, 1.09858548641204833984e+00) (68, -1.03501796722412109375e+00) (69, 2.39037561416625976562e+00) (70, 2.72518604993820190430e-01) (71, 1.29248213768005371094e+00) (72, 4.64918404817581176758e-01) (73, 8.50873529911041259766e-01) (74, 2.95510798692703247070e-01) (75, -1.59380698204040527344e+00) (76, 1.51145720481872558594e+00) (77, 5.69632112979888916016e-01) (78, -3.77330231666564941406e+00) (79, 5.13657236099243164062e+00) (80, 4.95007753372192382812e+00) (81, 1.08436822891235351562e+00) (82, 6.30656361579895019531e-01) (83, 1.61753761768341064453e+00) (84, -1.87936663627624511719e+00) (85, 3.76776307821273803711e-01) (86, 6.23985528945922851562e-01) (87, 1.27994179725646972656e+00) (88, -3.60260677337646484375e+00) (89, 2.44759297370910644531e+00) (90, 3.13933700323104858398e-01) (91, 1.00410568714141845703e+00) (92, 1.11933693289756774902e-01) (93, 3.63783687353134155273e-01) (94, 1.63978791236877441406e+00) (95, 5.78446865081787109375e-01) (96, -6.06869125366210937500e+00) (97, 4.21862220764160156250e+00) (98, -7.59816076606512069702e-03) (99, 1.10539007186889648438e+00) (100, 1.96551918983459472656e+00) (101, 1.60701557993888854980e-01) (102, -5.69868922233581542969e-01) (103, 4.09989023208618164062e+00) (104, 3.10175061225891113281e-01) (0, 4.01281051635742187500e+01) (1, 1.16566169261932373047e+00) (2, 1.50302743911743164062e+00) (3, -3.19578528404235839844e+00) (4, 1.59201705455780029297e+00) (5, 1.50987160205841064453e+00) (6, 1.31234145164489746094e+00) (7, 1.29035449028015136719e+00) (8, -5.50697922706604003906e-01) (9, 1.42375707626342773438e+00) (10, 1.34053719043731689453e+00) (11, 1.81492698192596435547e+00) (12, 1.08105385303497314453e+00) (13, 1.56768429279327392578e+00) (14, 1.47681820392608642578e+00) (15, 1.63693010807037353516e+00) (16, 1.31974279880523681641e+00) (17, 1.16551339626312255859e+00) (18, 1.62703073024749755859e+00) (19, 1.73312914371490478516e+00) (20, 1.19823443889617919922e+00) (21, 1.27055394649505615234e+00) (22, 7.71202325820922851562e-01) (23, 1.24762284755706787109e+00) (24, 9.99451458454132080078e-01) (25, 1.32357323169708251953e+00) (26, 1.50951039791107177734e+00) (27, 1.60550653934478759766e+00) (28, 9.09640133380889892578e-01) (29, 1.28388214111328125000e+00) (30, 1.39733099937438964844e+00) (31, 1.45389795303344726562e+00) (32, 1.41047692298889160156e+00) (33, 1.51899075508117675781e+00) (34, 1.52702021598815917969e+00) (35, -1.48115754127502441406e+00) (36, 1.58529758453369140625e+00) (37, 3.92818838357925415039e-01) (38, 1.20020389556884765625e+00) (39, 1.17989826202392578125e+00) (40, 1.15502572059631347656e+00) (41, 1.60829818248748779297e+00) (42, 5.35939633846282958984e-01) (43, 1.38314592838287353516e+00) (44, 1.26990556716918945312e+00) (45, 1.70698845386505126953e+00) (46, 1.02022528648376464844e+00) (47, 1.53861737251281738281e+00) (48, 1.34650039672851562500e+00) (49, -1.29431895911693572998e-02) (50, 1.34840118885040283203e+00) (51, 1.20156419277191162109e+00) (52, 1.40132582187652587891e+00) (53, 1.67319071292877197266e+00) (54, -2.58289599418640136719e+00) (55, 1.62339079380035400391e+00) (56, 1.40119349956512451172e+00) (57, 1.91426074504852294922e+00) (58, 1.07506597042083740234e+00) (59, -2.67104625701904296875e+00) (60, 1.65851342678070068359e+00) (61, -2.09471178054809570312e+00) (62, 1.08041071891784667969e+00) (63, 1.65548229217529296875e+00) (64, 1.21601200103759765625e+00) (65, 1.68207561969757080078e+00) (66, 7.36479699611663818359e-01) (67, 1.40727579593658447266e+00) (68, 1.24726688861846923828e+00) (69, 1.58507812023162841797e+00) (70, 1.22047555446624755859e+00) (71, 7.76166319847106933594e-01) (72, 1.52745723724365234375e+00) (73, 1.95208537578582763672e+00) (74, 1.45614874362945556641e+00) (75, 1.14767742156982421875e+00) (76, 1.39340734481811523438e+00) (77, 1.45933079719543457031e+00) (78, 1.74263620376586914062e+00) (79, 1.43858373165130615234e+00) (80, -2.07251510620117187500e+01) (81, 1.53480768203735351562e+00) (82, 1.17642664909362792969e+00) (83, 1.40143668651580810547e+00) (84, 1.59479928016662597656e+00) (85, -1.73418846130371093750e+01) (86, 1.24902880191802978516e+00) (87, 8.56267690658569335938e-01) (88, 1.54114556312561035156e+00) (89, 1.62038600444793701172e+00) (90, 1.74183189868927001953e+00) (91, 1.84188032150268554688e+00) (92, 8.79787266254425048828e-01) (93, 1.39060556888580322266e+00) (94, 1.32269358634948730469e+00) (95, 1.70120894908905029297e+00) (96, -6.30114459991455078125e+00) (97, 9.31703627109527587891e-01) (98, 1.28672194480895996094e+00) (99, 1.33761477470397949219e+00) (100, 1.29076528549194335938e+00) (101, 1.09637761116027832031e+00) (102, -1.28181469440460205078e+00) (103, 5.32284498214721679688e+00) (104, 2.18504637479782104492e-01) (0, 5.19942893981933593750e+01) (1, 1.47520208358764648438e+00) (2, 1.33278775215148925781e+00) (3, -5.86401510238647460938e+00) (4, 1.35826086997985839844e+00) (5, 1.30492007732391357422e+00) (6, 1.58110427856445312500e+00) (7, 1.67462301254272460938e+00) (8, -4.49873275756835937500e+01) (9, 1.70860409736633300781e+00) (10, 1.87412846088409423828e+00) (11, 1.87368619441986083984e+00) (12, 1.85759198665618896484e+00) (13, 1.73537743091583251953e+00) (14, 1.84946906566619873047e+00) (15, 1.87535083293914794922e+00) (16, 1.39996671676635742188e+00) (17, 1.03996610641479492188e+00) (18, 1.10388517379760742188e+00) (19, 8.77064764499664306641e-01) (20, -4.27701530456542968750e+01) (21, 2.25982975959777832031e+00) (22, 1.25330650806427001953e+00) (23, 1.24215269088745117188e+00) (24, 2.80768394470214843750e+01) (25, 2.11160111427307128906e+00) (26, 1.29282069206237792969e+00) (27, 1.42541420459747314453e+00) (28, 1.18044018745422363281e+00) (29, 1.22043251991271972656e+00) (30, 1.71226835250854492188e+00) (31, 1.80574429035186767578e+00) (32, 1.46023952960968017578e+00) (33, 1.33193373680114746094e+00) (34, 8.92782866954803466797e-01) (35, 8.31715774536132812500e+00) (36, 1.45064723491668701172e+00) (37, 2.45597243309020996094e+00) (38, 1.14535725116729736328e+00) (39, 1.06173813343048095703e+00) (40, 1.15177667140960693359e+00) (41, 1.60795831680297851562e+00) (42, 1.36492800712585449219e+00) (43, 2.18714451789855957031e+00) (44, 1.35457003116607666016e+00) (45, 2.00618481636047363281e+00) (46, 1.55999970436096191406e+00) (47, 1.71804928779602050781e+00) (48, 1.77477765083312988281e+00) (49, 6.94097471237182617188e+00) (50, 1.90716600418090820312e+00) (51, 1.90485727787017822266e+00) (52, 1.50320160388946533203e+00) (53, 1.18248653411865234375e+00) (54, 8.38225555419921875000e+00) (55, 1.76663792133331298828e+00) (56, 1.26491332054138183594e+00) (57, 1.76328849792480468750e+00) (58, 1.65626990795135498047e+00) (59, -2.01005411148071289062e+00) (60, 8.88510644435882568359e-01) (61, -2.44787716865539550781e+00) (62, 1.96090817451477050781e+00) (63, 1.17855179309844970703e+00) (64, 8.85507345199584960938e-01) (65, 1.03900563716888427734e+00) (66, 1.19030785560607910156e+00) (67, 1.67164647579193115234e+00) (68, 1.70201897621154785156e+00) (69, 2.33691406250000000000e+00) (70, 1.27367532253265380859e+00) (71, 1.20947420597076416016e+00) (72, 1.52113819122314453125e+00) (73, 2.20348548889160156250e+00) (74, 1.72652781009674072266e+00) (75, 1.77385246753692626953e+00) (76, 2.02158522605895996094e+00) (77, 1.44847202301025390625e+00) (78, 2.06596946716308593750e+00) (79, 1.88503456115722656250e+00) (80, -1.66520462036132812500e+01) (81, 1.46580517292022705078e+00) (82, 1.72506570816040039062e+00) (83, 1.86722135543823242188e+00) (84, 1.87937688827514648438e+00) (85, -1.83189105987548828125e+01) (86, 1.17040479183197021484e+00) (87, 1.51693439483642578125e+00) (88, 1.61740660667419433594e+00) (89, 1.91048753261566162109e+00) (90, 1.48246955871582031250e+00) (91, 1.98823750019073486328e+00) (92, 1.58403146266937255859e+00) (93, 1.46156847476959228516e+00) (94, 1.04108917713165283203e+00) (95, 1.27372419834136962891e+00) (96, 1.18320407867431640625e+01) (97, 1.86978828907012939453e+00) (98, 6.76935791969299316406e-01) (99, 1.45694470405578613281e+00) (100, 1.19422030448913574219e+00) (101, 2.17244148254394531250e+00) (102, 8.99988250732421875000e+01) (103, -6.29325294494628906250e+01) (104, 7.61548757553100585938e-01) (0, -3.98427534103393554688e+00) (1, 6.21563434600830078125e-01) (2, -3.56265425682067871094e-01) (3, 5.07563233375549316406e-01) (4, -2.76124864816665649414e-01) (5, -1.16011297702789306641e+00) (6, 4.95498090982437133789e-01) (7, 2.64500588178634643555e-01) (8, 6.30003333091735839844e-01) (9, -8.95200550556182861328e-01) (10, 1.44531702995300292969e+00) (11, 9.92971837520599365234e-01) (12, -2.07406714558601379395e-01) (13, -8.64829242229461669922e-01) (14, -5.08541107177734375000e-01) (15, 1.10433399677276611328e+00) (16, -4.19331341981887817383e-01) (17, 5.41977584362030029297e-01) (18, 6.98733210563659667969e-01) (19, -9.07816708087921142578e-01) (20, -3.94008427858352661133e-01) (21, -6.58544003963470458984e-01) (22, -1.63818371295928955078e+00) (23, -8.59359383583068847656e-01) (24, 1.57079085707664489746e-01) (25, 6.69077873229980468750e-01) (26, 4.77505058050155639648e-01) (27, 1.31125617027282714844e+00) (28, -7.21113383769989013672e-01) (29, 3.20740975439548492432e-02) (30, -7.75336563587188720703e-01) (31, -3.83817732334136962891e-01) (32, -2.92407810688018798828e-01) (33, 5.65787069499492645264e-02) (34, 9.44671690464019775391e-01) (35, 4.68768447637557983398e-01) (36, 3.18167597055435180664e-01) (37, -2.30299815535545349121e-01) (38, 8.44600677490234375000e-01) (39, 1.25069177150726318359e+00) (40, 2.97511428594589233398e-01) (41, -6.75532221794128417969e-01) (42, 1.06144106388092041016e+00) (43, -1.55157291889190673828e+00) (44, 2.55711525678634643555e-01) (45, -6.02989345788955688477e-02) (46, -9.14411246776580810547e-01) (47, 1.16679120063781738281e+00) (48, 9.31325793266296386719e-01) (49, 7.95984268188476562500e-01) (50, -2.36405074596405029297e-01) (51, -2.37834572792053222656e-01) (52, 3.72906982898712158203e-01) (53, 1.76335617899894714355e-01) (54, -1.31440210342407226562e+00) (55, 1.01524198055267333984e+00) (56, -2.58544564247131347656e-01) (57, 5.43489575386047363281e-01) (58, 2.01028034090995788574e-01) (59, 3.54867547750473022461e-01) (60, -1.54750809073448181152e-01) (61, -2.36415490508079528809e-01) (62, 3.95500153303146362305e-01) (63, 2.92092323303222656250e-01) (64, 2.58321690559387207031e+00) (65, 9.66489374637603759766e-01) (66, -3.74522387981414794922e-01) (67, 1.14747309684753417969e+00) (68, 8.01344215869903564453e-01) (69, -8.54937314987182617188e-01) (70, 5.37772476673126220703e-01) (71, -1.85323983430862426758e-01) (72, -1.60370007157325744629e-01) (73, 1.88520736992359161377e-02) (74, 8.65686357021331787109e-01) (75, 3.41805249452590942383e-01) (76, -2.78293788433074951172e-02) (77, 1.04706025123596191406e+00) (78, -2.57997184991836547852e-01) (79, 9.40018221735954284668e-02) (80, -3.02075058221817016602e-01) (81, 8.14664483070373535156e-01) (82, 8.09480369091033935547e-01) (83, 7.26760849356651306152e-02) (84, -8.92637848854064941406e-01) (85, -7.16659009456634521484e-01) (86, 7.79589340090751647949e-02) (87, -3.04751992225646972656e-01) (88, 1.30131140351295471191e-01) (89, -8.00834059715270996094e-01) (90, 1.26091405749320983887e-01) (91, 8.23578298091888427734e-01) (92, -5.53919434547424316406e-01) (93, 1.78475216031074523926e-01) (94, -7.13255047798156738281e-01) (95, -7.00082242488861083984e-01) (96, -4.11388546228408813477e-01) (97, -7.50212252140045166016e-01) (98, -9.89504635334014892578e-01) (99, -6.76022171974182128906e-01) (100, 2.09890678524971008301e-01) (101, -2.58965373039245605469e-01) (102, -1.38086616992950439453e+00) (103, 3.77672743797302246094e+00) (104, 2.40408587455749511719e+00) (0, -2.05265121459960937500e+01) (1, -1.42146778106689453125e+00) (2, 8.54730904102325439453e-01) (3, -4.67920362949371337891e-01) (4, 7.99356520175933837891e-01) (5, 8.72033774852752685547e-01) (6, 2.09958624839782714844e+00) (7, 7.47656631469726562500e+00) (8, 3.27176761627197265625e+00) (9, 1.25660872459411621094e+00) (10, -1.97315251827239990234e+00) (11, -6.66004657745361328125e+00) (12, 7.18251705169677734375e-01) (13, -1.78639149665832519531e+00) (14, 2.01405858993530273438e+00) (15, 1.18584251403808593750e+00) (16, 4.07052135467529296875e+00) (17, 6.81710481643676757812e-01) (18, 1.60206091403961181641e+00) (19, 5.41317760944366455078e-01) (20, 1.41624903678894042969e+00) (21, -9.14197087287902832031e-01) (22, -1.26223695278167724609e+00) (23, 7.84563541412353515625e-01) (24, 1.90963613986968994141e+00) (25, -8.57387006282806396484e-01) (26, -3.86700302362442016602e-01) (27, 1.88397991657257080078e+00) (28, 1.01535372436046600342e-01) (29, 3.41562122106552124023e-01) (30, 1.72242894768714904785e-01) (31, -5.14737486839294433594e-01) (32, -3.47130507230758666992e-01) (33, 4.21320647001266479492e-01) (34, -3.44849824905395507812e-01) (35, -3.25114250183105468750e+00) (36, 1.83482483029365539551e-01) (37, 2.17124834656715393066e-01) (38, 1.43616390228271484375e+00) (39, 1.47953951358795166016e+00) (40, 1.08019089698791503906e+00) (41, -1.80807483196258544922e+00) (42, 1.12872278690338134766e+00) (43, 5.45649528503417968750e+00) (44, 6.71167898178100585938e+00) (45, 1.24472749233245849609e+00) (46, 9.91529881954193115234e-01) (47, 3.95650267601013183594e+00) (48, 4.79198598861694335938e+00) (49, 1.56086468696594238281e+00) (50, 5.47219395637512207031e-01) (51, 1.02887773513793945312e+00) (52, 9.25502359867095947266e-01) (53, 2.37145161628723144531e+00) (54, 2.32765778899192810059e-01) (55, -7.56378769874572753906e-01) (56, 3.97684961557388305664e-01) (57, -2.23444509506225585938e+00) (58, 7.07766771316528320312e+00) (59, -2.51592636108398437500e-01) (60, 2.57487565279006958008e-01) (61, 9.70487147569656372070e-02) (62, 5.55362999439239501953e-01) (63, 3.49730777740478515625e+00) (64, 1.10852026939392089844e+00) (65, 5.75458824634552001953e-01) (66, 1.65317669510841369629e-01) (67, 7.42290914058685302734e-01) (68, -8.26877176761627197266e-01) (69, 1.93637236952781677246e-01) (70, -6.24138295650482177734e-01) (71, 8.60735774040222167969e-01) (72, -3.36134493350982666016e-01) (73, 5.29910981655120849609e-01) (74, -5.61347067356109619141e-01) (75, -1.24356091022491455078e-01) (76, 1.14148032665252685547e+00) (77, 1.16051077842712402344e+00) (78, 1.11457026004791259766e+00) (79, -2.25625753402709960938e+00) (80, 1.16638764739036560059e-01) (81, 2.85885065793991088867e-01) (82, -8.27121376991271972656e-01) (83, 3.97279113531112670898e-02) (84, 2.10474535822868347168e-01) (85, 1.37001797556877136230e-01) (86, 1.33433532714843750000e+00) (87, 9.52546596527099609375e-01) (88, 1.12058508396148681641e+00) (89, 4.86785858869552612305e-01) (90, 5.55633187294006347656e-01) (91, 5.28022825717926025391e-01) (92, 7.14183002710342407227e-02) (93, -2.70245343446731567383e-01) (94, 1.19268858432769775391e+00) (95, 1.21314811706542968750e+00) (96, -7.14129066467285156250e+00) (97, 2.20422729849815368652e-01) (98, 2.32770517468452453613e-01) (99, 4.69488054513931274414e-01) (100, 3.94387632608413696289e-01) (101, -2.74216860532760620117e-01) (102, 1.60486710071563720703e+00) (103, 6.34363710880279541016e-01) (104, 1.62056922912597656250e+00) (0, -2.04195709228515625000e+01) (1, 8.34556102752685546875e+00) (2, -1.21207371354103088379e-01) (3, -2.88377523422241210938e-01) (4, 8.14560651779174804688e-01) (5, -7.11305797100067138672e-01) (6, 1.61027622222900390625e+00) (7, -1.55884313583374023438e+00) (8, 1.32413744926452636719e+00) (9, 5.60848891735076904297e-01) (10, -1.07506299018859863281e+00) (11, -1.54761388897895812988e-01) (12, 1.94894051551818847656e+00) (13, -6.99500942230224609375e+00) (14, 1.76704311370849609375e+00) (15, 2.84930109977722167969e-01) (16, -2.34361004829406738281e+00) (17, 4.54338788986206054688e-01) (18, 3.42230868339538574219e+00) (19, -4.12716567516326904297e-01) (20, 3.30008649826049804688e+00) (21, 2.78727769851684570312e+00) (22, 2.99861639738082885742e-01) (23, -6.78804457187652587891e-01) (24, 8.26594638824462890625e+00) (25, -1.84991979598999023438e+00) (26, -3.71437817811965942383e-01) (27, 6.70617246627807617188e+00) (28, -2.57196950912475585938e+00) (29, -1.33949786424636840820e-01) (30, 1.07902133464813232422e+00) (31, 9.15324017405509948730e-02) (32, 2.16595220565795898438e+00) (33, -2.31728911399841308594e+00) (34, 1.58891522884368896484e+00) (35, -4.90392589569091796875e+00) (36, -3.40753173828125000000e+00) (37, -1.64872467517852783203e+00) (38, -4.99341636896133422852e-01) (39, -1.55821835994720458984e+00) (40, -4.33579057455062866211e-01) (41, 1.65814971923828125000e+00) (42, 1.60590338706970214844e+00) (43, -7.99806058406829833984e-01) (44, 1.89957714080810546875e+00) (45, 2.48993349075317382812e+00) (46, 1.42937672138214111328e+00) (47, 3.03266704082489013672e-01) (48, 4.89917421340942382812e+00) (49, 8.73873138427734375000e+00) (50, 1.82855510711669921875e+00) (51, 2.23152422904968261719e+00) (52, -7.92882561683654785156e-01) (53, -3.50757551193237304688e+00) (54, -4.27663421630859375000e+00) (55, 3.02652835845947265625e+00) (56, -1.77741851657629013062e-02) (57, 4.86928671598434448242e-02) (58, 4.33011960983276367188e+00) (59, -6.53670966625213623047e-01) (60, 3.27959752082824707031e+00) (61, 2.07359910011291503906e+00) (62, 2.80649495124816894531e+00) (63, 2.95639610290527343750e+00) (64, 1.29017269611358642578e+00) (65, -2.82989069819450378418e-02) (66, 1.29366505146026611328e+00) (67, 1.47484242916107177734e+00) (68, -3.07391751557588577271e-02) (69, 1.69927984476089477539e-01) (70, -3.09581700712442398071e-02) (71, 4.30254876613616943359e-01) (72, 8.09445858001708984375e-01) (73, -1.03467798233032226562e+00) (74, 8.39427828788757324219e-01) (75, -1.68807342648506164551e-01) (76, -3.09595704078674316406e-01) (77, 9.72004532814025878906e-02) (78, -2.44446471333503723145e-03) (79, -1.50812947750091552734e+00) (80, -1.30306631326675415039e-01) (81, 4.86681703478097915649e-03) (82, -6.73687160015106201172e-02) (83, 6.30621671676635742188e-01) (84, 7.31863498687744140625e-01) (85, 2.04514861106872558594e-02) (86, 8.69150236248970031738e-02) (87, -2.47406214475631713867e-01) (88, 4.47129085659980773926e-02) (89, 8.58874022960662841797e-02) (90, 6.34343996644020080566e-02) (91, 9.87645834684371948242e-02) (92, -2.79781877994537353516e-01) (93, 2.83393919467926025391e-01) (94, 7.88356214761734008789e-02) (95, 1.26878535747528076172e+00) (96, -7.68975639343261718750e+00) (97, 2.96005308628082275391e-01) (98, 6.73157513141632080078e-01) (99, 2.35438615083694458008e-01) (100, 8.69014337658882141113e-02) (101, -1.44378423690795898438e-01) (102, 4.34538841247558593750e+00) (103, -1.14830613136291503906e+00) (104, 1.79756844043731689453e+00) (0, -2.45915470123291015625e+01) (1, 5.39545679092407226562e+00) (2, 5.21740168333053588867e-02) (3, 5.78345119953155517578e-01) (4, -6.61168694496154785156e-02) (5, 2.75870728492736816406e+00) (6, -2.34603255987167358398e-01) (7, -2.46876463294029235840e-01) (8, 1.02078151702880859375e+00) (9, -1.40349340438842773438e+00) (10, 1.28710544109344482422e+00) (11, -5.09147834777832031250e+00) (12, -2.00491237640380859375e+00) (13, -6.93644762039184570312e+00) (14, 1.15648877620697021484e+00) (15, 1.68293821811676025391e+00) (16, -8.91356050968170166016e-01) (17, 3.34790873527526855469e+00) (18, -4.56211119890213012695e-01) (19, 2.18331980705261230469e+00) (20, 4.11976003646850585938e+00) (21, 8.73749494552612304688e-01) (22, -1.13946604728698730469e+00) (23, -5.66893863677978515625e+00) (24, 2.22004890441894531250e+00) (25, 1.14955568313598632812e+00) (26, -5.29541635513305664062e+00) (27, 5.20828914642333984375e+00) (28, 1.67878711223602294922e+00) (29, -2.63640075922012329102e-01) (30, 1.81600284576416015625e+00) (31, 9.74238157272338867188e-01) (32, 2.62226533889770507812e+00) (33, -2.56187707185745239258e-01) (34, 1.22434520721435546875e+00) (35, -1.82104194164276123047e+00) (36, 1.60837745666503906250e+00) (37, 9.54067230224609375000e-01) (38, 2.17733114957809448242e-01) (39, -1.54673027992248535156e+00) (40, -1.43382096290588378906e+00) (41, 6.34149503707885742188e+00) (42, 3.25479730963706970215e-02) (43, 1.34087756276130676270e-01) (44, 1.44435954093933105469e+00) (45, 2.61899137496948242188e+00) (46, -2.17476293444633483887e-01) (47, 1.43104302883148193359e+00) (48, -1.26347184181213378906e+00) (49, 5.11292517185211181641e-01) (50, -2.98537015914916992188e+00) (51, 6.75021827220916748047e-01) (52, -8.67970466613769531250e-01) (53, 3.29597496986389160156e+00) (54, -3.90807676315307617188e+00) (55, 2.53577733039855957031e+00) (56, -1.35096657276153564453e+00) (57, 6.23787581920623779297e-01) (58, 3.42368340492248535156e+00) (59, 2.07721090316772460938e+00) (60, 1.96107387542724609375e+00) (61, 5.77910304069519042969e-01) (62, 3.12261986732482910156e+00) (63, 4.62106418609619140625e+00) (64, 3.33026790618896484375e+00) (65, 4.23792243003845214844e-01) (66, 1.18439757823944091797e+00) (67, 5.26121735572814941406e-01) (68, -1.07749350368976593018e-01) (69, -4.22603487968444824219e-02) (70, 1.82652628421783447266e+00) (71, 4.26193892955780029297e-01) (72, 1.84112823009490966797e+00) (73, -8.81654977798461914062e-01) (74, 1.18936300277709960938e+00) (75, 4.12811458110809326172e-01) (76, 3.66568148136138916016e-01) (77, 6.93968012928962707520e-02) (78, 1.36421084403991699219e+00) (79, 7.97947347164154052734e-01) (80, -1.48385196924209594727e-01) (81, -1.11832812428474426270e-01) (82, 9.48979616165161132812e-01) (83, 3.21449816226959228516e-01) (84, 1.45125603675842285156e+00) (85, 4.28258299827575683594e-01) (86, 3.93344700336456298828e-01) (87, 5.34139424562454223633e-02) (88, -5.18865585327148437500e-01) (89, 6.14646300673484802246e-02) (90, 3.42217922210693359375e-01) (91, 1.67705714702606201172e-01) (92, -3.57257425785064697266e-01) (93, 6.43581971526145935059e-02) (94, 3.13603878021240234375e-01) (95, 4.59091842174530029297e-01) (96, -7.40571069717407226562e+00) (97, 1.77371442317962646484e-01) (98, 1.32334673404693603516e+00) (99, 4.59882080554962158203e-01) (100, 4.18924987316131591797e-01) (101, -3.95502373576164245605e-02) (102, 4.61480808258056640625e+00) (103, -1.61537003517150878906e+00) (104, 1.47576022148132324219e+00) (0, 2.06195116043090820312e+00) (1, 3.14059764146804809570e-01) (2, -1.51785820722579956055e-01) (3, 2.32063576579093933105e-01) (4, -4.06007647514343261719e-01) (5, -4.81483131647109985352e-01) (6, -3.63683283329010009766e-01) (7, 1.63991951942443847656e+00) (8, -8.60224068164825439453e-02) (9, 1.29198002815246582031e+00) (10, 2.05622181296348571777e-01) (11, -1.99373781681060791016e-01) (12, 4.44631045684218406677e-03) (13, -9.57782626152038574219e-01) (14, 1.41247853636741638184e-01) (15, -5.77845051884651184082e-02) (16, -3.68560492992401123047e-01) (17, 8.41829106211662292480e-02) (18, 8.04048955440521240234e-01) (19, 1.57434508204460144043e-01) (20, 1.44578933715820312500e+00) (21, 4.03842002153396606445e-01) (22, 5.30518352985382080078e-01) (23, 7.59710252285003662109e-01) (24, -1.32850855588912963867e-02) (25, 7.44910180568695068359e-01) (26, -3.75998914241790771484e-01) (27, -2.51146435737609863281e-01) (28, 4.71422523260116577148e-01) (29, -6.48711323738098144531e-02) (30, 1.33348867297172546387e-01) (31, -6.47738933563232421875e-01) (32, -7.20475465059280395508e-02) (33, -8.04042339324951171875e-01) (34, -3.96275341510772705078e-01) (35, -3.55830416083335876465e-02) (36, -8.12113106250762939453e-01) (37, -5.51554501056671142578e-01) (38, -6.74707472324371337891e-01) (39, -7.50501394271850585938e-01) (40, -6.72250747680664062500e-01) (41, 5.36339402198791503906e-01) (42, 1.10268783569335937500e+00) (43, 9.65545475482940673828e-01) (44, 1.40142515301704406738e-01) (45, -4.78372454643249511719e-01) (46, -4.39133673906326293945e-01) (47, -2.00379228591918945312e+00) (48, -2.07323268055915832520e-01) (49, -7.90582776069641113281e-01) (50, -7.78552055358886718750e-01) (51, 1.60884246230125427246e-01) (52, -3.13827276229858398438e-01) (53, 6.74193263053894042969e-01) (54, 1.27824425697326660156e+00) (55, -3.79333525896072387695e-01) (56, 6.90007150173187255859e-01) (57, 6.88463270664215087891e-01) (58, -5.35179674625396728516e-01) (59, -5.81087946891784667969e-01) (60, 7.95360803604125976562e-01) (61, 9.68578100204467773438e-01) (62, -1.31508484482765197754e-01) (63, 2.21835523843765258789e-01) (64, 6.92625939846038818359e-01) (65, -2.92767167091369628906e-01) (66, 1.97271361947059631348e-01) (67, -1.13487064838409423828e-01) (68, 3.08899521827697753906e-01) (69, 2.10640773177146911621e-01) (70, 1.70311018824577331543e-01) (71, -3.73882383108139038086e-01) (72, -2.60807871818542480469e-01) (73, 6.56429827213287353516e-02) (74, -2.20811650156974792480e-01) (75, -4.31810691952705383301e-03) (76, 4.18793708086013793945e-01) (77, -3.06458652019500732422e-01) (78, 7.32709825038909912109e-01) (79, -1.10543811321258544922e+00) (80, 9.78713452816009521484e-01) (81, -2.52414822578430175781e-01) (82, -3.97503137588500976562e-01) (83, -5.18509864807128906250e-01) (84, 1.05353027582168579102e-01) (85, 7.21181511878967285156e-01) (86, 3.18117618560791015625e-01) (87, 1.25646793842315673828e+00) (88, -5.28254687786102294922e-01) (89, -7.70823597908020019531e-01) (90, 1.03759634494781494141e+00) (91, -8.27690541744232177734e-01) (92, -2.04254299402236938477e-01) (93, 1.33970156311988830566e-01) (94, 3.04429531097412109375e-01) (95, -7.53244996070861816406e-01) (96, 6.70405209064483642578e-01) (97, -6.18104696273803710938e-01) (98, -9.57702815532684326172e-01) (99, 3.77919226884841918945e-02) (100, 2.31908410787582397461e-01) (101, -4.77327316999435424805e-01) (102, 1.07058286666870117188e+00) (103, 1.11087417602539062500e+00) (104, 1.56060039997100830078e+00) (0, -1.21923923492431640625e+01) (1, 3.07850897312164306641e-01) (2, -3.21860201656818389893e-02) (3, 7.27120280265808105469e-01) (4, 1.28323182463645935059e-01) (5, -3.60588654875755310059e-02) (6, -2.42066606879234313965e-01) (7, 4.32223439216613769531e-01) (8, 2.72815376520156860352e-01) (9, 2.78292685747146606445e-01) (10, -1.86090141534805297852e-01) (11, 1.17432899773120880127e-01) (12, 2.15607777237892150879e-01) (13, -3.79259634017944335938e+00) (14, -2.64094918966293334961e-02) (15, 5.58324694633483886719e-01) (16, 2.44887158274650573730e-01) (17, 2.27232173085212707520e-01) (18, 6.14404737949371337891e-01) (19, 5.74925303459167480469e-01) (20, -3.52052032947540283203e-01) (21, 2.68486533313989639282e-02) (22, 9.73583161830902099609e-02) (23, 4.11574929952621459961e-01) (24, -1.01240016520023345947e-01) (25, -3.29374104738235473633e-01) (26, 3.74372005462646484375e-02) (27, 5.35651206970214843750e-01) (28, 3.17486077547073364258e-01) (29, 1.23586535453796386719e-01) (30, 8.56737017631530761719e-01) (31, -2.11948499083518981934e-01) (32, 5.69033741950988769531e-01) (33, -5.81796616315841674805e-02) (34, 4.30164146423339843750e+00) (35, -3.76256918907165527344e+00) (36, 3.22548598051071166992e-02) (37, -8.59590828418731689453e-01) (38, 5.60093998908996582031e-01) (39, 1.09285796061158180237e-02) (40, 4.89821761846542358398e-01) (41, 8.62412393093109130859e-01) (42, -2.10473090410232543945e-01) (43, 2.09501281380653381348e-01) (44, 5.25830805301666259766e-01) (45, 2.96106666326522827148e-01) (46, 3.22709754109382629395e-02) (47, 1.07382464408874511719e+00) (48, -1.56333982944488525391e-01) (49, -5.80990493297576904297e-01) (50, 1.10340499877929687500e+00) (51, -1.92946314811706542969e-01) (52, 3.20277899503707885742e-01) (53, -2.54803681373596191406e+00) (54, -4.12777614593505859375e+00) (55, -2.51967191696166992188e+00) (56, 7.36805617809295654297e-01) (57, 2.02559494972229003906e+00) (58, 2.44693249464035034180e-01) (59, 3.93049550056457519531e+00) (60, 1.66126990318298339844e+00) (61, 1.67266833782196044922e+00) (62, 2.72298485040664672852e-01) (63, 1.54606270790100097656e+00) (64, 1.17904984951019287109e+00) (65, 5.08113682270050048828e-01) (66, 1.30620956420898437500e+00) (67, 9.82982099056243896484e-01) (68, 5.82017838954925537109e-01) (69, 3.68881869316101074219e+00) (70, 1.66737568378448486328e+00) (71, -2.15795844793319702148e-01) (72, 3.92207354307174682617e-01) (73, -8.37475836277008056641e-01) (74, 4.55065876245498657227e-01) (75, 5.70346784591674804688e+00) (76, 1.28699219226837158203e+00) (77, 5.15060424804687500000e-01) (78, 6.82197630405426025391e-01) (79, -1.68696916103363037109e+00) (80, -2.89291329681873321533e-03) (81, 2.25561618804931640625e+00) (82, 1.48906147480010986328e+00) (83, -9.43807125091552734375e-01) (84, 3.55671906471252441406e+00) (85, 1.82455494999885559082e-01) (86, 5.04992723464965820312e-01) (87, 2.05271616578102111816e-01) (88, 7.72961997985839843750e+00) (89, 2.56526017189025878906e+00) (90, 8.46600115299224853516e-01) (91, 3.69702982902526855469e+00) (92, 2.86410045623779296875e+00) (93, 6.37482881546020507812e-01) (94, 6.04013442993164062500e-01) (95, 5.52715301513671875000e+00) (96, -6.96686124801635742188e+00) (97, -7.03384017944335937500e+00) (98, 1.06238389015197753906e+00) (99, 1.11051574349403381348e-01) (100, 1.62034118175506591797e+00) (101, 6.06472015380859375000e-01) (102, -2.01454186439514160156e+00) (103, 6.58464908599853515625e+00) (104, 1.31111168861389160156e+00) (0, -1.49366426467895507812e+01) (1, -2.12823059409856796265e-02) (2, 5.84811866283416748047e-01) (3, -1.24816656112670898438e-01) (4, 5.80274105072021484375e-01) (5, 5.39595723152160644531e-01) (6, 2.88264274597167968750e-01) (7, 7.08799390122294425964e-03) (8, -6.24942588806152343750e+00) (9, -2.53404658287763595581e-02) (10, 6.36386638507246971130e-03) (11, 6.15998268127441406250e-01) (12, -3.30513641238212585449e-02) (13, 1.85388565063476562500e+00) (14, 1.75918340682983398438e-02) (15, 1.34413361549377441406e+00) (16, 2.62215286493301391602e-01) (17, 9.60349440574645996094e-01) (18, 3.95030140876770019531e-01) (19, 9.55267548561096191406e-01) (20, 7.53236532211303710938e-01) (21, 1.00099191069602966309e-01) (22, 1.19354546070098876953e+00) (23, 1.09159040451049804688e+00) (24, 1.16061830520629882812e+00) (25, 1.32449066638946533203e+00) (26, 6.02136433124542236328e-01) (27, 3.84569048881530761719e-01) (28, 1.13963019847869873047e+00) (29, 9.38740372657775878906e-01) (30, 1.14698266983032226562e+00) (31, 3.15048933029174804688e-01) (32, 1.28323864936828613281e+00) (33, 1.12289988994598388672e+00) (34, -7.81897902488708496094e-01) (35, -3.38214492797851562500e+00) (36, 7.41771101951599121094e-01) (37, 5.12250125408172607422e-01) (38, 2.46257603168487548828e-01) (39, 1.59751808643341064453e+00) (40, 1.38189816474914550781e+00) (41, -2.16018867492675781250e+00) (42, 1.25364911556243896484e+00) (43, 1.60990759730339050293e-01) (44, -6.60704523324966430664e-02) (45, 5.25035858154296875000e-01) (46, 2.31232786178588867188e+00) (47, 9.01356041431427001953e-02) (48, 3.00952568650245666504e-02) (49, -7.29456007480621337891e-01) (50, 8.23359072208404541016e-01) (51, 5.49402534961700439453e-01) (52, 1.14704048633575439453e+00) (53, 1.20941269397735595703e+00) (54, -4.15813779830932617188e+00) (55, 6.02342188358306884766e-01) (56, 8.67771685123443603516e-01) (57, -4.01034975051879882812e+00) (58, 2.90757715702056884766e-01) (59, 2.35447382926940917969e+00) (60, 7.03741073608398437500e-01) (61, 6.46719157695770263672e-01) (62, 5.91940164566040039062e-01) (63, 1.59940719604492187500e+00) (64, -6.36360263824462890625e+00) (65, 2.59662806987762451172e-01) (66, 2.35215139389038085938e+00) (67, 8.03427577018737792969e-01) (68, -6.90389005467295646667e-03) (69, 4.70316600799560546875e+00) (70, -1.97348713874816894531e-01) (71, 1.22663331031799316406e+00) (72, -5.39120249450206756592e-02) (73, 1.88307785987854003906e+00) (74, 1.17684215307235717773e-01) (75, 6.72548174858093261719e-01) (76, 7.63119339942932128906e-01) (77, 5.76290011405944824219e-01) (78, 8.30243396759033203125e+00) (79, 2.96891832351684570312e+00) (80, 5.68841457366943359375e-01) (81, -5.26440191268920898438e+00) (82, -4.13944303989410400391e-01) (83, -4.04249763488769531250e+00) (84, 3.62495589256286621094e+00) (85, 1.33364403247833251953e+00) (86, 6.69663250446319580078e-01) (87, -1.51404514908790588379e-01) (88, 5.32848715782165527344e-01) (89, 1.22276163101196289062e+00) (90, 3.45847320556640625000e+00) (91, -2.44827270507812500000e+00) (92, 3.99777460098266601562e+00) (93, 2.25127674639225006104e-02) (94, 5.85851550102233886719e-01) (95, 3.80786478519439697266e-01) (96, -7.06629943847656250000e+00) (97, 2.17520284652709960938e+00) (98, 1.08140683174133300781e+00) (99, 1.23315238952636718750e+00) (100, 5.12504279613494873047e-01) (101, 2.03388357162475585938e+00) (102, -4.73883771896362304688e+00) (103, 9.18517684936523437500e+00) (104, 1.21044516563415527344e+00) (0, 4.26536521911621093750e+01) (1, 1.32813048362731933594e+00) (2, 1.43371379375457763672e+00) (3, -3.10398554801940917969e+00) (4, 1.57197511196136474609e+00) (5, 1.41080892086029052734e+00) (6, 1.34703648090362548828e+00) (7, 1.38040435314178466797e+00) (8, -1.20318067073822021484e+00) (9, 1.34715747833251953125e+00) (10, 1.44646012783050537109e+00) (11, 1.81665384769439697266e+00) (12, 1.21344208717346191406e+00) (13, 1.74970269203186035156e+00) (14, 1.49218094348907470703e+00) (15, 1.93467688560485839844e+00) (16, 1.46360790729522705078e+00) (17, 1.31986057758331298828e+00) (18, 1.70283842086791992188e+00) (19, 1.61315166950225830078e+00) (20, 1.16542649269104003906e+00) (21, 1.30372023582458496094e+00) (22, 7.02625751495361328125e-01) (23, 1.37557280063629150391e+00) (24, 1.29974722862243652344e+00) (25, 1.37180101871490478516e+00) (26, 1.59489297866821289062e+00) (27, 1.65202629566192626953e+00) (28, 1.48319911956787109375e+00) (29, 1.34999942779541015625e+00) (30, 1.63525021076202392578e+00) (31, 1.38892781734466552734e+00) (32, 1.17608976364135742188e+00) (33, 1.35086357593536376953e+00) (34, 1.52549159526824951172e+00) (35, -2.30179286003112792969e+00) (36, 1.63733887672424316406e+00) (37, 4.83091682195663452148e-01) (38, 1.04883623123168945312e+00) (39, 9.71855461597442626953e-01) (40, 1.03531825542449951172e+00) (41, 1.49406659603118896484e+00) (42, 6.12727344036102294922e-01) (43, 1.45485818386077880859e+00) (44, 1.33782553672790527344e+00) (45, 1.87867689132690429688e+00) (46, 1.11746692657470703125e+00) (47, 1.53178596496582031250e+00) (48, 1.27067291736602783203e+00) (49, 3.24718475341796875000e-01) (50, 1.20385456085205078125e+00) (51, 1.22015058994293212891e+00) (52, 1.42756497859954833984e+00) (53, 1.65607392787933349609e+00) (54, -2.50036382675170898438e+00) (55, 1.98345625400543212891e+00) (56, 1.27172529697418212891e+00) (57, 1.84765648841857910156e+00) (58, 8.37148725986480712891e-01) (59, -2.10211849212646484375e+00) (60, 1.59223949909210205078e+00) (61, -2.14732074737548828125e+00) (62, 1.32308089733123779297e+00) (63, 1.70706152915954589844e+00) (64, 1.34150087833404541016e+00) (65, 1.64859330654144287109e+00) (66, 7.55385339260101318359e-01) (67, 1.26195323467254638672e+00) (68, 1.29657363891601562500e+00) (69, 1.74909687042236328125e+00) (70, 1.21250212192535400391e+00) (71, 9.17811930179595947266e-01) (72, 1.49381041526794433594e+00) (73, 1.93201529979705810547e+00) (74, 1.22833240032196044922e+00) (75, 1.14098906517028808594e+00) (76, 1.58802783489227294922e+00) (77, 1.36807286739349365234e+00) (78, 1.39990735054016113281e+00) (79, 1.61055839061737060547e+00) (80, -2.08474578857421875000e+01) (81, 1.64958858489990234375e+00) (82, 1.65357756614685058594e+00) (83, 1.48812007904052734375e+00) (84, 1.72255170345306396484e+00) (85, -1.65140190124511718750e+01) (86, 1.53729856014251708984e+00) (87, 8.24609458446502685547e-01) (88, 1.00580990314483642578e+00) (89, 9.79451715946197509766e-01) (90, 1.85656750202178955078e+00) (91, 1.80335509777069091797e+00) (92, 6.74011051654815673828e-01) (93, 1.18948304653167724609e+00) (94, 1.24500179290771484375e+00) (95, 1.39094305038452148438e+00) (96, -6.38690471649169921875e+00) (97, 1.41946399211883544922e+00) (98, 1.55249130725860595703e+00) (99, 1.27773237228393554688e+00) (100, 1.21866297721862792969e+00) (101, 1.25339543819427490234e+00) (102, -1.11220228672027587891e+00) (103, 4.47813701629638671875e+00) (104, 3.27091097831726074219e-01) (0, 5.17142524719238281250e+01) (1, 1.60707581043243408203e+00) (2, 1.44470298290252685547e+00) (3, -5.91635084152221679688e+00) (4, 1.47162258625030517578e+00) (5, 1.26651096343994140625e+00) (6, 1.68801462650299072266e+00) (7, 1.65125095844268798828e+00) (8, -4.48485298156738281250e+01) (9, 1.37425255775451660156e+00) (10, 1.81616032123565673828e+00) (11, 1.81636357307434082031e+00) (12, 1.89018487930297851562e+00) (13, 1.72319185733795166016e+00) (14, 1.84951043128967285156e+00) (15, 1.97327446937561035156e+00) (16, 1.39566385746002197266e+00) (17, 1.10041999816894531250e+00) (18, 1.25836360454559326172e+00) (19, 8.03269982337951660156e-01) (20, -4.28036994934082031250e+01) (21, 2.40025258064270019531e+00) (22, 1.67703557014465332031e+00) (23, 1.16623592376708984375e+00) (24, 2.80588359832763671875e+01) (25, 1.94084489345550537109e+00) (26, 1.22709047794342041016e+00) (27, 1.45490205287933349609e+00) (28, 1.16869878768920898438e+00) (29, 1.16258275508880615234e+00) (30, 1.59086740016937255859e+00) (31, 1.75430679321289062500e+00) (32, 1.50809848308563232422e+00) (33, 1.44115018844604492188e+00) (34, 8.38505446910858154297e-01) (35, 8.31579971313476562500e+00) (36, 1.32184958457946777344e+00) (37, 2.56802630424499511719e+00) (38, 1.15612316131591796875e+00) (39, 9.58326160907745361328e-01) (40, 1.21033132076263427734e+00) (41, 1.72476840019226074219e+00) (42, 1.43861794471740722656e+00) (43, 2.22061133384704589844e+00) (44, 1.41401255130767822266e+00) (45, 2.02224826812744140625e+00) (46, 1.52232325077056884766e+00) (47, 1.85321867465972900391e+00) (48, 1.63367962837219238281e+00) (49, 6.20919752120971679688e+00) (50, 1.04877686500549316406e+00) (51, 1.17459154129028320312e+00) (52, 1.55102729797363281250e+00) (53, 1.22492396831512451172e+00) (54, 8.40108299255371093750e+00) (55, 1.77031791210174560547e+00) (56, 1.16530001163482666016e+00) (57, 1.80685532093048095703e+00) (58, 1.62867379188537597656e+00) (59, -1.31685292720794677734e+00) (60, 8.82470786571502685547e-01) (61, -1.71469545364379882812e+00) (62, 1.85149514675140380859e+00) (63, 1.08663606643676757812e+00) (64, 9.21175062656402587891e-01) (65, 1.06131458282470703125e+00) (66, 8.39302003383636474609e-01) (67, 1.80063283443450927734e+00) (68, 1.69651138782501220703e+00) (69, 1.60109746456146240234e+00) (70, 1.32262980937957763672e+00) (71, 1.20202207565307617188e+00) (72, 1.34556925296783447266e+00) (73, 2.25841975212097167969e+00) (74, 1.74850034713745117188e+00) (75, 1.75595831871032714844e+00) (76, 2.11188292503356933594e+00) (77, 1.36540389060974121094e+00) (78, 2.12402081489562988281e+00) (79, 1.05786097049713134766e+00) (80, -1.77811584472656250000e+01) (81, 1.44696164131164550781e+00) (82, 1.68522608280181884766e+00) (83, 1.84002590179443359375e+00) (84, 1.96450793743133544922e+00) (85, -1.58848400115966796875e+01) (86, 1.08879256248474121094e+00) (87, 1.49172961711883544922e+00) (88, 8.77474486827850341797e-01) (89, 1.15908646583557128906e+00) (90, 1.60608327388763427734e+00) (91, 1.84855365753173828125e+00) (92, 1.58995318412780761719e+00) (93, 1.48976004123687744141e+00) (94, 1.20092594623565673828e+00) (95, 1.43878102302551269531e+00) (96, 1.16605691909790039062e+01) (97, 1.69872760772705078125e+00) (98, 7.10319817066192626953e-01) (99, 1.34653508663177490234e+00) (100, 1.15450727939605712891e+00) (101, 2.21073555946350097656e+00) (102, 8.99921188354492187500e+01) (103, -6.29194145202636718750e+01) (104, 7.30344831943511962891e-01) (0, -8.01815271377563476562e-01) (1, 6.60075485706329345703e-01) (2, -1.37729391455650329590e-01) (3, 8.29028666019439697266e-01) (4, 1.06047165393829345703e+00) (5, 1.46038746833801269531e+00) (6, 3.10259252786636352539e-01) (7, 4.09627735614776611328e-01) (8, -2.78280079364776611328e-01) (9, -7.73231744766235351562e-01) (10, -6.25029504299163818359e-02) (11, -1.93759724497795104980e-01) (12, -2.29236394166946411133e-01) (13, -1.16474080085754394531e+00) (14, -5.56489646434783935547e-01) (15, -3.91584455966949462891e-01) (16, 4.64014530181884765625e-01) (17, -3.47145318984985351562e-01) (18, 4.75886881351470947266e-01) (19, -9.70359668135643005371e-02) (20, 5.21766364574432373047e-01) (21, -7.21174120903015136719e-01) (22, 1.24668702483177185059e-01) (23, 6.99361324310302734375e-01) (24, 3.98786038160324096680e-01) (25, -2.37282529473304748535e-01) (26, 9.81733143329620361328e-01) (27, 5.83072900772094726562e-01) (28, -3.77551794052124023438e-01) (29, 6.63658320903778076172e-01) (30, -8.50660622119903564453e-01) (31, 5.26301741600036621094e-01) (32, 6.14215910434722900391e-01) (33, 1.00396178662776947021e-01) (34, 1.45267844200134277344e-01) (35, 2.90788382291793823242e-01) (36, 9.33882594108581542969e-01) (37, -6.96301341056823730469e-01) (38, 3.25382590293884277344e-01) (39, 1.81190788745880126953e-01) (40, -3.46452206373214721680e-01) (41, -5.72659373283386230469e-01) (42, 8.30327212810516357422e-01) (43, -4.75698769092559814453e-01) (44, -4.57386374473571777344e-02) (45, -5.95050692558288574219e-01) (46, 6.65886104106903076172e-01) (47, 3.23370516300201416016e-01) (48, -7.34266340732574462891e-01) (49, 6.80223762989044189453e-01) (50, 2.58955597877502441406e-01) (51, 3.81351202726364135742e-01) (52, -2.96646982431411743164e-01) (53, 1.46932601928710937500e-01) (54, 1.04136836528778076172e+00) (55, 4.11669015884399414062e-01) (56, 6.16391241550445556641e-01) (57, -3.30836623907089233398e-01) (58, -4.37674164772033691406e-01) (59, -2.57559061050415039062e-01) (60, 1.20461702346801757812e+00) (61, 3.47590684890747070312e-01) (62, -9.31214928627014160156e-01) (63, 9.04130220413208007812e-01) (64, 4.91733988747000694275e-03) (65, 9.36599195003509521484e-01) (66, 3.18855941295623779297e-01) (67, -1.94166684150695800781e+00) (68, -5.53215444087982177734e-01) (69, 3.60160380601882934570e-01) (70, -9.69096198678016662598e-02) (71, -4.24048677086830139160e-02) (72, 2.90535032749176025391e-01) (73, 1.12031769752502441406e+00) (74, 4.54648852348327636719e-01) (75, 4.43564832210540771484e-01) (76, -7.57965564727783203125e-01) (77, 1.30274802446365356445e-01) (78, -9.00102734565734863281e-01) (79, 6.83301687240600585938e-01) (80, 6.40312492847442626953e-01) (81, -3.56354176998138427734e-01) (82, -1.58902376890182495117e-01) (83, -3.08115184307098388672e-01) (84, -7.18079626560211181641e-01) (85, -3.46679575741291046143e-02) (86, 2.67798423767089843750e-01) (87, -6.26597583293914794922e-01) (88, 2.95570850372314453125e-01) (89, 5.32447040081024169922e-01) (90, -4.42487031221389770508e-01) (91, 1.15252494812011718750e+00) (92, -1.87650352716445922852e-01) (93, 1.74868881702423095703e-01) (94, 9.81026142835617065430e-03) (95, -3.33206266164779663086e-01) (96, -2.20236569643020629883e-01) (97, -4.82242763042449951172e-01) (98, 5.22161006927490234375e-01) (99, 4.15394663810729980469e-01) (100, 3.11906021088361740112e-02) (101, -1.75756394863128662109e-01) (102, -1.05127453804016113281e+00) (103, 3.10403776168823242188e+00) (104, 2.07976365089416503906e+00) (0, -2.33756504058837890625e+01) (1, 6.90084278583526611328e-01) (2, 6.19292259216308593750e-01) (3, 1.76606491208076477051e-01) (4, 1.29978573322296142578e+00) (5, 8.09589266777038574219e-01) (6, 3.15468621253967285156e+00) (7, 2.59264409542083740234e-01) (8, 1.78818330168724060059e-01) (9, 7.09981381893157958984e-01) (10, -3.31533491611480712891e-01) (11, -8.35079997777938842773e-02) (12, -9.97286736965179443359e-02) (13, 8.75755429267883300781e-01) (14, 1.57410657405853271484e+00) (15, 8.67963358759880065918e-02) (16, 1.71351277828216552734e+00) (17, 1.96571692824363708496e-01) (18, -2.77583360671997070312e-01) (19, 1.61749446392059326172e+00) (20, 1.42866837978363037109e+00) (21, 1.67069125175476074219e+00) (22, 2.37503337860107421875e+00) (23, 8.83909523487091064453e-01) (24, -2.33397468924522399902e-01) (25, 1.58212855458259582520e-01) (26, 1.15084004402160644531e+00) (27, 5.24007081985473632812e-01) (28, -3.89106363058090209961e-01) (29, -2.96050995588302612305e-01) (30, 1.04752480983734130859e+00) (31, 3.30280601978302001953e-01) (32, -5.75125105679035186768e-02) (33, -1.28642216324806213379e-01) (34, 2.83556818962097167969e+00) (35, -3.34667921066284179688e+00) (36, 9.20057833194732666016e-01) (37, -6.96350216865539550781e-01) (38, 2.22482070326805114746e-01) (39, 1.64815509319305419922e+00) (40, -9.27726984024047851562e-01) (41, 1.14363753795623779297e+00) (42, -1.87406107783317565918e-01) (43, 5.90054094791412353516e-02) (44, -3.39690223336219787598e-03) (45, -6.69634997844696044922e-01) (46, 3.44618350267410278320e-01) (47, 1.17060649394989013672e+00) (48, 1.50819316506385803223e-01) (49, 2.01215267181396484375e+00) (50, -1.75818383693695068359e-01) (51, -3.04700911045074462891e-01) (52, 1.04400730133056640625e+00) (53, 1.23956069350242614746e-01) (54, -4.81421899795532226562e+00) (55, 5.13282716274261474609e-02) (56, 3.74647706747055053711e-01) (57, -1.87944805622100830078e+00) (58, 1.03061985969543457031e+00) (59, 8.69684398174285888672e-01) (60, 1.43231165409088134766e+00) (61, -2.93047523498535156250e+00) (62, 1.17742354050278663635e-02) (63, 2.13729047775268554688e+00) (64, 7.42424786090850830078e-01) (65, 1.64509546756744384766e+00) (66, 8.79268348217010498047e-01) (67, 8.64072263240814208984e-01) (68, 7.95433878898620605469e-01) (69, 7.08179652690887451172e-01) (70, -2.78467684984207153320e-01) (71, -2.01699659228324890137e-01) (72, 4.22554045915603637695e-01) (73, 2.92962884902954101562e+00) (74, 2.47473672032356262207e-01) (75, -1.42783367633819580078e+00) (76, 1.35346734523773193359e+00) (77, 4.20418828725814819336e-01) (78, -5.06115853786468505859e-01) (79, 3.65035027265548706055e-01) (80, 1.84786283969879150391e+00) (81, 5.15461802482604980469e-01) (82, 8.64831358194351196289e-02) (83, 1.47912096977233886719e+00) (84, -3.91530841588973999023e-01) (85, 2.97953653335571289062e+00) (86, 2.26851686835289001465e-01) (87, 5.35415485501289367676e-02) (88, -1.04352486133575439453e+00) (89, 9.12494137883186340332e-02) (90, -1.13307148218154907227e-01) (91, 7.62696921825408935547e-01) (92, 2.89558559656143188477e-01) (93, -1.05242156982421875000e+00) (94, 1.58831453323364257812e+00) (95, 1.14328718185424804688e+00) (96, -7.19524145126342773438e+00) (97, 1.70642530918121337891e+00) (98, 6.56698524951934814453e-01) (99, 5.77561676502227783203e-01) (100, 1.64371681213378906250e+00) (101, 8.35261046886444091797e-01) (102, -3.08292889595031738281e+00) (103, 7.08719778060913085938e+00) (104, 4.54006075859069824219e-01) (0, 5.45965270996093750000e+01) (1, 1.63316237926483154297e+00) (2, 1.42865538597106933594e+00) (3, -4.50458145141601562500e+00) (4, 1.41362595558166503906e+00) (5, 1.32528638839721679688e+00) (6, 1.68240344524383544922e+00) (7, 1.62409245967864990234e+00) (8, -4.50938529968261718750e+01) (9, 1.69761312007904052734e+00) (10, 1.73902583122253417969e+00) (11, 1.92028558254241943359e+00) (12, 1.76148951053619384766e+00) (13, 1.80256688594818115234e+00) (14, 1.97364115715026855469e+00) (15, 1.87199938297271728516e+00) (16, 1.30468606948852539062e+00) (17, 1.03472781181335449219e+00) (18, 1.20416510105133056641e+00) (19, 8.58903825283050537109e-01) (20, -4.32968711853027343750e+01) (21, 2.34669184684753417969e+00) (22, 1.30231165885925292969e+00) (23, 1.27218616008758544922e+00) (24, 2.80266361236572265625e+01) (25, 2.27081418037414550781e+00) (26, 1.15718317031860351562e+00) (27, 1.44476032257080078125e+00) (28, 1.14651870727539062500e+00) (29, 1.18089306354522705078e+00) (30, 1.57533907890319824219e+00) (31, 1.78422200679779052734e+00) (32, 1.48448729515075683594e+00) (33, 1.35333573818206787109e+00) (34, 7.80454874038696289062e-01) (35, 8.32119655609130859375e+00) (36, 1.36292564868927001953e+00) (37, 1.97187435626983642578e+00) (38, 1.12773752212524414062e+00) (39, 1.00877583026885986328e+00) (40, 1.22516238689422607422e+00) (41, 1.66362392902374267578e+00) (42, 1.49691343307495117188e+00) (43, 2.11489105224609375000e+00) (44, 1.33503842353820800781e+00) (45, 1.88211596012115478516e+00) (46, 1.61961758136749267578e+00) (47, 1.73622560501098632812e+00) (48, 1.80217552185058593750e+00) (49, 6.93223047256469726562e+00) (50, 1.80084598064422607422e+00) (51, 1.78425264358520507812e+00) (52, 1.55601084232330322266e+00) (53, 1.30301964282989501953e+00) (54, 8.51981449127197265625e+00) (55, 1.91129124164581298828e+00) (56, 1.09167540073394775391e+00) (57, 1.76875674724578857422e+00) (58, 1.56762516498565673828e+00) (59, -1.71299624443054199219e+00) (60, 9.07954990863800048828e-01) (61, -2.16843271255493164062e+00) (62, 1.83282709121704101562e+00) (63, 1.09195172786712646484e+00) (64, 1.00539505481719970703e+00) (65, 1.19241869449615478516e+00) (66, 1.27480900287628173828e+00) (67, 1.67500293254852294922e+00) (68, 1.85759651660919189453e+00) (69, 2.41155433654785156250e+00) (70, 1.38911759853363037109e+00) (71, 1.36988985538482666016e+00) (72, 1.35227525234222412109e+00) (73, 2.16482806205749511719e+00) (74, 1.71353459358215332031e+00) (75, 1.71287560462951660156e+00) (76, 2.12009525299072265625e+00) (77, 1.38292193412780761719e+00) (78, 2.05054807662963867188e+00) (79, 1.87779927253723144531e+00) (80, -1.62344360351562500000e+01) (81, 1.55505406856536865234e+00) (82, 1.79288876056671142578e+00) (83, 1.83325564861297607422e+00) (84, 1.94232463836669921875e+00) (85, -1.74215450286865234375e+01) (86, 1.10633730888366699219e+00) (87, 1.40219640731811523438e+00) (88, 1.64625155925750732422e+00) (89, 1.78233754634857177734e+00) (90, 1.59456229209899902344e+00) (91, 1.81961202621459960938e+00) (92, 1.58076274394989013672e+00) (93, 1.49026811122894287109e+00) (94, 1.03075599670410156250e+00) (95, 1.52554047107696533203e+00) (96, 1.17797975540161132812e+01) (97, 1.72210574150085449219e+00) (98, 6.67523682117462158203e-01) (99, 1.48388063907623291016e+00) (100, 1.10766685009002685547e+00) (101, 2.18368196487426757812e+00) (102, 9.00603256225585937500e+01) (103, -6.28205146789550781250e+01) (104, 4.23704922199249267578e-01) (0, -2.00170860290527343750e+01) (1, -2.02397212386131286621e-01) (2, 8.58401834964752197266e-01) (3, 1.04398870468139648438e+00) (4, 2.50784516334533691406e-01) (5, 2.54375915974378585815e-02) (6, 1.73772788047790527344e+00) (7, 4.50535249710083007812e+00) (8, 3.87963764369487762451e-02) (9, 1.51827621459960937500e+00) (10, 1.22604739665985107422e+00) (11, -2.91399359703063964844e+00) (12, -3.28055000305175781250e+00) (13, -1.73763954639434814453e+00) (14, 1.65299952030181884766e-01) (15, 2.07506799697875976562e+00) (16, 8.31306129693984985352e-02) (17, 3.43345117568969726562e+00) (18, 7.10334157943725585938e+00) (19, 6.87618196010589599609e-01) (20, 1.39980697631835937500e+00) (21, 1.47546339035034179688e+00) (22, -2.04267859458923339844e+00) (23, -5.55840611457824707031e-01) (24, 3.06786727905273437500e+00) (25, 7.39043951034545898438e+00) (26, -4.87307119369506835938e+00) (27, 4.94322419166564941406e-01) (28, -2.22502970695495605469e+00) (29, -1.64847099781036376953e+00) (30, -4.90498304367065429688e+00) (31, -3.41373056173324584961e-01) (32, 4.98205423355102539062e+00) (33, -1.43845307826995849609e+00) (34, -2.84754347801208496094e+00) (35, 3.05514979362487792969e+00) (36, 1.97291040420532226562e+00) (37, 6.52852058410644531250e+00) (38, 2.43295478820800781250e+00) (39, -1.63805580139160156250e+00) (40, 2.70160484313964843750e+00) (41, -3.37083506584167480469e+00) (42, -1.64170056581497192383e-01) (43, 4.08725214004516601562e+00) (44, 1.50279307365417480469e+00) (45, 4.45253074169158935547e-01) (46, 1.57827639579772949219e+00) (47, 3.27481150627136230469e+00) (48, 9.37131524085998535156e-01) (49, 4.65487599372863769531e-01) (50, -8.78738594055175781250e+00) (51, 6.23262763023376464844e-01) (52, -7.22953006625175476074e-02) (53, 4.43411445617675781250e+00) (54, -2.98719000816345214844e+00) (55, 7.10181331634521484375e+00) (56, -5.71504950523376464844e-01) (57, -1.52296930551528930664e-01) (58, 3.00051164627075195312e+00) (59, 2.51668334007263183594e+00) (60, 1.52664154767990112305e-01) (61, -2.17921090126037597656e+00) (62, -4.79362636804580688477e-01) (63, 7.49040007591247558594e-01) (64, 4.16782736778259277344e-01) (65, 7.41960778832435607910e-02) (66, -2.18321591615676879883e-01) (67, 6.46828472614288330078e-01) (68, 4.38972283154726028442e-03) (69, 2.11883574724197387695e-01) (70, 2.78701329231262207031e+00) (71, 9.31155800819396972656e-01) (72, 3.46991300582885742188e-01) (73, -1.22550415992736816406e+00) (74, 1.77493691444396972656e+00) (75, 2.27860510349273681641e-01) (76, 1.59064328670501708984e+00) (77, -5.66736280918121337891e-01) (78, -3.45402061939239501953e-01) (79, -2.09080338478088378906e+00) (80, 1.90908861160278320312e+00) (81, 7.86819815635681152344e-01) (82, 7.07764387130737304688e-01) (83, -1.56390011310577392578e+00) (84, 2.38060951232910156250e+00) (85, 9.66504812240600585938e-01) (86, 2.02245497703552246094e+00) (87, 5.60350596904754638672e-01) (88, 1.03108906745910644531e+00) (89, -2.71388500928878784180e-01) (90, -7.55332633852958679199e-02) (91, -5.35050451755523681641e-01) (92, -1.61173343658447265625e-01) (93, 6.78715825080871582031e-01) (94, 2.62475967407226562500e-01) (95, 2.64203500747680664062e+00) (96, -7.55014896392822265625e+00) (97, 4.25373077392578125000e-01) (98, 1.66635894775390625000e+00) (99, 4.06356947496533393860e-03) (100, 6.20404005050659179688e-01) (101, -5.17874419689178466797e-01) (102, 8.56599509716033935547e-02) (103, 2.28186082839965820312e+00) (104, 1.75824749469757080078e+00) (0, 5.47108840942382812500e+01) (1, 1.63726091384887695312e+00) (2, 1.32509434223175048828e+00) (3, -4.61098670959472656250e+00) (4, 1.45381414890289306641e+00) (5, 1.26469469070434570312e+00) (6, 1.57392323017120361328e+00) (7, 1.76985025405883789062e+00) (8, -4.53078880310058593750e+01) (9, 1.45050644874572753906e+00) (10, 1.74495589733123779297e+00) (11, 1.96720564365386962891e+00) (12, 1.76769971847534179688e+00) (13, 1.79926335811614990234e+00) (14, 1.85813844203948974609e+00) (15, 1.89436054229736328125e+00) (16, 1.34651935100555419922e+00) (17, 1.05412077903747558594e+00) (18, 1.25061774253845214844e+00) (19, 9.22103524208068847656e-01) (20, -4.32477264404296875000e+01) (21, 2.31128764152526855469e+00) (22, 1.30867958068847656250e+00) (23, 1.16386687755584716797e+00) (24, 2.80715427398681640625e+01) (25, 1.89433085918426513672e+00) (26, 8.73104155063629150391e-01) (27, 1.42060434818267822266e+00) (28, 1.21087038516998291016e+00) (29, 1.18955338001251220703e+00) (30, 1.64180684089660644531e+00) (31, 1.68940484523773193359e+00) (32, 1.41971480846405029297e+00) (33, 1.50887095928192138672e+00) (34, 8.65033268928527832031e-01) (35, 8.31606101989746093750e+00) (36, 1.37073349952697753906e+00) (37, 2.45116519927978515625e+00) (38, 1.20573067665100097656e+00) (39, 1.04623401165008544922e+00) (40, 1.17377555370330810547e+00) (41, 1.72524249553680419922e+00) (42, 1.30131423473358154297e+00) (43, 2.22749280929565429688e+00) (44, 1.27022039890289306641e+00) (45, 1.90454602241516113281e+00) (46, 1.64407336711883544922e+00) (47, 1.71723508834838867188e+00) (48, 1.74597227573394775391e+00) (49, 6.96618461608886718750e+00) (50, 1.93391835689544677734e+00) (51, 1.72521579265594482422e+00) (52, 1.40136098861694335938e+00) (53, 1.23707556724548339844e+00) (54, 8.54979228973388671875e+00) (55, 1.81133687496185302734e+00) (56, 1.14083564281463623047e+00) (57, 1.82184302806854248047e+00) (58, 1.62703299522399902344e+00) (59, -1.68307054042816162109e+00) (60, 8.73096227645874023438e-01) (61, -2.08981180191040039062e+00) (62, 1.95444691181182861328e+00) (63, 1.05015373229980468750e+00) (64, 9.76355016231536865234e-01) (65, 1.22222089767456054688e+00) (66, 1.16042876243591308594e+00) (67, 1.77342641353607177734e+00) (68, 1.72758138179779052734e+00) (69, 2.38041281700134277344e+00) (70, 1.44690120220184326172e+00) (71, 1.26942133903503417969e+00) (72, 1.34323191642761230469e+00) (73, 2.21325230598449707031e+00) (74, 1.82172060012817382812e+00) (75, 1.68966984748840332031e+00) (76, 2.13905668258666992188e+00) (77, 1.53079295158386230469e+00) (78, 2.10536742210388183594e+00) (79, 1.84400451183319091797e+00) (80, -1.65820884704589843750e+01) (81, 1.57848918437957763672e+00) (82, 1.76283502578735351562e+00) (83, 1.82140660285949707031e+00) (84, 1.85024893283843994141e+00) (85, -1.76846885681152343750e+01) (86, 1.10474073886871337891e+00) (87, 1.45420229434967041016e+00) (88, 1.67275989055633544922e+00) (89, 1.84195303916931152344e+00) (90, 1.55240428447723388672e+00) (91, 1.99643838405609130859e+00) (92, 1.46996903419494628906e+00) (93, 1.46845149993896484375e+00) (94, 1.17744588851928710938e+00) (95, 1.44957423210144042969e+00) (96, 1.17992296218872070312e+01) (97, 1.75149536132812500000e+00) (98, 8.33182513713836669922e-01) (99, 1.37934720516204833984e+00) (100, 1.06688737869262695312e+00) (101, 2.19755840301513671875e+00) (102, 8.99227752685546875000e+01) (103, -6.29841423034667968750e+01) (104, 7.91640818119049072266e-01) (0, 5.33868713378906250000e+01) (1, 1.56719970703125000000e+00) (2, 1.31682360172271728516e+00) (3, -4.59459924697875976562e+00) (4, 1.43145418167114257812e+00) (5, 1.24568021297454833984e+00) (6, 1.64152181148529052734e+00) (7, 1.67923796176910400391e+00) (8, -4.49884872436523437500e+01) (9, 1.36304366588592529297e+00) (10, 1.82261216640472412109e+00) (11, 1.94180250167846679688e+00) (12, 1.79670655727386474609e+00) (13, 1.69447147846221923828e+00) (14, 1.85247206687927246094e+00) (15, 1.83906114101409912109e+00) (16, 1.33215713500976562500e+00) (17, 1.14061260223388671875e+00) (18, 1.24521636962890625000e+00) (19, 8.84074449539184570312e-01) (20, -4.28173561096191406250e+01) (21, 2.26017761230468750000e+00) (22, 1.74894177913665771484e+00) (23, 1.16620039939880371094e+00) (24, 2.80612335205078125000e+01) (25, 2.17963433265686035156e+00) (26, 1.16923618316650390625e+00) (27, 1.52307868003845214844e+00) (28, 1.04751813411712646484e+00) (29, 1.20818448066711425781e+00) (30, 1.58595800399780273438e+00) (31, 1.80925989151000976562e+00) (32, 1.60045015811920166016e+00) (33, 1.52164018154144287109e+00) (34, 8.16931664943695068359e-01) (35, 8.43178176879882812500e+00) (36, 1.36859548091888427734e+00) (37, 2.53119516372680664062e+00) (38, 1.16444182395935058594e+00) (39, 1.02858018875122070312e+00) (40, 1.18832600116729736328e+00) (41, 1.71131134033203125000e+00) (42, 1.41643035411834716797e+00) (43, 2.12081336975097656250e+00) (44, 1.27022981643676757812e+00) (45, 1.84314727783203125000e+00) (46, 1.59698438644409179688e+00) (47, 1.74129974842071533203e+00) (48, 1.72951257228851318359e+00) (49, 6.29744434356689453125e+00) (50, 1.04882740974426269531e+00) (51, 1.02250576019287109375e+00) (52, 1.52140259742736816406e+00) (53, 1.13390064239501953125e+00) (54, 8.46896934509277343750e+00) (55, 1.91574335098266601562e+00) (56, 1.13692736625671386719e+00) (57, 1.73978257179260253906e+00) (58, 1.72941374778747558594e+00) (59, -1.22924971580505371094e+00) (60, 1.04616081714630126953e+00) (61, -1.65295708179473876953e+00) (62, 1.81309592723846435547e+00) (63, 1.17570614814758300781e+00) (64, 8.73923063278198242188e-01) (65, 1.07611000537872314453e+00) (66, 7.69915640354156494141e-01) (67, 1.70756125450134277344e+00) (68, 1.83166813850402832031e+00) (69, 1.69572782516479492188e+00) (70, 1.33780586719512939453e+00) (71, 1.26613914966583251953e+00) (72, 1.52172636985778808594e+00) (73, 2.21782302856445312500e+00) (74, 1.80016636848449707031e+00) (75, 1.60014486312866210938e+00) (76, 2.08195710182189941406e+00) (77, 1.39386439323425292969e+00) (78, 2.18395447731018066406e+00) (79, 1.20100772380828857422e+00) (80, -1.77838096618652343750e+01) (81, 1.54659378528594970703e+00) (82, 1.71823024749755859375e+00) (83, 1.90500414371490478516e+00) (84, 2.00618839263916015625e+00) (85, -1.59418716430664062500e+01) (86, 1.18477654457092285156e+00) (87, 1.36594688892364501953e+00) (88, 8.51122677326202392578e-01) (89, 1.18378806114196777344e+00) (90, 1.50367903709411621094e+00) (91, 1.92031443119049072266e+00) (92, 1.57571017742156982422e+00) (93, 1.40183055400848388672e+00) (94, 1.10894513130187988281e+00) (95, 1.54290473461151123047e+00) (96, 1.18222417831420898438e+01) (97, 1.78605759143829345703e+00) (98, 7.76766300201416015625e-01) (99, 1.47042298316955566406e+00) (100, 1.17224144935607910156e+00) (101, 2.12762689590454101562e+00) (102, 8.99429397583007812500e+01) (103, -6.29360694885253906250e+01) (104, 4.31442618370056152344e-01) (0, 5.75837860107421875000e+01) (1, 1.60826921463012695312e+00) (2, 1.32847261428833007812e+00) (3, -9.84982204437255859375e+00) (4, 1.44672942161560058594e+00) (5, 1.32991206645965576172e+00) (6, 1.60672533512115478516e+00) (7, 1.60952162742614746094e+00) (8, -4.55654029846191406250e+01) (9, 1.41945898532867431641e+00) (10, 1.70429885387420654297e+00) (11, 1.98465561866760253906e+00) (12, 1.87506639957427978516e+00) (13, 1.71125411987304687500e+00) (14, 1.86511981487274169922e+00) (15, 1.93975234031677246094e+00) (16, 1.45680463314056396484e+00) (17, 1.07009530067443847656e+00) (18, 1.21054828166961669922e+00) (19, 9.05978083610534667969e-01) (20, -3.36766891479492187500e+01) (21, 2.36216235160827636719e+00) (22, 1.32527923583984375000e+00) (23, 1.22012317180633544922e+00) (24, 2.80290412902832031250e+01) (25, 2.16497993469238281250e+00) (26, 1.18795323371887207031e+00) (27, 1.52645897865295410156e+00) (28, 1.13884830474853515625e+00) (29, 1.17029929161071777344e+00) (30, 1.55777049064636230469e+00) (31, 1.76871347427368164062e+00) (32, 1.55520701408386230469e+00) (33, 1.47353065013885498047e+00) (34, 7.98952221870422363281e-01) (35, 8.34978389739990234375e+00) (36, 1.36608052253723144531e+00) (37, 2.49570035934448242188e+00) (38, 1.06108832359313964844e+00) (39, 9.88986670970916748047e-01) (40, 1.11442410945892333984e+00) (41, 1.70866715908050537109e+00) (42, 1.35448741912841796875e+00) (43, 2.11535620689392089844e+00) (44, 1.28304517269134521484e+00) (45, 1.98584091663360595703e+00) (46, 1.51688921451568603516e+00) (47, 1.74667227268218994141e+00) (48, 1.75239253044128417969e+00) (49, 6.98503828048706054688e+00) (50, 1.82493984699249267578e+00) (51, 1.84745013713836669922e+00) (52, 1.41207933425903320312e+00) (53, 1.19969439506530761719e+00) (54, 8.43736553192138671875e+00) (55, 1.79636549949645996094e+00) (56, 1.26297211647033691406e+00) (57, 1.81284892559051513672e+00) (58, 1.57499122619628906250e+00) (59, -1.61519610881805419922e+00) (60, 8.79341244697570800781e-01) (61, -2.11679649353027343750e+00) (62, 1.80225872993469238281e+00) (63, 1.17668986320495605469e+00) (64, 8.82594645023345947266e-01) (65, 1.14782273769378662109e+00) (66, 1.16058015823364257812e+00) (67, 1.74554884433746337891e+00) (68, 1.79042768478393554688e+00) (69, 2.35869717597961425781e+00) (70, 1.42294573783874511719e+00) (71, 1.17814111709594726562e+00) (72, 1.51767563819885253906e+00) (73, 2.20644569396972656250e+00) (74, 1.66025090217590332031e+00) (75, 1.72316193580627441406e+00) (76, 2.02368187904357910156e+00) (77, 1.10329055786132812500e+00) (78, 2.04309225082397460938e+00) (79, 1.82090532779693603516e+00) (80, -1.65151386260986328125e+01) (81, 1.42302155494689941406e+00) (82, 1.71536576747894287109e+00) (83, 1.82720637321472167969e+00) (84, 1.82134461402893066406e+00) (85, -1.76037788391113281250e+01) (86, 1.07354557514190673828e+00) (87, 1.44116771221160888672e+00) (88, 1.62183284759521484375e+00) (89, 1.76560616493225097656e+00) (90, 1.57027661800384521484e+00) (91, 1.52078986167907714844e+00) (92, 1.58296024799346923828e+00) (93, 1.46660566329956054688e+00) (94, 1.02258002758026123047e+00) (95, 1.07938671112060546875e+00) (96, 1.16844882965087890625e+01) (97, 1.72002840042114257812e+00) (98, 8.13906729221343994141e-01) (99, 1.33060836791992187500e+00) (100, 1.13923728466033935547e+00) (101, 2.27296543121337890625e+00) (102, 8.99249114990234375000e+01) (103, -6.29157829284667968750e+01) (104, 7.78314709663391113281e-01) (0, -4.18660014867782592773e-01) (1, 8.26813161373138427734e-01) (2, -3.32817107439041137695e-01) (3, 4.71010267734527587891e-01) (4, 8.38144496083259582520e-02) (5, -1.48995816707611083984e-01) (6, 1.43233561515808105469e+00) (7, 4.31690365076065063477e-02) (8, 1.43163546919822692871e-01) (9, -1.70965239405632019043e-01) (10, 5.22341430187225341797e-01) (11, 1.30753785371780395508e-01) (12, -6.34657502174377441406e-01) (13, -4.15785983204841613770e-03) (14, 3.58947366476058959961e-01) (15, -3.18728387355804443359e-01) (16, 3.37544351816177368164e-01) (17, -2.24970430135726928711e-01) (18, -1.23963177204132080078e-01) (19, 6.41403198242187500000e-01) (20, 9.65971469879150390625e-01) (21, -7.47304439544677734375e-01) (22, 1.28541219234466552734e+00) (23, 5.63478589057922363281e-01) (24, -1.99207849800586700439e-03) (25, -3.79294633865356445312e-01) (26, 1.70168042182922363281e-01) (27, -3.67626637220382690430e-01) (28, 3.19777876138687133789e-01) (29, -3.80940064787864685059e-02) (30, 8.04055094718933105469e-01) (31, -1.38545513153076171875e-01) (32, -4.19149667024612426758e-01) (33, 4.70793873071670532227e-01) (34, 1.11069880425930023193e-01) (35, 3.09091389179229736328e-01) (36, -1.53011530637741088867e-01) (37, -3.99570971727371215820e-01) (38, -3.31881523132324218750e-01) (39, -3.30782458186149597168e-02) (40, -2.37803487107157707214e-03) (41, -2.40122139453887939453e-01) (42, 5.67982554435729980469e-01) (43, 1.72835737466812133789e-01) (44, -6.19496345520019531250e-01) (45, 6.83847069740295410156e-02) (46, -1.91031664609909057617e-01) (47, -3.23587059974670410156e-01) (48, -9.49005484580993652344e-01) (49, -3.22284460067749023438e-01) (50, -3.26654434204101562500e-01) (51, -4.08031046390533447266e-01) (52, -1.27099737524986267090e-01) (53, 3.88631761074066162109e-01) (54, -3.76115083694458007812e-01) (55, 6.55079483985900878906e-01) (56, 4.13811624050140380859e-01) (57, -9.77892503142356872559e-02) (58, -1.69169440865516662598e-01) (59, -1.28263607621192932129e-01) (60, -4.19039219617843627930e-01) (61, 1.53298288583755493164e-01) (62, -6.84145152568817138672e-01) (63, -7.81193375587463378906e-02) (64, 3.52083355188369750977e-01) (65, 6.08118176460266113281e-01) (66, -8.06681886315345764160e-02) (67, -4.46848392486572265625e-01) (68, 7.13792979717254638672e-01) (69, 2.71073639392852783203e-01) (70, -5.91117739677429199219e-01) (71, -5.61348378658294677734e-01) (72, -2.80849069356918334961e-01) (73, -4.04106795787811279297e-01) (74, -8.41037034988403320312e-02) (75, -4.19019460678100585938e-01) (76, -7.84470736980438232422e-01) (77, 7.65182137489318847656e-01) (78, -2.07249119877815246582e-01) (79, 4.85319674015045166016e-01) (80, 5.20907878875732421875e-01) (81, 4.80226755142211914062e-01) (82, 3.51458311080932617188e-01) (83, 4.43959414958953857422e-01) (84, -4.30127561092376708984e-01) (85, 2.30039462447166442871e-01) (86, 1.33231329917907714844e+00) (87, -6.66921019554138183594e-01) (88, 4.71089780330657958984e-01) (89, 8.06450486183166503906e-01) (90, 5.25694131851196289062e-01) (91, 3.48158895969390869141e-01) (92, 1.86518579721450805664e-01) (93, -1.86855822801589965820e-01) (94, 1.84417486190795898438e-01) (95, 8.09167742729187011719e-01) (96, -2.01582059264183044434e-01) (97, -8.02061632275581359863e-02) (98, 2.91900038719177246094e-01) (99, 8.24045300483703613281e-01) (100, 3.56947600841522216797e-01) (101, -2.99799501895904541016e-01) (102, -7.54058301448822021484e-01) (103, 2.92228341102600097656e+00) (104, 2.37031865119934082031e+00) (0, 3.66497337818145751953e-01) (1, 3.92476737499237060547e-01) (2, 7.09763109683990478516e-01) (3, -1.44014132022857666016e+00) (4, -3.82591187953948974609e-01) (5, 6.78024411201477050781e-01) (6, -5.30484795570373535156e-01) (7, 8.32175195217132568359e-01) (8, -4.24980252981185913086e-01) (9, -4.63774681091308593750e-01) (10, -5.23331403732299804688e-01) (11, -5.44816017150878906250e-01) (12, -8.57938468456268310547e-01) (13, 1.57764625549316406250e+00) (14, 3.08743476867675781250e-01) (15, 9.63755965232849121094e-01) (16, -1.28639698028564453125e+00) (17, -1.74836516380310058594e-01) (18, 1.18994557857513427734e+00) (19, -1.75330311059951782227e-01) (20, 1.69431877136230468750e+00) (21, -8.04426729679107666016e-01) (22, -3.94826382398605346680e-01) (23, 8.95543217658996582031e-01) (24, 7.63882875442504882812e-01) (25, 1.14870977401733398438e+00) (26, 4.32483628392219543457e-02) (27, 1.27985060214996337891e-01) (28, 1.09263122081756591797e+00) (29, -6.29043877124786376953e-01) (30, 1.29445660114288330078e+00) (31, -2.24399939179420471191e-01) (32, -4.02973532676696777344e-01) (33, 4.25637483596801757812e-01) (34, -7.53782764077186584473e-02) (35, 1.43853604793548583984e+00) (36, -8.05861279368400573730e-02) (37, -1.63982808589935302734e+00) (38, -5.33804416656494140625e-01) (39, -5.70849716663360595703e-01) (40, 1.10754644870758056641e+00) (41, 1.35486376285552978516e+00) (42, -1.28157734870910644531e-01) (43, -5.27636468410491943359e-01) (44, 1.72887295484542846680e-01) (45, 1.64906704425811767578e+00) (46, 2.32874482870101928711e-01) (47, 1.14793457090854644775e-01) (48, 1.17430830001831054688e+00) (49, 2.77956783771514892578e-01) (50, 8.37183222174644470215e-02) (51, -1.28295067697763442993e-02) (52, -7.13688731193542480469e-01) (53, 1.40230131149291992188e+00) (54, -5.24692726135253906250e+00) (55, 2.17299580574035644531e-01) (56, -4.82097595930099487305e-01) (57, 1.52993798255920410156e+00) (58, 1.43161201477050781250e+00) (59, -6.08352005481719970703e-01) (60, -4.77461427450180053711e-01) (61, -6.67496383190155029297e-01) (62, 7.13041201233863830566e-02) (63, 1.81008040904998779297e-01) (64, 1.87087893486022949219e+00) (65, -3.17792519927024841309e-02) (66, -4.34199452400207519531e-01) (67, 1.99119460582733154297e+00) (68, -5.93467950820922851562e-01) (69, 1.16197884082794189453e+00) (70, 8.62286686897277832031e-01) (71, 6.52299582958221435547e-01) (72, 1.52930057048797607422e+00) (73, 1.08052122592926025391e+00) (74, 6.81914508342742919922e-01) (75, 4.98012840747833251953e-01) (76, 1.84127867221832275391e+00) (77, -1.15948311984539031982e-01) (78, -4.23063308000564575195e-01) (79, -2.64331042766571044922e-01) (80, 1.92146807909011840820e-01) (81, 6.25921607017517089844e-01) (82, -5.55830001831054687500e-01) (83, 5.80617368221282958984e-01) (84, -2.32741922140121459961e-01) (85, 9.33585643768310546875e-01) (86, -2.48868107795715332031e-01) (87, -2.58514970541000366211e-01) (88, -2.09415443241596221924e-02) (89, -7.65813440084457397461e-02) (90, 4.32952463626861572266e-01) (91, 1.43899190425872802734e+00) (92, 1.15269042551517486572e-01) (93, 1.40608012676239013672e+00) (94, -1.27699866890907287598e-01) (95, 6.62499129772186279297e-01) (96, -1.00715007781982421875e+01) (97, 2.47420500963926315308e-02) (98, 7.57796585559844970703e-01) (99, -4.59051951766014099121e-02) (100, -1.29823446273803710938e-01) (101, -6.90682888031005859375e-01) (102, -1.05480182170867919922e+00) (103, 3.21654510498046875000e+00) (104, 2.29972791671752929688e+00) (0, 8.40120375156402587891e-01) (1, -5.42002499103546142578e-01) (2, 1.44556820392608642578e+00) (3, 4.41617459058761596680e-01) (4, 1.84602463245391845703e+00) (5, 4.87400263547897338867e-01) (6, 6.52200698852539062500e-01) (7, -1.71515214443206787109e+00) (8, -4.48461994528770446777e-02) (9, 8.69199693202972412109e-01) (10, -1.79834556579589843750e+00) (11, -2.01279306411743164062e+00) (12, -5.49573040008544921875e+00) (13, -2.39226505160331726074e-01) (14, -2.26164650917053222656e+00) (15, -2.06877875328063964844e+00) (16, -1.02042406797409057617e-01) (17, 3.25906109809875488281e+00) (18, -1.11003100872039794922e-01) (19, 1.81669485569000244141e+00) (20, 7.53425693511962890625e+00) (21, 3.90460085868835449219e+00) (22, -1.04842984676361083984e+00) (23, -3.42791438102722167969e+00) (24, 4.50455808639526367188e+00) (25, -1.29142725467681884766e+00) (26, -6.39264941215515136719e-01) (27, 4.35682582855224609375e+00) (28, -4.01506328582763671875e+00) (29, 1.08301270008087158203e+00) (30, 2.17851892113685607910e-01) (31, -1.30956327915191650391e+00) (32, -3.34509283304214477539e-01) (33, -1.83623552322387695312e-01) (34, -4.19354009628295898438e+00) (35, 3.63655757904052734375e+00) (36, -1.36497735977172851562e+00) (37, -2.41824388504028320312e+00) (38, 2.37371683120727539062e-01) (39, -3.16094231605529785156e+00) (40, 4.46875286102294921875e+00) (41, -6.99383556842803955078e-01) (42, -3.79039585590362548828e-01) (43, -1.24760448932647705078e+00) (44, -7.97863483428955078125e-01) (45, -6.53181850910186767578e-01) (46, -3.11617803573608398438e+00) (47, 1.71665036678314208984e+00) (48, 1.60528326034545898438e+00) (49, -5.78909695148468017578e-01) (50, 6.67966604232788085938e-02) (51, -7.90598332881927490234e-01) (52, -1.01621735095977783203e+00) (53, -2.43061393499374389648e-01) (54, -1.22136747837066650391e+00) (55, 1.86807966232299804688e+00) (56, 4.21447962522506713867e-01) (57, 1.35674118995666503906e-01) (58, -1.27824556827545166016e+00) (59, -1.11677658557891845703e+00) (60, 1.84845590591430664062e+00) (61, -7.12648963928222656250e+00) (62, -2.29493319988250732422e-01) (63, 1.63492989540100097656e+00) (64, -8.25696766376495361328e-01) (65, -2.93320212513208389282e-02) (66, 7.59701550006866455078e-01) (67, 7.42269873619079589844e-01) (68, -1.87704551219940185547e+00) (69, 8.40503931045532226562e-01) (70, 5.56685566902160644531e-01) (71, -3.06038528680801391602e-01) (72, -6.24936401844024658203e-01) (73, 2.02288770675659179688e+00) (74, 4.76618385314941406250e+00) (75, -2.98884057998657226562e+00) (76, 2.09336265921592712402e-01) (77, 1.58200681209564208984e+00) (78, -7.35382974147796630859e-01) (79, -7.34430193901062011719e-01) (80, -3.23929578065872192383e-01) (81, -3.28399613499641418457e-02) (82, 1.24614782631397247314e-01) (83, 7.87417232990264892578e-01) (84, -6.19408726692199707031e-01) (85, -1.75582754611968994141e+00) (86, 5.54280281066894531250e-02) (87, 1.23434817790985107422e+00) (88, 1.59868609905242919922e+00) (89, 3.66448640823364257812e-01) (90, -3.57104867696762084961e-01) (91, 1.35616049170494079590e-01) (92, -4.44207787513732910156e-02) (93, 5.56816458702087402344e-01) (94, -2.08127886056900024414e-01) (95, 4.88336235284805297852e-01) (96, 3.13439697027206420898e-01) (97, 1.51485189795494079590e-01) (98, -4.18559610843658447266e-01) (99, 1.17015913128852844238e-01) (100, 3.13843399286270141602e-01) (101, 5.56962311267852783203e-01) (102, -2.82325434684753417969e+00) (103, 6.73404502868652343750e+00) (104, 1.90594339370727539062e+00) (0, 3.78904163837432861328e-01) (1, 3.74465174973011016846e-02) (2, -3.82586598396301269531e-01) (3, 5.51112771034240722656e-01) (4, -3.02641063928604125977e-01) (5, -1.51707482337951660156e+00) (6, -1.38229072093963623047e-01) (7, 1.21960274875164031982e-01) (8, -1.42319405078887939453e+00) (9, -7.63120532035827636719e-01) (10, 7.59874701499938964844e-01) (11, -5.56476294994354248047e-01) (12, 8.99955391883850097656e-01) (13, 7.80426681041717529297e-01) (14, -3.91828149557113647461e-01) (15, -6.49647533893585205078e-01) (16, -7.30188190937042236328e-01) (17, -5.39329111576080322266e-01) (18, -7.64169633388519287109e-01) (19, 5.80670535564422607422e-02) (20, 8.66609573364257812500e-01) (21, -5.37157356739044189453e-01) (22, 4.17936593294143676758e-01) (23, 7.65218734741210937500e-01) (24, 2.05567374825477600098e-01) (25, 6.17407798767089843750e-01) (26, -5.18890857696533203125e-01) (27, -5.23460268974304199219e-01) (28, 4.70999270677566528320e-01) (29, -2.97122091054916381836e-01) (30, -7.30390921235084533691e-02) (31, 1.63658154010772705078e+00) (32, -7.02926039695739746094e-01) (33, 1.09303998947143554688e+00) (34, -1.08244323730468750000e+00) (35, 9.64014947414398193359e-01) (36, 3.65042537450790405273e-01) (37, 6.80408120155334472656e-01) (38, -6.50340735912322998047e-01) (39, 2.98810362815856933594e-01) (40, 4.38824504613876342773e-01) (41, -1.19065988063812255859e+00) (42, -7.48052820563316345215e-02) (43, 1.53629267215728759766e+00) (44, -6.57240524888038635254e-02) (45, 1.30576741695404052734e+00) (46, 1.24916148185729980469e+00) (47, -2.60328561067581176758e-01) (48, -8.08380305767059326172e-01) (49, -6.77448809146881103516e-01) (50, 6.78925633430480957031e-01) (51, 4.63454097509384155273e-01) (52, -4.48576599359512329102e-01) (53, -6.38265252113342285156e-01) (54, 5.13352990150451660156e-01) (55, 2.56930887699127197266e-01) (56, -3.40536445379257202148e-01) (57, 4.63892966508865356445e-01) (58, 1.73694896697998046875e+00) (59, -6.33981168270111083984e-01) (60, -6.36148154735565185547e-01) (61, 1.33509352803230285645e-01) (62, 6.54094964265823364258e-02) (63, -7.16555655002593994141e-01) (64, -7.55380690097808837891e-01) (65, -1.67576879262924194336e-01) (66, -9.75615859031677246094e-01) (67, -4.80084717273712158203e-01) (68, -4.36934322118759155273e-01) (69, 1.85791239142417907715e-01) (70, -5.05698680877685546875e-01) (71, 1.04757833480834960938e+00) (72, -4.15124267339706420898e-01) (73, -7.15453445911407470703e-01) (74, 8.18503141403198242188e-01) (75, 1.41625726222991943359e+00) (76, -8.56942832469940185547e-02) (77, -6.06477975845336914062e-01) (78, 4.01257246732711791992e-01) (79, 1.28043842315673828125e+00) (80, -2.02915742993354797363e-01) (81, -4.16375577449798583984e-01) (82, -5.18503248691558837891e-01) (83, -2.11453381925821304321e-02) (84, -2.84291774034500122070e-01) (85, -1.11421716213226318359e+00) (86, -3.99984061717987060547e-01) (87, 5.17293363809585571289e-02) (88, 1.19030445814132690430e-01) (89, -1.10029742121696472168e-01) (90, -4.00987148284912109375e-01) (91, 5.72259068489074707031e-01) (92, 1.42117285728454589844e+00) (93, 1.41917181015014648438e+00) (94, -6.72742843627929687500e-01) (95, 1.41424131393432617188e+00) (96, -1.40405946876853704453e-03) (97, 4.11171689629554748535e-02) (98, 1.71956050395965576172e+00) (99, 2.90658712387084960938e-01) (100, -6.32312476634979248047e-01) (101, 1.23320710659027099609e+00) (102, 1.04967439174652099609e+00) (103, 1.22591924667358398438e+00) (104, 2.54573106765747070312e+00) (0, 3.27502870559692382812e+00) (1, 7.54384696483612060547e-01) (2, 2.95047461986541748047e-01) (3, -8.02998244762420654297e-01) (4, -9.53201483935117721558e-03) (5, 1.40637969970703125000e+00) (6, 5.74432134628295898438e-01) (7, -3.44727098941802978516e-01) (8, 3.01976650953292846680e-01) (9, -3.40284973382949829102e-01) (10, -1.05256521701812744141e+00) (11, -1.23200371861457824707e-01) (12, -2.16401189565658569336e-01) (13, 9.40659701824188232422e-01) (14, 7.17582464218139648438e-01) (15, 8.37617695331573486328e-01) (16, 8.80364418029785156250e-01) (17, -1.12414491176605224609e+00) (18, 9.81735110282897949219e-01) (19, -7.18700110912322998047e-01) (20, -1.06513833999633789062e+00) (21, 2.11510205268859863281e+00) (22, 6.64733409881591796875e-01) (23, -1.58595979213714599609e-01) (24, 4.53851789236068725586e-01) (25, -6.30438089370727539062e-01) (26, -5.79130351543426513672e-01) (27, 1.00829827785491943359e+00) (28, 1.64815202355384826660e-01) (29, 1.01707589626312255859e+00) (30, 7.26003110408782958984e-01) (31, 5.82350075244903564453e-01) (32, 1.36708152294158935547e+00) (33, -3.49773824214935302734e-01) (34, 6.74309909343719482422e-01) (35, -1.23778015375137329102e-01) (36, 3.95563781261444091797e-01) (37, -5.65664350986480712891e-01) (38, -4.74814116954803466797e-01) (39, -1.32325232028961181641e-01) (40, -5.22451221942901611328e-01) (41, -2.92880386114120483398e-01) (42, -3.82623881101608276367e-01) (43, -5.93342602252960205078e-01) (44, 1.30896627902984619141e-01) (45, -8.68419647216796875000e-01) (46, -5.55367767810821533203e-01) (47, -6.59455895423889160156e-01) (48, -4.42978352308273315430e-01) (49, -6.86093986034393310547e-01) (50, -7.81944334506988525391e-01) (51, -5.41900336742401123047e-01) (52, -4.02879238128662109375e-01) (53, 8.40083837509155273438e-01) (54, -4.01472479104995727539e-01) (55, -1.38001665472984313965e-01) (56, -2.58578598499298095703e-01) (57, -3.23558568954467773438e-01) (58, -2.97868162393569946289e-01) (59, 1.59251296520233154297e+00) (60, -7.47338473796844482422e-01) (61, -2.59331822395324707031e-01) (62, -4.36682611703872680664e-01) (63, -4.82521116733551025391e-01) (64, -4.47805374860763549805e-01) (65, -6.49857819080352783203e-01) (66, 8.98045673966407775879e-02) (67, 9.55459415912628173828e-01) (68, -1.18380673229694366455e-01) (69, 1.43333530426025390625e+00) (70, 1.94736644625663757324e-01) (71, 1.32280215620994567871e-01) (72, 1.64593011140823364258e-01) (73, -9.57032799720764160156e-01) (74, -7.08728909492492675781e-01) (75, 2.97140032052993774414e-01) (76, 1.23701071739196777344e+00) (77, -6.82736039161682128906e-01) (78, -2.50888079404830932617e-01) (79, -3.24935257434844970703e-01) (80, 5.96093833446502685547e-01) (81, 7.89482057094573974609e-01) (82, 4.30633723735809326172e-02) (83, 5.34865856170654296875e-01) (84, 8.84821832180023193359e-01) (85, -6.03367924690246582031e-01) (86, -7.44745969772338867188e-01) (87, -7.13763833045959472656e-02) (88, 1.71762192249298095703e+00) (89, 1.43366801738739013672e+00) (90, 1.42952191829681396484e+00) (91, 6.87408328056335449219e-01) (92, 1.49010866880416870117e-01) (93, 1.21046674251556396484e+00) (94, -6.68848454952239990234e-01) (95, -5.76547503471374511719e-01) (96, -5.81964969635009765625e-01) (97, -7.34578907489776611328e-01) (98, 1.20922613143920898438e+00) (99, -9.89559054374694824219e-01) (100, -5.38547396659851074219e-01) (101, 3.27203869819641113281e-02) (102, 1.23570239543914794922e+00) (103, 8.44404697418212890625e-01) (104, 2.69046640396118164062e+00) (0, 5.45923233032226562500e+01) (1, 1.60312557220458984375e+00) (2, 1.48276102542877197266e+00) (3, -5.86373472213745117188e+00) (4, 1.42015957832336425781e+00) (5, 1.25671911239624023438e+00) (6, 1.74543488025665283203e+00) (7, 1.78196692466735839844e+00) (8, -4.52603225708007812500e+01) (9, 1.45503675937652587891e+00) (10, 1.68526029586791992188e+00) (11, 1.90695118904113769531e+00) (12, 1.77450859546661376953e+00) (13, 1.85374999046325683594e+00) (14, 1.88885807991027832031e+00) (15, 1.81626522541046142578e+00) (16, 1.29263281822204589844e+00) (17, 1.09785473346710205078e+00) (18, 1.08995461463928222656e+00) (19, 8.93247485160827636719e-01) (20, -4.29361381530761718750e+01) (21, 2.24136638641357421875e+00) (22, 1.14022839069366455078e+00) (23, 1.16393601894378662109e+00) (24, 2.80422859191894531250e+01) (25, 1.80403757095336914062e+00) (26, 9.33443725109100341797e-01) (27, 1.58991312980651855469e+00) (28, 1.21476852893829345703e+00) (29, 1.15540254116058349609e+00) (30, 1.68673276901245117188e+00) (31, 1.68600678443908691406e+00) (32, 1.59677100181579589844e+00) (33, 1.39515912532806396484e+00) (34, 8.00608932971954345703e-01) (35, 8.30875396728515625000e+00) (36, 1.48000705242156982422e+00) (37, 2.29806923866271972656e+00) (38, 1.11183464527130126953e+00) (39, 1.08774411678314208984e+00) (40, 1.08610928058624267578e+00) (41, 1.66679215431213378906e+00) (42, 1.41409957408905029297e+00) (43, 2.26237511634826660156e+00) (44, 1.33186233043670654297e+00) (45, 1.93916559219360351562e+00) (46, 1.60072362422943115234e+00) (47, 1.76539134979248046875e+00) (48, 1.66402459144592285156e+00) (49, 6.12101554870605468750e+00) (50, 1.03998374938964843750e+00) (51, 1.73180055618286132812e+00) (52, 1.53338778018951416016e+00) (53, 1.13401639461517333984e+00) (54, 8.47181320190429687500e+00) (55, 1.76662623882293701172e+00) (56, 1.08899402618408203125e+00) (57, 1.89968991279602050781e+00) (58, 1.73411428928375244141e+00) (59, -1.60201930999755859375e+00) (60, 9.29114758968353271484e-01) (61, -1.95221459865570068359e+00) (62, 1.81261825561523437500e+00) (63, 1.20243000984191894531e+00) (64, 1.01499295234680175781e+00) (65, 1.21409249305725097656e+00) (66, 1.27721881866455078125e+00) (67, 1.83938562870025634766e+00) (68, 1.77462100982666015625e+00) (69, 1.76028585433959960938e+00) (70, 1.32331693172454833984e+00) (71, 1.20497643947601318359e+00) (72, 1.46938550472259521484e+00) (73, 2.19888567924499511719e+00) (74, 1.79955387115478515625e+00) (75, 1.73330461978912353516e+00) (76, 2.09765267372131347656e+00) (77, 1.44578123092651367188e+00) (78, 2.08620357513427734375e+00) (79, 1.94301283359527587891e+00) (80, -1.42554054260253906250e+01) (81, 1.49840426445007324219e+00) (82, 1.76821327209472656250e+00) (83, 1.81231963634490966797e+00) (84, 1.96138072013854980469e+00) (85, -1.73997211456298828125e+01) (86, 1.12365734577178955078e+00) (87, 1.47118556499481201172e+00) (88, 1.51092636585235595703e+00) (89, 1.73125672340393066406e+00) (90, 1.61692512035369873047e+00) (91, 1.84612977504730224609e+00) (92, 1.65072751045227050781e+00) (93, 1.36001718044281005859e+00) (94, 1.17493844032287597656e+00) (95, 1.45001995563507080078e+00) (96, 1.16572504043579101562e+01) (97, 1.69590175151824951172e+00) (98, 6.70345127582550048828e-01) (99, 1.32341849803924560547e+00) (100, 1.15294206142425537109e+00) (101, 2.30471634864807128906e+00) (102, 8.99423675537109375000e+01) (103, -6.29844322204589843750e+01) (104, 7.33485877513885498047e-01) (105, 1.79823517799377441406e+00) (106, 6.46895766258239746094e-01) (107, 1.09721755981445312500e+00) (108, 5.45849275588989257812e+00) (109, 1.56256401538848876953e+00) (110, -1.94112884998321533203e+00) (111, -1.41520810127258300781e+00) (112, 4.00312852859497070312e+00) (113, 1.88842630386352539062e+00) (114, -2.03219056129455566406e+00) (115, 6.61885499954223632812e-01) (116, 1.10000431537628173828e+00) (117, -3.57301878929138183594e+00) (118, 2.56453371047973632812e+00) (119, 1.17368638515472412109e+00) (120, -3.14489364624023437500e+00) (121, 1.16911578178405761719e+00) (122, 1.15146136283874511719e+00) (123, 1.14927887916564941406e+00) (124, -2.42360210418701171875e+00) (125, -3.12916803359985351562e+00) (126, 3.87664580345153808594e+00) (127, 3.53730583190917968750e+00) (128, 2.77335739135742187500e+00) (129, 1.11983001232147216797e+00) (130, 1.10384607315063476562e+00) 
