FANN_FLO_2.1
num_layers=3
learning_rate=0.700000
connection_rate=1.000000
network_type=0
learning_momentum=0.000000
training_algorithm=2
train_error_function=1
train_stop_function=0
cascade_output_change_fraction=0.010000
quickprop_decay=-0.000100
quickprop_mu=1.750000
rprop_increase_factor=1.200000
rprop_decrease_factor=0.500000
rprop_delta_min=0.000000
rprop_delta_max=50.000000
rprop_delta_zero=0.100000
cascade_output_stagnation_epochs=12
cascade_candidate_change_fraction=0.010000
cascade_candidate_stagnation_epochs=12
cascade_max_out_epochs=150
cascade_max_cand_epochs=150
cascade_num_candidate_groups=2
bit_fail_limit=3.49999994039535522461e-01
cascade_candidate_limit=1.00000000000000000000e+03
cascade_weight_multiplier=4.00000005960464477539e-01
cascade_activation_functions_count=10
cascade_activation_functions=3 5 7 8 10 11 14 15 16 17 
cascade_activation_steepnesses_count=4
cascade_activation_steepnesses=2.50000000000000000000e-01 5.00000000000000000000e-01 7.50000000000000000000e-01 1.00000000000000000000e+00 
layer_sizes=105 26 2 
scale_included=0
neurons (num_inputs, activation_function, activation_steepness)=(0, 0, 0.00000000000000000000e+00) (0, 0, 0.00000000000000000000e+00) (0, 0, 0.00000000000000000000e+00) (0, 0, 0.00000000000000000000e+00) (0, 0, 0.00000000000000000000e+00) (0, 0, 0.00000000000000000000e+00) (0, 0, 0.00000000000000000000e+00) (0, 0, 0.00000000000000000000e+00) (0, 0, 0.00000000000000000000e+00) (0, 0, 0.00000000000000000000e+00) (0, 0, 0.00000000000000000000e+00) (0, 0, 0.00000000000000000000e+00) (0, 0, 0.00000000000000000000e+00) (0, 0, 0.00000000000000000000e+00) (0, 0, 0.00000000000000000000e+00) (0, 0, 0.00000000000000000000e+00) (0, 0, 0.00000000000000000000e+00) (0, 0, 0.00000000000000000000e+00) (0, 0, 0.00000000000000000000e+00) (0, 0, 0.00000000000000000000e+00) (0, 0, 0.00000000000000000000e+00) (0, 0, 0.00000000000000000000e+00) (0, 0, 0.00000000000000000000e+00) (0, 0, 0.00000000000000000000e+00) (0, 0, 0.00000000000000000000e+00) (0, 0, 0.00000000000000000000e+00) (0, 0, 0.00000000000000000000e+00) (0, 0, 0.00000000000000000000e+00) (0, 0, 0.00000000000000000000e+00) (0, 0, 0.00000000000000000000e+00) (0, 0, 0.00000000000000000000e+00) (0, 0, 0.00000000000000000000e+00) (0, 0, 0.00000000000000000000e+00) (0, 0, 0.00000000000000000000e+00) (0, 0, 0.00000000000000000000e+00) (0, 0, 0.00000000000000000000e+00) (0, 0, 0.00000000000000000000e+00) (0, 0, 0.00000000000000000000e+00) (0, 0, 0.00000000000000000000e+00) (0, 0, 0.00000000000000000000e+00) (0, 0, 0.00000000000000000000e+00) (0, 0, 0.00000000000000000000e+00) (0, 0, 0.00000000000000000000e+00) (0, 0, 0.00000000000000000000e+00) (0, 0, 0.00000000000000000000e+00) (0, 0, 0.00000000000000000000e+00) (0, 0, 0.00000000000000000000e+00) (0, 0, 0.00000000000000000000e+00) (0, 0, 0.00000000000000000000e+00) (0, 0, 0.00000000000000000000e+00) (0, 0, 0.00000000000000000000e+00) (0, 0, 0.00000000000000000000e+00) (0, 0, 0.00000000000000000000e+00) (0, 0, 0.00000000000000000000e+00) (0, 0, 0.00000000000000000000e+00) (0, 0, 0.00000000000000000000e+00) (0, 0, 0.00000000000000000000e+00) (0, 0, 0.00000000000000000000e+00) (0, 0, 0.00000000000000000000e+00) (0, 0, 0.00000000000000000000e+00) (0, 0, 0.00000000000000000000e+00) (0, 0, 0.00000000000000000000e+00) (0, 0, 0.00000000000000000000e+00) (0, 0, 0.00000000000000000000e+00) (0, 0, 0.00000000000000000000e+00) (0, 0, 0.00000000000000000000e+00) (0, 0, 0.00000000000000000000e+00) (0, 0, 0.00000000000000000000e+00) (0, 0, 0.00000000000000000000e+00) (0, 0, 0.00000000000000000000e+00) (0, 0, 0.00000000000000000000e+00) (0, 0, 0.00000000000000000000e+00) (0, 0, 0.00000000000000000000e+00) (0, 0, 0.00000000000000000000e+00) (0, 0, 0.00000000000000000000e+00) (0, 0, 0.00000000000000000000e+00) (0, 0, 0.00000000000000000000e+00) (0, 0, 0.00000000000000000000e+00) (0, 0, 0.00000000000000000000e+00) (0, 0, 0.00000000000000000000e+00) (0, 0, 0.00000000000000000000e+00) (0, 0, 0.00000000000000000000e+00) (0, 0, 0.00000000000000000000e+00) (0, 0, 0.00000000000000000000e+00) (0, 0, 0.00000000000000000000e+00) (0, 0, 0.00000000000000000000e+00) (0, 0, 0.00000000000000000000e+00) (0, 0, 0.00000000000000000000e+00) (0, 0, 0.00000000000000000000e+00) (0, 0, 0.00000000000000000000e+00) (0, 0, 0.00000000000000000000e+00) (0, 0, 0.00000000000000000000e+00) (0, 0, 0.00000000000000000000e+00) (0, 0, 0.00000000000000000000e+00) (0, 0, 0.00000000000000000000e+00) (0, 0, 0.00000000000000000000e+00) (0, 0, 0.00000000000000000000e+00) (0, 0, 0.00000000000000000000e+00) (0, 0, 0.00000000000000000000e+00) (0, 0, 0.00000000000000000000e+00) (0, 0, 0.00000000000000000000e+00) (0, 0, 0.00000000000000000000e+00) (0, 0, 0.00000000000000000000e+00) (0, 0, 0.00000000000000000000e+00) (0, 0, 0.00000000000000000000e+00) (105, 5, 5.00000000000000000000e-01) (105, 5, 5.00000000000000000000e-01) (105, 5, 5.00000000000000000000e-01) (105, 5, 5.00000000000000000000e-01) (105, 5, 5.00000000000000000000e-01) (105, 5, 5.00000000000000000000e-01) (105, 5, 5.00000000000000000000e-01) (105, 5, 5.00000000000000000000e-01) (105, 5, 5.00000000000000000000e-01) (105, 5, 5.00000000000000000000e-01) (105, 5, 5.00000000000000000000e-01) (105, 5, 5.00000000000000000000e-01) (105, 5, 5.00000000000000000000e-01) (105, 5, 5.00000000000000000000e-01) (105, 5, 5.00000000000000000000e-01) (105, 5, 5.00000000000000000000e-01) (105, 5, 5.00000000000000000000e-01) (105, 5, 5.00000000000000000000e-01) (105, 5, 5.00000000000000000000e-01) (105, 5, 5.00000000000000000000e-01) (105, 5, 5.00000000000000000000e-01) (105, 5, 5.00000000000000000000e-01) (105, 5, 5.00000000000000000000e-01) (105, 5, 5.00000000000000000000e-01) (105, 5, 5.00000000000000000000e-01) (0, 5, 0.00000000000000000000e+00) (26, 5, 5.00000000000000000000e-01) (0, 5, 0.00000000000000000000e+00) 
connections (connected_to_neuron, weight)=(0, 3.91907882690429687500e+00) (1, 5.25493812561035156250e+00) (2, 2.32921048998832702637e-01) (3, -2.53522562980651855469e+00) (4, -1.70274770259857177734e+00) (5, 1.49869668483734130859e+00) (6, -9.79845821857452392578e-01) (7, 8.31416797637939453125e+00) (8, 1.47655982971191406250e+01) (9, 1.33797895908355712891e+00) (10, -4.38790607452392578125e+00) (11, -2.82661247253417968750e+00) (12, 1.35633662343025207520e-01) (13, 1.01569910049438476562e+01) (14, -1.27906370162963867188e+00) (15, -2.92233395576477050781e+00) (16, -9.00988674163818359375e+00) (17, -1.14554035663604736328e+00) (18, 1.00848960876464843750e+00) (19, 1.22821450233459472656e+00) (20, 1.67864692211151123047e+00) (21, 4.46250647306442260742e-01) (22, -8.50440144538879394531e-01) (23, 1.68196547031402587891e+00) (24, 3.71742367744445800781e+00) (25, -7.62906372547149658203e-01) (26, 2.36615657806396484375e+00) (27, -7.51099288463592529297e-01) (28, 9.72159504890441894531e-02) (29, -8.85085046291351318359e-01) (30, 8.82172107696533203125e+00) (31, -1.20636796951293945312e+00) (32, 1.20610547065734863281e+00) (33, -8.20561170578002929688e-01) (34, 1.68126916885375976562e+00) (35, 1.84252440929412841797e+00) (36, 5.79088211059570312500e-01) (37, 2.61308932304382324219e+00) (38, 1.64351356029510498047e+00) (39, -1.58375024795532226562e-01) (40, 1.45168161392211914062e+00) (41, -1.71115589141845703125e+00) (42, -7.65095412731170654297e-01) (43, 3.29947757720947265625e+00) (44, 4.57615280151367187500e+00) (45, 8.55637788772583007812e-01) (46, 1.22413337230682373047e+00) (47, -2.59946680068969726562e+00) (48, -1.28060269355773925781e+00) (49, 8.04055750370025634766e-01) (50, 2.77673810720443725586e-01) (51, -9.17065978050231933594e-01) (52, -8.24692666530609130859e-01) (53, 9.42538321018218994141e-01) (54, -8.87283861637115478516e-01) (55, -1.92636311054229736328e+00) (56, 9.72657024860382080078e-01) (57, -3.17027151584625244141e-01) (58, 1.74310362339019775391e+00) (59, 6.08160614967346191406e-01) (60, -5.23213446140289306641e-01) (61, -4.39677089452743530273e-01) (62, -7.52631545066833496094e-01) (63, -3.38441878557205200195e-01) (64, 1.77154588699340820312e+00) (65, -3.45056146383285522461e-01) (66, -1.69057354331016540527e-01) (67, 2.63405418395996093750e+00) (68, -1.15833222866058349609e+00) (69, 2.32154083251953125000e+00) (70, -3.42208951711654663086e-01) (71, 3.18142628669738769531e+00) (72, 4.59648704528808593750e+00) (73, -5.88653850555419921875e+00) (74, 1.45735704898834228516e+00) (75, -2.60034292936325073242e-01) (76, -5.10607779026031494141e-01) (77, -3.55877071619033813477e-01) (78, 1.18046593666076660156e+00) (79, -1.42504423856735229492e-01) (80, -7.81491473317146301270e-02) (81, -3.17909359931945800781e-01) (82, -3.32101464271545410156e-01) (83, -6.08588606119155883789e-02) (84, 8.61700117588043212891e-01) (85, 9.69263374805450439453e-01) (86, -5.83376348018646240234e-01) (87, -3.12131792306900024414e-01) (88, -5.93062043190002441406e-01) (89, -3.24873954057693481445e-01) (90, -6.26457273960113525391e-01) (91, 1.13165214657783508301e-01) (92, -5.82095980644226074219e-01) (93, -5.98032057285308837891e-01) (94, -5.63189566135406494141e-01) (95, -5.03731191158294677734e-01) (96, -1.52576150894165039062e+01) (97, -5.84299385547637939453e-01) (98, -2.20434978604316711426e-01) (99, -4.77306157350540161133e-01) (100, -5.07252752780914306641e-01) (101, 1.10518610477447509766e+00) (102, 7.90948450565338134766e-01) (103, 2.10237646102905273438e+00) (104, 2.38424253463745117188e+00) (0, 1.41330921649932861328e+00) (1, 3.20138067007064819336e-01) (2, -9.72443580627441406250e+00) (3, 5.38950014114379882812e+00) (4, 3.76855015754699707031e+00) (5, 8.73335170745849609375e+00) (6, 9.70845401287078857422e-01) (7, -6.11967706680297851562e+00) (8, 7.45053195953369140625e+00) (9, -7.77171432971954345703e-01) (10, 2.62374043464660644531e+00) (11, 8.54085385799407958984e-01) (12, -1.29157030582427978516e+00) (13, -2.14874315261840820312e+00) (14, 4.83743333816528320312e+00) (15, -2.05534219741821289062e+00) (16, 2.63017445802688598633e-01) (17, 4.41842347383499145508e-01) (18, -3.80799651145935058594e-01) (19, 2.14298486709594726562e+00) (20, -1.02985806763172149658e-01) (21, -8.70308208465576171875e+00) (22, 3.26691222190856933594e+00) (23, 5.00656127929687500000e+00) (24, 4.81284666061401367188e+00) (25, 6.50842308998107910156e-01) (26, -4.03609466552734375000e+00) (27, -1.18184816837310791016e+00) (28, -4.97584551572799682617e-01) (29, -4.41219043731689453125e+00) (30, -2.27716237306594848633e-01) (31, -5.14361202716827392578e-01) (32, -1.21470451354980468750e+00) (33, 1.74541580677032470703e+00) (34, 7.47859096527099609375e+00) (35, 3.66601204872131347656e+00) (36, -2.56306195259094238281e+00) (37, 2.17945814132690429688e+00) (38, -3.96757304668426513672e-01) (39, -1.45462381839752197266e+00) (40, 2.76330113410949707031e-01) (41, -1.56586790084838867188e+00) (42, 6.79987013339996337891e-01) (43, 1.32767069339752197266e+00) (44, -8.42885971069335937500e-01) (45, -2.63497442007064819336e-01) (46, 7.13436126708984375000e-01) (47, 1.12479317188262939453e+00) (48, -3.20925641059875488281e+00) (49, 5.81006526947021484375e-01) (50, -1.01907539367675781250e+00) (51, 8.67998540401458740234e-01) (52, -2.44848132133483886719e+00) (53, -1.85713696479797363281e+00) (54, 3.24483585357666015625e+00) (55, 4.81158208847045898438e+00) (56, 6.27330303192138671875e-01) (57, 5.26098966598510742188e-01) (58, 2.29490780830383300781e+00) (59, -9.42519843578338623047e-01) (60, -9.71704840660095214844e-01) (61, -8.85187864303588867188e-01) (62, 1.32913261651992797852e-01) (63, -9.77127313613891601562e-01) (64, -1.96227896213531494141e+00) (65, 4.44290846586227416992e-01) (66, -1.48435640335083007812e+00) (67, -1.63263356685638427734e+00) (68, 6.00738704204559326172e-01) (69, -5.87944209575653076172e-01) (70, -2.02775731682777404785e-01) (71, 5.33194184303283691406e-01) (72, -1.39069271087646484375e+00) (73, 1.64892002940177917480e-01) (74, -2.60565090179443359375e+00) (75, -8.37901949882507324219e-01) (76, -1.25071644783020019531e+00) (77, -9.05580759048461914062e-01) (78, 7.61357426643371582031e-01) (79, -1.14498019218444824219e+00) (80, 1.14018476009368896484e+00) (81, 1.10999476909637451172e+00) (82, -2.23262593150138854980e-01) (83, 1.60104978084564208984e+00) (84, 1.00627088546752929688e+00) (85, -9.19572532176971435547e-01) (86, 1.00592970848083496094e+00) (87, -5.75300931930541992188e-01) (88, -6.55891716480255126953e-01) (89, 8.10950338840484619141e-01) (90, -2.66577005386352539062e-01) (91, 6.90111100673675537109e-01) (92, 9.81033146381378173828e-01) (93, -5.90557277202606201172e-01) (94, -2.40325052291154861450e-02) (95, 8.64067018032073974609e-01) (96, 5.32563567161560058594e-01) (97, 6.88933551311492919922e-01) (98, 1.16566908359527587891e+00) (99, -6.82060480117797851562e-01) (100, -5.61325490474700927734e-01) (101, 1.25107085704803466797e+00) (102, 3.01483082771301269531e+00) (103, -8.82610678672790527344e-02) (104, 2.60504913330078125000e+00) (0, 3.29785585403442382812e+00) (1, 1.47320735454559326172e+00) (2, 1.51767802238464355469e+00) (3, -3.91806483268737792969e+00) (4, 1.64468193054199218750e+00) (5, 9.69311714172363281250e-01) (6, 1.83412480354309082031e+00) (7, 2.06892242431640625000e+01) (8, 1.07880771160125732422e+00) (9, 1.67740273475646972656e+00) (10, 1.63408648967742919922e+00) (11, 2.86602878570556640625e+00) (12, 1.73027539253234863281e+00) (13, 1.58425486087799072266e+00) (14, 2.92219567298889160156e+00) (15, 3.27002096176147460938e+00) (16, 3.05051755905151367188e+00) (17, 2.86331200599670410156e+00) (18, 2.84473681449890136719e+00) (19, 2.93095088005065917969e+00) (20, 2.82684659957885742188e+00) (21, 1.06757727050781250000e+03) (22, 1.50000000000000000000e+03) (23, 4.38773202896118164062e+00) (24, 1.50000000000000000000e+03) (25, 3.40541458129882812500e+00) (26, 3.87813425064086914062e+00) (27, 2.59769177436828613281e+00) (28, 2.71520829200744628906e+00) (29, 2.63108777999877929688e+00) (30, 2.71050095558166503906e+00) (31, 2.26773762702941894531e+00) (32, 2.66436910629272460938e+00) (33, 2.63560485839843750000e+00) (34, 2.69033980369567871094e+00) (35, 2.37045097351074218750e+00) (36, 2.97271776199340820312e+00) (37, 9.01906132698059082031e-01) (38, 1.36192596435546875000e+02) (39, 7.93515539169311523438e+00) (40, 1.27641642093658447266e+00) (41, 1.52343551635742187500e+02) (42, 1.42768263816833496094e+00) (43, 5.62030839920043945312e+00) (44, 2.96228861808776855469e+00) (45, 2.69983530044555664062e+00) (46, 1.22311782836914062500e+02) (47, 1.16494885253906250000e+03) (48, 1.08283874511718750000e+02) (49, 4.55625915527343750000e+00) (50, 3.07949757575988769531e+00) (51, 1.61530447006225585938e+00) (52, 1.77767205238342285156e+00) (53, 1.60698413848876953125e+00) (54, 1.49061167240142822266e+00) (55, 3.46133270263671875000e+02) (56, 1.51874709129333496094e+00) (57, -3.36092453002929687500e+01) (58, 1.22975814342498779297e+00) (59, 1.15587234497070312500e+00) (60, 1.40011858940124511719e+00) (61, 1.36692571640014648438e+00) (62, 1.47769761085510253906e+00) (63, 1.26281273365020751953e+00) (64, 1.33711540699005126953e+00) (65, 2.95764684677124023438e+00) (66, 5.71826477050781250000e+02) (67, 1.59731173515319824219e+00) (68, 6.94059848785400390625e+00) (69, 7.88120985031127929688e-01) (70, 1.72349762916564941406e+00) (71, 1.63909506797790527344e+00) (72, 1.64442753791809082031e+00) (73, 4.83373298645019531250e+01) (74, 1.62063765525817871094e+00) (75, 1.83037590980529785156e+00) (76, 1.27208864688873291016e+00) (77, 1.35310840606689453125e+00) (78, 1.46805799007415771484e+00) (79, 1.58799946308135986328e+00) (80, 1.15431368350982666016e+00) (81, -1.89196594238281250000e+02) (82, 1.52105355262756347656e+00) (83, 8.81697654724121093750e-01) (84, 1.49508345127105712891e+00) (85, 1.20753324031829833984e+00) (86, 1.46153557300567626953e+00) (87, 1.52094554901123046875e+00) (88, 1.71915197372436523438e+00) (89, 1.50581312179565429688e+00) (90, 1.62999629974365234375e+00) (91, 1.10277712345123291016e+00) (92, 1.27169775962829589844e+00) (93, 1.18438804149627685547e+00) (94, 1.37435984611511230469e+00) (95, 1.63694524765014648438e+00) (96, 2.19145889282226562500e+01) (97, 3.14108085632324218750e+00) (98, 1.57796311378479003906e+00) (99, 1.86048674583435058594e+00) (100, 1.36553788185119628906e+00) (101, 1.09213364124298095703e+00) (102, 2.81036186218261718750e+00) (103, -1.02355897426605224609e+00) (104, 4.64579969644546508789e-01) (0, 1.11750245094299316406e+00) (1, -1.11511218547821044922e+00) (2, 6.05054140090942382812e-01) (3, 1.09049916267395019531e+00) (4, 6.79305434226989746094e-01) (5, -8.17970871925354003906e-01) (6, -8.04789066314697265625e-01) (7, 8.07030320167541503906e-01) (8, 6.22620463371276855469e-01) (9, -8.73707056045532226562e-01) (10, 5.86019814014434814453e-01) (11, -6.31449997425079345703e-01) (12, 6.72181010246276855469e-01) (13, -9.25419628620147705078e-01) (14, -6.70798957347869873047e-01) (15, -1.15995137020945549011e-02) (16, 7.03219771385192871094e-01) (17, 7.15765058994293212891e-01) (18, -6.49354994297027587891e-01) (19, 6.83703184127807617188e-01) (20, 1.14160740375518798828e+00) (21, -3.32974761724472045898e-01) (22, 5.22866487503051757812e-01) (23, 6.86094820499420166016e-01) (24, -4.12345498800277709961e-01) (25, -6.79329693317413330078e-01) (26, 7.53836333751678466797e-01) (27, -6.20358228683471679688e-01) (28, 3.24108660221099853516e-01) (29, -6.51468873023986816406e-01) (30, -6.97296857833862304688e-01) (31, -9.43234920501708984375e-01) (32, -5.27209043502807617188e-01) (33, -6.35940015316009521484e-01) (34, -7.13760793209075927734e-01) (35, 9.61027383804321289062e-01) (36, 3.15823927521705627441e-02) (37, 4.26749765872955322266e-01) (38, 9.42884027957916259766e-01) (39, -8.08657348155975341797e-01) (40, -7.21952438354492187500e-01) (41, -1.00984096527099609375e+00) (42, -6.45241796970367431641e-01) (43, 7.54173994064331054688e-01) (44, 8.69058191776275634766e-01) (45, 4.56968247890472412109e-01) (46, 1.41464543342590332031e+00) (47, 2.36231073737144470215e-01) (48, 1.78576707839965820312e-01) (49, -4.66026395559310913086e-01) (50, 5.84314763545989990234e-01) (51, 8.61273646354675292969e-01) (52, 6.97346448898315429688e-01) (53, 1.26842439174652099609e+00) (54, 1.06282591819763183594e+00) (55, 6.17474079132080078125e-01) (56, 2.86616295576095581055e-01) (57, -7.34361231327056884766e-01) (58, 7.13919281959533691406e-01) (59, -4.32272315025329589844e-01) (60, 4.38387632369995117188e-01) (61, -7.58577287197113037109e-01) (62, 2.18900799751281738281e+00) (63, 5.46337783336639404297e-01) (64, 1.79406845569610595703e+00) (65, 7.12426662445068359375e-01) (66, -1.64948046207427978516e-01) (67, -3.52884531021118164062e-01) (68, -1.23827052116394042969e+00) (69, -8.98116827011108398438e-01) (70, -7.29066789150238037109e-01) (71, 2.09404993057250976562e+00) (72, 5.69820463657379150391e-01) (73, -8.33713769912719726562e-01) (74, 6.92097306251525878906e-01) (75, 8.16360652446746826172e-01) (76, -8.52759778499603271484e-01) (77, -7.14271724224090576172e-01) (78, 9.81194257736206054688e-01) (79, -9.15430009365081787109e-01) (80, 3.54032158851623535156e-01) (81, -3.80033314228057861328e-01) (82, -7.44771957397460937500e-01) (83, -2.79416859149932861328e-01) (84, -1.06331384181976318359e+00) (85, -9.19624209403991699219e-01) (86, -7.69076764583587646484e-01) (87, 8.26830267906188964844e-01) (88, -7.04055964946746826172e-01) (89, -6.26585304737091064453e-01) (90, -6.78042232990264892578e-01) (91, 6.44117712974548339844e-01) (92, -2.40816399455070495605e-01) (93, -3.07748645544052124023e-01) (94, -8.37054073810577392578e-01) (95, 6.42784237861633300781e-01) (96, -6.12665235996246337891e-01) (97, 7.73464083671569824219e-01) (98, 5.12446582317352294922e-01) (99, 8.21425795555114746094e-01) (100, 7.20147490501403808594e-01) (101, 1.10948538780212402344e+00) (102, -4.68262016773223876953e-01) (103, 2.31261324882507324219e+00) (104, 2.62304544448852539062e+00) (0, -3.69428306818008422852e-01) (1, 2.51868891716003417969e+00) (2, 2.91947126388549804688e-01) (3, 6.06637179851531982422e-01) (4, 1.15373484790325164795e-01) (5, -4.08981561660766601562e+00) (6, -9.91126060485839843750e-01) (7, -8.35129678249359130859e-01) (8, 6.04185819625854492188e-01) (9, -2.90871858596801757812e-01) (10, 2.78950834274291992188e+00) (11, -4.98468697071075439453e-01) (12, -2.10654765367507934570e-01) (13, 4.32537364959716796875e+00) (14, 1.47085785865783691406e+00) (15, 1.38437807559967041016e-01) (16, 2.25348740816116333008e-01) (17, -1.20482608675956726074e-01) (18, -2.39750528335571289062e+00) (19, -8.00711214542388916016e-01) (20, -1.53336584568023681641e+00) (21, -1.86341807246208190918e-01) (22, -4.65185880661010742188e+00) (23, 2.37602567672729492188e+00) (24, -1.45597016811370849609e+00) (25, -4.14454317092895507812e+00) (26, 1.07948923110961914062e+00) (27, -3.95793914794921875000e-01) (28, 5.20077764987945556641e-01) (29, 2.08923625946044921875e+00) (30, 1.68539524078369140625e+00) (31, 5.42384386062622070312e-01) (32, -1.23745787143707275391e+00) (33, 1.13152265548706054688e+00) (34, 7.09914445877075195312e-01) (35, -1.83495175838470458984e+00) (36, 5.77784717082977294922e-01) (37, -2.87079483270645141602e-01) (38, 1.53960287570953369141e-01) (39, -1.27123832702636718750e-01) (40, -1.34359347820281982422e+00) (41, -2.26196154952049255371e-01) (42, -1.00483931601047515869e-01) (43, 1.62569713592529296875e+00) (44, 2.02411460876464843750e+00) (45, 1.54734313488006591797e+00) (46, 9.15114164352416992188e-01) (47, -1.65221154689788818359e+00) (48, -1.46387267112731933594e+00) (49, -3.61252486705780029297e-01) (50, 5.84669232368469238281e-01) (51, 1.47114014625549316406e+00) (52, 2.32819533348083496094e+00) (53, 4.91899639368057250977e-01) (54, 2.36559892073273658752e-03) (55, 9.82239305973052978516e-01) (56, 6.55776023864746093750e-01) (57, -5.45076668262481689453e-01) (58, -1.09835803508758544922e+00) (59, -6.97417855262756347656e-01) (60, 4.47300225496292114258e-02) (61, -7.46589541435241699219e-01) (62, -1.85092461109161376953e+00) (63, -7.52739906311035156250e-01) (64, 1.58403873443603515625e+00) (65, 6.52376711368560791016e-01) (66, -1.76465487480163574219e+00) (67, -3.77779555320739746094e+00) (68, 1.18591701984405517578e+00) (69, -1.07322621345520019531e+00) (70, 9.19568896293640136719e-01) (71, 8.11049789190292358398e-02) (72, -2.10097864270210266113e-01) (73, -4.72176581621170043945e-01) (74, -4.04784440994262695312e+00) (75, -9.04240608215332031250e-01) (76, -2.50321006774902343750e+00) (77, 2.01557397842407226562e-01) (78, -1.20780956745147705078e+00) (79, -9.41064596176147460938e-01) (80, 1.62208902835845947266e+00) (81, 6.65884852409362792969e-01) (82, 5.89212775230407714844e-01) (83, -2.61912420392036437988e-02) (84, 1.26795399188995361328e+00) (85, -1.51070570945739746094e+00) (86, 3.37614893913269042969e-01) (87, 1.22164773941040039062e+00) (88, 9.73665475845336914062e-01) (89, -7.79356420040130615234e-01) (90, -2.49999213218688964844e+00) (91, 1.85918629169464111328e-01) (92, -8.73970627784729003906e-01) (93, 1.26043486595153808594e+00) (94, 7.08276689052581787109e-01) (95, 7.51116096973419189453e-01) (96, 3.32765507698059082031e+00) (97, 6.09479784965515136719e-01) (98, -7.57037997245788574219e-01) (99, 2.12544298171997070312e+00) (100, 3.44423472881317138672e-01) (101, 7.23652243614196777344e-01) (102, -3.31699967384338378906e-01) (103, 3.88374757766723632812e+00) (104, 1.26254308223724365234e+00) (0, -8.53223419189453125000e+00) (1, 1.72064170241355895996e-01) (2, 1.57871925830841064453e+00) (3, 3.42968010902404785156e+00) (4, 2.22892239689826965332e-01) (5, -4.51370143890380859375e+00) (6, -6.58622217178344726562e+00) (7, 9.24081707000732421875e+00) (8, 1.35195660591125488281e+00) (9, 9.02186930179595947266e-01) (10, 2.56152963638305664062e+00) (11, 8.63730716705322265625e+00) (12, 2.78503656387329101562e+00) (13, 6.58778762817382812500e+00) (14, 3.90663409233093261719e+00) (15, 3.56466341018676757812e+00) (16, -1.81781387329101562500e+00) (17, 7.25846469402313232422e-01) (18, 1.15975284576416015625e+00) (19, -4.84767961502075195312e+00) (20, -6.09295177459716796875e+00) (21, -2.93665480613708496094e+00) (22, -1.73096978664398193359e+00) (23, -3.47324061393737792969e+00) (24, -1.31328420639038085938e+01) (25, 3.28181311488151550293e-02) (26, 3.61121386289596557617e-01) (27, 5.07140934467315673828e-01) (28, 9.63965475559234619141e-01) (29, 1.21087956428527832031e+00) (30, -2.50408983230590820312e+00) (31, -5.59300839900970458984e-01) (32, -6.43878936767578125000e-01) (33, 2.53940391540527343750e+00) (34, -7.19770789146423339844e-01) (35, 3.60805839300155639648e-01) (36, -4.99475777149200439453e-01) (37, 3.31080031394958496094e+00) (38, 7.43168926239013671875e+00) (39, 1.38140881061553955078e+00) (40, -1.52809426188468933105e-01) (41, 1.53238034248352050781e+00) (42, -9.13162380456924438477e-02) (43, 1.03252601623535156250e+00) (44, 2.40013790130615234375e+00) (45, 1.51632869243621826172e+00) (46, -1.48773336410522460938e+00) (47, -9.54476737976074218750e+00) (48, -1.23857057094573974609e+00) (49, 2.72739052772521972656e+00) (50, 4.05583524703979492188e+00) (51, 2.61585927009582519531e+00) (52, 1.25774073600769042969e+00) (53, -1.38955616950988769531e+00) (54, 1.16841816902160644531e+00) (55, -1.75633996725082397461e-01) (56, 3.77903079986572265625e+00) (57, 2.75009989738464355469e+00) (58, 1.51257312297821044922e+00) (59, 3.51757264137268066406e+00) (60, 5.70350348949432373047e-01) (61, 3.72065854072570800781e+00) (62, -1.18419730663299560547e+00) (63, 2.13974928855895996094e+00) (64, 1.37327802181243896484e+00) (65, 9.22185242176055908203e-01) (66, 1.43771255016326904297e+00) (67, -1.82047581672668457031e+00) (68, 9.90097582340240478516e-01) (69, 2.73492026329040527344e+00) (70, -1.01698601245880126953e+00) (71, 3.59107565879821777344e+00) (72, 1.00946736335754394531e+00) (73, -6.44064664840698242188e+00) (74, -5.33675611019134521484e-01) (75, 5.04231685772538185120e-03) (76, 9.51233267784118652344e-01) (77, 1.12861239910125732422e+00) (78, -1.97916805744171142578e+00) (79, -1.48060357570648193359e+00) (80, -1.08221828937530517578e+00) (81, 1.18685495853424072266e+00) (82, 1.02472722530364990234e+00) (83, 1.06471765041351318359e+00) (84, -1.59165412187576293945e-01) (85, 5.20058512687683105469e-01) (86, 1.18258821964263916016e+00) (87, 1.07182276248931884766e+00) (88, -4.58874464035034179688e-01) (89, -3.87990206480026245117e-01) (90, -3.14005196094512939453e-01) (91, 3.63454014062881469727e-01) (92, 6.05899989604949951172e-01) (93, -2.82536506652832031250e-01) (94, 1.05897152423858642578e+00) (95, 1.07914507389068603516e+00) (96, -1.28058528900146484375e+01) (97, 1.53089031577110290527e-01) (98, 3.70097532868385314941e-02) (99, -2.63706266880035400391e-01) (100, 1.07229650020599365234e+00) (101, 5.71944415569305419922e-01) (102, 2.28930044174194335938e+00) (103, -4.37249600887298583984e-01) (104, 7.34621465206146240234e-01) (0, -4.86260032653808593750e+00) (1, -4.44287300109863281250e+00) (2, 1.65018713474273681641e+00) (3, -1.78801670670509338379e-01) (4, 3.08403789997100830078e-01) (5, -3.70799756050109863281e+00) (6, 2.74966859817504882812e+00) (7, 5.89187812805175781250e+00) (8, -8.46667587757110595703e-01) (9, -7.22086012363433837891e-01) (10, -8.51751923561096191406e-01) (11, -1.22916090488433837891e+00) (12, -7.73895919322967529297e-01) (13, 5.84848260879516601562e+00) (14, -8.33488702774047851562e-01) (15, -8.70164871215820312500e-01) (16, 1.54717552661895751953e+00) (17, 6.25033259391784667969e-01) (18, 3.52138543128967285156e+00) (19, 6.75078392028808593750e-01) (20, 2.14433550834655761719e+00) (21, 2.30985641479492187500e+00) (22, -1.25235068798065185547e+00) (23, -4.23886150121688842773e-01) (24, -1.22712433338165283203e+00) (25, -8.16177666187286376953e-01) (26, -7.99409329891204833984e-01) (27, -7.46441125869750976562e-01) (28, -7.48280823230743408203e-01) (29, -6.89684569835662841797e-01) (30, 2.08894586563110351562e+00) (31, -8.28812956809997558594e-01) (32, -8.85026693344116210938e-01) (33, 3.04109644889831542969e+00) (34, -6.86670958995819091797e-01) (35, -3.77072840929031372070e-01) (36, 2.42331695556640625000e+00) (37, 4.37682062387466430664e-01) (38, -8.80838298797607421875e+00) (39, -8.86839628219604492188e-01) (40, 1.66886353492736816406e+00) (41, 1.55973389744758605957e-01) (42, -6.80961906909942626953e-01) (43, 5.77525198459625244141e-01) (44, 9.42914962768554687500e-01) (45, -9.21003341674804687500e-01) (46, -7.19551134109497070312e+00) (47, -4.78000020980834960938e+00) (48, 2.80229973793029785156e+00) (49, 1.61074399948120117188e-01) (50, -7.61805295944213867188e-01) (51, -8.10744583606719970703e-01) (52, 2.11368370056152343750e+00) (53, -8.80795538425445556641e-01) (54, 1.91306734085083007812e+00) (55, 8.45540344715118408203e-01) (56, 6.92601621150970458984e-01) (57, 1.62377119064331054688e+00) (58, -2.27035593986511230469e+00) (59, 2.47355604171752929688e+00) (60, -8.02777051925659179688e-01) (61, -2.92194271087646484375e+00) (62, -7.00044095516204833984e-01) (63, -8.17660093307495117188e-01) (64, -3.27756214141845703125e+00) (65, -8.36758494377136230469e-01) (66, -9.59544777870178222656e-01) (67, 2.40982294082641601562e+00) (68, 9.89109463989734649658e-03) (69, -9.43942904472351074219e-01) (70, -7.50872731208801269531e-01) (71, -7.80034005641937255859e-01) (72, -8.75486552715301513672e-01) (73, 3.51700353622436523438e+00) (74, -6.66186332702636718750e-01) (75, -7.25380420684814453125e-01) (76, 8.11981201171875000000e-01) (77, -9.62225914001464843750e-01) (78, -1.02992844581604003906e+00) (79, -9.53782737255096435547e-01) (80, -2.37348720431327819824e-01) (81, 1.78992283344268798828e+00) (82, 1.02072453498840332031e+00) (83, 1.06156480312347412109e+00) (84, 2.45874118804931640625e+00) (85, 4.80894088745117187500e-01) (86, -8.20726215839385986328e-01) (87, -6.38904631137847900391e-01) (88, -1.23011231422424316406e+00) (89, 1.96239101886749267578e+00) (90, -9.93763744831085205078e-01) (91, -8.37555027008056640625e+00) (92, 4.38727617263793945312e-01) (93, 9.86024022102355957031e-01) (94, -7.91191935539245605469e-01) (95, 7.72554993629455566406e-01) (96, 1.21187896728515625000e+01) (97, 6.73439860343933105469e-01) (98, -7.47252166271209716797e-01) (99, 9.01422858238220214844e-01) (100, -1.08288180828094482422e+00) (101, 8.50813269615173339844e-01) (102, 4.12212610244750976562e+00) (103, 6.02892339229583740234e-01) (104, 2.85554742813110351562e+00) (0, -6.58658838272094726562e+00) (1, 1.42866361141204833984e+00) (2, 2.62799358367919921875e+00) (3, -2.22002258300781250000e+01) (4, 2.68067908287048339844e+00) (5, 1.81198418140411376953e+00) (6, 1.85634851455688476562e+00) (7, 1.94746532440185546875e+01) (8, -6.44970035552978515625e+00) (9, 2.87979364395141601562e+00) (10, 2.65807414054870605469e+00) (11, 2.67392063140869140625e+00) (12, 2.78091025352478027344e+00) (13, 2.39334464073181152344e+00) (14, 2.71588301658630371094e+00) (15, 2.65566134452819824219e+00) (16, 2.66749405860900878906e+00) (17, 2.70938467979431152344e+00) (18, 2.48249673843383789062e+00) (19, 2.71850657463073730469e+00) (20, 2.62485003471374511719e+00) (21, 4.25274038314819335938e+00) (22, 3.05160546302795410156e+00) (23, 4.00252914428710937500e+00) (24, 4.73647537231445312500e+01) (25, 1.67458581924438476562e+00) (26, 2.23327898979187011719e+00) (27, 2.44882369041442871094e+00) (28, 4.76089119911193847656e-01) (29, 1.14549911022186279297e+00) (30, 1.10394585132598876953e+00) (31, 1.07017636299133300781e+00) (32, 1.51822471618652343750e+00) (33, 1.11090159416198730469e+00) (34, 2.57934165000915527344e+00) (35, 3.04461622238159179688e+00) (36, 2.65540671348571777344e+00) (37, 2.68910837173461914062e+00) (38, 3.41285753250122070312e+00) (39, 3.20443749427795410156e+00) (40, 2.66001296043395996094e+00) (41, 1.58030319213867187500e+02) (42, 2.66239905357360839844e+00) (43, 5.61473894119262695312e+00) (44, 2.94296884536743164062e+00) (45, -3.37352417409420013428e-03) (46, 1.34294769287109375000e+02) (47, 1.03592651367187500000e+03) (48, 1.58302402496337890625e+00) (49, 3.49622988700866699219e+00) (50, 3.01118135452270507812e+00) (51, 2.84148430824279785156e+00) (52, 3.41481232643127441406e+00) (53, 2.96528625488281250000e+00) (54, 2.93749880790710449219e+00) (55, 2.60091979980468750000e+02) (56, 2.82552647590637207031e+00) (57, -8.06026268005371093750e+00) (58, 9.84152436256408691406e-01) (59, -3.08460903167724609375e+00) (60, 2.57561874389648437500e+00) (61, 8.03142070770263671875e-01) (62, 2.84238457679748535156e+00) (63, 2.53956437110900878906e+00) (64, 1.91202569007873535156e+00) (65, 2.80798292160034179688e+00) (66, 2.40309844970703125000e+02) (67, 1.61152648925781250000e+00) (68, -6.46171140670776367188e+00) (69, 2.03097391128540039062e+00) (70, 2.86127781867980957031e+00) (71, 2.86833834648132324219e+00) (72, 2.79222416877746582031e+00) (73, 4.95486793518066406250e+01) (74, 2.72204232215881347656e+00) (75, 2.76709508895874023438e+00) (76, 2.81812286376953125000e+00) (77, 2.69651150703430175781e+00) (78, 2.66677284240722656250e+00) (79, 2.59890818595886230469e+00) (80, 1.38706541061401367188e+00) (81, -6.01148300170898437500e+01) (82, 2.70112085342407226562e+00) (83, 2.13534879684448242188e+00) (84, 2.59160256385803222656e+00) (85, 2.47081327438354492188e+00) (86, 2.66052913665771484375e+00) (87, 2.76357769966125488281e+00) (88, 2.79892778396606445312e+00) (89, 2.75120544433593750000e+00) (90, 2.86033415794372558594e+00) (91, 2.36663508415222167969e+00) (92, 2.42190694808959960938e+00) (93, 2.37590575218200683594e+00) (94, 2.73020720481872558594e+00) (95, 2.71588206291198730469e+00) (96, 2.33610076904296875000e+01) (97, 2.99049973487854003906e+00) (98, 2.60575222969055175781e+00) (99, 2.92123126983642578125e+00) (100, 2.59211325645446777344e+00) (101, 2.30901074409484863281e+00) (102, 1.71886563301086425781e+00) (103, 2.65301436185836791992e-01) (104, -8.82616817951202392578e-01) (0, -4.23924297094345092773e-01) (1, -1.37763953208923339844e+00) (2, 2.20581069588661193848e-01) (3, 2.36857056617736816406e+00) (4, -1.86816978454589843750e+00) (5, -1.65338826179504394531e+00) (6, 2.67258572578430175781e+00) (7, 1.09477472305297851562e+00) (8, 9.80692028999328613281e-01) (9, 4.33763623237609863281e-01) (10, 4.39283847808837890625e-02) (11, -2.76966571807861328125e+00) (12, -1.59978032112121582031e+00) (13, -2.39848136901855468750e+00) (14, -1.47834748029708862305e-01) (15, -6.89239859580993652344e-01) (16, 5.31477546691894531250e+00) (17, -1.17743360996246337891e+00) (18, 3.98130631446838378906e+00) (19, 3.29384040832519531250e+00) (20, 8.26658344268798828125e+00) (21, 4.81235456466674804688e+00) (22, -5.54032516479492187500e+00) (23, 9.06686902046203613281e-01) (24, -1.11111717224121093750e+01) (25, 2.74011611938476562500e+00) (26, -1.11394572257995605469e+00) (27, -4.66360241174697875977e-01) (28, -4.51402807235717773438e+00) (29, -4.02674943208694458008e-01) (30, 1.37132871150970458984e+00) (31, -2.48498058319091796875e+00) (32, 3.65056347846984863281e+00) (33, -2.11099505424499511719e+00) (34, -6.47863483428955078125e+00) (35, 6.29801845550537109375e+00) (36, 1.58956623077392578125e+00) (37, -9.94978904724121093750e+00) (38, 1.81149387359619140625e+00) (39, 2.35118150711059570312e+00) (40, 2.30386447906494140625e+00) (41, -3.99200630187988281250e+00) (42, 8.43547701835632324219e-01) (43, 8.21631014347076416016e-01) (44, -4.51625633239746093750e+00) (45, -1.61138975620269775391e+00) (46, 3.25734019279479980469e+00) (47, 4.57630348205566406250e+00) (48, -2.02753615379333496094e+00) (49, 6.46906077861785888672e-01) (50, -2.79069113731384277344e+00) (51, -2.56397914886474609375e+00) (52, 3.07406210899353027344e+00) (53, 6.97408866882324218750e+00) (54, 8.31722840666770935059e-03) (55, 4.70372498035430908203e-01) (56, 1.22713029384613037109e+00) (57, 8.65856632590293884277e-02) (58, -1.03078818321228027344e+00) (59, -2.51572608947753906250e+00) (60, 6.33918821811676025391e-01) (61, -2.53824621438980102539e-01) (62, -3.13078331947326660156e+00) (63, 7.19279468059539794922e-01) (64, 6.31339073181152343750e-01) (65, 1.66656887531280517578e+00) (66, -4.26091384887695312500e+00) (67, -1.17212235927581787109e+00) (68, -8.32271695137023925781e-01) (69, -9.65479254722595214844e-01) (70, -2.09165573120117187500e+00) (71, 1.41108706593513488770e-01) (72, 1.09571504592895507812e+00) (73, 2.02591466903686523438e+00) (74, 1.67100143432617187500e+00) (75, 1.58600091934204101562e+00) (76, 2.01570928096771240234e-01) (77, 1.44689202308654785156e+00) (78, 3.98801028728485107422e-01) (79, 2.86584701389074325562e-02) (80, -5.25250136852264404297e-01) (81, -1.79326629638671875000e+00) (82, -6.63227140903472900391e-01) (83, -2.10529729723930358887e-01) (84, -6.28015100955963134766e-01) (85, -4.47292029857635498047e-02) (86, 3.50717008113861083984e-01) (87, -5.28285861015319824219e-01) (88, -3.06075751781463623047e-01) (89, 2.94783622026443481445e-01) (90, 2.07514941692352294922e-01) (91, 2.13206171989440917969e-01) (92, 3.46116542816162109375e-01) (93, -4.26197975873947143555e-01) (94, -3.83523285388946533203e-01) (95, 3.07055443525314331055e-01) (96, -4.71123665571212768555e-01) (97, 3.60381722450256347656e-01) (98, -5.59292018413543701172e-01) (99, 2.84724235534667968750e-01) (100, -3.28005939722061157227e-01) (101, 1.26838588714599609375e+00) (102, -5.44742536544799804688e+00) (103, 9.46066856384277343750e+00) (104, 2.30340099334716796875e+00) (0, -4.27335405349731445312e+00) (1, 1.14901089668273925781e+00) (2, 1.74382078647613525391e+00) (3, -1.33961048126220703125e+01) (4, 1.70596277713775634766e+00) (5, 1.06399106979370117188e+00) (6, 2.43658280372619628906e+00) (7, 2.08821659088134765625e+01) (8, 1.14255499839782714844e+00) (9, 1.44221901893615722656e+00) (10, 1.69304740428924560547e+00) (11, 2.38216614723205566406e+00) (12, 1.77691066265106201172e+00) (13, 1.31025183200836181641e+00) (14, 1.38235914707183837891e+00) (15, 1.85033643245697021484e+00) (16, 2.61006379127502441406e+00) (17, 2.08862590789794921875e+00) (18, 2.26396656036376953125e+00) (19, 2.23676228523254394531e+00) (20, 2.82279372215270996094e+00) (21, 1.34827563476562500000e+03) (22, 1.50000000000000000000e+03) (23, 4.64332580566406250000e+00) (24, 1.50000000000000000000e+03) (25, 4.24326276779174804688e+00) (26, 4.39963531494140625000e+00) (27, 2.60900211334228515625e+00) (28, 2.64102292060852050781e+00) (29, 2.69721817970275878906e+00) (30, 2.62456989288330078125e+00) (31, 2.41268610954284667969e+00) (32, 2.75934410095214843750e+00) (33, 2.52563524246215820312e+00) (34, 2.40706682205200195312e+00) (35, 4.08191299438476562500e+00) (36, 6.45629405975341796875e+00) (37, 1.11460888385772705078e+00) (38, 1.65665969848632812500e+02) (39, 2.25126056671142578125e+01) (40, 1.27636027336120605469e+00) (41, 1.56573120117187500000e+02) (42, 1.38415539264678955078e+00) (43, 4.25909566879272460938e+00) (44, 2.96593618392944335938e+00) (45, 2.74960517883300781250e+00) (46, 1.33066223144531250000e+02) (47, 1.22256567382812500000e+03) (48, 4.91037607192993164062e+00) (49, 2.76826596260070800781e+00) (50, 1.96670031547546386719e+00) (51, 1.46402060985565185547e+00) (52, 2.12408232688903808594e+00) (53, 1.70805990695953369141e+00) (54, 1.49855339527130126953e+00) (55, 3.33040740966796875000e+02) (56, 1.30279755592346191406e+00) (57, -3.29748321533203125000e+02) (58, 1.14088475704193115234e+00) (59, 1.36775803565979003906e+00) (60, 1.24765253067016601562e+00) (61, 1.27875983715057373047e+00) (62, 1.49826419353485107422e+00) (63, 1.21578800678253173828e+00) (64, 1.26572084426879882812e+00) (65, 1.47211384773254394531e+00) (66, 5.69092163085937500000e+02) (67, 1.52150428295135498047e+00) (68, 6.85645294189453125000e+00) (69, 5.87800860404968261719e-01) (70, 1.53884696960449218750e+00) (71, 1.41636490821838378906e+00) (72, 1.38725030422210693359e+00) (73, 4.70446357727050781250e+01) (74, 1.54783093929290771484e+00) (75, 1.91202211380004882812e+00) (76, 9.51552152633666992188e-01) (77, 1.27864754199981689453e+00) (78, 1.25970458984375000000e+00) (79, 1.29650640487670898438e+00) (80, -2.24952818825840950012e-03) (81, -2.55176010131835937500e+02) (82, 1.29042732715606689453e+00) (83, 8.34483385086059570312e-01) (84, 1.20149123668670654297e+00) (85, 1.12528955936431884766e+00) (86, 2.28176563978195190430e-01) (87, 1.50591337680816650391e+00) (88, 1.54016542434692382812e+00) (89, 1.27726328372955322266e+00) (90, 1.34190356731414794922e+00) (91, 9.11212563514709472656e-01) (92, 1.04502475261688232422e+00) (93, 1.28220522403717041016e+00) (94, 1.23297584056854248047e+00) (95, 1.26691520214080810547e+00) (96, 2.18451442718505859375e+01) (97, 1.62646126747131347656e+00) (98, 1.21757626533508300781e+00) (99, 1.69795906543731689453e+00) (100, 1.27395093441009521484e+00) (101, 8.73378634452819824219e-01) (102, 2.88934779167175292969e+00) (103, -9.44812119007110595703e-01) (104, 6.88697814941406250000e-01) (0, -1.10679254531860351562e+01) (1, 2.76974463462829589844e+00) (2, 2.81629419326782226562e+00) (3, -2.87414145469665527344e+00) (4, 2.84512472152709960938e+00) (5, 2.04431080818176269531e+00) (6, 3.18044209480285644531e+00) (7, 2.18786029815673828125e+01) (8, 3.01224255561828613281e+00) (9, 2.94314932823181152344e+00) (10, 2.80428862571716308594e+00) (11, 2.87806844711303710938e+00) (12, 2.96325206756591796875e+00) (13, 1.77246212959289550781e+00) (14, 2.97288084030151367188e+00) (15, 2.87706422805786132812e+00) (16, 3.00021314620971679688e+00) (17, 2.82126879692077636719e+00) (18, 2.66883635520935058594e+00) (19, 2.84105777740478515625e+00) (20, 2.79357147216796875000e+00) (21, 1.47931228637695312500e+02) (22, 1.50000000000000000000e+03) (23, 4.65344285964965820312e+00) (24, 1.50000000000000000000e+03) (25, 3.29056525230407714844e+00) (26, 8.00145149230957031250e+00) (27, 2.71141242980957031250e+00) (28, 2.60464096069335937500e+00) (29, 2.13318920135498046875e+00) (30, 2.07629442214965820312e+00) (31, 2.21740508079528808594e+00) (32, 5.83643817901611328125e+00) (33, 2.25962615013122558594e+00) (34, 2.26156783103942871094e+00) (35, 1.17261497497558593750e+02) (36, 1.13063735961914062500e+01) (37, 5.11590385437011718750e+00) (38, 1.50000000000000000000e+03) (39, 7.00869567871093750000e+02) (40, 3.26268959045410156250e+00) (41, 1.54169586181640625000e+02) (42, 2.86866784095764160156e+00) (43, 5.65206813812255859375e+00) (44, 3.02462291717529296875e+00) (45, 2.69313859939575195312e+00) (46, 1.22337921142578125000e+02) (47, 7.99789611816406250000e+02) (48, 1.60731323242187500000e+02) (49, 3.92587814331054687500e+01) (50, 3.30202460289001464844e+00) (51, 3.02234768867492675781e+00) (52, 3.40450835227966308594e+00) (53, 2.99888181686401367188e+00) (54, 3.15659666061401367188e+00) (55, 2.48472396850585937500e+02) (56, 2.93876481056213378906e+00) (57, -5.05376007080078125000e+02) (58, 1.19007778167724609375e+00) (59, -4.11656141281127929688e+00) (60, 2.73038911819458007812e+00) (61, 2.80259799957275390625e+00) (62, 2.87206864356994628906e+00) (63, 2.79215645790100097656e+00) (64, 1.96160912513732910156e+00) (65, 3.40005350112915039062e+00) (66, 5.47414794921875000000e+02) (67, 1.91752028465270996094e+00) (68, 6.96862602233886718750e+00) (69, 1.15029406547546386719e+00) (70, 3.07659196853637695312e+00) (71, 2.90742588043212890625e+00) (72, 2.87086391448974609375e+00) (73, 4.95349006652832031250e+01) (74, 2.84974837303161621094e+00) (75, 2.98193407058715820312e+00) (76, 2.88562202453613281250e+00) (77, 2.89753675460815429688e+00) (78, 2.76934862136840820312e+00) (79, 2.72301840782165527344e+00) (80, 2.48359227180480957031e+00) (81, -4.98215606689453125000e+02) (82, 2.81995272636413574219e+00) (83, 2.29015254974365234375e+00) (84, 2.74056339263916015625e+00) (85, 2.75863742828369140625e+00) (86, 2.75501084327697753906e+00) (87, 3.08330678939819335938e+00) (88, 2.98612809181213378906e+00) (89, 2.85862445831298828125e+00) (90, 2.83147931098937988281e+00) (91, 2.37897205352783203125e+00) (92, 2.46173048019409179688e+00) (93, 2.42876815795898437500e+00) (94, 2.82545042037963867188e+00) (95, 2.77958798408508300781e+00) (96, 2.34850826263427734375e+01) (97, 3.35785579681396484375e+00) (98, 2.86319088935852050781e+00) (99, 3.36999344825744628906e+00) (100, 2.73860740661621093750e+00) (101, 2.44315886497497558594e+00) (102, 2.95672011375427246094e+00) (103, -9.68127787113189697266e-01) (104, -9.50566768646240234375e-01) (0, -1.84280872344970703125e+00) (1, -2.19341471791267395020e-01) (2, 7.96922147274017333984e-01) (3, 5.28593540191650390625e-01) (4, 3.70736032724380493164e-01) (5, -4.64386463165283203125e-01) (6, -9.14039707183837890625e+00) (7, 1.18746080398559570312e+01) (8, 4.76612472534179687500e+00) (9, 2.11049032211303710938e+00) (10, 3.92522662878036499023e-01) (11, 8.79655551910400390625e+00) (12, 2.58093929290771484375e+00) (13, -1.79538226127624511719e+00) (14, 1.82904970645904541016e+00) (15, 1.00266218185424804688e+00) (16, -7.90438413619995117188e-01) (17, 2.17228913307189941406e+00) (18, -8.42872381210327148438e-01) (19, -2.23338174819946289062e+00) (20, -2.96054577827453613281e+00) (21, -1.21851563453674316406e+00) (22, -5.49739718437194824219e-01) (23, -1.69670426845550537109e+00) (24, -9.03928375244140625000e+00) (25, -1.63525319099426269531e+00) (26, -1.18628852069377899170e-01) (27, 1.10735106468200683594e+00) (28, 4.19717073440551757812e+00) (29, -2.17644646763801574707e-01) (30, -5.27363634109497070312e+00) (31, 2.73756027221679687500e+00) (32, -2.29268446564674377441e-01) (33, 2.48144507408142089844e+00) (34, 6.92910730838775634766e-01) (35, 3.99152922630310058594e+00) (36, -1.09986114501953125000e+00) (37, 2.67945671081542968750e+00) (38, 1.09510402679443359375e+01) (39, 2.39172315597534179688e+00) (40, 1.14548158645629882812e+00) (41, 4.44151258468627929688e+00) (42, -1.24297916889190673828e+00) (43, -3.97973060607910156250e+00) (44, 1.85043036937713623047e+00) (45, 3.32469987869262695312e+00) (46, 5.83403110504150390625e-02) (47, -5.81528902053833007812e+00) (48, -2.09485197067260742188e+00) (49, -4.43776756525039672852e-01) (50, -6.62406682968139648438e-02) (51, -5.66565096378326416016e-01) (52, 1.13935863971710205078e+00) (53, 2.76822829246520996094e+00) (54, -2.62446880340576171875e-01) (55, -5.95865440368652343750e+00) (56, 6.07827615737915039062e+00) (57, 2.33002495765686035156e+00) (58, 9.40841376781463623047e-01) (59, 2.01629114151000976562e+00) (60, -4.03086364269256591797e-01) (61, 1.72187113761901855469e+00) (62, -3.24036359786987304688e+00) (63, -3.84249806404113769531e-01) (64, -4.88273829221725463867e-01) (65, 1.38651290908455848694e-02) (66, 1.54738569259643554688e+00) (67, 1.28677034378051757812e+00) (68, 9.04032468795776367188e-01) (69, 1.13833808898925781250e+00) (70, 4.12998437881469726562e-01) (71, 8.64826619625091552734e-01) (72, 3.20775777101516723633e-01) (73, -4.92243480682373046875e+00) (74, 1.08256876468658447266e+00) (75, 5.95286786556243896484e-02) (76, 1.06885123252868652344e+00) (77, -4.31650161743164062500e-01) (78, -2.49194204807281494141e-01) (79, -3.66626620292663574219e-01) (80, -8.31203818321228027344e-01) (81, 3.29691112041473388672e-01) (82, 1.72689810395240783691e-01) (83, 1.28801941871643066406e+00) (84, 5.71068525314331054688e-02) (85, 7.44790792465209960938e-01) (86, 8.02742183208465576172e-01) (87, 1.15485394001007080078e+00) (88, -5.47217309474945068359e-01) (89, -1.09172098338603973389e-01) (90, 8.91385823488235473633e-02) (91, 1.46741592884063720703e+00) (92, -4.59431052207946777344e-01) (93, 7.86531388759613037109e-01) (94, 8.26968967914581298828e-01) (95, 7.87512958049774169922e-01) (96, -1.23687477111816406250e+01) (97, 6.01373910903930664062e-01) (98, 6.90319165587425231934e-02) (99, -1.96863219141960144043e-01) (100, 8.41286122798919677734e-01) (101, 5.17844378948211669922e-01) (102, 8.84303450584411621094e-01) (103, 9.19987082481384277344e-01) (104, 9.98824179172515869141e-01) (0, 8.01847553253173828125e+00) (1, -3.49557304382324218750e+00) (2, 1.73894703388214111328e+00) (3, 3.15807414054870605469e+00) (4, -6.99738919734954833984e-01) (5, -1.75811839103698730469e+00) (6, 4.75495487451553344727e-01) (7, 2.55705118179321289062e+00) (8, 6.81487470865249633789e-02) (9, -6.61445379257202148438e-01) (10, 2.61768722534179687500e+00) (11, 3.73652353882789611816e-02) (12, -7.58659303188323974609e-01) (13, 2.52699398994445800781e+00) (14, 2.38858819007873535156e+00) (15, -8.31134200096130371094e-01) (16, -1.51362448930740356445e-01) (17, 2.26104307174682617188e+00) (18, 2.30793762207031250000e+00) (19, 1.43534564971923828125e+00) (20, 1.92242681980133056641e+00) (21, -1.01325309276580810547e+00) (22, 9.32310760021209716797e-01) (23, -7.27163136005401611328e-01) (24, -7.10618793964385986328e-01) (25, -3.99307787418365478516e-01) (26, -1.08332788944244384766e+00) (27, -1.33159530162811279297e+00) (28, 2.41526317596435546875e+00) (29, 3.07645112276077270508e-01) (30, -6.42889201641082763672e-01) (31, 2.70120143890380859375e+00) (32, -8.81763398647308349609e-01) (33, 2.08826708793640136719e+00) (34, -5.52219748497009277344e-01) (35, 1.06799387931823730469e+00) (36, -9.39113318920135498047e-01) (37, 3.44163924455642700195e-01) (38, 7.30281651020050048828e-01) (39, -7.89059460163116455078e-01) (40, -5.07639646530151367188e+00) (41, -3.16455841064453125000e-01) (42, -8.45860838890075683594e-01) (43, 6.20977520942687988281e-01) (44, -2.10174155235290527344e+00) (45, 4.16473293304443359375e+00) (46, 5.61869382858276367188e-01) (47, 5.60199117660522460938e+00) (48, -1.92578160762786865234e+00) (49, -6.45923972129821777344e-01) (50, 2.55764770507812500000e+00) (51, 9.23518478870391845703e-01) (52, 3.67200279235839843750e+00) (53, 2.04245492815971374512e-01) (54, 1.25611588358879089355e-01) (55, 6.56617805361747741699e-02) (56, -8.35645794868469238281e-01) (57, -7.90941417217254638672e-01) (58, -1.06084024906158447266e+00) (59, 2.62846887111663818359e-01) (60, -5.91806650161743164062e-01) (61, 7.09906816482543945312e-01) (62, -8.89122903347015380859e-01) (63, -6.58693075180053710938e-01) (64, -8.65285873413085937500e-01) (65, -6.89779222011566162109e-01) (66, -9.36383068561553955078e-01) (67, -1.05206429958343505859e+00) (68, -7.52592563629150390625e-01) (69, -8.18070888519287109375e-01) (70, -1.77821648120880126953e+00) (71, 7.06281960010528564453e-01) (72, -2.64966964721679687500e-01) (73, 7.96325266361236572266e-01) (74, -7.19986796379089355469e-01) (75, -8.40311586856842041016e-01) (76, -6.68633580207824707031e-01) (77, -7.67450094223022460938e-01) (78, -7.57715523242950439453e-01) (79, -8.52407217025756835938e-01) (80, 1.10912585258483886719e+00) (81, 6.32384359836578369141e-01) (82, -7.99366176128387451172e-01) (83, -7.84143209457397460938e-01) (84, -5.26971995830535888672e-01) (85, 7.22261607646942138672e-01) (86, -7.61659324169158935547e-01) (87, 2.24069461226463317871e-01) (88, 1.28309214115142822266e+00) (89, -7.19496726989746093750e-01) (90, -8.00875067710876464844e-01) (91, -6.56273126602172851562e-01) (92, -7.07914948463439941406e-01) (93, -6.71164691448211669922e-01) (94, -7.25912988185882568359e-01) (95, 8.09071242809295654297e-01) (96, 5.59547841548919677734e-01) (97, 7.01171815395355224609e-01) (98, 7.23893225193023681641e-01) (99, -7.76373684406280517578e-01) (100, -5.50017118453979492188e-01) (101, 1.25872790813446044922e+00) (102, 6.57156467437744140625e+00) (103, -2.62932300567626953125e+00) (104, 2.67830657958984375000e+00) (0, -9.92706489562988281250e+00) (1, 2.61991691589355468750e+00) (2, 2.69720602035522460938e+00) (3, -3.51519155502319335938e+00) (4, 2.66608381271362304688e+00) (5, 1.80741798877716064453e+00) (6, 2.80204272270202636719e+00) (7, 4.36873565673828125000e+02) (8, 2.08273768424987792969e+00) (9, 2.77729892730712890625e+00) (10, 2.76885247230529785156e+00) (11, 2.58390522003173828125e+00) (12, 3.77773880958557128906e+00) (13, 1.72094321250915527344e+00) (14, 2.77907133102416992188e+00) (15, 2.70448184013366699219e+00) (16, 2.94779706001281738281e+00) (17, 2.72442555427551269531e+00) (18, 3.77257299423217773438e+00) (19, 2.60745739936828613281e+00) (20, 4.83371782302856445312e+00) (21, 1.50000000000000000000e+03) (22, 1.50000000000000000000e+03) (23, 3.88259577751159667969e+00) (24, 1.50000000000000000000e+03) (25, 3.33601641654968261719e+00) (26, 4.16633653640747070312e+00) (27, 2.67093753814697265625e+00) (28, 3.28321623802185058594e+00) (29, 2.71314191818237304688e+00) (30, 2.61983227729797363281e+00) (31, 2.31365847587585449219e+00) (32, 2.46251559257507324219e+00) (33, 2.23457789421081542969e+00) (34, 1.46995935440063476562e+01) (35, 5.32481670379638671875e+00) (36, 3.21340489387512207031e+00) (37, 2.35942244529724121094e+00) (38, 1.50000000000000000000e+03) (39, 4.02968940734863281250e+01) (40, 2.88479709625244140625e+00) (41, 1.30697875976562500000e+02) (42, 2.81131672859191894531e+00) (43, 3.77935600280761718750e+00) (44, 2.95713663101196289062e+00) (45, 2.67772698402404785156e+00) (46, 1.08186851501464843750e+02) (47, 1.49976086425781250000e+03) (48, 1.15684863281250000000e+03) (49, 4.48142099380493164062e+00) (50, 2.68488979339599609375e+00) (51, 2.96599936485290527344e+00) (52, 2.65376210212707519531e+00) (53, 2.84478592872619628906e+00) (54, 2.75095367431640625000e+00) (55, 1.70150314331054687500e+02) (56, 2.65483450889587402344e+00) (57, -7.83918640136718750000e+02) (58, 1.08794879913330078125e+00) (59, -5.46547269821166992188e+00) (60, 2.53808951377868652344e+00) (61, 2.77410173416137695312e+00) (62, 2.35702395439147949219e+00) (63, 2.70979309082031250000e+00) (64, 2.47030973434448242188e+00) (65, 2.42156243324279785156e+00) (66, 1.49879589843750000000e+03) (67, 1.91260647773742675781e+00) (68, 1.39116945266723632812e+01) (69, 1.08311986923217773438e+00) (70, 2.42470145225524902344e+00) (71, 2.81915616989135742188e+00) (72, 2.72790360450744628906e+00) (73, 3.09023208618164062500e+01) (74, 2.22493886947631835938e+00) (75, 2.74241828918457031250e+00) (76, 2.28145170211791992188e+00) (77, 2.27475237846374511719e+00) (78, 2.58743691444396972656e+00) (79, 2.73326134681701660156e+00) (80, 2.35279774665832519531e+00) (81, -3.91031860351562500000e+02) (82, 2.56484103202819824219e+00) (83, 2.10055208206176757812e+00) (84, 2.63947248458862304688e+00) (85, 2.58583021163940429688e+00) (86, 2.63562107086181640625e+00) (87, 2.94201850891113281250e+00) (88, 2.78772735595703125000e+00) (89, 2.69902920722961425781e+00) (90, 2.80527877807617187500e+00) (91, 2.25225257873535156250e+00) (92, 2.42467379570007324219e+00) (93, 2.31696629524230957031e+00) (94, 2.58723402023315429688e+00) (95, 2.32312250137329101562e+00) (96, 2.28209838867187500000e+01) (97, 2.45090579986572265625e+00) (98, 2.34217429161071777344e+00) (99, 2.73408722877502441406e+00) (100, 2.57185173034667968750e+00) (101, 2.24841523170471191406e+00) (102, 2.81772589683532714844e+00) (103, -8.37299048900604248047e-01) (104, -3.07673901319503784180e-01) (0, 1.51762127876281738281e-01) (1, 1.72436773777008056641e-01) (2, -3.12267363071441650391e-01) (3, 1.86443352699279785156e+00) (4, 3.43904352188110351562e+00) (5, 1.55850374698638916016e+00) (6, -4.74056148529052734375e+00) (7, 1.14417314529418945312e+00) (8, 5.53074026107788085938e+00) (9, -3.23942929506301879883e-01) (10, 5.59417963027954101562e-01) (11, -8.84513378143310546875e+00) (12, 6.43494129180908203125e-01) (13, 1.11834979057312011719e+00) (14, -4.08847522735595703125e+00) (15, 2.05081725120544433594e+00) (16, 5.24763965606689453125e+00) (17, -2.22140359878540039062e+00) (18, 3.85082030296325683594e+00) (19, 1.59437596797943115234e+00) (20, -5.69788885116577148438e+00) (21, 8.50795364379882812500e+00) (22, 2.12381958961486816406e+00) (23, 1.90459334850311279297e+00) (24, 1.20306777954101562500e+00) (25, 1.97118127346038818359e+00) (26, -1.32203710079193115234e+00) (27, 3.31939727067947387695e-01) (28, -4.81333780288696289062e+00) (29, 4.18023198843002319336e-01) (30, 5.35935759544372558594e-01) (31, 2.01731061935424804688e+00) (32, 5.33725643157958984375e+00) (33, -2.33710575103759765625e+00) (34, 2.65902733802795410156e+00) (35, -3.94864249229431152344e+00) (36, 2.33955883979797363281e+00) (37, -2.96809494495391845703e-01) (38, -1.34451007843017578125e+00) (39, -2.59753155708312988281e+00) (40, -3.56741935014724731445e-01) (41, 8.62154245376586914062e-01) (42, -6.73057854175567626953e-01) (43, 3.42135697603225708008e-01) (44, 1.68685662746429443359e+00) (45, -1.26115167140960693359e+00) (46, 1.61722183227539062500e+00) (47, 4.86412096023559570312e+00) (48, 1.01085770130157470703e+00) (49, -1.09999299049377441406e+00) (50, 8.78297388553619384766e-01) (51, 3.84714603424072265625e+00) (52, -3.65874230861663818359e-01) (53, 3.11421692371368408203e-01) (54, 4.08894109725952148438e+00) (55, -6.12379360198974609375e+00) (56, -1.61512553691864013672e+00) (57, -1.31966459751129150391e+00) (58, -1.50108337402343750000e-01) (59, -1.58207505941390991211e-01) (60, 3.98806244134902954102e-01) (61, -6.12275063991546630859e-01) (62, 1.98312914371490478516e+00) (63, 8.82492840290069580078e-01) (64, -2.37142968177795410156e+00) (65, -1.50437429547309875488e-01) (66, 3.12867522239685058594e-01) (67, 7.48946309089660644531e-01) (68, 1.09389138221740722656e+00) (69, 1.90297281742095947266e+00) (70, -9.55723166465759277344e-01) (71, 4.63868111371994018555e-01) (72, -1.71889114379882812500e+00) (73, -8.34677505493164062500e+00) (74, -2.85989820957183837891e-01) (75, 1.47853827476501464844e+00) (76, 2.07394886016845703125e+00) (77, 9.30282294750213623047e-01) (78, 1.11469244956970214844e+00) (79, -4.02422785758972167969e-01) (80, 1.28452682495117187500e+00) (81, 2.22200822830200195312e+00) (82, -3.13859313726425170898e-01) (83, 5.42024135589599609375e-01) (84, 9.63852226734161376953e-01) (85, 1.39879822731018066406e+00) (86, 1.91637146472930908203e+00) (87, 7.23306179046630859375e-01) (88, 2.35718202590942382812e+00) (89, 2.04991555213928222656e+00) (90, -3.02567273378372192383e-01) (91, 1.29617178440093994141e+00) (92, 2.78488665819168090820e-01) (93, 1.97815626859664916992e-01) (94, 7.14560210704803466797e-01) (95, 7.80951201915740966797e-01) (96, -1.70125122070312500000e+01) (97, 7.62919723987579345703e-01) (98, 6.79338455200195312500e-01) (99, -2.33712717890739440918e-01) (100, 2.21898555755615234375e+00) (101, 2.33099415898323059082e-01) (102, 1.28051567077636718750e+00) (103, 6.80230498313903808594e-01) (104, 2.21450662612915039062e+00) (0, -8.63693046569824218750e+00) (1, 2.07910299301147460938e+00) (2, 2.70181035995483398438e+00) (3, -3.51711440086364746094e+00) (4, 2.64546155929565429688e+00) (5, 2.09558629989624023438e+00) (6, 3.12411975860595703125e+00) (7, 2.18513183593750000000e+01) (8, 2.12427830696105957031e+00) (9, 2.83276081085205078125e+00) (10, 2.75806665420532226562e+00) (11, 2.63496255874633789062e+00) (12, 2.97870731353759765625e+00) (13, 1.19278979301452636719e+00) (14, 2.86824154853820800781e+00) (15, 2.89691805839538574219e+00) (16, 2.78138446807861328125e+00) (17, 2.82944202423095703125e+00) (18, 2.81352949142456054688e+00) (19, 2.75709772109985351562e+00) (20, 2.72122120857238769531e+00) (21, 1.50000000000000000000e+03) (22, 1.50000000000000000000e+03) (23, 1.03393106460571289062e+01) (24, 1.49971203613281250000e+03) (25, 6.02889442443847656250e+00) (26, 1.48789119720458984375e+01) (27, 2.61272430419921875000e+00) (28, 2.69888448715209960938e+00) (29, 2.85626339912414550781e+00) (30, 2.73821258544921875000e+00) (31, 3.02804565429687500000e+00) (32, 4.39275121688842773438e+00) (33, 2.77260947227478027344e+00) (34, 2.88925099372863769531e+00) (35, 1.42572679519653320312e+01) (36, 8.12878417968750000000e+00) (37, 7.09496212005615234375e+00) (38, 1.44993029785156250000e+03) (39, 2.70238246917724609375e+01) (40, 3.53356838226318359375e+00) (41, 1.68308441162109375000e+02) (42, 2.72923517227172851562e+00) (43, 5.72004318237304687500e+00) (44, 2.91469168663024902344e+00) (45, 2.30520343780517578125e+00) (46, 1.25383827209472656250e+02) (47, 1.00444818115234375000e+03) (48, 9.66396240234375000000e+02) (49, 1.45174455642700195312e+01) (50, 1.72882449626922607422e+00) (51, 2.87267971038818359375e+00) (52, 1.92308413982391357422e+00) (53, 2.62628197669982910156e+00) (54, 1.49719882011413574219e+00) (55, 2.43405929565429687500e+02) (56, 2.76846337318420410156e+00) (57, -8.06268844604492187500e+01) (58, 1.21072542667388916016e+00) (59, -2.20908432006835937500e+01) (60, 2.60114550590515136719e+00) (61, 2.67611074447631835938e+00) (62, 2.99008512496948242188e+00) (63, 2.56085824966430664062e+00) (64, 1.92109680175781250000e+00) (65, 5.38765478134155273438e+00) (66, 1.46679336547851562500e+02) (67, 1.83993709087371826172e+00) (68, 4.47917509078979492188e+00) (69, -2.59388637542724609375e+00) (70, 4.44138526916503906250e+00) (71, 2.99468612670898437500e+00) (72, 2.81373310089111328125e+00) (73, 4.47061424255371093750e+01) (74, 1.53923869132995605469e+00) (75, 1.55776202678680419922e+00) (76, 2.68069696426391601562e+00) (77, 2.70704889297485351562e+00) (78, 2.81614518165588378906e+00) (79, 2.45925354957580566406e+00) (80, 2.28321099281311035156e+00) (81, -4.47484359741210937500e+01) (82, 2.71203184127807617188e+00) (83, 7.47196912765502929688e-01) (84, 2.75107550621032714844e+00) (85, 2.63780498504638671875e+00) (86, 2.62880396842956542969e+00) (87, 3.37791252136230468750e+00) (88, 2.95919013023376464844e+00) (89, 2.63716483116149902344e+00) (90, 2.79028797149658203125e+00) (91, 2.31630420684814453125e+00) (92, 2.42007136344909667969e+00) (93, 3.02008938789367675781e+00) (94, 2.79453158378601074219e+00) (95, 2.85834836959838867188e+00) (96, 2.34536762237548828125e+01) (97, 4.50196266174316406250e+00) (98, 2.73330926895141601562e+00) (99, 2.28077964782714843750e+01) (100, 2.63985109329223632812e+00) (101, 1.82491242885589599609e+00) (102, 2.97366166114807128906e+00) (103, -1.00973725318908691406e+00) (104, -7.49277293682098388672e-01) (0, -3.24973225593566894531e-01) (1, 7.27740600705146789551e-02) (2, -1.84024810791015625000e+00) (3, -1.04042792320251464844e+00) (4, 2.61601018905639648438e+00) (5, 3.80251789093017578125e+00) (6, 1.12217795848846435547e+00) (7, -4.21997755765914916992e-01) (8, 7.45256185531616210938e+00) (9, 2.00812196731567382812e+00) (10, 2.25886654853820800781e+00) (11, -1.00167560577392578125e+00) (12, 2.15998744964599609375e+00) (13, 2.41797852516174316406e+00) (14, -3.09439897537231445312e+00) (15, 5.95843672752380371094e-01) (16, 2.34567856788635253906e+00) (17, 2.25924825668334960938e+00) (18, -3.02312731742858886719e-01) (19, -1.82930624485015869141e+00) (20, -7.84187853336334228516e-01) (21, 4.69226747751235961914e-01) (22, -9.06566455960273742676e-02) (23, -3.03484153747558593750e+00) (24, 1.29295980930328369141e+00) (25, -4.21674758195877075195e-01) (26, 6.15877568721771240234e-01) (27, 2.68328237533569335938e+00) (28, -8.66526961326599121094e-01) (29, -4.71765375137329101562e+00) (30, -2.75491297245025634766e-01) (31, 1.13542664051055908203e+00) (32, 1.32584285736083984375e+00) (33, -2.06731724739074707031e+00) (34, 2.48162364959716796875e+00) (35, -1.74673748016357421875e+00) (36, 2.66571784019470214844e+00) (37, 9.35326874256134033203e-01) (38, 4.17082929611206054688e+00) (39, 7.89398610591888427734e-01) (40, -1.75735747814178466797e+00) (41, 1.09217453002929687500e+00) (42, -4.89732742309570312500e-01) (43, 7.61794233322143554688e+00) (44, 2.34589791297912597656e+00) (45, 2.72579431533813476562e+00) (46, 1.01911568641662597656e+00) (47, 1.81801867485046386719e+00) (48, 1.40422070026397705078e+00) (49, -2.96967744827270507812e+00) (50, -2.17661905288696289062e+00) (51, -1.11133682727813720703e+00) (52, -1.62558531761169433594e+00) (53, 8.75930118560791015625e+00) (54, 3.30843901634216308594e+00) (55, 4.01274299621582031250e+00) (56, -2.50113129615783691406e+00) (57, 2.33529138565063476562e+00) (58, 8.66873073577880859375e+00) (59, 2.55526947975158691406e+00) (60, 6.38450145721435546875e-01) (61, -3.22593629360198974609e-01) (62, -2.72471636533737182617e-01) (63, -3.62485855817794799805e-01) (64, -1.72295570373535156250e+00) (65, -2.68480181694030761719e-01) (66, -1.52411866188049316406e+00) (67, -3.67668151855468750000e+00) (68, 4.23758804798126220703e-01) (69, -2.22155869007110595703e-01) (70, -1.89119076728820800781e+00) (71, 5.04984438419342041016e-01) (72, -1.82118797302246093750e+00) (73, -6.97539806365966796875e+00) (74, 2.50534486770629882812e+00) (75, 2.14409008622169494629e-01) (76, -5.35709783434867858887e-02) (77, 7.70873248577117919922e-01) (78, 1.35736107826232910156e+00) (79, 1.97235107421875000000e+00) (80, 6.06600701808929443359e-01) (81, 2.61278033256530761719e+00) (82, -8.37124168872833251953e-01) (83, 1.06776922941207885742e-01) (84, -4.80785161256790161133e-01) (85, 2.15459561347961425781e+00) (86, 6.22602343559265136719e-01) (87, 8.15850555896759033203e-01) (88, 5.68485260009765625000e-01) (89, 2.48223677277565002441e-01) (90, -1.92782652378082275391e+00) (91, 1.14407444000244140625e+00) (92, 5.65461397171020507812e-01) (93, -2.11712896823883056641e-01) (94, 7.95328438282012939453e-01) (95, -2.55909085273742675781e-01) (96, -1.74820632934570312500e+01) (97, -3.16566348075866699219e-01) (98, -4.66873586177825927734e-01) (99, 8.20551574230194091797e-01) (100, -2.81393259763717651367e-01) (101, -8.13410043716430664062e-01) (102, 9.85083341598510742188e-01) (103, 8.25659155845642089844e-01) (104, 2.11639809608459472656e+00) (0, -1.18589699268341064453e+00) (1, 1.28737604618072509766e+00) (2, 1.37236928939819335938e+00) (3, -7.34076321125030517578e-01) (4, 8.47495079040527343750e-01) (5, -2.07819819450378417969e+00) (6, 1.03292262554168701172e+00) (7, 1.03212106227874755859e+00) (8, -3.67900204658508300781e+00) (9, -5.94715237617492675781e-01) (10, -7.25940823554992675781e-01) (11, 2.19262540340423583984e-01) (12, 3.94237220287322998047e-01) (13, 1.14141726493835449219e+00) (14, 4.81390804052352905273e-01) (15, 7.66331791877746582031e-01) (16, 2.33494758605957031250e+00) (17, -9.17167186737060546875e-01) (18, -1.47014349699020385742e-01) (19, 2.09440469741821289062e+00) (20, -2.26357769966125488281e+00) (21, -4.55892413854598999023e-01) (22, -8.66252541542053222656e-01) (23, -9.10038590431213378906e-01) (24, 7.21921801567077636719e-01) (25, -8.48992228507995605469e-01) (26, -1.20333349704742431641e+00) (27, 8.74405503273010253906e-01) (28, 8.43395829200744628906e-01) (29, -3.88503611087799072266e-01) (30, 2.67799115180969238281e+00) (31, -8.93091201782226562500e-01) (32, 5.31038999557495117188e-01) (33, -1.35179460048675537109e+00) (34, -1.97778391838073730469e+00) (35, -1.10557937622070312500e+00) (36, -3.30818444490432739258e-01) (37, 1.78646159172058105469e+00) (38, 5.71135520935058593750e-01) (39, -1.16224741935729980469e+00) (40, -7.00936257839202880859e-01) (41, -1.89523541927337646484e+00) (42, 6.51718854904174804688e-01) (43, 8.72369647026062011719e-01) (44, 1.23362040519714355469e+00) (45, -7.25428938865661621094e-01) (46, -6.79729938507080078125e-01) (47, 1.90962481498718261719e+00) (48, -1.25891005992889404297e+00) (49, -3.40521275997161865234e-01) (50, -7.27304577827453613281e-01) (51, 6.08370900154113769531e-01) (52, 2.29195213317871093750e+00) (53, -6.51568830013275146484e-01) (54, 2.27306103706359863281e+00) (55, -2.22063589096069335938e+00) (56, -7.26158380508422851562e-01) (57, 1.67959415912628173828e+00) (58, 4.39530086517333984375e+00) (59, 1.77917039394378662109e+00) (60, 6.53606772422790527344e-01) (61, 1.52594840526580810547e+00) (62, 1.45656335353851318359e+00) (63, -7.89903581142425537109e-01) (64, -2.76593708992004394531e+00) (65, 8.32773447036743164062e-01) (66, -1.13481199741363525391e+00) (67, -9.03755426406860351562e-02) (68, -8.01206827163696289062e-01) (69, 6.63156330585479736328e-01) (70, 5.84457665681838989258e-02) (71, -2.53869390487670898438e+00) (72, -3.86578321456909179688e+00) (73, -5.06398820877075195312e+00) (74, -1.11456799507141113281e+00) (75, 1.62578776478767395020e-01) (76, 5.15905499458312988281e-01) (77, -3.13505269587039947510e-02) (78, -1.21558642387390136719e+00) (79, -4.78278219699859619141e-01) (80, 2.46915012598037719727e-01) (81, 6.24205493927001953125e+00) (82, 2.56406569480895996094e+00) (83, 9.88941043615341186523e-02) (84, -1.12399327754974365234e+00) (85, -1.79052222520112991333e-02) (86, -7.35677361488342285156e-01) (87, 1.76853299140930175781e+00) (88, -1.51596939563751220703e+00) (89, -1.09435594081878662109e+00) (90, -7.10719048976898193359e-01) (91, 1.00418865680694580078e+00) (92, 3.82455945014953613281e-01) (93, 1.81407165527343750000e+00) (94, 5.39419949054718017578e-01) (95, -8.87390136718750000000e-01) (96, -3.03744729608297348022e-02) (97, -1.01123809814453125000e+00) (98, 7.69357025623321533203e-01) (99, -7.01268148422241210938e+00) (100, 7.32431292533874511719e-01) (101, 1.17015206813812255859e+00) (102, 1.50909221172332763672e+00) (103, 1.05376017093658447266e+00) (104, 1.24800288677215576172e+00) (0, 4.46102190017700195312e+00) (1, -3.25170159339904785156e-02) (2, 2.17946314811706542969e+00) (3, -1.29304230213165283203e+00) (4, 2.79756039381027221680e-01) (5, 2.12504529953002929688e+00) (6, 1.63866207003593444824e-01) (7, 8.22631061077117919922e-01) (8, -3.84363937377929687500e+00) (9, 4.97813165187835693359e-01) (10, -7.51166224479675292969e-01) (11, -2.43957310914993286133e-01) (12, 6.59986197948455810547e-01) (13, -9.15469050407409667969e-01) (14, -5.51266014575958251953e-01) (15, 4.05030578374862670898e-01) (16, 3.33618068695068359375e+00) (17, -4.39177036285400390625e-01) (18, -6.15998983383178710938e-01) (19, -4.52329218387603759766e-01) (20, -2.41498216986656188965e-01) (21, 2.21135988831520080566e-01) (22, -6.81186974048614501953e-01) (23, 1.08676850795745849609e+00) (24, -2.73703384399414062500e+00) (25, -1.33225965499877929688e+00) (26, 1.49467840790748596191e-01) (27, -7.47051894664764404297e-01) (28, 8.71482074260711669922e-01) (29, 5.37925839424133300781e-01) (30, -1.69209003448486328125e-01) (31, 1.01390585303306579590e-01) (32, 1.08094561100006103516e+00) (33, 7.02439665794372558594e-01) (34, -2.23998570442199707031e+00) (35, -1.36284947395324707031e-01) (36, 6.64805352687835693359e-01) (37, 6.10977888107299804688e-01) (38, -1.44009029865264892578e+00) (39, -1.11204278469085693359e+00) (40, 1.25368785858154296875e+00) (41, 1.74121439456939697266e+00) (42, -7.51365959644317626953e-01) (43, -6.69172048568725585938e-01) (44, -8.96023988723754882812e-01) (45, -5.63334599137306213379e-02) (46, 7.24157154560089111328e-01) (47, -8.52592825889587402344e-01) (48, -1.57175564765930175781e+00) (49, -5.13814091682434082031e-01) (50, 8.91062319278717041016e-01) (51, 1.76152244210243225098e-01) (52, 1.11998414993286132812e+00) (53, 9.14144814014434814453e-01) (54, -1.20436275005340576172e+00) (55, 2.06284666061401367188e+00) (56, -8.66983056068420410156e-01) (57, -9.73704338073730468750e-01) (58, -1.53202855587005615234e+00) (59, 1.33910521864891052246e-01) (60, -7.23819375038146972656e-01) (61, -1.17368303239345550537e-01) (62, 3.70577901601791381836e-01) (63, 5.82167506217956542969e-01) (64, -1.77534031867980957031e+00) (65, 6.24455749988555908203e-01) (66, 2.78902173042297363281e-01) (67, -1.13943636417388916016e+00) (68, -9.89980638027191162109e-01) (69, -8.89248907566070556641e-01) (70, 3.37327510118484497070e-01) (71, -7.48429656028747558594e-01) (72, 7.52821624279022216797e-01) (73, -3.65739405155181884766e-01) (74, -6.04996144771575927734e-01) (75, -1.37900817394256591797e+00) (76, 1.03518748283386230469e+00) (77, 7.53149449825286865234e-01) (78, 6.79513156414031982422e-01) (79, 4.25626188516616821289e-01) (80, 5.61972036957740783691e-02) (81, 2.33498406410217285156e+00) (82, -1.43914921209216117859e-02) (83, 5.97419023513793945312e-01) (84, -1.26325726509094238281e+00) (85, 6.18621170520782470703e-01) (86, 8.48056852817535400391e-01) (87, 6.34555041790008544922e-01) (88, -7.99150407314300537109e-01) (89, 1.12929439544677734375e+00) (90, -7.37077176570892333984e-01) (91, -8.63785386085510253906e-01) (92, -7.76779115200042724609e-01) (93, 1.30568683147430419922e+00) (94, 7.69128262996673583984e-01) (95, -7.68112957477569580078e-01) (96, 6.27557486295700073242e-02) (97, 7.17444345355033874512e-02) (98, 6.41121268272399902344e-01) (99, -1.19226002693176269531e+00) (100, 6.33861660957336425781e-01) (101, 9.93784666061401367188e-01) (102, 2.99298238754272460938e+00) (103, -4.38510835170745849609e-01) (104, 2.70896768569946289062e+00) (0, -1.16974759101867675781e+00) (1, -1.10458719730377197266e+00) (2, -5.35734891891479492188e+00) (3, -5.95772075653076171875e+00) (4, 1.68640518188476562500e+00) (5, 4.70670413970947265625e+00) (6, 6.52806711196899414062e+00) (7, -2.43175268173217773438e+00) (8, 6.19460773468017578125e+00) (9, -4.28311944007873535156e-01) (10, 2.56803154945373535156e+00) (11, -5.07667636871337890625e+00) (12, 2.53981924057006835938e+00) (13, -7.02362728118896484375e+00) (14, 1.15050530433654785156e+00) (15, 9.39575493335723876953e-01) (16, 2.95210552215576171875e+00) (17, 2.97625970840454101562e+00) (18, 2.35056853294372558594e+00) (19, 2.36486577987670898438e+00) (20, -2.83824753761291503906e+00) (21, 3.08732008934020996094e+00) (22, 1.99534070491790771484e+00) (23, 2.33525902032852172852e-01) (24, -6.98039293289184570312e+00) (25, -1.51525437831878662109e+00) (26, -6.83051884174346923828e-01) (27, 2.12864375114440917969e+00) (28, -1.52431821823120117188e+00) (29, -1.00460433959960937500e+00) (30, 1.35391676425933837891e+00) (31, 9.14671793580055236816e-02) (32, 6.65152147412300109863e-02) (33, 2.36261948943138122559e-01) (34, 7.10812473297119140625e+00) (35, -8.52899456024169921875e+00) (36, 1.50247323513031005859e+00) (37, 3.42484688758850097656e+00) (38, -1.17115139961242675781e+00) (39, 1.02933454513549804688e+00) (40, -3.76053643226623535156e+00) (41, 8.00949001312255859375e+00) (42, -4.69293057918548583984e-01) (43, 8.31639385223388671875e+00) (44, 5.12022161483764648438e+00) (45, 1.14912748336791992188e+00) (46, 1.70136976242065429688e+00) (47, 3.40972709655761718750e+00) (48, 2.64310210943222045898e-01) (49, 1.43220886588096618652e-01) (50, -3.48203730583190917969e+00) (51, 2.84825539588928222656e+00) (52, 3.30782389640808105469e+00) (53, 9.70714092254638671875e+00) (54, 7.59593546390533447266e-02) (55, 1.62935507297515869141e+00) (56, -1.05046093463897705078e+00) (57, -3.49187254905700683594e-02) (58, -1.84789076447486877441e-02) (59, 1.75366628170013427734e+00) (60, 2.17520013451576232910e-01) (61, -5.96237182617187500000e-02) (62, -5.06221532821655273438e-01) (63, 1.02805566787719726562e+00) (64, 9.04496684670448303223e-02) (65, 1.00645864009857177734e+00) (66, -1.24440789222717285156e-01) (67, -1.67696371674537658691e-01) (68, 3.20101886987686157227e-01) (69, -2.11618080735206604004e-01) (70, -1.09871149063110351562e+00) (71, -4.43002611398696899414e-01) (72, -1.43590140342712402344e+00) (73, -6.91605091094970703125e+00) (74, 2.36609649658203125000e+00) (75, 1.37484773993492126465e-01) (76, -9.67118799686431884766e-01) (77, 1.19766378402709960938e+00) (78, 1.10979855060577392578e+00) (79, 1.39252936840057373047e+00) (80, -1.07805514335632324219e+00) (81, 2.52119636535644531250e+00) (82, -1.69625508785247802734e+00) (83, -2.78713583946228027344e-01) (84, 2.60193198919296264648e-01) (85, -8.55880454182624816895e-02) (86, -2.23693087697029113770e-01) (87, -4.36095535755157470703e-01) (88, 3.32329303026199340820e-01) (89, 1.57331156730651855469e+00) (90, -3.89465510845184326172e-01) (91, 1.65104830265045166016e+00) (92, -2.03291699290275573730e-01) (93, 2.98395872116088867188e-01) (94, 1.15495622158050537109e+00) (95, 2.50166267156600952148e-01) (96, -1.86884689331054687500e+01) (97, -6.57706484198570251465e-02) (98, 1.54210492968559265137e-01) (99, 1.10857152938842773438e+00) (100, 3.80551964044570922852e-01) (101, 4.95499223470687866211e-01) (102, -1.20483413338661193848e-01) (103, 1.93123316764831542969e+00) (104, 1.62218487262725830078e+00) (0, 2.22505617141723632812e+00) (1, 4.48889583349227905273e-01) (2, -7.40046024322509765625e-01) (3, 2.16768085956573486328e-01) (4, -5.20143628120422363281e-01) (5, -8.02204132080078125000e-01) (6, -1.83304417133331298828e+00) (7, 1.80881512165069580078e+00) (8, 5.94551801681518554688e-01) (9, -2.26303791999816894531e+00) (10, 2.37218841910362243652e-01) (11, -9.62662518024444580078e-01) (12, 1.96975362300872802734e+00) (13, 1.34087249636650085449e-01) (14, 1.74364817142486572266e+00) (15, 7.78645336627960205078e-01) (16, -3.80737757682800292969e+00) (17, 4.69735652208328247070e-01) (18, -3.05062031745910644531e+00) (19, 3.96933764219284057617e-01) (20, -3.04230362176895141602e-01) (21, 4.98449468612670898438e+00) (22, -1.34088468551635742188e+00) (23, -3.94767665863037109375e+00) (24, 6.96200311183929443359e-01) (25, 3.18317580223083496094e+00) (26, -4.97313547134399414062e+00) (27, 2.25381636619567871094e+00) (28, 4.05653285980224609375e+00) (29, 6.52936279773712158203e-01) (30, -1.41708278656005859375e+00) (31, -5.25050401687622070312e+00) (32, 6.75879716873168945312e+00) (33, -2.74989843368530273438e+00) (34, 7.85315275192260742188e-01) (35, 9.81454312801361083984e-01) (36, 5.68653345108032226562e-02) (37, -1.01107215881347656250e+00) (38, -2.51853609085083007812e+00) (39, -4.21269536018371582031e-01) (40, -1.61669957637786865234e+00) (41, -1.59631431102752685547e-01) (42, -8.09819161891937255859e-01) (43, -1.91952729225158691406e+00) (44, -1.54055633544921875000e+01) (45, 1.42512619495391845703e+00) (46, 2.46734714508056640625e+00) (47, -4.09519577026367187500e+00) (48, -8.77375507354736328125e+00) (49, 1.37887632846832275391e+00) (50, -2.96306848526000976562e+00) (51, -2.13868236541748046875e+00) (52, -3.30340600013732910156e+00) (53, -1.53644919395446777344e+00) (54, -1.18485832214355468750e+00) (55, 5.36270976066589355469e-01) (56, -6.68648362159729003906e-01) (57, 1.41827082633972167969e+00) (58, 1.17911326885223388672e+00) (59, 2.07706618309020996094e+00) (60, -5.06394922733306884766e-01) (61, 1.60046660900115966797e+00) (62, -1.80156993865966796875e+00) (63, -5.68025946617126464844e-01) (64, -8.21766376495361328125e-01) (65, -7.72604346275329589844e-01) (66, 8.52054834365844726562e-01) (67, 4.51612889766693115234e-01) (68, 4.01971769332885742188e+00) (69, 1.22226297855377197266e+00) (70, 6.24898225069046020508e-02) (71, 5.62412619590759277344e-01) (72, 9.72466886043548583984e-01) (73, 2.45800614356994628906e+00) (74, -3.13048437237739562988e-02) (75, 3.07423677295446395874e-02) (76, -1.91614937782287597656e+00) (77, -4.41180169582366943359e-01) (78, 1.71772623062133789062e+00) (79, -1.29230463504791259766e+00) (80, 6.40697896480560302734e-01) (81, 2.09114745259284973145e-01) (82, -1.89969003200531005859e-01) (83, 4.43755954504013061523e-01) (84, 1.33819758892059326172e+00) (85, 1.09024144709110260010e-01) (86, -7.46633410453796386719e-01) (87, 4.60661977529525756836e-01) (88, -1.91720619797706604004e-01) (89, -5.24370968341827392578e-01) (90, -6.30764439702033996582e-02) (91, 6.53861975297331809998e-03) (92, -7.92426228523254394531e-01) (93, 1.05947539210319519043e-01) (94, -5.55804908275604248047e-01) (95, 2.34310054779052734375e+00) (96, -3.02278012037277221680e-01) (97, -6.77385926246643066406e-01) (98, -4.43459957838058471680e-01) (99, -6.88765406608581542969e-01) (100, -5.05282402038574218750e-01) (101, -6.71026289463043212891e-01) (102, -8.79847466945648193359e-01) (103, 2.74261116981506347656e+00) (104, 2.56992983818054199219e+00) (0, 3.43469119071960449219e+00) (1, -7.85265922546386718750e-01) (2, -8.27990233898162841797e-01) (3, -7.56220996379852294922e-01) (4, -6.84771418571472167969e-01) (5, 6.16624593734741210938e-01) (6, -2.94884592294692993164e-01) (7, -3.16661626100540161133e-01) (8, -2.95894920825958251953e-01) (9, 7.17259049415588378906e-01) (10, -7.28092193603515625000e-01) (11, -7.30563580989837646484e-01) (12, 6.89377307891845703125e-01) (13, -8.12751710414886474609e-01) (14, -2.54492491483688354492e-01) (15, -8.36137413978576660156e-01) (16, -7.21115112304687500000e-01) (17, -7.84922182559967041016e-01) (18, -1.88154995441436767578e-01) (19, 5.90736985206604003906e-01) (20, -7.59667277336120605469e-01) (21, 2.20254182815551757812e+00) (22, -7.66546607017517089844e-01) (23, 6.89559161663055419922e-01) (24, 6.56452476978302001953e-01) (25, -5.62909245491027832031e-01) (26, -8.04746329784393310547e-01) (27, 6.50336384773254394531e-01) (28, 7.11670875549316406250e-01) (29, -7.57795274257659912109e-01) (30, -7.15610921382904052734e-01) (31, -7.65132069587707519531e-01) (32, 6.09555959701538085938e-01) (33, -5.64039230346679687500e-01) (34, -1.31396508216857910156e+00) (35, -7.79231548309326171875e-01) (36, 5.13513743877410888672e-01) (37, 6.79998993873596191406e-01) (38, -7.79928505420684814453e-01) (39, -8.24334144592285156250e-01) (40, 5.73817551136016845703e-01) (41, 3.18419623374938964844e+00) (42, -7.37464010715484619141e-01) (43, 7.07151770591735839844e-01) (44, -6.61001205444335937500e-01) (45, -6.70983254909515380859e-01) (46, 4.75511217117309570312e+00) (47, -7.79897809028625488281e-01) (48, 6.24427378177642822266e-01) (49, -7.39724278450012207031e-01) (50, -7.65921175479888916016e-01) (51, 1.48154556751251220703e+00) (52, -6.61740660667419433594e-01) (53, -6.73248052597045898438e-01) (54, -7.60006427764892578125e-01) (55, -3.20238679647445678711e-01) (56, -6.04808688163757324219e-01) (57, 5.38611114025115966797e-02) (58, -1.44014215469360351562e+00) (59, -7.87236809730529785156e-01) (60, -6.62948191165924072266e-01) (61, 2.13552808761596679688e+00) (62, 6.72125339508056640625e-01) (63, -7.92674362659454345703e-01) (64, -8.24867069721221923828e-01) (65, 5.89190423488616943359e-01) (66, 7.97641515731811523438e-01) (67, 1.00715184211730957031e+00) (68, 5.39231777191162109375e-01) (69, 1.47935867309570312500e-01) (70, -6.69128298759460449219e-01) (71, 5.77301502227783203125e-01) (72, -6.49136185646057128906e-01) (73, -6.97222352027893066406e-01) (74, -6.07384085655212402344e-01) (75, -2.97706481069326400757e-02) (76, 1.12921798229217529297e+00) (77, -7.69486486911773681641e-01) (78, 8.28859388828277587891e-01) (79, -9.38445270061492919922e-01) (80, 3.15476000308990478516e-01) (81, -7.94961392879486083984e-01) (82, -6.50260269641876220703e-01) (83, 3.24551522731781005859e-01) (84, -7.09173560142517089844e-01) (85, 4.87244844436645507812e-01) (86, -7.49022305011749267578e-01) (87, 8.33894014358520507812e-01) (88, -8.79773721098899841309e-02) (89, 1.40654277801513671875e+00) (90, 1.15772795677185058594e+00) (91, 7.03770756721496582031e-01) (92, 2.60116839408874511719e+00) (93, 1.18689155578613281250e+00) (94, -7.79530823230743408203e-01) (95, 6.83440446853637695312e-01) (96, -6.72213673591613769531e-01) (97, 6.82295262813568115234e-01) (98, 5.46738266944885253906e-01) (99, 2.15611362457275390625e+00) (100, -7.03733503818511962891e-01) (101, 1.80677449703216552734e+00) (102, 2.16750860214233398438e-01) (103, 1.82942450046539306641e+00) (104, 2.60160255432128906250e+00) (0, 1.51162707805633544922e+00) (1, 7.56243646144866943359e-01) (2, -1.21587383747100830078e+00) (3, 5.78766107559204101562e-01) (4, 1.09697329998016357422e+00) (5, 3.02396011352539062500e+00) (6, -9.51102435588836669922e-01) (7, 9.82371330261230468750e-01) (8, 5.78636837005615234375e+00) (9, 7.49368309974670410156e-01) (10, -3.27311366796493530273e-01) (11, -1.13455152511596679688e+00) (12, 7.38994240760803222656e-01) (13, 3.32483458518981933594e+00) (14, -5.70530965924263000488e-02) (15, -4.23384964466094970703e-01) (16, -2.10266709327697753906e+00) (17, -6.93595588207244873047e-01) (18, 6.40388309955596923828e-01) (19, -1.09263861179351806641e+00) (20, 6.87838852405548095703e-01) (21, -9.47239547967910766602e-02) (22, 7.70614802837371826172e-01) (23, -1.07334506511688232422e+00) (24, 2.35280811786651611328e-01) (25, 1.94139492511749267578e+00) (26, 1.03367543220520019531e+00) (27, 5.99351108074188232422e-01) (28, -7.50562548637390136719e-01) (29, 9.83405292034149169922e-01) (30, -6.94263875484466552734e-01) (31, 6.58132314682006835938e-01) (32, 2.06635355949401855469e+00) (33, -7.27030694484710693359e-01) (34, 1.12864887714385986328e+00) (35, 1.99316918849945068359e-01) (36, -6.52975559234619140625e-01) (37, 8.54192018508911132812e-01) (38, -8.08874428272247314453e-01) (39, 6.96859657764434814453e-01) (40, -8.02524268627166748047e-01) (41, 1.20790290832519531250e+00) (42, 6.38637185096740722656e-01) (43, -9.46473240852355957031e-01) (44, 7.73295044898986816406e-01) (45, 6.29341304302215576172e-01) (46, -8.23312938213348388672e-01) (47, 4.51552182435989379883e-01) (48, -6.85831367969512939453e-01) (49, -7.65549540519714355469e-01) (50, -8.19730281829833984375e-01) (51, -9.34080123901367187500e-01) (52, -6.67585372924804687500e-01) (53, 8.07787299156188964844e-01) (54, -1.16228175163269042969e+00) (55, 2.05219912528991699219e+00) (56, 4.91053640842437744141e-01) (57, 5.73680937290191650391e-01) (58, -7.10995674133300781250e-01) (59, -5.92201948165893554688e-01) (60, -6.55308544635772705078e-01) (61, -1.40794038772583007812e+00) (62, -9.33515965938568115234e-01) (63, -7.38211274147033691406e-01) (64, -7.89773702621459960938e-01) (65, 6.32906734943389892578e-01) (66, 7.82827615737915039062e-01) (67, 7.39478707313537597656e-01) (68, -7.35024750232696533203e-01) (69, -7.70431220531463623047e-01) (70, 6.47161066532135009766e-01) (71, -5.72987735271453857422e-01) (72, -7.61624336242675781250e-01) (73, -7.72887945175170898438e-01) (74, 2.03543353080749511719e+00) (75, -7.66492784023284912109e-01) (76, 1.22510397434234619141e+00) (77, 7.47352600097656250000e-01) (78, 8.82671475410461425781e-01) (79, 1.96474099159240722656e+00) (80, -2.65571564435958862305e-01) (81, 6.03960454463958740234e-01) (82, -7.45246350765228271484e-01) (83, 5.60132145881652832031e-01) (84, -8.11789214611053466797e-01) (85, 4.24847304821014404297e-01) (86, 5.84659576416015625000e-01) (87, -1.02855384349822998047e+00) (88, 9.66577589511871337891e-01) (89, -6.64721012115478515625e-01) (90, 5.37180662155151367188e-01) (91, 8.51688444614410400391e-01) (92, 1.30443489551544189453e+00) (93, 1.20414994657039642334e-01) (94, -7.25601911544799804688e-01) (95, -8.82761120796203613281e-01) (96, -6.37042224407196044922e-01) (97, -7.09508240222930908203e-01) (98, -7.50617325305938720703e-01) (99, -2.89702951908111572266e-01) (100, 7.41294503211975097656e-01) (101, -1.92206546664237976074e-01) (102, -4.45221900939941406250e-01) (103, 2.53932833671569824219e+00) (104, 2.65719580650329589844e+00) (0, 2.73457169532775878906e-01) (1, -1.28069984912872314453e+00) (2, 1.58235204219818115234e+00) (3, 5.73298096656799316406e-01) (4, 7.31005012989044189453e-01) (5, 5.68014562129974365234e-01) (6, 2.08875083923339843750e+00) (7, 1.04944765567779541016e+00) (8, 3.84305641055107116699e-02) (9, 7.66513228416442871094e-01) (10, 6.88643395900726318359e-01) (11, 1.00059223175048828125e+00) (12, 1.69012975692749023438e+00) (13, -1.35175132751464843750e+00) (14, 7.77227401733398437500e-01) (15, 7.67789840698242187500e-01) (16, 1.10004365444183349609e-01) (17, 2.89477407932281494141e-01) (18, 2.04850935935974121094e+00) (19, -7.16044962406158447266e-01) (20, -7.84998416900634765625e-01) (21, 1.39823645353317260742e-01) (22, 6.89878702163696289062e-01) (23, 5.38800656795501708984e-01) (24, 1.51308536529541015625e+00) (25, -7.76749074459075927734e-01) (26, -7.95095026493072509766e-01) (27, -7.64519929885864257812e-01) (28, -1.21948766708374023438e+00) (29, -6.54744505882263183594e-01) (30, -1.01084969937801361084e-01) (31, -7.29982376098632812500e-01) (32, 4.14945721626281738281e-01) (33, 4.60910759866237640381e-02) (34, 5.18723869323730468750e+00) (35, 3.07990103960037231445e-01) (36, 3.37055921554565429688e-01) (37, 5.72846591472625732422e-01) (38, -8.66730451583862304688e-01) (39, -7.52658188343048095703e-01) (40, 4.97079014778137207031e-01) (41, 2.25358700752258300781e+00) (42, -5.80309510231018066406e-01) (43, 7.61642217636108398438e-01) (44, -7.75531888008117675781e-01) (45, -8.10886919498443603516e-01) (46, -1.09948940575122833252e-01) (47, 4.26087886095046997070e-01) (48, -7.55772471427917480469e-01) (49, -6.90023660659790039062e-01) (50, -7.79089868068695068359e-01) (51, -6.64722681045532226562e-01) (52, -6.78281843662261962891e-01) (53, -1.36232331395149230957e-01) (54, -7.75154769420623779297e-01) (55, 1.46459996700286865234e-01) (56, -7.46836721897125244141e-01) (57, -2.00429248809814453125e+00) (58, -7.83116340637207031250e-01) (59, 2.26629209518432617188e+00) (60, -7.56399810314178466797e-01) (61, -1.43452465534210205078e+00) (62, 6.78235411643981933594e-01) (63, -7.68316447734832763672e-01) (64, 1.31082451343536376953e+00) (65, -6.76728129386901855469e-01) (66, 1.07875657081604003906e+00) (67, 2.18310284614562988281e+00) (68, 5.36922752857208251953e-01) (69, 1.12361204624176025391e+00) (70, -5.75115501880645751953e-01) (71, -7.63428807258605957031e-01) (72, 1.88001298904418945312e+00) (73, 7.53251791000366210938e-01) (74, -7.30409443378448486328e-01) (75, -5.26874363422393798828e-02) (76, 1.31434416770935058594e+00) (77, -7.72362768650054931641e-01) (78, 4.16158102452754974365e-02) (79, -7.06402063369750976562e-01) (80, 1.12141430377960205078e+00) (81, 1.79300618171691894531e+00) (82, 2.78761982917785644531e-01) (83, -2.74693667888641357422e-01) (84, -8.17730188369750976562e-01) (85, 1.76734384149312973022e-02) (86, -6.17807745933532714844e-01) (87, 8.13757300376892089844e-01) (88, 3.79634439945220947266e-01) (89, -5.83882749080657958984e-01) (90, 1.17593455314636230469e+00) (91, 4.70569133758544921875e-01) (92, 4.23689901828765869141e-01) (93, -3.32472473382949829102e-01) (94, -6.94068551063537597656e-01) (95, -7.62726664543151855469e-01) (96, -4.84349101781845092773e-01) (97, -6.89486265182495117188e-01) (98, -6.06581091880798339844e-01) (99, 1.11544363200664520264e-01) (100, -7.04586982727050781250e-01) (101, -2.32287034392356872559e-01) (102, -2.76564806699752807617e-01) (103, 2.35486173629760742188e+00) (104, 2.58314394950866699219e+00) (0, -9.89497542381286621094e-01) (1, -7.17462539672851562500e-01) (2, -6.85123920440673828125e-01) (3, 7.79681146144866943359e-01) (4, 6.08196973800659179688e-01) (5, -7.99295604228973388672e-01) (6, 7.45256915688514709473e-02) (7, -8.39193761348724365234e-01) (8, 8.76360163092613220215e-02) (9, -8.49705398082733154297e-01) (10, 7.41652488708496093750e-01) (11, 6.43363475799560546875e-01) (12, -7.99818575382232666016e-01) (13, 1.30421864986419677734e+00) (14, -2.10296154022216796875e-01) (15, -8.92990231513977050781e-01) (16, -6.90567672252655029297e-01) (17, 6.61798954010009765625e-01) (18, 7.35228359699249267578e-01) (19, 6.83617234230041503906e-01) (20, 2.49629721045494079590e-01) (21, -7.77791261672973632812e-01) (22, -8.61554980278015136719e-01) (23, -7.15169548988342285156e-01) (24, -7.93830752372741699219e-01) (25, -8.57529282569885253906e-01) (26, 3.56184691190719604492e-01) (27, 6.85710489749908447266e-01) (28, -7.49900996685028076172e-01) (29, 3.57906073331832885742e-01) (30, -1.26798823475837707520e-01) (31, -7.80628919601440429688e-01) (32, -4.97967660427093505859e-01) (33, -7.49195456504821777344e-01) (34, 9.87835943698883056641e-01) (35, 6.61405861377716064453e-01) (36, 6.90893590450286865234e-01) (37, -5.64374446868896484375e-01) (38, -4.88265663385391235352e-01) (39, 7.97878563404083251953e-01) (40, -6.58715069293975830078e-01) (41, 4.00260016322135925293e-02) (42, 8.72651815414428710938e-01) (43, 2.04213395714759826660e-01) (44, 6.41644716262817382812e-01) (45, 7.17177510261535644531e-01) (46, -3.10215670615434646606e-02) (47, -5.98017036914825439453e-01) (48, 1.30235090851783752441e-01) (49, 4.27381932735443115234e-01) (50, -8.57756614685058593750e-01) (51, 6.24387443065643310547e-01) (52, 6.13472044467926025391e-01) (53, -6.80826678872108459473e-02) (54, 4.11898016929626464844e-01) (55, 1.31158336997032165527e-01) (56, 6.25394225120544433594e-01) (57, 5.27818500995635986328e-01) (58, -1.77902281284332275391e+00) (59, 4.24269348382949829102e-01) (60, 3.06369513273239135742e-01) (61, -6.55930161476135253906e-01) (62, -8.49917411804199218750e-01) (63, 6.95440709590911865234e-01) (64, 6.79107487201690673828e-01) (65, 7.21762716770172119141e-01) (66, 1.00719380378723144531e+00) (67, 1.36489641666412353516e+00) (68, 6.54533207416534423828e-01) (69, 1.01175451278686523438e+00) (70, 1.31667867302894592285e-01) (71, -7.05237984657287597656e-01) (72, -7.85827636718750000000e-01) (73, -5.41705667972564697266e-01) (74, -4.71990317106246948242e-01) (75, 9.43094432353973388672e-01) (76, -5.28426945209503173828e-01) (77, -9.19307917356491088867e-02) (78, -8.83694946765899658203e-01) (79, -2.64898598194122314453e-01) (80, 7.82309412956237792969e-01) (81, 3.57933193445205688477e-01) (82, -6.95495307445526123047e-01) (83, -1.26368045806884765625e-01) (84, 8.18456530570983886719e-01) (85, -6.21686458587646484375e-01) (86, -5.76962888240814208984e-01) (87, -6.71629786491394042969e-01) (88, -4.06142696738243103027e-02) (89, 1.46440052986145019531e+00) (90, -2.99278169870376586914e-01) (91, 3.95516186952590942383e-01) (92, 1.22830617427825927734e+00) (93, 5.66312789916992187500e-01) (94, -2.11487561464309692383e-01) (95, -6.31994962692260742188e-01) (96, 3.48101288080215454102e-01) (97, 1.09476256370544433594e+00) (98, 2.24489521980285644531e+00) (99, -6.91428244113922119141e-01) (100, 7.35685050487518310547e-01) (101, -2.07843989133834838867e-01) (102, -1.10684931278228759766e+00) (103, 3.15264987945556640625e+00) (104, 2.71029591560363769531e+00) (105, -2.51286983489990234375e+00) (106, -2.46408104896545410156e+00) (107, 8.25855851173400878906e-01) (108, 2.76213884353637695312e+00) (109, 2.78538918495178222656e+00) (110, -1.53365695476531982422e+00) (111, 2.36920523643493652344e+00) (112, 2.00268363952636718750e+00) (113, 3.46229577064514160156e+00) (114, 9.18811321258544921875e-01) (115, 2.21396827697753906250e+00) (116, -7.94850468635559082031e-01) (117, -2.44584798812866210938e+00) (118, 2.60560393333435058594e+00) (119, -2.55045604705810546875e+00) (120, 2.18820071220397949219e+00) (121, -8.56507658958435058594e-01) (122, 3.30059456825256347656e+00) (123, -3.15134239196777343750e+00) (124, -1.92785108089447021484e+00) (125, -2.87589454650878906250e+00) (126, 2.19758272171020507812e+00) (127, 3.64709663391113281250e+00) (128, 3.34210371971130371094e+00) (129, -5.56001329421997070312e+00) (130, -2.47548177838325500488e-01) 
