FANN_FLO_2.1
num_layers=3
learning_rate=0.700000
connection_rate=1.000000
network_type=0
learning_momentum=0.000000
training_algorithm=2
train_error_function=1
train_stop_function=0
cascade_output_change_fraction=0.010000
quickprop_decay=-0.000100
quickprop_mu=1.750000
rprop_increase_factor=1.200000
rprop_decrease_factor=0.500000
rprop_delta_min=0.000000
rprop_delta_max=50.000000
rprop_delta_zero=0.100000
cascade_output_stagnation_epochs=12
cascade_candidate_change_fraction=0.010000
cascade_candidate_stagnation_epochs=12
cascade_max_out_epochs=150
cascade_max_cand_epochs=150
cascade_num_candidate_groups=2
bit_fail_limit=3.49999994039535522461e-01
cascade_candidate_limit=1.00000000000000000000e+03
cascade_weight_multiplier=4.00000005960464477539e-01
cascade_activation_functions_count=10
cascade_activation_functions=3 5 7 8 10 11 14 15 16 17 
cascade_activation_steepnesses_count=4
cascade_activation_steepnesses=2.50000000000000000000e-01 5.00000000000000000000e-01 7.50000000000000000000e-01 1.00000000000000000000e+00 
layer_sizes=105 91 2 
scale_included=0
neurons (num_inputs, activation_function, activation_steepness)=(0, 0, 0.00000000000000000000e+00) (0, 0, 0.00000000000000000000e+00) (0, 0, 0.00000000000000000000e+00) (0, 0, 0.00000000000000000000e+00) (0, 0, 0.00000000000000000000e+00) (0, 0, 0.00000000000000000000e+00) (0, 0, 0.00000000000000000000e+00) (0, 0, 0.00000000000000000000e+00) (0, 0, 0.00000000000000000000e+00) (0, 0, 0.00000000000000000000e+00) (0, 0, 0.00000000000000000000e+00) (0, 0, 0.00000000000000000000e+00) (0, 0, 0.00000000000000000000e+00) (0, 0, 0.00000000000000000000e+00) (0, 0, 0.00000000000000000000e+00) (0, 0, 0.00000000000000000000e+00) (0, 0, 0.00000000000000000000e+00) (0, 0, 0.00000000000000000000e+00) (0, 0, 0.00000000000000000000e+00) (0, 0, 0.00000000000000000000e+00) (0, 0, 0.00000000000000000000e+00) (0, 0, 0.00000000000000000000e+00) (0, 0, 0.00000000000000000000e+00) (0, 0, 0.00000000000000000000e+00) (0, 0, 0.00000000000000000000e+00) (0, 0, 0.00000000000000000000e+00) (0, 0, 0.00000000000000000000e+00) (0, 0, 0.00000000000000000000e+00) (0, 0, 0.00000000000000000000e+00) (0, 0, 0.00000000000000000000e+00) (0, 0, 0.00000000000000000000e+00) (0, 0, 0.00000000000000000000e+00) (0, 0, 0.00000000000000000000e+00) (0, 0, 0.00000000000000000000e+00) (0, 0, 0.00000000000000000000e+00) (0, 0, 0.00000000000000000000e+00) (0, 0, 0.00000000000000000000e+00) (0, 0, 0.00000000000000000000e+00) (0, 0, 0.00000000000000000000e+00) (0, 0, 0.00000000000000000000e+00) (0, 0, 0.00000000000000000000e+00) (0, 0, 0.00000000000000000000e+00) (0, 0, 0.00000000000000000000e+00) (0, 0, 0.00000000000000000000e+00) (0, 0, 0.00000000000000000000e+00) (0, 0, 0.00000000000000000000e+00) (0, 0, 0.00000000000000000000e+00) (0, 0, 0.00000000000000000000e+00) (0, 0, 0.00000000000000000000e+00) (0, 0, 0.00000000000000000000e+00) (0, 0, 0.00000000000000000000e+00) (0, 0, 0.00000000000000000000e+00) (0, 0, 0.00000000000000000000e+00) (0, 0, 0.00000000000000000000e+00) (0, 0, 0.00000000000000000000e+00) (0, 0, 0.00000000000000000000e+00) (0, 0, 0.00000000000000000000e+00) (0, 0, 0.00000000000000000000e+00) (0, 0, 0.00000000000000000000e+00) (0, 0, 0.00000000000000000000e+00) (0, 0, 0.00000000000000000000e+00) (0, 0, 0.00000000000000000000e+00) (0, 0, 0.00000000000000000000e+00) (0, 0, 0.00000000000000000000e+00) (0, 0, 0.00000000000000000000e+00) (0, 0, 0.00000000000000000000e+00) (0, 0, 0.00000000000000000000e+00) (0, 0, 0.00000000000000000000e+00) (0, 0, 0.00000000000000000000e+00) (0, 0, 0.00000000000000000000e+00) (0, 0, 0.00000000000000000000e+00) (0, 0, 0.00000000000000000000e+00) (0, 0, 0.00000000000000000000e+00) (0, 0, 0.00000000000000000000e+00) (0, 0, 0.00000000000000000000e+00) (0, 0, 0.00000000000000000000e+00) (0, 0, 0.00000000000000000000e+00) (0, 0, 0.00000000000000000000e+00) (0, 0, 0.00000000000000000000e+00) (0, 0, 0.00000000000000000000e+00) (0, 0, 0.00000000000000000000e+00) (0, 0, 0.00000000000000000000e+00) (0, 0, 0.00000000000000000000e+00) (0, 0, 0.00000000000000000000e+00) (0, 0, 0.00000000000000000000e+00) (0, 0, 0.00000000000000000000e+00) (0, 0, 0.00000000000000000000e+00) (0, 0, 0.00000000000000000000e+00) (0, 0, 0.00000000000000000000e+00) (0, 0, 0.00000000000000000000e+00) (0, 0, 0.00000000000000000000e+00) (0, 0, 0.00000000000000000000e+00) (0, 0, 0.00000000000000000000e+00) (0, 0, 0.00000000000000000000e+00) (0, 0, 0.00000000000000000000e+00) (0, 0, 0.00000000000000000000e+00) (0, 0, 0.00000000000000000000e+00) (0, 0, 0.00000000000000000000e+00) (0, 0, 0.00000000000000000000e+00) (0, 0, 0.00000000000000000000e+00) (0, 0, 0.00000000000000000000e+00) (0, 0, 0.00000000000000000000e+00) (0, 0, 0.00000000000000000000e+00) (0, 0, 0.00000000000000000000e+00) (0, 0, 0.00000000000000000000e+00) (105, 5, 5.00000000000000000000e-01) (105, 5, 5.00000000000000000000e-01) (105, 5, 5.00000000000000000000e-01) (105, 5, 5.00000000000000000000e-01) (105, 5, 5.00000000000000000000e-01) (105, 5, 5.00000000000000000000e-01) (105, 5, 5.00000000000000000000e-01) (105, 5, 5.00000000000000000000e-01) (105, 5, 5.00000000000000000000e-01) (105, 5, 5.00000000000000000000e-01) (105, 5, 5.00000000000000000000e-01) (105, 5, 5.00000000000000000000e-01) (105, 5, 5.00000000000000000000e-01) (105, 5, 5.00000000000000000000e-01) (105, 5, 5.00000000000000000000e-01) (105, 5, 5.00000000000000000000e-01) (105, 5, 5.00000000000000000000e-01) (105, 5, 5.00000000000000000000e-01) (105, 5, 5.00000000000000000000e-01) (105, 5, 5.00000000000000000000e-01) (105, 5, 5.00000000000000000000e-01) (105, 5, 5.00000000000000000000e-01) (105, 5, 5.00000000000000000000e-01) (105, 5, 5.00000000000000000000e-01) (105, 5, 5.00000000000000000000e-01) (105, 5, 5.00000000000000000000e-01) (105, 5, 5.00000000000000000000e-01) (105, 5, 5.00000000000000000000e-01) (105, 5, 5.00000000000000000000e-01) (105, 5, 5.00000000000000000000e-01) (105, 5, 5.00000000000000000000e-01) (105, 5, 5.00000000000000000000e-01) (105, 5, 5.00000000000000000000e-01) (105, 5, 5.00000000000000000000e-01) (105, 5, 5.00000000000000000000e-01) (105, 5, 5.00000000000000000000e-01) (105, 5, 5.00000000000000000000e-01) (105, 5, 5.00000000000000000000e-01) (105, 5, 5.00000000000000000000e-01) (105, 5, 5.00000000000000000000e-01) (105, 5, 5.00000000000000000000e-01) (105, 5, 5.00000000000000000000e-01) (105, 5, 5.00000000000000000000e-01) (105, 5, 5.00000000000000000000e-01) (105, 5, 5.00000000000000000000e-01) (105, 5, 5.00000000000000000000e-01) (105, 5, 5.00000000000000000000e-01) (105, 5, 5.00000000000000000000e-01) (105, 5, 5.00000000000000000000e-01) (105, 5, 5.00000000000000000000e-01) (105, 5, 5.00000000000000000000e-01) (105, 5, 5.00000000000000000000e-01) (105, 5, 5.00000000000000000000e-01) (105, 5, 5.00000000000000000000e-01) (105, 5, 5.00000000000000000000e-01) (105, 5, 5.00000000000000000000e-01) (105, 5, 5.00000000000000000000e-01) (105, 5, 5.00000000000000000000e-01) (105, 5, 5.00000000000000000000e-01) (105, 5, 5.00000000000000000000e-01) (105, 5, 5.00000000000000000000e-01) (105, 5, 5.00000000000000000000e-01) (105, 5, 5.00000000000000000000e-01) (105, 5, 5.00000000000000000000e-01) (105, 5, 5.00000000000000000000e-01) (105, 5, 5.00000000000000000000e-01) (105, 5, 5.00000000000000000000e-01) (105, 5, 5.00000000000000000000e-01) (105, 5, 5.00000000000000000000e-01) (105, 5, 5.00000000000000000000e-01) (105, 5, 5.00000000000000000000e-01) (105, 5, 5.00000000000000000000e-01) (105, 5, 5.00000000000000000000e-01) (105, 5, 5.00000000000000000000e-01) (105, 5, 5.00000000000000000000e-01) (105, 5, 5.00000000000000000000e-01) (105, 5, 5.00000000000000000000e-01) (105, 5, 5.00000000000000000000e-01) (105, 5, 5.00000000000000000000e-01) (105, 5, 5.00000000000000000000e-01) (105, 5, 5.00000000000000000000e-01) (105, 5, 5.00000000000000000000e-01) (105, 5, 5.00000000000000000000e-01) (105, 5, 5.00000000000000000000e-01) (105, 5, 5.00000000000000000000e-01) (105, 5, 5.00000000000000000000e-01) (105, 5, 5.00000000000000000000e-01) (105, 5, 5.00000000000000000000e-01) (105, 5, 5.00000000000000000000e-01) (105, 5, 5.00000000000000000000e-01) (0, 5, 0.00000000000000000000e+00) (91, 5, 5.00000000000000000000e-01) (0, 5, 0.00000000000000000000e+00) 
connections (connected_to_neuron, weight)=(0, -1.43032960891723632812e+01) (1, -7.71634817123413085938e-01) (2, -5.96622228622436523438e-01) (3, 2.20198941230773925781e+00) (4, -5.99525749683380126953e-01) (5, -6.80044293403625488281e-01) (6, -7.23204970359802246094e-01) (7, -6.61780416965484619141e-01) (8, -7.38712668418884277344e-01) (9, 2.09535098075866699219e+00) (10, 2.21883058547973632812e+00) (11, -7.83378720283508300781e-01) (12, 2.20641899108886718750e+00) (13, 2.13877177238464355469e+00) (14, 2.14410543441772460938e+00) (15, 2.24708271026611328125e+00) (16, -6.58087670803070068359e-01) (17, 2.17836761474609375000e+00) (18, 2.15656208992004394531e+00) (19, 2.11422681808471679688e+00) (20, 2.23259902000427246094e+00) (21, 2.14940571784973144531e+00) (22, 2.21987342834472656250e+00) (23, -6.71334922313690185547e-01) (24, -6.19350075721740722656e-01) (25, 2.18100500106811523438e+00) (26, -7.69436359405517578125e-01) (27, -7.95433461666107177734e-01) (28, 2.08754301071166992188e+00) (29, 2.09951877593994140625e+00) (30, 2.05534768104553222656e+00) (31, 2.11619567871093750000e+00) (32, 2.10308814048767089844e+00) (33, 2.16736268997192382812e+00) (34, -5.51397323608398437500e-01) (35, 2.18417692184448242188e+00) (36, 2.18402910232543945312e+00) (37, 2.25756287574768066406e+00) (38, 2.11676692962646484375e+00) (39, -7.09176540374755859375e-01) (40, -6.78261101245880126953e-01) (41, 2.23189115524291992188e+00) (42, -7.61638760566711425781e-01) (43, 2.13620138168334960938e+00) (44, -6.22015535831451416016e-01) (45, 2.16343426704406738281e+00) (46, -6.94865107536315917969e-01) (47, 2.14247775077819824219e+00) (48, 2.08030509948730468750e+00) (49, 2.24859428405761718750e+00) (50, 2.20862054824829101562e+00) (51, 2.17760848999023437500e+00) (52, 2.16239643096923828125e+00) (53, 2.12900018692016601562e+00) (54, 2.04817938804626464844e+00) (55, -7.68770813941955566406e-01) (56, -6.70411646366119384766e-01) (57, -7.39822208881378173828e-01) (58, -7.21875429153442382812e-01) (59, 2.19523310661315917969e+00) (60, 2.22473359107971191406e+00) (61, -6.62663817405700683594e-01) (62, 2.25994849205017089844e+00) (63, 2.07629013061523437500e+00) (64, 2.21657872200012207031e+00) (65, 2.22723197937011718750e+00) (66, -6.61682903766632080078e-01) (67, -4.21957314014434814453e-01) (68, -7.04307794570922851562e-01) (69, -2.59997755289077758789e-01) (70, 2.22753524780273437500e+00) (71, 2.13801074028015136719e+00) (72, 2.27044010162353515625e+00) (73, -7.18147337436676025391e-01) (74, 2.23818302154541015625e+00) (75, -6.91179394721984863281e-01) (76, 2.18885040283203125000e+00) (77, -6.91807389259338378906e-01) (78, 2.19527745246887207031e+00) (79, -7.43904590606689453125e-01) (80, 2.31773591041564941406e+00) (81, 2.21322464942932128906e+00) (82, -6.87831759452819824219e-01) (83, 2.10469841957092285156e+00) (84, -6.92482233047485351562e-01) (85, -7.29431927204132080078e-01) (86, 2.12152218818664550781e+00) (87, 2.11621665954589843750e+00) (88, -7.39764392375946044922e-01) (89, -7.09101915359497070312e-01) (90, -7.38216757774353027344e-01) (91, -6.82586848735809326172e-01) (92, 2.15987539291381835938e+00) (93, 2.11106777191162109375e+00) (94, 2.25087714195251464844e+00) (95, 2.18977999687194824219e+00) (96, 2.25191330909729003906e+00) (97, 2.20314002037048339844e+00) (98, 2.26996374130249023438e+00) (99, 2.18612217903137207031e+00) (100, 2.11957311630249023438e+00) (101, 2.23591828346252441406e+00) (102, -9.00095462799072265625e-01) (103, 2.76533365249633789062e+00) (104, -2.23997905850410461426e-01) (0, -5.80084514617919921875e+00) (1, 5.58836519718170166016e-01) (2, 1.26144146919250488281e+00) (3, -9.51346874237060546875e-01) (4, -8.46749722957611083984e-01) (5, -6.87072694301605224609e-01) (6, -7.53232657909393310547e-01) (7, 9.35094356536865234375e-01) (8, -1.77769577503204345703e+00) (9, 1.62701404094696044922e+00) (10, 1.98387473821640014648e-01) (11, 1.64750665426254272461e-01) (12, -8.51226449012756347656e-01) (13, 9.39461112022399902344e-01) (14, -8.22336137294769287109e-01) (15, -6.88001394271850585938e-01) (16, -3.46572804450988769531e+00) (17, 1.96693766117095947266e+00) (18, 3.04531431198120117188e+00) (19, -3.82010400295257568359e-01) (20, -5.61240971088409423828e-01) (21, -6.43379926681518554688e-01) (22, -6.24337911605834960938e-01) (23, -4.67444598674774169922e-01) (24, 4.56435298919677734375e+00) (25, -4.12383347749710083008e-01) (26, 2.25142669677734375000e+00) (27, 2.37324190139770507812e+00) (28, -7.04788982868194580078e-01) (29, 1.24009454250335693359e+00) (30, 2.90529489517211914062e-01) (31, 2.19361758232116699219e+00) (32, -1.57241737842559814453e+00) (33, 3.09782207012176513672e-01) (34, -5.54565370082855224609e-01) (35, 1.27369642257690429688e-01) (36, -1.62457549571990966797e+00) (37, -3.06687402725219726562e+00) (38, -2.20103502273559570312e+00) (39, -5.97018957138061523438e-01) (40, 9.47228193283081054688e-01) (41, -1.55300247669219970703e+00) (42, 2.08809566497802734375e+00) (43, -1.09667730331420898438e+00) (44, 6.36178255081176757812e-01) (45, -1.37519741058349609375e+00) (46, -3.31505388021469116211e-01) (47, -9.16385948657989501953e-01) (48, 6.05363368988037109375e+00) (49, -7.20406472682952880859e-01) (50, -5.76590955257415771484e-01) (51, -6.04414403438568115234e-01) (52, -2.18717765808105468750e+00) (53, -2.95943140983581542969e+00) (54, -3.81278961896896362305e-01) (55, -1.97315323352813720703e+00) (56, -7.39508509635925292969e-01) (57, 2.13470268249511718750e+00) (58, -6.98509633541107177734e-01) (59, -5.97645223140716552734e-01) (60, 8.60808014869689941406e-01) (61, 4.03475880622863769531e-01) (62, 2.43215948343276977539e-01) (63, 2.09899592399597167969e+00) (64, 2.20439291000366210938e+00) (65, 2.17746210098266601562e+00) (66, -8.12140047550201416016e-01) (67, 2.01609206199645996094e+00) (68, -6.62920057773590087891e-01) (69, -8.02147626876831054688e-01) (70, 1.90469384193420410156e-01) (71, 2.17003369331359863281e+00) (72, -9.13347244262695312500e-01) (73, -3.67666035890579223633e-01) (74, -5.07879018783569335938e-01) (75, 2.10154056549072265625e+00) (76, 2.41960096359252929688e+00) (77, 2.09854102134704589844e+00) (78, -6.47534966468811035156e-01) (79, -5.85193410515785217285e-02) (80, -6.87500059604644775391e-01) (81, -7.53639817237854003906e-01) (82, 1.93309307098388671875e-01) (83, 2.41182947158813476562e+00) (84, -7.44528651237487792969e-01) (85, -7.05285191535949707031e-01) (86, -6.54450774192810058594e-01) (87, -8.06151211261749267578e-01) (88, -5.46703517436981201172e-01) (89, -5.43503224849700927734e-01) (90, 1.07933688163757324219e+00) (91, -6.31540119647979736328e-01) (92, -6.97674393653869628906e-01) (93, 2.12794852256774902344e+00) (94, -7.39130139350891113281e-01) (95, -8.79578232765197753906e-01) (96, -1.39697745442390441895e-01) (97, -6.89860224723815917969e-01) (98, -6.64576292037963867188e-01) (99, -7.59994506835937500000e-01) (100, 9.93479847908020019531e-01) (101, -7.93457508087158203125e-01) (102, -7.28998839855194091797e-01) (103, 3.29280495643615722656e+00) (104, 2.65254759788513183594e+00) (0, 2.18922996520996093750e+01) (1, 1.90186870098114013672e+00) (2, 2.01418662071228027344e+00) (3, -1.55824407935142517090e-01) (4, 1.97477877140045166016e+00) (5, 2.03277420997619628906e+00) (6, -2.16971114277839660645e-01) (7, -2.93216794729232788086e-01) (8, 1.86967217922210693359e+00) (9, -3.33326846361160278320e-01) (10, -2.91260927915573120117e-01) (11, 2.02723002433776855469e+00) (12, -1.86118125915527343750e-01) (13, -1.50284066796302795410e-01) (14, -3.18068623542785644531e-01) (15, -1.88960686326026916504e-01) (16, 1.92307388782501220703e+00) (17, -1.61923721432685852051e-01) (18, -1.95225045084953308105e-01) (19, -1.64894878864288330078e-01) (20, -2.74707466363906860352e-01) (21, -2.18226745724678039551e-01) (22, -1.85281217098236083984e-01) (23, -3.14965635538101196289e-01) (24, -2.50926136970520019531e-01) (25, -3.09064418077468872070e-01) (26, 2.07600402832031250000e+00) (27, 2.00321006774902343750e+00) (28, -3.28216314315795898438e-01) (29, 2.15125656127929687500e+00) (30, -2.00938209891319274902e-01) (31, -2.20352634787559509277e-01) (32, -2.47409150004386901855e-01) (33, -2.01353892683982849121e-01) (34, 1.95244824886322021484e+00) (35, -1.64606973528861999512e-01) (36, -1.64921239018440246582e-01) (37, -3.48826259374618530273e-01) (38, -2.36165240406990051270e-01) (39, -2.19497546553611755371e-01) (40, 1.94918072223663330078e+00) (41, -3.10349345207214355469e-01) (42, -3.16262036561965942383e-01) (43, -2.61668682098388671875e-01) (44, -2.42844760417938232422e-01) (45, -3.30627888441085815430e-01) (46, 1.87231910228729248047e+00) (47, -1.53765395283699035645e-01) (48, -2.15895548462867736816e-01) (49, -3.23846250772476196289e-01) (50, -2.14803054928779602051e-01) (51, -1.84516206383705139160e-01) (52, -2.19248816370964050293e-01) (53, -1.65524855256080627441e-01) (54, -2.44110628962516784668e-01) (55, 2.11850118637084960938e+00) (56, 2.04610824584960937500e+00) (57, -2.04997614026069641113e-01) (58, -1.86645328998565673828e-01) (59, -1.33469685912132263184e-01) (60, -2.80917614698410034180e-01) (61, 2.17004537582397460938e+00) (62, -3.04492413997650146484e-01) (63, -2.22675636410713195801e-01) (64, 1.16713023185729980469e+00) (65, -2.73872405290603637695e-01) (66, 3.19839406013488769531e+00) (67, 2.28270912170410156250e+00) (68, 1.24219849705696105957e-01) (69, 1.65944874286651611328e+00) (70, -3.09749215841293334961e-01) (71, -1.74182936549186706543e-01) (72, -3.21995645761489868164e-01) (73, 2.69276928901672363281e+00) (74, -1.42390161752700805664e-01) (75, 2.12800645828247070312e+00) (76, -3.03019374608993530273e-01) (77, 1.95256793498992919922e+00) (78, -3.02561342716217041016e-01) (79, 2.73272490501403808594e+00) (80, -3.03242176771163940430e-01) (81, -2.11982190608978271484e-01) (82, 1.90571248531341552734e+00) (83, -3.38287919759750366211e-01) (84, -1.77979126572608947754e-01) (85, -3.51372897624969482422e-01) (86, -2.78057128190994262695e-01) (87, -2.21450641751289367676e-01) (88, 1.89268219470977783203e+00) (89, -3.51817041635513305664e-01) (90, 1.96912658214569091797e+00) (91, 2.03943896293640136719e+00) (92, -3.18430036306381225586e-01) (93, -2.16320469975471496582e-01) (94, -2.89345920085906982422e-01) (95, -1.84526100754737854004e-01) (96, -2.49332740902900695801e-01) (97, -2.06031069159507751465e-01) (98, -3.00712972879409790039e-01) (99, -2.30428948998451232910e-01) (100, -3.26182961463928222656e-01) (101, -3.76145720481872558594e-01) (102, 2.15577340126037597656e+00) (103, -1.18342183530330657959e-01) (104, 2.05545759201049804688e+00) (0, 7.23855435848236083984e-01) (1, 9.46465015411376953125e-01) (2, -2.15169772505760192871e-01) (3, 6.86620235443115234375e-01) (4, 1.93200826644897460938e+00) (5, -3.22513520717620849609e-01) (6, -7.80899941921234130859e-01) (7, -8.53043258190155029297e-01) (8, -8.53670358657836914062e-01) (9, -6.92728400230407714844e-01) (10, -7.27481424808502197266e-01) (11, 2.18837213516235351562e+00) (12, -8.94491732120513916016e-01) (13, -1.88304889202117919922e+00) (14, -6.83358013629913330078e-01) (15, 2.02075600624084472656e+00) (16, -6.46335601806640625000e-01) (17, -8.26971828937530517578e-01) (18, 2.02739071846008300781e+00) (19, -7.70427048206329345703e-01) (20, 1.57360053062438964844e+00) (21, -7.45403885841369628906e-01) (22, -8.36602747440338134766e-02) (23, -8.49574267864227294922e-01) (24, 2.02830243110656738281e+00) (25, -8.14041197299957275391e-01) (26, 2.23630309104919433594e+00) (27, 2.01202583312988281250e+00) (28, 2.01242017745971679688e+00) (29, -7.75506675243377685547e-01) (30, 1.95311868190765380859e+00) (31, -7.48243153095245361328e-01) (32, 1.26803129911422729492e-01) (33, -6.03341221809387207031e-01) (34, -7.22867846488952636719e-01) (35, -6.30205333232879638672e-01) (36, -6.30507588386535644531e-01) (37, -8.40942978858947753906e-01) (38, -6.27871274948120117188e-01) (39, -6.28746628761291503906e-01) (40, -3.75552684068679809570e-01) (41, 5.11584058403968811035e-02) (42, 1.20581105351448059082e-01) (43, -6.44470810890197753906e-01) (44, -7.52828598022460937500e-01) (45, 1.85515403747558593750e+00) (46, -3.58022838830947875977e-01) (47, 2.02501344680786132812e+00) (48, 1.91681349277496337891e+00) (49, 4.79907035827636718750e-01) (50, -4.54641580581665039062e-02) (51, -4.23134505748748779297e-01) (52, -3.03046882152557373047e-01) (53, -6.39592170715332031250e-01) (54, -7.46970534324645996094e-01) (55, 8.27950417995452880859e-01) (56, 2.19242930412292480469e+00) (57, 9.48912322521209716797e-01) (58, -1.34303081035614013672e+00) (59, -1.03409481048583984375e+00) (60, 5.92038750648498535156e-01) (61, -1.83585667610168457031e+00) (62, -7.70929515361785888672e-01) (63, 1.92981660366058349609e+00) (64, -8.07518720626831054688e-01) (65, 2.03585934638977050781e+00) (66, -6.74095928668975830078e-01) (67, -7.67879188060760498047e-01) (68, 5.55784344673156738281e-01) (69, -5.34599542617797851562e-01) (70, -5.27225807309150695801e-02) (71, -7.82434195280075073242e-02) (72, 3.81109476089477539062e-01) (73, -7.04254865646362304688e-01) (74, 4.42280232906341552734e-01) (75, -3.53173673152923583984e-01) (76, 5.94960629940032958984e-01) (77, 5.46336770057678222656e-01) (78, -7.43169844150543212891e-01) (79, -1.05126097798347473145e-01) (80, -6.05656087398529052734e-01) (81, 6.51185274124145507812e-01) (82, -7.84845888614654541016e-01) (83, 3.10933530330657958984e-01) (84, -5.89346051216125488281e-01) (85, -6.59855186939239501953e-01) (86, -8.05113077163696289062e-01) (87, -8.42893898487091064453e-01) (88, -4.03091341257095336914e-01) (89, -8.23458194732666015625e-01) (90, 6.42949342727661132812e-01) (91, 1.86628854274749755859e+00) (92, -9.57840204238891601562e-01) (93, -6.83221995830535888672e-01) (94, 7.51180410385131835938e-01) (95, 1.08944982290267944336e-01) (96, -6.82249546051025390625e-01) (97, 4.07033383846282958984e-01) (98, -8.67288053035736083984e-01) (99, 3.11084568500518798828e-01) (100, 4.66658473014831542969e-01) (101, 2.36480176448822021484e-01) (102, -3.13775718212127685547e-01) (103, 2.10797309875488281250e+00) (104, 8.84508937597274780273e-02) (0, -4.36130475997924804688e+00) (1, -4.77755188941955566406e-01) (2, -4.37330245971679687500e-01) (3, 1.13010120391845703125e+00) (4, 6.33668243885040283203e-01) (5, -1.54039394855499267578e+00) (6, 7.68872678279876708984e-01) (7, 8.20676982402801513672e-01) (8, 6.41499996185302734375e-01) (9, 3.17722409963607788086e-01) (10, 6.56108319759368896484e-01) (11, 7.24697411060333251953e-01) (12, 3.75996857881546020508e-01) (13, -4.05627441406250000000e+00) (14, 2.33826115727424621582e-01) (15, 4.65046554803848266602e-01) (16, 7.28540480136871337891e-01) (17, 3.19126218557357788086e-01) (18, 4.60027545690536499023e-01) (19, -6.40206694602966308594e-01) (20, 1.02041685581207275391e+00) (21, 4.08646017313003540039e-01) (22, 2.30014657974243164062e+00) (23, -6.73853933811187744141e-01) (24, 3.79027128219604492188e-02) (25, -7.69875049591064453125e-01) (26, 7.60428726673126220703e-01) (27, 6.71151578426361083984e-01) (28, 6.81512117385864257812e-01) (29, 7.66045868396759033203e-01) (30, 3.06895434856414794922e-01) (31, 7.59269773960113525391e-01) (32, 4.16301697492599487305e-01) (33, 2.88101643323898315430e-01) (34, 4.84489631652832031250e+00) (35, -3.82156550884246826172e-01) (36, -5.94756841659545898438e-01) (37, -1.01128637790679931641e+00) (38, -6.80495679378509521484e-01) (39, 6.15250885486602783203e-01) (40, -6.93598389625549316406e-01) (41, -8.02988767623901367188e-01) (42, 4.64647859334945678711e-01) (43, -9.17728424072265625000e-01) (44, 7.92146146297454833984e-01) (45, -8.88796269893646240234e-01) (46, -1.01650011539459228516e+00) (47, 2.52765393257141113281e+00) (48, 9.63806450366973876953e-01) (49, 6.58155143260955810547e-01) (50, -8.07743310928344726562e-01) (51, -1.09221577644348144531e+00) (52, -5.60202419757843017578e-01) (53, 5.79045772552490234375e-01) (54, -7.47253239154815673828e-01) (55, 2.35734200477600097656e+00) (56, 8.12545359134674072266e-01) (57, 6.65220677852630615234e-01) (58, -7.64335334300994873047e-01) (59, 2.66471177339553833008e-01) (60, 3.53789418935775756836e-01) (61, -5.07208645343780517578e-01) (62, 5.11827766895294189453e-01) (63, 3.18416804075241088867e-01) (64, 6.02657794952392578125e-01) (65, 4.22964304685592651367e-01) (66, 1.05751037597656250000e+00) (67, 1.44741547107696533203e+00) (68, 4.16486412286758422852e-01) (69, -8.30393075942993164062e-01) (70, 4.59645658731460571289e-01) (71, 2.83677190542221069336e-01) (72, -8.79614174365997314453e-01) (73, 3.37708920240402221680e-01) (74, 6.93870425224304199219e-01) (75, -8.04798364639282226562e-01) (76, -7.55540132522583007812e-01) (77, 7.15320527553558349609e-01) (78, -7.13108837604522705078e-01) (79, 7.58898556232452392578e-01) (80, -9.77470874786376953125e-01) (81, -6.89063251018524169922e-01) (82, 8.92622530460357666016e-01) (83, 2.30612650513648986816e-01) (84, -8.71903181076049804688e-01) (85, 7.00627148151397705078e-01) (86, -6.62945270538330078125e-01) (87, -7.49855399131774902344e-01) (88, 6.98837101459503173828e-01) (89, -7.67479062080383300781e-01) (90, 6.85026466846466064453e-01) (91, 7.64702618122100830078e-01) (92, -7.39266216754913330078e-01) (93, 3.52513462305068969727e-01) (94, 4.28448408842086791992e-01) (95, -1.07680451869964599609e+00) (96, 8.99875819683074951172e-01) (97, -6.57536387443542480469e-01) (98, -7.31242299079895019531e-01) (99, 7.82541334629058837891e-01) (100, -7.12750971317291259766e-01) (101, -8.63553404808044433594e-01) (102, 1.85488355159759521484e+00) (103, 3.38962256908416748047e-01) (104, 2.62080836296081542969e+00) (0, 5.14423787593841552734e-01) (1, 3.32341104745864868164e-01) (2, 2.23275876045227050781e+00) (3, -2.12974667549133300781e-01) (4, -3.31771001219749450684e-02) (5, -5.91953039169311523438e-01) (6, -3.35933506488800048828e-01) (7, 1.34574007987976074219e+00) (8, 1.50622427463531494141e+00) (9, 1.36023187637329101562e+00) (10, 5.60675784945487976074e-02) (11, 1.43752419948577880859e+00) (12, 1.26295876502990722656e+00) (13, 4.88417267799377441406e-01) (14, 1.45601499080657958984e+00) (15, -7.50967025756835937500e-01) (16, -6.48017525672912597656e-01) (17, 6.97188615798950195312e-01) (18, -1.02687448263168334961e-01) (19, -1.50320276618003845215e-01) (20, -3.39697623252868652344e+00) (21, -8.48436117172241210938e-01) (22, -6.13021492958068847656e-01) (23, -1.07756733894348144531e+00) (24, -1.35994434356689453125e+00) (25, -2.94308006763458251953e-01) (26, 2.87597090005874633789e-01) (27, 7.58741438388824462891e-01) (28, -7.51047551631927490234e-01) (29, -6.37498140335083007812e-01) (30, 1.39258408546447753906e+00) (31, -7.44726359844207763672e-01) (32, -7.32299923896789550781e-01) (33, -6.43019676208496093750e-01) (34, -8.75998616218566894531e-01) (35, -1.40607309341430664062e+00) (36, -7.39516496658325195312e-01) (37, -4.85557138919830322266e-01) (38, 2.75657594203948974609e-01) (39, 2.29676783084869384766e-01) (40, -1.74735009670257568359e-01) (41, 3.76341566443443298340e-02) (42, 1.90075099468231201172e-01) (43, 1.32207667827606201172e+00) (44, -1.22441105544567108154e-01) (45, 1.78786611557006835938e+00) (46, -1.82873845100402832031e+00) (47, -1.36721765995025634766e+00) (48, -5.79584717750549316406e-01) (49, 1.44061422348022460938e+00) (50, 1.74058783054351806641e+00) (51, 1.65655627846717834473e-01) (52, -2.12107390165328979492e-01) (53, -6.50451779365539550781e-01) (54, 9.28357064723968505859e-01) (55, -2.06744745373725891113e-01) (56, -8.18402022123336791992e-02) (57, 8.50271224975585937500e-01) (58, -1.66609144210815429688e+00) (59, -4.20942336320877075195e-01) (60, 1.09399175643920898438e+00) (61, 2.22448205947875976562e+00) (62, 1.22818803787231445312e+00) (63, 6.35370910167694091797e-01) (64, 1.68715667724609375000e+00) (65, -3.55492718517780303955e-02) (66, -1.12886500358581542969e+00) (67, -2.26522311568260192871e-02) (68, 1.09670057892799377441e-01) (69, -4.50113385915756225586e-01) (70, -3.75688105821609497070e-01) (71, 1.07213175296783447266e+00) (72, -6.10210478305816650391e-01) (73, 7.41890966892242431641e-01) (74, 1.41738498210906982422e+00) (75, -1.85359072685241699219e+00) (76, 1.83568191528320312500e+00) (77, 2.21871003508567810059e-01) (78, 9.54972743988037109375e-01) (79, -2.33338809013366699219e+00) (80, -5.93729242682456970215e-02) (81, 6.44202604889869689941e-02) (82, 4.91044640541076660156e-01) (83, -1.20529580116271972656e+00) (84, -3.77296447753906250000e-01) (85, 1.09172904491424560547e+00) (86, -4.97885823249816894531e-01) (87, -1.96671888232231140137e-01) (88, 5.80703377723693847656e-01) (89, -1.08581686019897460938e+00) (90, 1.28547942638397216797e+00) (91, 1.19120135903358459473e-01) (92, 1.41979381442070007324e-01) (93, 4.87166434526443481445e-01) (94, -6.83973580598831176758e-02) (95, 9.39722597599029541016e-01) (96, -1.62677004933357238770e-01) (97, -1.01503992080688476562e+00) (98, 8.26238170266151428223e-02) (99, -6.63434147834777832031e-01) (100, 1.17762827873229980469e+00) (101, 5.34112870693206787109e-01) (102, -5.31868159770965576172e-01) (103, 2.71292257308959960938e+00) (104, 2.14702177047729492188e+00) (0, 2.25108981132507324219e+00) (1, 1.00998044013977050781e+00) (2, 9.82822000980377197266e-01) (3, 6.93930089473724365234e-01) (4, -2.40017414093017578125e-01) (5, 1.02438199520111083984e+00) (6, -4.13001894950866699219e-01) (7, 7.64171123504638671875e-01) (8, 1.02827095985412597656e+00) (9, -3.79038184881210327148e-01) (10, 7.68703341484069824219e-01) (11, 1.11859917640686035156e+00) (12, 8.01642000675201416016e-01) (13, 7.79281556606292724609e-01) (14, 8.11117529869079589844e-01) (15, 7.57537722587585449219e-01) (16, 1.27820801734924316406e+00) (17, 8.37055683135986328125e-01) (18, 6.87476277351379394531e-01) (19, 8.88994872570037841797e-01) (20, 8.92171680927276611328e-01) (21, 8.17865848541259765625e-01) (22, 8.01576852798461914062e-01) (23, -3.98530811071395874023e-01) (24, 8.18220555782318115234e-01) (25, 6.85594677925109863281e-01) (26, 5.08186146616935729980e-02) (27, 1.17025709152221679688e+00) (28, 6.92743360996246337891e-01) (29, 2.13510513305664062500e+00) (30, 7.69008159637451171875e-01) (31, -3.33039015531539916992e-01) (32, 8.06575775146484375000e-01) (33, 6.62966430187225341797e-01) (34, 9.08582985401153564453e-01) (35, -3.79457086324691772461e-01) (36, -4.14400905370712280273e-01) (37, 7.57114648818969726562e-01) (38, -4.61704522371292114258e-01) (39, -3.02345842123031616211e-01) (40, -7.21417963504791259766e-02) (41, 7.51568198204040527344e-01) (42, -3.49356353282928466797e-01) (43, 6.47701919078826904297e-01) (44, -3.76071542501449584961e-01) (45, 7.91592180728912353516e-01) (46, 9.07707631587982177734e-01) (47, 7.22540080547332763672e-01) (48, 7.51546680927276611328e-01) (49, -3.53585988283157348633e-01) (50, -5.55601775646209716797e-01) (51, -5.88786661624908447266e-01) (52, -3.94134163856506347656e-01) (53, 1.53310322761535644531e+00) (54, -4.16339218616485595703e-01) (55, 4.33830648660659790039e-01) (56, 9.71467494964599609375e-01) (57, 1.32539883255958557129e-01) (58, -5.73689818382263183594e-01) (59, 2.04031988978385925293e-01) (60, -4.99463945627212524414e-01) (61, 4.05744940042495727539e-01) (62, -4.58475917577743530273e-01) (63, -4.79406476020812988281e-01) (64, 5.86208915710449218750e+00) (65, -3.70731145143508911133e-01) (66, 7.30221939086914062500e+00) (67, 3.15086817741394042969e+00) (68, 1.34259116649627685547e+00) (69, 2.07957312464714050293e-01) (70, -3.13263893127441406250e-01) (71, -5.04872500896453857422e-01) (72, -4.74561959505081176758e-01) (73, 3.99763607978820800781e+00) (74, -2.85022765398025512695e-01) (75, 4.17099565267562866211e-01) (76, -5.01018643379211425781e-01) (77, -1.21424362063407897949e-01) (78, -2.74715960025787353516e-01) (79, 3.82603192329406738281e+00) (80, -5.10243594646453857422e-01) (81, -3.86210203170776367188e-01) (82, -2.54565715789794921875e-01) (83, -4.56146925687789916992e-01) (84, 6.65503978729248046875e-01) (85, -4.70025539398193359375e-01) (86, -4.89125609397888183594e-01) (87, -5.36339998245239257812e-01) (88, -1.66310042142868041992e-01) (89, -5.71653127670288085938e-01) (90, -1.59953147172927856445e-01) (91, -1.29015207290649414062e-01) (92, -5.12550532817840576172e-01) (93, -5.32057464122772216797e-01) (94, -4.76723909378051757812e-01) (95, -5.19111990928649902344e-01) (96, -3.87724012136459350586e-01) (97, -5.91058313846588134766e-01) (98, -5.50446748733520507812e-01) (99, 5.97614288330078125000e-01) (100, -5.32088458538055419922e-01) (101, -5.71494638919830322266e-01) (102, 3.59456729888916015625e+00) (103, -8.49443793296813964844e-01) (104, 2.57342100143432617188e+00) (0, 1.08998670578002929688e+01) (1, -2.65271115303039550781e+00) (2, 3.25234949588775634766e-01) (3, 3.16202849149703979492e-01) (4, -2.15784192085266113281e-01) (5, -1.18028354644775390625e+00) (6, -3.49080711603164672852e-01) (7, 3.91073441505432128906e+00) (8, 1.50401914119720458984e+00) (9, -3.35072904825210571289e-01) (10, -2.83047229051589965820e-01) (11, -2.17968896031379699707e-01) (12, -2.97247797250747680664e-01) (13, 6.84729635715484619141e-01) (14, -3.79165858030319213867e-01) (15, -3.98470938205718994141e-01) (16, -1.00544661283493041992e-01) (17, -2.55810558795928955078e-01) (18, -8.56069996953010559082e-02) (19, -2.39627838134765625000e-01) (20, 9.74097311496734619141e-01) (21, -3.03514301776885986328e-01) (22, -3.62336814403533935547e-01) (23, -3.56159210205078125000e-01) (24, -2.71562606096267700195e-01) (25, -3.67065638303756713867e-01) (26, 3.18278819322586059570e-01) (27, 4.13782596588134765625e-02) (28, -2.24238306283950805664e-01) (29, 4.44230407476425170898e-01) (30, -1.99270755052566528320e-01) (31, -2.21339151263236999512e-01) (32, -2.90394276380538940430e-01) (33, -3.56730908155441284180e-01) (34, 3.64455282688140869141e-01) (35, -3.61693441867828369141e-01) (36, -2.77827054262161254883e-01) (37, -2.45420575141906738281e-01) (38, -2.21109956502914428711e-01) (39, 1.17535494267940521240e-01) (40, -1.28848165273666381836e-01) (41, 1.49922877550125122070e-01) (42, -3.14444124698638916016e-01) (43, 2.14430224150419235229e-02) (44, -2.23771661520004272461e-01) (45, 1.27505198121070861816e-01) (46, 1.24151277542114257812e+00) (47, 4.68223169445991516113e-02) (48, 2.49753996729850769043e-01) (49, -2.39113062620162963867e-01) (50, -1.45284593105316162109e-01) (51, -3.13907980918884277344e-01) (52, -1.77591264247894287109e-01) (53, -2.50021442770957946777e-02) (54, -3.83529841899871826172e-01) (55, 5.51148355007171630859e-01) (56, -1.61209017038345336914e-01) (57, 7.16604173183441162109e-01) (58, -2.78021663427352905273e-01) (59, 7.75420606136322021484e-01) (60, -3.97279828786849975586e-01) (61, 4.66387659311294555664e-01) (62, -3.70841920375823974609e-01) (63, -2.91196376085281372070e-01) (64, 2.91667842864990234375e+00) (65, -3.48639458417892456055e-01) (66, 2.86345481872558593750e+00) (67, 1.43068730831146240234e+00) (68, 1.54949796199798583984e+00) (69, 4.11331146955490112305e-01) (70, -2.45927929878234863281e-01) (71, -2.61360406875610351562e-01) (72, -4.13649529218673706055e-01) (73, 1.58653581142425537109e+00) (74, -3.00298899412155151367e-01) (75, 5.85418641567230224609e-01) (76, -2.81670004129409790039e-01) (77, -7.40598738193511962891e-02) (78, -1.89989984035491943359e-01) (79, 1.76474440097808837891e+00) (80, -2.96096414327621459961e-01) (81, -2.85979092121124267578e-01) (82, 3.10945305973291397095e-02) (83, -3.06314885616302490234e-01) (84, -3.79271626472473144531e-01) (85, -2.15453356504440307617e-01) (86, -2.33260273933410644531e-01) (87, -4.51955407857894897461e-01) (88, -1.08596891164779663086e-01) (89, -2.06632971763610839844e-01) (90, -1.04551739990711212158e-01) (91, -1.05258971452713012695e-01) (92, -2.64672458171844482422e-01) (93, -2.88607329130172729492e-01) (94, -4.27131831645965576172e-01) (95, -3.03300470113754272461e-01) (96, -3.69755595922470092773e-01) (97, -3.19975584745407104492e-01) (98, -2.46791124343872070312e-01) (99, -2.71620213985443115234e-01) (100, -3.27516257762908935547e-01) (101, -3.44805985689163208008e-01) (102, 2.39980840682983398438e+00) (103, -2.01962471008300781250e-01) (104, 2.27232193946838378906e+00) (0, 7.51295983791351318359e-01) (1, 1.43645823001861572266e+00) (2, 1.50580847263336181641e+00) (3, -5.05257785320281982422e-01) (4, -3.41072864830493927002e-02) (5, -8.58134627342224121094e-02) (6, -5.54364383220672607422e-01) (7, 1.12019264698028564453e+00) (8, 1.44560420513153076172e+00) (9, -6.01479887962341308594e-01) (10, 1.01790785789489746094e+00) (11, 1.43811857700347900391e+00) (12, 1.06378734111785888672e+00) (13, 1.09553194046020507812e+00) (14, 1.05819785594940185547e+00) (15, -5.78338146209716796875e-01) (16, 1.56287515163421630859e+00) (17, 1.01112020015716552734e+00) (18, 1.09452974796295166016e+00) (19, 1.04622960090637207031e+00) (20, 1.22351980209350585938e+00) (21, 1.06061673164367675781e+00) (22, 1.00017678737640380859e+00) (23, 1.06450939178466796875e+00) (24, 1.10101497173309326172e+00) (25, 1.14693880081176757812e+00) (26, 1.55682170391082763672e+00) (27, 1.52598321437835693359e+00) (28, -5.84072053432464599609e-01) (29, 3.61836999654769897461e-01) (30, 1.05257213115692138672e+00) (31, -4.83774602413177490234e-01) (32, 1.06288361549377441406e+00) (33, -5.87006509304046630859e-01) (34, 1.56309533119201660156e+00) (35, -5.90847551822662353516e-01) (36, -5.86292266845703125000e-01) (37, -5.04715263843536376953e-01) (38, -4.67290878295898437500e-01) (39, -5.00400245189666748047e-01) (40, -2.52567995339632034302e-02) (41, 1.13186299800872802734e+00) (42, -5.73796808719635009766e-01) (43, 1.15593898296356201172e+00) (44, -5.24685144424438476562e-01) (45, 1.09897637367248535156e+00) (46, 1.49430251121520996094e+00) (47, -4.97384399175643920898e-01) (48, -4.42993044853210449219e-01) (49, 1.05924940109252929688e+00) (50, 9.94601309299468994141e-01) (51, -6.02950453758239746094e-01) (52, -5.72962045669555664062e-01) (53, -1.41459673643112182617e-01) (54, 1.07937049865722656250e+00) (55, 5.29659613966941833496e-02) (56, -1.88498288393020629883e-01) (57, -3.27179878950119018555e-01) (58, -6.01205885410308837891e-01) (59, -3.18799048662185668945e-01) (60, -4.31116580963134765625e-01) (61, 1.90494254231452941895e-01) (62, 9.90172505378723144531e-01) (63, -5.64727783203125000000e-01) (64, 2.01094961166381835938e+00) (65, -4.84674662351608276367e-01) (66, 2.92828989028930664062e+00) (67, 9.58937704563140869141e-01) (68, 2.39766642451286315918e-01) (69, -1.96306794881820678711e-01) (70, -4.64108496904373168945e-01) (71, -5.71512818336486816406e-01) (72, -4.75741535425186157227e-01) (73, 1.65879762172698974609e+00) (74, -3.95567387342453002930e-01) (75, 1.56149849295616149902e-01) (76, -4.52641963958740234375e-01) (77, -1.99665009975433349609e-01) (78, -3.83584022521972656250e-01) (79, 1.51969993114471435547e+00) (80, -5.43792188167572021484e-01) (81, 1.01776099205017089844e+00) (82, -2.16871201992034912109e-01) (83, 1.08454418182373046875e+00) (84, 1.11514198780059814453e+00) (85, -4.29513603448867797852e-01) (86, -4.87512618303298950195e-01) (87, -5.29355943202972412109e-01) (88, 1.53858971595764160156e+00) (89, -4.99145507812500000000e-01) (90, -1.70442745089530944824e-01) (91, -1.93113505840301513672e-01) (92, -6.13000094890594482422e-01) (93, -5.53767442703247070312e-01) (94, -4.65910881757736206055e-01) (95, -6.15932047367095947266e-01) (96, -5.91646373271942138672e-01) (97, -4.90693926811218261719e-01) (98, -5.35984039306640625000e-01) (99, -4.43367183208465576172e-01) (100, -5.55985927581787109375e-01) (101, -6.25138580799102783203e-01) (102, 3.10496091842651367188e+00) (103, -5.59878528118133544922e-01) (104, 2.48674392700195312500e+00) (0, -4.30969953536987304688e+00) (1, -6.92659854888916015625e-01) (2, 2.18798685073852539062e+00) (3, 1.34421396255493164062e+00) (4, 2.22517037391662597656e+00) (5, 2.22888660430908203125e+00) (6, 2.28934121131896972656e+00) (7, 5.65223634243011474609e-01) (8, -1.52466595172882080078e+00) (9, 2.10340738296508789062e+00) (10, 2.24546885490417480469e+00) (11, 2.16113424301147460938e+00) (12, 2.19564366340637207031e+00) (13, 3.18557691574096679688e+00) (14, -1.86281120777130126953e+00) (15, 2.11097931861877441406e+00) (16, -6.42927706241607666016e-01) (17, 2.10091447830200195312e+00) (18, -5.43344676494598388672e-01) (19, 2.16004896163940429688e+00) (20, 7.94801282882690429688e+00) (21, 2.20319271087646484375e+00) (22, 2.34804844856262207031e+00) (23, 2.48768997192382812500e+00) (24, 1.41335141658782958984e+00) (25, 5.37987565994262695312e+00) (26, 2.20946502685546875000e+00) (27, 2.82473659515380859375e+00) (28, -4.61845308542251586914e-01) (29, -4.37149196863174438477e-01) (30, 2.78555202484130859375e+00) (31, 2.23011159896850585938e+00) (32, 2.28025460243225097656e+00) (33, 2.52057743072509765625e+01) (34, 5.34222793579101562500e+00) (35, 3.50148463249206542969e+00) (36, 1.87348728179931640625e+01) (37, 1.07275736331939697266e+00) (38, 5.29138624668121337891e-01) (39, -6.06751918792724609375e-01) (40, 3.77454817295074462891e-01) (41, -7.32343867421150207520e-02) (42, 2.29587411880493164062e+00) (43, 2.38707232475280761719e+00) (44, 2.19622111320495605469e+00) (45, 3.74489998817443847656e+00) (46, 2.08059310913085937500e+00) (47, 2.99069118499755859375e+00) (48, -9.30893063545227050781e-01) (49, 2.19528150558471679688e+00) (50, 2.99647617340087890625e+00) (51, -1.38894736766815185547e+00) (52, -8.64081084728240966797e-01) (53, -5.37911319732666015625e+00) (54, -6.46776854991912841797e-01) (55, -1.74985897541046142578e+00) (56, -5.18728017807006835938e-01) (57, -8.73242187500000000000e+00) (58, -5.73163807392120361328e-01) (59, 4.19832468032836914062e-01) (60, 6.31653785705566406250e-01) (61, -2.55263829231262207031e+00) (62, 4.31174564361572265625e+00) (63, 2.22408747673034667969e+00) (64, 1.88155794143676757812e+00) (65, 5.75294077396392822266e-01) (66, -4.82399791479110717773e-01) (67, 6.38280630111694335938e-01) (68, -4.35486614704132080078e-01) (69, -4.61097955703735351562e-01) (70, -2.88667023181915283203e-01) (71, -1.87982082366943359375e-01) (72, 2.20437502861022949219e+00) (73, 6.53700113296508789062e-01) (74, -2.19457596540451049805e-01) (75, -3.01847904920578002930e-01) (76, -5.08456170558929443359e-01) (77, 6.25983715057373046875e-01) (78, -4.86169934272766113281e-01) (79, -1.11824139952659606934e-01) (80, -4.31416630744934082031e-01) (81, -4.07991349697113037109e-01) (82, -3.55525493621826171875e-01) (83, -6.76186159253120422363e-02) (84, -3.41473519802093505859e-01) (85, -8.64750981330871582031e-01) (86, 5.59808671474456787109e-01) (87, -4.10163968801498413086e-01) (88, -4.77785557508468627930e-01) (89, -4.42454278469085693359e-01) (90, -4.62141692638397216797e-01) (91, 5.55152297019958496094e-01) (92, 4.77787852287292480469e-01) (93, -1.29724785685539245605e-01) (94, 5.51193833351135253906e-01) (95, -3.46191376447677612305e-01) (96, -3.96903991699218750000e-01) (97, -1.89905643463134765625e-01) (98, 6.05059385299682617188e-01) (99, 5.06775915622711181641e-01) (100, 5.65259754657745361328e-01) (101, 4.27596986293792724609e-01) (102, 2.32092285156250000000e+00) (103, -4.80882465839385986328e-01) (104, 1.22822952270507812500e+00) (0, 2.70215129852294921875e+01) (1, 2.01851654052734375000e+00) (2, 4.42802858352661132812e+00) (3, -4.09165716171264648438e+00) (4, -1.07895469665527343750e+00) (5, -1.79328405857086181641e+00) (6, -5.69195091724395751953e-01) (7, 2.22660398483276367188e+00) (8, 1.02701020240783691406e+00) (9, 3.88083362579345703125e+00) (10, 5.44317579269409179688e+00) (11, -2.07273229956626892090e-01) (12, -2.44571402668952941895e-01) (13, 1.28535926342010498047e+00) (14, -7.37553298473358154297e-01) (15, 1.87599456310272216797e+00) (16, 1.46993076801300048828e+00) (17, 7.42800952866673469543e-03) (18, 3.03866267204284667969e+00) (19, -4.23161774873733520508e-01) (20, -1.73250305652618408203e+00) (21, 5.62195062637329101562e+00) (22, -7.19222664833068847656e-01) (23, 8.72237265110015869141e-01) (24, -7.56823837757110595703e-01) (25, 4.08945173025131225586e-01) (26, -1.28281652927398681641e-01) (27, -4.35666620731353759766e-01) (28, 1.92571306228637695312e+00) (29, 5.55292069911956787109e-01) (30, -3.19652986526489257812e+00) (31, 1.29080867767333984375e+00) (32, 4.15991753339767456055e-01) (33, 2.94819474220275878906e+00) (34, 8.78565013408660888672e-02) (35, 2.66724348068237304688e+00) (36, -2.80815482139587402344e-01) (37, 2.55411237478256225586e-01) (38, -7.07283437252044677734e-01) (39, 2.87601314485073089600e-02) (40, 2.26560264825820922852e-01) (41, -1.17975437641143798828e+00) (42, 1.18401229381561279297e+00) (43, -6.10703289508819580078e-01) (44, 5.44647395610809326172e-01) (45, -1.59607082605361938477e-01) (46, -1.20318686962127685547e+00) (47, 5.75342595577239990234e-01) (48, 1.30047416687011718750e+00) (49, 7.24560767412185668945e-02) (50, 1.18847690522670745850e-01) (51, 4.59331691265106201172e-01) (52, 4.35609579086303710938e-01) (53, 5.26608824729919433594e-01) (54, 7.73996055126190185547e-01) (55, 1.45506858825683593750e+00) (56, -1.49401113390922546387e-01) (57, -1.61999607086181640625e+01) (58, 3.78177076578140258789e-01) (59, -3.47174286842346191406e+00) (60, 8.19234848022460937500e-01) (61, 3.08325380086898803711e-01) (62, 7.25220978260040283203e-01) (63, 8.27277123928070068359e-01) (64, 6.68606042861938476562e-01) (65, 7.85072207450866699219e-01) (66, 1.13984954357147216797e+00) (67, 7.30274081230163574219e-01) (68, -5.18026530742645263672e-01) (69, 6.21419727802276611328e-01) (70, 3.40395927429199218750e-01) (71, 8.67129325866699218750e-01) (72, 3.44868987798690795898e-01) (73, 9.01619940996170043945e-02) (74, 4.16674554347991943359e-01) (75, 4.92459356784820556641e-01) (76, -6.65541052818298339844e-01) (77, -1.31443277001380920410e-01) (78, 3.45817834138870239258e-01) (79, 9.82221305370330810547e-01) (80, -7.42306470870971679688e-01) (81, 2.19839513301849365234e-01) (82, 4.54328119754791259766e-01) (83, -7.38622128963470458984e-01) (84, 1.08009409904479980469e+00) (85, -2.16054040938615798950e-02) (86, 1.03352177143096923828e+00) (87, -6.94104731082916259766e-01) (88, 6.98807835578918457031e-01) (89, 1.53075546026229858398e-01) (90, -9.04655084013938903809e-02) (91, 1.03340387344360351562e+00) (92, -9.07765388488769531250e-01) (93, -7.54885315895080566406e-01) (94, -3.90389621257781982422e-01) (95, -1.96518611907958984375e+00) (96, -4.28612530231475830078e-02) (97, -7.80142366886138916016e-01) (98, 7.56394863128662109375e-01) (99, -2.16922741383314132690e-02) (100, -4.62113857269287109375e-01) (101, -7.49220907688140869141e-01) (102, 3.82758164405822753906e+00) (103, -1.22501158714294433594e+00) (104, 2.75535678863525390625e+00) (0, 2.37711453437805175781e+00) (1, 1.04834890365600585938e+00) (2, 9.90569770336151123047e-01) (3, 6.83820724487304687500e-01) (4, -2.64898270368576049805e-01) (5, 1.08918952941894531250e+00) (6, -5.07284760475158691406e-01) (7, 6.43843829631805419922e-01) (8, 1.11607265472412109375e+00) (9, -5.54621219635009765625e-01) (10, 8.50282311439514160156e-01) (11, 1.07011735439300537109e+00) (12, 7.07727313041687011719e-01) (13, 8.18348109722137451172e-01) (14, 8.15198183059692382812e-01) (15, 7.63973176479339599609e-01) (16, 1.28922414779663085938e+00) (17, 7.38985538482666015625e-01) (18, 7.80188620090484619141e-01) (19, 7.23784983158111572266e-01) (20, 8.94992351531982421875e-01) (21, 8.40360760688781738281e-01) (22, 7.99257695674896240234e-01) (23, -3.88589948415756225586e-01) (24, 6.95046544075012207031e-01) (25, 6.73999547958374023438e-01) (26, -2.30718273669481277466e-02) (27, 1.31909275054931640625e+00) (28, 7.57069051265716552734e-01) (29, 2.14732861518859863281e+00) (30, 9.05151546001434326172e-01) (31, -4.20956492424011230469e-01) (32, 7.84197628498077392578e-01) (33, 8.29201161861419677734e-01) (34, 9.11689043045043945312e-01) (35, -4.43227261304855346680e-01) (36, -4.37939345836639404297e-01) (37, 7.24971532821655273438e-01) (38, -4.61857706308364868164e-01) (39, -4.77799028158187866211e-01) (40, -1.33474767208099365234e-01) (41, 6.85797750949859619141e-01) (42, -3.82868856191635131836e-01) (43, 8.01774322986602783203e-01) (44, -3.51353287696838378906e-01) (45, 6.31594479084014892578e-01) (46, 9.85128581523895263672e-01) (47, 7.37074971199035644531e-01) (48, 8.21721971035003662109e-01) (49, -5.16235411167144775391e-01) (50, -5.78814327716827392578e-01) (51, -4.79123413562774658203e-01) (52, -3.76833826303482055664e-01) (53, 1.49907922744750976562e+00) (54, -3.77760589122772216797e-01) (55, 4.26224201917648315430e-01) (56, 1.10334444046020507812e+00) (57, 2.10722312331199645996e-01) (58, -4.16184335947036743164e-01) (59, 2.24483445286750793457e-01) (60, -5.42990207672119140625e-01) (61, 5.10660469532012939453e-01) (62, -5.17548978328704833984e-01) (63, -4.02734637260437011719e-01) (64, 5.70356988906860351562e+00) (65, -4.25192534923553466797e-01) (66, 7.17842674255371093750e+00) (67, 3.03273773193359375000e+00) (68, 1.34893870353698730469e+00) (69, 2.91015058755874633789e-01) (70, -4.70970451831817626953e-01) (71, -3.61302226781845092773e-01) (72, -4.11948978900909423828e-01) (73, 3.99237513542175292969e+00) (74, -4.34752106666564941406e-01) (75, 5.17694652080535888672e-01) (76, -5.25260627269744873047e-01) (77, -1.53245389461517333984e-01) (78, -3.32446336746215820312e-01) (79, 3.95607972145080566406e+00) (80, -6.63047432899475097656e-01) (81, -5.34926831722259521484e-01) (82, -2.67806619405746459961e-01) (83, -4.79620128870010375977e-01) (84, 6.31494939327239990234e-01) (85, -4.33255910873413085938e-01) (86, -4.02751028537750244141e-01) (87, -4.95959013700485229492e-01) (88, -2.08383798599243164062e-01) (89, -4.74209010601043701172e-01) (90, -2.57936805486679077148e-01) (91, -1.08191803097724914551e-01) (92, -6.06071531772613525391e-01) (93, -4.95871603488922119141e-01) (94, -4.67188686132431030273e-01) (95, -5.40398657321929931641e-01) (96, -5.32558679580688476562e-01) (97, -5.37921071052551269531e-01) (98, -4.95993226766586303711e-01) (99, 7.85890102386474609375e-01) (100, -4.99168962240219116211e-01) (101, -6.33105695247650146484e-01) (102, 3.78858590126037597656e+00) (103, -8.94929349422454833984e-01) (104, 2.48978686332702636719e+00) (0, -5.42884230613708496094e-01) (1, 1.43483781814575195312e+00) (2, 1.20132303237915039062e+00) (3, 5.69533467292785644531e-01) (4, 1.14884567260742187500e+00) (5, 1.17323231697082519531e+00) (6, 7.46849119663238525391e-01) (7, 9.75222706794738769531e-01) (8, 2.01861834526062011719e+00) (9, -5.65762281417846679688e-01) (10, 1.12698888778686523438e+00) (11, 1.11989629268646240234e+00) (12, 7.57477700710296630859e-01) (13, 6.31861329078674316406e-01) (14, 6.64746940135955810547e-01) (15, 7.06220388412475585938e-01) (16, 1.11853039264678955078e+00) (17, 9.92902696132659912109e-01) (18, 9.85232293605804443359e-01) (19, 7.79942333698272705078e-01) (20, 7.31447160243988037109e-01) (21, 6.58810257911682128906e-01) (22, 6.26383543014526367188e-01) (23, -5.59643805027008056641e-01) (24, 7.48702704906463623047e-01) (25, 1.07119095325469970703e+00) (26, 1.14874911308288574219e+00) (27, 1.25882494449615478516e+00) (28, -5.26147723197937011719e-01) (29, 1.55469465255737304688e+00) (30, 1.12239170074462890625e+00) (31, 6.96809172630310058594e-01) (32, -5.93737065792083740234e-01) (33, 6.65844559669494628906e-01) (34, 1.43706357479095458984e+00) (35, 5.88220238685607910156e-01) (36, 5.88509619235992431641e-01) (37, 7.34521150588989257812e-01) (38, 6.04094088077545166016e-01) (39, 7.47492015361785888672e-01) (40, -1.25609546899795532227e-01) (41, 5.91548383235931396484e-01) (42, 7.28822469711303710938e-01) (43, 7.39488840103149414062e-01) (44, -5.17017364501953125000e-01) (45, 6.37308120727539062500e-01) (46, 3.77567005157470703125e+00) (47, 6.69903635978698730469e-01) (48, 6.15186691284179687500e-01) (49, 6.91522121429443359375e-01) (50, 5.94076335430145263672e-01) (51, -4.90540295839309692383e-01) (52, -5.54898917675018310547e-01) (53, 9.44923281669616699219e-01) (54, -5.25771319866180419922e-01) (55, 1.94899544119834899902e-01) (56, 1.19519758224487304688e+00) (57, -2.49449104070663452148e-01) (58, -5.74462115764617919922e-01) (59, -2.22803920507431030273e-01) (60, -6.12978518009185791016e-01) (61, 1.19218252599239349365e-01) (62, -5.31865179538726806641e-01) (63, 6.63334310054779052734e-01) (64, 2.34952950477600097656e+00) (65, -5.29851555824279785156e-01) (66, 2.96736288070678710938e+00) (67, 9.94142472743988037109e-01) (68, 2.61850804090499877930e-01) (69, -2.85581350326538085938e-01) (70, 6.70443415641784667969e-01) (71, 6.32990479469299316406e-01) (72, -4.72885429859161376953e-01) (73, 1.68760120868682861328e+00) (74, -4.91911262273788452148e-01) (75, 1.10087238252162933350e-01) (76, -5.24489104747772216797e-01) (77, -6.61159455776214599609e-02) (78, -4.35189127922058105469e-01) (79, 1.64527976512908935547e+00) (80, 6.05541646480560302734e-01) (81, 6.18087291717529296875e-01) (82, -5.92732578516006469727e-02) (83, 7.26834475994110107422e-01) (84, 9.55591201782226562500e-01) (85, -4.46190059185028076172e-01) (86, -5.03133714199066162109e-01) (87, -5.40104150772094726562e-01) (88, -1.23907677829265594482e-01) (89, -6.28188788890838623047e-01) (90, -1.33614182472229003906e-01) (91, -1.33984535932540893555e-01) (92, -5.32891869544982910156e-01) (93, -5.16517519950866699219e-01) (94, -4.94812726974487304688e-01) (95, 5.78811585903167724609e-01) (96, -5.40673851966857910156e-01) (97, -5.08153378963470458984e-01) (98, -5.66067755222320556641e-01) (99, 6.17001593112945556641e-01) (100, -5.26199400424957275391e-01) (101, -5.53538084030151367188e-01) (102, 4.20334529876708984375e+00) (103, -1.50083792209625244141e+00) (104, 2.54070496559143066406e+00) (0, -8.26972961425781250000e-01) (1, -6.52996599674224853516e-01) (2, 2.16143220663070678711e-01) (3, -2.37392634153366088867e-01) (4, 3.74302230775356292725e-02) (5, 2.36106187105178833008e-01) (6, -3.31438279151916503906e+00) (7, 4.04995322227478027344e-01) (8, -6.42931997776031494141e-01) (9, 2.21564459800720214844e+00) (10, -2.69299268722534179688e+00) (11, 4.67444173991680145264e-02) (12, 2.17073440551757812500e+00) (13, 1.29129815101623535156e+00) (14, 6.85384348034858703613e-02) (15, -4.50350463390350341797e-01) (16, -4.36676025390625000000e-01) (17, -1.83659717440605163574e-01) (18, 1.35745668411254882812e+00) (19, 2.12855005264282226562e+00) (20, 1.75082373619079589844e+00) (21, 6.43398106098175048828e-01) (22, 9.99385118484497070312e-01) (23, 2.03942751884460449219e+00) (24, 2.15605020523071289062e+00) (25, 1.83982694149017333984e+00) (26, 4.94291968643665313721e-02) (27, 8.78976359963417053223e-02) (28, 1.61958467960357666016e+00) (29, 2.21904706954956054688e+00) (30, 1.76295316219329833984e+00) (31, 2.03655257821083068848e-01) (32, -6.86258375644683837891e-02) (33, 1.39669939875602722168e-01) (34, -1.60438269376754760742e-01) (35, -5.79158663749694824219e-02) (36, -2.17499279975891113281e+00) (37, -2.04513335227966308594e+00) (38, -4.32797282934188842773e-01) (39, 5.50837628543376922607e-02) (40, 1.86634972691535949707e-01) (41, 1.29121169447898864746e-01) (42, 4.47759367525577545166e-02) (43, 1.97959685325622558594e+00) (44, 1.83949723839759826660e-01) (45, -2.10368323326110839844e+00) (46, -6.49143159389495849609e-01) (47, -6.54401242733001708984e-01) (48, 1.39572477340698242188e+00) (49, -6.77308559417724609375e-01) (50, 1.51219677925109863281e+00) (51, 2.15663060545921325684e-01) (52, -1.14717996120452880859e+00) (53, -1.64603352546691894531e+00) (54, -2.73347997665405273438e+00) (55, -1.44582092761993408203e+00) (56, -6.21849298477172851562e-01) (57, 3.97134393453598022461e-01) (58, 9.60736870765686035156e-02) (59, -1.14850234985351562500e+00) (60, 3.05423326790332794189e-02) (61, -4.37707126140594482422e-01) (62, 1.28412321209907531738e-01) (63, 2.96044815331697463989e-02) (64, -4.27728861570358276367e-01) (65, -2.53639191389083862305e-01) (66, -4.84279394149780273438e-01) (67, -8.26432883739471435547e-01) (68, -1.69772875308990478516e+00) (69, 8.70143324136734008789e-02) (70, 2.93527215719223022461e-01) (71, 3.22886884212493896484e-01) (72, 1.37448263168334960938e+00) (73, 1.58940568566322326660e-01) (74, 2.25323200225830078125e-01) (75, 3.85135821998119354248e-02) (76, 2.20861077308654785156e+00) (77, 1.42101168632507324219e-01) (78, -3.82046669721603393555e-01) (79, -2.38476805388927459717e-02) (80, 3.10247302055358886719e-01) (81, -4.49894547462463378906e-01) (82, -1.28692996501922607422e+00) (83, 3.47260802984237670898e-01) (84, -2.57845783233642578125e+00) (85, 2.27085918188095092773e-01) (86, 1.05797424912452697754e-01) (87, 2.24795103073120117188e+00) (88, 1.67580023407936096191e-01) (89, 2.37701117992401123047e-01) (90, -6.46062552928924560547e-01) (91, -5.99150769412517547607e-02) (92, 1.67760026454925537109e+00) (93, 1.70307970046997070312e+00) (94, -4.74241048097610473633e-01) (95, 1.63864791393280029297e+00) (96, -3.38869124650955200195e-01) (97, 1.76161825656890869141e-01) (98, -3.76861244440078735352e-01) (99, 2.34604433178901672363e-01) (100, -4.29562628269195556641e-01) (101, -6.06791555881500244141e-01) (102, -5.88208556175231933594e-01) (103, 2.46424150466918945312e+00) (104, 2.35497564077377319336e-01) (0, 7.34306526184082031250e+00) (1, -1.01183593273162841797e-01) (2, 6.94386139512062072754e-02) (3, 8.03562045097351074219e-01) (4, -4.00615483522415161133e-02) (5, -1.25618904829025268555e-01) (6, -3.51567178964614868164e-01) (7, -4.00946766138076782227e-01) (8, 2.78056716918945312500e+00) (9, -2.95619249343872070312e-01) (10, -3.01670908927917480469e-01) (11, 2.60487832129001617432e-02) (12, -2.48542428016662597656e-01) (13, 5.67329406738281250000e-01) (14, -4.03055816888809204102e-01) (15, -4.01903808116912841797e-01) (16, 9.86320078372955322266e-02) (17, -2.92335510253906250000e-01) (18, -2.97927290201187133789e-01) (19, -3.57250064611434936523e-01) (20, -1.36961221694946289062e-01) (21, -2.45775520801544189453e-01) (22, -3.73197853565216064453e-01) (23, -3.66427481174468994141e-01) (24, -3.14051002264022827148e-01) (25, -3.95777791738510131836e-01) (26, 2.34845563769340515137e-01) (27, 7.37517848610877990723e-02) (28, -4.25196051597595214844e-01) (29, 1.17015826702117919922e+00) (30, -2.09051787853240966797e-01) (31, -3.45620751380920410156e-01) (32, -3.47445964813232421875e-01) (33, -3.18161904811859130859e-01) (34, 7.27464377880096435547e-01) (35, -3.92580240964889526367e-01) (36, -2.87088215351104736328e-01) (37, -3.95588725805282592773e-01) (38, -4.14873749017715454102e-01) (39, -2.08754628896713256836e-01) (40, -1.14614644553512334824e-03) (41, -3.61355155706405639648e-01) (42, -2.71036148071289062500e-01) (43, -3.18225026130676269531e-01) (44, -3.08602452278137207031e-01) (45, -3.48760485649108886719e-01) (46, 1.98355495929718017578e+00) (47, -3.43913584947586059570e-01) (48, 6.23025834560394287109e-01) (49, -3.66114497184753417969e-01) (50, -4.34840410947799682617e-01) (51, -3.53312879800796508789e-01) (52, -1.78183883428573608398e-01) (53, 4.23311203718185424805e-01) (54, -2.67596960067749023438e-01) (55, 6.39172375202178955078e-01) (56, 7.66419479623436927795e-03) (57, 2.67995566129684448242e-01) (58, -3.63522231578826904297e-01) (59, 3.99001508951187133789e-01) (60, -4.27447229623794555664e-01) (61, 5.36899626255035400391e-01) (62, -2.58724719285964965820e-01) (63, -2.67719656229019165039e-01) (64, 6.68039941787719726562e+00) (65, -3.47457319498062133789e-01) (66, 7.36260509490966796875e+00) (67, 3.68869161605834960938e+00) (68, 1.58650052547454833984e+00) (69, 2.56680876016616821289e-01) (70, -3.17306011915206909180e-01) (71, -3.53390723466873168945e-01) (72, -3.56038302183151245117e-01) (73, 3.97120928764343261719e+00) (74, -2.49025851488113403320e-01) (75, 5.23599803447723388672e-01) (76, -4.08138602972030639648e-01) (77, -1.39184743165969848633e-01) (78, -2.21781730651855468750e-01) (79, 4.02445983886718750000e+00) (80, -5.21735191345214843750e-01) (81, -3.33946585655212402344e-01) (82, -1.62061929702758789062e-01) (83, -3.12065929174423217773e-01) (84, 3.32090407609939575195e-01) (85, -4.19914305210113525391e-01) (86, -2.81175494194030761719e-01) (87, -2.91973441839218139648e-01) (88, -5.64293153584003448486e-02) (89, -4.21775102615356445312e-01) (90, -4.57586944103240966797e-02) (91, -3.38917896151542663574e-02) (92, -3.61829340457916259766e-01) (93, -3.36692094802856445312e-01) (94, -3.74676525592803955078e-01) (95, -4.80968832969665527344e-01) (96, -4.27889972925186157227e-01) (97, -3.68647605180740356445e-01) (98, -4.65884357690811157227e-01) (99, -3.18536818027496337891e-01) (100, -4.41760629415512084961e-01) (101, -4.69600766897201538086e-01) (102, 3.04284834861755371094e+00) (103, -3.07312458753585815430e-01) (104, 2.41174888610839843750e+00) (0, 6.04109001159667968750e+00) (1, 2.39329889416694641113e-01) (2, 1.51613906025886535645e-01) (3, 5.12952387332916259766e-01) (4, 2.62080043554306030273e-01) (5, -1.80776447057723999023e-01) (6, 1.93347141146659851074e-01) (7, 3.21610242128372192383e-01) (8, 4.16548162698745727539e-01) (9, 1.68720051646232604980e-01) (10, -6.18712930008769035339e-03) (11, 4.19095546007156372070e-01) (12, 1.60031870007514953613e-01) (13, 4.48532611131668090820e-01) (14, 2.81767874956130981445e-01) (15, -1.03213146328926086426e-01) (16, 2.68055051565170288086e-01) (17, 2.76911824941635131836e-01) (18, -1.24742515385150909424e-01) (19, 2.45723202824592590332e-01) (20, 3.39672833681106567383e-01) (21, 8.17243754863739013672e-01) (22, 1.99789807200431823730e-01) (23, -2.40987348556518554688e+00) (24, 2.65050321817398071289e-01) (25, -1.25987648963928222656e+00) (26, 1.79600134491920471191e-01) (27, -5.86074516177177429199e-02) (28, 8.78063663840293884277e-02) (29, 1.12337917089462280273e-01) (30, -6.94643318653106689453e-01) (31, -8.36269557476043701172e-02) (32, 6.13228464126586914062e+00) (33, -1.90448779612779617310e-02) (34, 1.34687864780426025391e+00) (35, 8.26777160167694091797e-01) (36, -8.26938629150390625000e-01) (37, -9.01105284690856933594e-01) (38, -7.08106875419616699219e-01) (39, -7.64801144599914550781e-01) (40, -6.24000489711761474609e-01) (41, -3.58290046453475952148e-01) (42, 1.99031248688697814941e-01) (43, 1.33474573493003845215e-01) (44, 2.82394498586654663086e-01) (45, -7.96138703823089599609e-01) (46, -2.71864281967282295227e-03) (47, -7.97298550605773925781e-01) (48, -4.35823172330856323242e-01) (49, -6.75880074501037597656e-01) (50, -6.96066796779632568359e-01) (51, 2.34850212931632995605e-01) (52, 3.17307382822036743164e-01) (53, -7.61909902095794677734e-01) (54, -4.04620885848999023438e-01) (55, 1.26668795943260192871e-01) (56, 2.07864806056022644043e-01) (57, 4.02287387847900390625e+00) (58, 1.41224816441535949707e-01) (59, 3.62524700164794921875e+00) (60, -1.25032112002372741699e-01) (61, -7.89949119091033935547e-01) (62, 1.50441303849220275879e-01) (63, 3.91702747344970703125e+00) (64, -7.64006614685058593750e-01) (65, 2.14779093861579895020e-01) (66, -1.72982883453369140625e+00) (67, -1.18837997317314147949e-01) (68, 1.55772611498832702637e-01) (69, -7.45916903018951416016e-01) (70, -1.45727723836898803711e-01) (71, 1.35149821639060974121e-01) (72, -7.27862238883972167969e-01) (73, -7.58505880832672119141e-01) (74, 3.19025307893753051758e-01) (75, 1.68720290064811706543e-01) (76, 2.55199640989303588867e-01) (77, 1.71318724751472473145e-01) (78, 2.60439962148666381836e-01) (79, 6.41220271587371826172e-01) (80, 2.11635246872901916504e-01) (81, -4.20457646250724792480e-02) (82, 3.26842106878757476807e-02) (83, -1.60634428262710571289e-01) (84, -8.30778241157531738281e-01) (85, -3.62575173377990722656e-01) (86, 2.42412611842155456543e-01) (87, -7.52887964248657226562e-01) (88, 1.09008349478244781494e-01) (89, 2.26286128163337707520e-01) (90, 2.00542971491813659668e-01) (91, 1.75913795828819274902e-01) (92, 7.25050345063209533691e-02) (93, 9.64329302310943603516e-01) (94, 2.68544644117355346680e-01) (95, 1.33504465222358703613e-01) (96, 2.10049822926521301270e-01) (97, -4.87356752157211303711e-01) (98, -4.34158414602279663086e-01) (99, -4.43050473928451538086e-01) (100, 2.63529926538467407227e-01) (101, -7.20801413059234619141e-01) (102, 5.95124423503875732422e-01) (103, 1.49321269989013671875e+00) (104, 1.77809703350067138672e+00) (0, -1.10776853561401367188e+00) (1, 8.61145198345184326172e-01) (2, -6.32865369319915771484e-01) (3, -7.83128917217254638672e-01) (4, -6.76265656948089599609e-01) (5, -1.34836018085479736328e+00) (6, -7.55850613117218017578e-01) (7, -1.72751128673553466797e-01) (8, -4.19438302516937255859e-01) (9, 1.07564210891723632812e+00) (10, -3.59550535678863525391e-01) (11, -7.40254163742065429688e-01) (12, 1.05417728424072265625e+00) (13, -4.13832992315292358398e-01) (14, -7.01798379421234130859e-01) (15, -7.91700243949890136719e-01) (16, -6.46697163581848144531e-01) (17, -7.15618491172790527344e-01) (18, -2.61662840843200683594e-01) (19, -2.58922398090362548828e-01) (20, 9.89005982875823974609e-01) (21, 9.87175643444061279297e-01) (22, -3.40505063533782958984e-01) (23, -7.20155239105224609375e-01) (24, -7.00395941734313964844e-01) (25, 9.48193848133087158203e-01) (26, -7.89765834808349609375e-01) (27, -8.00739467144012451172e-01) (28, -3.96710693836212158203e-01) (29, -8.06169092655181884766e-01) (30, -9.17655050754547119141e-01) (31, -7.09081828594207763672e-01) (32, -6.96937024593353271484e-01) (33, -6.39639377593994140625e-01) (34, -7.30760097503662109375e-01) (35, -6.67314469814300537109e-01) (36, -6.48790001869201660156e-01) (37, -5.89147508144378662109e-01) (38, -7.06466495990753173828e-01) (39, -7.99302041530609130859e-01) (40, -6.71103179454803466797e-01) (41, 4.08974856138229370117e-01) (42, -6.13853931427001953125e-01) (43, -7.39580512046813964844e-01) (44, -7.65835940837860107422e-01) (45, -2.49665603041648864746e-01) (46, -5.15355944633483886719e-01) (47, -5.11409759521484375000e-01) (48, -6.77080273628234863281e-01) (49, -6.37277424335479736328e-01) (50, 1.03724956512451171875e+00) (51, 1.02382171154022216797e+00) (52, 8.87692868709564208984e-01) (53, 3.55517774820327758789e-01) (54, 1.03968465328216552734e+00) (55, -7.69071042537689208984e-01) (56, -6.37335479259490966797e-01) (57, -6.99929356575012207031e-01) (58, -7.03478336334228515625e-01) (59, -4.07495349645614624023e-01) (60, -7.79188036918640136719e-01) (61, 7.18023836612701416016e-01) (62, 1.07695341110229492188e+00) (63, -6.46119594573974609375e-01) (64, -3.99441450834274291992e-01) (65, -7.37364590167999267578e-01) (66, -7.85255551338195800781e-01) (67, -6.29907727241516113281e-01) (68, -6.20209693908691406250e-01) (69, -7.06318378448486328125e-01) (70, 9.41059648990631103516e-01) (71, 9.93162691593170166016e-01) (72, 1.00859773159027099609e+00) (73, -7.60624408721923828125e-01) (74, -6.98557615280151367188e-01) (75, -8.06558966636657714844e-01) (76, 8.57520401477813720703e-01) (77, -6.77600026130676269531e-01) (78, -7.38494277000427246094e-01) (79, -7.65227019786834716797e-01) (80, 1.08673596382141113281e+00) (81, -6.49509727954864501953e-01) (82, -7.45113849639892578125e-01) (83, -2.49327346682548522949e-01) (84, -6.63114011287689208984e-01) (85, -6.14047527313232421875e-01) (86, -6.42588078975677490234e-01) (87, 1.00552630424499511719e+00) (88, -7.19359457492828369141e-01) (89, -6.22674107551574707031e-01) (90, -6.22736990451812744141e-01) (91, -6.76258504390716552734e-01) (92, 1.10777115821838378906e+00) (93, -4.00326400995254516602e-01) (94, -7.51408517360687255859e-01) (95, -3.30350399017333984375e-01) (96, -6.83195948600769042969e-01) (97, -6.90075516700744628906e-01) (98, -6.40754401683807373047e-01) (99, -7.77761042118072509766e-01) (100, -6.97104275226593017578e-01) (101, 1.05040132999420166016e+00) (102, -7.43354260921478271484e-01) (103, 2.71582937240600585938e+00) (104, 9.00025129318237304688e-01) (0, 2.22844066619873046875e+01) (1, 1.97330152988433837891e+00) (2, 1.99309039115905761719e+00) (3, 2.01370072364807128906e+00) (4, 1.97239065170288085938e+00) (5, 1.98785138130187988281e+00) (6, 2.03807973861694335938e+00) (7, 2.18386268615722656250e+00) (8, 2.09345602989196777344e+00) (9, 2.09789228439331054688e+00) (10, 2.08965802192687988281e+00) (11, 1.96793735027313232422e+00) (12, 2.10980963706970214844e+00) (13, 1.95893549919128417969e+00) (14, 2.01531720161437988281e+00) (15, 2.01994228363037109375e+00) (16, 1.99784457683563232422e+00) (17, 1.99531114101409912109e+00) (18, 2.07928109169006347656e+00) (19, 2.11345839500427246094e+00) (20, 2.09044075012207031250e+00) (21, 2.07234239578247070312e+00) (22, 2.19834113121032714844e+00) (23, 1.95501291751861572266e+00) (24, 1.99856126308441162109e+00) (25, 2.24501585960388183594e+00) (26, 2.02503752708435058594e+00) (27, 1.91762113571166992188e+00) (28, 2.06844997406005859375e+00) (29, 1.95872592926025390625e+00) (30, 2.10353946685791015625e+00) (31, 2.10723829269409179688e+00) (32, 2.00652956962585449219e+00) (33, 1.94781231880187988281e+00) (34, 2.23077273368835449219e+00) (35, 2.01571798324584960938e+00) (36, 2.04436826705932617188e+00) (37, 2.08697724342346191406e+00) (38, 2.11867976188659667969e+00) (39, 2.01336264610290527344e+00) (40, 2.02989578247070312500e+00) (41, 2.04840970039367675781e+00) (42, 2.02183961868286132812e+00) (43, 2.01803064346313476562e+00) (44, 1.95101964473724365234e+00) (45, 2.11883711814880371094e+00) (46, 2.16831398010253906250e+00) (47, 2.25648546218872070312e+00) (48, 1.95092761516571044922e+00) (49, 2.09415507316589355469e+00) (50, 2.10426235198974609375e+00) (51, 2.07877850532531738281e+00) (52, 2.06595921516418457031e+00) (53, 2.12715911865234375000e+00) (54, 2.06902766227722167969e+00) (55, 2.03222990036010742188e+00) (56, 1.95624506473541259766e+00) (57, 1.93434202671051025391e+00) (58, 2.16037344932556152344e+00) (59, 2.06836390495300292969e+00) (60, 2.07383728027343750000e+00) (61, 2.10478162765502929688e+00) (62, 1.98120367527008056641e+00) (63, 2.08616590499877929688e+00) (64, 1.93188250064849853516e+00) (65, 2.01117730140686035156e+00) (66, 2.02210497856140136719e+00) (67, 2.01332163810729980469e+00) (68, 1.95533895492553710938e+00) (69, 1.94717931747436523438e+00) (70, 2.05390143394470214844e+00) (71, 2.11548995971679687500e+00) (72, 1.98055505752563476562e+00) (73, 1.89326441287994384766e+00) (74, 1.95385956764221191406e+00) (75, 1.98999321460723876953e+00) (76, 2.06013488769531250000e+00) (77, 2.02404642105102539062e+00) (78, 2.08439183235168457031e+00) (79, 1.96860158443450927734e+00) (80, 2.36257672309875488281e+00) (81, 1.95887684822082519531e+00) (82, 2.09088349342346191406e+00) (83, 2.05883049964904785156e+00) (84, 2.09080648422241210938e+00) (85, 1.96736478805541992188e+00) (86, 2.09536433219909667969e+00) (87, 2.08000707626342773438e+00) (88, 1.95259618759155273438e+00) (89, 2.03067898750305175781e+00) (90, 1.98261702060699462891e+00) (91, 1.99921131134033203125e+00) (92, 2.11961579322814941406e+00) (93, 2.03783178329467773438e+00) (94, 1.94017565250396728516e+00) (95, 2.12563157081604003906e+00) (96, 2.10671091079711914062e+00) (97, 2.09997534751892089844e+00) (98, 2.01944422721862792969e+00) (99, 2.08841872215270996094e+00) (100, 2.10143113136291503906e+00) (101, 2.06257390975952148438e+00) (102, 1.97796881198883056641e+00) (103, -5.62811493873596191406e-02) (104, -2.17927932739257812500e-01) (0, 2.27751994132995605469e+00) (1, 1.05768132209777832031e+00) (2, 1.04576241970062255859e+00) (3, 7.18635082244873046875e-01) (4, -1.65603846311569213867e-01) (5, 9.69925940036773681641e-01) (6, -3.45964431762695312500e-01) (7, 6.58089160919189453125e-01) (8, 1.00728535652160644531e+00) (9, 6.26271426677703857422e-01) (10, 7.69079267978668212891e-01) (11, 1.04384016990661621094e+00) (12, 6.88560247421264648438e-01) (13, 8.67524981498718261719e-01) (14, 7.70410478115081787109e-01) (15, 7.72391140460968017578e-01) (16, 1.20670521259307861328e+00) (17, 6.86051249504089355469e-01) (18, 8.14848721027374267578e-01) (19, 8.43088030815124511719e-01) (20, 8.84744107723236083984e-01) (21, 9.40180838108062744141e-01) (22, 8.23127388954162597656e-01) (23, -4.88984674215316772461e-01) (24, 8.25985789299011230469e-01) (25, 8.39315056800842285156e-01) (26, 1.14426398277282714844e+00) (27, 1.29576373100280761719e+00) (28, 6.52708470821380615234e-01) (29, 2.06510257720947265625e+00) (30, 7.31444418430328369141e-01) (31, 7.44017362594604492188e-01) (32, 7.33128726482391357422e-01) (33, 6.96665704250335693359e-01) (34, 8.89358103275299072266e-01) (35, -4.91157054901123046875e-01) (36, 7.13392615318298339844e-01) (37, 6.62554442882537841797e-01) (38, -4.16354238986968994141e-01) (39, -3.80145043134689331055e-01) (40, 1.14284050464630126953e+00) (41, 7.66287028789520263672e-01) (42, -4.63754594326019287109e-01) (43, 6.30965709686279296875e-01) (44, -4.23361361026763916016e-01) (45, 7.94405519962310791016e-01) (46, 1.00387942790985107422e+00) (47, 5.85224270820617675781e-01) (48, 6.80775105953216552734e-01) (49, -4.49888318777084350586e-01) (50, -5.75315237045288085938e-01) (51, -4.48086291551589965820e-01) (52, -3.66611152887344360352e-01) (53, 1.51206028461456298828e+00) (54, 7.95271575450897216797e-01) (55, 3.60845476388931274414e-01) (56, 9.94258999824523925781e-01) (57, 2.98674434423446655273e-01) (58, -4.67039138078689575195e-01) (59, 1.91581025719642639160e-01) (60, -4.59745824337005615234e-01) (61, 4.88542109727859497070e-01) (62, -4.08938437700271606445e-01) (63, -3.95171165466308593750e-01) (64, 5.91822719573974609375e+00) (65, -4.28329408168792724609e-01) (66, 7.25739192962646484375e+00) (67, 3.14679074287414550781e+00) (68, 1.42901432514190673828e+00) (69, 1.96658745408058166504e-01) (70, -3.13334137201309204102e-01) (71, -4.85195100307464599609e-01) (72, -4.40853685140609741211e-01) (73, 3.99028921127319335938e+00) (74, -4.37747776508331298828e-01) (75, 3.57264190912246704102e-01) (76, -4.55523818731307983398e-01) (77, -1.12778343260288238525e-01) (78, -3.13898622989654541016e-01) (79, 3.88658785820007324219e+00) (80, 7.09345400333404541016e-01) (81, -5.45211911201477050781e-01) (82, -2.14403182268142700195e-01) (83, -4.30054068565368652344e-01) (84, 7.00550973415374755859e-01) (85, -4.43748414516448974609e-01) (86, -4.00019615888595581055e-01) (87, -5.93754887580871582031e-01) (88, -1.57308816909790039062e-01) (89, -4.96321201324462890625e-01) (90, -1.13715507090091705322e-01) (91, -1.37469157576560974121e-01) (92, -5.89710831642150878906e-01) (93, -5.73249936103820800781e-01) (94, -5.12332558631896972656e-01) (95, -5.01779139041900634766e-01) (96, -5.29767334461212158203e-01) (97, -4.02518391609191894531e-01) (98, -4.15626913309097290039e-01) (99, 5.87404787540435791016e-01) (100, -4.30643767118453979492e-01) (101, -4.79313522577285766602e-01) (102, 3.77532839775085449219e+00) (103, -8.92298877239227294922e-01) (104, 2.65076088905334472656e+00) (0, 1.12803637981414794922e-01) (1, -2.00168982148170471191e-01) (2, -1.82792615890502929688e+00) (3, -1.18491876125335693359e+00) (4, -6.85010671615600585938e-01) (5, 3.14484381675720214844e+00) (6, -1.32734692096710205078e+00) (7, -3.39121246337890625000e+00) (8, 2.25391769409179687500e+00) (9, 5.54851150512695312500e+00) (10, -9.11364734172821044922e-01) (11, 1.16729986667633056641e+00) (12, -9.54710841178894042969e-01) (13, -8.90844106674194335938e-01) (14, -1.22803664207458496094e+00) (15, 2.89846628904342651367e-01) (16, -1.00010118484497070312e+01) (17, -1.03606092929840087891e+00) (18, -1.60769617557525634766e+00) (19, 2.69168758392333984375e+00) (20, 4.98386323451995849609e-01) (21, -2.67974829673767089844e+00) (22, 1.33720445632934570312e+00) (23, 1.05178892612457275391e+00) (24, 2.21270704269409179688e+00) (25, -2.66642427444458007812e+00) (26, -7.42972314357757568359e-01) (27, -6.82984888553619384766e-01) (28, 1.69660937786102294922e+00) (29, -1.47582560777664184570e-01) (30, -7.21153020858764648438e-01) (31, -1.18531990051269531250e+00) (32, -8.39720189571380615234e-01) (33, 2.05691409111022949219e+00) (34, 4.45451140403747558594e-01) (35, 3.28115113079547882080e-02) (36, -2.20241665840148925781e+00) (37, -1.29322558641433715820e-01) (38, -8.11437427997589111328e-01) (39, 2.34275743365287780762e-01) (40, -1.30556201934814453125e+00) (41, 4.34588956832885742188e+00) (42, -6.74540281295776367188e-01) (43, -6.66364312171936035156e-01) (44, -8.19327533245086669922e-01) (45, -7.18727707862854003906e-01) (46, -7.25983440876007080078e-01) (47, -7.69580602645874023438e-01) (48, -5.67258775234222412109e-01) (49, -3.67456823587417602539e-01) (50, 2.31656789779663085938e+00) (51, -6.97650671005249023438e-01) (52, -5.83561182022094726562e-01) (53, -5.34339857101440429688e+00) (54, -7.11437702178955078125e-01) (55, 3.85588550567626953125e+00) (56, -6.56743049621582031250e-01) (57, -6.38044476509094238281e-01) (58, 2.17796897888183593750e+00) (59, -6.70046269893646240234e-01) (60, -6.54346346855163574219e-01) (61, 2.36853146553039550781e+00) (62, -1.04476308822631835938e+00) (63, 2.22454190254211425781e+00) (64, -6.42540335655212402344e-01) (65, -7.60707736015319824219e-01) (66, 8.13711702823638916016e-01) (67, -2.55812525749206542969e-01) (68, 2.23308634757995605469e+00) (69, 2.09793806076049804688e+00) (70, -1.28160572052001953125e+00) (71, 2.15395164489746093750e+00) (72, 2.15566158294677734375e+00) (73, -4.15111362934112548828e-01) (74, -7.74630904197692871094e-01) (75, -8.39794099330902099609e-01) (76, -6.50843083858489990234e-01) (77, -6.56325280666351318359e-01) (78, -6.59008622169494628906e-01) (79, -7.38946318626403808594e-01) (80, -6.89837336540222167969e-01) (81, -1.17774474620819091797e+00) (82, -6.81089699268341064453e-01) (83, 2.14199161529541015625e+00) (84, 1.78070768713951110840e-01) (85, -6.64177596569061279297e-01) (86, 2.21642231941223144531e+00) (87, -7.61327564716339111328e-01) (88, -7.65178978443145751953e-01) (89, 2.09158420562744140625e+00) (90, -6.12900018692016601562e-01) (91, -7.54884719848632812500e-01) (92, 2.17075443267822265625e+00) (93, -7.69337713718414306641e-01) (94, -6.40979468822479248047e-01) (95, -6.71169877052307128906e-01) (96, -7.31637895107269287109e-01) (97, -7.68435120582580566406e-01) (98, 2.21521973609924316406e+00) (99, 2.16408944129943847656e+00) (100, -6.11702859401702880859e-01) (101, 2.12897849082946777344e+00) (102, -2.36450386047363281250e+00) (103, 5.00151443481445312500e+00) (104, 2.66417050361633300781e+00) (0, -1.04584872722625732422e+00) (1, -1.14100134372711181641e+00) (2, 2.12833905220031738281e+00) (3, -3.42795193195343017578e-01) (4, -8.18571507930755615234e-01) (5, 2.09611964225769042969e+00) (6, -8.08225154876708984375e-01) (7, -7.74340867996215820312e-01) (8, 6.03301942348480224609e-01) (9, -7.13667333126068115234e-01) (10, -7.40770876407623291016e-01) (11, -7.88180530071258544922e-01) (12, -8.16550433635711669922e-01) (13, -2.15330705046653747559e-01) (14, -1.09634864330291748047e+00) (15, -7.90617048740386962891e-01) (16, -2.31294080615043640137e-01) (17, -8.00363481044769287109e-01) (18, -8.38875472545623779297e-01) (19, -8.97049009799957275391e-01) (20, -1.06170952320098876953e+00) (21, -7.09010839462280273438e-01) (22, -7.03365921974182128906e-01) (23, -3.54110747575759887695e-01) (24, -7.72347033023834228516e-01) (25, -1.01020050048828125000e+00) (26, 2.18403482437133789062e+00) (27, -6.07734024524688720703e-01) (28, -8.30381512641906738281e-01) (29, 2.21253800392150878906e+00) (30, -8.04667532444000244141e-01) (31, -8.22162210941314697266e-01) (32, 6.83659136295318603516e-01) (33, -6.96541905403137207031e-01) (34, 2.73904323577880859375e-01) (35, -4.94714289903640747070e-01) (36, 2.13373327255249023438e+00) (37, 8.36215376853942871094e-01) (38, 2.14741730690002441406e+00) (39, 2.09801316261291503906e+00) (40, -3.20993334054946899414e-01) (41, -3.92822235822677612305e-01) (42, -2.33990445733070373535e-01) (43, -8.53872418403625488281e-01) (44, -7.97118902206420898438e-01) (45, -8.20647954940795898438e-01) (46, -1.85687348246574401855e-01) (47, -4.47270810604095458984e-01) (48, -7.95925796031951904297e-01) (49, 2.22264218330383300781e+00) (50, -6.89853191375732421875e-01) (51, 1.08710020780563354492e-01) (52, -3.72055530548095703125e-01) (53, -3.33709061145782470703e-01) (54, -7.32363164424896240234e-01) (55, -7.32745766639709472656e-01) (56, 2.13270998001098632812e+00) (57, -5.87531924247741699219e-01) (58, -9.94286715984344482422e-01) (59, -3.81762719154357910156e+00) (60, 2.12625241279602050781e+00) (61, -2.76862072944641113281e+00) (62, -7.65555739402770996094e-01) (63, -7.55559206008911132812e-01) (64, -8.18694710731506347656e-01) (65, -6.83543205261230468750e-01) (66, -2.39833071827888488770e-01) (67, 2.22239017486572265625e+00) (68, -4.17561233043670654297e-01) (69, -4.00679171085357666016e-01) (70, 2.18379378318786621094e+00) (71, -1.44292697310447692871e-01) (72, 2.22652316093444824219e+00) (73, -3.88795554637908935547e-01) (74, 9.57654595375061035156e-01) (75, -2.56672084331512451172e-01) (76, 8.34302365779876708984e-01) (77, 2.05553174018859863281e+00) (78, -2.64337718486785888672e-01) (79, -2.88803160190582275391e-01) (80, 7.95790076255798339844e-01) (81, 3.98367822170257568359e-01) (82, 2.09859085083007812500e+00) (83, -1.25761604309082031250e+00) (84, 9.79666709899902343750e-01) (85, 1.01648616790771484375e+00) (86, 2.18603467941284179688e+00) (87, 8.74742269515991210938e-01) (88, -6.48202955722808837891e-01) (89, -3.52842926979064941406e-01) (90, -1.34918069839477539062e+00) (91, -1.29827737808227539062e-01) (92, -6.66818022727966308594e-01) (93, 2.16659235954284667969e+00) (94, 2.18819904327392578125e+00) (95, -1.21649697422981262207e-01) (96, -2.11750194430351257324e-01) (97, 7.16673612594604492188e-01) (98, 2.03457236289978027344e+00) (99, 8.79734277725219726562e-01) (100, 2.13224339485168457031e+00) (101, 3.51779848337173461914e-01) (102, -8.88202071189880371094e-01) (103, 2.97156643867492675781e+00) (104, -2.65939384698867797852e-01) (0, -2.00334453582763671875e+00) (1, 1.33638918399810791016e+00) (2, 1.09313380718231201172e+00) (3, 7.51695513725280761719e-01) (4, -4.35666441917419433594e-02) (5, 2.00134173035621643066e-01) (6, 7.47836053371429443359e-01) (7, -1.00127601623535156250e+00) (8, 8.39498877525329589844e-01) (9, -5.69823205471038818359e-01) (10, 3.99415582418441772461e-01) (11, 1.14687180519104003906e+00) (12, 7.37004935741424560547e-01) (13, -2.89203071594238281250e+00) (14, 5.84567427635192871094e-01) (15, 6.39970421791076660156e-01) (16, 1.18060326576232910156e+00) (17, 1.09008634090423583984e+00) (18, 6.46323263645172119141e-01) (19, 6.40370130538940429688e-01) (20, -2.17730432748794555664e-01) (21, -5.11694288253784179688e+00) (22, 1.17754447460174560547e+00) (23, 1.78584322333335876465e-01) (24, 7.60673463344573974609e-01) (25, 8.91689062118530273438e-02) (26, 1.04526782035827636719e+00) (27, 1.11005413532257080078e+00) (28, -5.01714289188385009766e-01) (29, 5.98203301429748535156e-01) (30, 1.19783866405487060547e+00) (31, 9.14077579975128173828e-01) (32, -6.01122140884399414062e-01) (33, 7.26702809333801269531e-01) (34, 2.01917514204978942871e-01) (35, -1.52387547492980957031e+00) (36, -2.01099485158920288086e-01) (37, 6.29555761814117431641e-01) (38, 6.69670045375823974609e-01) (39, -4.02505904436111450195e-01) (40, -2.90923267602920532227e-01) (41, 5.25193333625793457031e-01) (42, 6.53180778026580810547e-01) (43, 6.76160931587219238281e-01) (44, -7.96703517436981201172e-01) (45, -7.17915892601013183594e-01) (46, 4.37433624267578125000e+00) (47, 5.92425048351287841797e-01) (48, -2.21715950965881347656e+00) (49, 6.47541224956512451172e-01) (50, 6.05967998504638671875e-01) (51, -5.47428548336029052734e-01) (52, -3.91042292118072509766e-01) (53, 5.56674301624298095703e-01) (54, -2.02643895149230957031e+00) (55, 5.59269189834594726562e-02) (56, 3.52056846022605895996e-02) (57, -2.31781035661697387695e-01) (58, -4.81251060962677001953e-01) (59, -2.11722552776336669922e-01) (60, -5.61909973621368408203e-01) (61, 1.09708614647388458252e-01) (62, -8.99089336395263671875e-01) (63, 7.20718562602996826172e-01) (64, 1.97264993190765380859e+00) (65, -4.98838126659393310547e-01) (66, 2.97583270072937011719e+00) (67, 1.39111304283142089844e+00) (68, 1.78238436579704284668e-01) (69, -1.87046855688095092773e-01) (70, -3.85286062955856323242e-01) (71, 7.07946062088012695312e-01) (72, -5.17217159271240234375e-01) (73, 1.61432945728302001953e+00) (74, -5.10048508644104003906e-01) (75, -1.40265703201293945312e+00) (76, -4.34311568737030029297e-01) (77, -7.85768851637840270996e-02) (78, -4.90134298801422119141e-01) (79, 1.47853004932403564453e+00) (80, -5.28769195079803466797e-01) (81, 7.10278153419494628906e-01) (82, -1.27354949712753295898e-01) (83, 6.22837781906127929688e-01) (84, 9.80741262435913085938e-01) (85, -5.11556029319763183594e-01) (86, -5.21223783493041992188e-01) (87, -5.94968140125274658203e-01) (88, -2.07296848297119140625e-01) (89, 6.94268584251403808594e-01) (90, -1.05518162250518798828e-01) (91, -5.32600134611129760742e-02) (92, -5.97348570823669433594e-01) (93, -5.37172555923461914062e-01) (94, -5.26466190814971923828e-01) (95, -5.06482720375061035156e-01) (96, -5.75063765048980712891e-01) (97, -4.76305425167083740234e-01) (98, -6.27950966358184814453e-01) (99, 6.74182713031768798828e-01) (100, -5.82153558731079101562e-01) (101, -5.90651810169219970703e-01) (102, 3.41777753829956054688e+00) (103, -9.43323612213134765625e-01) (104, 2.58858370780944824219e+00) (0, -1.07105970382690429688e+00) (1, -6.80881440639495849609e-01) (2, 1.81387817859649658203e+00) (3, -1.17439329624176025391e+00) (4, 1.18763482570648193359e+00) (5, -6.99538886547088623047e-01) (6, -1.70585200190544128418e-01) (7, -5.95862925052642822266e-01) (8, -4.07102145254611968994e-02) (9, 1.20015549659729003906e+00) (10, -7.96106398105621337891e-01) (11, 6.84964507818222045898e-02) (12, 1.23023581504821777344e+00) (13, -1.19807124137878417969e+00) (14, -6.57939970493316650391e-01) (15, 6.15221448242664337158e-03) (16, -6.20159089565277099609e-01) (17, 1.77696442604064941406e+00) (18, 3.98117810487747192383e-01) (19, 1.12643790245056152344e+00) (20, -1.18372641503810882568e-01) (21, -7.74103522300720214844e-01) (22, -5.72702623903751373291e-02) (23, -2.03232347965240478516e-01) (24, -2.00876146554946899414e-01) (25, -7.28329896926879882812e-01) (26, 1.87241184711456298828e+00) (27, 1.06405138969421386719e+00) (28, 1.07809102535247802734e+00) (29, 1.03145742416381835938e+00) (30, 1.20057392120361328125e+00) (31, 1.63314759731292724609e+00) (32, 1.78441274166107177734e+00) (33, 1.79459369182586669922e+00) (34, -5.75357341766357421875e+00) (35, -8.52062702178955078125e-01) (36, -6.91555380821228027344e-01) (37, -2.68104761838912963867e-01) (38, 2.52476334571838378906e-02) (39, -8.55570197105407714844e-01) (40, -3.22208404541015625000e-01) (41, -9.84008610248565673828e-01) (42, 1.92426645755767822266e+00) (43, -6.49787724018096923828e-01) (44, 5.83688989281654357910e-02) (45, 1.12970983982086181641e+00) (46, -4.01415616273880004883e-01) (47, 1.12975768744945526123e-01) (48, -1.23186998069286346436e-01) (49, 4.98583242297172546387e-02) (50, 1.67658889293670654297e+00) (51, 1.68457245826721191406e+00) (52, -6.54453933238983154297e-01) (53, -1.15261363983154296875e+00) (54, -7.87564575672149658203e-01) (55, -3.04575586318969726562e+00) (56, 4.99987090006470680237e-03) (57, 7.17679977416992187500e-01) (58, -3.23013544082641601562e-01) (59, -1.93091499805450439453e+00) (60, 1.71813225746154785156e+00) (61, 1.18573892116546630859e+00) (62, 1.13396692276000976562e+00) (63, 6.84856355190277099609e-01) (64, 8.65931689739227294922e-01) (65, 1.14010024070739746094e+00) (66, -4.30731981992721557617e-01) (67, -4.32909727096557617188e+00) (68, 1.90045428276062011719e+00) (69, 1.83870330452919006348e-01) (70, 1.11368215084075927734e+00) (71, 1.22639739513397216797e+00) (72, -8.01138401031494140625e-01) (73, 6.14263176918029785156e-01) (74, -7.80674040317535400391e-01) (75, -1.78096294403076171875e+00) (76, -2.35774540901184082031e+00) (77, 1.83976817131042480469e+00) (78, 1.20505869388580322266e+00) (79, -3.33268332481384277344e+00) (80, -1.54792606830596923828e+00) (81, -9.85406219959259033203e-01) (82, 1.36196658015251159668e-01) (83, -1.01510226726531982422e+00) (84, -1.00150108337402343750e+00) (85, -6.88285529613494873047e-01) (86, -7.23348379135131835938e-01) (87, -6.25991404056549072266e-01) (88, 2.23835129290819168091e-02) (89, -1.45060575008392333984e+00) (90, 2.97417432069778442383e-01) (91, 1.11733332276344299316e-01) (92, -2.44513943791389465332e-01) (93, 8.89541339874267578125e+00) (94, 1.76005077362060546875e+00) (95, 1.82821726799011230469e+00) (96, -6.29561007022857666016e-01) (97, 9.79081690311431884766e-01) (98, 1.16946387290954589844e+00) (99, -3.35874128341674804688e+00) (100, 4.56042259931564331055e-01) (101, 6.66772127151489257812e-01) (102, -8.12890946865081787109e-01) (103, 2.63750386238098144531e+00) (104, 1.94628953933715820312e-01) (0, -1.73309497833251953125e+01) (1, 6.01283729076385498047e-01) (2, -6.90185368061065673828e-01) (3, 5.43605148792266845703e-01) (4, -7.12939679622650146484e-01) (5, -6.41155242919921875000e-01) (6, -7.46268749237060546875e-01) (7, -7.68107831478118896484e-01) (8, -6.11491441726684570312e-01) (9, -4.00128632783889770508e-01) (10, -7.11969316005706787109e-01) (11, -7.04678595066070556641e-01) (12, -7.85370230674743652344e-01) (13, -6.15076005458831787109e-01) (14, -6.08451008796691894531e-01) (15, -6.38517677783966064453e-01) (16, -7.24570751190185546875e-01) (17, -6.92147135734558105469e-01) (18, -7.43027746677398681641e-01) (19, -7.98525393009185791016e-01) (20, 1.04907763004302978516e+00) (21, -4.23934668302536010742e-01) (22, -6.16758167743682861328e-01) (23, -7.35141456127166748047e-01) (24, -6.65904879570007324219e-01) (25, 1.05819153785705566406e+00) (26, -6.62105083465576171875e-01) (27, -6.57360553741455078125e-01) (28, -6.90402269363403320312e-01) (29, -7.21638917922973632812e-01) (30, -7.20990419387817382812e-01) (31, -8.06464672088623046875e-01) (32, -7.22134888172149658203e-01) (33, -7.77350902557373046875e-01) (34, -5.51745176315307617188e-01) (35, -6.31643712520599365234e-01) (36, -6.62748336791992187500e-01) (37, -6.47948503494262695312e-01) (38, -6.96210980415344238281e-01) (39, -6.80238544940948486328e-01) (40, -6.36002063751220703125e-01) (41, -6.38409972190856933594e-01) (42, -6.04724764823913574219e-01) (43, -7.90396869182586669922e-01) (44, -6.49909734725952148438e-01) (45, -6.26068711280822753906e-01) (46, -5.53711771965026855469e-01) (47, -7.14121818542480468750e-01) (48, -6.31600975990295410156e-01) (49, -7.59958326816558837891e-01) (50, -7.80093789100646972656e-01) (51, -6.77265465259552001953e-01) (52, -7.71996974945068359375e-01) (53, -6.49792969226837158203e-01) (54, 1.04574823379516601562e+00) (55, -7.43805646896362304688e-01) (56, -7.10992336273193359375e-01) (57, -6.62581682205200195312e-01) (58, -6.92228019237518310547e-01) (59, -7.77589797973632812500e-01) (60, -7.04509615898132324219e-01) (61, -7.50876128673553466797e-01) (62, -6.86694800853729248047e-01) (63, -7.50419199466705322266e-01) (64, -7.97085165977478027344e-01) (65, -7.56276249885559082031e-01) (66, -6.52928054332733154297e-01) (67, -6.89753115177154541016e-01) (68, -7.15753972530364990234e-01) (69, -6.59093916416168212891e-01) (70, -6.48318409919738769531e-01) (71, -6.48881971836090087891e-01) (72, 1.01656949520111083984e+00) (73, -8.05353760719299316406e-01) (74, -7.00686991214752197266e-01) (75, -6.88315689563751220703e-01) (76, -7.27048277854919433594e-01) (77, -7.04603910446166992188e-01) (78, -5.97588062286376953125e-01) (79, -6.45594179630279541016e-01) (80, 1.05840373039245605469e+00) (81, -7.67758250236511230469e-01) (82, -7.06812202930450439453e-01) (83, -6.23157560825347900391e-01) (84, -5.94351828098297119141e-01) (85, -6.71602308750152587891e-01) (86, -6.29922509193420410156e-01) (87, 1.03711211681365966797e+00) (88, -7.33322739601135253906e-01) (89, -6.66142702102661132812e-01) (90, -6.58139824867248535156e-01) (91, -7.80960142612457275391e-01) (92, 9.78125393390655517578e-01) (93, -6.58320546150207519531e-01) (94, -7.82993674278259277344e-01) (95, -7.23741948604583740234e-01) (96, -7.82374024391174316406e-01) (97, -7.63051033020019531250e-01) (98, -6.88914954662322998047e-01) (99, -6.98860228061676025391e-01) (100, -7.61420845985412597656e-01) (101, 9.47493374347686767578e-01) (102, -7.78822004795074462891e-01) (103, 2.81402897834777832031e+00) (104, 2.61135983467102050781e+00) (0, 2.21725201606750488281e+00) (1, 2.21708035469055175781e+00) (2, 2.16604256629943847656e+00) (3, -6.63803279399871826172e-01) (4, -7.98663258552551269531e-01) (5, -7.23430871963500976562e-01) (6, -7.24159657955169677734e-01) (7, -2.07700872421264648438e+00) (8, -1.10159969329833984375e+00) (9, -8.58422219753265380859e-01) (10, -5.48137605190277099609e-01) (11, -7.51318931579589843750e-01) (12, -7.05275893211364746094e-01) (13, -5.52995324134826660156e-01) (14, -6.69423282146453857422e-01) (15, -6.54625117778778076172e-01) (16, -7.59873330593109130859e-01) (17, 2.06638216972351074219e+00) (18, 2.14747452735900878906e+00) (19, -7.42208063602447509766e-01) (20, 2.90352892875671386719e+00) (21, 4.27760854363441467285e-02) (22, -6.97002232074737548828e-01) (23, 4.18165661394596099854e-02) (24, 2.06403040885925292969e+00) (25, -7.50491380691528320312e-01) (26, -7.63131082057952880859e-01) (27, -7.63914942741394042969e-01) (28, -7.13713884353637695312e-01) (29, -7.75366306304931640625e-01) (30, -6.75302445888519287109e-01) (31, 1.14995455741882324219e+00) (32, -6.66800498962402343750e-01) (33, -6.48223042488098144531e-01) (34, -1.11545705795288085938e+00) (35, -5.45179307460784912109e-01) (36, -6.99723064899444580078e-01) (37, -3.24650096893310546875e+00) (38, -7.57978260517120361328e-01) (39, -7.67256617546081542969e-01) (40, 2.19820332527160644531e+00) (41, -1.00899040699005126953e+00) (42, 2.02546977996826171875e+00) (43, 1.97096765041351318359e+00) (44, 2.13101935386657714844e+00) (45, -7.63176083564758300781e-01) (46, 5.57874262332916259766e-01) (47, -5.24664103984832763672e-01) (48, -2.96457618474960327148e-01) (49, 2.07903289794921875000e+00) (50, -7.49864399433135986328e-01) (51, -8.50839495658874511719e-01) (52, -7.80920207500457763672e-01) (53, -6.52815759181976318359e-01) (54, -6.55322492122650146484e-01) (55, -7.08796322345733642578e-01) (56, -6.65463268756866455078e-01) (57, 1.29996478557586669922e-01) (58, 5.22533476352691650391e-01) (59, -9.21511530876159667969e-01) (60, -6.87457859516143798828e-01) (61, -3.89158934354782104492e-01) (62, -8.27615976333618164062e-01) (63, -7.61323928833007812500e-01) (64, -7.02910184860229492188e-01) (65, -7.77990043163299560547e-01) (66, 1.49967992305755615234e+00) (67, -7.63302743434906005859e-01) (68, -6.23672902584075927734e-01) (69, -6.91786766052246093750e-01) (70, -7.48308777809143066406e-01) (71, -6.75113916397094726562e-01) (72, -8.09071242809295654297e-01) (73, 2.25097632408142089844e+00) (74, -6.80485248565673828125e-01) (75, 2.18279170989990234375e+00) (76, -8.08730483055114746094e-01) (77, -8.08560729026794433594e-01) (78, -8.29436779022216796875e-01) (79, 2.33336710929870605469e+00) (80, -1.15533435344696044922e+00) (81, -8.17431211471557617188e-01) (82, -7.06139385700225830078e-01) (83, -8.33562850952148437500e-01) (84, 2.07470202445983886719e+00) (85, 2.05712151527404785156e+00) (86, -6.52109622955322265625e-01) (87, -6.87862753868103027344e-01) (88, 2.12605309486389160156e+00) (89, 2.16136407852172851562e+00) (90, 2.11001420021057128906e+00) (91, 2.09387516975402832031e+00) (92, -8.07823717594146728516e-01) (93, -8.09460222721099853516e-01) (94, -6.79443120956420898438e-01) (95, 2.06459903717041015625e+00) (96, -7.04486548900604248047e-01) (97, 2.14160370826721191406e+00) (98, -7.76616871356964111328e-01) (99, -6.84958696365356445312e-01) (100, -8.18720400333404541016e-01) (101, -9.52068924903869628906e-01) (102, 2.00730514526367187500e+00) (103, -1.61063954234123229980e-01) (104, 2.76223492622375488281e+00) (0, 1.35786485671997070312e+00) (1, -3.00585836172103881836e-01) (2, -6.76917552947998046875e-01) (3, -5.24275422096252441406e-01) (4, 2.12946271896362304688e+00) (5, 2.12377691268920898438e+00) (6, 2.09344625473022460938e+00) (7, -3.74098634719848632812e+00) (8, 1.25963544845581054688e+00) (9, -9.01597380638122558594e-01) (10, -9.27025437355041503906e-01) (11, -1.62020468711853027344e+00) (12, -7.01848447322845458984e-01) (13, -3.75371277332305908203e-02) (14, -6.75828933715820312500e-01) (15, -8.42038512229919433594e-01) (16, -7.06949770450592041016e-01) (17, 2.04746627807617187500e+00) (18, 5.71042656898498535156e-01) (19, -7.00239241123199462891e-01) (20, -8.48908841609954833984e-01) (21, 3.81914973258972167969e+00) (22, 2.22836232185363769531e+00) (23, -8.75400364398956298828e-01) (24, 2.43562221527099609375e+00) (25, 8.32086920738220214844e-01) (26, -5.53455710411071777344e-01) (27, 2.57587146759033203125e+00) (28, -4.20096969604492187500e+00) (29, -6.32851064205169677734e-01) (30, -5.25965869426727294922e-01) (31, -6.85102939605712890625e-01) (32, -7.76933908462524414062e-01) (33, -1.32598114013671875000e+00) (34, 1.73225712776184082031e+00) (35, -6.73004388809204101562e-01) (36, -8.10038506984710693359e-01) (37, 6.38537406921386718750e-01) (38, -5.22246122360229492188e-01) (39, -6.55644834041595458984e-01) (40, -6.08999729156494140625e-01) (41, 1.95261836051940917969e+00) (42, -5.34832715988159179688e-01) (43, -7.81059145927429199219e-01) (44, -6.36112272739410400391e-01) (45, -8.36149930953979492188e-01) (46, -8.74853432178497314453e-01) (47, -2.13869124650955200195e-01) (48, -2.08601042628288269043e-01) (49, -8.11437249183654785156e-01) (50, -6.93616211414337158203e-01) (51, -6.87929868698120117188e-01) (52, 5.93081533908843994141e-01) (53, 8.23054194450378417969e-01) (54, 2.47765731811523437500e+00) (55, 2.41279453039169311523e-01) (56, -5.30667901039123535156e-01) (57, -4.98309940099716186523e-01) (58, -6.82426393032073974609e-01) (59, -7.80033409595489501953e-01) (60, -6.27077162265777587891e-01) (61, 5.28069019317626953125e-01) (62, 2.13204383850097656250e+00) (63, -5.22777557373046875000e-01) (64, -5.82316279411315917969e-01) (65, -5.15465438365936279297e-01) (66, 2.30230331420898437500e-01) (67, 8.28427672386169433594e-01) (68, -6.15868926048278808594e-01) (69, -8.00282537937164306641e-01) (70, 1.90074503421783447266e+00) (71, 1.88333725929260253906e+00) (72, 1.76332056522369384766e+00) (73, 2.31250524520874023438e+00) (74, 2.40175294876098632812e+00) (75, 2.18597602844238281250e+00) (76, 8.56429219245910644531e-01) (77, 2.26350426673889160156e+00) (78, -5.36479711532592773438e-01) (79, -7.37121403217315673828e-01) (80, -5.85932791233062744141e-01) (81, -7.54537284374237060547e-01) (82, -5.18311798572540283203e-01) (83, 7.70575523376464843750e-01) (84, 1.39095783233642578125e-01) (85, 5.79333186149597167969e-01) (86, -8.18242967128753662109e-01) (87, -7.05257713794708251953e-01) (88, -4.86253887414932250977e-01) (89, -6.21032595634460449219e-01) (90, -6.61267638206481933594e-01) (91, -5.48902094364166259766e-01) (92, -7.67875015735626220703e-01) (93, -5.27774095535278320312e-01) (94, -6.84214234352111816406e-01) (95, -6.75624966621398925781e-01) (96, -6.48312568664550781250e-01) (97, -6.37909710407257080078e-01) (98, -8.03335130214691162109e-01) (99, -8.01612973213195800781e-01) (100, -5.52023112773895263672e-01) (101, -7.31321513652801513672e-01) (102, 9.31668400764465332031e-01) (103, 1.20748937129974365234e+00) (104, 2.63573765754699707031e+00) (0, 2.17234783172607421875e+01) (1, 1.66843426227569580078e+00) (2, 1.66336691379547119141e+00) (3, -2.23870664834976196289e-01) (4, 1.79053080081939697266e+00) (5, 1.66804575920104980469e+00) (6, -1.64583250880241394043e-01) (7, -2.98028826713562011719e-01) (8, 1.75591623783111572266e+00) (9, 